package com.pump.awt.geom.outline.clipart;

import java.awt.*;
import java.awt.geom.AffineTransform;
import java.awt.geom.GeneralPath;

import static java.awt.Color.BLACK;

/**
 * This class has been automatically generated using
 * <a href="http://ebourg.github.io/flamingo-svg-transcoder/">Flamingo SVG transcoder</a>.
 * <p>
 * Source image: https://openclipart.org/detail/306633/ice-cream-12
 * </p>
 */
public class IceCream12 implements javax.swing.Icon {

    /** The width of this icon. */
    private int width;

    /** The height of this icon. */
    private int height;

    /**
     * Creates a new transcoded SVG image.
     */
    public IceCream12() {
        this(1004, 1528);
    }

    /**
     * Creates a new transcoded SVG image.
     */
    public IceCream12(int width, int height) {
        this.width = width;
        this.height = height;
    }

    @Override
    public int getIconHeight() {
        return height;
    }

    @Override
    public int getIconWidth() {
        return width;
    }

    @Override
    public void paintIcon(Component c, Graphics g, int x, int y) {
        double coef = Math.min((double) width / (double) 1004, (double) height / (double) 1528);

        Graphics2D g2d = (Graphics2D) g.create();
        g2d.translate(x, y);
        g2d.setRenderingHint(RenderingHints.KEY_ANTIALIASING, RenderingHints.VALUE_ANTIALIAS_ON);
        g2d.scale(coef, coef);
        paint(g2d);
        g2d.dispose();
    }

    /**
     * Paints the transcoded SVG image on the specified graphics context.
     * 
     * @param g Graphics context.
     */
    private static void paint(Graphics2D g) {
        Shape shape = null;
        
        float origAlpha = 1.0f;
        
        java.util.LinkedList<AffineTransform> transformations = new java.util.LinkedList<AffineTransform>();
        

        // 
        transformations.push(g.getTransform());
        g.transform(new AffineTransform(1.3333334f, 0, 0, 1.3333334f, 0, 0));

        // _0

        // _0_0

        // _0_0_0
        shape = new GeneralPath();
        ((GeneralPath) shape).moveTo(530.16, 32.11);
        ((GeneralPath) shape).curveTo(534.0, 13.800001, 553.37, -0.069999695, 572.13, 5.7700005);
        ((GeneralPath) shape).curveTo(581.27, 9.1, 590.79, 11.27, 600.12, 14.01);
        ((GeneralPath) shape).curveTo(612.43, 17.44, 625.46, 22.42, 635.17, 30.12);
        ((GeneralPath) shape).curveTo(643.13995, 41.800003, 627.23, 46.67, 626.07, 57.120003);
        ((GeneralPath) shape).curveTo(618.87, 82.240005, 610.58, 107.16, 603.03, 132.18);
        ((GeneralPath) shape).curveTo(600.51, 143.73999, 595.92004, 154.95, 592.0, 166.04999);
        ((GeneralPath) shape).curveTo(588.29, 173.29999, 585.65, 181.12, 584.03, 189.09999);
        ((GeneralPath) shape).curveTo(582.61005, 195.35999, 580.23004, 201.51999, 577.08, 207.09999);
        ((GeneralPath) shape).curveTo(570.37, 219.32999, 564.52, 232.54, 560.98004, 246.09);
        ((GeneralPath) shape).curveTo(560.43005, 249.67, 559.49005, 253.31999, 557.06006, 256.12);
        ((GeneralPath) shape).curveTo(548.5801, 272.38998, 543.73004, 290.61, 537.8901, 308.02);
        ((GeneralPath) shape).curveTo(536.9501, 312.19, 536.62006, 316.63998, 534.19006, 320.3);
        ((GeneralPath) shape).curveTo(527.4001, 338.36, 520.2701, 356.50998, 514.98004, 375.06998);
        ((GeneralPath) shape).curveTo(513.41003, 382.72998, 510.49005, 390.15997, 507.05005, 397.14996);
        ((GeneralPath) shape).curveTo(497.76004, 419.44995, 490.77005, 442.87997, 483.98004, 466.07996);
        ((GeneralPath) shape).curveTo(483.29004, 469.96997, 482.39005, 473.93994, 480.07004, 477.21997);
        ((GeneralPath) shape).curveTo(479.26004, 483.47998, 468.91003, 491.64996, 472.78003, 496.82996);
        ((GeneralPath) shape).curveTo(479.99002, 504.46997, 485.20004, 513.86, 490.15002, 523.08997);
        ((GeneralPath) shape).curveTo(492.51, 522.68994, 492.07004, 519.72, 493.07004, 518.05994);
        ((GeneralPath) shape).curveTo(517.46, 456.26993, 540.12006, 394.14993, 561.26, 331.22992);
        ((GeneralPath) shape).curveTo(563.99, 322.03992, 570.14, 313.13992, 569.2, 303.22992);
        ((GeneralPath) shape).curveTo(565.5, 300.82993, 568.52, 297.6299, 571.18, 296.0299);
        ((GeneralPath) shape).curveTo(575.98, 286.9899, 575.93, 275.8599, 580.89996, 266.8699);
        ((GeneralPath) shape).curveTo(586.26996, 253.0999, 590.58997, 238.6999, 595.89996, 224.8299);
        ((GeneralPath) shape).curveTo(598.97, 216.72989, 604.29, 208.47989, 611.72, 203.8799);
        ((GeneralPath) shape).curveTo(624.89996, 196.8999, 639.73, 200.6099, 653.05, 205.0699);
        ((GeneralPath) shape).curveTo(662.27997, 207.4799, 669.8, 214.0099, 677.01996, 219.9399);
        ((GeneralPath) shape).curveTo(693.17993, 226.4299, 684.67993, 241.9599, 680.01996, 253.0899);
        ((GeneralPath) shape).curveTo(678.11993, 260.6399, 675.82996, 268.2799, 672.07996, 275.1199);
        ((GeneralPath) shape).curveTo(666.2999, 289.0599, 660.67, 303.3799, 656.9899, 318.0799);
        ((GeneralPath) shape).curveTo(655.42993, 325.7299, 652.4599, 333.0899, 649.0399, 340.0699);
        ((GeneralPath) shape).curveTo(645.5399, 347.0399, 642.68994, 354.4499, 640.9799, 362.0799);
        ((GeneralPath) shape).curveTo(635.17993, 379.9299, 627.24994, 397.24988, 619.0899, 414.1099);
        ((GeneralPath) shape).curveTo(609.17993, 433.84988, 601.0499, 454.74988, 591.8599, 474.8899);
        ((GeneralPath) shape).curveTo(585.80994, 488.34988, 580.11993, 502.1199, 573.0899, 515.10986);
        ((GeneralPath) shape).curveTo(569.0399, 520.70984, 566.3599, 527.28986, 564.9699, 534.03986);
        ((GeneralPath) shape).curveTo(553.1299, 566.9498, 540.80994, 599.9498, 527.0999, 632.13983);
        ((GeneralPath) shape).curveTo(526.0099, 638.96985, 509.5999, 646.40985, 519.7799, 649.1998);
        ((GeneralPath) shape).curveTo(533.2399, 655.0598, 543.3899, 666.7598, 550.9999, 679.02985);
        ((GeneralPath) shape).curveTo(553.16986, 681.7498, 554.5099, 676.22986, 555.9599, 674.9398);
        ((GeneralPath) shape).curveTo(584.7999, 623.01984, 623.5199, 577.2898, 653.0199, 525.9998);
        ((GeneralPath) shape).curveTo(660.2799, 511.81982, 667.8499, 497.2998, 677.9499, 484.9198);
        ((GeneralPath) shape).curveTo(683.3499, 478.9698, 688.5999, 472.7498, 693.0999, 466.0998);
        ((GeneralPath) shape).curveTo(693.7699, 464.8298, 694.7899, 463.7998, 695.9499, 462.9798);
        ((GeneralPath) shape).curveTo(708.5699, 452.0498, 728.7499, 441.3898, 743.8799, 454.0998);
        ((GeneralPath) shape).curveTo(754.04987, 464.7598, 746.5699, 478.4498, 741.0199, 489.05978);
        ((GeneralPath) shape).curveTo(732.8899, 501.7498, 721.7999, 512.5198, 711.1099, 523.0998);
        ((GeneralPath) shape).curveTo(704.93994, 528.0198, 699.9699, 534.2498, 696.0199, 541.0398);
        ((GeneralPath) shape).curveTo(654.2799, 597.8398, 604.67993, 648.6798, 564.8399, 706.8498);
        ((GeneralPath) shape).curveTo(558.1899, 711.8698, 561.9699, 722.06976, 558.4199, 728.9698);
        ((GeneralPath) shape).curveTo(574.05994, 729.37976, 590.5499, 737.0198, 595.00995, 753.0498);
        ((GeneralPath) shape).curveTo(599.18994, 767.8598, 593.27997, 781.7098, 584.16, 792.9998);
        ((GeneralPath) shape).curveTo(569.12, 809.8598, 533.89996, 812.3698, 525.87, 787.14984);
        ((GeneralPath) shape).curveTo(518.61, 791.9398, 512.66, 798.6998, 504.91998, 802.9498);
        ((GeneralPath) shape).curveTo(496.62, 805.01984, 487.74, 808.8598, 479.37997, 804.8598);
        ((GeneralPath) shape).curveTo(460.02997, 796.4098, 459.96997, 768.9798, 469.83, 753.6498);
        ((GeneralPath) shape).curveTo(441.55, 750.2698, 408.62, 757.0298, 380.31998, 750.43976);
        ((GeneralPath) shape).curveTo(367.21, 769.98975, 356.90997, 791.5298, 341.61996, 809.59973);
        ((GeneralPath) shape).curveTo(328.57996, 824.2597, 306.62997, 824.4497, 289.00995, 819.72974);
        ((GeneralPath) shape).curveTo(268.62994, 816.05975, 242.01994, 826.36975, 227.25995, 806.75977);
        ((GeneralPath) shape).curveTo(221.95995, 803.56976, 225.70995, 794.0898, 221.04994, 792.1598);
        ((GeneralPath) shape).curveTo(194.07994, 799.6198, 169.02994, 815.7398, 140.30994, 815.94977);
        ((GeneralPath) shape).curveTo(115.339935, 809.9098, 90.00993, 818.2898, 64.80994, 818.74976);
        ((GeneralPath) shape).curveTo(61.629936, 820.16974, 54.289936, 817.84973, 53.029938, 822.05975);
        ((GeneralPath) shape).curveTo(56.619938, 838.0798, 53.949936, 854.75977, 57.149937, 870.87976);
        ((GeneralPath) shape).curveTo(67.699936, 932.8898, 111.85994, 986.25977, 168.55994, 1012.3998);
        ((GeneralPath) shape).curveTo(184.13994, 1020.1398, 200.30994, 1026.5698, 216.06993, 1033.8998);
        ((GeneralPath) shape).curveTo(229.35992, 1050.1097, 252.15993, 1049.8397, 271.47992, 1050.4098);
        ((GeneralPath) shape).curveTo(306.8499, 1055.7297, 342.53992, 1059.1598, 375.01993, 1049.1598);
        ((GeneralPath) shape).curveTo(395.20993, 1040.0798, 415.44992, 1029.1998, 438.21994, 1029.0098);
        ((GeneralPath) shape).curveTo(479.26993, 1015.5998, 501.93994, 975.79974, 529.2899, 945.29974);
        ((GeneralPath) shape).curveTo(563.5099, 902.48975, 569.9799, 846.59973, 584.9599, 795.85974);
        ((GeneralPath) shape).curveTo(598.2699, 783.43976, 601.6899, 767.37976, 599.7599, 750.0197);
        ((GeneralPath) shape).lineTo(599.85986, 749.1997);
        ((GeneralPath) shape).curveTo(603.5099, 743.9597, 613.23987, 751.9197, 615.03986, 756.9297);
        ((GeneralPath) shape).curveTo(618.4498, 766.8597, 618.02985, 777.1697, 615.03986, 787.15967);
        ((GeneralPath) shape).curveTo(612.83984, 795.0997, 606.0098, 801.89966, 598.9498, 805.87964);
        ((GeneralPath) shape).curveTo(592.72986, 808.95966, 591.2398, 816.57965, 589.47986, 822.5996);
        ((GeneralPath) shape).curveTo(582.03986, 856.2596, 571.76984, 889.3696, 557.85986, 920.9096);
        ((GeneralPath) shape).curveTo(547.53986, 942.5296, 537.32983, 965.1996, 521.09985, 983.1096);
        ((GeneralPath) shape).curveTo(515.89984, 987.6596, 511.64984, 993.12964, 507.87985, 998.88965);
        ((GeneralPath) shape).curveTo(507.65985, 999.1697, 507.21985, 999.7297, 506.99985, 1000.00964);
        ((GeneralPath) shape).curveTo(492.34985, 1013.7897, 478.75986, 1029.0996, 460.96985, 1039.0197);
        ((GeneralPath) shape).curveTo(464.45984, 1043.5297, 468.63986, 1047.7296, 473.93985, 1050.0497);
        ((GeneralPath) shape).curveTo(479.47986, 1053.9996, 486.91986, 1058.4697, 488.02985, 1065.8896);
        ((GeneralPath) shape).curveTo(489.95984, 1080.7797, 498.86984, 1093.8197, 499.13983, 1108.9796);
        ((GeneralPath) shape).curveTo(498.74982, 1120.4396, 493.70984, 1132.5796, 483.04984, 1138.0496);
        ((GeneralPath) shape).curveTo(475.15982, 1142.0496, 465.28983, 1142.7196, 459.17984, 1135.2996);
        ((GeneralPath) shape).curveTo(406.25983, 1141.0896, 352.94983, 1137.0195, 299.93982, 1141.0996);
        ((GeneralPath) shape).curveTo(263.96982, 1138.5696, 226.45981, 1142.7496, 192.02982, 1129.8696);
        ((GeneralPath) shape).curveTo(155.63982, 1120.5796, 167.34982, 1066.6597, 194.00981, 1053.0796);
        ((GeneralPath) shape).curveTo(195.91982, 1052.2096, 199.0498, 1051.8696, 199.10982, 1049.2196);
        ((GeneralPath) shape).curveTo(185.77982, 1042.3896, 172.13982, 1036.1996, 159.05981, 1028.9095);
        ((GeneralPath) shape).curveTo(149.7398, 1024.0396, 141.81981, 1016.8895, 133.82982, 1010.14954);
        ((GeneralPath) shape).curveTo(115.34982, 995.10956, 97.42982, 979.28955, 81.95982, 961.09955);
        ((GeneralPath) shape).curveTo(74.02982, 952.26953, 67.819824, 941.86957, 63.049824, 931.03955);
        ((GeneralPath) shape).curveTo(60.679825, 924.9495, 58.87982, 918.4495, 54.909824, 913.15955);
        ((GeneralPath) shape).curveTo(52.489822, 910.01953, 51.869823, 906.0095, 50.889824, 902.27954);
        ((GeneralPath) shape).curveTo(44.809822, 878.3096, 38.029823, 854.29956, 37.819824, 829.35956);
        ((GeneralPath) shape).curveTo(31.499825, 829.8796, 24.999825, 830.5795, 19.019825, 827.9996);
        ((GeneralPath) shape).curveTo(11.729825, 825.67957, 6.9998245, 818.3796, 5.9998245, 811.0696);
        ((GeneralPath) shape).curveTo(3.3598244, 800.53955, 3.8498244, 789.61957, 8.849825, 779.85956);
        ((GeneralPath) shape).curveTo(16.699825, 767.51953, 30.459826, 758.83954, 44.94982, 757.03955);
        ((GeneralPath) shape).curveTo(69.80982, 754.17957, 95.10982, 750.1995, 120.08982, 753.20953);
        ((GeneralPath) shape).curveTo(121.04982, 760.27954, 110.40982, 756.73956, 105.68982, 758.64954);
        ((GeneralPath) shape).curveTo(81.28982, 761.4495, 55.92982, 762.3795, 32.97982, 771.9395);
        ((GeneralPath) shape).curveTo(17.789822, 777.02954, 15.929821, 798.83954, 25.72982, 809.51953);
        ((GeneralPath) shape).curveTo(54.77982, 813.96954, 86.14982, 811.8895, 115.95982, 807.02954);
        ((GeneralPath) shape).curveTo(114.749825, 802.6395, 111.83982, 798.97955, 109.969826, 794.8795);
        ((GeneralPath) shape).curveTo(109.18983, 789.7295, 109.109825, 784.46954, 109.069824, 779.2995);
        ((GeneralPath) shape).curveTo(110.82983, 774.1095, 112.29983, 768.7595, 115.139824, 764.0195);
        ((GeneralPath) shape).curveTo(118.20982, 761.4695, 120.62982, 755.19946, 125.57983, 756.5195);
        ((GeneralPath) shape).curveTo(124.55983, 768.3595, 114.819824, 779.13947, 118.749825, 791.80945);
        ((GeneralPath) shape).curveTo(126.109825, 819.38947, 161.57983, 808.8995, 180.22983, 800.22943);
        ((GeneralPath) shape).curveTo(197.44983, 792.87946, 219.86983, 791.61945, 231.45982, 776.25946);
        ((GeneralPath) shape).curveTo(242.34982, 776.1495, 235.71982, 792.12946, 239.58983, 798.2795);
        ((GeneralPath) shape).curveTo(254.82983, 810.2695, 275.3698, 799.6195, 292.69983, 804.13947);
        ((GeneralPath) shape).curveTo(314.49982, 814.42944, 338.8098, 799.9795, 348.88983, 779.93945);
        ((GeneralPath) shape).curveTo(355.07983, 768.35944, 364.96982, 759.22943, 370.19983, 747.07947);
        ((GeneralPath) shape).curveTo(372.60983, 741.79944, 375.16983, 733.81946, 366.87982, 733.92944);
        ((GeneralPath) shape).curveTo(363.68982, 722.22943, 366.40982, 710.36945, 370.06982, 699.18945);
        ((GeneralPath) shape).curveTo(381.75983, 661.36945, 357.88983, 623.67944, 333.76984, 596.2894);
        ((GeneralPath) shape).curveTo(304.41983, 562.93945, 257.15985, 557.5394, 215.41983, 558.37946);
        ((GeneralPath) shape).curveTo(174.51984, 563.56946, 133.05983, 577.79944, 102.76983, 606.81946);
        ((GeneralPath) shape).curveTo(80.43983, 627.0995, 56.299828, 650.43945, 51.66983, 681.75946);
        ((GeneralPath) shape).curveTo(49.659832, 701.57947, 46.46983, 723.9795, 58.71983, 741.30945);
        ((GeneralPath) shape).curveTo(60.34983, 744.61945, 67.97983, 752.5195, 60.19983, 753.4094);
        ((GeneralPath) shape).curveTo(53.59983, 752.0294, 46.639828, 748.7194, 43.81983, 742.2194);
        ((GeneralPath) shape).curveTo(28.109833, 710.98944, 30.239832, 673.2894, 46.839832, 642.8494);
        ((GeneralPath) shape).curveTo(67.51984, 611.2594, 96.60983, 583.85944, 130.06984, 566.2194);
        ((GeneralPath) shape).curveTo(143.16985, 561.3194, 116.24984, 560.5394, 114.22984, 552.8294);
        ((GeneralPath) shape).curveTo(95.14984, 519.7894, 136.89984, 470.1694, 172.92984, 487.1694);
        ((GeneralPath) shape).curveTo(180.98984, 494.9994, 192.51984, 497.7094, 200.09984, 505.9494);
        ((GeneralPath) shape).curveTo(207.43983, 514.0694, 205.12984, 527.5294, 200.14984, 536.1794);
        ((GeneralPath) shape).curveTo(196.00984, 540.52936, 190.41985, 543.0794, 186.10985, 547.1894);
        ((GeneralPath) shape).curveTo(208.07985, 542.6694, 230.76985, 541.4994, 252.93985, 544.6994);
        ((GeneralPath) shape).curveTo(253.24985, 539.0594, 253.34985, 533.3494, 255.06985, 527.9294);
        ((GeneralPath) shape).curveTo(256.28986, 523.1794, 258.97986, 518.8694, 262.86984, 515.89935);
        ((GeneralPath) shape).curveTo(267.92984, 511.66934, 273.01984, 507.32935, 276.89984, 501.94934);
        ((GeneralPath) shape).curveTo(278.47983, 499.83936, 280.55984, 498.18933, 282.80984, 496.85934);
        ((GeneralPath) shape).curveTo(297.69986, 488.33936, 311.87985, 478.57935, 327.70984, 471.79935);
        ((GeneralPath) shape).curveTo(327.20984, 467.46936, 322.04984, 464.95935, 318.88983, 462.16934);
        ((GeneralPath) shape).curveTo(317.87982, 461.46933, 317.20984, 460.41934, 316.78983, 459.29935);
        ((GeneralPath) shape).curveTo(309.3098, 443.07935, 308.85983, 424.31934, 315.98984, 407.93933);
        ((GeneralPath) shape).curveTo(317.23984, 403.80933, 320.11984, 400.12933, 323.80984, 397.89932);
        ((GeneralPath) shape).curveTo(333.88983, 392.2293, 345.04984, 388.26932, 356.78986, 388.9193);
        ((GeneralPath) shape).curveTo(359.48987, 388.83932, 362.41986, 388.51932, 364.81985, 390.0393);
        ((GeneralPath) shape).curveTo(373.65985, 395.29932, 384.60986, 393.2493, 393.99985, 397.0293);
        ((GeneralPath) shape).curveTo(400.10983, 401.3193, 403.73984, 407.5693, 407.12985, 413.9793);
        ((GeneralPath) shape).curveTo(407.82986, 414.9493, 408.15985, 416.0293, 408.10986, 417.23932);
        ((GeneralPath) shape).curveTo(407.98987, 424.54932, 408.08987, 431.92932, 406.98987, 439.18933);
        ((GeneralPath) shape).curveTo(406.72986, 441.72934, 406.18988, 444.38934, 404.12988, 446.11932);
        ((GeneralPath) shape).curveTo(385.36987, 458.61932, 423.1399, 463.73932, 415.0199, 445.12933);
        ((GeneralPath) shape).curveTo(415.1499, 444.02933, 415.4699, 442.97934, 415.9799, 441.98932);
        ((GeneralPath) shape).curveTo(417.1999, 436.3293, 424.55988, 426.93933, 419.05988, 422.0993);
        ((GeneralPath) shape).curveTo(418.95987, 416.29932, 430.54987, 407.7193, 425.02988, 399.1893);
        ((GeneralPath) shape).curveTo(433.10986, 388.6493, 431.4199, 373.7093, 437.86987, 362.8693);
        ((GeneralPath) shape).curveTo(449.0399, 335.94928, 455.01987, 306.3493, 462.0099, 277.8993);
        ((GeneralPath) shape).curveTo(462.9199, 273.1193, 463.37988, 268.1193, 465.9499, 263.8793);
        ((GeneralPath) shape).curveTo(469.3599, 255.5593, 471.52988, 246.7893, 472.96988, 237.9293);
        ((GeneralPath) shape).curveTo(475.46988, 228.61931, 476.8899, 218.7393, 480.9799, 209.9593);
        ((GeneralPath) shape).curveTo(493.0199, 174.36931, 502.4799, 137.8793, 511.30988, 101.319305);
        ((GeneralPath) shape).curveTo(514.84985, 90.36931, 518.09985, 79.2693, 519.90985, 67.889305);
        ((GeneralPath) shape).curveTo(520.47986, 63.809303, 521.03986, 59.669304, 522.89984, 55.939304);
        ((GeneralPath) shape).curveTo(525.84985, 48.199303, 528.33984, 40.239304, 530.15985, 32.1593);
        ((GeneralPath) shape).moveTo(554.1799, 30.3693);
        ((GeneralPath) shape).curveTo(541.83984, 54.2093, 537.0799, 81.429306, 528.90985, 106.7693);
        ((GeneralPath) shape).curveTo(538.26984, 105.5893, 547.64984, 104.029305, 556.91986, 102.499306);
        ((GeneralPath) shape).curveTo(568.9399, 99.529305, 580.48987, 94.86931, 592.6998, 92.75931);
        ((GeneralPath) shape).curveTo(592.3598, 90.01931, 593.1998, 86.46931, 591.89984, 84.249306);
        ((GeneralPath) shape).curveTo(580.6799, 86.6293, 569.9398, 90.71931, 558.9398, 93.89931);
        ((GeneralPath) shape).curveTo(551.2498, 95.54931, 541.4498, 101.51931, 535.02985, 97.12931);
        ((GeneralPath) shape).curveTo(542.3699, 88.90931, 557.60986, 89.49931, 566.8099, 85.07931);
        ((GeneralPath) shape).curveTo(574.8699, 82.86931, 582.79987, 80.18931, 590.85986, 77.96931);
        ((GeneralPath) shape).curveTo(610.02985, 78.94931, 604.1999, 51.789307, 609.85986, 39.429306);
        ((GeneralPath) shape).curveTo(592.28986, 34.539307, 570.9299, 16.609306, 554.1799, 30.369305);
        ((GeneralPath) shape).moveTo(552.97986, 108.78931);
        ((GeneralPath) shape).curveTo(544.5599, 111.319305, 531.13983, 110.069305, 526.01984, 116.08931);
        ((GeneralPath) shape).curveTo(533.9998, 117.68931, 547.21985, 114.20931, 555.97986, 114.16931);
        ((GeneralPath) shape).curveTo(567.8199, 108.86931, 592.73987, 115.15931, 594.76984, 98.95931);
        ((GeneralPath) shape).curveTo(580.1298, 98.77931, 567.4898, 107.939316, 552.97986, 108.789314);
        ((GeneralPath) shape).moveTo(587.39984, 114.40932);
        ((GeneralPath) shape).curveTo(580.9398, 115.67931, 574.40985, 116.649315, 568.02985, 118.22932);
        ((GeneralPath) shape).curveTo(570.83984, 122.73932, 598.33984, 122.37932, 587.39984, 114.40932);
        ((GeneralPath) shape).moveTo(556.71985, 125.469315);
        ((GeneralPath) shape).curveTo(546.10986, 131.54932, 524.2598, 121.149315, 520.83984, 132.93932);
        ((GeneralPath) shape).curveTo(536.4498, 129.53932, 552.7598, 129.56932, 568.16986, 125.88931);
        ((GeneralPath) shape).curveTo(565.72986, 123.12931, 560.02985, 126.12931, 556.71985, 125.469315);
        ((GeneralPath) shape).moveTo(564.1998, 135.12932);
        ((GeneralPath) shape).curveTo(559.1198, 135.49931, 553.9898, 135.85931, 549.0498, 137.09932);
        ((GeneralPath) shape).curveTo(538.8398, 138.84932, 527.8998, 140.33932, 518.1198, 141.94933);
        ((GeneralPath) shape).curveTo(509.4198, 171.92932, 496.6998, 200.73932, 489.12982, 231.07932);
        ((GeneralPath) shape).curveTo(497.38983, 228.39932, 508.1798, 227.11931, 514.6098, 225.15932);
        ((GeneralPath) shape).curveTo(526.1698, 220.50932, 542.1698, 222.30931, 551.0098, 212.87932);
        ((GeneralPath) shape).curveTo(553.82983, 213.05931, 557.88983, 213.40932, 558.9998, 210.05931);
        ((GeneralPath) shape).curveTo(569.1998, 185.3993, 576.2998, 159.48932, 583.9098, 134.04932);
        ((GeneralPath) shape).curveTo(579.69977, 132.55931, 568.0798, 133.15932, 564.19977, 135.12932);
        ((GeneralPath) shape).moveTo(618.7098, 217.80933);
        ((GeneralPath) shape).curveTo(601.19977, 237.56932, 596.9598, 265.29932, 590.0898, 289.99933);
        ((GeneralPath) shape).curveTo(595.4098, 289.53934, 601.0198, 288.61932, 605.9098, 287.20932);
        ((GeneralPath) shape).curveTo(616.8098, 283.7293, 628.6098, 282.92932, 639.06976, 278.17932);
        ((GeneralPath) shape).curveTo(659.66974, 274.4793, 655.31976, 247.95932, 665.8898, 234.03932);
        ((GeneralPath) shape).curveTo(654.3398, 223.00932, 635.31976, 209.55933, 618.7098, 217.80933);
        ((GeneralPath) shape).moveTo(539.3998, 226.10933);
        ((GeneralPath) shape).curveTo(532.05975, 228.42934, 524.5198, 230.02933, 517.11975, 232.10933);
        ((GeneralPath) shape).curveTo(504.52975, 236.63933, 483.69977, 234.74933, 483.24976, 252.11932);
        ((GeneralPath) shape).curveTo(496.83975, 250.33932, 510.17975, 246.59932, 523.6398, 243.92932);
        ((GeneralPath) shape).curveTo(520.37976, 234.83932, 534.6698, 239.30933, 539.10974, 237.75932);
        ((GeneralPath) shape).curveTo(548.66974, 237.90932, 553.5797, 229.75932, 554.10974, 221.34932);
        ((GeneralPath) shape).curveTo(549.54974, 222.88931, 541.94977, 223.25932, 539.3997, 226.10931);
        ((GeneralPath) shape).moveTo(544.1197, 244.37932);
        ((GeneralPath) shape).curveTo(530.6897, 249.83932, 516.65967, 253.57932, 502.6797, 257.30933);
        ((GeneralPath) shape).curveTo(507.01968, 259.43933, 515.1197, 257.26932, 515.9197, 263.24933);
        ((GeneralPath) shape).curveTo(517.0397, 268.65933, 507.84967, 269.87933, 507.38968, 272.98932);
        ((GeneralPath) shape).curveTo(517.0697, 271.29932, 527.7897, 270.92932, 536.6897, 267.8193);
        ((GeneralPath) shape).curveTo(538.3597, 260.5593, 546.3897, 248.3293, 544.1197, 244.3793);
        ((GeneralPath) shape).moveTo(480.53967, 264.0993);
        ((GeneralPath) shape).curveTo(471.19968, 274.2193, 491.81967, 267.1393, 496.10968, 265.9593);
        ((GeneralPath) shape).curveTo(491.8097, 263.4093, 485.5297, 264.72928, 480.53967, 264.0993);
        ((GeneralPath) shape).moveTo(527.51965, 280.4793);
        ((GeneralPath) shape).curveTo(507.93967, 284.64932, 488.62964, 290.7293, 470.28964, 298.3093);
        ((GeneralPath) shape).curveTo(464.63965, 317.6293, 458.47964, 337.2893, 453.29965, 356.5393);
        ((GeneralPath) shape).curveTo(473.26965, 353.7793, 490.98965, 341.1093, 511.07965, 338.42932);
        ((GeneralPath) shape).curveTo(517.99963, 320.49933, 522.89966, 301.83932, 529.93964, 283.95932);
        ((GeneralPath) shape).curveTo(531.2296, 281.20932, 530.96967, 278.87933, 527.51965, 280.4793);
        ((GeneralPath) shape).moveTo(630.0497, 289.0093);
        ((GeneralPath) shape).curveTo(620.7497, 291.9393, 611.3497, 294.48932, 601.89966, 296.92932);
        ((GeneralPath) shape).curveTo(592.1097, 296.87933, 581.43964, 301.21933, 582.90967, 312.81934);
        ((GeneralPath) shape).curveTo(588.9397, 311.88934, 595.26965, 310.70935, 600.9997, 309.36932);
        ((GeneralPath) shape).curveTo(611.3697, 306.79932, 621.6397, 303.81934, 631.9797, 301.11932);
        ((GeneralPath) shape).curveTo(642.38965, 300.8593, 645.95966, 291.1093, 647.2397, 282.34933);
        ((GeneralPath) shape).curveTo(641.70966, 284.94934, 635.1197, 286.41934, 630.0497, 289.00934);
        ((GeneralPath) shape).moveTo(635.4797, 309.45935);
        ((GeneralPath) shape).curveTo(624.1197, 313.29935, 612.14966, 315.24936, 600.88965, 319.28934);
        ((GeneralPath) shape).curveTo(611.2396, 321.63934, 623.7996, 317.59933, 634.74963, 315.95935);
        ((GeneralPath) shape).curveTo(637.13965, 315.26935, 640.0496, 307.53934, 635.4796, 309.45935);
        ((GeneralPath) shape).moveTo(604.6196, 324.52936);
        ((GeneralPath) shape).curveTo(590.6596, 329.18936, 570.20966, 321.42935, 572.1196, 343.89935);
        ((GeneralPath) shape).curveTo(578.95966, 342.47934, 588.4696, 341.26935, 593.76965, 338.00934);
        ((GeneralPath) shape).curveTo(586.88965, 328.17935, 616.19965, 325.38934, 604.6196, 324.52933);
        ((GeneralPath) shape).moveTo(627.50964, 328.43933);
        ((GeneralPath) shape).curveTo(619.71967, 330.54932, 611.77966, 332.21933, 604.20966, 335.06934);
        ((GeneralPath) shape).curveTo(606.50964, 337.93933, 608.62964, 343.03934, 604.20966, 345.30933);
        ((GeneralPath) shape).curveTo(592.6697, 349.77933, 579.6697, 351.18933, 568.33966, 355.30933);
        ((GeneralPath) shape).curveTo(562.76965, 371.8893, 556.31964, 388.30933, 550.94965, 404.94934);
        ((GeneralPath) shape).curveTo(569.15967, 401.38934, 587.44965, 396.34933, 605.77966, 395.02933);
        ((GeneralPath) shape).curveTo(615.64966, 373.9193, 623.1797, 351.77933, 630.7397, 329.77933);
        ((GeneralPath) shape).curveTo(631.71967, 327.28934, 628.90967, 328.30933, 627.5097, 328.43933);
        ((GeneralPath) shape).moveTo(503.4797, 349.37933);
        ((GeneralPath) shape).curveTo(488.0397, 355.67932, 472.73972, 362.85934, 456.2297, 366.05933);
        ((GeneralPath) shape).curveTo(467.5697, 373.26932, 482.8597, 358.1093, 496.3497, 362.69934);
        ((GeneralPath) shape).curveTo(503.1697, 367.35934, 510.6397, 348.00934, 503.4797, 349.37933);
        ((GeneralPath) shape).moveTo(493.5397, 370.57935);
        ((GeneralPath) shape).curveTo(483.8997, 371.55936, 472.7297, 374.18933, 465.0797, 379.17935);
        ((GeneralPath) shape).curveTo(475.70972, 377.50934, 486.3497, 375.76935, 496.98972, 374.20935);
        ((GeneralPath) shape).curveTo(501.3597, 373.09937, 498.18973, 366.18936, 493.5397, 370.57935);
        ((GeneralPath) shape).moveTo(468.6597, 382.53934);
        ((GeneralPath) shape).curveTo(460.3897, 384.52933, 451.9897, 385.67935, 443.5597, 386.69934);
        ((GeneralPath) shape).curveTo(439.7897, 397.43933, 455.7197, 386.99933, 460.6997, 386.66934);
        ((GeneralPath) shape).curveTo(462.95972, 386.66934, 480.1297, 381.50934, 468.6597, 382.53934);
        ((GeneralPath) shape).moveTo(492.4597, 382.42935);
        ((GeneralPath) shape).curveTo(476.07968, 389.72934, 458.8797, 395.20935, 441.44968, 399.34937);
        ((GeneralPath) shape).curveTo(437.9597, 401.62936, 437.6797, 406.79938, 437.24966, 410.65936);
        ((GeneralPath) shape).curveTo(444.22968, 409.68936, 450.86966, 406.27936, 457.33966, 403.41937);
        ((GeneralPath) shape).curveTo(448.91965, 390.68936, 483.01965, 398.5594, 490.13965, 397.06937);
        ((GeneralPath) shape).curveTo(489.89966, 393.16937, 498.06964, 382.18936, 492.45966, 382.42935);
        ((GeneralPath) shape).moveTo(338.69965, 462.44934);
        ((GeneralPath) shape).curveTo(359.00964, 463.84933, 388.07965, 458.58936, 393.58966, 434.41934);
        ((GeneralPath) shape).curveTo(395.25967, 416.65933, 378.28967, 398.29935, 359.92966, 399.88934);
        ((GeneralPath) shape).curveTo(326.36966, 390.45935, 307.54965, 447.52936, 338.69965, 462.44934);
        ((GeneralPath) shape).moveTo(482.89966, 404.06934);
        ((GeneralPath) shape).curveTo(466.38965, 408.86932, 450.51965, 415.88934, 434.15967, 421.15933);
        ((GeneralPath) shape).curveTo(428.07968, 432.39932, 426.90967, 446.28934, 417.73965, 455.84933);
        ((GeneralPath) shape).curveTo(415.35965, 459.02933, 421.13965, 459.15933, 423.08966, 459.90933);
        ((GeneralPath) shape).curveTo(437.66965, 462.68933, 449.05966, 473.44934, 460.74966, 480.76935);
        ((GeneralPath) shape).curveTo(465.22968, 468.97934, 469.68967, 457.13934, 473.89966, 445.26935);
        ((GeneralPath) shape).curveTo(479.17966, 431.07935, 483.54965, 416.53934, 488.01965, 402.07935);
        ((GeneralPath) shape).curveTo(486.21967, 402.43933, 484.36966, 402.90933, 482.89966, 404.06934);
        ((GeneralPath) shape).moveTo(598.4896, 403.39932);
        ((GeneralPath) shape).curveTo(582.63965, 409.4493, 566.1496, 413.68933, 549.6096, 417.42932);
        ((GeneralPath) shape).curveTo(548.0196, 417.8593, 546.4296, 419.31934, 547.1196, 421.08932);
        ((GeneralPath) shape).curveTo(564.31964, 418.92932, 581.3396, 415.40933, 598.4896, 412.8293);
        ((GeneralPath) shape).curveTo(599.87964, 410.02933, 604.9696, 401.4793, 598.4896, 403.39932);
        ((GeneralPath) shape).moveTo(595.18964, 419.4793);
        ((GeneralPath) shape).curveTo(583.77966, 423.04932, 569.08966, 425.2493, 560.1096, 430.0693);
        ((GeneralPath) shape).curveTo(571.24963, 426.51932, 594.4796, 432.2593, 595.18964, 419.4793);
        ((GeneralPath) shape).moveTo(586.4196, 435.3593);
        ((GeneralPath) shape).curveTo(576.6396, 437.86932, 566.6096, 439.48932, 557.12964, 443.04932);
        ((GeneralPath) shape).curveTo(569.99963, 460.52933, 537.43964, 461.61932, 527.81964, 466.80933);
        ((GeneralPath) shape).curveTo(518.62964, 484.48932, 508.19965, 502.34933, 501.39963, 521.39935);
        ((GeneralPath) shape).curveTo(518.5996, 517.03937, 536.3396, 513.32935, 553.74963, 511.98935);
        ((GeneralPath) shape).curveTo(565.81964, 486.58936, 577.3496, 460.65936, 588.80963, 434.87933);
        ((GeneralPath) shape).curveTo(588.20966, 434.99933, 587.01965, 435.23932, 586.4196, 435.35934);
        ((GeneralPath) shape).moveTo(538.6996, 437.13934);
        ((GeneralPath) shape).curveTo(536.1396, 442.05936, 533.73956, 447.37933, 533.11957, 452.93933);
        ((GeneralPath) shape).curveTo(538.6996, 452.53934, 543.7696, 449.85934, 549.0096, 448.11932);
        ((GeneralPath) shape).curveTo(543.2196, 442.68933, 552.7896, 432.17932, 538.6996, 437.1393);
        ((GeneralPath) shape).moveTo(702.0596, 481.08932);
        ((GeneralPath) shape).curveTo(675.8096, 510.3893, 657.8296, 546.45935, 633.17957, 577.2193);
        ((GeneralPath) shape).curveTo(609.53955, 610.0093, 582.42957, 640.4293, 563.23956, 676.24927);
        ((GeneralPath) shape).curveTo(558.6996, 681.60925, 552.92957, 691.04926, 558.84955, 696.9493);
        ((GeneralPath) shape).curveTo(568.1896, 683.0893, 577.6296, 669.23926, 588.1896, 656.24927);
        ((GeneralPath) shape).curveTo(611.6496, 627.3993, 638.1296, 600.6893, 658.0796, 569.1293);
        ((GeneralPath) shape).curveTo(676.2296, 534.8793, 705.0796, 508.11926, 728.4896, 477.63928);
        ((GeneralPath) shape).curveTo(731.0996, 474.19928, 733.0496, 469.82928, 731.51965, 465.4293);
        ((GeneralPath) shape).curveTo(719.4296, 462.97928, 709.21967, 472.6893, 702.05963, 481.0893);
        ((GeneralPath) shape).moveTo(382.45963, 468.4893);
        ((GeneralPath) shape).curveTo(370.21964, 475.72928, 356.02963, 477.06927, 342.2296, 478.16928);
        ((GeneralPath) shape).curveTo(310.1596, 493.40927, 271.55963, 510.8993, 259.42963, 546.6393);
        ((GeneralPath) shape).curveTo(313.01962, 556.73926, 356.76962, 598.3993, 378.01962, 647.05927);
        ((GeneralPath) shape).curveTo(382.35962, 642.7693, 384.71964, 635.92926, 390.0096, 632.02924);
        ((GeneralPath) shape).curveTo(410.3396, 619.1392, 434.7496, 625.30927, 456.98962, 628.03925);
        ((GeneralPath) shape).curveTo(469.7896, 630.67926, 484.11963, 634.80927, 497.51962, 637.85925);
        ((GeneralPath) shape).curveTo(507.05963, 619.60925, 503.57962, 596.74927, 497.0996, 578.1993);
        ((GeneralPath) shape).curveTo(487.6896, 574.36926, 500.04962, 563.2293, 490.2096, 559.5193);
        ((GeneralPath) shape).curveTo(491.4696, 550.3493, 487.3696, 541.1693, 481.8896, 534.0793);
        ((GeneralPath) shape).curveTo(476.12958, 520.5193, 467.6996, 507.8693, 458.2096, 496.62927);
        ((GeneralPath) shape).curveTo(440.7096, 474.47928, 410.2896, 462.42926, 382.4596, 468.48926);
        ((GeneralPath) shape).moveTo(152.5996, 494.47925);
        ((GeneralPath) shape).curveTo(131.65959, 499.57925, 115.98959, 523.7593, 120.82959, 544.91925);
        ((GeneralPath) shape).curveTo(130.41959, 558.47925, 150.58958, 553.8793, 163.3496, 548.3292);
        ((GeneralPath) shape).curveTo(174.9896, 540.35925, 196.32959, 538.41925, 193.8396, 519.78925);
        ((GeneralPath) shape).curveTo(185.7596, 515.73926, 173.7496, 513.55927, 171.9996, 502.89923);
        ((GeneralPath) shape).curveTo(173.6196, 492.57922, 158.5796, 494.42923, 152.59961, 494.47922);
        ((GeneralPath) shape).moveTo(546.50964, 522.4392);
        ((GeneralPath) shape).curveTo(529.6796, 526.8492, 512.5397, 530.2092, 496.17963, 536.2292);
        ((GeneralPath) shape).curveTo(496.04962, 538.4892, 497.59964, 540.3692, 499.05963, 541.9292);
        ((GeneralPath) shape).curveTo(513.7396, 537.1392, 530.2796, 538.1192, 544.81964, 535.1492);
        ((GeneralPath) shape).curveTo(545.58966, 531.43915, 553.49963, 520.9292, 546.50964, 522.43915);
        ((GeneralPath) shape).moveTo(529.6196, 557.5892);
        ((GeneralPath) shape).curveTo(525.4896, 558.1492, 521.32965, 558.43915, 517.2396, 559.1592);
        ((GeneralPath) shape).curveTo(517.49963, 563.56915, 526.4296, 562.1092, 526.93964, 567.3592);
        ((GeneralPath) shape).curveTo(528.25964, 576.2792, 517.33966, 577.0092, 511.25964, 578.3792);
        ((GeneralPath) shape).curveTo(512.1196, 588.6692, 513.43964, 600.6192, 515.8497, 610.02924);
        ((GeneralPath) shape).curveTo(522.76965, 592.39923, 529.76965, 574.7592, 535.81964, 556.8292);
        ((GeneralPath) shape).lineTo(529.6196, 557.58923);
        ((GeneralPath) shape).moveTo(385.5996, 657.6792);
        ((GeneralPath) shape).curveTo(381.73962, 680.0592, 389.3196, 704.2092, 378.3996, 725.5492);
        ((GeneralPath) shape).curveTo(373.22958, 734.4892, 387.75958, 732.6592, 390.6896, 739.3792);
        ((GeneralPath) shape).curveTo(419.1596, 744.4992, 449.10962, 737.9192, 477.7796, 741.96924);
        ((GeneralPath) shape).curveTo(485.5596, 742.03925, 486.2896, 751.64923, 482.5796, 756.5692);
        ((GeneralPath) shape).curveTo(476.0496, 765.77924, 473.4196, 780.4192, 480.6096, 789.8292);
        ((GeneralPath) shape).curveTo(491.71957, 796.27924, 504.03958, 787.47925, 513.1596, 781.1992);
        ((GeneralPath) shape).curveTo(522.80963, 777.21924, 525.8296, 763.21924, 535.7296, 761.1392);
        ((GeneralPath) shape).curveTo(547.99963, 765.14923, 532.24963, 779.2092, 538.9596, 786.9992);
        ((GeneralPath) shape).curveTo(548.5296, 801.6892, 569.7696, 792.2892, 576.9696, 780.0792);
        ((GeneralPath) shape).curveTo(584.2796, 771.78925, 589.2296, 753.4592, 576.8696, 746.9392);
        ((GeneralPath) shape).curveTo(557.4696, 736.8792, 534.6796, 745.14923, 514.0996, 741.1192);
        ((GeneralPath) shape).curveTo(511.5896, 740.4292, 510.2896, 737.8492, 511.1196, 735.4192);
        ((GeneralPath) shape).curveTo(521.8696, 730.1592, 534.5496, 732.2592, 545.7796, 729.6492);
        ((GeneralPath) shape).curveTo(545.8596, 723.36914, 548.4796, 717.7192, 550.2896, 711.8592);
        ((GeneralPath) shape).curveTo(549.0196, 706.32916, 549.37964, 696.70917, 546.0996, 693.26917);
        ((GeneralPath) shape).curveTo(542.9796, 683.24915, 536.2596, 674.63916, 528.24963, 667.98914);
        ((GeneralPath) shape).curveTo(520.1196, 660.01917, 509.89963, 652.9091, 498.74963, 650.2291);
        ((GeneralPath) shape).curveTo(487.68964, 643.3891, 471.15964, 641.0391, 457.70963, 638.2191);
        ((GeneralPath) shape).curveTo(457.26962, 638.1891, 456.37964, 638.1291, 455.93964, 638.0891);
        ((GeneralPath) shape).curveTo(434.20963, 632.9191, 393.79962, 627.5991, 385.59964, 657.67914);
        ((GeneralPath) shape).moveTo(439.58963, 1045.4491);
        ((GeneralPath) shape).curveTo(426.69962, 1052.7191, 410.31964, 1047.8091, 396.96964, 1054.9991);
        ((GeneralPath) shape).curveTo(341.85962, 1071.3792, 281.43964, 1066.6292, 227.44963, 1050.3992);
        ((GeneralPath) shape).curveTo(222.84962, 1055.6992, 223.79964, 1066.2491, 232.38963, 1065.5792);
        ((GeneralPath) shape).curveTo(309.64963, 1079.4792, 388.59964, 1070.4092, 466.06964, 1063.1293);
        ((GeneralPath) shape).curveTo(458.32965, 1057.0293, 450.41965, 1045.6593, 439.58963, 1045.4492);
        ((GeneralPath) shape).moveTo(204.10963, 1118.8892);
        ((GeneralPath) shape).curveTo(248.85963, 1129.1191, 295.52963, 1126.9791, 341.05963, 1125.0791);
        ((GeneralPath) shape).curveTo(380.02963, 1121.5491, 419.51962, 1124.1691, 458.16962, 1117.0691);
        ((GeneralPath) shape).curveTo(463.13962, 1115.2091, 471.2596, 1122.8591, 473.0696, 1115.1191);
        ((GeneralPath) shape).curveTo(485.3496, 1101.7491, 468.7196, 1084.5991, 471.7296, 1069.3391);
        ((GeneralPath) shape).curveTo(424.66962, 1070.1791, 378.0896, 1080.7592, 330.7896, 1078.2891);
        ((GeneralPath) shape).curveTo(318.2196, 1077.629, 305.6196, 1078.129, 293.0396, 1077.9591);
        ((GeneralPath) shape).curveTo(267.95963, 1073.7091, 240.09961, 1076.0791, 216.36961, 1064.4991);
        ((GeneralPath) shape).curveTo(190.64961, 1064.0991, 174.89961, 1111.3291, 204.10962, 1118.8892);
        ((GeneralPath) shape).closePath();

        g.setPaint(BLACK);
        g.fill(shape);

        // _0_0_1
        shape = new GeneralPath();
        ((GeneralPath) shape).moveTo(572.13, 5.77);
        ((GeneralPath) shape).curveTo(581.69, 6.9, 591.78, 9.23, 600.12, 14.01);
        ((GeneralPath) shape).curveTo(590.79, 11.27, 581.27, 9.1, 572.13, 5.7700005);
        ((GeneralPath) shape).closePath();

        g.setPaint(new Color(0x878787));
        g.fill(shape);

        // _0_0_2
        shape = new GeneralPath();
        ((GeneralPath) shape).moveTo(554.18, 30.32);
        ((GeneralPath) shape).curveTo(570.93, 16.56, 592.29, 34.489998, 609.86, 39.38);
        ((GeneralPath) shape).curveTo(604.2, 51.74, 610.02997, 78.9, 590.86, 77.92);
        ((GeneralPath) shape).curveTo(599.64996, 74.52, 591.6, 61.67, 585.73, 58.989998);
        ((GeneralPath) shape).curveTo(574.45996, 54.789997, 569.51, 67.45, 566.82996, 75.81);
        ((GeneralPath) shape).curveTo(566.0499, 78.56, 561.55994, 85.189995, 566.80994, 85.03);
        ((GeneralPath) shape).curveTo(557.6099, 89.45, 542.36993, 88.86, 535.0299, 97.08);
        ((GeneralPath) shape).curveTo(541.4499, 101.47, 551.2499, 95.5, 558.9399, 93.85);
        ((GeneralPath) shape).curveTo(557.6199, 96.49, 555.3799, 99.42, 556.91986, 102.45);
        ((GeneralPath) shape).curveTo(547.64984, 103.979996, 538.26984, 105.53999, 528.90985, 106.71999);
        ((GeneralPath) shape).curveTo(537.07983, 81.37999, 541.83984, 54.159992, 554.1799, 30.319992);
        ((GeneralPath) shape).closePath();

        g.setPaint(new Color(0xB97752));
        g.fill(shape);

        // _0_0_3
        shape = new GeneralPath();
        ((GeneralPath) shape).moveTo(522.9, 55.89);
        ((GeneralPath) shape).curveTo(525.36005, 48.53, 524.93005, 37.82, 530.16003, 32.11);
        ((GeneralPath) shape).curveTo(528.34, 40.190002, 525.85004, 48.15, 522.9, 55.89);
        ((GeneralPath) shape).closePath();

        g.setPaint(new Color(0x8A8A8A));
        g.fill(shape);

        // _0_0_4
        shape = new GeneralPath();
        ((GeneralPath) shape).moveTo(603.03, 132.18);
        ((GeneralPath) shape).curveTo(610.58, 107.15999, 618.87006, 82.23999, 626.07, 57.119995);
        ((GeneralPath) shape).curveTo(620.83, 82.70999, 612.77, 108.06999, 603.03, 132.18);
        ((GeneralPath) shape).closePath();

        g.fill(shape);

        // _0_0_5
        shape = new GeneralPath();
        ((GeneralPath) shape).moveTo(566.83, 75.81);
        ((GeneralPath) shape).curveTo(569.51, 67.45, 574.46, 54.789997, 585.73004, 58.989998);
        ((GeneralPath) shape).curveTo(591.60004, 61.67, 599.65, 74.52, 590.86005, 77.92);
        ((GeneralPath) shape).curveTo(582.80005, 80.14, 574.87006, 82.82, 566.81006, 85.03);
        ((GeneralPath) shape).curveTo(561.56006, 85.19, 566.05005, 78.56, 566.8301, 75.81);
        ((GeneralPath) shape).closePath();

        g.setPaint(new Color(0xF6E1D7));
        g.fill(shape);

        // _0_0_6
        shape = new GeneralPath();
        ((GeneralPath) shape).moveTo(511.31, 101.27);
        ((GeneralPath) shape).curveTo(512.58, 89.88, 516.46, 78.56, 519.91, 67.84);
        ((GeneralPath) shape).curveTo(518.1, 79.21999, 514.85, 90.31999, 511.30997, 101.27);
        ((GeneralPath) shape).closePath();

        g.setPaint(new Color(0x8E8D8D));
        g.fill(shape);

        // _0_0_7
        shape = new GeneralPath();
        ((GeneralPath) shape).moveTo(591.9, 84.2);
        ((GeneralPath) shape).curveTo(593.2, 86.42, 592.36005, 89.96999, 592.7, 92.71);
        ((GeneralPath) shape).curveTo(580.49, 94.82, 568.94, 99.479996, 556.92004, 102.45);
        ((GeneralPath) shape).curveTo(555.38007, 99.42, 557.62006, 96.49, 558.94006, 93.85);
        ((GeneralPath) shape).curveTo(569.94006, 90.67, 580.68005, 86.58, 591.9001, 84.2);
        ((GeneralPath) shape).closePath();

        g.setPaint(new Color(0xF3DFD5));
        g.fill(shape);

        // _0_0_8
        shape = new GeneralPath();
        ((GeneralPath) shape).moveTo(552.98, 108.74);
        ((GeneralPath) shape).curveTo(567.49, 107.89, 580.13, 98.729996, 594.76996, 98.909996);
        ((GeneralPath) shape).curveTo(592.7399, 115.11, 567.81995, 108.81999, 555.98, 114.119995);
        ((GeneralPath) shape).curveTo(551.70996, 115.28999, 549.18, 111.649994, 552.98, 108.74);
        ((GeneralPath) shape).closePath();

        g.setPaint(new Color(0xF2DED3));
        g.fill(shape);

        // _0_0_9
        shape = new GeneralPath();
        ((GeneralPath) shape).moveTo(480.98, 209.91);
        ((GeneralPath) shape).curveTo(481.69, 171.79001, 497.27002, 135.47, 511.31, 101.270004);
        ((GeneralPath) shape).curveTo(502.48, 137.83, 493.02, 174.32, 480.98, 209.91);
        ((GeneralPath) shape).closePath();

        g.setPaint(new Color(0xDC8D62));
        g.fill(shape);

        // _0_0_10
        shape = new GeneralPath();
        ((GeneralPath) shape).moveTo(526.02, 116.04);
        ((GeneralPath) shape).curveTo(531.14, 110.020004, 544.56, 111.270004, 552.98004, 108.74);
        ((GeneralPath) shape).curveTo(549.18005, 111.65, 551.71, 115.29, 555.98004, 114.119995);
        ((GeneralPath) shape).curveTo(547.22003, 114.159996, 534.00006, 117.63999, 526.02, 116.03999);
        ((GeneralPath) shape).closePath();

        g.setPaint(new Color(0xAF704F));
        g.fill(shape);

        // _0_0_11
        shape = new GeneralPath();
        ((GeneralPath) shape).moveTo(587.4, 114.36);
        ((GeneralPath) shape).curveTo(598.34, 122.33, 570.84, 122.69, 568.03, 118.18);
        ((GeneralPath) shape).curveTo(574.41003, 116.6, 580.94, 115.63, 587.4, 114.36);
        ((GeneralPath) shape).closePath();

        g.setPaint(new Color(0xDEA897));
        g.fill(shape);

        // _0_0_12
        shape = new GeneralPath();
        ((GeneralPath) shape).moveTo(556.72, 125.42);
        ((GeneralPath) shape).curveTo(560.02997, 126.08, 565.73, 123.08, 568.17, 125.84);
        ((GeneralPath) shape).curveTo(552.76, 129.51999, 536.45, 129.48999, 520.83997, 132.89);
        ((GeneralPath) shape).curveTo(524.25995, 121.1, 546.11, 131.5, 556.72, 125.42);
        ((GeneralPath) shape).closePath();

        g.setPaint(new Color(0x986748));
        g.fill(shape);

        // _0_0_13
        shape = new GeneralPath();
        ((GeneralPath) shape).moveTo(564.2, 135.08);
        ((GeneralPath) shape).curveTo(568.08, 133.11, 579.7, 132.51, 583.91003, 134.0);
        ((GeneralPath) shape).curveTo(576.30005, 159.44, 569.2, 185.35, 559.00006, 210.01001);
        ((GeneralPath) shape).curveTo(557.8901, 213.36002, 553.8301, 213.01001, 551.0101, 212.83002);
        ((GeneralPath) shape).curveTo(562.1501, 187.47002, 570.9501, 161.01001, 578.1501, 134.34003);
        ((GeneralPath) shape).curveTo(573.4801, 134.46002, 568.8401, 134.87003, 564.2001, 135.08003);
        ((GeneralPath) shape).closePath();

        g.setPaint(new Color(0xDC8D62));
        g.fill(shape);

        // _0_0_14
        shape = new GeneralPath();
        ((GeneralPath) shape).moveTo(564.2, 135.08);
        ((GeneralPath) shape).curveTo(568.84, 134.87, 573.48004, 134.46, 578.15, 134.34);
        ((GeneralPath) shape).curveTo(570.95, 161.01, 562.15, 187.47, 551.01, 212.82999);
        ((GeneralPath) shape).curveTo(542.17, 222.25998, 526.17, 220.45999, 514.61, 225.10999);
        ((GeneralPath) shape).curveTo(501.43, 226.38998, 510.65997, 208.30998, 514.26, 202.22998);
        ((GeneralPath) shape).curveTo(528.67, 184.17998, 536.23, 162.08998, 543.23, 140.41998);
        ((GeneralPath) shape).curveTo(543.94995, 137.95998, 547.07, 137.98999, 549.05, 137.04999);
        ((GeneralPath) shape).curveTo(553.99, 135.80998, 559.12, 135.44998, 564.2, 135.07999);
        ((GeneralPath) shape).closePath();

        g.setPaint(new Color(0xF7E3D8));
        g.fill(shape);

        // _0_0_15
        shape = new GeneralPath();
        ((GeneralPath) shape).moveTo(518.12, 141.9);
        ((GeneralPath) shape).curveTo(527.9, 140.29, 538.83997, 138.79999, 549.05, 137.04999);
        ((GeneralPath) shape).curveTo(547.07, 137.98999, 543.95, 137.95999, 543.23, 140.41998);
        ((GeneralPath) shape).curveTo(536.23, 162.08998, 528.67, 184.17998, 514.26, 202.22998);
        ((GeneralPath) shape).curveTo(510.66, 208.30998, 501.43002, 226.38998, 514.61, 225.10999);
        ((GeneralPath) shape).curveTo(508.18, 227.06999, 497.38998, 228.34999, 489.12997, 231.02998);
        ((GeneralPath) shape).curveTo(496.69998, 200.68999, 509.41998, 171.87997, 518.12, 141.9);
        ((GeneralPath) shape).closePath();

        g.setPaint(new Color(0xB97652));
        g.fill(shape);

        // _0_0_16
        shape = new GeneralPath();
        ((GeneralPath) shape).moveTo(584.03, 189.1);
        ((GeneralPath) shape).curveTo(585.65, 181.12001, 588.29004, 173.3, 592.0, 166.05);
        ((GeneralPath) shape).curveTo(590.15, 173.91, 588.24, 182.15001, 584.03, 189.1);
        ((GeneralPath) shape).closePath();

        g.setPaint(new Color(0x8E8E8E));
        g.fill(shape);

        // _0_0_17
        shape = new GeneralPath();
        ((GeneralPath) shape).moveTo(611.72, 203.88);
        ((GeneralPath) shape).curveTo(623.27997, 194.38, 641.39996, 197.44, 653.05, 205.07);
        ((GeneralPath) shape).curveTo(639.73, 200.61, 624.89996, 196.90001, 611.72, 203.88);
        ((GeneralPath) shape).closePath();

        g.setPaint(new Color(0x90908F));
        g.fill(shape);

        // _0_0_18
        shape = new GeneralPath();
        ((GeneralPath) shape).moveTo(560.98, 246.09);
        ((GeneralPath) shape).curveTo(564.51996, 232.54, 570.37, 219.33, 577.07996, 207.09999);
        ((GeneralPath) shape).curveTo(572.39996, 220.24998, 566.93994, 233.62, 560.98, 246.09);
        ((GeneralPath) shape).closePath();

        g.setPaint(new Color(0x8C8C8C));
        g.fill(shape);

        // _0_0_19
        shape = new GeneralPath();
        ((GeneralPath) shape).moveTo(618.71, 217.76);
        ((GeneralPath) shape).curveTo(635.32, 209.51, 654.34, 222.95999, 665.89, 233.98999);
        ((GeneralPath) shape).curveTo(655.32, 247.90999, 659.67004, 274.43, 639.07, 278.13);
        ((GeneralPath) shape).curveTo(643.92, 269.53, 644.86, 258.79, 643.19, 249.23001);
        ((GeneralPath) shape).curveTo(638.72003, 236.67001, 617.69, 237.22002, 614.54, 250.64001);
        ((GeneralPath) shape).curveTo(612.73, 262.23, 603.88, 277.76, 605.91, 287.16);
        ((GeneralPath) shape).curveTo(601.01996, 288.57, 595.41, 289.49, 590.08997, 289.95);
        ((GeneralPath) shape).curveTo(596.95996, 265.25, 601.19995, 237.52002, 618.70996, 217.76001);
        ((GeneralPath) shape).closePath();

        g.setPaint(new Color(0xD4875E));
        g.fill(shape);

        // _0_0_20
        shape = new GeneralPath();
        ((GeneralPath) shape).moveTo(677.02, 219.94);
        ((GeneralPath) shape).curveTo(694.84, 223.58, 687.97003, 243.62, 680.02, 253.09);
        ((GeneralPath) shape).curveTo(684.68, 241.95999, 693.18, 226.43, 677.02, 219.94);
        ((GeneralPath) shape).closePath();

        g.setPaint(new Color(0x888888));
        g.fill(shape);

        // _0_0_21
        shape = new GeneralPath();
        ((GeneralPath) shape).moveTo(539.4, 226.06);
        ((GeneralPath) shape).curveTo(541.95, 223.20999, 549.55005, 222.84, 554.11005, 221.3);
        ((GeneralPath) shape).curveTo(553.58, 229.71, 548.67004, 237.86, 539.11005, 237.71);
        ((GeneralPath) shape).curveTo(534.67004, 239.26001, 520.38007, 234.79001, 523.6401, 243.88);
        ((GeneralPath) shape).curveTo(510.18008, 246.55, 496.8401, 250.29001, 483.25006, 252.07);
        ((GeneralPath) shape).curveTo(483.70007, 234.70001, 504.53006, 236.59001, 517.12006, 232.06001);
        ((GeneralPath) shape).curveTo(510.88007, 243.65001, 552.00006, 232.64001, 539.4001, 226.06001);
        ((GeneralPath) shape).closePath();

        g.setPaint(new Color(0xB97652));
        g.fill(shape);

        // _0_0_22
        shape = new GeneralPath();
        ((GeneralPath) shape).moveTo(580.9, 266.87);
        ((GeneralPath) shape).curveTo(584.62, 252.72, 588.24005, 237.31999, 595.9, 224.82999);
        ((GeneralPath) shape).curveTo(590.59, 238.69998, 586.27, 253.09999, 580.9, 266.87);
        ((GeneralPath) shape).closePath();

        g.setPaint(new Color(0x8E8E8E));
        g.fill(shape);

        // _0_0_23
        shape = new GeneralPath();
        ((GeneralPath) shape).moveTo(517.12, 232.06);
        ((GeneralPath) shape).curveTo(524.52, 229.98, 532.06, 228.38, 539.4, 226.06);
        ((GeneralPath) shape).curveTo(552.0, 232.64, 510.88004, 243.65, 517.12, 232.06);
        ((GeneralPath) shape).closePath();

        g.setPaint(new Color(0xF3DED3));
        g.fill(shape);

        // _0_0_24
        shape = new GeneralPath();
        ((GeneralPath) shape).moveTo(465.95, 263.83);
        ((GeneralPath) shape).curveTo(468.56, 255.66998, 468.16, 244.65999, 472.97, 237.87999);
        ((GeneralPath) shape).curveTo(471.53, 246.73999, 469.36002, 255.51, 465.95, 263.83);
        ((GeneralPath) shape).closePath();

        g.setPaint(new Color(0x8E8E8E));
        g.fill(shape);

        // _0_0_25
        shape = new GeneralPath();
        ((GeneralPath) shape).moveTo(614.54, 250.64);
        ((GeneralPath) shape).curveTo(617.69, 237.22, 638.72, 236.67, 643.19, 249.23);
        ((GeneralPath) shape).curveTo(644.86, 258.79, 643.92, 269.53, 639.07, 278.13);
        ((GeneralPath) shape).curveTo(628.61, 282.88, 616.81, 283.68, 605.91003, 287.16);
        ((GeneralPath) shape).curveTo(603.88, 277.76, 612.73004, 262.23, 614.54004, 250.64);
        ((GeneralPath) shape).closePath();

        g.setPaint(new Color(0xF3E0D5));
        g.fill(shape);

        // _0_0_26
        shape = new GeneralPath();
        ((GeneralPath) shape).moveTo(544.12, 244.33);
        ((GeneralPath) shape).curveTo(546.39, 248.28, 538.36, 260.51, 536.69, 267.77);
        ((GeneralPath) shape).curveTo(527.79, 270.87997, 517.07, 271.25, 507.39, 272.94);
        ((GeneralPath) shape).curveTo(507.85, 269.83002, 517.04004, 268.61002, 515.92004, 263.2);
        ((GeneralPath) shape).curveTo(515.12006, 257.22, 507.02005, 259.39, 502.68005, 257.26);
        ((GeneralPath) shape).curveTo(516.66003, 253.53001, 530.69006, 249.79001, 544.12006, 244.33002);
        ((GeneralPath) shape).closePath();

        g.setPaint(new Color(0xDD8D61));
        g.fill(shape);

        // _0_0_27
        shape = new GeneralPath();
        ((GeneralPath) shape).moveTo(537.89, 308.02);
        ((GeneralPath) shape).curveTo(543.73004, 290.61, 548.58, 272.38998, 557.06, 256.12);
        ((GeneralPath) shape).curveTo(550.82, 273.35, 545.65, 291.69, 537.89, 308.02);
        ((GeneralPath) shape).closePath();

        g.setPaint(new Color(0x8D8D8D));
        g.fill(shape);

        // _0_0_28
        shape = new GeneralPath();
        ((GeneralPath) shape).moveTo(480.54, 264.05);
        ((GeneralPath) shape).curveTo(485.53, 264.68, 491.81, 263.36, 496.11002, 265.90997);
        ((GeneralPath) shape).curveTo(491.82, 267.08997, 471.2, 274.16998, 480.54, 264.05);
        ((GeneralPath) shape).closePath();

        g.setPaint(new Color(0xD2865D));
        g.fill(shape);

        // _0_0_29
        shape = new GeneralPath();
        ((GeneralPath) shape).moveTo(656.99, 318.08);
        ((GeneralPath) shape).curveTo(660.67, 303.37997, 666.3, 289.06, 672.08, 275.12);
        ((GeneralPath) shape).curveTo(667.51, 289.43, 663.38, 304.75, 656.99, 318.08);
        ((GeneralPath) shape).closePath();

        g.setPaint(new Color(0x8F8F8F));
        g.fill(shape);

        // _0_0_30
        shape = new GeneralPath();
        ((GeneralPath) shape).moveTo(437.87, 362.82);
        ((GeneralPath) shape).curveTo(447.22, 334.91, 452.63, 305.59, 462.01, 277.85);
        ((GeneralPath) shape).curveTo(455.02002, 306.30002, 449.04, 335.9, 437.87, 362.82);
        ((GeneralPath) shape).closePath();

        g.setPaint(new Color(0x8D8D8D));
        g.fill(shape);

        // _0_0_31
        shape = new GeneralPath();
        ((GeneralPath) shape).moveTo(527.52, 280.43);
        ((GeneralPath) shape).curveTo(530.97003, 278.83, 531.23004, 281.16, 529.94, 283.91);
        ((GeneralPath) shape).curveTo(522.9, 301.79, 518.0, 320.45, 511.08002, 338.38);
        ((GeneralPath) shape).curveTo(490.99002, 341.06, 473.27002, 353.73, 453.30002, 356.49);
        ((GeneralPath) shape).curveTo(458.48, 337.24, 464.64, 317.58, 470.29, 298.25998);
        ((GeneralPath) shape).curveTo(488.63, 290.68, 507.94, 284.59998, 527.52, 280.43);
        ((GeneralPath) shape).closePath();

        g.setPaint(new Color(0xB97652));
        g.fill(shape);

        // _0_0_32
        shape = new GeneralPath();
        ((GeneralPath) shape).moveTo(630.05, 288.96);
        ((GeneralPath) shape).curveTo(635.12, 286.37, 641.70996, 284.9, 647.24, 282.3);
        ((GeneralPath) shape).curveTo(645.95996, 291.06, 642.39, 300.81, 631.98, 301.06998);
        ((GeneralPath) shape).curveTo(635.17, 296.08, 640.67, 284.41998, 630.05, 288.96);
        ((GeneralPath) shape).closePath();

        g.setPaint(new Color(0xDD8D62));
        g.fill(shape);

        // _0_0_33
        shape = new GeneralPath();
        ((GeneralPath) shape).moveTo(630.05, 288.96);
        ((GeneralPath) shape).curveTo(640.67, 284.41998, 635.17, 296.08, 631.98, 301.06998);
        ((GeneralPath) shape).curveTo(621.63995, 303.77, 611.37, 306.74997, 601.0, 309.31998);
        ((GeneralPath) shape).curveTo(596.98, 306.65997, 599.84, 300.34998, 601.9, 296.87997);
        ((GeneralPath) shape).curveTo(611.35004, 294.43997, 620.75, 291.88998, 630.05005, 288.95996);
        ((GeneralPath) shape).closePath();

        g.setPaint(new Color(0xF6E2D7));
        g.fill(shape);

        // _0_0_34
        shape = new GeneralPath();
        ((GeneralPath) shape).moveTo(582.91, 312.77);
        ((GeneralPath) shape).curveTo(581.44, 301.16998, 592.11, 296.83, 601.89996, 296.87997);
        ((GeneralPath) shape).curveTo(599.83997, 300.34998, 596.98, 306.65997, 600.99994, 309.31998);
        ((GeneralPath) shape).curveTo(595.26996, 310.65997, 588.93994, 311.83997, 582.9099, 312.77);
        ((GeneralPath) shape).closePath();

        g.setPaint(new Color(0xB87552));
        g.fill(shape);

        // _0_0_35
        shape = new GeneralPath();
        ((GeneralPath) shape).moveTo(569.2, 303.23);
        ((GeneralPath) shape).curveTo(570.14, 313.14, 563.99, 322.04, 561.26, 331.23);
        ((GeneralPath) shape).curveTo(562.26, 321.55002, 567.73, 312.87, 569.2, 303.23);
        ((GeneralPath) shape).closePath();

        g.setPaint(new Color(0x8B8A8A));
        g.fill(shape);

        // _0_0_36
        shape = new GeneralPath();
        ((GeneralPath) shape).moveTo(635.48, 309.41);
        ((GeneralPath) shape).curveTo(640.05, 307.49, 637.13995, 315.22, 634.75, 315.91);
        ((GeneralPath) shape).curveTo(623.8, 317.55002, 611.24, 321.59, 600.89, 319.24);
        ((GeneralPath) shape).curveTo(612.15, 315.19998, 624.12, 313.25, 635.48004, 309.41);
        ((GeneralPath) shape).closePath();

        g.setPaint(new Color(0xDBB8AD));
        g.fill(shape);

        // _0_0_37
        shape = new GeneralPath();
        ((GeneralPath) shape).moveTo(514.98, 375.07);
        ((GeneralPath) shape).curveTo(520.26996, 356.51, 527.39996, 338.36002, 534.19, 320.30002);
        ((GeneralPath) shape).curveTo(528.63, 338.62003, 523.01, 357.89, 514.98, 375.07);
        ((GeneralPath) shape).closePath();

        g.setPaint(new Color(0x8F8F8F));
        g.fill(shape);

        // _0_0_38
        shape = new GeneralPath();
        ((GeneralPath) shape).moveTo(604.62, 324.48);
        ((GeneralPath) shape).curveTo(616.2, 325.34, 586.89, 328.13, 593.77, 337.96002);
        ((GeneralPath) shape).curveTo(588.47003, 341.22003, 578.96, 342.43002, 572.12, 343.85004);
        ((GeneralPath) shape).curveTo(570.21, 321.38004, 590.66, 329.14005, 604.62, 324.48004);
        ((GeneralPath) shape).closePath();

        g.setPaint(new Color(0xB97652));
        g.fill(shape);

        // _0_0_39
        shape = new GeneralPath();
        ((GeneralPath) shape).moveTo(627.51, 328.39);
        ((GeneralPath) shape).curveTo(628.91003, 328.26, 631.72003, 327.24002, 630.74, 329.73);
        ((GeneralPath) shape).curveTo(623.18, 351.73, 615.64996, 373.87, 605.77997, 394.98);
        ((GeneralPath) shape).curveTo(587.44995, 396.30002, 569.16, 401.34, 550.94995, 404.90002);
        ((GeneralPath) shape).curveTo(556.31995, 388.26, 562.76996, 371.84003, 568.33997, 355.26);
        ((GeneralPath) shape).curveTo(579.67, 351.14, 592.67, 349.73, 604.20996, 345.26);
        ((GeneralPath) shape).curveTo(608.62994, 342.99002, 606.50995, 337.89, 604.20996, 335.02002);
        ((GeneralPath) shape).curveTo(611.77997, 332.17, 619.72, 330.50003, 627.50995, 328.39);
        ((GeneralPath) shape).closePath();

        g.setPaint(new Color(0xDF8E62));
        g.fill(shape);

        // _0_0_40
        shape = new GeneralPath();
        ((GeneralPath) shape).moveTo(515.87, 454.75);
        ((GeneralPath) shape).curveTo(518.98, 410.66998, 544.08, 370.54, 561.26, 331.23);
        ((GeneralPath) shape).curveTo(540.12, 394.15002, 517.46, 456.27002, 493.07, 518.06);
        ((GeneralPath) shape).curveTo(498.11002, 496.29, 508.06, 475.71, 515.87, 454.75);
        ((GeneralPath) shape).closePath();

        g.setPaint(new Color(0xD5895F));
        g.fill(shape);

        // _0_0_41
        shape = new GeneralPath();
        ((GeneralPath) shape).moveTo(640.98, 362.08);
        ((GeneralPath) shape).curveTo(642.69, 354.44998, 645.54, 347.03998, 649.04, 340.06998);
        ((GeneralPath) shape).curveTo(646.74, 347.36996, 645.76996, 355.89996, 640.98, 362.08);
        ((GeneralPath) shape).closePath();

        g.setPaint(new Color(0x8B8B8B));
        g.fill(shape);

        // _0_0_42
        shape = new GeneralPath();
        ((GeneralPath) shape).moveTo(503.48, 349.33);
        ((GeneralPath) shape).curveTo(510.64, 347.96, 503.17, 367.31, 496.35, 362.65);
        ((GeneralPath) shape).curveTo(482.86002, 358.06, 467.57, 373.22, 456.23, 366.00998);
        ((GeneralPath) shape).curveTo(472.74002, 362.80997, 488.04, 355.62997, 503.48, 349.33);
        ((GeneralPath) shape).closePath();

        g.setPaint(new Color(0xB97652));
        g.fill(shape);

        // _0_0_43
        shape = new GeneralPath();
        ((GeneralPath) shape).moveTo(493.54, 370.53);
        ((GeneralPath) shape).curveTo(498.19, 366.13998, 501.36002, 373.05, 496.99002, 374.16);
        ((GeneralPath) shape).curveTo(486.35, 375.72, 475.71002, 377.46, 465.08002, 379.13);
        ((GeneralPath) shape).curveTo(472.73, 374.14, 483.90002, 371.51, 493.54, 370.53);
        ((GeneralPath) shape).closePath();

        g.setPaint(new Color(0xB2724F));
        g.fill(shape);

        // _0_0_44
        shape = new GeneralPath();
        ((GeneralPath) shape).moveTo(468.66, 382.49);
        ((GeneralPath) shape).curveTo(480.13, 381.46, 462.96, 386.62, 460.7, 386.62);
        ((GeneralPath) shape).curveTo(455.72, 386.94998, 439.79, 397.38998, 443.56, 386.65);
        ((GeneralPath) shape).curveTo(451.99, 385.63, 460.38998, 384.47998, 468.66, 382.49);
        ((GeneralPath) shape).closePath();

        g.setPaint(new Color(0xD1855C));
        g.fill(shape);

        // _0_0_45
        shape = new GeneralPath();
        ((GeneralPath) shape).moveTo(492.46, 382.38);
        ((GeneralPath) shape).curveTo(498.06998, 382.14, 489.9, 393.12, 490.13998, 397.02002);
        ((GeneralPath) shape).curveTo(483.02, 398.51, 448.91998, 390.64, 457.34, 403.37003);
        ((GeneralPath) shape).curveTo(450.87, 406.23, 444.23, 409.64, 437.25, 410.61002);
        ((GeneralPath) shape).curveTo(437.68, 406.75003, 437.96, 401.58002, 441.45, 399.30002);
        ((GeneralPath) shape).curveTo(458.88, 395.16, 476.08002, 389.68002, 492.46002, 382.38);
        ((GeneralPath) shape).closePath();

        g.setPaint(new Color(0xB87552));
        g.fill(shape);

        // _0_0_46
        shape = new GeneralPath();
        ((GeneralPath) shape).moveTo(323.81, 397.85);
        ((GeneralPath) shape).curveTo(331.49, 388.99002, 347.51, 385.36002, 356.79, 388.87);
        ((GeneralPath) shape).curveTo(345.05002, 388.22, 333.89, 392.18, 323.81, 397.85);
        ((GeneralPath) shape).closePath();

        g.setPaint(new Color(0xA0A0A0));
        g.fill(shape);

        // _0_0_47
        shape = new GeneralPath();
        ((GeneralPath) shape).moveTo(364.82, 389.99);
        ((GeneralPath) shape).curveTo(374.89, 388.46, 385.91, 391.72, 394.0, 396.97998);
        ((GeneralPath) shape).curveTo(384.61, 393.19998, 373.66, 395.24997, 364.82, 389.99);
        ((GeneralPath) shape).closePath();

        g.setPaint(new Color(0xF907D9));
        g.fill(shape);

        // _0_0_48
        shape = new GeneralPath();
        ((GeneralPath) shape).moveTo(394.0, 396.98);
        ((GeneralPath) shape).curveTo(401.26, 399.2, 406.03, 406.66, 407.13, 413.93002);
        ((GeneralPath) shape).curveTo(403.74, 407.52002, 400.11002, 401.27002, 394.0, 396.98);
        ((GeneralPath) shape).closePath();

        g.setPaint(new Color(0x8B8B8B));
        g.fill(shape);

        // _0_0_49
        shape = new GeneralPath();
        ((GeneralPath) shape).moveTo(483.98, 466.08);
        ((GeneralPath) shape).curveTo(490.77002, 442.87997, 497.76, 419.44998, 507.05002, 397.15);
        ((GeneralPath) shape).curveTo(499.7, 420.0, 493.23, 444.15, 483.98, 466.08);
        ((GeneralPath) shape).closePath();

        g.setPaint(new Color(0x8D8D8D));
        g.fill(shape);

        // _0_0_50
        shape = new GeneralPath();
        ((GeneralPath) shape).moveTo(338.7, 462.4);
        ((GeneralPath) shape).curveTo(307.55002, 447.47998, 326.37003, 390.41, 359.93002, 399.84);
        ((GeneralPath) shape).curveTo(345.68002, 397.94998, 343.89, 417.52, 339.06003, 427.46);
        ((GeneralPath) shape).curveTo(332.62003, 437.31, 345.42, 443.00998, 342.76004, 452.38);
        ((GeneralPath) shape).curveTo(341.46005, 456.04, 334.84003, 458.27002, 338.70004, 462.4);
        ((GeneralPath) shape).closePath();

        g.setPaint(new Color(0xD400B8));
        g.fill(shape);

        // _0_0_51
        shape = new GeneralPath();
        ((GeneralPath) shape).moveTo(339.06, 427.46);
        ((GeneralPath) shape).curveTo(343.88998, 417.52, 345.68, 397.94998, 359.93, 399.84);
        ((GeneralPath) shape).curveTo(378.28998, 398.25, 395.26, 416.61, 393.59, 434.37);
        ((GeneralPath) shape).curveTo(388.08, 458.54, 359.01, 463.8, 338.7, 462.4);
        ((GeneralPath) shape).curveTo(334.84003, 458.27, 341.46002, 456.04, 342.76, 452.38);
        ((GeneralPath) shape).curveTo(345.42, 443.01, 332.62, 437.31, 339.06, 427.46);
        ((GeneralPath) shape).closePath();

        g.setPaint(new Color(0xFF00DE));
        g.fill(shape);

        // _0_0_52
        shape = new GeneralPath();
        ((GeneralPath) shape).moveTo(482.9, 404.02);
        ((GeneralPath) shape).curveTo(484.37, 402.86, 486.22, 402.38998, 488.02, 402.03);
        ((GeneralPath) shape).curveTo(483.55, 416.49, 479.18, 431.03, 473.9, 445.22);
        ((GeneralPath) shape).curveTo(467.16, 432.81, 481.25998, 417.32, 482.9, 404.02);
        ((GeneralPath) shape).closePath();

        g.setPaint(new Color(0xCDC8C5));
        g.fill(shape);

        // _0_0_53
        shape = new GeneralPath();
        ((GeneralPath) shape).moveTo(598.49, 403.35);
        ((GeneralPath) shape).curveTo(604.97, 401.43, 599.88, 409.98, 598.49, 412.78);
        ((GeneralPath) shape).curveTo(581.33997, 415.36, 564.32, 418.88, 547.12, 421.04);
        ((GeneralPath) shape).curveTo(546.43, 419.27002, 548.02, 417.81, 549.61, 417.38);
        ((GeneralPath) shape).curveTo(566.14996, 413.64, 582.64, 409.4, 598.49, 403.35);
        ((GeneralPath) shape).closePath();

        g.setPaint(new Color(0xD88A5F));
        g.fill(shape);

        // _0_0_54
        shape = new GeneralPath();
        ((GeneralPath) shape).moveTo(434.16, 421.11);
        ((GeneralPath) shape).curveTo(450.52002, 415.84, 466.39, 408.81998, 482.9, 404.02);
        ((GeneralPath) shape).curveTo(481.25998, 417.31998, 467.16, 432.81, 473.9, 445.22);
        ((GeneralPath) shape).curveTo(469.69, 457.09, 465.22998, 468.93, 460.75, 480.72);
        ((GeneralPath) shape).curveTo(449.06, 473.4, 437.67, 462.64, 423.09, 459.86);
        ((GeneralPath) shape).curveTo(421.13998, 459.11, 415.36, 458.97998, 417.74, 455.8);
        ((GeneralPath) shape).curveTo(426.91, 446.24, 428.08, 432.34998, 434.16, 421.11);
        ((GeneralPath) shape).closePath();

        g.setPaint(new Color(0xB97652));
        g.fill(shape);

        // _0_0_55
        shape = new GeneralPath();
        ((GeneralPath) shape).moveTo(316.79, 459.25);
        ((GeneralPath) shape).curveTo(307.24002, 444.39, 305.78, 422.45, 315.99002, 407.89);
        ((GeneralPath) shape).curveTo(308.86002, 424.27002, 309.31003, 443.03003, 316.79, 459.25);
        ((GeneralPath) shape).closePath();

        g.setPaint(new Color(0x909090));
        g.fill(shape);

        // _0_0_56
        shape = new GeneralPath();
        ((GeneralPath) shape).moveTo(591.86, 474.89);
        ((GeneralPath) shape).curveTo(601.05, 454.75, 609.18, 433.85, 619.08997, 414.11002);
        ((GeneralPath) shape).curveTo(611.23, 434.76, 602.97, 455.89, 591.86, 474.89);
        ((GeneralPath) shape).closePath();

        g.setPaint(new Color(0x8C8C8C));
        g.fill(shape);

        // _0_0_57
        shape = new GeneralPath();
        ((GeneralPath) shape).moveTo(408.11, 417.19);
        ((GeneralPath) shape).curveTo(410.5, 422.01, 411.03, 433.35, 406.99, 439.14);
        ((GeneralPath) shape).curveTo(408.09, 431.88, 407.99, 424.5, 408.11, 417.19);
        ((GeneralPath) shape).closePath();

        g.setPaint(new Color(0x999999));
        g.fill(shape);

        // _0_0_58
        shape = new GeneralPath();
        ((GeneralPath) shape).moveTo(595.19, 419.43);
        ((GeneralPath) shape).curveTo(594.48, 432.21, 571.25, 426.47, 560.11, 430.02);
        ((GeneralPath) shape).curveTo(569.08997, 425.19998, 583.77997, 423.0, 595.19, 419.43);
        ((GeneralPath) shape).closePath();

        g.setPaint(new Color(0xD2865D));
        g.fill(shape);

        // _0_0_59
        shape = new GeneralPath();
        ((GeneralPath) shape).moveTo(419.06, 422.05);
        ((GeneralPath) shape).curveTo(424.56, 426.88998, 417.2, 436.28, 415.98, 441.94);
        ((GeneralPath) shape).curveTo(417.46002, 435.38, 418.57, 428.76, 419.06, 422.05);
        ((GeneralPath) shape).closePath();

        g.setPaint(new Color(0xA68878));
        g.fill(shape);

        // _0_0_60
        shape = new GeneralPath();
        ((GeneralPath) shape).moveTo(586.42, 435.31);
        ((GeneralPath) shape).curveTo(587.01996, 435.19, 588.20996, 434.95, 588.81, 434.83);
        ((GeneralPath) shape).curveTo(577.35, 460.61, 565.82, 486.53998, 553.75, 511.94);
        ((GeneralPath) shape).curveTo(536.34, 513.28, 518.6, 516.99, 501.4, 521.35);
        ((GeneralPath) shape).curveTo(508.19998, 502.3, 518.63, 484.43997, 527.82, 466.75998);
        ((GeneralPath) shape).curveTo(537.44, 461.56998, 570.0, 460.47998, 557.13, 442.99997);
        ((GeneralPath) shape).curveTo(566.61, 439.43997, 576.64, 437.81998, 586.42, 435.30997);
        ((GeneralPath) shape).moveTo(555.41, 467.22998);
        ((GeneralPath) shape).curveTo(546.63995, 468.93997, 550.04, 483.77997, 559.11, 479.38998);
        ((GeneralPath) shape).curveTo(565.7, 476.24997, 562.26, 466.15997, 555.41, 467.22998);
        ((GeneralPath) shape).closePath();

        g.setPaint(new Color(0xDF8E62));
        g.fill(shape);

        // _0_0_61
        shape = new GeneralPath();
        ((GeneralPath) shape).moveTo(538.7, 437.09);
        ((GeneralPath) shape).curveTo(552.79004, 432.13, 543.22003, 442.63998, 549.01, 448.07);
        ((GeneralPath) shape).curveTo(543.77, 449.81, 538.7, 452.49002, 533.12, 452.89);
        ((GeneralPath) shape).curveTo(533.74, 447.33002, 536.14, 442.01, 538.7, 437.09003);
        ((GeneralPath) shape).closePath();

        g.setPaint(new Color(0xDB8C60));
        g.fill(shape);

        // _0_0_62
        shape = new GeneralPath();
        ((GeneralPath) shape).moveTo(404.13, 446.07);
        ((GeneralPath) shape).curveTo(393.48, 459.39, 419.44, 458.76, 415.02002, 445.08002);
        ((GeneralPath) shape).curveTo(423.14, 463.69, 385.37003, 458.57, 404.13, 446.07);
        ((GeneralPath) shape).closePath();

        g.setPaint(new Color(0x948686));
        g.fill(shape);

        // _0_0_63
        shape = new GeneralPath();
        ((GeneralPath) shape).moveTo(695.95, 462.98);
        ((GeneralPath) shape).curveTo(706.58, 449.37003, 728.62, 441.0, 743.81, 452.13);
        ((GeneralPath) shape).curveTo(754.32, 461.96, 750.19, 479.78, 741.02, 489.06);
        ((GeneralPath) shape).curveTo(746.57, 478.45, 754.05005, 464.76, 743.88, 454.1);
        ((GeneralPath) shape).curveTo(728.75, 441.39, 708.57, 452.05002, 695.95, 462.98);
        ((GeneralPath) shape).closePath();

        g.setPaint(new Color(0x8D8D8D));
        g.fill(shape);

        // _0_0_64
        shape = new GeneralPath();
        ((GeneralPath) shape).moveTo(318.89, 462.12);
        ((GeneralPath) shape).curveTo(322.05002, 464.91, 327.21002, 467.41998, 327.71002, 471.75);
        ((GeneralPath) shape).curveTo(311.88004, 478.53, 297.7, 488.29, 282.81003, 496.81);
        ((GeneralPath) shape).curveTo(295.98004, 487.11, 309.67004, 477.34, 324.79004, 470.8);
        ((GeneralPath) shape).curveTo(324.86005, 467.09, 319.65002, 465.78998, 318.89005, 462.12);
        ((GeneralPath) shape).closePath();

        g.setPaint(new Color(0xAE7F80));
        g.fill(shape);

        // _0_0_65
        shape = new GeneralPath();
        ((GeneralPath) shape).moveTo(702.06, 481.04);
        ((GeneralPath) shape).curveTo(709.22, 472.64, 719.43, 462.93, 731.52, 465.38);
        ((GeneralPath) shape).curveTo(733.05005, 469.78, 731.10004, 474.15, 728.49, 477.59);
        ((GeneralPath) shape).curveTo(705.08, 508.07, 676.23, 534.83, 658.07996, 569.08);
        ((GeneralPath) shape).curveTo(638.12994, 600.64, 611.64996, 627.35004, 588.18994, 656.2);
        ((GeneralPath) shape).curveTo(586.5399, 657.26, 584.83997, 658.23004, 583.0999, 659.13);
        ((GeneralPath) shape).curveTo(593.80994, 636.47003, 612.7199, 619.25, 626.8499, 598.84);
        ((GeneralPath) shape).curveTo(653.0399, 560.35004, 680.7999, 522.55005, 702.05994, 481.04004);
        ((GeneralPath) shape).closePath();

        g.setPaint(new Color(0xFEFEFE));
        g.fill(shape);

        // _0_0_66
        shape = new GeneralPath();
        ((GeneralPath) shape).moveTo(677.95, 484.92);
        ((GeneralPath) shape).curveTo(680.88, 477.29, 686.58, 470.88, 693.10004, 466.1);
        ((GeneralPath) shape).curveTo(688.60004, 472.75, 683.35004, 478.97, 677.95, 484.92);
        ((GeneralPath) shape).closePath();

        g.setPaint(new Color(0x939393));
        g.fill(shape);

        // _0_0_67
        shape = new GeneralPath();
        ((GeneralPath) shape).moveTo(382.46, 468.44);
        ((GeneralPath) shape).curveTo(410.28998, 462.38, 440.71, 474.43, 458.21, 496.58002);
        ((GeneralPath) shape).curveTo(453.03998, 495.59003, 448.75, 499.61002, 444.09, 501.11002);
        ((GeneralPath) shape).curveTo(440.13998, 497.7, 436.41998, 493.6, 431.34, 491.91);
        ((GeneralPath) shape).curveTo(416.22, 496.22, 414.27, 479.57, 411.22, 469.52002);
        ((GeneralPath) shape).curveTo(390.12, 466.89, 362.02, 469.41003, 350.86, 489.91003);
        ((GeneralPath) shape).curveTo(348.62, 495.71002, 359.4, 500.05005, 356.86, 507.03003);
        ((GeneralPath) shape).curveTo(358.61, 521.55005, 340.43, 524.01, 334.12, 532.95);
        ((GeneralPath) shape).curveTo(348.75, 534.32, 354.29, 551.94, 346.0, 563.08);
        ((GeneralPath) shape).curveTo(356.69, 574.81, 363.07, 590.15, 363.07, 606.46);
        ((GeneralPath) shape).curveTo(370.93, 614.03, 378.75, 622.26, 383.34, 632.53);
        ((GeneralPath) shape).curveTo(384.6, 636.58, 387.66, 633.05005, 390.01, 631.98004);
        ((GeneralPath) shape).curveTo(384.72, 635.88007, 382.36002, 642.72003, 378.02002, 647.0101);
        ((GeneralPath) shape).curveTo(356.77002, 598.3501, 313.02002, 556.69006, 259.43002, 546.5901);
        ((GeneralPath) shape).curveTo(271.56003, 510.8501, 310.16003, 493.36008, 342.23004, 478.1201);
        ((GeneralPath) shape).curveTo(356.03003, 477.02008, 370.22003, 475.68008, 382.46005, 468.4401);
        ((GeneralPath) shape).closePath();

        g.setPaint(new Color(0xCC6D6F));
        g.fill(shape);

        // _0_0_68
        shape = new GeneralPath();
        ((GeneralPath) shape).moveTo(555.41, 467.23);
        ((GeneralPath) shape).curveTo(562.25995, 466.16, 565.69995, 476.25, 559.11, 479.39);
        ((GeneralPath) shape).curveTo(550.04, 483.78003, 546.64, 468.94, 555.41, 467.23);
        ((GeneralPath) shape).closePath();

        g.setPaint(new Color(0xF7E1D6));
        g.fill(shape);

        // _0_0_69
        shape = new GeneralPath();
        ((GeneralPath) shape).moveTo(350.86, 489.91);
        ((GeneralPath) shape).curveTo(362.02, 469.41, 390.12, 466.89, 411.21997, 469.52002);
        ((GeneralPath) shape).curveTo(414.26996, 479.57, 416.21997, 496.22003, 431.33997, 491.91003);
        ((GeneralPath) shape).curveTo(423.02997, 491.76004, 412.06998, 492.80005, 410.44995, 503.11005);
        ((GeneralPath) shape).curveTo(405.19995, 522.93005, 431.49994, 532.81006, 446.52997, 527.9);
        ((GeneralPath) shape).curveTo(455.23996, 521.28, 449.98996, 508.10004, 444.08997, 501.11002);
        ((GeneralPath) shape).curveTo(448.74997, 499.61002, 453.03998, 495.59003, 458.20996, 496.58002);
        ((GeneralPath) shape).curveTo(467.69995, 507.82, 476.12997, 520.47003, 481.88995, 534.03);
        ((GeneralPath) shape).curveTo(497.84995, 566.09, 459.65994, 596.34, 469.68994, 629.38);
        ((GeneralPath) shape).curveTo(465.44995, 628.9, 461.21994, 628.33, 456.98993, 627.99);
        ((GeneralPath) shape).curveTo(434.74994, 625.26, 410.33994, 619.08997, 390.00992, 631.98);
        ((GeneralPath) shape).curveTo(387.6599, 633.05, 384.5999, 636.57996, 383.3399, 632.52997);
        ((GeneralPath) shape).curveTo(378.7499, 622.25995, 370.9299, 614.02997, 363.06992, 606.45996);
        ((GeneralPath) shape).curveTo(363.06992, 590.14996, 356.6899, 574.80994, 345.9999, 563.07996);
        ((GeneralPath) shape).curveTo(354.28992, 551.93994, 348.7499, 534.31995, 334.1199, 532.94995);
        ((GeneralPath) shape).curveTo(340.4299, 524.00995, 358.6099, 521.5499, 356.8599, 507.02994);
        ((GeneralPath) shape).curveTo(359.3999, 500.04993, 348.6199, 495.70993, 350.8599, 489.90994);
        ((GeneralPath) shape).moveTo(390.7999, 513.62994);
        ((GeneralPath) shape).curveTo(377.6399, 514.27997, 371.0599, 530.11993, 377.1999, 540.75995);
        ((GeneralPath) shape).curveTo(385.40988, 547.01996, 401.2699, 548.70996, 406.9599, 538.6099);
        ((GeneralPath) shape).curveTo(406.2599, 530.2199, 402.0999, 511.6299, 390.7999, 513.62994);
        ((GeneralPath) shape).closePath();

        g.setPaint(new Color(0xF68385));
        g.fill(shape);

        // _0_0_70
        shape = new GeneralPath();
        ((GeneralPath) shape).moveTo(141.68, 474.65);
        ((GeneralPath) shape).curveTo(152.95, 471.1, 167.63998, 471.05, 175.20999, 481.82);
        ((GeneralPath) shape).curveTo(182.34999, 491.0, 196.31999, 493.96002, 200.09999, 505.9);
        ((GeneralPath) shape).curveTo(192.51999, 497.66, 180.98999, 494.94998, 172.93, 487.12);
        ((GeneralPath) shape).curveTo(136.9, 470.12, 95.149994, 519.74, 114.229996, 552.78);
        ((GeneralPath) shape).curveTo(116.24999, 560.49005, 143.17, 561.27, 130.06999, 566.17004);
        ((GeneralPath) shape).curveTo(126.13999, 559.69006, 108.77999, 557.29004, 106.369995, 545.58);
        ((GeneralPath) shape).curveTo(98.549995, 517.79004, 117.59999, 487.82, 141.68, 474.65002);
        ((GeneralPath) shape).closePath();

        g.setPaint(new Color(0xFF0005));
        g.fill(shape);

        // _0_0_71
        shape = new GeneralPath();
        ((GeneralPath) shape).moveTo(472.78, 496.83);
        ((GeneralPath) shape).curveTo(468.91, 491.65, 479.26, 483.47998, 480.07, 477.21997);
        ((GeneralPath) shape).curveTo(479.89, 484.52997, 474.64, 490.12997, 472.78, 496.82996);
        ((GeneralPath) shape).closePath();

        g.setPaint(new Color(0x888888));
        g.fill(shape);

        // _0_0_72
        shape = new GeneralPath();
        ((GeneralPath) shape).moveTo(633.18, 577.17);
        ((GeneralPath) shape).curveTo(657.83, 546.41, 675.81, 510.33997, 702.06, 481.03998);
        ((GeneralPath) shape).curveTo(680.8, 522.55, 653.04, 560.35, 626.85, 598.83997);
        ((GeneralPath) shape).curveTo(612.72, 619.24994, 593.81, 636.47, 583.1, 659.12994);
        ((GeneralPath) shape).curveTo(584.83997, 658.2299, 586.54, 657.25995, 588.19, 656.19995);
        ((GeneralPath) shape).curveTo(577.63, 669.18994, 568.19, 683.04, 558.85, 696.89996);
        ((GeneralPath) shape).curveTo(552.93, 690.99994, 558.69995, 681.55994, 563.24, 676.19995);
        ((GeneralPath) shape).curveTo(582.43, 640.37994, 609.54, 609.95996, 633.18, 577.1699);
        ((GeneralPath) shape).closePath();

        g.setPaint(new Color(0xD3D3D3));
        g.fill(shape);

        // _0_0_73
        shape = new GeneralPath();
        ((GeneralPath) shape).moveTo(410.45, 503.11);
        ((GeneralPath) shape).curveTo(412.07, 492.8, 423.03, 491.75998, 431.34003, 491.90997);
        ((GeneralPath) shape).curveTo(436.42, 493.59998, 440.14, 497.69998, 444.09003, 501.11);
        ((GeneralPath) shape).curveTo(449.99002, 508.09998, 455.24002, 521.27997, 446.53003, 527.89996);
        ((GeneralPath) shape).curveTo(431.50003, 532.80994, 405.2, 522.93, 410.45, 503.10995);
        ((GeneralPath) shape).closePath();

        g.setPaint(new Color(0xFDE0E1));
        g.fill(shape);

        // _0_0_74
        shape = new GeneralPath();
        ((GeneralPath) shape).moveTo(152.6, 494.43);
        ((GeneralPath) shape).curveTo(158.58, 494.38, 173.62001, 492.53, 172.0, 502.85);
        ((GeneralPath) shape).curveTo(173.75, 513.51, 185.76, 515.69, 193.84, 519.74);
        ((GeneralPath) shape).curveTo(196.33, 538.37, 174.98999, 540.31, 163.34999, 548.27997);
        ((GeneralPath) shape).curveTo(150.59, 553.82996, 130.41998, 558.43, 120.82999, 544.87);
        ((GeneralPath) shape).curveTo(115.98999, 523.71, 131.65999, 499.53, 152.59999, 494.43);
        ((GeneralPath) shape).closePath();

        g.setPaint(new Color(0xFF0005));
        g.fill(shape);

        // _0_0_75
        shape = new GeneralPath();
        ((GeneralPath) shape).moveTo(262.87, 515.85);
        ((GeneralPath) shape).curveTo(266.72, 510.58997, 271.0, 504.95996, 276.9, 501.89996);
        ((GeneralPath) shape).curveTo(273.02, 507.27997, 267.93, 511.61996, 262.87, 515.85);
        ((GeneralPath) shape).closePath();

        g.setPaint(new Color(0x919090));
        g.fill(shape);

        // _0_0_76
        shape = new GeneralPath();
        ((GeneralPath) shape).moveTo(390.8, 513.63);
        ((GeneralPath) shape).curveTo(402.09998, 511.63, 406.25998, 530.22003, 406.96, 538.61);
        ((GeneralPath) shape).curveTo(401.27, 548.70996, 385.41, 547.01996, 377.19998, 540.76);
        ((GeneralPath) shape).curveTo(371.05997, 530.12, 377.63998, 514.28, 390.8, 513.63);
        ((GeneralPath) shape).moveTo(385.66998, 522.25);
        ((GeneralPath) shape).curveTo(376.99, 526.95, 380.71, 543.44, 391.99, 540.03);
        ((GeneralPath) shape).curveTo(406.63998, 542.7, 391.9, 520.07, 385.66998, 522.25);
        ((GeneralPath) shape).closePath();

        g.setPaint(new Color(0x020101));
        g.fill(shape);

        // _0_0_77
        shape = new GeneralPath();
        ((GeneralPath) shape).moveTo(564.97, 534.04);
        ((GeneralPath) shape).curveTo(566.36, 527.29, 569.04, 520.70996, 573.08997, 515.11);
        ((GeneralPath) shape).curveTo(571.05, 521.61, 569.00995, 528.56, 564.97, 534.04);
        ((GeneralPath) shape).closePath();

        g.setPaint(new Color(0x8D8D8D));
        g.fill(shape);

        // _0_0_78
        shape = new GeneralPath();
        ((GeneralPath) shape).moveTo(385.67, 522.25);
        ((GeneralPath) shape).curveTo(391.90002, 520.07, 406.64, 542.7, 391.99002, 540.03);
        ((GeneralPath) shape).curveTo(380.71002, 543.44, 376.99002, 526.95, 385.67, 522.25);
        ((GeneralPath) shape).closePath();

        g.setPaint(new Color(0xF58284));
        g.fill(shape);

        // _0_0_79
        shape = new GeneralPath();
        ((GeneralPath) shape).moveTo(546.51, 522.39);
        ((GeneralPath) shape).curveTo(553.5, 520.88, 545.59, 531.39, 544.82, 535.10004);
        ((GeneralPath) shape).curveTo(530.28, 538.07, 513.74, 537.09, 499.06, 541.88007);
        ((GeneralPath) shape).curveTo(497.6, 540.32007, 496.05, 538.44006, 496.18, 536.18005);
        ((GeneralPath) shape).curveTo(512.54, 530.16003, 529.68, 526.80005, 546.51, 522.3901);
        ((GeneralPath) shape).closePath();

        g.setPaint(new Color(0xDB8C61));
        g.fill(shape);

        // _0_0_80
        shape = new GeneralPath();
        ((GeneralPath) shape).moveTo(696.02, 541.04);
        ((GeneralPath) shape).curveTo(699.97003, 534.25, 704.94, 528.01996, 711.11005, 523.1);
        ((GeneralPath) shape).curveTo(706.61005, 529.49, 701.69006, 535.64996, 696.02, 541.04);
        ((GeneralPath) shape).closePath();

        g.setPaint(new Color(0x8E8E8E));
        g.fill(shape);

        // _0_0_81
        shape = new GeneralPath();
        ((GeneralPath) shape).moveTo(555.96, 674.94);
        ((GeneralPath) shape).curveTo(581.53, 621.39, 621.9, 576.27, 653.02, 526.0);
        ((GeneralPath) shape).curveTo(623.52, 577.29, 584.80005, 623.02, 555.96, 674.94);
        ((GeneralPath) shape).closePath();

        g.setPaint(new Color(0x959595));
        g.fill(shape);

        // _0_0_82
        shape = new GeneralPath();
        ((GeneralPath) shape).moveTo(248.12, 542.99);
        ((GeneralPath) shape).curveTo(256.38, 544.1, 248.78, 531.17, 255.06999, 527.88);
        ((GeneralPath) shape).curveTo(253.34999, 533.3, 253.24998, 539.01, 252.93999, 544.65);
        ((GeneralPath) shape).curveTo(230.76999, 541.45, 208.07999, 542.62, 186.10999, 547.14);
        ((GeneralPath) shape).curveTo(190.41998, 543.03, 196.00998, 540.48004, 200.14998, 536.13);
        ((GeneralPath) shape).curveTo(198.61998, 539.2, 195.46999, 541.13, 194.04997, 544.23);
        ((GeneralPath) shape).curveTo(211.97998, 541.58997, 230.11996, 539.69995, 248.11996, 542.99);
        ((GeneralPath) shape).closePath();

        g.setPaint(new Color(0x898785));
        g.fill(shape);

        // _0_0_83
        shape = new GeneralPath();
        ((GeneralPath) shape).moveTo(481.89, 534.03);
        ((GeneralPath) shape).curveTo(487.37003, 541.12006, 491.47, 550.30005, 490.21002, 559.47003);
        ((GeneralPath) shape).curveTo(500.05002, 563.18005, 487.69003, 574.32, 497.10004, 578.15);
        ((GeneralPath) shape).curveTo(503.58005, 596.7, 507.06003, 619.56, 497.52005, 637.81);
        ((GeneralPath) shape).curveTo(484.12006, 634.76, 469.79004, 630.63, 456.99005, 627.99);
        ((GeneralPath) shape).curveTo(461.22006, 628.33, 465.45004, 628.89996, 469.69006, 629.38);
        ((GeneralPath) shape).curveTo(459.66006, 596.34, 497.85007, 566.09, 481.89008, 534.03);
        ((GeneralPath) shape).closePath();

        g.setPaint(new Color(0xCC6D6F));
        g.fill(shape);

        // _0_0_84
        shape = new GeneralPath();
        ((GeneralPath) shape).moveTo(529.62, 557.54);
        ((GeneralPath) shape).lineTo(535.82, 556.77997);
        ((GeneralPath) shape).curveTo(529.77, 574.70996, 522.77, 592.35, 515.85004, 609.98);
        ((GeneralPath) shape).curveTo(513.44006, 600.57, 512.12006, 588.62, 511.26004, 578.32996);
        ((GeneralPath) shape).curveTo(517.34, 576.95996, 528.26, 576.23, 526.94006, 567.30994);
        ((GeneralPath) shape).curveTo(526.43005, 562.05994, 517.50006, 563.51996, 517.24005, 559.1099);
        ((GeneralPath) shape).curveTo(521.3301, 558.38995, 525.49005, 558.0999, 529.62006, 557.5399);
        ((GeneralPath) shape).closePath();

        g.setPaint(new Color(0xDB8C61));
        g.fill(shape);

        // _0_0_85
        shape = new GeneralPath();
        ((GeneralPath) shape).moveTo(215.42, 558.33);
        ((GeneralPath) shape).curveTo(257.16, 557.49, 304.41998, 562.89, 333.77, 596.24);
        ((GeneralPath) shape).curveTo(357.88998, 623.63, 381.75998, 661.32, 370.06998, 699.14);
        ((GeneralPath) shape).curveTo(370.71, 687.97003, 371.86, 676.68, 370.77997, 665.53);
        ((GeneralPath) shape).curveTo(360.55997, 659.88, 355.25998, 649.81006, 351.93997, 639.13);
        ((GeneralPath) shape).curveTo(350.44998, 629.87, 338.17996, 630.13, 335.8, 621.5);
        ((GeneralPath) shape).curveTo(333.09998, 615.5, 336.25, 609.78, 337.87, 604.14);
        ((GeneralPath) shape).curveTo(323.09, 595.25, 312.43, 581.07, 297.74, 572.17004);
        ((GeneralPath) shape).curveTo(265.22, 559.08, 228.44998, 556.81006, 194.16998, 563.09);
        ((GeneralPath) shape).curveTo(189.62999, 563.23004, 189.21999, 568.16003, 186.77998, 570.92004);
        ((GeneralPath) shape).curveTo(164.34998, 576.61005, 153.68, 600.78, 136.07999, 614.04004);
        ((GeneralPath) shape).curveTo(149.45999, 636.17004, 120.00999, 652.16003, 111.47999, 669.67004);
        ((GeneralPath) shape).curveTo(123.59999, 680.48004, 117.18999, 697.05005, 108.16999, 707.39);
        ((GeneralPath) shape).curveTo(116.12999, 708.2, 125.31999, 711.72003, 126.31999, 720.83);
        ((GeneralPath) shape).curveTo(128.93999, 727.43, 120.439995, 733.02, 121.899994, 738.68);
        ((GeneralPath) shape).curveTo(131.95, 738.26, 142.65, 740.7, 148.59, 749.58997);
        ((GeneralPath) shape).curveTo(159.54, 752.36, 171.06999, 760.20996, 169.88, 772.91);
        ((GeneralPath) shape).curveTo(169.91, 788.64996, 149.17001, 797.94995, 137.16, 787.75);
        ((GeneralPath) shape).curveTo(130.75, 786.06, 115.83, 777.72, 118.73, 790.92);
        ((GeneralPath) shape).lineTo(118.75, 791.76);
        ((GeneralPath) shape).curveTo(114.82, 779.09, 124.56, 768.31, 125.58, 756.47003);
        ((GeneralPath) shape).curveTo(120.630005, 755.15, 118.21, 761.42004, 115.14, 763.97003);
        ((GeneralPath) shape).curveTo(115.14, 758.78, 109.84, 758.64, 105.69, 758.60004);
        ((GeneralPath) shape).curveTo(110.41, 756.69006, 121.05, 760.23004, 120.090004, 753.16003);
        ((GeneralPath) shape).curveTo(95.11, 750.15, 69.810005, 754.13, 44.950005, 756.99005);
        ((GeneralPath) shape).curveTo(49.420006, 754.7001, 55.290005, 755.2701, 60.200005, 753.36005);
        ((GeneralPath) shape).curveTo(67.98, 752.47003, 60.350006, 744.57007, 58.720005, 741.2601);
        ((GeneralPath) shape).curveTo(46.470005, 723.93005, 49.660004, 701.5301, 51.670006, 681.7101);
        ((GeneralPath) shape).curveTo(56.300007, 650.3901, 80.44, 627.0501, 102.770004, 606.7701);
        ((GeneralPath) shape).curveTo(133.06, 577.75006, 174.52, 563.5201, 215.42001, 558.3301);
        ((GeneralPath) shape).closePath();

        g.setPaint(new Color(0xCCA16D));
        g.fill(shape);

        // _0_0_86
        shape = new GeneralPath();
        ((GeneralPath) shape).moveTo(194.17, 563.09);
        ((GeneralPath) shape).curveTo(228.45, 556.81, 265.22, 559.08, 297.74, 572.17004);
        ((GeneralPath) shape).curveTo(312.43, 581.07007, 323.09, 595.25006, 337.87, 604.14);
        ((GeneralPath) shape).curveTo(336.25, 609.78, 333.1, 615.5, 335.8, 621.5);
        ((GeneralPath) shape).curveTo(338.18, 630.13, 350.44998, 629.87, 351.94, 639.13);
        ((GeneralPath) shape).curveTo(355.26, 649.81, 360.56, 659.88, 370.78, 665.53);
        ((GeneralPath) shape).curveTo(371.86, 676.68005, 370.71, 687.97003, 370.07, 699.14);
        ((GeneralPath) shape).curveTo(366.41, 710.32, 363.69, 722.18, 366.88, 733.88);
        ((GeneralPath) shape).curveTo(375.17, 733.77, 372.61002, 741.75, 370.2, 747.03);
        ((GeneralPath) shape).curveTo(364.82, 758.04004, 350.23, 755.17004, 341.97, 762.95);
        ((GeneralPath) shape).curveTo(325.44, 771.82, 326.85, 793.28, 315.09, 806.13);
        ((GeneralPath) shape).curveTo(307.56, 806.38, 300.13998, 804.97003, 292.7, 804.09);
        ((GeneralPath) shape).curveTo(275.37003, 799.57, 254.83002, 810.22003, 239.59001, 798.23004);
        ((GeneralPath) shape).curveTo(235.72002, 792.08, 242.35, 776.10004, 231.46, 776.21);
        ((GeneralPath) shape).curveTo(219.87001, 791.57, 197.45001, 792.83, 180.23001, 800.18);
        ((GeneralPath) shape).curveTo(160.25002, 799.51, 130.14001, 814.79, 118.73001, 790.92);
        ((GeneralPath) shape).curveTo(115.83001, 777.72, 130.75002, 786.06, 137.16, 787.75);
        ((GeneralPath) shape).curveTo(149.17, 797.95, 169.91, 788.65, 169.88, 772.91);
        ((GeneralPath) shape).curveTo(171.07, 760.20996, 159.54001, 752.36, 148.59, 749.58997);
        ((GeneralPath) shape).curveTo(142.65, 740.69995, 131.95, 738.25995, 121.899994, 738.68);
        ((GeneralPath) shape).curveTo(120.439995, 733.02, 128.93999, 727.43, 126.31999, 720.83);
        ((GeneralPath) shape).curveTo(125.31999, 711.72003, 116.12999, 708.2, 108.16999, 707.39);
        ((GeneralPath) shape).curveTo(117.18999, 697.05, 123.59999, 680.48004, 111.47999, 669.67004);
        ((GeneralPath) shape).curveTo(120.00999, 652.16003, 149.45999, 636.17004, 136.07999, 614.04004);
        ((GeneralPath) shape).curveTo(153.68, 600.78, 164.34999, 576.61005, 186.77998, 570.92004);
        ((GeneralPath) shape).curveTo(189.21999, 568.16003, 189.62999, 563.23004, 194.16998, 563.09);
        ((GeneralPath) shape).moveTo(236.46999, 600.48004);
        ((GeneralPath) shape).curveTo(249.38998, 615.67004, 272.62, 618.94006, 283.83, 636.17004);
        ((GeneralPath) shape).curveTo(297.86, 652.08, 289.75998, 674.86005, 295.99, 692.21);
        ((GeneralPath) shape).curveTo(290.28, 684.47003, 280.78998, 691.39, 282.13998, 699.7);
        ((GeneralPath) shape).curveTo(285.62997, 704.73004, 292.24, 700.4, 295.00998, 696.76);
        ((GeneralPath) shape).curveTo(288.52, 710.06, 295.25998, 729.24, 310.46997, 732.67);
        ((GeneralPath) shape).curveTo(323.45996, 734.83997, 337.67996, 724.61, 338.07996, 711.01996);
        ((GeneralPath) shape).curveTo(334.41995, 681.42, 336.51996, 649.58997, 321.24997, 622.75995);
        ((GeneralPath) shape).curveTo(307.42996, 599.44995, 283.61, 583.5499, 258.25998, 575.20996);
        ((GeneralPath) shape).curveTo(244.12997, 571.23, 225.25998, 586.08997, 236.46997, 600.48);
        ((GeneralPath) shape).moveTo(218.80997, 604.24);
        ((GeneralPath) shape).curveTo(206.29997, 613.08, 207.63997, 639.01, 225.60997, 638.68);
        ((GeneralPath) shape).curveTo(247.20998, 633.52, 242.02997, 598.57, 218.80997, 604.24);
        ((GeneralPath) shape).moveTo(153.10997, 647.43);
        ((GeneralPath) shape).curveTo(142.16997, 647.82, 143.55997, 664.85, 155.00996, 656.87);
        ((GeneralPath) shape).curveTo(156.53996, 665.55, 133.39996, 658.44, 143.99997, 665.2);
        ((GeneralPath) shape).curveTo(157.47997, 673.04004, 171.23997, 649.63, 153.10997, 647.43);
        ((GeneralPath) shape).closePath();

        g.setPaint(new Color(0xF6C283));
        g.fill(shape);

        // _0_0_87
        shape = new GeneralPath();
        ((GeneralPath) shape).moveTo(236.47, 600.48);
        ((GeneralPath) shape).curveTo(225.26, 586.08997, 244.13, 571.23, 258.26, 575.20996);
        ((GeneralPath) shape).curveTo(283.61002, 583.55, 307.43, 599.44995, 321.25, 622.75995);
        ((GeneralPath) shape).curveTo(336.52, 649.58997, 334.42, 681.4199, 338.08, 711.01996);
        ((GeneralPath) shape).curveTo(337.68, 724.61, 323.46, 734.83997, 310.46997, 732.67);
        ((GeneralPath) shape).curveTo(295.25998, 729.24, 288.51996, 710.06, 295.00998, 696.76);
        ((GeneralPath) shape).curveTo(295.58997, 695.31, 296.02, 693.77, 295.99, 692.21);
        ((GeneralPath) shape).curveTo(289.75998, 674.86005, 297.86, 652.08, 283.83, 636.17004);
        ((GeneralPath) shape).curveTo(272.62, 618.94006, 249.38998, 615.67004, 236.46999, 600.48004);
        ((GeneralPath) shape).closePath();

        g.setPaint(new Color(0xFDF0E0));
        g.fill(shape);

        // _0_0_88
        shape = new GeneralPath();
        ((GeneralPath) shape).moveTo(218.81, 604.24);
        ((GeneralPath) shape).curveTo(242.03, 598.57, 247.20999, 633.52, 225.61, 638.68);
        ((GeneralPath) shape).curveTo(207.64, 639.01, 206.3, 613.08, 218.81, 604.24);
        ((GeneralPath) shape).moveTo(221.56, 611.37);
        ((GeneralPath) shape).curveTo(211.48999, 614.52, 214.28, 633.51, 224.62, 634.04);
        ((GeneralPath) shape).curveTo(236.89, 630.57996, 236.98, 608.86, 221.56, 611.37);
        ((GeneralPath) shape).closePath();

        g.setPaint(new Color(0x040302));
        g.fill(shape);

        // _0_0_89
        shape = new GeneralPath();
        ((GeneralPath) shape).moveTo(221.56, 611.37);
        ((GeneralPath) shape).curveTo(236.98, 608.86, 236.89, 630.58, 224.62, 634.04);
        ((GeneralPath) shape).curveTo(214.28, 633.50995, 211.48999, 614.51996, 221.56, 611.37);
        ((GeneralPath) shape).closePath();

        g.setPaint(new Color(0xF6C283));
        g.fill(shape);

        // _0_0_90
        shape = new GeneralPath();
        ((GeneralPath) shape).moveTo(519.78, 649.2);
        ((GeneralPath) shape).curveTo(509.60004, 646.41003, 526.01, 638.97003, 527.10004, 632.14);
        ((GeneralPath) shape).curveTo(528.02, 639.54004, 515.99005, 643.06, 519.78, 649.2);
        ((GeneralPath) shape).closePath();

        g.setPaint(new Color(0x868686));
        g.fill(shape);

        // _0_0_91
        shape = new GeneralPath();
        ((GeneralPath) shape).moveTo(385.6, 657.63);
        ((GeneralPath) shape).curveTo(393.80002, 627.55, 434.21002, 632.87, 455.94, 638.04);
        ((GeneralPath) shape).curveTo(451.97, 639.11, 442.35, 635.37, 440.52, 637.42);
        ((GeneralPath) shape).curveTo(451.55, 643.5, 448.37997, 658.26996, 438.47998, 663.6);
        ((GeneralPath) shape).curveTo(439.08, 667.42, 447.37, 669.75, 446.33997, 675.5);
        ((GeneralPath) shape).curveTo(444.18997, 682.19, 448.87997, 678.38, 451.20996, 677.83);
        ((GeneralPath) shape).curveTo(446.63995, 682.28, 442.57996, 689.71, 445.99997, 695.81);
        ((GeneralPath) shape).curveTo(452.21997, 700.41, 460.50998, 697.02, 467.11996, 695.08);
        ((GeneralPath) shape).curveTo(461.32996, 700.88, 441.65997, 702.61005, 443.44995, 690.07);
        ((GeneralPath) shape).curveTo(445.96994, 681.86, 429.23996, 696.37, 438.46994, 696.53);
        ((GeneralPath) shape).curveTo(449.28995, 697.88, 451.73993, 712.28, 444.04993, 719.17004);
        ((GeneralPath) shape).curveTo(452.91992, 725.64, 459.68994, 717.7601, 465.83994, 711.4501);
        ((GeneralPath) shape).curveTo(487.76993, 700.4501, 492.56995, 733.05005, 512.8499, 732.74005);
        ((GeneralPath) shape).curveTo(523.0299, 731.05005, 533.2799, 729.87006, 543.5899, 729.21);
        ((GeneralPath) shape).curveTo(545.5499, 724.9, 545.6499, 712.85004, 550.2899, 711.81);
        ((GeneralPath) shape).curveTo(548.4799, 717.67, 545.8599, 723.32, 545.7799, 729.6);
        ((GeneralPath) shape).curveTo(534.5499, 732.20996, 521.86993, 730.11, 511.1199, 735.37);
        ((GeneralPath) shape).curveTo(510.28992, 737.8, 511.5899, 740.38, 514.0999, 741.07);
        ((GeneralPath) shape).curveTo(534.67993, 745.10004, 557.4699, 736.83, 576.86993, 746.89);
        ((GeneralPath) shape).curveTo(589.2299, 753.41003, 584.2799, 771.74, 576.9699, 780.03);
        ((GeneralPath) shape).curveTo(581.5199, 770.36005, 588.2999, 754.74005, 575.9699, 747.97003);
        ((GeneralPath) shape).curveTo(559.7799, 740.19, 540.5999, 744.9, 523.2799, 743.7);
        ((GeneralPath) shape).curveTo(529.2599, 754.16003, 527.4699, 770.10004, 514.0099, 773.5);
        ((GeneralPath) shape).curveTo(501.6799, 777.15, 493.21988, 767.41, 487.43988, 758.25);
        ((GeneralPath) shape).curveTo(475.98987, 758.47, 482.2599, 777.17, 479.0699, 785.49);
        ((GeneralPath) shape).curveTo(488.39987, 797.49, 502.86987, 785.0, 513.1599, 781.14996);
        ((GeneralPath) shape).curveTo(504.03992, 787.43, 491.7199, 796.23, 480.60992, 789.77997);
        ((GeneralPath) shape).curveTo(473.41992, 780.37, 476.04993, 765.73, 482.57993, 756.51996);
        ((GeneralPath) shape).curveTo(486.28992, 751.6, 485.55994, 741.9899, 477.77994, 741.92);
        ((GeneralPath) shape).curveTo(449.10992, 737.87, 419.15994, 744.45, 390.68994, 739.32996);
        ((GeneralPath) shape).curveTo(387.75995, 732.61, 373.22995, 734.43994, 378.39993, 725.49994);
        ((GeneralPath) shape).curveTo(389.31995, 704.1599, 381.73993, 680.00995, 385.59995, 657.62994);
        ((GeneralPath) shape).closePath();

        g.setPaint(new Color(0x6DCACC));
        g.fill(shape);

        // _0_0_92
        shape = new GeneralPath();
        ((GeneralPath) shape).moveTo(440.52, 637.42);
        ((GeneralPath) shape).curveTo(442.34998, 635.37, 451.97, 639.11, 455.94, 638.04);
