package com.pump.awt.geom.outline.clipart;

import java.awt.*;
import java.awt.geom.AffineTransform;
import java.awt.geom.GeneralPath;
import java.awt.geom.Point2D;

import static java.awt.Color.BLACK;
import static java.awt.Color.WHITE;
import static java.awt.MultipleGradientPaint.ColorSpaceType.SRGB;
import static java.awt.MultipleGradientPaint.CycleMethod.NO_CYCLE;

/**
 * This class has been automatically generated using
 * <a href="http://ebourg.github.io/flamingo-svg-transcoder/">Flamingo SVG transcoder</a>.
 * <p>
 * Source image: https://openclipart.org/detail/208866/artifact-mysterious-cube
 * </p>
 */
public class MysteriousCube implements javax.swing.Icon {

    /** The width of this icon. */
    private int width;

    /** The height of this icon. */
    private int height;

    /**
     * Creates a new transcoded SVG image.
     */
    public MysteriousCube() {
        this(1000, 1000);
    }

    /**
     * Creates a new transcoded SVG image.
     */
    public MysteriousCube(int width, int height) {
        this.width = width;
        this.height = height;
    }

    @Override
    public int getIconHeight() {
        return height;
    }

    @Override
    public int getIconWidth() {
        return width;
    }

    @Override
    public void paintIcon(Component c, Graphics g, int x, int y) {
        double coef = Math.min((double) width / (double) 1, (double) height / (double) 1);

        Graphics2D g2d = (Graphics2D) g.create();
        g2d.translate(x, y);
        g2d.setRenderingHint(RenderingHints.KEY_ANTIALIASING, RenderingHints.VALUE_ANTIALIAS_ON);
        g2d.scale(coef, coef);
        paint(g2d);
        g2d.dispose();
    }

    /**
     * Paints the transcoded SVG image on the specified graphics context.
     * 
     * @param g Graphics context.
     */
    private static void paint(Graphics2D g) {
        Shape shape = null;
        
        float origAlpha = 1.0f;
        
        java.util.LinkedList<AffineTransform> transformations = new java.util.LinkedList<AffineTransform>();
        

        // 
        transformations.push(g.getTransform());
        g.transform(new AffineTransform(0.020519555f, 0, 0, 0.020519555f, 0, 0.062933505f));

        // _0
        transformations.push(g.getTransform());
        g.transform(new AffineTransform(1.25f, 0, 0, -1.25f, 0, 42.6f));

        // _0_0

        // _0_0_0

        // _0_0_0_0
        shape = new GeneralPath();
        ((GeneralPath) shape).moveTo(14.535, 33.56);
        ((GeneralPath) shape).lineTo(15.293, 33.760002);
        ((GeneralPath) shape).curveTo(15.828, 33.893, 16.441, 33.893, 17.133, 33.760002);
        ((GeneralPath) shape).curveTo(30.440998, 32.615, 37.32, 31.920002, 37.773, 31.682003);
        ((GeneralPath) shape).curveTo(38.226997, 31.412003, 38.508, 31.025003, 38.613, 30.521004);
        ((GeneralPath) shape).lineTo(38.573997, 8.959003);
        ((GeneralPath) shape).curveTo(38.573997, 8.560003, 38.413998, 8.146004, 38.093998, 7.7210035);
        ((GeneralPath) shape).lineTo(37.573997, 7.2010036);
        ((GeneralPath) shape).curveTo(35.706997, 6.1070037, 33.773, 5.0140038, 31.772997, 3.9200037);
        ((GeneralPath) shape).curveTo(27.823997, 1.7050037, 25.612997, 0.53300357, 25.132998, 0.40000367);
        ((GeneralPath) shape).curveTo(24.651997, 0.26800367, 24.065998, 0.24000368, 23.374998, 0.31800365);
        ((GeneralPath) shape).lineTo(22.491999, 0.52100366);
        ((GeneralPath) shape).curveTo(19.054998, 1.1070037, 15.601999, 1.7050037, 12.132998, 2.3180037);
        ((GeneralPath) shape).curveTo(5.1719985, 3.5450037, 1.5859985, 4.2400036, 1.3749981, 4.4000034);
        ((GeneralPath) shape).curveTo(1.187998, 4.5600033, 0.9999981, 4.9200034, 0.81199807, 5.4780035);
        ((GeneralPath) shape).curveTo(0.73399806, 5.7480035, 0.6679981, 5.9980035, 0.61299807, 6.2400036);
        ((GeneralPath) shape).curveTo(0.39799806, 19.975002, 0.30899808, 26.986004, 0.33199808, 27.279003);
        ((GeneralPath) shape).curveTo(0.33199808, 27.654003, 0.3749981, 27.908003, 0.45299807, 28.041002);
        ((GeneralPath) shape).curveTo(0.53499806, 28.146002, 0.7579981, 28.307003, 1.1329981, 28.521002);
        ((GeneralPath) shape).lineTo(14.534999, 33.56);
        ((GeneralPath) shape).closePath();

        g.setPaint(new Color(0x766434));
        g.fill(shape);

        // _0_0_0_1
        shape = new GeneralPath();
        ((GeneralPath) shape).moveTo(22.613, 1.439);
        ((GeneralPath) shape).lineTo(26.574001, 1.08);
        ((GeneralPath) shape).curveTo(25.691002, 0.65400004, 25.215002, 0.42800003, 25.133001, 0.40000004);
        ((GeneralPath) shape).curveTo(24.652, 0.26800004, 24.066002, 0.24000004, 23.375002, 0.31800002);
        ((GeneralPath) shape).lineTo(22.492002, 0.521);
        ((GeneralPath) shape).curveTo(17.000002, 1.455, 12.188003, 2.295, 8.055002, 3.041);
        ((GeneralPath) shape).lineTo(8.734002, 2.9589999);
        ((GeneralPath) shape).curveTo(10.8670025, 2.666, 12.121002, 2.4669998, 12.4920025, 2.3609998);
        ((GeneralPath) shape).curveTo(13.078003, 2.2789998, 16.453003, 1.9749998, 22.613003, 1.4389999);
        ((GeneralPath) shape).closePath();

        g.setPaint(new Color(0x6A5A2F));
        g.fill(shape);

        // _0_0_0_2
        shape = new GeneralPath();
        ((GeneralPath) shape).moveTo(0.375, 24.318);
        ((GeneralPath) shape).lineTo(0.332, 25.6);
        ((GeneralPath) shape).curveTo(4.469, 25.732, 8.188, 25.732, 11.492, 25.6);
        ((GeneralPath) shape).curveTo(14.054999, 25.467001, 17.84, 25.185, 22.852, 24.76);
        ((GeneralPath) shape).lineTo(26.895, 24.4);
        ((GeneralPath) shape).lineTo(26.895, 23.720999);
        ((GeneralPath) shape).curveTo(19.641, 24.467, 14.922001, 24.814, 12.734, 24.759998);
        ((GeneralPath) shape).curveTo(11.934, 24.731998, 9.867001, 24.626999, 6.5350003, 24.439);
        ((GeneralPath) shape).curveTo(4.1880007, 24.307, 2.1330004, 24.268, 0.37500048, 24.317999);
        ((GeneralPath) shape).closePath();

        g.fill(shape);

        // _0_0_0_3
        shape = new GeneralPath();
        ((GeneralPath) shape).moveTo(4.453, 3.721);
        ((GeneralPath) shape).curveTo(2.641, 4.064, 1.6130002, 4.295, 1.375, 4.4);
        ((GeneralPath) shape).curveTo(3.293, 4.291, 6.121, 4.252, 9.852, 4.2790003);
        ((GeneralPath) shape).curveTo(12.918, 4.334, 16.812, 4.1460004, 21.535, 3.7210002);
        ((GeneralPath) shape).lineTo(26.895, 3.2400002);
        ((GeneralPath) shape).lineTo(26.895, 1.9980003);
        ((GeneralPath) shape).lineTo(13.012, 3.1580002);
        ((GeneralPath) shape).curveTo(11.359, 3.3180003, 8.507999, 3.5060003, 4.453, 3.7210002);
        ((GeneralPath) shape).closePath();

        g.fill(shape);

        // _0_0_0_4
        shape = new GeneralPath();
        ((GeneralPath) shape).moveTo(15.254, 33.76);
        ((GeneralPath) shape).lineTo(26.895, 32.720997);
        ((GeneralPath) shape).lineTo(26.895, 31.841997);
        ((GeneralPath) shape).lineTo(12.973001, 32.958996);
        ((GeneralPath) shape).lineTo(14.535001, 33.559998);
        ((GeneralPath) shape).lineTo(15.254001, 33.76);
        ((GeneralPath) shape).closePath();

        g.fill(shape);

        // _0_0_0_5
        shape = new GeneralPath();
        ((GeneralPath) shape).moveTo(14.453, 27.92);
        ((GeneralPath) shape).curveTo(18.879, 27.627, 22.746, 27.307, 26.055, 26.959);
        ((GeneralPath) shape).lineTo(26.895, 26.881);
        ((GeneralPath) shape).lineTo(26.895, 25.521);
        ((GeneralPath) shape).lineTo(0.33200073, 27.4);
        ((GeneralPath) shape).curveTo(0.33200073, 27.692999, 0.38700074, 27.92, 0.49200073, 28.08);
        ((GeneralPath) shape).curveTo(0.5740007, 28.185, 0.78500074, 28.334, 1.1330007, 28.521);
        ((GeneralPath) shape).lineTo(1.6130008, 28.721);
        ((GeneralPath) shape).curveTo(9.160001, 28.268002, 13.441001, 27.998001, 14.453001, 27.92);
        ((GeneralPath) shape).closePath();

        g.fill(shape);

        // _0_0_0_6
        shape = new GeneralPath();
        ((GeneralPath) shape).moveTo(0.613, 6.478);
        ((GeneralPath) shape).lineTo(0.613, 7.439);
        ((GeneralPath) shape).curveTo(2.215, 7.389, 4.3320003, 7.4, 6.973, 7.478);
        ((GeneralPath) shape).curveTo(9.961, 7.533, 12.68, 7.545, 15.132999, 7.5210004);
        ((GeneralPath) shape).curveTo(17.081999, 7.4940004, 19.265999, 7.5210004, 21.691, 7.6000004);
        ((GeneralPath) shape).curveTo(22.547, 7.6000004, 24.281, 7.5060005, 26.895, 7.3180003);
        ((GeneralPath) shape).lineTo(26.895, 6.478);
        ((GeneralPath) shape).curveTo(21.988, 6.853, 16.027, 6.893, 9.012001, 6.6000004);
        ((GeneralPath) shape).curveTo(6.906001, 6.5210004, 4.105001, 6.478, 0.61300087, 6.478);
        ((GeneralPath) shape).closePath();

        g.fill(shape);

        // _0_0_0_7
        shape = new GeneralPath();
        ((GeneralPath) shape).moveTo(0.492, 14.158);
        ((GeneralPath) shape).lineTo(0.492, 15.318);
        ((GeneralPath) shape).lineTo(6.895, 14.721);
        ((GeneralPath) shape).curveTo(10.973, 14.346, 14.492001, 13.92, 17.453, 13.439);
        ((GeneralPath) shape).curveTo(20.894999, 12.853, 24.039, 12.412001, 26.895, 12.119);
        ((GeneralPath) shape).lineTo(26.895, 11.361);
        ((GeneralPath) shape).lineTo(19.934, 12.08);
        ((GeneralPath) shape).curveTo(14.066, 12.826, 9.895, 13.307, 7.4139996, 13.521);
        ((GeneralPath) shape).lineTo(0.49199963, 14.158);
        ((GeneralPath) shape).closePath();

        g.fill(shape);

        // _0_0_0_8
        shape = new GeneralPath();
        ((GeneralPath) shape).moveTo(26.895, 21.721);
        ((GeneralPath) shape).lineTo(24.453001, 21.842001);
        ((GeneralPath) shape).curveTo(22.453001, 21.893002, 20.387001, 21.842001, 18.254002, 21.682001);
        ((GeneralPath) shape).lineTo(15.652001, 21.439001);
        ((GeneralPath) shape).lineTo(18.574001, 21.041);
        ((GeneralPath) shape).curveTo(21.133001, 20.693, 23.906002, 20.361, 26.891003, 20.041);
        ((GeneralPath) shape).lineTo(26.891003, 19.119);
        ((GeneralPath) shape).lineTo(26.574003, 19.119);
        ((GeneralPath) shape).curveTo(19.000004, 20.025, 14.215003, 20.705, 12.215003, 21.157999);
        ((GeneralPath) shape).lineTo(10.094003, 21.639);
        ((GeneralPath) shape).lineTo(14.293003, 22.279);
        ((GeneralPath) shape).curveTo(18.055004, 22.654, 22.254004, 22.731998, 26.895004, 22.521);
        ((GeneralPath) shape).lineTo(26.895004, 21.721);
        ((GeneralPath) shape).closePath();

        g.fill(shape);

        // _0_0_0_9
        shape = new GeneralPath();
        ((GeneralPath) shape).moveTo(1.293, 21.4);
        ((GeneralPath) shape).lineTo(0.41399997, 21.56);
        ((GeneralPath) shape).lineTo(0.37499997, 22.880999);
        ((GeneralPath) shape).curveTo(1.867, 22.56, 4.145, 21.998, 7.215, 21.200998);
        ((GeneralPath) shape).curveTo(10.492001, 20.427998, 14.199, 19.731998, 18.332, 19.118998);
        ((GeneralPath) shape).curveTo(19.027, 19.040998, 21.879002, 18.626997, 26.895, 17.880997);
        ((GeneralPath) shape).lineTo(26.895, 17.118998);
        ((GeneralPath) shape).curveTo(16.254002, 18.638998, 7.719, 20.063997, 1.2930012, 21.399998);
        ((GeneralPath) shape).closePath();

        g.fill(shape);

        // _0_0_0_10
        shape = new GeneralPath();
        ((GeneralPath) shape).moveTo(3.691, 16.478);
        ((GeneralPath) shape).lineTo(0.45300007, 17.400002);
        ((GeneralPath) shape).lineTo(0.41400006, 19.760002);
        ((GeneralPath) shape).lineTo(2.094, 19.400002);
        ((GeneralPath) shape).curveTo(4.414, 18.893002, 6.281, 18.334002, 7.691, 17.721);
        ((GeneralPath) shape).curveTo(9.453, 17.185001, 13.441, 16.639, 19.652, 16.08);
        ((GeneralPath) shape).curveTo(22.613, 15.814, 25.027, 15.559999, 26.895, 15.318);
        ((GeneralPath) shape).lineTo(26.895, 14.041);
        ((GeneralPath) shape).curveTo(19.32, 14.76, 14.602, 15.213, 12.734, 15.400001);
        ((GeneralPath) shape).curveTo(10.469, 15.56, 8.785, 15.693001, 7.691, 15.799001);
        ((GeneralPath) shape).curveTo(5.801, 15.986001, 4.469, 16.213001, 3.691, 16.478);
        ((GeneralPath) shape).closePath();

        g.fill(shape);

        // _0_0_0_11
        shape = new GeneralPath();
        ((GeneralPath) shape).moveTo(26.895, 30.799);
        ((GeneralPath) shape).lineTo(26.895, 29.998);
        ((GeneralPath) shape).curveTo(17.801, 30.532999, 11.535001, 30.907999, 8.094, 31.119);
        ((GeneralPath) shape).lineTo(9.773, 31.76);
        ((GeneralPath) shape).curveTo(17.852001, 31.385, 23.559, 31.064001, 26.895, 30.799);
        ((GeneralPath) shape).closePath();

        g.fill(shape);

        // _0_0_0_12
        shape = new GeneralPath();
        ((GeneralPath) shape).moveTo(0.574, 9.041);
        ((GeneralPath) shape).lineTo(0.574, 10.400001);
        ((GeneralPath) shape).lineTo(4.7339997, 10.357);
        ((GeneralPath) shape).curveTo(9.879, 10.279, 13.586, 10.185, 15.851999, 10.08);
        ((GeneralPath) shape).curveTo(18.441, 9.947, 22.120998, 9.6779995, 26.895, 9.279);
        ((GeneralPath) shape).lineTo(26.895, 8.56);
        ((GeneralPath) shape).lineTo(19.414001, 9.201);
        ((GeneralPath) shape).curveTo(17.066002, 9.412001, 14.000002, 9.428, 10.215001, 9.24);
        ((GeneralPath) shape).curveTo(5.895001, 9.025, 2.6800013, 8.959, 0.5740013, 9.040999);
        ((GeneralPath) shape).closePath();

        g.fill(shape);

        // _0_0_0_13
        shape = new GeneralPath();
        ((GeneralPath) shape).moveTo(24.375, 15.6);
        ((GeneralPath) shape).lineTo(26.691, 14.478001);
        ((GeneralPath) shape).curveTo(25.812, 14.373001, 24.691, 14.455001, 23.332, 14.721001);
        ((GeneralPath) shape).curveTo(21.68, 14.986001, 20.453001, 15.158001, 19.652, 15.240001);
        ((GeneralPath) shape).curveTo(19.277, 15.400001, 18.984001, 15.5060005, 18.773, 15.56);
        ((GeneralPath) shape).curveTo(18.531, 15.639001, 18.266, 15.654, 17.973001, 15.6);
        ((GeneralPath) shape).curveTo(18.000002, 15.467, 18.012001, 15.385, 18.012001, 15.357);
        ((GeneralPath) shape).curveTo(18.012001, 15.334001, 17.945002, 15.334001, 17.812, 15.357);
        ((GeneralPath) shape).lineTo(15.973001, 15.842);
        ((GeneralPath) shape).curveTo(15.598001, 15.998, 15.387, 16.092, 15.332001, 16.119);
        ((GeneralPath) shape).curveTo(17.094, 15.959, 18.0, 15.881, 18.051, 15.881);
        ((GeneralPath) shape).curveTo(19.094, 15.693, 20.211, 15.599999, 21.414001, 15.599999);
        ((GeneralPath) shape).lineTo(24.375002, 15.599999);
        ((GeneralPath) shape).closePath();

        g.setPaint(new Color(0x5C4F2D));
        g.fill(shape);

        // _0_0_0_14
        shape = new GeneralPath();
        ((GeneralPath) shape).moveTo(4.574, 17.4);
        ((GeneralPath) shape).curveTo(3.7459998, 17.4, 3.027, 17.477999, 2.4139998, 17.639);
        ((GeneralPath) shape).curveTo(2.281, 17.666, 1.6249998, 17.907999, 0.45299983, 18.361);
        ((GeneralPath) shape).lineTo(0.41399983, 19.318);
        ((GeneralPath) shape).curveTo(0.5739998, 19.295, 1.0389998, 19.146, 1.8119998, 18.881);
        ((GeneralPath) shape).curveTo(2.1599998, 18.748001, 2.6679997, 18.545, 3.3319998, 18.279001);
        ((GeneralPath) shape).curveTo(3.6799998, 18.174002, 3.9179997, 18.080002, 4.055, 17.998001);
        ((GeneralPath) shape).curveTo(4.586, 17.705002, 4.988, 17.549002, 5.2539997, 17.521002);
        ((GeneralPath) shape).lineTo(5.9729996, 17.439001);
        ((GeneralPath) shape).curveTo(5.8669996, 17.412, 5.398, 17.400002, 4.5739994, 17.400002);
        ((GeneralPath) shape).closePath();

        g.fill(shape);

        // _0_0_0_15
        shape = new GeneralPath();
        ((GeneralPath) shape).moveTo(15.094, 22.361);
        ((GeneralPath) shape).curveTo(15.469, 22.439, 16.199, 22.478, 17.293, 22.478);
        ((GeneralPath) shape).lineTo(24.215, 22.6);
        ((GeneralPath) shape).curveTo(21.574, 22.361, 19.586, 22.185, 18.254, 22.08);
        ((GeneralPath) shape).curveTo(16.152, 21.912, 14.312, 21.818, 12.733999, 21.799);
        ((GeneralPath) shape).curveTo(13.030999, 21.822, 13.351999, 21.873, 13.690999, 21.959);
        ((GeneralPath) shape).curveTo(14.011999, 22.041, 14.479999, 22.174, 15.093999, 22.361);
        ((GeneralPath) shape).closePath();

        g.fill(shape);

        // _0_0_0_16
        shape = new GeneralPath();
        ((GeneralPath) shape).moveTo(17.414, 20.998);
        ((GeneralPath) shape).curveTo(18.055, 20.842, 19.0, 20.665998, 20.254, 20.477999);
        ((GeneralPath) shape).curveTo(21.508, 20.213, 22.652, 20.079998, 23.691, 20.079998);
        ((GeneralPath) shape).lineTo(26.215, 19.798998);
        ((GeneralPath) shape).curveTo(23.199, 19.798998, 20.746, 19.974998, 18.852001, 20.317997);
        ((GeneralPath) shape).lineTo(16.852001, 20.720997);
        ((GeneralPath) shape).curveTo(16.215002, 21.067997, 15.707001, 21.278997, 15.332001, 21.360996);
        ((GeneralPath) shape).curveTo(16.027, 21.333996, 16.719, 21.212996, 17.414001, 20.997995);
        ((GeneralPath) shape).closePath();

        g.fill(shape);

        // _0_0_0_17
        shape = new GeneralPath();
        ((GeneralPath) shape).moveTo(10.613, 13.799);
        ((GeneralPath) shape).curveTo(9.8949995, 13.799, 8.867, 13.853, 7.535, 13.959);
        ((GeneralPath) shape).curveTo(6.387, 14.200999, 5.535, 14.334, 4.9729996, 14.356999);
        ((GeneralPath) shape).curveTo(5.5079994, 14.356999, 6.3199997, 14.306999, 7.4139996, 14.200999);
        ((GeneralPath) shape).curveTo(8.48, 14.091999, 9.280999, 14.0529995, 9.811999, 14.079999);
        ((GeneralPath) shape).lineTo(10.612999, 13.798999);
        ((GeneralPath) shape).closePath();

        g.fill(shape);

        // _0_0_0_18
        shape = new GeneralPath();
        ((GeneralPath) shape).moveTo(5.934, 9.842);
        ((GeneralPath) shape).curveTo(6.332, 9.842, 6.918, 9.826, 7.691, 9.799);
        ((GeneralPath) shape).lineTo(14.215, 9.278999);
        ((GeneralPath) shape).curveTo(10.266001, 9.278999, 7.492, 9.372999, 5.8950005, 9.559999);
        ((GeneralPath) shape).curveTo(5.0120006, 9.587999, 4.4410005, 9.665999, 4.1720004, 9.799);
        ((GeneralPath) shape).curveTo(4.6250005, 9.853, 5.215, 9.865, 5.9340005, 9.842);
        ((GeneralPath) shape).closePath();

        g.fill(shape);

        // _0_0_0_19
        shape = new GeneralPath();
        ((GeneralPath) shape).moveTo(24.215, 9.682);
        ((GeneralPath) shape).lineTo(26.492, 8.8810005);
        ((GeneralPath) shape).curveTo(24.336, 9.092001, 22.773, 9.279, 21.812, 9.439);
        ((GeneralPath) shape).curveTo(21.895, 9.494, 22.266, 9.521, 22.934, 9.521);
        ((GeneralPath) shape).curveTo(23.227, 9.545, 23.652, 9.6, 24.215, 9.682);
        ((GeneralPath) shape).closePath();

        g.fill(shape);

        // _0_0_0_20
        shape = new GeneralPath();
        ((GeneralPath) shape).moveTo(2.973, 6.76);
        ((GeneralPath) shape).lineTo(2.535, 6.76);
        ((GeneralPath) shape).curveTo(2.375, 6.814, 2.332, 6.932, 2.414, 7.1190004);
        ((GeneralPath) shape).curveTo(3.426, 7.2520003, 4.719, 7.2950006, 6.293, 7.2400002);
        ((GeneralPath) shape).curveTo(7.1720004, 7.2400002, 8.4800005, 7.2130003, 10.215, 7.1580005);
        ((GeneralPath) shape).lineTo(9.012, 6.76);
        ((GeneralPath) shape).curveTo(7.6800003, 6.7320004, 6.6800003, 6.7050004, 6.012, 6.6780005);
        ((GeneralPath) shape).curveTo(4.7580004, 6.6540003, 3.746, 6.6820006, 2.973, 6.76);
        ((GeneralPath) shape).closePath();

        g.fill(shape);

        // _0_0_0_21
        shape = new GeneralPath();
        ((GeneralPath) shape).moveTo(17.172, 3.682);
        ((GeneralPath) shape).lineTo(24.891, 1.9589999);
        ((GeneralPath) shape).curveTo(20.387001, 2.467, 16.441002, 3.08, 13.051001, 3.7989998);
        ((GeneralPath) shape).curveTo(13.988001, 3.7709997, 15.359001, 3.7319999, 17.172, 3.6819997);
        ((GeneralPath) shape).closePath();

        g.fill(shape);

        // _0_0_0_22
        shape = new GeneralPath();
        ((GeneralPath) shape).moveTo(38.094, 7.721);
        ((GeneralPath) shape).lineTo(37.574, 7.201);
        ((GeneralPath) shape).curveTo(35.707, 6.1070004, 33.773003, 5.014, 31.773, 3.9200003);
        ((GeneralPath) shape).curveTo(27.824001, 1.7050004, 25.613, 0.53300023, 25.133001, 0.40000033);
        ((GeneralPath) shape).curveTo(24.812002, 0.31800032, 24.508001, 0.27900034, 24.215002, 0.27900034);
        ((GeneralPath) shape).curveTo(24.348001, 0.73200035, 24.359001, 1.5450003, 24.254002, 2.7210002);
        ((GeneralPath) shape).lineTo(24.254002, 25.279001);
        ((GeneralPath) shape).lineTo(24.973001, 25.920002);
        ((GeneralPath) shape).lineTo(38.094, 31.400002);
        ((GeneralPath) shape).curveTo(38.359, 31.135002, 38.535004, 30.842001, 38.613003, 30.521002);
        ((GeneralPath) shape).lineTo(38.574, 8.959002);
        ((GeneralPath) shape).curveTo(38.574, 8.560001, 38.414, 8.146002, 38.094, 7.7210016);
        ((GeneralPath) shape).closePath();

        g.setPaint(new Color(0x554825));
        g.fill(shape);

        // _0_0_0_23
        shape = new GeneralPath();
        ((GeneralPath) shape).moveTo(35.895, 28.92);
        ((GeneralPath) shape).lineTo(35.895, 28.881);
        ((GeneralPath) shape).lineTo(35.414, 28.721);
        ((GeneralPath) shape).lineTo(35.414, 29.361);
        ((GeneralPath) shape).lineTo(36.012, 29.56);
        ((GeneralPath) shape).curveTo(35.906002, 29.295, 35.867, 29.08, 35.895, 28.92);
        ((GeneralPath) shape).closePath();

        g.setPaint(new Color(0x4E4222));
        g.fill(shape);

        // _0_0_0_24
        shape = new GeneralPath();
        ((GeneralPath) shape).moveTo(28.293, 26.521);
        ((GeneralPath) shape).curveTo(28.133, 26.572, 27.745998, 26.6, 27.133, 26.6);
        ((GeneralPath) shape).lineTo(26.691, 26.56);
        ((GeneralPath) shape).lineTo(27.934, 27.119);
        ((GeneralPath) shape).curveTo(28.066, 27.067999, 28.281, 27.08, 28.574, 27.157999);
        ((GeneralPath) shape).curveTo(29.585999, 27.294998, 31.055, 27.654, 32.973, 28.24);
        ((GeneralPath) shape).lineTo(29.293, 27.682);
        ((GeneralPath) shape).lineTo(29.772999, 27.880999);
        ((GeneralPath) shape).curveTo(32.413998, 28.494, 34.105, 28.919998, 34.851997, 29.157999);
        ((GeneralPath) shape).curveTo(34.961, 29.106998, 34.999996, 28.998, 34.972996, 28.842);
        ((GeneralPath) shape).curveTo(34.972996, 28.786999, 34.921997, 28.705, 34.811996, 28.599998);
        ((GeneralPath) shape).curveTo(34.761997, 28.520998, 34.718998, 28.467, 34.690998, 28.439);
        ((GeneralPath) shape).curveTo(33.440998, 28.064, 32.535, 27.786999, 31.972998, 27.599998);
        ((GeneralPath) shape).curveTo(30.987997, 27.307, 29.933998, 26.919998, 28.811998, 26.439);
        ((GeneralPath) shape).lineTo(28.573997, 26.361);
        ((GeneralPath) shape).curveTo(28.464998, 26.467001, 28.374998, 26.521, 28.292997, 26.521);
        ((GeneralPath) shape).closePath();

        g.fill(shape);

        // _0_0_0_25
        shape = new GeneralPath();
        ((GeneralPath) shape).moveTo(26.773, 19.92);
        ((GeneralPath) shape).curveTo(26.293001, 19.732, 25.535, 19.6, 24.492, 19.521);
        ((GeneralPath) shape).lineTo(24.492, 20.279);
        ((GeneralPath) shape).curveTo(26.492, 20.786999, 27.891, 21.24, 28.691, 21.639);
        ((GeneralPath) shape).curveTo(29.734, 22.092, 33.039, 23.693, 38.613, 26.439);
        ((GeneralPath) shape).lineTo(38.613, 25.24);
        ((GeneralPath) shape).curveTo(32.398, 22.307, 28.453, 20.533, 26.772999, 19.92);
        ((GeneralPath) shape).closePath();

        g.fill(shape);

        // _0_0_0_26
        shape = new GeneralPath();
        ((GeneralPath) shape).moveTo(35.055, 27.201);
        ((GeneralPath) shape).lineTo(37.773, 28.478);
        ((GeneralPath) shape).curveTo(37.746, 28.318, 37.641, 28.174, 37.453, 28.041);
        ((GeneralPath) shape).curveTo(37.773, 28.041, 38.027, 28.252, 38.215, 28.682001);
        ((GeneralPath) shape).lineTo(38.613, 28.842001);
        ((GeneralPath) shape).lineTo(38.613, 27.998001);
        ((GeneralPath) shape).lineTo(30.734, 24.318);
        ((GeneralPath) shape).curveTo(29.188, 23.6, 28.039, 23.174, 27.293, 23.041);
        ((GeneralPath) shape).curveTo(26.387, 22.986, 25.546999, 22.92, 24.772999, 22.842001);
        ((GeneralPath) shape).curveTo(24.772999, 23.478, 24.784998, 23.826, 24.811998, 23.881);
        ((GeneralPath) shape).lineTo(26.253998, 24.08);
        ((GeneralPath) shape).curveTo(26.358997, 23.893, 26.507998, 23.787, 26.690998, 23.76);
        ((GeneralPath) shape).lineTo(27.335999, 23.76);
        ((GeneralPath) shape).curveTo(27.387, 23.814001, 27.425999, 23.975, 27.453, 24.24);
        ((GeneralPath) shape).lineTo(27.491999, 24.361);
        ((GeneralPath) shape).curveTo(28.640999, 24.654, 29.585999, 24.92, 30.335999, 25.158);
        ((GeneralPath) shape).curveTo(31.425999, 25.560001, 33.0, 26.240002, 35.055, 27.201);
        ((GeneralPath) shape).closePath();

        g.fill(shape);

        // _0_0_0_27
        shape = new GeneralPath();
        ((GeneralPath) shape).moveTo(38.453, 8.361);
        ((GeneralPath) shape).lineTo(34.293, 7.08);
        ((GeneralPath) shape).lineTo(34.253998, 7.08);
        ((GeneralPath) shape).lineTo(38.573997, 8.799);
        ((GeneralPath) shape).lineTo(38.453, 8.361);
        ((GeneralPath) shape).closePath();

        g.fill(shape);

        // _0_0_0_28
        shape = new GeneralPath();
        ((GeneralPath) shape).moveTo(24.293, 2.24);
        ((GeneralPath) shape).lineTo(24.254, 2.9980001);
        ((GeneralPath) shape).curveTo(26.921999, 4.146, 29.945, 5.385, 33.336, 6.721);
        ((GeneralPath) shape).lineTo(33.336, 6.678);
        ((GeneralPath) shape).curveTo(33.440998, 6.678, 33.785, 6.799, 34.375, 7.041);
        ((GeneralPath) shape).lineTo(38.453, 8.357);
        ((GeneralPath) shape).lineTo(38.293, 8.041);
        ((GeneralPath) shape).curveTo(34.535, 6.6270003, 30.535, 4.998, 26.293, 3.1580005);
        ((GeneralPath) shape).lineTo(24.293, 2.2400005);
        ((GeneralPath) shape).closePath();

        g.fill(shape);

        // _0_0_0_29
        shape = new GeneralPath();
        ((GeneralPath) shape).moveTo(24.254, 5.08);
        ((GeneralPath) shape).lineTo(25.612999, 5.6);
        ((GeneralPath) shape).curveTo(26.811998, 6.025, 28.265999, 6.748, 29.973, 7.76);
        ((GeneralPath) shape).lineTo(26.973, 6.7990003);
        ((GeneralPath) shape).lineTo(34.492, 10.998);
        ((GeneralPath) shape).curveTo(35.852, 11.748, 37.227, 12.4, 38.613, 12.959);
        ((GeneralPath) shape).lineTo(38.613, 12.040999);
        ((GeneralPath) shape).curveTo(35.867, 10.947, 33.945, 9.997999, 32.851997, 9.200999);
        ((GeneralPath) shape).curveTo(30.905998, 7.813999, 28.640997, 6.4279995, 26.050997, 5.0409994);
        ((GeneralPath) shape).lineTo(24.253996, 4.1189995);
        ((GeneralPath) shape).lineTo(24.253996, 5.0799994);
        ((GeneralPath) shape).closePath();

        g.fill(shape);

        // _0_0_0_30
        shape = new GeneralPath();
        ((GeneralPath) shape).moveTo(24.254, 7.119);
        ((GeneralPath) shape).lineTo(24.254, 8.041);
        ((GeneralPath) shape).curveTo(27.640999, 9.748, 32.426, 12.174, 38.613, 15.318001);
        ((GeneralPath) shape).lineTo(38.613, 14.842001);
        ((GeneralPath) shape).curveTo(37.68, 14.494001, 37.0, 14.213001, 36.573997, 13.998001);
        ((GeneralPath) shape).curveTo(36.651997, 13.975001, 36.746, 13.975001, 36.851997, 13.998001);
        ((GeneralPath) shape).lineTo(37.690998, 14.119001);
        ((GeneralPath) shape).curveTo(36.309, 13.478002, 34.468998, 12.533001, 32.176, 11.279001);
        ((GeneralPath) shape).curveTo(29.026999, 9.600001, 26.387, 8.213001, 24.253998, 7.1190014);
        ((GeneralPath) shape).closePath();

        g.fill(shape);

        // _0_0_0_31
        shape = new GeneralPath();
        ((GeneralPath) shape).moveTo(24.254, 11.6);
        ((GeneralPath) shape).lineTo(24.254, 12.682);
        ((GeneralPath) shape).curveTo(25.078, 13.107, 27.32, 14.318, 30.973, 16.318);
        ((GeneralPath) shape).curveTo(34.093998, 18.025002, 36.641, 19.361, 38.613, 20.318);
        ((GeneralPath) shape).lineTo(38.613, 19.361);
        ((GeneralPath) shape).lineTo(37.253998, 18.682);
        ((GeneralPath) shape).curveTo(34.401997, 17.268, 31.761997, 15.841999, 29.335999, 14.4);
        ((GeneralPath) shape).curveTo(27.038998, 13.063999, 25.348, 12.131, 24.253998, 11.599999);
        ((GeneralPath) shape).closePath();

        g.fill(shape);

        // _0_0_0_32
        shape = new GeneralPath();
        ((GeneralPath) shape).moveTo(35.094, 21.158);
        ((GeneralPath) shape).curveTo(35.039, 21.158, 34.906002, 21.092001, 34.691, 20.959002);
        ((GeneralPath) shape).curveTo(34.133003, 20.533, 33.691, 20.252, 33.375, 20.119001);
        ((GeneralPath) shape).curveTo(33.508, 20.014002, 34.016, 20.119001, 34.895, 20.439001);
        ((GeneralPath) shape).curveTo(35.691, 20.654001, 36.867, 21.053001, 38.414, 21.639002);
        ((GeneralPath) shape).curveTo(33.32, 19.053001, 29.012001, 17.092003, 25.492, 15.760002);
        ((GeneralPath) shape).lineTo(27.453001, 16.639002);
        ((GeneralPath) shape).curveTo(27.582, 16.725002, 27.695002, 16.779001, 27.793001, 16.799002);
        ((GeneralPath) shape).lineTo(27.055, 16.721003);
        ((GeneralPath) shape).lineTo(26.332, 16.478003);
        ((GeneralPath) shape).curveTo(25.824001, 16.400003, 25.453001, 16.318003, 25.215, 16.240002);
        ((GeneralPath) shape).curveTo(24.84, 16.025002, 24.547, 15.893002, 24.332, 15.842002);
        ((GeneralPath) shape).lineTo(24.254002, 15.799002);
        ((GeneralPath) shape).lineTo(24.254002, 16.279001);
        ((GeneralPath) shape).curveTo(25.508001, 16.814001, 27.078001, 17.521002, 28.973001, 18.400002);
        ((GeneralPath) shape).curveTo(29.988, 18.881002, 31.359001, 19.533, 33.094, 20.361002);
        ((GeneralPath) shape).curveTo(33.84, 20.682001, 35.68, 21.639002, 38.613003, 23.240002);
        ((GeneralPath) shape).lineTo(38.613003, 21.959002);
        ((GeneralPath) shape).lineTo(35.094, 21.158);
        ((GeneralPath) shape).closePath();

        g.fill(shape);

        // _0_0_0_33
        shape = new GeneralPath();
        ((GeneralPath) shape).moveTo(26.934, 11.201);
        ((GeneralPath) shape).lineTo(26.254, 10.998);
        ((GeneralPath) shape).curveTo(25.934, 10.893001, 25.746, 10.814, 25.691, 10.76);
        ((GeneralPath) shape).curveTo(25.852, 10.678, 26.188, 10.705, 26.691, 10.842);
        ((GeneralPath) shape).curveTo(27.176, 10.975, 27.547, 11.119, 27.812, 11.279);
        ((GeneralPath) shape).lineTo(29.094, 11.8810005);
        ((GeneralPath) shape).lineTo(24.254, 9.361);
        ((GeneralPath) shape).lineTo(24.254, 10.08);
        ((GeneralPath) shape).curveTo(27.375, 11.654, 31.52, 13.853, 36.691, 16.682);
        ((GeneralPath) shape).lineTo(38.613003, 17.720999);
        ((GeneralPath) shape).lineTo(38.613003, 16.720999);
        ((GeneralPath) shape).curveTo(35.785004, 15.360999, 33.387, 14.157999, 31.414003, 13.118999);
        ((GeneralPath) shape).lineTo(26.934004, 11.200998);
        ((GeneralPath) shape).closePath();

        g.fill(shape);

        // _0_0_0_34
        shape = new GeneralPath();
        ((GeneralPath) shape).moveTo(27.793, 16.799);
        ((GeneralPath) shape).curveTo(27.695, 16.779, 27.581999, 16.725, 27.453, 16.639);
        ((GeneralPath) shape).lineTo(24.453, 15.24);
        ((GeneralPath) shape).lineTo(24.254, 15.158);
        ((GeneralPath) shape).lineTo(24.254, 15.799);
        ((GeneralPath) shape).lineTo(24.331999, 15.842);
        ((GeneralPath) shape).curveTo(24.546999, 15.893, 24.839998, 16.025, 25.214998, 16.24);
        ((GeneralPath) shape).curveTo(25.453, 16.317999, 25.828, 16.4, 26.331999, 16.478);
        ((GeneralPath) shape).lineTo(27.050999, 16.721);
        ((GeneralPath) shape).lineTo(27.793, 16.799);
        ((GeneralPath) shape).closePath();

        g.setPaint(new Color(0x3D341B));
        g.fill(shape);

        // _0_0_0_35
        shape = new GeneralPath();
        ((GeneralPath) shape).moveTo(34.691, 20.959);
        ((GeneralPath) shape).curveTo(34.906002, 21.092, 35.039, 21.157999, 35.094, 21.157999);
        ((GeneralPath) shape).lineTo(38.613003, 21.959);
        ((GeneralPath) shape).lineTo(38.613003, 21.682);
        ((GeneralPath) shape).lineTo(38.414, 21.639);
        ((GeneralPath) shape).curveTo(36.867, 21.053, 35.691, 20.654, 34.895, 20.439);
        ((GeneralPath) shape).curveTo(34.012, 20.119, 33.508, 20.014, 33.375, 20.119);
        ((GeneralPath) shape).curveTo(33.691, 20.251999, 34.133, 20.532999, 34.691, 20.959);
        ((GeneralPath) shape).closePath();

        g.fill(shape);

        // _0_0_0_36
        shape = new GeneralPath();
        ((GeneralPath) shape).moveTo(28.574, 27.158);
        ((GeneralPath) shape).curveTo(28.281, 27.080002, 28.066, 27.064001, 27.934, 27.119001);
        ((GeneralPath) shape).lineTo(29.293, 27.682001);
        ((GeneralPath) shape).lineTo(32.973, 28.240002);
        ((GeneralPath) shape).curveTo(31.055, 27.654001, 29.585999, 27.295002, 28.574, 27.158);
        ((GeneralPath) shape).closePath();

        g.fill(shape);

        // _0_0_0_37
        shape = new GeneralPath();
        ((GeneralPath) shape).moveTo(26.691, 26.56);
        ((GeneralPath) shape).lineTo(27.133, 26.6);
        ((GeneralPath) shape).curveTo(27.746, 26.6, 28.133, 26.572, 28.293, 26.521);
        ((GeneralPath) shape).curveTo(28.375, 26.521, 28.465, 26.467, 28.574, 26.361);
        ((GeneralPath) shape).curveTo(28.706999, 26.201, 28.706999, 26.014, 28.574, 25.799);
        ((GeneralPath) shape).curveTo(28.519999, 25.532999, 28.387, 25.4, 28.171999, 25.4);
        ((GeneralPath) shape).curveTo(28.120998, 25.4, 28.078, 25.428, 28.054998, 25.477999);
        ((GeneralPath) shape).lineTo(27.972998, 25.638998);
        ((GeneralPath) shape).curveTo(27.866997, 25.720999, 27.745998, 25.731998, 27.612997, 25.681997);
        ((GeneralPath) shape).curveTo(27.452997, 25.626997, 27.358997, 25.532997, 27.331997, 25.399998);
        ((GeneralPath) shape).curveTo(27.304996, 25.345997, 27.331997, 25.267998, 27.413998, 25.157997);
        ((GeneralPath) shape).curveTo(27.491997, 25.052998, 27.534998, 24.974997, 27.534998, 24.919996);
        ((GeneralPath) shape).curveTo(27.558998, 24.786997, 27.546997, 24.599997, 27.491999, 24.360996);
        ((GeneralPath) shape).lineTo(27.453, 24.239996);
        ((GeneralPath) shape).curveTo(27.425999, 23.974997, 27.387, 23.813995, 27.335999, 23.759996);
        ((GeneralPath) shape).lineTo(26.690998, 23.759996);
        ((GeneralPath) shape).curveTo(26.507998, 23.786997, 26.358997, 23.892996, 26.253998, 24.079996);
        ((GeneralPath) shape).lineTo(26.093998, 24.399996);
        ((GeneralPath) shape).curveTo(26.093998, 24.157995, 26.011997, 24.063995, 25.851997, 24.118996);
        ((GeneralPath) shape).curveTo(25.772997, 24.200996, 25.706997, 24.251995, 25.651997, 24.278996);
        ((GeneralPath) shape).curveTo(25.546997, 24.333996, 25.425997, 24.333996, 25.292997, 24.278996);
        ((GeneralPath) shape).curveTo(25.026997, 24.224995, 24.866997, 24.091995, 24.811996, 23.880995);
        ((GeneralPath) shape).curveTo(24.784996, 23.825994, 24.772997, 23.477995, 24.772997, 22.841995);
        ((GeneralPath) shape).lineTo(24.772997, 22.720995);
        ((GeneralPath) shape).curveTo(24.772997, 22.587996, 24.706997, 22.411995, 24.573997, 22.200994);
        ((GeneralPath) shape).curveTo(24.519997, 22.091995, 24.491997, 21.774994, 24.491997, 21.239994);
        ((GeneralPath) shape).lineTo(24.491997, 19.520994);
        ((GeneralPath) shape).curveTo(24.491997, 19.145994, 24.452997, 18.825994, 24.374996, 18.559994);
        ((GeneralPath) shape).lineTo(24.253996, 19.200994);
        ((GeneralPath) shape).lineTo(24.253996, 25.278996);
        ((GeneralPath) shape).lineTo(24.972996, 25.919996);
        ((GeneralPath) shape).lineTo(26.690996, 26.559996);
        ((GeneralPath) shape).closePath();

        g.fill(shape);

        // _0_0_0_38
        shape = new GeneralPath();
        ((GeneralPath) shape).moveTo(36.812, 30.842);
        ((GeneralPath) shape).lineTo(37.055, 30.880999);
        ((GeneralPath) shape).curveTo(37.133, 30.880999, 37.375, 30.892998, 37.773, 30.919998);
        ((GeneralPath) shape).curveTo(38.065998, 30.946999, 38.293, 30.946999, 38.453, 30.919998);
        ((GeneralPath) shape).lineTo(38.613, 30.520998);
        ((GeneralPath) shape).lineTo(38.613, 29.841997);
        ((GeneralPath) shape).lineTo(38.535, 29.559998);
        ((GeneralPath) shape).curveTo(38.48, 29.267998, 38.375, 28.974998, 38.215, 28.681997);
        ((GeneralPath) shape).curveTo(38.027, 28.251997, 37.773, 28.040997, 37.453, 28.040997);
        ((GeneralPath) shape).curveTo(37.641, 28.173996, 37.746, 28.317997, 37.773, 28.477997);
        ((GeneralPath) shape).curveTo(37.801, 28.559998, 37.801, 28.653997, 37.773, 28.759996);
        ((GeneralPath) shape).curveTo(37.746, 28.892996, 37.718998, 28.958996, 37.690998, 28.958996);
        ((GeneralPath) shape).curveTo(37.668, 28.985996, 37.586, 28.974997, 37.453, 28.919996);
        ((GeneralPath) shape).curveTo(37.078, 28.731997, 36.801, 28.638996, 36.613, 28.638996);
        ((GeneralPath) shape).lineTo(36.055, 28.681995);
        ((GeneralPath) shape).curveTo(35.945, 28.731995, 35.895, 28.798996, 35.895, 28.880995);
        ((GeneralPath) shape).lineTo(35.895, 28.919994);
        ((GeneralPath) shape).curveTo(35.867, 29.079994, 35.906002, 29.294994, 36.012, 29.559994);
        ((GeneralPath) shape).lineTo(36.055, 29.681993);
        ((GeneralPath) shape).curveTo(35.68, 29.786993, 35.469, 29.681993, 35.414, 29.360994);
        ((GeneralPath) shape).lineTo(35.414, 28.720995);
        ((GeneralPath) shape).curveTo(35.465, 28.079994, 35.426003, 27.692995, 35.293003, 27.559996);
        ((GeneralPath) shape).curveTo(35.188004, 27.454996, 34.973003, 27.438995, 34.652004, 27.520996);
        ((GeneralPath) shape).curveTo(34.469006, 27.548996, 34.402004, 27.665997, 34.453003, 27.880997);
        ((GeneralPath) shape).curveTo(34.453003, 28.040997, 34.535004, 28.224997, 34.691, 28.438997);
        ((GeneralPath) shape).curveTo(34.719, 28.466997, 34.762, 28.520998, 34.812, 28.599997);
        ((GeneralPath) shape).curveTo(34.922, 28.704996, 34.973, 28.786997, 34.973, 28.841997);
        ((GeneralPath) shape).curveTo(35.0, 28.997997, 34.961, 29.106997, 34.852, 29.157997);
        ((GeneralPath) shape).curveTo(34.773003, 29.184998, 34.602, 29.200996, 34.332, 29.200996);
        ((GeneralPath) shape).curveTo(34.094, 29.224997, 33.945, 29.278996, 33.895, 29.360996);
        ((GeneralPath) shape).lineTo(35.293, 30.239996);
        ((GeneralPath) shape).lineTo(36.812, 30.841995);
        ((GeneralPath) shape).closePath();

        g.fill(shape);

        // _0_0_0_39
        shape = new GeneralPath();
        ((GeneralPath) shape).moveTo(26.934, 11.201);
        ((GeneralPath) shape).lineTo(33.734, 14.08);
        ((GeneralPath) shape).curveTo(32.961002, 13.732, 31.414001, 12.998, 29.094002, 11.8810005);
        ((GeneralPath) shape).lineTo(27.812002, 11.279);
        ((GeneralPath) shape).curveTo(27.547003, 11.119, 27.172003, 10.975, 26.691002, 10.842);
        ((GeneralPath) shape).curveTo(26.188002, 10.705, 25.852001, 10.682, 25.691002, 10.76);
        ((GeneralPath) shape).curveTo(25.746002, 10.814, 25.934002, 10.893001, 26.254002, 10.998);
        ((GeneralPath) shape).lineTo(26.934002, 11.201);
        ((GeneralPath) shape).closePath();

        g.fill(shape);

        // _0_0_0_40
        shape = new GeneralPath();
        ((GeneralPath) shape).moveTo(36.852, 13.998);
        ((GeneralPath) shape).curveTo(36.746002, 13.975, 36.652, 13.975, 36.574, 13.998);
        ((GeneralPath) shape).curveTo(37.0, 14.213, 37.68, 14.494, 38.613003, 14.842);
        ((GeneralPath) shape).lineTo(38.613003, 14.279);
        ((GeneralPath) shape).lineTo(36.852, 13.998);
        ((GeneralPath) shape).closePath();

        g.fill(shape);

        // _0_0_0_41
        shape = new GeneralPath();
        ((GeneralPath) shape).moveTo(26.012, 6.478);
        ((GeneralPath) shape).lineTo(29.973, 7.76);
        ((GeneralPath) shape).curveTo(28.265999, 6.748, 26.812, 6.025, 25.612999, 5.6000004);
        ((GeneralPath) shape).lineTo(24.254, 5.0800004);
        ((GeneralPath) shape).lineTo(24.254, 5.4780006);
        ((GeneralPath) shape).lineTo(24.331999, 5.521001);
        ((GeneralPath) shape).curveTo(25.054998, 6.025001, 25.612999, 6.3460007, 26.012, 6.4780006);
        ((GeneralPath) shape).closePath();

        g.fill(shape);

        // _0_0_0_42
        shape = new GeneralPath();
        ((GeneralPath) shape).moveTo(34.293, 7.08);
        ((GeneralPath) shape).lineTo(37.434, 8.041);
        ((GeneralPath) shape).lineTo(34.375, 7.0410004);
        ((GeneralPath) shape).curveTo(33.785, 6.7990003, 33.441, 6.682, 33.332, 6.682);
        ((GeneralPath) shape).lineTo(33.332, 6.721);
        ((GeneralPath) shape).curveTo(33.52, 6.959, 33.824, 7.0800004, 34.254, 7.0800004);
        ((GeneralPath) shape).lineTo(34.293003, 7.0800004);
        ((GeneralPath) shape).closePath();

        g.fill(shape);

        // _0_0_0_43
        shape = new GeneralPath();
        ((GeneralPath) shape).moveTo(14.535, 33.56);
        ((GeneralPath) shape).lineTo(15.293, 33.760002);
        ((GeneralPath) shape).curveTo(15.828, 33.893, 16.441, 33.893, 17.133, 33.760002);
        ((GeneralPath) shape).curveTo(30.440998, 32.615, 37.32, 31.920002, 37.773, 31.682003);
        ((GeneralPath) shape).lineTo(38.093998, 31.400003);
        ((GeneralPath) shape).lineTo(24.972998, 25.920004);
        ((GeneralPath) shape).lineTo(23.651999, 25.639004);
        ((GeneralPath) shape).lineTo(1.2929993, 28.560003);
        ((GeneralPath) shape).lineTo(14.534999, 33.560005);
        ((GeneralPath) shape).closePath();

        g.setPaint(new Color(0x89743D));
        g.fill(shape);

        // _0_0_0_44
        shape = new GeneralPath();
        ((GeneralPath) shape).moveTo(22.414, 32.92);
        ((GeneralPath) shape).lineTo(37.613, 31.200998);
        ((GeneralPath) shape).lineTo(36.690998, 30.798998);
        ((GeneralPath) shape).curveTo(23.440998, 32.345997, 16.120998, 33.279, 14.733997, 33.6);
        ((GeneralPath) shape).lineTo(15.292997, 33.76);
        ((GeneralPath) shape).curveTo(15.479998, 33.814, 15.772997, 33.842, 16.171997, 33.842);
        ((GeneralPath) shape).curveTo(18.784996, 33.412, 20.866997, 33.107, 22.413998, 32.92);
        ((GeneralPath) shape).closePath();

        g.setPaint(new Color(0x7A6836));
        g.fill(shape);

        // _0_0_0_45
        shape = new GeneralPath();
        ((GeneralPath) shape).moveTo(26.613, 26.521);
        ((GeneralPath) shape).lineTo(25.934, 26.24);
        ((GeneralPath) shape).lineTo(25.895, 26.24);
        ((GeneralPath) shape).curveTo(22.719, 26.639, 19.852001, 26.92, 17.293, 27.08);
        ((GeneralPath) shape).curveTo(13.690999, 27.318, 9.026999, 27.732, 3.2929993, 28.318);
        ((GeneralPath) shape).lineTo(3.0549994, 28.318);
        ((GeneralPath) shape).lineTo(1.2929994, 28.560001);
        ((GeneralPath) shape).lineTo(1.9339993, 28.842001);
        ((GeneralPath) shape).lineTo(3.0119991, 28.682001);
        ((GeneralPath) shape).curveTo(5.1209993, 28.361002, 8.159999, 28.025002, 12.132999, 27.682001);
        ((GeneralPath) shape).lineTo(6.3749995, 28.560001);
        ((GeneralPath) shape).lineTo(22.414, 26.998001);
        ((GeneralPath) shape).curveTo(23.32, 26.893002, 24.719, 26.732, 26.612999, 26.521002);
        ((GeneralPath) shape).closePath();

        g.fill(shape);

        // _0_0_0_46
        shape = new GeneralPath();
        ((GeneralPath) shape).moveTo(28.453, 27.318);
        ((GeneralPath) shape).lineTo(27.852, 27.08);
        ((GeneralPath) shape).curveTo(19.852, 27.881, 11.867, 28.705, 3.8949986, 29.56);
        ((GeneralPath) shape).lineTo(4.7339983, 29.880999);
        ((GeneralPath) shape).lineTo(28.453, 27.317999);
        ((GeneralPath) shape).closePath();

        g.fill(shape);

        // _0_0_0_47
        shape = new GeneralPath();
        ((GeneralPath) shape).moveTo(7.934, 31.041);
        ((GeneralPath) shape).lineTo(8.934, 31.439001);
        ((GeneralPath) shape).lineTo(32.535, 29.080002);
        ((GeneralPath) shape).lineTo(31.734, 28.760002);
        ((GeneralPath) shape).curveTo(26.585999, 29.318003, 21.785, 29.799002, 17.331999, 30.201002);
        ((GeneralPath) shape).curveTo(12.265999, 30.627003, 9.132998, 30.908003, 7.933999, 31.041002);
        ((GeneralPath) shape).closePath();

        g.fill(shape);

        // _0_0_0_48
        shape = new GeneralPath();
        ((GeneralPath) shape).moveTo(14.332, 31.881);
        ((GeneralPath) shape).lineTo(16.734, 31.6);
        ((GeneralPath) shape).lineTo(11.690999, 32.478);
        ((GeneralPath) shape).lineTo(12.093999, 32.639);
        ((GeneralPath) shape).curveTo(15.933999, 32.158, 21.387, 31.521, 28.453, 30.721);
        ((GeneralPath) shape).lineTo(34.895, 30.08);
        ((GeneralPath) shape).lineTo(34.453, 29.881);
        ((GeneralPath) shape).lineTo(32.453, 30.24);
        ((GeneralPath) shape).curveTo(32.266, 30.291, 31.987999, 30.317999, 31.612999, 30.317999);
        ((GeneralPath) shape).lineTo(28.734, 30.520998);
        ((GeneralPath) shape).curveTo(28.866999, 30.466997, 29.800999, 30.317999, 31.535, 30.079998);
        ((GeneralPath) shape).lineTo(33.973, 29.681997);
        ((GeneralPath) shape).lineTo(33.690998, 29.559998);
        ((GeneralPath) shape).curveTo(26.308998, 30.349998, 19.854998, 31.122997, 14.331999, 31.880997);
        ((GeneralPath) shape).closePath();

        g.fill(shape);

        // _0_0_0_49
        shape = new GeneralPath();
        ((GeneralPath) shape).moveTo(12.691, 29.639);
        ((GeneralPath) shape).lineTo(5.895, 30.318);
        ((GeneralPath) shape).lineTo(6.574, 30.521);
        ((GeneralPath) shape).lineTo(7.832, 30.4);
        ((GeneralPath) shape).curveTo(8.023, 30.291, 8.578, 30.17, 9.492, 30.041);
        ((GeneralPath) shape).lineTo(12.691, 29.639);
        ((GeneralPath) shape).closePath();
        ((GeneralPath) shape).moveTo(14.113, 29.721);
        ((GeneralPath) shape).lineTo(30.332, 28.119001);
        ((GeneralPath) shape).lineTo(29.613, 27.842001);
        ((GeneralPath) shape).lineTo(14.113001, 29.721);
        ((GeneralPath) shape).closePath();

        g.fill(shape);

        // _0_0_0_50
        shape = new GeneralPath();
        ((GeneralPath) shape).moveTo(11.691, 32.478);
        ((GeneralPath) shape).lineTo(16.734001, 31.6);
        ((GeneralPath) shape).lineTo(11.133001, 32.279);
        ((GeneralPath) shape).lineTo(11.691001, 32.478);
        ((GeneralPath) shape).closePath();

        g.setPaint(new Color(0x6C5C30));
        g.fill(shape);

        // _0_0_0_51
        shape = new GeneralPath();
        ((GeneralPath) shape).moveTo(31.613, 30.318);
        ((GeneralPath) shape).curveTo(31.988, 30.318, 32.266003, 30.295, 32.453, 30.240002);
        ((GeneralPath) shape).lineTo(34.453, 29.881002);
        ((GeneralPath) shape).lineTo(33.973, 29.682003);
        ((GeneralPath) shape).lineTo(31.535, 30.080004);
        ((GeneralPath) shape).curveTo(29.801, 30.318005, 28.867, 30.467003, 28.734, 30.521004);
        ((GeneralPath) shape).lineTo(31.612999, 30.318005);
        ((GeneralPath) shape).closePath();

        g.fill(shape);

        // _0_0_0_52
        shape = new GeneralPath();
        ((GeneralPath) shape).moveTo(15.414, 29.381);
        ((GeneralPath) shape).lineTo(9.492, 30.041);
        ((GeneralPath) shape).curveTo(8.559, 30.174, 7.9999995, 30.291, 7.812, 30.4);
        ((GeneralPath) shape).lineTo(15.414, 29.381);
        ((GeneralPath) shape).closePath();

        g.fill(shape);

        // _0_0_0_53
        shape = new GeneralPath();
        ((GeneralPath) shape).moveTo(3.012, 28.682);
        ((GeneralPath) shape).lineTo(1.9340001, 28.842);
        ((GeneralPath) shape).lineTo(2.535, 29.040998);
        ((GeneralPath) shape).curveTo(3.1990001, 28.985998, 3.867, 28.907999, 4.535, 28.798998);
        ((GeneralPath) shape).lineTo(12.132999, 27.681997);
        ((GeneralPath) shape).curveTo(8.16, 28.024998, 5.1209993, 28.360998, 3.0119991, 28.681997);
        ((GeneralPath) shape).closePath();

        g.fill(shape);

        // _0_0_0_54
        shape = new GeneralPath();
        ((GeneralPath) shape).moveTo(11.852, 31.478);
        ((GeneralPath) shape).curveTo(11.801001, 31.533, 11.961, 31.588001, 12.332, 31.639);
        ((GeneralPath) shape).lineTo(25.574, 32.279);
        ((GeneralPath) shape).curveTo(25.921999, 32.279, 26.105, 32.239998, 26.133, 32.158);
        ((GeneralPath) shape).lineTo(28.094, 29.158);
        ((GeneralPath) shape).curveTo(28.148, 29.053001, 28.012, 28.998001, 27.691, 28.998001);
        ((GeneralPath) shape).lineTo(14.215, 28.080002);
        ((GeneralPath) shape).curveTo(13.84, 28.080002, 13.625, 28.119001, 13.574, 28.201002);
        ((GeneralPath) shape).lineTo(11.852, 31.478003);
        ((GeneralPath) shape).closePath();
        ((GeneralPath) shape).moveTo(14.4140005, 28.361);
        ((GeneralPath) shape).curveTo(14.469001, 28.252, 14.652, 28.225, 14.973001, 28.279);
        ((GeneralPath) shape).lineTo(27.133, 29.08);
        ((GeneralPath) shape).curveTo(27.425999, 29.08, 27.546999, 29.135, 27.491999, 29.24);
        ((GeneralPath) shape).lineTo(25.690998, 32.041);
        ((GeneralPath) shape).lineTo(25.171999, 32.119);
        ((GeneralPath) shape).lineTo(13.292999, 31.477999);
        ((GeneralPath) shape).curveTo(12.945, 31.477999, 12.801, 31.428, 12.851999, 31.317999);
        ((GeneralPath) shape).lineTo(14.414, 28.360998);
        ((GeneralPath) shape).closePath();

        g.setPaint(new Color(0xA68D49));
        g.fill(shape);

        // _0_0_0_55
        shape = new GeneralPath();
        ((GeneralPath) shape).moveTo(16.133, 30.881);
        ((GeneralPath) shape).curveTo(16.081999, 30.932001, 16.147999, 30.959, 16.331999, 30.959);
        ((GeneralPath) shape).lineTo(22.491999, 31.279);
        ((GeneralPath) shape).lineTo(22.772999, 31.24);
        ((GeneralPath) shape).lineTo(23.772999, 29.842);
        ((GeneralPath) shape).curveTo(23.772999, 29.786999, 23.706999, 29.759998, 23.574, 29.759998);
        ((GeneralPath) shape).lineTo(17.375, 29.399998);
        ((GeneralPath) shape).curveTo(17.188, 29.399998, 17.078, 29.411997, 17.055, 29.438997);
        ((GeneralPath) shape).lineTo(16.133, 30.880997);
        ((GeneralPath) shape).closePath();
        ((GeneralPath) shape).moveTo(17.691, 29.560001);
        ((GeneralPath) shape).curveTo(17.691, 29.533, 17.773, 29.521002, 17.934, 29.521002);
        ((GeneralPath) shape).lineTo(23.254, 29.799002);
        ((GeneralPath) shape).curveTo(23.414, 29.799002, 23.469, 29.826002, 23.414, 29.881002);
        ((GeneralPath) shape).lineTo(22.535, 31.080002);
        ((GeneralPath) shape).curveTo(22.535, 31.107002, 22.453, 31.119001, 22.293, 31.119001);
        ((GeneralPath) shape).lineTo(17.094, 30.842001);
        ((GeneralPath) shape).lineTo(16.895, 30.799002);
        ((GeneralPath) shape).lineTo(17.691, 29.560001);
        ((GeneralPath) shape).closePath();

        g.fill(shape);

        // _0_0_0_56
        shape = new GeneralPath();
        ((GeneralPath) shape).moveTo(11.375, 31.4);
        ((GeneralPath) shape).curveTo(11.32, 31.506, 11.492, 31.56, 11.895, 31.56);
        ((GeneralPath) shape).lineTo(25.094002, 32.201);
        ((GeneralPath) shape).lineTo(25.652002, 32.119);
        ((GeneralPath) shape).lineTo(27.613003, 29.08);
        ((GeneralPath) shape).curveTo(27.668003, 29.025, 27.535004, 28.975, 27.215002, 28.92);
        ((GeneralPath) shape).lineTo(13.734002, 28.041);
        ((GeneralPath) shape).curveTo(13.359002, 27.986, 13.148002, 28.014, 13.094002, 28.119);
        ((GeneralPath) shape).lineTo(11.375002, 31.4);
        ((GeneralPath) shape).closePath();
        ((GeneralPath) shape).moveTo(13.934, 28.317999);
        ((GeneralPath) shape).curveTo(13.988, 28.24, 14.188, 28.200998, 14.535, 28.200998);
        ((GeneralPath) shape).lineTo(26.652, 28.998);
        ((GeneralPath) shape).curveTo(26.945, 29.053, 27.078001, 29.106998, 27.055, 29.157999);
        ((GeneralPath) shape).lineTo(25.215, 31.959);
        ((GeneralPath) shape).curveTo(25.16, 32.064, 24.988, 32.092, 24.691, 32.041);
        ((GeneralPath) shape).lineTo(12.852, 31.4);
        ((GeneralPath) shape).curveTo(12.535, 31.4, 12.375, 31.361, 12.375, 31.279);
        ((GeneralPath) shape).lineTo(13.934, 28.317999);
        ((GeneralPath) shape).closePath();

        g.setPaint(new Color(0x60522B));
        g.fill(shape);

        // _0_0_0_57
        shape = new GeneralPath();
        ((GeneralPath) shape).moveTo(15.652, 30.842);
        ((GeneralPath) shape).lineTo(15.895, 30.880999);
        ((GeneralPath) shape).lineTo(22.055, 31.200998);
        ((GeneralPath) shape).curveTo(22.215, 31.200998, 22.293001, 31.184998, 22.293001, 31.157999);
        ((GeneralPath) shape).lineTo(23.293001, 29.759998);
        ((GeneralPath) shape).lineTo(23.094002, 29.682);
        ((GeneralPath) shape).lineTo(16.895002, 29.317999);
        ((GeneralPath) shape).lineTo(16.613003, 29.4);
        ((GeneralPath) shape).lineTo(15.652002, 30.842);
        ((GeneralPath) shape).closePath();
        ((GeneralPath) shape).moveTo(17.215, 29.477999);
        ((GeneralPath) shape).lineTo(17.492, 29.439);
        ((GeneralPath) shape).lineTo(22.773, 29.759998);
        ((GeneralPath) shape).curveTo(22.906, 29.759998, 22.961, 29.774998, 22.934, 29.798998);
        ((GeneralPath) shape).lineTo(22.094, 31.040998);
        ((GeneralPath) shape).lineTo(21.852, 31.079998);
        ((GeneralPath) shape).lineTo(16.612999, 30.798998);
        ((GeneralPath) shape).lineTo(16.414, 30.720999);
        ((GeneralPath) shape).lineTo(17.215, 29.477999);
        ((GeneralPath) shape).closePath();

        g.fill(shape);

        // _0_0_0_58
        shape = new GeneralPath();
        ((GeneralPath) shape).moveTo(26.215, 29.6);
        ((GeneralPath) shape).curveTo(26.215, 29.494, 26.094, 29.4, 25.852, 29.318);
        ((GeneralPath) shape).curveTo(25.612999, 29.240002, 25.32, 29.201, 24.973, 29.201);
        ((GeneralPath) shape).curveTo(24.625, 29.201, 24.32, 29.24, 24.055, 29.318);
        ((GeneralPath) shape).curveTo(23.812, 29.400002, 23.691, 29.494001, 23.691, 29.6);
        ((GeneralPath) shape).curveTo(23.691, 29.865, 24.121, 29.998001, 24.973, 29.998001);
        ((GeneralPath) shape).curveTo(25.800999, 29.998001, 26.215, 29.865002, 26.215, 29.6);
        ((GeneralPath) shape).closePath();

        g.fill(shape);

        // _0_0_0_59
        shape = new GeneralPath();
        ((GeneralPath) shape).moveTo(20.734, 30.279);
        ((GeneralPath) shape).curveTo(20.734, 30.174, 20.612999, 30.08, 20.375, 29.998);
        ((GeneralPath) shape).curveTo(20.133, 29.92, 19.84, 29.880999, 19.492, 29.880999);
        ((GeneralPath) shape).curveTo(19.145, 29.880999, 18.84, 29.919998, 18.574001, 29.998);
        ((GeneralPath) shape).curveTo(18.332, 30.08, 18.215002, 30.174, 18.215002, 30.279);
        ((GeneralPath) shape).curveTo(18.215002, 30.521, 18.641003, 30.639, 19.492002, 30.639);
        ((GeneralPath) shape).curveTo(20.320002, 30.639, 20.734003, 30.521, 20.734003, 30.279);
        ((GeneralPath) shape).closePath();

        g.fill(shape);

        // _0_0_0_60
        shape = new GeneralPath();
        ((GeneralPath) shape).moveTo(37.133, 18.361);
        ((GeneralPath) shape).curveTo(37.266, 18.119, 37.266, 17.881, 37.133, 17.639);
        ((GeneralPath) shape).lineTo(32.253998, 6.2790003);
        ((GeneralPath) shape).curveTo(32.121, 6.0140004, 31.987997, 5.959, 31.851997, 6.1190004);
        ((GeneralPath) shape).lineTo(26.573997, 13.201);
        ((GeneralPath) shape).curveTo(26.440998, 13.357, 26.425997, 13.6, 26.534998, 13.92);
        ((GeneralPath) shape).lineTo(31.413998, 25.279);
        ((GeneralPath) shape).curveTo(31.546997, 25.545, 31.679998, 25.599998, 31.811998, 25.439);
        ((GeneralPath) shape).lineTo(37.133, 18.361);
        ((GeneralPath) shape).closePath();
        ((GeneralPath) shape).moveTo(36.535, 17.439);
        ((GeneralPath) shape).curveTo(36.641, 17.759998, 36.625, 17.986, 36.492, 18.119);
        ((GeneralPath) shape).lineTo(31.812, 24.682);
        ((GeneralPath) shape).curveTo(31.734001, 24.865, 31.613, 24.814, 31.453001, 24.521);
        ((GeneralPath) shape).lineTo(26.934002, 13.998);
        ((GeneralPath) shape).curveTo(26.801003, 13.705, 26.801003, 13.467, 26.934002, 13.279);
        ((GeneralPath) shape).lineTo(31.734001, 6.998);
        ((GeneralPath) shape).curveTo(31.867, 6.814, 31.984001, 6.8650002, 32.094, 7.158);
        ((GeneralPath) shape).lineTo(36.535004, 17.439);
        ((GeneralPath) shape).closePath();

        g.setPaint(new Color(0x6E5E31));
        g.fill(shape);

        // _0_0_0_61
        shape = new GeneralPath();
        ((GeneralPath) shape).moveTo(34.492, 17.201);
        ((GeneralPath) shape).curveTo(34.547, 17.092001, 34.547, 16.975, 34.492, 16.842001);
        ((GeneralPath) shape).lineTo(32.215, 11.721001);
        ((GeneralPath) shape).curveTo(32.16, 11.588, 32.094, 11.56, 32.012, 11.639001);
        ((GeneralPath) shape).lineTo(29.535002, 14.799001);
        ((GeneralPath) shape).curveTo(29.480001, 14.908001, 29.480001, 15.014001, 29.535002, 15.119);
        ((GeneralPath) shape).lineTo(31.812002, 20.279);
        ((GeneralPath) shape).curveTo(31.867002, 20.411999, 31.934002, 20.439, 32.012, 20.356998);
        ((GeneralPath) shape).lineTo(34.492, 17.200998);
        ((GeneralPath) shape).closePath();
        ((GeneralPath) shape).moveTo(34.012, 16.682001);
        ((GeneralPath) shape).curveTo(34.066, 16.814001, 34.066, 16.920002, 34.012, 16.998001);
        ((GeneralPath) shape).lineTo(31.934002, 19.799002);
        ((GeneralPath) shape).curveTo(31.879002, 19.853003, 31.824001, 19.826002, 31.773003, 19.721003);
        ((GeneralPath) shape).lineTo(29.734003, 15.201002);
        ((GeneralPath) shape).curveTo(29.680002, 15.064002, 29.691004, 14.9590025, 29.773003, 14.881002);
        ((GeneralPath) shape).lineTo(31.891003, 12.201002);
        ((GeneralPath) shape).curveTo(31.945004, 12.092002, 32.000004, 12.119002, 32.051003, 12.279002);
        ((GeneralPath) shape).lineTo(34.012, 16.682003);
        ((GeneralPath) shape).closePath();

        g.fill(shape);

        // _0_0_0_62
        shape = new GeneralPath();
        ((GeneralPath) shape).moveTo(31.215, 25.478);
        ((GeneralPath) shape).curveTo(31.266, 25.588001, 31.332, 25.666, 31.414, 25.721);
        ((GeneralPath) shape).curveTo(31.491999, 25.748001, 31.559, 25.721, 31.612999, 25.639);
        ((GeneralPath) shape).lineTo(36.895, 18.6);
        ((GeneralPath) shape).curveTo(37.027, 18.439001, 37.039, 18.201, 36.934002, 17.881);
        ((GeneralPath) shape).lineTo(32.055, 6.521001);
        ((GeneralPath) shape).curveTo(32.0, 6.389001, 31.934, 6.3070006, 31.852001, 6.2790008);
        ((GeneralPath) shape).curveTo(31.773, 6.252001, 31.707, 6.2790008, 31.652, 6.3610005);
        ((GeneralPath) shape).lineTo(26.332, 13.400001);
        ((GeneralPath) shape).curveTo(26.199001, 13.588, 26.199001, 13.826, 26.332, 14.119);
        ((GeneralPath) shape).lineTo(31.215, 25.478);
        ((GeneralPath) shape).closePath();
        ((GeneralPath) shape).moveTo(36.293, 17.682001);
        ((GeneralPath) shape).curveTo(36.402, 17.893002, 36.402, 18.119001, 36.293, 18.361002);
        ((GeneralPath) shape).lineTo(31.612999, 24.881002);
        ((GeneralPath) shape).curveTo(31.48, 25.064003, 31.359, 25.014002, 31.254, 24.721003);
        ((GeneralPath) shape).lineTo(26.691, 14.201002);
        ((GeneralPath) shape).curveTo(26.586, 13.908002, 26.602, 13.682002, 26.734, 13.521002);
        ((GeneralPath) shape).lineTo(31.535, 7.2010016);
        ((GeneralPath) shape).curveTo(31.641, 7.041002, 31.762, 7.0920014, 31.895, 7.3610015);
        ((GeneralPath) shape).lineTo(36.293, 17.682001);
        ((GeneralPath) shape).closePath();

        g.setPaint(new Color(0x463B1F));
        g.fill(shape);

        // _0_0_0_63
        shape = new GeneralPath();
        ((GeneralPath) shape).moveTo(34.254, 17.4);
        ((GeneralPath) shape).curveTo(34.336002, 17.317999, 34.348003, 17.213, 34.293003, 17.08);
        ((GeneralPath) shape).lineTo(32.012005, 11.92);
        ((GeneralPath) shape).curveTo(31.934006, 11.787, 31.867004, 11.76, 31.812004, 11.842);
        ((GeneralPath) shape).lineTo(29.332005, 15.041);
        ((GeneralPath) shape).curveTo(29.227005, 15.092, 29.227005, 15.201, 29.332005, 15.357);
        ((GeneralPath) shape).lineTo(31.613005, 20.478);
        ((GeneralPath) shape).curveTo(31.668005, 20.639, 31.719006, 20.666, 31.773005, 20.560001);
        ((GeneralPath) shape).lineTo(34.254005, 17.400002);
        ((GeneralPath) shape).closePath();
        ((GeneralPath) shape).moveTo(33.812, 16.92);
        ((GeneralPath) shape).curveTo(33.867, 17.053, 33.867, 17.146, 33.812, 17.201);
        ((GeneralPath) shape).lineTo(31.691, 19.998001);
        ((GeneralPath) shape).curveTo(31.641, 20.107, 31.586, 20.080002, 31.535, 19.920002);
        ((GeneralPath) shape).lineTo(29.535, 15.400002);
        ((GeneralPath) shape).curveTo(29.48, 15.268002, 29.48, 15.174002, 29.535, 15.119001);
        ((GeneralPath) shape).lineTo(31.691, 12.400002);
        ((GeneralPath) shape).curveTo(31.746, 12.346002, 31.801, 12.373001, 31.852, 12.478002);
        ((GeneralPath) shape).lineTo(33.812, 16.920002);
        ((GeneralPath) shape).closePath();

        g.fill(shape);

        // _0_0_0_64
        shape = new GeneralPath();
        ((GeneralPath) shape).moveTo(32.973, 23.119);
        ((GeneralPath) shape).curveTo(33.105, 23.014, 33.32, 22.959, 33.613, 22.959);
        ((GeneralPath) shape).lineTo(33.652, 22.92);
        ((GeneralPath) shape).lineTo(34.934002, 21.24);
        ((GeneralPath) shape).lineTo(34.973003, 20.881);
        ((GeneralPath) shape).curveTo(35.000004, 20.4, 35.133003, 20.014, 35.375004, 19.721);
        ((GeneralPath) shape).curveTo(35.453003, 19.615, 35.641003, 19.412, 35.934006, 19.119001);
        ((GeneralPath) shape).curveTo(36.176006, 18.853, 36.281006, 18.627, 36.254005, 18.439001);
        ((GeneralPath) shape).lineTo(36.254005, 18.400002);
        ((GeneralPath) shape).lineTo(32.094006, 24.201002);
        ((GeneralPath) shape).lineTo(32.254005, 23.998003);
        ((GeneralPath) shape).curveTo(32.414005, 23.814003, 32.652004, 23.521004, 32.973007, 23.119003);
        ((GeneralPath) shape).closePath();

        g.setPaint(new Color(0x382F19));
        g.fill(shape);

        // _0_0_0_65
        shape = new GeneralPath();
        ((GeneralPath) shape).moveTo(31.332, 25.201);
        ((GeneralPath) shape).curveTo(31.465, 25.307001, 31.547, 25.361, 31.574001, 25.361);
        ((GeneralPath) shape).lineTo(31.691002, 24.76);
        ((GeneralPath) shape).lineTo(31.613003, 24.881);
        ((GeneralPath) shape).curveTo(31.480003, 25.064001, 31.359003, 25.014, 31.254004, 24.721);
        ((GeneralPath) shape).lineTo(28.852003, 19.201);
        ((GeneralPath) shape).lineTo(29.652002, 21.4);
        ((GeneralPath) shape).curveTo(29.785002, 21.692999, 29.961002, 22.174, 30.172003, 22.842);
        ((GeneralPath) shape).curveTo(30.359003, 23.4, 30.574003, 23.852999, 30.812002, 24.200998);
        ((GeneralPath) shape).lineTo(31.332003, 25.200998);
        ((GeneralPath) shape).closePath();

        g.fill(shape);

        // _0_0_0_66
        shape = new GeneralPath();
        ((GeneralPath) shape).moveTo(27.852, 16.998);
        ((GeneralPath) shape).curveTo(27.934, 17.24, 28.16, 17.705, 28.535, 18.4);
        ((GeneralPath) shape).lineTo(26.691, 14.201);
        ((GeneralPath) shape).curveTo(26.586, 13.908, 26.602, 13.682, 26.734, 13.518001);
        ((GeneralPath) shape).lineTo(27.691, 12.240001);
        ((GeneralPath) shape).lineTo(27.691, 11.6);
        ((GeneralPath) shape).lineTo(26.332, 13.400001);
        ((GeneralPath) shape).lineTo(26.254002, 13.6);
        ((GeneralPath) shape).lineTo(26.293001, 13.6);
        ((GeneralPath) shape).lineTo(26.336, 14.201);
        ((GeneralPath) shape).lineTo(26.613, 14.76);
        ((GeneralPath) shape).lineTo(27.336, 15.842);
        ((GeneralPath) shape).lineTo(27.852001, 16.998);
        ((GeneralPath) shape).closePath();

        g.fill(shape);

        // _0_0_0_67
        shape = new GeneralPath();
        ((GeneralPath) shape).moveTo(32.172, 7.76);
        ((GeneralPath) shape).lineTo(32.652, 8.6);
        ((GeneralPath) shape).curveTo(32.387, 7.9080005, 32.199, 7.4820004, 32.094, 7.3180003);
        ((GeneralPath) shape).curveTo(31.988, 7.1580005, 31.852001, 7.1070004, 31.691002, 7.1580005);
        ((GeneralPath) shape).lineTo(31.895002, 7.3610005);
        ((GeneralPath) shape).lineTo(32.293003, 8.400001);
        ((GeneralPath) shape).lineTo(32.172005, 7.7600007);
        ((GeneralPath) shape).closePath();

        g.fill(shape);

        // _0_0_0_68
        shape = new GeneralPath();
        ((GeneralPath) shape).moveTo(35.973, 16.361);
        ((GeneralPath) shape).lineTo(36.172, 16.721);
        ((GeneralPath) shape).lineTo(36.133, 16.521);
        ((GeneralPath) shape).lineTo(35.253998, 13.998);
        ((GeneralPath) shape).curveTo(35.038998, 13.705, 34.921997, 13.533, 34.894997, 13.478001);
        ((GeneralPath) shape).lineTo(34.374996, 12.400001);
        ((GeneralPath) shape).lineTo(34.253998, 12.201);
        ((GeneralPath) shape).lineTo(35.973, 16.361);
        ((GeneralPath) shape).closePath();

        g.fill(shape);

        // _0_0_0_69
        shape = new GeneralPath();
        ((GeneralPath) shape).moveTo(31.215, 25.478);
        ((GeneralPath) shape).curveTo(31.266, 25.588001, 31.332, 25.666, 31.414, 25.721);
        ((GeneralPath) shape).curveTo(31.491999, 25.748001, 31.559, 25.721, 31.612999, 25.639);
        ((GeneralPath) shape).lineTo(33.652, 22.92);
        ((GeneralPath) shape).lineTo(33.613, 22.959);
        ((GeneralPath) shape).curveTo(33.32, 22.959, 33.105, 23.014, 32.973, 23.119);
        ((GeneralPath) shape).curveTo(32.652, 23.521, 32.414, 23.814, 32.253998, 23.998);
        ((GeneralPath) shape).lineTo(31.690998, 24.759998);
        ((GeneralPath) shape).lineTo(31.573997, 25.360998);
        ((GeneralPath) shape).curveTo(31.546997, 25.360998, 31.464998, 25.306997, 31.331997, 25.200998);
        ((GeneralPath) shape).lineTo(30.811996, 24.200998);
        ((GeneralPath) shape).curveTo(30.573996, 23.852999, 30.358997, 23.399998, 30.171997, 22.842);
        ((GeneralPath) shape).curveTo(29.960997, 22.174, 29.784998, 21.692999, 29.651997, 21.4);
        ((GeneralPath) shape).lineTo(28.534996, 18.4);
        ((GeneralPath) shape).curveTo(28.159996, 17.705, 27.933996, 17.24, 27.851995, 16.998);
        ((GeneralPath) shape).lineTo(27.331995, 15.841999);
        ((GeneralPath) shape).lineTo(26.612995, 14.759999);
        ((GeneralPath) shape).lineTo(26.573996, 14.6779995);
        ((GeneralPath) shape).lineTo(31.214996, 25.478);
        ((GeneralPath) shape).closePath();

        g.setPaint(new Color(0x302916));
        g.fill(shape);

        // _0_0_0_70
        shape = new GeneralPath();
        ((GeneralPath) shape).moveTo(26.332, 14.1);
        ((GeneralPath) shape).lineTo(26.293001, 13.6);
        ((GeneralPath) shape).lineTo(26.254002, 13.6);
        ((GeneralPath) shape).curveTo(26.254002, 13.83, 26.281002, 13.998, 26.332, 14.1);
        ((GeneralPath) shape).closePath();

        g.fill(shape);

        // _0_0_0_71
        shape = new GeneralPath();
        ((GeneralPath) shape).moveTo(36.293, 17.682);
        ((GeneralPath) shape).curveTo(36.348, 17.759998, 36.375, 17.907999, 36.375, 18.119);
        ((GeneralPath) shape).lineTo(36.652, 17.998);
        ((GeneralPath) shape).curveTo(36.629, 17.731998, 36.469, 17.307, 36.176, 16.720999);
        ((GeneralPath) shape).lineTo(35.973, 16.360998);
        ((GeneralPath) shape).lineTo(33.690998, 10.599998);
        ((GeneralPath) shape).curveTo(33.535, 10.118999, 33.188, 9.450998, 32.651997, 8.599998);
        ((GeneralPath) shape).lineTo(32.171997, 7.7599983);
        ((GeneralPath) shape).lineTo(32.292995, 8.399999);
        ((GeneralPath) shape).lineTo(36.292995, 17.682);
        ((GeneralPath) shape).closePath();

        g.fill(shape);

        // _0_0_0_72
        shape = new GeneralPath();
        ((GeneralPath) shape).moveTo(29.133, 14.08);
        ((GeneralPath) shape).curveTo(29.133, 13.682, 29.050999, 13.334, 28.890999, 13.041);
        ((GeneralPath) shape).curveTo(28.734, 12.771, 28.546999, 12.639, 28.331999, 12.639);
        ((GeneralPath) shape).curveTo(28.120998, 12.639, 27.933998, 12.771, 27.772999, 13.041);
        ((GeneralPath) shape).curveTo(27.612999, 13.334001, 27.534998, 13.682, 27.534998, 14.08);
        ((GeneralPath) shape).curveTo(27.534998, 14.455, 27.612997, 14.787, 27.772999, 15.08);
        ((GeneralPath) shape).curveTo(27.933998, 15.346, 28.120998, 15.478, 28.331999, 15.478);
        ((GeneralPath) shape).curveTo(28.546999, 15.478, 28.734, 15.346, 28.890999, 15.08);
        ((GeneralPath) shape).curveTo(29.054998, 14.787, 29.133, 14.455, 29.133, 14.08);
        ((GeneralPath) shape).closePath();

        g.setPaint(new Color(0x766434));
        g.fill(shape);

        // _0_0_0_73
        shape = new GeneralPath();
        ((GeneralPath) shape).moveTo(36.094, 17.521);
        ((GeneralPath) shape).curveTo(36.094, 17.146, 36.027, 16.842, 35.895, 16.6);
        ((GeneralPath) shape).curveTo(35.734, 16.334, 35.559002, 16.201, 35.375, 16.201);
        ((GeneralPath) shape).curveTo(35.188, 16.201, 35.027, 16.334, 34.895, 16.6);
        ((GeneralPath) shape).curveTo(34.762, 16.865, 34.691, 17.174, 34.691, 17.521);
        ((GeneralPath) shape).curveTo(34.691, 17.893, 34.762, 18.213, 34.895, 18.478);
        ((GeneralPath) shape).curveTo(35.027, 18.748001, 35.188, 18.881, 35.375, 18.881);
        ((GeneralPath) shape).curveTo(35.586, 18.881, 35.762, 18.748001, 35.895, 18.478);
        ((GeneralPath) shape).curveTo(36.027, 18.213001, 36.094, 17.893002, 36.094, 17.521);
        ((GeneralPath) shape).closePath();

        g.fill(shape);

        // _0_0_0_74
        shape = new GeneralPath();
        ((GeneralPath) shape).moveTo(32.613, 22.279);
        ((GeneralPath) shape).curveTo(32.613, 21.907999, 32.546997, 21.588, 32.413998, 21.317999);
        ((GeneralPath) shape).curveTo(32.281, 21.053, 32.121, 20.919998, 31.933998, 20.919998);
        ((GeneralPath) shape).curveTo(31.745998, 20.919998, 31.573997, 21.052998, 31.413998, 21.317999);
        ((GeneralPath) shape).curveTo(31.280998, 21.588, 31.214998, 21.907999, 31.214998, 22.279);
        ((GeneralPath) shape).curveTo(31.214998, 22.654, 31.280998, 22.959, 31.413998, 23.201);
        ((GeneralPath) shape).curveTo(31.573997, 23.467001, 31.745998, 23.6, 31.933998, 23.6);
        ((GeneralPath) shape).curveTo(32.121, 23.6, 32.281, 23.467001, 32.413998, 23.201);
        ((GeneralPath) shape).curveTo(32.546997, 22.932001, 32.613, 22.627, 32.613, 22.279);
        ((GeneralPath) shape).closePath();

        g.fill(shape);

        // _0_0_0_75
        shape = new GeneralPath();
        ((GeneralPath) shape).moveTo(28.895, 14.318);
        ((GeneralPath) shape).curveTo(28.895, 13.92, 28.812, 13.572, 28.652, 13.278999);
        ((GeneralPath) shape).curveTo(28.492, 13.013999, 28.305, 12.881, 28.094, 12.881);
        ((GeneralPath) shape).curveTo(27.879, 12.881, 27.691, 13.014, 27.535, 13.278999);
        ((GeneralPath) shape).curveTo(27.375, 13.572, 27.293, 13.919999, 27.293, 14.317999);
        ((GeneralPath) shape).curveTo(27.293, 14.720999, 27.375, 15.052999, 27.535, 15.317999);
        ((GeneralPath) shape).curveTo(27.691, 15.614999, 27.879, 15.759999, 28.094, 15.759999);
        ((GeneralPath) shape).curveTo(28.305, 15.759999, 28.492, 15.614999, 28.652, 15.317999);
        ((GeneralPath) shape).curveTo(28.812, 15.052999, 28.895, 14.720999, 28.895, 14.317999);
        ((GeneralPath) shape).closePath();

        g.setPaint(new Color(0x463B1F));
        g.fill(shape);

        // _0_0_0_76
        shape = new GeneralPath();
        ((GeneralPath) shape).moveTo(35.812, 17.76);
        ((GeneralPath) shape).curveTo(35.812, 17.385, 35.746, 17.08, 35.613, 16.842001);
        ((GeneralPath) shape).curveTo(35.48, 16.572, 35.32, 16.439001, 35.133, 16.439001);
        ((GeneralPath) shape).curveTo(34.945, 16.439001, 34.773, 16.572, 34.613, 16.842001);
        ((GeneralPath) shape).curveTo(34.48, 17.080002, 34.413998, 17.385, 34.413998, 17.76);
        ((GeneralPath) shape).curveTo(34.413998, 18.135, 34.48, 18.455, 34.613, 18.721);
        ((GeneralPath) shape).curveTo(34.773, 18.986, 34.945, 19.119001, 35.133, 19.119001);
        ((GeneralPath) shape).curveTo(35.32, 19.119001, 35.48, 18.986002, 35.613, 18.721);
        ((GeneralPath) shape).curveTo(35.746, 18.455, 35.812, 18.135, 35.812, 17.76);
        ((GeneralPath) shape).closePath();

        g.fill(shape);

        // _0_0_0_77
        shape = new GeneralPath();
        ((GeneralPath) shape).moveTo(32.375, 22.521);
        ((GeneralPath) shape).curveTo(32.375, 22.146, 32.305, 21.826, 32.172, 21.56);
        ((GeneralPath) shape).curveTo(32.039, 21.295, 31.867, 21.157999, 31.652, 21.157999);
        ((GeneralPath) shape).curveTo(31.469, 21.157999, 31.305, 21.294998, 31.172, 21.56);
        ((GeneralPath) shape).curveTo(31.039001, 21.826, 30.973001, 22.146, 30.973001, 22.521);
        ((GeneralPath) shape).curveTo(30.973001, 22.865, 31.039001, 23.174, 31.172, 23.439);
        ((GeneralPath) shape).curveTo(31.305, 23.705, 31.465, 23.842, 31.652, 23.842);
        ((GeneralPath) shape).curveTo(31.84, 23.842, 32.012, 23.705, 32.172, 23.439);
        ((GeneralPath) shape).curveTo(32.305, 23.200998, 32.375, 22.893, 32.375, 22.521);
        ((GeneralPath) shape).closePath();

        g.fill(shape);

        // _0_0_0_78
        shape = new GeneralPath();
        ((GeneralPath) shape).moveTo(28.094, 15.76);
        ((GeneralPath) shape).curveTo(28.546999, 15.76, 28.812, 15.361, 28.895, 14.56);
        ((GeneralPath) shape).lineTo(28.812, 14.6);
        ((GeneralPath) shape).curveTo(28.707, 14.865001, 28.535, 14.932, 28.293001, 14.799001);
        ((GeneralPath) shape).curveTo(28.027, 14.666, 27.852001, 14.478001, 27.773, 14.240001);
        ((GeneralPath) shape).curveTo(27.668001, 13.975, 27.723001, 13.732, 27.934, 13.521001);
        ((GeneralPath) shape).curveTo(28.176, 13.334001, 28.414, 13.318001, 28.652, 13.478001);
        ((GeneralPath) shape).lineTo(28.812, 13.6);
        ((GeneralPath) shape).curveTo(28.625, 13.119, 28.387001, 12.8810005, 28.094, 12.8810005);
        ((GeneralPath) shape).curveTo(27.879, 12.8810005, 27.691, 13.014001, 27.535, 13.279);
        ((GeneralPath) shape).curveTo(27.375, 13.5720005, 27.293, 13.92, 27.293, 14.318001);
        ((GeneralPath) shape).curveTo(27.293, 14.721001, 27.375, 15.053, 27.535, 15.318001);
        ((GeneralPath) shape).curveTo(27.691, 15.615001, 27.879, 15.760001, 28.094, 15.760001);
        ((GeneralPath) shape).closePath();

        g.setPaint(new Color(0x382F19));
        g.fill(shape);

        // _0_0_0_79
        shape = new GeneralPath();
        ((GeneralPath) shape).moveTo(34.613, 18.721);
        ((GeneralPath) shape).curveTo(34.773, 18.986, 34.945, 19.119001, 35.133, 19.119001);
        ((GeneralPath) shape).curveTo(35.535, 19.119001, 35.758, 18.760002, 35.812, 18.041002);
        ((GeneralPath) shape).lineTo(35.535, 17.998003);
        ((GeneralPath) shape).curveTo(35.238, 17.814003, 35.093998, 17.572002, 35.093998, 17.279003);
        ((GeneralPath) shape).curveTo(35.093998, 17.014004, 35.211, 16.787003, 35.453, 16.600002);
        ((GeneralPath) shape).curveTo(35.348, 16.494001, 35.238, 16.439003, 35.133, 16.439003);
        ((GeneralPath) shape).curveTo(34.945, 16.439003, 34.773, 16.572002, 34.613, 16.842003);
        ((GeneralPath) shape).curveTo(34.48, 17.080004, 34.413998, 17.385002, 34.413998, 17.760002);
        ((GeneralPath) shape).curveTo(34.413998, 18.135002, 34.48, 18.455002, 34.613, 18.721003);
        ((GeneralPath) shape).closePath();

        g.fill(shape);

        // _0_0_0_80
        shape = new GeneralPath();
        ((GeneralPath) shape).moveTo(32.332, 22.881);
        ((GeneralPath) shape).lineTo(32.172, 22.881);
        ((GeneralPath) shape).curveTo(31.668001, 22.932001, 31.414001, 22.721, 31.414001, 22.24);
        ((GeneralPath) shape).curveTo(31.465002, 21.865, 31.680002, 21.588, 32.055, 21.4);
        ((GeneralPath) shape).curveTo(31.945, 21.24, 31.812, 21.157999, 31.652, 21.157999);
        ((GeneralPath) shape).curveTo(31.469, 21.157999, 31.305, 21.294998, 31.172, 21.56);
        ((GeneralPath) shape).curveTo(31.039001, 21.826, 30.973001, 22.146, 30.973001, 22.521);
        ((GeneralPath) shape).curveTo(30.973001, 22.865, 31.039001, 23.174, 31.172, 23.439);
        ((GeneralPath) shape).curveTo(31.305, 23.705, 31.465, 23.842, 31.652, 23.842);
        ((GeneralPath) shape).curveTo(32.027, 23.842, 32.254, 23.521, 32.332, 22.880999);
        ((GeneralPath) shape).closePath();

        g.fill(shape);

        // _0_0_0_81
        shape = new GeneralPath();
        ((GeneralPath) shape).moveTo(28.094, 15.76);
        ((GeneralPath) shape).curveTo(28.492, 15.76, 28.746, 15.400001, 28.852, 14.682);
        ((GeneralPath) shape).lineTo(28.811998, 14.639);
        ((GeneralPath) shape).lineTo(28.690998, 14.76);
        ((GeneralPath) shape).curveTo(28.690998, 14.893001, 28.624998, 15.014, 28.491999, 15.119);
        ((GeneralPath) shape).curveTo(28.359, 15.225, 28.227, 15.240001, 28.093998, 15.158);
        ((GeneralPath) shape).curveTo(27.800999, 14.998, 27.612997, 14.732, 27.534998, 14.357);
        ((GeneralPath) shape).curveTo(27.452997, 14.014, 27.519999, 13.693001, 27.733997, 13.400001);
        ((GeneralPath) shape).curveTo(27.921997, 13.107, 28.198997, 13.025001, 28.573997, 13.158001);
        ((GeneralPath) shape).curveTo(28.386997, 12.975001, 28.226997, 12.8810005, 28.093998, 12.8810005);
        ((GeneralPath) shape).curveTo(27.878998, 12.8810005, 27.690998, 13.014001, 27.534998, 13.279);
        ((GeneralPath) shape).curveTo(27.374998, 13.5720005, 27.292997, 13.92, 27.292997, 14.318001);
        ((GeneralPath) shape).curveTo(27.292997, 14.721001, 27.374998, 15.053, 27.534998, 15.318001);
        ((GeneralPath) shape).curveTo(27.690998, 15.615001, 27.878998, 15.760001, 28.093998, 15.760001);
        ((GeneralPath) shape).closePath();

        g.setPaint(new Color(0x302916));
        g.fill(shape);

        // _0_0_0_82
        shape = new GeneralPath();
        ((GeneralPath) shape).moveTo(35.055, 18.041);
        ((GeneralPath) shape).curveTo(34.762, 17.428, 34.785, 16.893, 35.133, 16.439001);
        ((GeneralPath) shape).curveTo(34.922, 16.467001, 34.746, 16.6, 34.613, 16.842001);
        ((GeneralPath) shape).curveTo(34.48, 17.107, 34.413998, 17.412, 34.413998, 17.76);
        ((GeneralPath) shape).curveTo(34.413998, 18.135, 34.48, 18.455, 34.613, 18.721);
        ((GeneralPath) shape).curveTo(34.773, 18.986, 34.945, 19.119001, 35.133, 19.119001);
        ((GeneralPath) shape).curveTo(35.453, 19.119001, 35.68, 18.799002, 35.812, 18.158);
        ((GeneralPath) shape).curveTo(35.734, 18.268002, 35.602, 18.318, 35.414, 18.318);
        ((GeneralPath) shape).curveTo(35.227, 18.295, 35.105003, 18.201, 35.055, 18.041);
        ((GeneralPath) shape).closePath();

        g.fill(shape);

        // _0_0_0_83
        shape = new GeneralPath();
        ((GeneralPath) shape).moveTo(32.012, 23.318);
        ((GeneralPath) shape).curveTo(31.801, 23.428001, 31.625002, 23.385, 31.492, 23.201);
        ((GeneralPath) shape).curveTo(31.227001, 22.826, 31.148, 22.467001, 31.254, 22.119);
        ((GeneralPath) shape).curveTo(31.359, 21.775, 31.586, 21.505999, 31.934, 21.317999);
        ((GeneralPath) shape).curveTo(31.828, 21.213, 31.734, 21.157999, 31.652, 21.157999);
        ((GeneralPath) shape).curveTo(31.469, 21.157999, 31.305, 21.294998, 31.172, 21.56);
        ((GeneralPath) shape).curveTo(31.039001, 21.826, 30.973001, 22.146, 30.973001, 22.521);
        ((GeneralPath) shape).curveTo(30.973001, 22.865, 31.039001, 23.174, 31.172, 23.439);
        ((GeneralPath) shape).curveTo(31.305, 23.705, 31.465, 23.842, 31.652, 23.842);
        ((GeneralPath) shape).curveTo(32.027, 23.842, 32.254, 23.521, 32.336, 22.880999);
        ((GeneralPath) shape).lineTo(32.215, 22.880999);
        ((GeneralPath) shape).curveTo(32.293, 23.092, 32.227, 23.239998, 32.012, 23.317999);
        ((GeneralPath) shape).closePath();

        g.fill(shape);

        // _0_0_0_84
        shape = new GeneralPath();
        ((GeneralPath) shape).moveTo(27.055, 31.56);
        ((GeneralPath) shape).curveTo(27.988, 31.907999, 28.961, 32.014, 29.973, 31.880999);
        ((GeneralPath) shape).curveTo(31.147999, 31.720999, 31.492, 31.494, 31.012, 31.200998);
        ((GeneralPath) shape).curveTo(30.535, 30.880999, 29.905998, 30.748, 29.133, 30.798998);
        ((GeneralPath) shape).curveTo(28.199, 30.907997, 27.746, 31.040998, 27.772999, 31.200998);
        ((GeneralPath) shape).curveTo(27.800999, 31.384998, 28.171999, 31.505999, 28.890999, 31.559998);
        ((GeneralPath) shape).curveTo(29.188, 31.559998, 29.425999, 31.532997, 29.612999, 31.477997);
        ((GeneralPath) shape).curveTo(29.824, 31.427998, 29.890999, 31.372997, 29.811998, 31.317997);
        ((GeneralPath) shape).curveTo(29.757998, 31.267998, 29.640999, 31.224997, 29.453, 31.200996);
        ((GeneralPath) shape).curveTo(29.265999, 31.200996, 29.133, 31.224997, 29.050999, 31.278996);
        ((GeneralPath) shape).curveTo(28.973, 31.360996, 28.866999, 31.384996, 28.734, 31.360996);
        ((GeneralPath) shape).curveTo(28.546999, 31.333996, 28.465, 31.294996, 28.491999, 31.239996);
        ((GeneralPath) shape).curveTo(28.546999, 31.157995, 28.706999, 31.091995, 28.973, 31.040997);
        ((GeneralPath) shape).curveTo(29.559, 30.907997, 30.039, 30.974997, 30.414, 31.239996);
        ((GeneralPath) shape).curveTo(30.574, 31.345997, 30.546999, 31.454996, 30.331999, 31.559996);
        ((GeneralPath) shape).curveTo(30.120998, 31.692995, 29.690998, 31.759996, 29.054998, 31.759996);
        ((GeneralPath) shape).curveTo(27.718998, 31.759996, 27.026999, 31.559996, 26.972998, 31.157997);
        ((GeneralPath) shape).curveTo(26.921997, 30.864998, 27.397997, 30.665997, 28.413998, 30.559998);
        ((GeneralPath) shape).curveTo(30.226997, 30.477997, 31.519997, 30.599998, 32.293, 30.919998);
        ((GeneralPath) shape).curveTo(33.707, 31.454998, 34.895, 31.731998, 35.851997, 31.759998);
        ((GeneralPath) shape).curveTo(36.413998, 31.814, 36.921997, 31.798998, 37.374996, 31.720999);
        ((GeneralPath) shape).curveTo(37.823997, 31.638998, 37.972996, 31.532999, 37.811996, 31.4);
        ((GeneralPath) shape).curveTo(37.386997, 31.053, 36.745995, 30.907999, 35.894997, 30.959);
        ((GeneralPath) shape).curveTo(35.093998, 31.014, 34.827995, 31.135, 35.093998, 31.317999);
        ((GeneralPath) shape).curveTo(35.468998, 31.532999, 35.934, 31.588, 36.491997, 31.477999);
        ((GeneralPath) shape).curveTo(36.706997, 31.454998, 36.761997, 31.4, 36.651997, 31.317999);
        ((GeneralPath) shape).curveTo(36.573997, 31.268, 36.440998, 31.24, 36.253998, 31.24);
        ((GeneralPath) shape).curveTo(35.878998, 31.185, 35.784996, 31.201, 35.973, 31.279);
        ((GeneralPath) shape).lineTo(36.253998, 31.361);
        ((GeneralPath) shape).curveTo(36.304996, 31.412, 36.121, 31.412, 35.690998, 31.361);
        ((GeneralPath) shape).curveTo(35.535, 31.334, 35.468998, 31.295, 35.491997, 31.24);
        ((GeneralPath) shape).curveTo(35.519997, 31.185, 35.624996, 31.146, 35.811996, 31.119);
        ((GeneralPath) shape).curveTo(36.319996, 31.041, 36.772995, 31.092, 37.171997, 31.279);
        ((GeneralPath) shape).curveTo(37.491997, 31.467, 37.319996, 31.588, 36.651997, 31.639);
        ((GeneralPath) shape).curveTo(35.772995, 31.748, 34.761997, 31.572, 33.612995, 31.119);
        ((GeneralPath) shape).curveTo(32.440994, 30.666, 31.198996, 30.428, 29.894995, 30.4);
        ((GeneralPath) shape).curveTo(28.479996, 30.4, 27.519995, 30.467, 27.011995, 30.6);
        ((GeneralPath) shape).curveTo(26.667995, 30.705, 26.507996, 30.865, 26.534996, 31.08);
        ((GeneralPath) shape).curveTo(26.558996, 31.268, 26.733995, 31.428, 27.054996, 31.56);
        ((GeneralPath) shape).closePath();

        g.setPaint(new Color(0xD1B960));
        g.fill(shape);

        // _0_0_0_85
        shape = new GeneralPath();
        ((GeneralPath) shape).moveTo(30.094, 31.92);
        ((GeneralPath) shape).curveTo(29.801, 31.998, 29.785, 32.107, 30.055, 32.24);
        ((GeneralPath) shape).curveTo(30.266, 32.346, 30.535, 32.373, 30.852001, 32.318);
        ((GeneralPath) shape).curveTo(31.254002, 32.268, 31.348001, 32.213, 31.133001, 32.158);
        ((GeneralPath) shape).curveTo(31.082, 32.107002, 31.000002, 32.092, 30.895, 32.119);
        ((GeneralPath) shape).curveTo(30.812, 32.119, 30.801, 32.146, 30.852001, 32.201);
        ((GeneralPath) shape).curveTo(30.934002, 32.225, 30.906002, 32.24, 30.773, 32.24);
        ((GeneralPath) shape).curveTo(30.641, 32.24, 30.508001, 32.225002, 30.375, 32.201);
        ((GeneralPath) shape).curveTo(30.16, 32.119, 30.348, 32.053, 30.934, 31.998001);
        ((GeneralPath) shape).curveTo(31.281, 31.998001, 31.559, 32.107002, 31.773, 32.318);
        ((GeneralPath) shape).curveTo(31.824001, 32.373, 31.973001, 32.373, 32.215, 32.318);
        ((GeneralPath) shape).curveTo(32.293, 32.135002, 32.012, 31.986, 31.375, 31.881);
        ((GeneralPath) shape).curveTo(31.0, 31.748001, 30.574, 31.76, 30.094, 31.92);
        ((GeneralPath) shape).closePath();

        g.fill(shape);

        // _0_0_0_86
        shape = new GeneralPath();
        ((GeneralPath) shape).moveTo(33.492, 30.041);
        ((GeneralPath) shape).curveTo(33.785, 29.986, 33.828, 29.92, 33.613, 29.842001);
        ((GeneralPath) shape).curveTo(33.398, 29.76, 33.105, 29.748001, 32.733997, 29.799002);
        ((GeneralPath) shape).curveTo(32.226997, 29.799002, 32.026997, 29.881002, 32.132996, 30.041002);
        ((GeneralPath) shape).curveTo(32.347996, 30.252003, 32.667995, 30.334002, 33.093994, 30.279003);
        ((GeneralPath) shape).curveTo(33.890995, 30.279003, 34.440994, 30.213003, 34.733994, 30.080004);
        ((GeneralPath) shape).curveTo(34.784992, 30.053003, 34.772995, 30.025003, 34.690994, 29.998003);
        ((GeneralPath) shape).curveTo(34.585995, 29.975002, 34.479996, 29.975002, 34.374992, 29.998003);
        ((GeneralPath) shape).curveTo(33.706993, 30.135002, 33.253994, 30.174004, 33.011993, 30.119003);
        ((GeneralPath) shape).curveTo(32.827995, 30.064003, 32.733994, 30.025003, 32.733994, 29.998003);
        ((GeneralPath) shape).curveTo(32.706993, 29.947002, 32.772995, 29.908003, 32.933994, 29.881002);
        ((GeneralPath) shape).curveTo(33.093994, 29.853003, 33.237995, 29.853003, 33.374996, 29.881002);
        ((GeneralPath) shape).curveTo(33.507996, 29.908003, 33.507996, 29.932003, 33.374996, 29.959002);
        ((GeneralPath) shape).curveTo(33.237995, 29.959002, 33.198997, 29.975002, 33.253998, 29.998001);
        ((GeneralPath) shape).curveTo(33.281, 30.025002, 33.358997, 30.041, 33.491997, 30.041);
        ((GeneralPath) shape).closePath();

        g.fill(shape);

        // _0_0_0_87
        shape = new GeneralPath();
        ((GeneralPath) shape).moveTo(33.812, 31.799);
        ((GeneralPath) shape).curveTo(33.68, 31.692999, 33.453, 31.639, 33.133, 31.639);
        ((GeneralPath) shape).curveTo(32.84, 31.639, 32.602, 31.666, 32.413998, 31.721);
        ((GeneralPath) shape).curveTo(32.281, 31.748001, 32.293, 31.787, 32.453, 31.842001);
        ((GeneralPath) shape).curveTo(32.613, 31.92, 32.812, 31.975, 33.055, 31.998001);
        ((GeneralPath) shape).curveTo(33.32, 32.025, 33.535, 32.014, 33.691, 31.959002);
        ((GeneralPath) shape).curveTo(33.828003, 31.908, 33.867, 31.853, 33.812, 31.799002);
        ((GeneralPath) shape).closePath();

        g.fill(shape);

        // _0_0_0_88
        shape = new GeneralPath();
        ((GeneralPath) shape).moveTo(35.414, 30.721);
        ((GeneralPath) shape).curveTo(35.121002, 30.533, 34.652, 30.494001, 34.012, 30.6);
        ((GeneralPath) shape).curveTo(33.879, 30.627, 33.879, 30.682001, 34.012, 30.76);
        ((GeneralPath) shape).curveTo(34.172, 30.842001, 34.387, 30.893, 34.652, 30.92);
        ((GeneralPath) shape).curveTo(34.895, 30.947, 35.094, 30.932, 35.254, 30.881);
        ((GeneralPath) shape).curveTo(35.414, 30.826, 35.465, 30.775, 35.414, 30.721);
        ((GeneralPath) shape).closePath();

        g.fill(shape);

        // _0_0_0_89
        shape = new GeneralPath();
        ((GeneralPath) shape).moveTo(17.812, 27.201);
        ((GeneralPath) shape).curveTo(17.227001, 27.252, 16.895, 27.361, 16.812, 27.521);
        ((GeneralPath) shape).curveTo(16.758, 27.654, 16.895, 27.799, 17.215, 27.959);
        ((GeneralPath) shape).curveTo(18.012001, 28.334, 19.105, 28.494, 20.492, 28.439);
        ((GeneralPath) shape).curveTo(21.402, 28.439, 22.254, 28.307, 23.055, 28.040998);
        ((GeneralPath) shape).curveTo(23.719, 27.825998, 23.613, 27.439, 22.734001, 26.880999);
        ((GeneralPath) shape).curveTo(22.387001, 26.692999, 22.238, 26.505999, 22.293001, 26.317999);
        ((GeneralPath) shape).curveTo(22.320002, 26.157999, 22.480001, 26.053, 22.773, 25.998);
        ((GeneralPath) shape).curveTo(23.441, 25.893, 23.961, 25.92, 24.332, 26.08);
        ((GeneralPath) shape).curveTo(24.52, 26.157999, 24.602001, 26.24, 24.574001, 26.318);
        ((GeneralPath) shape).curveTo(24.547, 26.373001, 24.414001, 26.412, 24.172, 26.439001);
        ((GeneralPath) shape).curveTo(23.961, 26.467001, 23.746, 26.467001, 23.535002, 26.439001);
        ((GeneralPath) shape).curveTo(23.320002, 26.439001, 23.199001, 26.412, 23.172, 26.361002);
        ((GeneralPath) shape).curveTo(23.172, 26.307001, 23.215, 26.268002, 23.293001, 26.240002);
        ((GeneralPath) shape).curveTo(23.375002, 26.213001, 23.441002, 26.213001, 23.492, 26.240002);
        ((GeneralPath) shape).curveTo(23.602001, 26.240002, 23.668001, 26.279001, 23.691, 26.361002);
        ((GeneralPath) shape).curveTo(23.801, 26.439001, 23.906, 26.428001, 24.012, 26.318003);
        ((GeneralPath) shape).curveTo(24.094, 26.268003, 24.050999, 26.213003, 23.890999, 26.158003);
        ((GeneralPath) shape).curveTo(23.734, 26.107002, 23.519999, 26.092003, 23.254, 26.119003);
        ((GeneralPath) shape).curveTo(22.961, 26.146004, 22.801, 26.201004, 22.772999, 26.279003);
        ((GeneralPath) shape).curveTo(22.718998, 26.361004, 22.800999, 26.428003, 23.012, 26.478003);
        ((GeneralPath) shape).curveTo(23.464998, 26.666002, 24.039, 26.682003, 24.734, 26.521002);
        ((GeneralPath) shape).curveTo(25.0, 26.467001, 25.09, 26.373001, 25.012, 26.240002);
        ((GeneralPath) shape).curveTo(24.934, 26.135002, 24.706999, 26.025002, 24.331999, 25.920002);
        ((GeneralPath) shape).curveTo(23.956999, 25.814001, 23.504, 25.775002, 22.973, 25.799002);
        ((GeneralPath) shape).curveTo(22.465, 25.853003, 22.09, 25.947002, 21.852, 26.080002);
        ((GeneralPath) shape).curveTo(21.453, 26.295002, 21.719, 26.682001, 22.651999, 27.240002);
        ((GeneralPath) shape).curveTo(22.999998, 27.455002, 23.026999, 27.654001, 22.734, 27.842001);
        ((GeneralPath) shape).curveTo(22.491999, 27.975, 22.078, 28.092001, 21.491999, 28.201);
        ((GeneralPath) shape).curveTo(20.508, 28.334, 19.534998, 28.318, 18.574, 28.158);
        ((GeneralPath) shape).curveTo(18.039, 28.080002, 17.668, 27.975, 17.453, 27.842001);
        ((GeneralPath) shape).curveTo(17.214998, 27.682001, 17.293, 27.545, 17.691, 27.439001);
        ((GeneralPath) shape).curveTo(18.094, 27.307001, 18.602, 27.252, 19.215, 27.279001);
        ((GeneralPath) shape).curveTo(19.719, 27.307001, 20.121, 27.361002, 20.414, 27.439001);
        ((GeneralPath) shape).curveTo(20.625, 27.521002, 20.734, 27.6, 20.734, 27.682001);
        ((GeneralPath) shape).curveTo(20.706999, 27.76, 20.519999, 27.814001, 20.171999, 27.842001);
        ((GeneralPath) shape).curveTo(19.188, 27.893002, 18.758, 27.853, 18.894999, 27.721);
        ((GeneralPath) shape).curveTo(18.918, 27.693, 19.078, 27.682001, 19.374998, 27.682001);
        ((GeneralPath) shape).curveTo(19.640999, 27.705002, 19.811998, 27.693, 19.890999, 27.639002);
        ((GeneralPath) shape).curveTo(19.973, 27.611002, 19.918, 27.572002, 19.734, 27.521002);
        ((GeneralPath) shape).curveTo(19.227, 27.361002, 18.758, 27.373001, 18.331999, 27.560001);
        ((GeneralPath) shape).curveTo(17.987999, 27.721, 18.188, 27.865002, 18.933998, 27.998001);
        ((GeneralPath) shape).curveTo(19.573997, 28.080002, 20.280998, 28.053001, 21.054998, 27.920002);
        ((GeneralPath) shape).curveTo(21.347998, 27.865002, 21.479998, 27.787003, 21.453, 27.682001);
        ((GeneralPath) shape).curveTo(21.401999, 27.572, 21.214998, 27.467001, 20.894999, 27.361002);
        ((GeneralPath) shape).curveTo(20.065998, 27.092003, 19.038998, 27.041002, 17.811998, 27.201002);
        ((GeneralPath) shape).closePath();

        g.fill(shape);

        // _0_0_0_90
        shape = new GeneralPath();
        ((GeneralPath) shape).moveTo(17.734, 27.119);
        ((GeneralPath) shape).curveTo(18.535, 27.119, 18.866999, 27.053, 18.734, 26.92);
        ((GeneralPath) shape).curveTo(18.625, 26.705, 18.281, 26.572, 17.691, 26.521);
        ((GeneralPath) shape).curveTo(17.586, 26.494, 17.492, 26.494, 17.414, 26.521);
        ((GeneralPath) shape).curveTo(17.309, 26.549, 17.293, 26.572, 17.375, 26.6);
        ((GeneralPath) shape).curveTo(18.094, 26.732, 18.309, 26.842001, 18.012, 26.92);
        ((GeneralPath) shape).curveTo(17.508, 27.025, 17.16, 27.025, 16.973, 26.92);
        ((GeneralPath) shape).curveTo(16.918, 26.865, 16.918, 26.826, 16.973, 26.799);
        ((GeneralPath) shape).curveTo(17.055, 26.775, 17.133, 26.787, 17.215, 26.842);
        ((GeneralPath) shape).curveTo(17.613, 26.919998, 17.734, 26.907999, 17.574, 26.799);
        ((GeneralPath) shape).curveTo(17.469, 26.721, 17.215, 26.705, 16.812, 26.76);
        ((GeneralPath) shape).curveTo(16.547, 26.787, 16.48, 26.853, 16.613, 26.959);
        ((GeneralPath) shape).curveTo(16.828001, 27.092, 17.199001, 27.146, 17.734001, 27.119);
        ((GeneralPath) shape).closePath();

        g.fill(shape);

        // _0_0_0_91
        shape = new GeneralPath();
        ((GeneralPath) shape).moveTo(25.492, 27.478);
        ((GeneralPath) shape).curveTo(25.359001, 27.506, 25.32, 27.545, 25.375, 27.6);
        ((GeneralPath) shape).curveTo(25.426, 27.682001, 25.559, 27.748001, 25.773, 27.799);
        ((GeneralPath) shape).curveTo(26.199001, 27.881, 26.625, 27.881, 27.055, 27.799);
        ((GeneralPath) shape).curveTo(27.426, 27.748, 27.535, 27.682, 27.375, 27.6);
        ((GeneralPath) shape).curveTo(27.215, 27.494, 26.988, 27.467001, 26.691, 27.521);
        ((GeneralPath) shape).curveTo(26.559, 27.549, 26.535, 27.572, 26.613, 27.6);
        ((GeneralPath) shape).curveTo(26.668001, 27.627, 26.762001, 27.627, 26.895, 27.6);
        ((GeneralPath) shape).curveTo(27.055, 27.572, 27.133001, 27.588001, 27.133001, 27.639);
        ((GeneralPath) shape).curveTo(27.105001, 27.666, 27.012001, 27.693, 26.852001, 27.721);
        ((GeneralPath) shape).curveTo(26.453001, 27.775002, 26.199001, 27.721, 26.094002, 27.560001);
        ((GeneralPath) shape).curveTo(26.039001, 27.506, 26.199001, 27.467001, 26.574001, 27.439001);
        ((GeneralPath) shape).curveTo(26.785002, 27.412, 27.039001, 27.385, 27.332, 27.361002);
        ((GeneralPath) shape).curveTo(27.785, 27.361002, 27.773, 27.318003, 27.293001, 27.240002);
        ((GeneralPath) shape).curveTo(26.574001, 27.240002, 25.973001, 27.318, 25.492, 27.478003);
        ((GeneralPath) shape).closePath();

        g.fill(shape);

        // _0_0_0_92
        shape = new GeneralPath();
        ((GeneralPath) shape).moveTo(20.414, 26.478);
        ((GeneralPath) shape).curveTo(20.305, 26.428001, 20.121, 26.412, 19.852, 26.439001);
        ((GeneralPath) shape).curveTo(19.585999, 26.439001, 19.401999, 26.467001, 19.293, 26.521002);
        ((GeneralPath) shape).curveTo(19.188, 26.572002, 19.227, 26.639002, 19.414, 26.721003);
        ((GeneralPath) shape).curveTo(19.602, 26.775003, 19.785, 26.799002, 19.973, 26.799002);
        ((GeneralPath) shape).curveTo(20.746, 26.721003, 20.895, 26.615002, 20.414, 26.478003);
        ((GeneralPath) shape).closePath();

        g.fill(shape);

        // _0_0_0_93
        shape = new GeneralPath();
        ((GeneralPath) shape).moveTo(25.254, 26.76);
        ((GeneralPath) shape).curveTo(24.828, 26.627, 24.441, 26.639, 24.094, 26.799);
        ((GeneralPath) shape).curveTo(23.987999, 26.853, 24.027, 26.92, 24.215, 26.998);
        ((GeneralPath) shape).curveTo(24.375, 27.053, 24.559, 27.08, 24.773, 27.08);
        ((GeneralPath) shape).curveTo(25.039001, 27.08, 25.266, 27.053, 25.453001, 26.998);
        ((GeneralPath) shape).curveTo(25.668001, 26.92, 25.602001, 26.842, 25.254002, 26.759998);
        ((GeneralPath) shape).closePath();

        g.fill(shape);

        // _0_0_0_94
        shape = new GeneralPath();
        ((GeneralPath) shape).moveTo(19.094, 32.521);
        ((GeneralPath) shape).curveTo(18.879, 32.494, 18.746, 32.494, 18.691, 32.521);
        ((GeneralPath) shape).curveTo(18.641, 32.549, 18.707, 32.588, 18.895, 32.639);
        ((GeneralPath) shape).curveTo(19.266, 32.775, 19.625, 32.775, 19.973, 32.639);
        ((GeneralPath) shape).curveTo(20.265999, 32.506, 20.078, 32.385, 19.414, 32.279);
        ((GeneralPath) shape).curveTo(19.012, 32.201, 18.425999, 32.184998, 17.652, 32.239998);
        ((GeneralPath) shape).curveTo(17.414, 32.267998, 17.332, 32.334, 17.414, 32.439);
        ((GeneralPath) shape).curveTo(17.469, 32.545, 17.640999, 32.654, 17.934, 32.76);
        ((GeneralPath) shape).curveTo(18.574, 32.975, 19.414, 33.040997, 20.453, 32.959);
        ((GeneralPath) shape).curveTo(20.905998, 32.932, 21.16, 32.853, 21.214998, 32.721);
        ((GeneralPath) shape).curveTo(21.237999, 32.615, 21.120998, 32.494, 20.851997, 32.361);
        ((GeneralPath) shape).curveTo(20.132998, 32.041, 19.171997, 31.853, 17.972998, 31.799);
        ((GeneralPath) shape).curveTo(17.120998, 31.775, 16.413998, 31.881, 15.851997, 32.119);
        ((GeneralPath) shape).curveTo(15.374997, 32.279, 15.612997, 32.614998, 16.573997, 33.119);
        ((GeneralPath) shape).curveTo(16.917997, 33.279, 17.104998, 33.427998, 17.132998, 33.56);
        ((GeneralPath) shape).curveTo(17.187998, 33.666, 17.093998, 33.748, 16.851997, 33.799);
        ((GeneralPath) shape).curveTo(16.374998, 33.853, 15.933997, 33.814, 15.534997, 33.682);
        ((GeneralPath) shape).curveTo(15.347997, 33.627, 15.253997, 33.572, 15.253997, 33.521);
        ((GeneralPath) shape).curveTo(15.253997, 33.467, 15.347997, 33.428, 15.534997, 33.4);
        ((GeneralPath) shape).curveTo(16.038998, 33.346, 16.319998, 33.385002, 16.374996, 33.521);
        ((GeneralPath) shape).curveTo(16.397997, 33.549, 16.386995, 33.572, 16.331997, 33.6);
        ((GeneralPath) shape).curveTo(16.280996, 33.627, 16.226997, 33.627, 16.171997, 33.6);
        ((GeneralPath) shape).lineTo(15.972997, 33.521);
        ((GeneralPath) shape).curveTo(15.917996, 33.467, 15.823997, 33.467, 15.690997, 33.521);
