package com.pump.awt.geom.outline.clipart;

import java.awt.*;
import java.awt.geom.AffineTransform;
import java.awt.geom.GeneralPath;

import static java.awt.Color.BLACK;

/**
 * This class has been automatically generated using
 * <a href="http://ebourg.github.io/flamingo-svg-transcoder/">Flamingo SVG transcoder</a>.
 * <p>
 * Source image: https://openclipart.org/detail/219215/rocking-chair
 * </p>
 */
public class RockingChair implements javax.swing.Icon {

    /** The width of this icon. */
    private int width;

    /** The height of this icon. */
    private int height;

    /**
     * Creates a new transcoded SVG image.
     */
    public RockingChair() {
        this(504, 856);
    }

    /**
     * Creates a new transcoded SVG image.
     */
    public RockingChair(int width, int height) {
        this.width = width;
        this.height = height;
    }

    @Override
    public int getIconHeight() {
        return height;
    }

    @Override
    public int getIconWidth() {
        return width;
    }

    @Override
    public void paintIcon(Component c, Graphics g, int x, int y) {
        double coef = Math.min((double) width / (double) 504, (double) height / (double) 856);

        Graphics2D g2d = (Graphics2D) g.create();
        g2d.translate(x, y);
        g2d.setRenderingHint(RenderingHints.KEY_ANTIALIASING, RenderingHints.VALUE_ANTIALIAS_ON);
        g2d.scale(coef, coef);
        paint(g2d);
        g2d.dispose();
    }

    /**
     * Paints the transcoded SVG image on the specified graphics context.
     * 
     * @param g Graphics context.
     */
    private static void paint(Graphics2D g) {
        Shape shape = null;
        
        float origAlpha = 1.0f;
        
        java.util.LinkedList<AffineTransform> transformations = new java.util.LinkedList<AffineTransform>();
        

        // 

        // _0
        transformations.push(g.getTransform());
        g.transform(new AffineTransform(1, 0, 0, 1, 0, -152.359f));

        // _0_0

        // _0_0_0
        shape = new GeneralPath();
        ((GeneralPath) shape).moveTo(565.5932, 1025.2358);
        ((GeneralPath) shape).curveTo(554.21936, 1021.60175, 548.09045, 1002.5604, 554.17053, 989.74774);
        ((GeneralPath) shape).curveTo(557.4218, 982.8962, 563.16766, 980.7038, 561.49146, 986.95447);
        ((GeneralPath) shape).curveTo(561.07385, 988.5116, 560.2752, 993.5747, 559.7167, 998.20575);
        ((GeneralPath) shape).curveTo(558.8283, 1005.5714, 559.4182, 1007.18994, 564.4275, 1011.1301);
        ((GeneralPath) shape).curveTo(567.57697, 1013.6076, 571.1553, 1015.3051, 572.37933, 1014.90265);
        ((GeneralPath) shape).curveTo(573.6034, 1014.50006, 575.1787, 1008.2208, 575.88007, 1000.94867);
        ((GeneralPath) shape).curveTo(576.5814, 993.6766, 577.84766, 985.64185, 578.69403, 983.0938);
        ((GeneralPath) shape).curveTo(580.1037, 978.84955, 579.59686, 978.461, 572.65063, 978.461);
        ((GeneralPath) shape).curveTo(558.7735, 978.461, 553.7144, 972.16785, 559.2606, 961.80475);
        ((GeneralPath) shape).curveTo(560.89886, 958.7437, 560.65106, 957.0064, 558.2311, 954.5864);
        ((GeneralPath) shape).curveTo(556.02155, 952.3769, 555.04407, 947.3769, 555.04407, 938.2843);
        ((GeneralPath) shape).curveTo(555.04407, 931.071, 554.2268, 924.66406, 553.22797, 924.04675);
        ((GeneralPath) shape).curveTo(552.2291, 923.42944, 550.7871, 917.09076, 550.0236, 909.9609);
        ((GeneralPath) shape).curveTo(547.8965, 890.0979, 549.37805, 890.8721, 514.6683, 891.48645);
        ((GeneralPath) shape).curveTo(494.24603, 891.8479, 483.55542, 891.2563, 481.62964, 889.658);
        ((GeneralPath) shape).curveTo(479.4398, 887.84064, 477.88873, 888.1041, 474.91013, 890.79974);
        ((GeneralPath) shape).curveTo(472.78027, 892.72723, 468.3143, 894.3817, 464.98578, 894.4764);
        ((GeneralPath) shape).curveTo(460.14627, 894.61395, 454.6394, 898.95703, 437.49664, 916.15594);
        ((GeneralPath) shape).curveTo(425.70618, 927.98505, 414.20627, 938.65625, 411.9413, 939.86975);
        ((GeneralPath) shape).curveTo(409.67636, 941.08325, 401.62692, 947.0772, 394.05365, 953.18976);
        ((GeneralPath) shape).curveTo(386.48038, 959.30225, 370.49686, 969.2763, 358.53473, 975.3543);
        ((GeneralPath) shape).curveTo(316.69305, 996.6143, 276.29468, 1004.547, 237.89606, 999.04315);
        ((GeneralPath) shape).curveTo(221.41049, 996.6802, 218.7948, 995.7179, 215.22313, 990.70197);
        ((GeneralPath) shape).curveTo(212.65811, 987.09973, 211.1857, 981.6701, 211.1857, 975.81366);
        ((GeneralPath) shape).curveTo(211.1857, 968.164, 212.30331, 965.50275, 217.75368, 960.174);
        ((GeneralPath) shape).curveTo(221.36607, 956.6422, 225.07231, 953.75256, 225.9898, 953.75256);
        ((GeneralPath) shape).curveTo(226.90729, 953.75256, 227.65796, 951.04395, 227.65796, 947.73346);
        ((GeneralPath) shape).curveTo(227.65796, 944.25195, 229.91995, 939.0261, 233.02335, 935.3379);
        ((GeneralPath) shape).curveTo(237.39676, 930.1404, 237.92117, 928.39813, 235.85979, 925.9143);
        ((GeneralPath) shape).curveTo(233.85995, 923.50464, 233.86249, 922.22644, 235.87129, 919.8053);
        ((GeneralPath) shape).curveTo(237.29489, 918.08997, 237.8577, 914.5335, 237.15108, 911.7181);
        ((GeneralPath) shape).curveTo(236.35559, 908.54865, 237.03116, 905.5514, 238.9802, 903.6023);
        ((GeneralPath) shape).curveTo(243.02277, 899.5597, 242.93399, 892.75354, 238.8181, 891.1741);
        ((GeneralPath) shape).curveTo(236.36053, 890.231, 235.90878, 888.36334, 236.96983, 883.5325);
        ((GeneralPath) shape).curveTo(238.83841, 875.025, 245.76738, 859.5405, 248.44673, 857.88464);
        ((GeneralPath) shape).curveTo(249.62415, 857.157, 250.12025, 855.34393, 249.54918, 853.8557);
        ((GeneralPath) shape).curveTo(248.50887, 851.14465, 253.40062, 836.3834, 260.45554, 820.94507);
        ((GeneralPath) shape).curveTo(262.52554, 816.4152, 265.85245, 807.14954, 267.8486, 800.35474);
        ((GeneralPath) shape).curveTo(269.8448, 793.55994, 273.26855, 783.9278, 275.45703, 778.94995);
        ((GeneralPath) shape).curveTo(280.07016, 768.4571, 279.77026, 768.0653, 263.3943, 763.191);
        ((GeneralPath) shape).curveTo(252.39748, 759.9178, 250.39609, 757.22125, 250.3349, 745.5959);
        ((GeneralPath) shape).curveTo(250.2987, 738.7243, 257.73798, 730.1023, 266.26913, 727.1283);
        ((GeneralPath) shape).curveTo(269.94696, 725.8462, 272.95612, 724.0887, 272.95612, 723.2227);
        ((GeneralPath) shape).curveTo(272.95612, 722.35675, 270.17642, 718.15045, 266.77902, 713.87537);
        ((GeneralPath) shape).curveTo(260.19775, 705.59393, 259.5584, 703.27045, 262.5567, 698.5308);
        ((GeneralPath) shape).curveTo(263.89514, 696.41504, 263.02487, 694.11694, 259.5812, 690.6733);
        ((GeneralPath) shape).curveTo(256.90424, 687.99634, 252.2355, 681.06604, 249.20624, 675.2727);
        ((GeneralPath) shape).curveTo(244.57817, 666.42163, 243.90921, 663.1508, 245.01784, 654.7935);
        ((GeneralPath) shape).curveTo(245.74348, 649.3233, 246.83406, 643.55286, 247.44138, 641.9702);
        ((GeneralPath) shape).curveTo(248.09494, 640.267, 246.84721, 638.5537, 244.38391, 637.7719);
        ((GeneralPath) shape).curveTo(238.97974, 636.0567, 237.20383, 630.12366, 237.77235, 615.6837);
        ((GeneralPath) shape).curveTo(238.026, 609.24194, 237.14293, 601.9336, 235.81, 599.443);
        ((GeneralPath) shape).curveTo(233.54192, 595.205, 232.40675, 594.99744, 218.1087, 596.2061);
        ((GeneralPath) shape).curveTo(203.11002, 597.47394, 202.79439, 597.4015, 200.83095, 592.2372);
        ((GeneralPath) shape).curveTo(199.73096, 589.344, 198.83096, 583.8362, 198.83096, 579.99756);
        ((GeneralPath) shape).curveTo(198.83096, 572.1187, 199.37479, 571.92194, 226.6279, 569.94055);
        ((GeneralPath) shape).curveTo(234.55518, 569.3642, 250.77005, 567.97546, 262.66095, 566.8545);
        ((GeneralPath) shape).curveTo(296.31592, 563.6817, 318.6549, 562.6326, 353.62494, 562.5827);
        ((GeneralPath) shape).lineTo(385.90656, 562.5366);
        ((GeneralPath) shape).lineTo(387.2911, 551.4552);
        ((GeneralPath) shape).curveTo(388.3805, 542.7357, 387.9176, 539.2169, 385.11923, 534.94604);
        ((GeneralPath) shape).curveTo(383.08078, 531.835, 381.62003, 525.799, 381.69678, 520.8043);
        ((GeneralPath) shape).curveTo(382.10703, 494.11197, 381.86398, 489.54758, 379.9704, 488.37726);
        ((GeneralPath) shape).curveTo(376.5821, 486.28317, 374.13818, 475.02808, 376.25174, 471.25134);
        ((GeneralPath) shape).curveTo(379.26544, 465.86615, 382.0848, 467.2251, 382.0848, 474.06287);
        ((GeneralPath) shape).curveTo(382.0848, 482.7529, 387.20703, 484.1108, 392.9294, 476.9378);
        ((GeneralPath) shape).curveTo(395.4584, 473.76773, 398.23676, 469.37378, 399.10355, 467.17355);
        ((GeneralPath) shape).curveTo(400.56436, 463.46533, 399.92773, 463.24533, 390.3886, 464.1619);
        ((GeneralPath) shape).lineTo(380.09772, 465.15076);
        ((GeneralPath) shape).lineTo(378.75705, 457.73508);
        ((GeneralPath) shape).curveTo(378.0197, 453.65646, 376.1504, 447.81738, 374.60303, 444.75934);
        ((GeneralPath) shape).curveTo(370.87793, 437.39734, 371.0224, 425.72253, 374.8782, 422.5225);
        ((GeneralPath) shape).curveTo(376.5769, 421.1127, 377.96674, 418.21954, 377.96674, 416.0933);
        ((GeneralPath) shape).curveTo(377.96674, 413.96704, 379.12497, 412.19916, 380.54053, 412.16473);
        ((GeneralPath) shape).curveTo(381.9689, 412.13004, 381.51074, 411.16812, 379.51102, 410.0034);
        ((GeneralPath) shape).curveTo(377.5292, 408.8491, 375.9077, 406.66, 375.9077, 405.13873);
        ((GeneralPath) shape).curveTo(375.9077, 403.61746, 374.64044, 401.8865, 373.09152, 401.2921);
        ((GeneralPath) shape).curveTo(368.76773, 399.63293, 367.53403, 389.2295, 371.0198, 383.82184);
        ((GeneralPath) shape).curveTo(372.69556, 381.22217, 373.58627, 377.5159, 372.9992, 375.5857);
        ((GeneralPath) shape).curveTo(370.1232, 366.1302, 365.52267, 313.1305, 364.59854, 278.8071);
        ((GeneralPath) shape).curveTo(364.02826, 257.6272, 362.5216, 236.12866, 361.25043, 231.03255);
        ((GeneralPath) shape).curveTo(359.5743, 224.3132, 359.55197, 219.55663, 361.16904, 213.724);
        ((GeneralPath) shape).curveTo(362.39554, 209.30042, 362.88126, 204.84329, 362.24838, 203.81932);
        ((GeneralPath) shape).curveTo(360.10843, 200.3568, 366.07816, 189.81348, 370.85782, 188.61385);
        ((GeneralPath) shape).curveTo(380.03574, 186.31035, 383.06863, 188.29602, 383.7823, 197.07565);
        ((GeneralPath) shape).curveTo(384.16232, 201.75145, 385.81497, 206.06003, 387.61578, 207.07005);
        ((GeneralPath) shape).curveTo(390.28976, 208.56982, 390.56284, 212.0864, 389.3744, 229.71942);
        ((GeneralPath) shape).lineTo(387.96762, 250.59335);
        ((GeneralPath) shape).lineTo(394.80658, 257.00906);
        ((GeneralPath) shape).curveTo(403.7539, 265.40268, 413.30716, 268.42255, 426.2091, 266.9357);
        ((GeneralPath) shape).curveTo(436.29877, 265.77295, 465.28357, 256.0502, 473.71167, 251.00127);
        ((GeneralPath) shape).curveTo(476.10303, 249.5687, 485.6604, 248.53433, 496.5056, 248.53433);
        ((GeneralPath) shape).curveTo(511.54587, 248.53433, 515.8834, 247.83287, 518.7873, 244.93102);
        ((GeneralPath) shape).curveTo(520.7705, 242.94919, 523.4851, 241.26518, 524.8198, 241.18875);
        ((GeneralPath) shape).curveTo(526.1545, 241.11235, 530.2508, 240.65764, 533.9226, 240.17828);
        ((GeneralPath) shape).curveTo(537.5944, 239.69899, 544.84125, 240.74721, 550.0267, 242.50769);
        ((GeneralPath) shape).curveTo(556.03503, 244.54758, 561.82874, 245.17207, 566.0, 244.22939);
        ((GeneralPath) shape).curveTo(579.76855, 241.11772, 602.2739, 245.06277, 613.9435, 252.63356);
        ((GeneralPath) shape).curveTo(616.32806, 254.1806, 623.2773, 256.3865, 629.3862, 257.53555);
        ((GeneralPath) shape).curveTo(639.6523, 259.46655, 641.44037, 259.1744, 652.9988, 253.67755);
        ((GeneralPath) shape).curveTo(670.91113, 245.15894, 673.3198, 238.77834, 672.34296, 202.43553);
        ((GeneralPath) shape).curveTo(672.23987, 198.59808, 673.13885, 194.47488, 674.34094, 193.27283);
        ((GeneralPath) shape).curveTo(675.54297, 192.0708, 676.5265, 188.9562, 676.5265, 186.35153);
        ((GeneralPath) shape).curveTo(676.5265, 183.51465, 677.7649, 181.61575, 679.61505, 181.61575);
        ((GeneralPath) shape).curveTo(681.3138, 181.61575, 682.7036, 180.62474, 682.7036, 179.41351);
        ((GeneralPath) shape).curveTo(682.7036, 174.71558, 691.9404, 178.75288, 694.8082, 184.7043);
        ((GeneralPath) shape).curveTo(696.4453, 188.1017, 698.5611, 192.4903, 699.5098, 194.45676);
        ((GeneralPath) shape).curveTo(702.166, 199.962, 701.55975, 209.06209, 698.21906, 213.83163);
        ((GeneralPath) shape).curveTo(696.5603, 216.1998, 695.7658, 218.69998, 696.4534, 219.38762);
        ((GeneralPath) shape).curveTo(697.14105, 220.07526, 696.6291, 221.93265, 695.3157, 223.51518);
        ((GeneralPath) shape).curveTo(694.00226, 225.0977, 693.47015, 227.80608, 694.1331, 229.53377);
        ((GeneralPath) shape).curveTo(694.79614, 231.26146, 694.36444, 233.27705, 693.1738, 234.01286);
        ((GeneralPath) shape).curveTo(691.79126, 234.86731, 691.4588, 240.70842, 692.25366, 250.17862);
        ((GeneralPath) shape).curveTo(693.0833, 260.06305, 692.4177, 270.49826, 690.25757, 281.47882);
        ((GeneralPath) shape).curveTo(688.4752, 290.53857, 685.0204, 311.84955, 682.5801, 328.83655);
        ((GeneralPath) shape).curveTo(676.84875, 368.73303, 676.24426, 370.01718, 663.1945, 370.01718);
        ((GeneralPath) shape).curveTo(653.17, 370.01718, 653.0303, 370.10748, 651.1949, 377.76395);
        ((GeneralPath) shape).curveTo(650.1735, 382.0247, 649.8793, 386.92154, 650.54095, 388.64584);
        ((GeneralPath) shape).curveTo(652.5067, 393.7686, 664.1722, 386.79712, 664.1722, 380.4996);
        ((GeneralPath) shape).curveTo(664.1722, 374.53284, 671.95074, 371.76575, 676.3519, 376.1669);
        ((GeneralPath) shape).curveTo(678.7762, 378.59113, 678.85876, 380.54623, 676.8238, 387.33826);
        ((GeneralPath) shape).curveTo(675.46716, 391.86633, 673.22375, 396.77075, 671.83844, 398.2369);
        ((GeneralPath) shape).curveTo(670.4532, 399.7031, 669.04407, 402.7558, 668.70715, 405.02075);
        ((GeneralPath) shape).curveTo(667.34595, 414.17133, 666.51764, 414.7949, 657.4566, 413.4909);
        ((GeneralPath) shape).curveTo(652.6566, 412.8001, 647.80286, 412.92813, 646.6704, 413.77542);
        ((GeneralPath) shape).curveTo(644.1425, 415.6667, 643.0374, 424.06244, 644.526, 430.0672);
        ((GeneralPath) shape).curveTo(646.30536, 437.245, 656.0204, 433.50546, 659.0598, 424.47275);
        ((GeneralPath) shape).curveTo(661.96387, 415.8424, 666.9272, 414.41, 671.22095, 420.96307);
        ((GeneralPath) shape).curveTo(675.46655, 427.4427, 672.78326, 436.75427, 664.27325, 445.07303);
        ((GeneralPath) shape).curveTo(659.9515, 449.2977, 658.8858, 451.34894, 661.01263, 451.34894);
        ((GeneralPath) shape).curveTo(662.75037, 451.34894, 664.1722, 452.82977, 664.1722, 454.63968);
        ((GeneralPath) shape).curveTo(664.1722, 457.4572, 662.3217, 457.7233, 651.3032, 456.49026);
        ((GeneralPath) shape).curveTo(638.21155, 455.0252, 632.55817, 452.45786, 636.39246, 449.71893);
        ((GeneralPath) shape).curveTo(639.1579, 447.7435, 639.6546, 440.38525, 637.128, 438.82367);
        ((GeneralPath) shape).curveTo(633.517, 436.59198, 634.5773, 424.57343, 638.90106, 418.72522);
        ((GeneralPath) shape).curveTo(642.45447, 413.91895, 642.94995, 410.8141, 642.17334, 398.22012);
        ((GeneralPath) shape).curveTo(641.39557, 385.6082, 641.89655, 382.48227, 645.50854, 377.40967);
        ((GeneralPath) shape).curveTo(647.8463, 374.12662, 649.759, 370.9866, 649.759, 370.4318);
        ((GeneralPath) shape).curveTo(649.759, 369.877, 647.07086, 366.54544, 643.7853, 363.0283);
        ((GeneralPath) shape).curveTo(639.2544, 358.17795, 636.0314, 356.63342, 630.4408, 356.63342);
        ((GeneralPath) shape).curveTo(624.06055, 356.63342, 622.9104, 357.39435, 621.88245, 362.29578);
        ((GeneralPath) shape).curveTo(621.22925, 365.41006, 619.8218, 371.84302, 618.75464, 376.59128);
        ((GeneralPath) shape).curveTo(617.68756, 381.3395, 616.81445, 388.8702, 616.81445, 393.32617);
        ((GeneralPath) shape).curveTo(616.81445, 401.78763, 614.46893, 405.0891, 607.5488, 406.36826);
        ((GeneralPath) shape).curveTo(603.2259, 407.16736, 602.2384, 411.86075, 599.385, 445.1718);
        ((GeneralPath) shape).curveTo(598.09766, 460.20032, 594.4823, 490.34818, 592.84155, 499.73618);
        ((GeneralPath) shape).curveTo(592.2478, 503.13358, 591.2658, 519.9544, 590.6594, 537.1158);
        ((GeneralPath) shape).lineTo(589.5569, 568.3183);
        ((GeneralPath) shape).lineTo(583.9542, 569.14056);
        ((GeneralPath) shape).curveTo(576.22003, 570.2757, 573.5747, 569.0538, 573.5747, 564.3462);
        ((GeneralPath) shape).curveTo(573.5747, 561.3698, 574.7812, 560.47614, 578.2075, 560.9145);
        ((GeneralPath) shape).curveTo(580.75555, 561.2405, 583.07196, 560.8122, 583.3551, 559.9629);
        ((GeneralPath) shape).curveTo(584.6788, 555.99194, 583.6524, 548.1235, 581.81085, 548.1235);
        ((GeneralPath) shape).curveTo(580.67834, 548.1235, 579.75183, 549.4586, 579.75183, 551.0905);
        ((GeneralPath) shape).curveTo(579.75183, 552.7224, 578.6909, 554.7132, 577.3942, 555.5146);
        ((GeneralPath) shape).curveTo(575.7331, 556.5412, 575.4132, 555.2086, 576.31146, 551.00323);
        ((GeneralPath) shape).curveTo(579.02637, 538.2928, 583.6396, 507.30963, 584.8646, 493.55908);
        ((GeneralPath) shape).curveTo(585.57086, 485.6318, 587.42145, 468.95364, 588.977, 456.4965);
        ((GeneralPath) shape).curveTo(590.53253, 444.03934, 592.44617, 427.57394, 593.2295, 419.90674);
        ((GeneralPath) shape).lineTo(594.65375, 405.9663);
        ((GeneralPath) shape).lineTo(588.90674, 408.1513);
        ((GeneralPath) shape).curveTo(585.74585, 409.35306, 581.8946, 409.85086, 580.3483, 409.25748);
        ((GeneralPath) shape).curveTo(575.9947, 407.58682, 576.59735, 403.3183, 569.4636, 486.35245);
        ((GeneralPath) shape).curveTo(568.442, 498.24335, 567.3705, 520.4809, 567.08234, 535.7692);
        ((GeneralPath) shape).curveTo(566.727, 554.6224, 565.71014, 564.6006, 563.9218, 566.78107);
        ((GeneralPath) shape).curveTo(562.14453, 568.9481, 561.8284, 571.9681, 562.95197, 576.0467);
        ((GeneralPath) shape).curveTo(563.8687, 579.3746, 564.36163, 585.80365, 564.04736, 590.3335);
        ((GeneralPath) shape).curveTo(563.73315, 594.8634, 563.3226, 602.04425, 563.1351, 606.291);
        ((GeneralPath) shape).curveTo(562.80194, 613.835, 562.6097, 614.0124, 554.76544, 614.0124);
        ((GeneralPath) shape).curveTo(546.74756, 614.0124, 546.7377, 614.0024, 547.3727, 606.291);
        ((GeneralPath) shape).curveTo(547.9524, 599.25134, 548.50085, 598.62195, 553.585, 599.16235);
        ((GeneralPath) shape).curveTo(556.6521, 599.48834, 559.1615, 598.7934, 559.1615, 597.6181);
        ((GeneralPath) shape).curveTo(559.1615, 596.44275, 556.7715, 595.48114, 553.85034, 595.48114);
        ((GeneralPath) shape).curveTo(548.94995, 595.48114, 548.64514, 594.9635, 549.9088, 588.7893);
        ((GeneralPath) shape).curveTo(550.6621, 585.10876, 552.51733, 581.2207, 554.03156, 580.1492);
        ((GeneralPath) shape).curveTo(556.2751, 578.56146, 556.14716, 577.7104, 553.3402, 575.5502);
        ((GeneralPath) shape).curveTo(550.19763, 573.13165, 550.30176, 572.7852, 554.5287, 571.59595);
        ((GeneralPath) shape).curveTo(560.27014, 569.9805, 560.61664, 566.65466, 555.04346, 566.65466);
        ((GeneralPath) shape).curveTo(552.0346, 566.65466, 550.9254, 565.282, 550.9254, 561.55853);
        ((GeneralPath) shape).curveTo(550.9254, 556.9099, 551.51306, 556.5788, 557.61725, 557.7877);
        ((GeneralPath) shape).curveTo(563.41876, 558.9367, 563.96906, 558.6992, 561.7532, 556.00256);
        ((GeneralPath) shape).curveTo(560.3474, 554.2918, 559.7453, 552.344, 560.4151, 551.6742);
        ((GeneralPath) shape).curveTo(561.0849, 551.0044, 560.9448, 549.34296, 560.1038, 547.9822);
        ((GeneralPath) shape).curveTo(559.04584, 546.2703, 557.6737, 547.0211, 555.6506, 550.41895);
        ((GeneralPath) shape).lineTo(552.72644, 555.32996);
        ((GeneralPath) shape).lineTo(553.9146, 550.1824);
        ((GeneralPath) shape).curveTo(556.7977, 537.69214, 567.3977, 430.50073, 567.3977, 413.83563);
        ((GeneralPath) shape).curveTo(567.3977, 410.8331, 565.62445, 410.16818, 557.6173, 410.16818);
        ((GeneralPath) shape).lineTo(547.8369, 410.16818);
        ((GeneralPath) shape).lineTo(547.7762, 419.94858);
        ((GeneralPath) shape).curveTo(547.7428, 425.3278, 546.8943, 447.797, 545.89075, 469.8801);
        ((GeneralPath) shape).curveTo(544.8872, 491.96323, 544.15106, 522.23535, 544.255, 537.1515);
        ((GeneralPath) shape).curveTo(544.399, 557.8068, 543.79816, 564.5196, 541.73505, 565.3113);
        ((GeneralPath) shape).curveTo(540.0411, 565.9613, 539.2774, 568.9149, 539.6968, 573.1946);
        ((GeneralPath) shape).curveTo(540.0656, 576.9586, 540.52057, 580.0383, 540.70776, 580.0383);
        ((GeneralPath) shape).curveTo(540.89496, 580.0383, 541.36475, 583.51294, 541.7518, 587.7597);
        ((GeneralPath) shape).curveTo(542.3662, 594.5014, 541.88257, 595.50714, 537.9396, 595.68634);
        ((GeneralPath) shape).curveTo(533.7626, 595.87616, 533.81, 596.00574, 538.5712, 597.4129);
        ((GeneralPath) shape).curveTo(541.4024, 598.24963, 543.4512, 600.11835, 543.1241, 601.5656);
        ((GeneralPath) shape).curveTo(542.797, 603.0129, 542.4478, 608.2586, 542.3482, 613.2228);
        ((GeneralPath) shape).curveTo(542.24854, 618.18695, 541.2445, 622.24854, 540.117, 622.24854);
        ((GeneralPath) shape).curveTo(538.8772, 622.24854, 538.9733, 623.3406, 540.3603, 625.0118);
        ((GeneralPath) shape).curveTo(543.2912, 628.5433, 541.3175, 630.4847, 534.7963, 630.4847);
        ((GeneralPath) shape).curveTo(529.11523, 630.4847, 529.82355, 632.5308, 535.8087, 633.40924);
        ((GeneralPath) shape).curveTo(537.8943, 633.71533, 539.50806, 635.0357, 539.3948, 636.34326);
        ((GeneralPath) shape).curveTo(539.2816, 637.6509, 539.04987, 641.0372, 538.88, 643.86835);
        ((GeneralPath) shape).curveTo(538.65967, 647.5403, 537.3906, 649.0159, 534.45306, 649.0159);
        ((GeneralPath) shape).curveTo(528.4595, 649.0159, 528.5949, 660.43475, 534.6071, 662.007);
        ((GeneralPath) shape).curveTo(538.1742, 662.9398, 538.514, 663.80664, 536.66614, 667.2594);
        ((GeneralPath) shape).curveTo(535.4489, 669.53375, 534.4404, 674.46686, 534.4249, 678.2218);
        ((GeneralPath) shape).curveTo(534.38525, 687.8551, 532.3485, 694.3147, 529.3508, 694.3147);
        ((GeneralPath) shape).curveTo(527.68646, 694.3147, 527.1549, 696.2343, 527.83466, 699.7901);
        ((GeneralPath) shape).curveTo(528.8096, 704.8901, 529.0685, 705.0096, 531.61053, 701.5331);
        ((GeneralPath) shape).curveTo(534.0957, 698.13446, 534.45654, 698.10516, 535.6462, 701.2053);
        ((GeneralPath) shape).curveTo(537.87506, 707.01373, 534.97266, 710.787, 528.27594, 710.787);
        ((GeneralPath) shape).curveTo(520.64124, 710.787, 518.4558, 706.47534, 522.2084, 698.8163);
        ((GeneralPath) shape).curveTo(524.1783, 694.79565, 525.0697, 679.2284, 525.4726, 641.80945);
        ((GeneralPath) shape).curveTo(525.9469, 597.76404, 526.75006, 580.0385, 528.27155, 580.0385);
        ((GeneralPath) shape).curveTo(529.7074, 580.0385, 529.26355, 567.152, 527.7602, 565.1924);
        ((GeneralPath) shape).curveTo(526.56726, 563.63745, 526.76196, 558.99194, 528.2779, 552.8382);
        ((GeneralPath) shape).curveTo(531.31793, 540.4976, 533.8247, 515.545, 535.37085, 482.2345);
        ((GeneralPath) shape).curveTo(536.8048, 451.34167, 538.2777, 430.74286, 539.8982, 418.91925);
        ((GeneralPath) shape).lineTo(541.0976, 410.16837);
        ((GeneralPath) shape).lineTo(531.95844, 410.16837);
        ((GeneralPath) shape).curveTo(523.01886, 410.16837, 522.8194, 410.31464, 522.8261, 416.86023);
        ((GeneralPath) shape).curveTo(522.8291, 420.54074, 522.05646, 455.3728, 521.1074, 494.26477);
        ((GeneralPath) shape).curveTo(519.7244, 550.93823, 518.82355, 565.1917, 516.5697, 566.05664);
        ((GeneralPath) shape).curveTo(514.43286, 566.8766, 514.31995, 567.8135, 516.0994, 569.95764);
        ((GeneralPath) shape).curveTo(517.3875, 571.50964, 517.9149, 574.1515, 517.2714, 575.82837);
        ((GeneralPath) shape).curveTo(516.628, 577.50525, 516.7559, 579.2817, 517.55585, 579.776);
        ((GeneralPath) shape).curveTo(518.3557, 580.2704, 519.0102, 583.77466, 519.0102, 587.5633);
        ((GeneralPath) shape).curveTo(519.0102, 594.0631, 518.6036, 594.4518, 511.80356, 594.4518);
        ((GeneralPath) shape).curveTo(504.87653, 594.4518, 504.6099, 594.1722, 504.93073, 587.2452);
        ((GeneralPath) shape).curveTo(505.11438, 583.28156, 505.46545, 580.0386, 505.711, 580.0386);
        ((GeneralPath) shape).curveTo(507.23392, 580.0386, 506.6848, 567.22675, 505.0723, 565.1368);
        ((GeneralPath) shape).curveTo(502.52188, 561.8312, 504.64847, 556.3597, 508.48367, 556.3597);
        ((GeneralPath) shape).curveTo(510.92133, 556.3597, 511.40616, 552.48126, 511.1221, 535.2546);
        ((GeneralPath) shape).curveTo(510.6137, 504.42468, 512.1399, 437.93448, 513.6979, 423.03732);
        ((GeneralPath) shape).lineTo(515.04376, 410.16837);
        ((GeneralPath) shape).lineTo(503.9185, 410.16837);
        ((GeneralPath) shape).lineTo(492.7932, 410.16837);
        ((GeneralPath) shape).lineTo(493.9379, 478.63116);
        ((GeneralPath) shape).curveTo(494.56747, 516.2857, 495.5748, 551.021, 496.1764, 555.82074);
        ((GeneralPath) shape).curveTo(497.1759, 563.79486, 496.83148, 564.6576, 492.18268, 565.82434);
        ((GeneralPath) shape).curveTo(486.64005, 567.21545, 485.20303, 570.7728, 490.1837, 570.7728);
        ((GeneralPath) shape).curveTo(494.3324, 570.7728, 494.13144, 576.1796, 489.9227, 577.7947);
        ((GeneralPath) shape).curveTo(485.41165, 579.52576, 481.10995, 575.63135, 482.3395, 570.9295);
        ((GeneralPath) shape).curveTo(482.8875, 568.83405, 482.3295, 566.497, 481.09744, 565.7361);
        ((GeneralPath) shape).curveTo(479.8663, 564.9752, 478.85904, 562.51917, 478.85904, 560.2782);
        ((GeneralPath) shape).curveTo(478.85904, 557.2499, 480.04855, 556.3559, 483.49185, 556.79645);
        ((GeneralPath) shape).curveTo(489.26624, 557.53516, 489.57947, 556.9417, 487.88556, 548.47217);
        ((GeneralPath) shape).curveTo(486.89746, 543.5317, 485.9972, 542.38025, 484.6656, 544.3541);
        ((GeneralPath) shape).curveTo(483.5615, 545.9907, 483.05667, 519.52594, 483.41193, 478.63043);
        ((GeneralPath) shape).lineTo(484.0066, 410.16687);
        ((GeneralPath) shape).lineTo(473.39523, 410.1676);
        ((GeneralPath) shape).lineTo(462.78387, 410.16837);
        ((GeneralPath) shape).lineTo(463.69794, 438.48004);
        ((GeneralPath) shape).curveTo(464.58386, 465.91992, 468.51886, 541.8056, 469.59695, 552.2416);
        ((GeneralPath) shape).curveTo(469.88943, 555.07275, 470.85373, 559.14465, 471.73987, 561.2902);
        ((GeneralPath) shape).curveTo(472.83673, 563.94604, 472.28122, 565.9735, 469.99957, 567.6419);
        ((GeneralPath) shape).curveTo(467.52087, 569.45435, 467.25018, 570.6946, 468.96005, 572.4045);
        ((GeneralPath) shape).curveTo(470.66992, 574.1144, 470.62524, 575.49567, 468.78836, 577.7089);
        ((GeneralPath) shape).curveTo(467.02786, 579.83014, 466.95776, 581.105, 468.54755, 582.0875);
        ((GeneralPath) shape).curveTo(469.78107, 582.8499, 470.22693, 585.2488, 469.5383, 587.4184);
        ((GeneralPath) shape).curveTo(468.84967, 589.588, 469.18262, 591.36316, 470.27814, 591.36316);
        ((GeneralPath) shape).curveTo(471.3737, 591.36316, 472.27002, 594.60614, 472.27002, 598.56976);
        ((GeneralPath) shape).curveTo(472.27002, 602.60986, 471.22958, 605.7902, 469.90213, 605.8079);
        ((GeneralPath) shape).curveTo(468.58713, 605.82654, 468.89072, 606.69714, 470.5849, 607.76843);
        ((GeneralPath) shape).curveTo(473.81668, 609.81195, 475.8652, 632.5438, 472.8176, 632.5438);
        ((GeneralPath) shape).curveTo(471.92453, 632.5438, 471.63666, 634.8602, 472.17786, 637.6914);
        ((GeneralPath) shape).curveTo(472.78085, 640.8457, 472.21475, 642.839, 470.71576, 642.839);
        ((GeneralPath) shape).curveTo(469.22412, 642.839, 469.61282, 644.1822, 471.71185, 646.2812);
        ((GeneralPath) shape).curveTo(474.45517, 649.02454, 474.80884, 651.42834, 473.4538, 658.1206);
        ((GeneralPath) shape).curveTo(471.97955, 665.40137, 471.60602, 689.4231, 472.7368, 704.2288);
        ((GeneralPath) shape).curveTo(472.93692, 706.8504, 472.605, 709.491, 471.99924, 710.0969);
        ((GeneralPath) shape).curveTo(470.43613, 711.66003, 427.50314, 711.5934, 425.93515, 710.02545);
        ((GeneralPath) shape).curveTo(425.22168, 709.3118, 431.55536, 708.72797, 440.0101, 708.72797);
        ((GeneralPath) shape).lineTo(455.3824, 708.72797);
        ((GeneralPath) shape).lineTo(457.85504, 701.88995);
        ((GeneralPath) shape).curveTo(460.9229, 693.40594, 461.06088, 675.91833, 458.1209, 668.19617);
        ((GeneralPath) shape).curveTo(454.0736, 657.5655, 451.67426, 601.2121, 454.58746, 585.20575);
        ((GeneralPath) shape).curveTo(455.513, 580.1204, 455.68155, 574.56104, 454.962, 572.85156);
        ((GeneralPath) shape).curveTo(454.24246, 571.142, 453.6589, 533.4055, 453.6652, 488.99258);
        ((GeneralPath) shape).lineTo(453.6784, 408.24185);
        ((GeneralPath) shape).lineTo(449.28256, 408.69034);
        ((GeneralPath) shape).curveTo(445.08713, 409.1183, 444.83865, 408.1016, 443.8563, 386.4895);
        ((GeneralPath) shape).curveTo(442.84375, 364.2139, 442.74185, 363.82855, 437.6792, 363.13766);
        ((GeneralPath) shape).curveTo(434.84802, 362.7513, 430.97653, 361.0463, 429.07587, 359.3488);
        ((GeneralPath) shape).curveTo(424.2538, 355.0421, 417.36896, 357.72812, 415.89218, 364.49216);
        ((GeneralPath) shape).curveTo(413.47156, 375.5793, 413.28888, 375.74973, 405.0126, 374.63965);
        ((GeneralPath) shape).curveTo(400.6768, 374.0581, 392.5862, 374.73584, 387.03354, 376.1457);
        ((GeneralPath) shape).curveTo(377.12277, 378.66214, 376.93777, 378.85535, 376.93777, 386.68918);
        ((GeneralPath) shape).curveTo(376.93777, 392.6522, 377.84854, 394.84464, 380.54108, 395.3632);
        ((GeneralPath) shape).curveTo(382.74002, 395.78668, 384.14438, 394.7945, 384.14438, 392.81757);
        ((GeneralPath) shape).curveTo(384.14438, 391.03586, 385.07095, 389.57803, 386.2034, 389.57803);
        ((GeneralPath) shape).curveTo(387.33585, 389.57803, 388.26242, 388.30164, 388.26242, 386.7416);
        ((GeneralPath) shape).curveTo(388.26242, 385.1816, 389.59027, 382.8032, 391.2132, 381.45627);
        ((GeneralPath) shape).curveTo(393.55884, 379.50958, 395.03674, 379.88013, 398.4198, 383.26318);
        ((GeneralPath) shape).curveTo(403.10733, 387.95068, 403.83685, 393.85614, 400.49893, 400.09314);
        ((GeneralPath) shape).curveTo(397.0606, 406.5177, 396.94238, 420.5073, 400.31055, 422.39215);
        ((GeneralPath) shape).curveTo(401.98468, 423.32904, 403.65945, 428.52765, 404.24274, 434.59802);
        ((GeneralPath) shape).curveTo(405.08926, 443.40808, 404.69986, 445.17194, 401.90823, 445.17194);
        ((GeneralPath) shape).curveTo(400.06546, 445.17194, 398.5577, 446.0985, 398.5577, 447.231);
        ((GeneralPath) shape).curveTo(398.5577, 448.36343, 399.32983, 449.29, 400.2736, 449.29);
        ((GeneralPath) shape).curveTo(401.21732, 449.29, 401.98944, 452.05774, 401.98944, 455.44052);
        ((GeneralPath) shape).curveTo(401.98944, 458.82333, 403.6836, 463.46307, 405.75418, 465.75107);
        ((GeneralPath) shape).curveTo(409.3542, 469.72903, 410.64, 483.19797, 407.69962, 486.12924);
        ((GeneralPath) shape).curveTo(407.0084, 486.8183, 401.48462, 487.3342, 395.42453, 487.27567);
        ((GeneralPath) shape).curveTo(389.36444, 487.21725, 384.86526, 487.91205, 385.42636, 488.81995);
        ((GeneralPath) shape).curveTo(385.98746, 489.72784, 389.17157, 490.47064, 392.50214, 490.47064);
        ((GeneralPath) shape).curveTo(396.51218, 490.47064, 398.5577, 491.51392, 398.5577, 493.5592);
        ((GeneralPath) shape).curveTo(398.5577, 495.27505, 400.38797, 496.64774, 402.67578, 496.64774);
        ((GeneralPath) shape).curveTo(405.30695, 496.64774, 406.79385, 498.02045, 406.79385, 500.44946);
        ((GeneralPath) shape).curveTo(406.79385, 502.54044, 408.2665, 507.20322, 410.06647, 510.81125);
        ((GeneralPath) shape).curveTo(412.5879, 515.86554, 412.9559, 519.8373, 411.66986, 528.1146);
        ((GeneralPath) shape).curveTo(409.59964, 541.43896, 410.22418, 547.2188, 414.42734, 553.6336);
        ((GeneralPath) shape).curveTo(417.19037, 557.8505, 417.96667, 570.3219, 419.34735, 632.6731);
        ((GeneralPath) shape).curveTo(420.249, 673.391, 421.60367, 707.7039, 422.35773, 708.9241);
        ((GeneralPath) shape).curveTo(423.24863, 710.36554, 421.30414, 711.0072, 416.80557, 710.75616);
        ((GeneralPath) shape).curveTo(412.99783, 710.5437, 408.95584, 710.6048, 407.82336, 710.892);
        ((GeneralPath) shape).curveTo(403.35693, 712.02484, 401.54395, 712.3805, 399.07248, 712.6085);
        ((GeneralPath) shape).curveTo(397.65692, 712.73914, 396.4984, 713.54095, 396.49802, 714.3903);
        ((GeneralPath) shape).curveTo(396.49768, 715.2397, 416.18716, 715.80035, 440.25244, 715.6363);
        ((GeneralPath) shape).curveTo(480.49472, 715.36194, 511.13403, 716.5839, 554.01465, 720.1734);
        ((GeneralPath) shape).curveTo(573.5655, 721.81, 584.4845, 725.6713, 583.5143, 730.6055);
        ((GeneralPath) shape).curveTo(582.17035, 737.44086, 572.4694, 741.95776, 552.78534, 744.9134);
        ((GeneralPath) shape).curveTo(528.65326, 748.53687, 520.0502, 748.632, 520.0091, 745.2758);
        ((GeneralPath) shape).curveTo(519.9859, 743.38306, 519.5089, 743.4417, 518.2064, 745.49725);
        ((GeneralPath) shape).curveTo(516.48694, 748.21094, 507.66818, 749.0917, 472.68286, 750.0437);
        ((GeneralPath) shape).curveTo(461.14044, 750.3578, 436.98523, 749.162, 365.31512, 744.72845);
        ((GeneralPath) shape).curveTo(340.62512, 743.2011, 335.06113, 741.84875, 333.52252, 737.0011);
        ((GeneralPath) shape).curveTo(332.54373, 733.9172, 333.4363, 731.61725, 336.60956, 729.0478);
        ((GeneralPath) shape).curveTo(344.16232, 722.93195, 363.10406, 716.9716, 375.4708, 716.81946);
        ((GeneralPath) shape).curveTo(383.6661, 716.7186, 385.9842, 716.1633, 383.11493, 714.98834);
        ((GeneralPath) shape).curveTo(380.84998, 714.0608, 376.68045, 713.6616, 373.8493, 714.10126);
        ((GeneralPath) shape).curveTo(371.01813, 714.5409, 364.99545, 715.34503, 360.4656, 715.8883);
        ((GeneralPath) shape).curveTo(355.93573, 716.4315, 346.67007, 717.8466, 339.87527, 719.03296);
        ((GeneralPath) shape).curveTo(301.0238, 725.8162, 298.62778, 725.86237, 295.9016, 719.87897);
        ((GeneralPath) shape).curveTo(294.60663, 717.03674, 293.6183, 712.2069, 293.70532, 709.1459);
        ((GeneralPath) shape).curveTo(293.8399, 704.4095, 294.23322, 704.8074, 296.3451, 711.8165);
        ((GeneralPath) shape).curveTo(299.07867, 720.8893, 304.465, 722.9227, 305.5467, 715.2902);
        ((GeneralPath) shape).curveTo(306.21414, 710.58014, 300.4259, 690.9913, 297.2496, 687.2111);
        ((GeneralPath) shape).curveTo(296.3456, 686.13525, 295.606, 683.5872, 295.606, 681.54877);
        ((GeneralPath) shape).curveTo(295.606, 679.5103, 294.86557, 677.8425, 293.9606, 677.8425);
        ((GeneralPath) shape).curveTo(291.0765, 677.8425, 286.6784, 662.7904, 286.13934, 651.07513);
        ((GeneralPath) shape).curveTo(285.85275, 644.84656, 284.5455, 636.0442, 283.2343, 631.51434);
        ((GeneralPath) shape).curveTo(281.92316, 626.9845, 279.95804, 616.7958, 278.86743, 608.8728);
        ((GeneralPath) shape).curveTo(277.77682, 600.9498, 276.15564, 593.7386, 275.26486, 592.8478);
        ((GeneralPath) shape).curveTo(272.45663, 590.03955, 266.4247, 593.64966, 267.84058, 597.2912);
        ((GeneralPath) shape).curveTo(270.03873, 602.9448, 273.25897, 622.37115, 272.41684, 624.8976);
        ((GeneralPath) shape).curveTo(271.9788, 626.2118, 269.6437, 620.01544, 267.22778, 611.1278);
        ((GeneralPath) shape).curveTo(264.8119, 602.24023, 262.42194, 594.5553, 261.9168, 594.0502);
        ((GeneralPath) shape).curveTo(261.41168, 593.54504, 258.23026, 593.4287, 254.84703, 593.79175);
        ((GeneralPath) shape).lineTo(248.69568, 594.4517);
        ((GeneralPath) shape).lineTo(253.77037, 604.7469);
        ((GeneralPath) shape).curveTo(256.56146, 610.40924, 260.48376, 619.21155, 262.4866, 624.3077);
        ((GeneralPath) shape).curveTo(264.48944, 629.4038, 266.88412, 635.42645, 267.80814, 637.6914);
        ((GeneralPath) shape).curveTo(268.73212, 639.95636, 269.32556, 642.86224, 269.1269, 644.149);
        ((GeneralPath) shape).curveTo(268.9282, 645.4357, 270.17194, 647.02814, 271.8907, 647.6877);
        ((GeneralPath) shape).curveTo(276.10498, 649.3049, 275.8448, 652.61554, 271.41238, 653.77386);
        ((GeneralPath) shape).curveTo(268.82306, 654.4505, 269.1756, 654.7827, 272.6651, 654.95435);
        ((GeneralPath) shape).curveTo(276.78214, 655.157, 277.32452, 655.97656, 276.2292, 660.34076);
        ((GeneralPath) shape).curveTo(275.48416, 663.30914, 275.8255, 665.48834, 277.0355, 665.48834);
        ((GeneralPath) shape).curveTo(278.19073, 665.48834, 279.13373, 670.28705, 279.13373, 676.1655);
        ((GeneralPath) shape).curveTo(279.13373, 684.33594, 280.1984, 687.9761, 283.6685, 691.66974);
        ((GeneralPath) shape).curveTo(286.8558, 695.0625, 288.05908, 698.63745, 287.71805, 703.7011);
        ((GeneralPath) shape).curveTo(287.4512, 707.6635, 288.8001, 714.2081, 290.71558, 718.2448);
        ((GeneralPath) shape).curveTo(294.56345, 726.3536, 292.81873, 729.2235, 284.00293, 729.28674);
        ((GeneralPath) shape).curveTo(281.5849, 729.3032, 276.67014, 730.5529, 273.08124, 732.06195);
        ((GeneralPath) shape).curveTo(260.91797, 737.1762, 273.69434, 742.03156, 312.07822, 746.88184);
        ((GeneralPath) shape).curveTo(326.23407, 748.6706, 340.13254, 750.54474, 342.9637, 751.0466);
        ((GeneralPath) shape).curveTo(345.7949, 751.5484, 354.13394, 752.4189, 361.495, 752.9809);
        ((GeneralPath) shape).curveTo(368.85605, 753.5429, 381.36465, 754.5735, 389.29193, 755.271);
        ((GeneralPath) shape).curveTo(438.03525, 759.56, 571.6668, 755.1489, 581.7484, 748.918);
        ((GeneralPath) shape).curveTo(582.6711, 748.3478, 586.5373, 747.4571, 590.3401, 746.93866);
        ((GeneralPath) shape).curveTo(606.47375, 744.7392, 620.37463, 741.3833, 627.11017, 738.06165);
        ((GeneralPath) shape).lineTo(634.3168, 734.5077);
        ((GeneralPath) shape).lineTo(628.4036, 733.81104);
        ((GeneralPath) shape).curveTo(625.15137, 733.42786, 621.49146, 734.1134, 620.27045, 735.3344);
        ((GeneralPath) shape).curveTo(619.04944, 736.5554, 616.37, 737.55444, 614.3162, 737.55444);
        ((GeneralPath) shape).curveTo(612.2624, 737.55444, 608.7836, 738.6776, 606.5856, 740.0503);
        ((GeneralPath) shape).curveTo(604.3875, 741.423, 602.21295, 742.1179, 601.7533, 741.59454);
        ((GeneralPath) shape).curveTo(601.29364, 741.07117, 600.33673, 733.4621, 599.6269, 724.6854);
        ((GeneralPath) shape).curveTo(598.5488, 711.35596, 598.8406, 708.7279, 601.39856, 708.7279);
        ((GeneralPath) shape).curveTo(605.8475, 708.7279, 613.2071, 716.7828, 611.89124, 720.2118);
        ((GeneralPath) shape).curveTo(611.273, 721.82294, 611.60223, 723.1411, 612.6228, 723.1411);
        ((GeneralPath) shape).curveTo(615.06573, 723.1411, 617.49603, 715.4317, 617.49084, 707.69836);
        ((GeneralPath) shape).curveTo(617.48883, 704.30096, 618.3238, 700.9652, 619.3468, 700.28564);
        ((GeneralPath) shape).curveTo(620.3699, 699.606, 621.4335, 697.7529, 621.7105, 696.1676);
        ((GeneralPath) shape).curveTo(621.98755, 694.5823, 622.90094, 691.24457, 623.7403, 688.7504);
        ((GeneralPath) shape).curveTo(624.57965, 686.25635, 625.60657, 676.5274, 626.02234, 667.1306);
        ((GeneralPath) shape).curveTo(626.4381, 657.7338, 626.85297, 649.35065, 626.9442, 648.5013);
        ((GeneralPath) shape).curveTo(627.0355, 647.6519, 628.9633, 646.95703, 631.2282, 646.95703);
        ((GeneralPath) shape).curveTo(634.6501, 646.95703, 635.4004, 648.43646, 635.6665, 655.70795);
        ((GeneralPath) shape).curveTo(635.8426, 660.52094, 635.8075, 666.5436, 635.5886, 669.0917);
        ((GeneralPath) shape).curveTo(635.3696, 671.6397, 636.13446, 673.7245, 637.2882, 673.7245);
        ((GeneralPath) shape).curveTo(639.9117, 673.7245, 641.5905, 666.6739, 641.2105, 657.2522);
        ((GeneralPath) shape).curveTo(640.93823, 650.5009, 641.7176, 645.78125, 644.60913, 636.67065);
        ((GeneralPath) shape).curveTo(645.9247, 632.5257, 642.59283, 629.1476, 640.51117, 632.51575);
        ((GeneralPath) shape).curveTo(639.63574, 633.9322, 637.8875, 633.9038, 635.1305, 632.42834);
        ((GeneralPath) shape).curveTo(631.64465, 630.5628, 631.133, 628.4512, 631.6367, 618.0095);
        ((GeneralPath) shape).curveTo(631.9613, 611.2813, 633.16034, 605.71124, 634.30133, 605.63165);
        ((GeneralPath) shape).curveTo(637.3346, 605.42004, 628.74, 601.9734, 624.7542, 601.80304);
        ((GeneralPath) shape).curveTo(622.6048, 601.71124, 621.3266, 603.34985, 621.2533, 606.29114);
        ((GeneralPath) shape).curveTo(621.1899, 608.8392, 620.5243, 616.1251, 619.7743, 622.48206);
        ((GeneralPath) shape).curveTo(618.45514, 633.66376, 618.58356, 634.0835, 623.7173, 635.372);
        ((GeneralPath) shape).curveTo(630.5292, 637.08167, 629.09, 640.8363, 619.68054, 645.9036);
        ((GeneralPath) shape).curveTo(613.3583, 649.30835, 612.8005, 650.1766, 615.61365, 652.23364);
        ((GeneralPath) shape).curveTo(620.0218, 655.4571, 619.71497, 657.2523, 614.75586, 657.2523);
        ((GeneralPath) shape).curveTo(608.85944, 657.2523, 609.6769, 660.19574, 616.3001, 662.81287);
        ((GeneralPath) shape).curveTo(621.5153, 664.87366, 621.5966, 665.0676, 617.3296, 665.2694);
        ((GeneralPath) shape).curveTo(612.0051, 665.5211, 611.1333, 669.1358, 615.95123, 670.98456);
        ((GeneralPath) shape).curveTo(617.904, 671.7339, 618.8046, 673.76697, 618.20306, 676.06757);
        ((GeneralPath) shape).curveTo(617.6516, 678.17633, 618.09503, 679.9017, 619.18823, 679.9017);
        ((GeneralPath) shape).curveTo(620.2815, 679.9017, 620.60333, 680.82825, 619.90344, 681.9607);
        ((GeneralPath) shape).curveTo(619.20355, 683.09314, 614.7477, 684.0586, 610.0015, 684.106);
        ((GeneralPath) shape).lineTo(601.37213, 684.19244);
        ((GeneralPath) shape).lineTo(608.1422, 687.8028);
        ((GeneralPath) shape).curveTo(615.20667, 691.57007, 615.0384, 694.2229, 607.72076, 694.4455);
        ((GeneralPath) shape).curveTo(603.6937, 694.56805, 603.7241, 694.6935, 608.2168, 696.49475);
        ((GeneralPath) shape).curveTo(611.0906, 697.6469, 612.7358, 699.78876, 612.33484, 701.8559);
        ((GeneralPath) shape).curveTo(611.3538, 706.9144, 607.7707, 707.31274, 602.3963, 702.9608);
        ((GeneralPath) shape).curveTo(598.7443, 700.00366, 597.4264, 696.4264, 596.68207, 687.4504);
        ((GeneralPath) shape).curveTo(596.13403, 680.84204, 596.55524, 675.7836, 597.6535, 675.7836);
        ((GeneralPath) shape).curveTo(598.7199, 675.7836, 599.343, 672.6167, 599.0382, 668.746);
        ((GeneralPath) shape).curveTo(598.7068, 664.53705, 599.676, 660.71906, 601.44965, 659.247);
        ((GeneralPath) shape).curveTo(603.08075, 657.8933, 603.9035, 655.95764, 603.27795, 654.94543);
        ((GeneralPath) shape).curveTo(602.6524, 653.9333, 603.641, 652.5294, 605.4748, 651.82574);
        ((GeneralPath) shape).curveTo(608.2277, 650.76935, 608.56805, 648.6182, 607.4271, 639.4867);
        ((GeneralPath) shape).curveTo(606.3948, 631.22437, 606.83545, 627.2211, 609.1692, 623.6594);
        ((GeneralPath) shape).curveTo(610.8873, 621.03723, 613.2358, 615.47754, 614.388, 611.3046);
        ((GeneralPath) shape).lineTo(616.4829, 603.7175);
        ((GeneralPath) shape).lineTo(607.38324, 603.7175);
        ((GeneralPath) shape).lineTo(598.28357, 603.7175);
        ((GeneralPath) shape).lineTo(598.28357, 593.3173);
        ((GeneralPath) shape).curveTo(598.28357, 583.3974, 598.61304, 582.7794, 605.419, 579.9357);
        ((GeneralPath) shape).curveTo(611.86957, 577.2405, 612.68646, 575.95874, 613.9305, 566.581);
        ((GeneralPath) shape).curveTo(614.7482, 560.41656, 616.731, 555.1942, 618.8173, 553.70996);
        ((GeneralPath) shape).curveTo(622.81433, 550.8664, 626.08374, 532.5328, 622.9403, 530.59);
        ((GeneralPath) shape).curveTo(620.13293, 528.855, 620.4379, 519.1248, 623.5067, 512.51874);
        ((GeneralPath) shape).curveTo(626.0862, 506.9659, 630.86725, 505.99844, 629.4379, 511.31854);
        ((GeneralPath) shape).curveTo(627.78296, 517.4787, 628.2865, 519.8521, 631.72046, 522.07623);
        ((GeneralPath) shape).curveTo(634.625, 523.95746, 635.89764, 523.54425, 638.4582, 519.8886);
        ((GeneralPath) shape).curveTo(644.1767, 511.72433, 648.1539, 508.77448, 652.58984, 509.40732);
        ((GeneralPath) shape).curveTo(656.2585, 509.93073, 657.0689, 511.6482, 657.6025, 520.0302);
        ((GeneralPath) shape).curveTo(658.01196, 526.4626, 657.2056, 531.2361, 655.3417, 533.41394);
        ((GeneralPath) shape).curveTo(649.25726, 540.52295, 647.5776, 551.6479, 652.1579, 554.50104);
        ((GeneralPath) shape).curveTo(653.24365, 555.17737, 653.8431, 558.2884, 653.49, 561.41437);
        ((GeneralPath) shape).curveTo(652.90045, 566.6331, 653.73175, 567.37463, 663.6527, 570.47986);
        ((GeneralPath) shape).curveTo(676.3221, 574.4454, 680.0129, 578.9076, 680.9721, 591.4194);
        ((GeneralPath) shape).curveTo(681.58984, 599.4766, 681.16113, 600.60925, 677.4139, 600.8205);
        ((GeneralPath) shape).curveTo(675.07056, 600.9526, 669.7697, 601.69543, 665.6343, 602.4712);
        ((GeneralPath) shape).curveTo(657.6539, 603.9683, 657.53766, 603.8296, 655.4642, 590.3339);
        ((GeneralPath) shape).curveTo(654.877, 586.51227, 653.24786, 586.2159, 632.8322, 586.2159);
        ((GeneralPath) shape).curveTo(617.9753, 586.2159, 609.9991, 587.0515, 608.2645, 588.7897);
        ((GeneralPath) shape).curveTo(603.258, 593.80676, 610.06506, 596.4715, 630.6182, 597.5405);
        ((GeneralPath) shape).curveTo(653.21, 598.7156, 652.4809, 597.99554, 652.51086, 619.16034);
        ((GeneralPath) shape).curveTo(652.55695, 651.816, 648.4319, 682.41125, 643.0107, 689.6204);
        ((GeneralPath) shape).curveTo(641.97174, 691.002, 640.8537, 694.70825, 640.5262, 697.85657);
        ((GeneralPath) shape).curveTo(640.1986, 701.0048, 639.2207, 708.09735, 638.3529, 713.6177);
        ((GeneralPath) shape).curveTo(637.0515, 721.8967, 637.37134, 723.9883, 640.1788, 725.55945);
        ((GeneralPath) shape).curveTo(642.7885, 727.01996, 643.58234, 730.52264, 643.58234, 740.5772);
        ((GeneralPath) shape).curveTo(643.58234, 757.5496, 642.5484, 759.8252, 634.11786, 761.40674);
        ((GeneralPath) shape).curveTo(630.26355, 762.1298, 627.11005, 763.54486, 627.11005, 764.5513);
        ((GeneralPath) shape).curveTo(627.11005, 765.55774, 624.3851, 766.38116, 621.0545, 766.38116);
        ((GeneralPath) shape).curveTo(617.72394, 766.38116, 614.4263, 767.30774, 613.7264, 768.4402);
        ((GeneralPath) shape).curveTo(613.0265, 769.57263, 609.20465, 770.4992, 605.23334, 770.4992);
        ((GeneralPath) shape).curveTo(601.2621, 770.4992, 596.3809, 771.3726, 594.3863, 772.4401);
        ((GeneralPath) shape).curveTo(590.01117, 774.7816, 581.42, 776.27826, 571.04083, 776.507);
        ((GeneralPath) shape).lineTo(563.3588, 776.6763);
        ((GeneralPath) shape).lineTo(564.5637, 786.45667);
        ((GeneralPath) shape).curveTo(565.2264, 791.8359, 567.12427, 802.25977, 568.7811, 809.6208);
        ((GeneralPath) shape).curveTo(572.95825, 828.1782, 578.0723, 854.9259, 578.6231, 861.09656);
        ((GeneralPath) shape).curveTo(579.0767, 866.179, 579.67993, 866.41315, 590.1168, 865.5578);
        ((GeneralPath) shape).curveTo(592.4199, 865.369, 597.03876, 862.41736, 600.38086, 858.9984);
        ((GeneralPath) shape).curveTo(603.72296, 855.57947, 608.70447, 851.9279, 611.45087, 850.8837);
        ((GeneralPath) shape).lineTo(616.44434, 848.9852);
        ((GeneralPath) shape).lineTo(611.5233, 829.81775);
        ((GeneralPath) shape).curveTo(608.8168, 819.27563, 606.58374, 808.5655, 606.56104, 806.01746);
        ((GeneralPath) shape).curveTo(606.5383, 803.4694, 605.7476, 801.38464, 604.80396, 801.38464);
        ((GeneralPath) shape).curveTo(603.8602, 801.38464, 603.0426, 800.22644, 602.987, 798.81085);
        ((GeneralPath) shape).curveTo(602.9315, 797.39526, 602.17804, 791.2502, 601.3129, 785.1551);
        ((GeneralPath) shape).curveTo(599.07764, 769.4066, 604.4824, 771.8227, 608.0206, 788.1536);
        ((GeneralPath) shape).curveTo(614.9746, 820.2506, 617.3716, 829.6822, 620.128, 835.7943);
        ((GeneralPath) shape).curveTo(622.9932, 842.14764, 622.24365, 852.8604, 618.9339, 852.8604);
        ((GeneralPath) shape).curveTo(618.0799, 852.8604, 613.8834, 855.64014, 609.60834, 859.0375);
        ((GeneralPath) shape).curveTo(605.33325, 862.4349, 602.6033, 865.2146, 603.5417, 865.2146);
        ((GeneralPath) shape).curveTo(604.48004, 865.2146, 603.44916, 866.575, 601.25104, 868.2377);
        ((GeneralPath) shape).curveTo(599.0528, 869.9003, 595.2721, 871.2902, 592.8495, 871.32623);
        ((GeneralPath) shape).curveTo(590.42694, 871.36224, 586.4817, 873.0132, 584.0824, 874.995);
        ((GeneralPath) shape).curveTo(580.22217, 878.1836, 579.9329, 879.6648, 581.56964, 887.86395);
        ((GeneralPath) shape).curveTo(582.587, 892.9601, 583.5251, 895.2765, 583.6544, 893.01154);
        ((GeneralPath) shape).curveTo(583.911, 888.51807, 595.0689, 875.50977, 598.66675, 875.50977);
        ((GeneralPath) shape).curveTo(599.895, 875.50977, 603.0468, 873.19336, 605.67065, 870.3622);
        ((GeneralPath) shape).curveTo(608.2945, 867.531, 611.36993, 865.2146, 612.50507, 865.2146);
        ((GeneralPath) shape).curveTo(613.64014, 865.2146, 616.8852, 862.8982, 619.7164, 860.067);
        ((GeneralPath) shape).curveTo(622.54755, 857.23584, 626.2633, 854.91943, 627.97363, 854.91943);
        ((GeneralPath) shape).curveTo(629.68396, 854.91943, 632.0407, 853.13055, 633.2109, 850.9441);
        ((GeneralPath) shape).curveTo(634.9953, 847.6098, 634.5919, 846.86255, 630.70953, 846.3103);
        ((GeneralPath) shape).curveTo(627.4694, 845.8494, 626.2213, 844.4166, 626.54956, 841.5348);
        ((GeneralPath) shape).curveTo(628.3582, 825.65393, 627.45074, 818.0503, 623.2028, 813.49066);
        ((GeneralPath) shape).curveTo(620.76276, 810.8716, 618.933, 807.30786, 619.13666, 805.5714);
        ((GeneralPath) shape).curveTo(619.5209, 802.2954, 619.1927, 801.0411, 614.80914, 789.03046);
        ((GeneralPath) shape).curveTo(611.47687, 779.9003, 611.0438, 772.1471, 613.8125, 771.1863);
        ((GeneralPath) shape).curveTo(615.8486, 770.4797, 623.20624, 785.0998, 629.269, 801.8994);
        ((GeneralPath) shape).curveTo(630.8016, 806.1462, 632.79596, 809.6208, 633.7009, 809.6208);
        ((GeneralPath) shape).curveTo(634.6059, 809.6208, 635.3463, 811.28864, 635.3463, 813.3271);
        ((GeneralPath) shape).curveTo(635.3463, 815.36554, 636.18225, 817.9136, 637.20386, 818.98944);
        ((GeneralPath) shape).curveTo(640.21576, 822.1611, 645.5309, 839.7922, 646.92456, 851.23444);
        ((GeneralPath) shape).curveTo(647.63544, 857.0711, 649.9505, 864.68915, 652.06915, 868.16345);
        ((GeneralPath) shape).curveTo(656.70667, 875.76843, 657.0967, 884.9193, 652.8526, 886.5479);
        ((GeneralPath) shape).curveTo(650.4054, 887.487, 651.007, 888.9983, 655.76624, 893.8669);
        ((GeneralPath) shape).curveTo(661.55206, 899.7857, 662.0617, 902.242, 660.34784, 915.9466);
        ((GeneralPath) shape).curveTo(660.1866, 917.23615, 656.7187, 918.91705, 652.64136, 919.68195);
        ((GeneralPath) shape).curveTo(642.35785, 921.6112, 637.4053, 916.9018, 637.4053, 905.1938);
        ((GeneralPath) shape).curveTo(637.4053, 900.35406, 636.16174, 895.1508, 634.6419, 893.631);
        ((GeneralPath) shape).curveTo(626.72797, 885.71704, 625.33386, 873.2738, 631.4848, 865.4518);
        ((GeneralPath) shape).curveTo(637.1795, 858.2099, 636.1809, 855.4766, 630.19867, 861.9316);
        ((GeneralPath) shape).curveTo(627.3675, 864.98645, 625.0511, 868.31757, 625.0511, 869.33405);
        ((GeneralPath) shape).curveTo(625.0511, 871.54346, 612.12195, 881.68695, 609.3058, 881.68695);
        ((GeneralPath) shape).curveTo(608.2207, 881.68695, 602.62756, 886.08813, 596.87665, 891.46735);
        ((GeneralPath) shape).curveTo(591.12573, 896.84656, 584.8575, 902.50104, 582.9472, 904.0328);
        ((GeneralPath) shape).curveTo(580.8048, 905.7507, 580.0206, 908.11755, 580.90063, 910.2099);
        ((GeneralPath) shape).curveTo(582.42114, 913.825, 583.67096, 922.85205, 584.50616, 936.2513);
        ((GeneralPath) shape).curveTo(584.7885, 940.7811, 585.7027, 945.5816, 586.5376, 946.91895);
        ((GeneralPath) shape).curveTo(587.37256, 948.2563, 587.1771, 949.89343, 586.1033, 950.5571);
        ((GeneralPath) shape).curveTo(584.93427, 951.2796, 585.2679, 953.9169, 586.9348, 957.1298);
        ((GeneralPath) shape).curveTo(588.466, 960.0811, 589.3614, 966.08813, 588.92456, 970.47864);
        ((GeneralPath) shape).curveTo(588.3779, 975.97375, 588.9452, 978.4614, 590.7437, 978.4614);
        ((GeneralPath) shape).curveTo(594.4342, 978.4614, 615.62573, 967.7811, 616.56024, 965.45013);
        ((GeneralPath) shape).curveTo(616.9864, 964.3872, 621.8508, 958.531, 627.3702, 952.4364);
        ((GeneralPath) shape).curveTo(632.8895, 946.34174, 637.40533, 940.0887, 637.40533, 938.54065);
        ((GeneralPath) shape).curveTo(637.40533, 936.9926, 638.79517, 934.5726, 640.4939, 933.1628);
        ((GeneralPath) shape).curveTo(643.0413, 931.0486, 643.58246, 931.2377, 643.58246, 934.2418);
        ((GeneralPath) shape).curveTo(643.58246, 939.38605, 631.1108, 957.2452, 620.0149, 967.99005);
        ((GeneralPath) shape).curveTo(614.8524, 972.9892, 610.99384, 977.44464, 611.4402, 977.89105);
        ((GeneralPath) shape).curveTo(612.1924, 978.64325, 619.5393, 975.49146, 630.71344, 969.62286);
        ((GeneralPath) shape).curveTo(633.26154, 968.28467, 635.34625, 966.4856, 635.34625, 965.6249);
        ((GeneralPath) shape).curveTo(635.34625, 964.7642, 638.38293, 960.58276, 642.0944, 956.3327);
        ((GeneralPath) shape).curveTo(645.8059, 952.0827, 650.1737, 945.82574, 651.80066, 942.4283);
        ((GeneralPath) shape).curveTo(653.42755, 939.0309, 656.2157, 933.93475, 657.99646, 931.1036);
        ((GeneralPath) shape).curveTo(659.7772, 928.2724, 662.32007, 922.713, 663.6472, 918.7494);
        ((GeneralPath) shape).curveTo(667.8971, 906.0563, 676.139, 860.6549, 677.5693, 842.0581);
        ((GeneralPath) shape).curveTo(678.33105, 832.15326, 679.76764, 823.5466, 680.7617, 822.93225);
        ((GeneralPath) shape).curveTo(681.7558, 822.3179, 682.08, 819.3031, 681.4822, 816.2327);
        ((GeneralPath) shape).curveTo(680.88434, 813.16235, 681.1936, 804.07434, 682.1693, 796.0371);
        ((GeneralPath) shape).curveTo(684.17084, 779.55096, 683.7075, 776.42035, 679.50476, 778.0331);
        ((GeneralPath) shape).curveTo(675.0927, 779.72614, 672.30865, 792.92303, 671.1905, 817.444);
        ((GeneralPath) shape).curveTo(670.6379, 829.56195, 668.8328, 850.0936, 667.1792, 863.07);
        ((GeneralPath) shape).curveTo(665.52563, 876.0464, 664.17267, 887.86005, 664.17267, 889.3227);
        ((GeneralPath) shape).curveTo(664.17267, 890.78534, 662.78284, 891.982, 661.0841, 891.982);
        ((GeneralPath) shape).curveTo(657.5057, 891.982, 657.284, 889.5937, 659.937, 879.6278);
        ((GeneralPath) shape).curveTo(662.8166, 868.811, 663.7862, 860.3534, 665.1303, 834.3291);
        ((GeneralPath) shape).curveTo(668.2138, 774.62616, 668.2167, 774.6172, 684.0104, 774.6172);
        ((GeneralPath) shape).lineTo(695.7139, 774.6172);
        ((GeneralPath) shape).lineTo(694.3364, 818.37164);
        ((GeneralPath) shape).curveTo(692.8418, 865.84546, 688.73816, 906.6572, 683.7808, 923.3504);
        ((GeneralPath) shape).curveTo(682.0561, 929.1582, 680.64496, 935.93335, 680.64496, 938.40625);
        ((GeneralPath) shape).curveTo(680.64496, 940.87915, 678.9126, 945.1122, 676.7952, 947.8129);
        ((GeneralPath) shape).curveTo(674.67786, 950.5137, 672.2911, 955.96643, 671.4912, 959.93005);
        ((GeneralPath) shape).curveTo(667.98676, 977.2957, 642.42786, 1005.085, 617.8445, 1018.25836);
        ((GeneralPath) shape).curveTo(601.8327, 1026.8385, 579.8115, 1029.7793, 565.59314, 1025.2362);
        ((GeneralPath) shape).closePath();
        ((GeneralPath) shape).moveTo(238.75941, 975.39514);
        ((GeneralPath) shape).curveTo(245.99129, 961.25714, 246.05177, 960.9361, 242.20822, 957.0925);
        ((GeneralPath) shape).curveTo(239.99289, 954.8772, 236.88718, 953.721, 235.0478, 954.4268);
        ((GeneralPath) shape).curveTo(230.3104, 956.24475, 223.55649, 968.286, 223.54756, 974.93005);
        ((GeneralPath) shape).curveTo(223.54056, 979.89197, 229.25598, 991.99365, 230.8366, 990.3646);
        ((GeneralPath) shape).curveTo(231.1456, 990.0462, 234.71085, 983.30994, 238.7594, 975.39514);
        ((GeneralPath) shape).closePath();
        ((GeneralPath) shape).moveTo(573.6915, 963.53296);
        ((GeneralPath) shape).curveTo(578.9222, 957.26294, 578.7454, 953.30963, 573.2709, 954.1241);
        ((GeneralPath) shape).curveTo(567.86346, 954.9286, 564.2297, 960.2455, 565.97644, 964.79736);
        ((GeneralPath) shape).curveTo(567.6961, 969.27875, 569.0886, 969.05054, 573.6916, 963.53296);
        ((GeneralPath) shape).closePath();
        ((GeneralPath) shape).moveTo(326.4915, 953.42346);
        ((GeneralPath) shape).curveTo(356.0245, 944.40814, 376.91098, 932.9429, 411.7078, 906.6453);
        ((GeneralPath) shape).curveTo(422.28693, 898.6502, 423.39987, 897.1718, 420.45868, 895.0211);
        ((GeneralPath) shape).curveTo(416.44638, 892.0872, 416.09637, 888.62, 419.6627, 887.1349);
        ((GeneralPath) shape).curveTo(421.53558, 886.355, 421.25522, 885.2652, 418.63318, 883.133);
        ((GeneralPath) shape).curveTo(416.65137, 881.5214, 415.05923, 877.9886, 415.0951, 875.2823);
        ((GeneralPath) shape).lineTo(415.16028, 870.3617);
        ((GeneralPath) shape).lineTo(419.4346, 876.0923);
        ((GeneralPath) shape).curveTo(422.88452, 880.71765, 424.27872, 881.35004, 426.66324, 879.3711);
        ((GeneralPath) shape).curveTo(430.23257, 876.4088, 432.94785, 878.7522, 433.90152, 885.61804);
        ((GeneralPath) shape).curveTo(434.58948, 890.571, 440.70322, 893.35846, 442.94012, 889.7391);
        ((GeneralPath) shape).curveTo(443.57764, 888.70746, 442.65475, 887.86346, 440.88922, 887.86346);
        ((GeneralPath) shape).curveTo(437.36194, 887.86346, 436.94565, 886.31915, 437.48657, 875.23987);
        ((GeneralPath) shape).curveTo(437.831, 868.1857, 437.43127, 867.68494, 430.40268, 866.3664);
        ((GeneralPath) shape).curveTo(425.94553, 865.5302, 421.86304, 865.8742, 420.23804, 867.22284);
        ((GeneralPath) shape).curveTo(418.74435, 868.46246, 416.26654, 869.2125, 414.73178, 868.8897);
        ((GeneralPath) shape).curveTo(412.58636, 868.4384, 411.91818, 871.87274, 411.84152, 883.7454);
        ((GeneralPath) shape).curveTo(411.7114, 903.9009, 412.00262, 903.0528, 403.88055, 906.92596);
        ((GeneralPath) shape).curveTo(397.3355, 910.0471, 396.75647, 910.03784, 395.50595, 906.79254);
        ((GeneralPath) shape).curveTo(394.2607, 903.5609, 394.0226, 903.5555, 392.24713, 906.7175);
        ((GeneralPath) shape).curveTo(389.0573, 912.3985, 365.31366, 929.9968, 353.25885, 935.61487);
        ((GeneralPath) shape).curveTo(347.03027, 938.51764, 335.9115, 942.96747, 328.55048, 945.50336);
        ((GeneralPath) shape).curveTo(321.18942, 948.03925, 314.28656, 950.9327, 313.2107, 951.9332);
        ((GeneralPath) shape).curveTo(312.13486, 952.9338, 309.3088, 953.75244, 306.93063, 953.75244);
        ((GeneralPath) shape).curveTo(304.55246, 953.75244, 301.72644, 954.613, 300.6506, 955.6647);
        ((GeneralPath) shape).curveTo(299.57477, 956.71643, 295.91483, 957.98126, 292.51743, 958.4754);
        ((GeneralPath) shape).curveTo(289.12003, 958.9696, 292.36307, 958.9543, 299.72403, 958.4415);
        ((GeneralPath) shape).curveTo(307.08508, 957.92865, 319.1304, 955.67053, 326.49146, 953.42346);
        ((GeneralPath) shape).closePath();
        ((GeneralPath) shape).moveTo(294.5765, 951.8469);
        ((GeneralPath) shape).curveTo(301.3713, 950.4539, 311.10025, 947.4434, 316.19635, 945.157);
        ((GeneralPath) shape).curveTo(342.44287, 933.3812, 368.93185, 918.93286, 376.88007, 912.0571);
        ((GeneralPath) shape).curveTo(381.78925, 907.81036, 386.82187, 904.33575, 388.0637, 904.33575);
        ((GeneralPath) shape).curveTo(389.3055, 904.33575, 390.32153, 901.2781, 390.32153, 897.54095);
        ((GeneralPath) shape).curveTo(390.32153, 893.80383, 391.41797, 889.6497, 392.75806, 888.30963);
        ((GeneralPath) shape).curveTo(396.3448, 884.7229, 394.69678, 884.0567, 379.4794, 882.94165);
        ((GeneralPath) shape).curveTo(371.8924, 882.38574, 356.59045, 880.8286, 345.475, 879.48145);
        ((GeneralPath) shape).curveTo(328.12924, 877.37915, 324.4037, 877.4739, 319.1865, 880.1495);
        ((GeneralPath) shape).curveTo(315.84323, 881.8641, 305.54105, 883.9275, 296.29272, 884.7348);
        ((GeneralPath) shape).curveTo(274.8667, 886.60516, 270.41098, 890.4056, 270.44577, 906.7804);
        ((GeneralPath) shape).curveTo(270.45898, 912.7969, 269.4754, 918.9379, 268.26102, 920.4272);
        ((GeneralPath) shape).curveTo(267.04663, 921.91644, 265.79724, 925.1594, 265.48456, 927.6338);
        ((GeneralPath) shape).curveTo(264.16895, 938.0453, 262.01614, 946.70667, 260.16656, 949.0295);
        ((GeneralPath) shape).curveTo(254.36519, 956.3152, 267.5257, 957.3927, 294.57654, 951.84686);
        ((GeneralPath) shape).closePath();
        ((GeneralPath) shape).moveTo(578.55566, 943.41876);
        ((GeneralPath) shape).curveTo(579.8769, 942.09753, 577.6253, 941.3983, 572.0497, 941.3983);
        ((GeneralPath) shape).curveTo(563.70215, 941.3983, 559.86993, 943.47876, 562.8071, 946.416);
        ((GeneralPath) shape).curveTo(564.6523, 948.26117, 575.843, 946.13135, 578.55566, 943.41876);
        ((GeneralPath) shape).closePath();
        ((GeneralPath) shape).moveTo(249.14056, 938.3098);
        ((GeneralPath) shape).curveTo(255.02423, 932.42615, 255.63472, 931.1032, 252.46616, 931.1032);
        ((GeneralPath) shape).curveTo(250.33157, 931.1032, 247.3296, 930.6214, 245.79509, 930.0326);
        ((GeneralPath) shape).curveTo(242.77853, 928.875, 238.05423, 938.6131, 239.51149, 942.98486);
        ((GeneralPath) shape).curveTo(240.7002, 946.55096, 241.08743, 946.363, 249.14056, 938.3099);
        ((GeneralPath) shape).closePath();
        ((GeneralPath) shape).moveTo(571.51636, 924.698);
        ((GeneralPath) shape).curveTo(571.51636, 923.691, 569.19995, 922.86707, 566.3688, 922.86707);
        ((GeneralPath) shape).curveTo(562.34875, 922.86707, 561.2212, 923.9195, 561.2212, 927.67145);
        ((GeneralPath) shape).curveTo(561.2212, 930.3139, 561.90247, 933.1571, 562.7351, 933.9898);
        ((GeneralPath) shape).curveTo(564.304, 935.55865, 571.51636, 927.92694, 571.51636, 924.698);
        ((GeneralPath) shape).closePath();
        ((GeneralPath) shape).moveTo(260.6025, 923.1976);
        ((GeneralPath) shape).curveTo(260.6025, 921.1428, 251.3783, 916.68994, 247.1219, 916.68994);
        ((GeneralPath) shape).curveTo(243.00934, 916.68994, 243.36194, 920.1559, 247.73355, 922.7021);
        ((GeneralPath) shape).curveTo(252.11887, 925.25635, 260.6025, 925.58295, 260.6025, 923.1975);
        ((GeneralPath) shape).closePath();
        ((GeneralPath) shape).moveTo(569.97205, 914.65906);
        ((GeneralPath) shape).curveTo(570.8214, 914.6426, 571.5163, 913.8095, 571.5163, 912.8056);
        ((GeneralPath) shape).curveTo(571.5163, 910.3979, 559.28735, 908.6444, 557.9204, 910.85614);
        ((GeneralPath) shape).curveTo(555.9448, 914.05273, 559.6032, 917.05505, 564.02734, 915.8679);
        ((GeneralPath) shape).curveTo(566.4476, 915.2185, 569.1227, 914.6745, 569.97205, 914.659);
        ((GeneralPath) shape).closePath();
        ((GeneralPath) shape).moveTo(652.21906, 907.3414);
        ((GeneralPath) shape).curveTo(653.02625, 900.4272, 649.91943, 894.5671, 646.9963, 897.49023);
        ((GeneralPath) shape).curveTo(645.22736, 899.25916, 645.2412, 911.48535, 647.01465, 913.2583);
        ((GeneralPath) shape).curveTo(649.8767, 916.1204, 651.3963, 914.393, 652.21954, 907.34143);
        ((GeneralPath) shape).closePath();
        ((GeneralPath) shape).moveTo(255.6979, 906.90955);
        ((GeneralPath) shape).curveTo(259.1567, 903.4721, 259.06, 903.27545, 253.59772, 902.63654);
        ((GeneralPath) shape).curveTo(246.86125, 901.84863, 245.23271, 902.99115, 246.89978, 907.33545);
        ((GeneralPath) shape).curveTo(248.49261, 911.4863, 251.22577, 911.354, 255.6979, 906.9095);
        ((GeneralPath) shape).closePath();
        ((GeneralPath) shape).moveTo(564.05884, 874.3716);
        ((GeneralPath) shape).curveTo(563.6112, 862.3551, 562.35895, 850.8679, 561.276, 848.8444);
        ((GeneralPath) shape).curveTo(560.19305, 846.82086, 559.7421, 844.73016, 560.274, 844.1983);
        ((GeneralPath) shape).curveTo(560.80585, 843.66644, 560.3628, 838.60004, 559.2892, 832.9396);
        ((GeneralPath) shape).curveTo(558.2157, 827.2791, 557.1191, 817.8635, 556.8523, 812.016);
        ((GeneralPath) shape).curveTo(556.58545, 806.1685, 555.49146, 801.38416, 554.42114, 801.38416);
        ((GeneralPath) shape).curveTo(553.31915, 801.38416, 552.88586, 796.43054, 553.4222, 789.96356);
        ((GeneralPath) shape).lineTo(554.36926, 778.54297);
        ((GeneralPath) shape).lineTo(543.8968, 779.1536);
        ((GeneralPath) shape).curveTo(536.2451, 779.5998, 533.41797, 780.5962, 533.40094, 782.85284);
        ((GeneralPath) shape).curveTo(533.38947, 784.5515, 531.6339, 789.1844, 529.5027, 793.148);
        ((GeneralPath) shape).curveTo(523.8781, 803.6085, 492.3881, 845.3653, 487.49048, 848.8576);
        ((GeneralPath) shape).curveTo(484.00824, 851.34064, 483.6782, 852.6785, 485.48718, 856.978);
        ((GeneralPath) shape).lineTo(487.65305, 862.1256);
        ((GeneralPath) shape).lineTo(489.0009, 856.978);
        ((GeneralPath) shape).curveTo(490.12155, 852.6979, 491.76685, 851.7258, 498.76443, 851.20966);
        ((GeneralPath) shape).curveTo(509.1959, 850.4402, 513.86346, 854.5395, 513.86346, 864.47046);
        ((GeneralPath) shape).curveTo(513.86346, 871.0402, 513.459, 871.528, 509.23065, 870.05695);
        ((GeneralPath) shape).curveTo(506.68262, 869.1705, 502.28143, 868.57306, 499.45026, 868.7293);
        ((GeneralPath) shape).curveTo(496.61908, 868.8856, 487.8167, 869.2244, 479.88943, 869.48224);
        ((GeneralPath) shape).curveTo(463.90445, 870.0021, 460.24454, 871.65436, 461.81088, 877.64404);
        ((GeneralPath) shape).curveTo(463.0139, 882.2443, 469.63574, 883.1131, 471.25876, 878.88354);
        ((GeneralPath) shape).curveTo(473.08844, 874.1155, 481.225, 873.14636, 482.37897, 877.55914);
        ((GeneralPath) shape).curveTo(483.9895, 883.71783, 488.88342, 884.0892, 493.8072, 878.4264);
        ((GeneralPath) shape).curveTo(497.9347, 873.6793, 499.3084, 873.3249, 508.68283, 874.58826);
        ((GeneralPath) shape).curveTo(514.36334, 875.3538, 519.906, 876.5158, 520.9998, 877.1705);
        ((GeneralPath) shape).curveTo(522.0936, 877.82513, 526.9527, 878.52783, 531.7977, 878.732);
        ((GeneralPath) shape).curveTo(536.64276, 878.9362, 542.00214, 880.26117, 543.70746, 881.67645);
        ((GeneralPath) shape).curveTo(546.2917, 883.82117, 546.80804, 883.5694, 546.80804, 880.1649);
        ((GeneralPath) shape).curveTo(546.80804, 876.6351, 544.77997, 875.83154, 531.88007, 874.2504);
        ((GeneralPath) shape).lineTo(516.9521, 872.4208);
        ((GeneralPath) shape).lineTo(517.07153, 863.15515);
        ((GeneralPath) shape).lineTo(517.191, 853.8895);
        ((GeneralPath) shape).lineTo(527.34216, 854.5589);
        ((GeneralPath) shape).curveTo(532.9253, 854.92706, 538.58014, 856.13025, 539.90845, 857.23267);
        ((GeneralPath) shape).curveTo(544.1518, 860.75433, 544.7501, 856.0309, 542.7135, 835.0883);
        ((GeneralPath) shape).curveTo(541.62665, 823.91205, 540.7417, 807.35535, 540.7469, 798.29565);
        ((GeneralPath) shape).curveTo(540.7655, 767.8054, 544.50256, 786.84906, 548.8757, 839.7071);
        ((GeneralPath) shape).curveTo(551.20746, 867.89185, 554.2245, 894.03455, 555.58014, 897.802);
        ((GeneralPath) shape).curveTo(558.0139, 904.5655, 558.088, 904.5987, 561.459, 900.4358);
        ((GeneralPath) shape).curveTo(564.28925, 896.94055, 564.7338, 892.48395, 564.05914, 874.37164);
        ((GeneralPath) shape).closePath();
        ((GeneralPath) shape).moveTo(264.72055, 894.07983);
        ((GeneralPath) shape).curveTo(264.72055, 891.79663, 254.84732, 888.8143, 253.0938, 890.5678);
        ((GeneralPath) shape).curveTo(252.46689, 891.1947, 252.56474, 892.69586, 253.3112, 893.9037);
        ((GeneralPath) shape).curveTo(255.0152, 896.6608, 264.72055, 896.8107, 264.72055, 894.0799);
        ((GeneralPath) shape).closePath();
        ((GeneralPath) shape).moveTo(403.91327, 890.8562);
        ((GeneralPath) shape).curveTo(405.42065, 884.85034, 404.1311, 882.7464, 399.93048, 884.35834);
        ((GeneralPath) shape).curveTo(398.04187, 885.08307, 397.3668, 887.35876, 398.0227, 890.7898);
        ((GeneralPath) shape).curveTo(399.31985, 897.5753, 402.21872, 897.60803, 403.9133, 890.8563);
        ((GeneralPath) shape).closePath();
        ((GeneralPath) shape).moveTo(426.91223, 890.30865);
        ((GeneralPath) shape).curveTo(428.14758, 886.6027, 423.89163, 887.3814, 422.4554, 891.12415);
        ((GeneralPath) shape).curveTo(421.68588, 893.12946, 422.14606, 894.0708, 423.6507, 893.5692);
        ((GeneralPath) shape).curveTo(424.99628, 893.1207, 426.46396, 891.6534, 426.9122, 890.3086);
        ((GeneralPath) shape).closePath();
        ((GeneralPath) shape).moveTo(451.77744, 879.90063);
        ((GeneralPath) shape).curveTo(457.29715, 875.11346, 457.33154, 873.044, 451.97202, 868.19366);
        ((GeneralPath) shape).curveTo(443.99527, 860.9748, 437.0112, 872.40894, 444.14612, 881.006);
        ((GeneralPath) shape).curveTo(446.97342, 884.4127, 446.49524, 884.48193, 451.7775, 879.90063);
        ((GeneralPath) shape).closePath();
        ((GeneralPath) shape).moveTo(478.04486, 878.12604);
        ((GeneralPath) shape).curveTo(477.36066, 877.44183, 476.87402, 878.65796, 476.9634, 880.8285);
        ((GeneralPath) shape).curveTo(477.06232, 883.2272, 477.5501, 883.715, 478.2074, 882.0725);
        ((GeneralPath) shape).curveTo(478.8022, 880.5861, 478.72906, 878.81024, 478.04498, 878.12604);
        ((GeneralPath) shape).closePath();
        ((GeneralPath) shape).moveTo(641.52344, 876.31854);
        ((GeneralPath) shape).curveTo(641.52344, 873.26654, 640.32336, 871.39124, 638.3703, 871.39124);
        ((GeneralPath) shape).curveTo(634.65985, 871.39124, 632.35364, 876.28326, 634.0186, 880.6222);
        ((GeneralPath) shape).curveTo(635.7948, 885.2509, 641.52344, 881.9659, 641.52344, 876.31854);
        ((GeneralPath) shape).closePath();
        ((GeneralPath) shape).moveTo(263.3527, 873.2875);
        ((GeneralPath) shape).curveTo(267.3829, 868.5805, 279.13376, 825.15106, 279.13376, 814.9628);
        ((GeneralPath) shape).curveTo(279.13376, 811.44324, 280.1308, 805.3267, 281.34943, 801.37054);
        ((GeneralPath) shape).curveTo(285.72403, 787.16864, 289.08414, 771.60657, 288.11465, 770.03796);
        ((GeneralPath) shape).curveTo(285.652, 766.0533, 281.19278, 768.772, 281.19278, 774.258);
        ((GeneralPath) shape).curveTo(281.19278, 777.45807, 278.37054, 789.73505, 274.92114, 801.54016);
        ((GeneralPath) shape).curveTo(271.47174, 813.3453, 266.9085, 829.0267, 264.78058, 836.3877);
        ((GeneralPath) shape).curveTo(262.65265, 843.7487, 259.09003, 855.5091, 256.86362, 862.52185);
        ((GeneralPath) shape).curveTo(254.63722, 869.5346, 253.33223, 875.7889, 253.96365, 876.4203);
        ((GeneralPath) shape).curveTo(256.22018, 878.6768, 259.7452, 877.5006, 263.35266, 873.2874);
        ((GeneralPath) shape).closePath();
        ((GeneralPath) shape).moveTo(401.52942, 872.9921);
        ((GeneralPath) shape).curveTo(405.58774, 867.19806, 405.63196, 861.881, 401.63467, 860.34705);
        ((GeneralPath) shape).curveTo(399.9296, 859.69275, 391.82214, 859.5976, 383.61813, 860.13556);
        ((GeneralPath) shape).curveTo(375.41412, 860.6735, 352.66193, 861.4647, 333.05768, 861.8937);
        ((GeneralPath) shape).curveTo(300.17798, 862.61316, 297.05377, 863.01166, 292.77383, 867.0325);
        ((GeneralPath) shape).curveTo(290.2219, 869.4298, 287.0902, 871.3913, 285.81445, 871.3913);
        ((GeneralPath) shape).curveTo(284.5387, 871.3913, 282.8392, 872.4522, 282.0378, 873.7489);
        ((GeneralPath) shape).curveTo(281.00668, 875.4173, 282.3254, 875.70996, 286.54913, 874.7501);
        ((GeneralPath) shape).curveTo(289.83173, 874.00415, 298.95508, 872.4064, 306.82327, 871.1995);
        ((GeneralPath) shape).curveTo(315.21326, 869.91266, 322.09238, 867.68787, 323.45853, 865.8195);
        ((GeneralPath) shape).curveTo(325.19427, 863.44574, 326.79605, 863.15314, 329.74307, 864.6712);
        ((GeneralPath) shape).curveTo(331.91833, 865.7918, 345.28018, 867.29865, 359.43604, 868.0198);
        ((GeneralPath) shape).curveTo(380.47397, 869.0915, 386.11392, 870.06213, 390.3215, 873.33527);
        ((GeneralPath) shape).curveTo(396.95166, 878.4929, 397.69244, 878.4703, 401.52945, 872.9922);
        ((GeneralPath) shape).closePath();
        ((GeneralPath) shape).moveTo(540.6308, 863.15515);
        ((GeneralPath) shape).curveTo(540.6308, 862.02264, 538.72296, 861.0961, 536.39124, 861.0961);
        ((GeneralPath) shape).curveTo(534.05945, 861.0961, 532.7243, 862.0227, 533.4242, 863.15515);
        ((GeneralPath) shape).curveTo(534.1241, 864.2876, 536.0319, 865.2142, 537.6638, 865.2142);
        ((GeneralPath) shape).curveTo(539.29565, 865.2142, 540.6308, 864.2876, 540.6308, 863.15515);
        ((GeneralPath) shape).closePath();
        ((GeneralPath) shape).moveTo(301.78308, 853.5151);
        ((GeneralPath) shape).curveTo(304.61426, 852.03625, 311.19385, 850.8206, 316.4044, 850.8136);
        ((GeneralPath) shape).curveTo(322.65347, 850.8056, 329.31155, 848.9696, 335.9652, 845.42065);
        ((GeneralPath) shape).curveTo(348.6355, 838.66254, 364.95837, 834.3287, 377.74136, 834.3287);
        ((GeneralPath) shape).lineTo(387.6097, 834.3287);
        ((GeneralPath) shape).lineTo(390.1809, 807.40393);
        ((GeneralPath) shape).curveTo(391.59506, 792.5953, 392.43686, 780.164, 392.0515, 779.7788);
        ((GeneralPath) shape).curveTo(391.6662, 779.3937, 378.37903, 778.51465, 362.5245, 777.8255);
        ((GeneralPath) shape).curveTo(332.2209, 776.5083, 314.59146, 775.1397, 305.73358, 773.4168);
        ((GeneralPath) shape).curveTo(300.56113, 772.41077, 300.35788, 772.7861, 298.16248, 787.3983);
        ((GeneralPath) shape).curveTo(294.30588, 813.06726, 289.83655, 837.1068, 287.52588, 844.6102);
        ((GeneralPath) shape).curveTo(286.3076, 848.5664, 285.31082, 854.464, 285.31082, 857.716);
        ((GeneralPath) shape).lineTo(285.31082, 863.6287);
        ((GeneralPath) shape).lineTo(290.97314, 859.91626);
        ((GeneralPath) shape).curveTo(294.08743, 857.87445, 298.9519, 854.9939, 301.78305, 853.5151);
        ((GeneralPath) shape).closePath();
        ((GeneralPath) shape).moveTo(527.72266, 859.6692);
        ((GeneralPath) shape).curveTo(525.7193, 859.14716, 522.9396, 859.18146, 521.5456, 859.7456);
        ((GeneralPath) shape).curveTo(520.1516, 860.30963, 521.7907, 860.73676, 525.1881, 860.6948);
        ((GeneralPath) shape).curveTo(528.5855, 860.65283, 529.7261, 860.1914, 527.7227, 859.6694);
        ((GeneralPath) shape).closePath();
        ((GeneralPath) shape).moveTo(431.52094, 855.9712);
        ((GeneralPath) shape).curveTo(430.12146, 854.285, 428.05597, 853.47424, 426.9309, 854.16956);
        ((GeneralPath) shape).curveTo(425.68835, 854.9375, 425.98203, 856.12866, 427.67896, 857.2039);
        ((GeneralPath) shape).curveTo(432.12036, 860.0181, 434.29932, 859.319, 431.5209, 855.9712);
        ((GeneralPath) shape).closePath();
        ((GeneralPath) shape).moveTo(445.91534, 851.87695);
        ((GeneralPath) shape).curveTo(445.91534, 850.33746, 449.6726, 845.16736, 454.26483, 840.3878);
        ((GeneralPath) shape).curveTo(458.85703, 835.6083, 465.10608, 828.35175, 468.15158, 824.26227);
        ((GeneralPath) shape).curveTo(471.19705, 820.1728, 474.2194, 816.3636, 474.8678, 815.79736);
        ((GeneralPath) shape).curveTo(475.5162, 815.23114, 479.97403, 809.51953, 484.77405, 803.1049);
        ((GeneralPath) shape).curveTo(489.57407, 796.6903, 494.71127, 790.9777, 496.19006, 790.4102);
        ((GeneralPath) shape).curveTo(497.66885, 789.8428, 499.3721, 787.49194, 499.97507, 785.1862);
        ((GeneralPath) shape).curveTo(500.9065, 781.6243, 500.17603, 781.05634, 495.1173, 781.4086);
        ((GeneralPath) shape).curveTo(491.84256, 781.6367, 489.16138, 782.4892, 489.15915, 783.303);
        ((GeneralPath) shape).curveTo(489.15714, 784.11676, 487.99683, 784.4233, 486.58127, 783.98413);
        ((GeneralPath) shape).curveTo(485.16568, 783.5449, 468.53937, 782.66473, 449.63394, 782.02814);
        ((GeneralPath) shape).curveTo(430.7285, 781.3915, 414.05032, 780.6217, 412.57138, 780.3175);
        ((GeneralPath) shape).curveTo(411.04446, 780.00336, 410.2529, 781.09906, 410.73978, 782.85284);
        ((GeneralPath) shape).curveTo(411.21136, 784.5515, 412.9196, 798.45, 414.53583, 813.73834);
        ((GeneralPath) shape).curveTo(416.15207, 829.0267, 418.18082, 842.9251, 419.04413, 844.62384);
        ((GeneralPath) shape).curveTo(419.90747, 846.3225, 424.63907, 848.2626, 429.55875, 848.9351);
        ((GeneralPath) shape).curveTo(434.47845, 849.6076, 439.43283, 851.63086, 440.56845, 853.43115);
        ((GeneralPath) shape).curveTo(442.86798, 857.07666, 445.91537, 856.1909, 445.91537, 851.87695);
        ((GeneralPath) shape).closePath();
        ((GeneralPath) shape).moveTo(404.7347, 851.5904);
        ((GeneralPath) shape).curveTo(404.7347, 851.1562, 402.4183, 850.8009, 399.58713, 850.8009);
        ((GeneralPath) shape).curveTo(396.75595, 850.8009, 394.43954, 851.599, 394.43954, 852.5744);
        ((GeneralPath) shape).curveTo(394.43954, 853.5498, 396.75595, 853.9051, 399.58713, 853.3639);
        ((GeneralPath) shape).curveTo(402.4183, 852.8227, 404.7347, 852.0246, 404.7347, 851.5904);
        ((GeneralPath) shape).closePath();
        ((GeneralPath) shape).moveTo(420.17746, 852.8599);
        ((GeneralPath) shape).curveTo(419.47754, 851.7275, 417.51505, 850.8009, 415.81638, 850.8009);
        ((GeneralPath) shape).curveTo(414.11768, 850.8009, 413.30045, 851.7275, 414.00037, 852.8599);
        ((GeneralPath) shape).curveTo(414.7003, 853.9924, 416.66278, 854.91895, 418.36148, 854.91895);
        ((GeneralPath) shape).curveTo(420.06018, 854.91895, 420.87738, 853.9924, 420.1775, 852.8599);
        ((GeneralPath) shape).closePath();
        ((GeneralPath) shape).moveTo(363.97906, 850.5555);
        ((GeneralPath) shape).curveTo(364.40155, 849.2881, 368.87994, 847.9008, 373.93103, 847.4727);
        ((GeneralPath) shape).curveTo(390.82214, 846.04114, 394.17624, 845.34656, 397.49356, 842.5935);
        ((GeneralPath) shape).curveTo(402.87012, 838.13135, 398.09875, 836.3152, 389.26422, 839.4611);
        ((GeneralPath) shape).curveTo(384.74963, 841.0687, 377.02634, 842.42474, 372.10138, 842.4745);
        ((GeneralPath) shape).curveTo(367.17642, 842.5241, 359.76392, 844.174, 355.62912, 846.1408);
        ((GeneralPath) shape).lineTo(348.11133, 849.71674);
        ((GeneralPath) shape).lineTo(354.28842, 851.0448);
        ((GeneralPath) shape).curveTo(357.68582, 851.7752, 361.08322, 852.4824, 361.83823, 852.61646);
        ((GeneralPath) shape).curveTo(362.59317, 852.75055, 363.55655, 851.82306, 363.97906, 850.5556);
        ((GeneralPath) shape).closePath();
        ((GeneralPath) shape).moveTo(470.62375, 850.5625);
        ((GeneralPath) shape).curveTo(470.62375, 847.7365, 484.92444, 827.7455, 488.5695, 825.47595);
        ((GeneralPath) shape).curveTo(490.02402, 824.5703, 491.21408, 822.82947, 491.21408, 821.6074);
        ((GeneralPath) shape).curveTo(491.21408, 820.3854, 494.50357, 815.56696, 498.52405, 810.89984);
        ((GeneralPath) shape).curveTo(508.37485, 799.46466, 508.81885, 798.85376, 512.61475, 791.51324);
        ((GeneralPath) shape).curveTo(514.43396, 787.9953, 517.5439, 784.1726, 519.52576, 783.01825);
        ((GeneralPath) shape).curveTo(522.3857, 781.3525, 521.32367, 780.90656, 514.37823, 780.8569);
        ((GeneralPath) shape).curveTo(507.10507, 780.8049, 505.62735, 781.4607, 505.62735, 784.7407);
        ((GeneralPath) shape).curveTo(505.62735, 786.91125, 504.93243, 788.99603, 504.08307, 789.37354);
        ((GeneralPath) shape).curveTo(503.2337, 789.75104, 498.84976, 795.61926, 494.34094, 802.41406);
        ((GeneralPath) shape).curveTo(485.6125, 815.5679, 483.10284, 818.6693, 466.9175, 836.3038);
        ((GeneralPath) shape).curveTo(457.67703, 846.37164, 456.9564, 847.81464, 460.00903, 850.1368);
        ((GeneralPath) shape).curveTo(464.26303, 853.3728, 470.62378, 853.62787, 470.62378, 850.56244);
        ((GeneralPath) shape).closePath();
        ((GeneralPath) shape).moveTo(399.73056, 822.5697);
        ((GeneralPath) shape).curveTo(402.50882, 800.3331, 401.96628, 780.2208, 398.55762, 779.0901);
        ((GeneralPath) shape).curveTo(395.9237, 778.2164, 395.8798, 778.5632, 398.25928, 781.4459);
        ((GeneralPath) shape).curveTo(400.47913, 784.13525, 400.56192, 786.203, 398.66428, 791.56116);
        ((GeneralPath) shape).curveTo(395.60208, 800.20764, 393.73788, 834.3291, 396.32767, 834.3291);
        ((GeneralPath) shape).curveTo(397.39117, 834.3291, 398.92245, 829.03735, 399.73056, 822.5697);
        ((GeneralPath) shape).closePath();
        ((GeneralPath) shape).moveTo(529.30615, 780.7946);
        ((GeneralPath) shape).curveTo(528.60626, 779.6622, 527.625, 778.7356, 527.1256, 778.7356);
        ((GeneralPath) shape).curveTo(526.6262, 778.7356, 526.2176, 779.6622, 526.2176, 780.7946);
        ((GeneralPath) shape).curveTo(526.2176, 781.92706, 527.19885, 782.85364, 528.39813, 782.85364);
        ((GeneralPath) shape).curveTo(529.5974, 782.85364, 530.00604, 781.92706, 529.3061, 780.7946);
        ((GeneralPath) shape).closePath();
        ((GeneralPath) shape).moveTo(515.4188, 773.7485);
        ((GeneralPath) shape).curveTo(518.6116, 770.5557, 511.18338, 769.7423, 481.89822, 770.07776);
        ((GeneralPath) shape).curveTo(464.3726, 770.2785, 450.0323, 769.7606, 450.0309, 768.9269);
        ((GeneralPath) shape).curveTo(450.0299, 768.09314, 436.82602, 767.4372, 420.68973, 767.4693);
        ((GeneralPath) shape).curveTo(404.55344, 767.5014, 390.1222, 766.63434, 388.6203, 765.54266);
        ((GeneralPath) shape).curveTo(386.82657, 764.23883, 385.4135, 764.328, 384.50223, 765.8025);
        ((GeneralPath) shape).curveTo(382.17398, 769.5697, 381.07315, 769.60004, 375.64908, 766.046);
        ((GeneralPath) shape).curveTo(372.22928, 763.8053, 369.4144, 763.26074, 367.50354, 764.4702);
        ((GeneralPath) shape).curveTo(363.19354, 767.19824, 353.7331, 766.7736, 352.74252, 763.8077);
        ((GeneralPath) shape).curveTo(352.13394, 761.9855, 346.07126, 761.2339, 331.9802, 761.2339);
        ((GeneralPath) shape).curveTo(321.0337, 761.2339, 312.07706, 760.7706, 312.0765, 760.20435);
        ((GeneralPath) shape).curveTo(312.07596, 759.6381, 305.55206, 759.1036, 297.57892, 759.01654);
        ((GeneralPath) shape).curveTo(286.38242, 758.89417, 283.6875, 759.4061, 285.74084, 761.26495);
        ((GeneralPath) shape).curveTo(290.64554, 765.7051, 348.05692, 772.14325, 401.64618, 774.2627);
        ((GeneralPath) shape).curveTo(441.6921, 775.8465, 513.646, 775.5213, 515.4188, 773.74854);
        ((GeneralPath) shape).closePath();
        ((GeneralPath) shape).moveTo(539.54333, 769.1178);
        ((GeneralPath) shape).curveTo(536.0958, 765.6703, 532.05286, 767.2128, 533.64716, 771.3674);
        ((GeneralPath) shape).curveTo(534.25037, 772.9393, 536.43134, 773.71484, 538.63104, 773.1396);
        ((GeneralPath) shape).curveTo(542.05585, 772.24396, 542.1693, 771.7437, 539.5434, 769.1178);
        ((GeneralPath) shape).closePath();
        ((GeneralPath) shape).moveTo(549.87573, 768.40686);
        ((GeneralPath) shape).curveTo(549.1644, 767.2559, 547.7199, 766.8473, 546.66565, 767.4989);
        ((GeneralPath) shape).curveTo(543.8097, 769.264, 544.3422, 770.4995, 547.959, 770.4995);
        ((GeneralPath) shape).curveTo(549.7245, 770.4995, 550.58704, 769.5578, 549.87573, 768.4069);
        ((GeneralPath) shape).closePath();
        ((GeneralPath) shape).moveTo(548.86694, 740.522);
        ((GeneralPath) shape).curveTo(548.86694, 740.0226, 547.4224, 739.61395, 545.65686, 739.61395);
        ((GeneralPath) shape).curveTo(543.8913, 739.61395, 543.0288, 740.5556, 543.7401, 741.70654);
        ((GeneralPath) shape).curveTo(544.9154, 743.6082, 548.86694, 742.6952, 548.86694, 740.5219);
        ((GeneralPath) shape).closePath();
        ((GeneralPath) shape).moveTo(435.6202, 735.64496);
        ((GeneralPath) shape).curveTo(435.6202, 734.5944, 431.91394, 732.0997, 427.3841, 730.1011);
        ((GeneralPath) shape).curveTo(422.85422, 728.1025, 419.14795, 725.53375, 419.14795, 724.39276);
        ((GeneralPath) shape).curveTo(419.14795, 723.1773, 418.16092, 723.30524, 416.7644, 724.7018);
        ((GeneralPath) shape).curveTo(413.46838, 727.9978, 417.78577, 732.9083, 426.0988, 735.31854);
        ((GeneralPath) shape).curveTo(434.76974, 737.8325, 435.62024, 737.8617, 435.62024, 735.64496);
        ((GeneralPath) shape).closePath();
        ((GeneralPath) shape).moveTo(486.6842, 733.02515);
        ((GeneralPath) shape).curveTo(489.4611, 730.2482, 489.94907, 727.2363, 487.61078, 727.30566);
        ((GeneralPath) shape).curveTo(486.7614, 727.3309, 483.7501, 729.1633, 480.9189, 731.3779);
        ((GeneralPath) shape).curveTo(476.10532, 735.1432, 476.0452, 735.4074, 479.99234, 735.4502);
        ((GeneralPath) shape).curveTo(482.3139, 735.4752, 485.32523, 734.3841, 486.6842, 733.02515);
        ((GeneralPath) shape).closePath();
        ((GeneralPath) shape).moveTo(513.8634, 734.002);
        ((GeneralPath) shape).curveTo(512.1647, 733.35913, 510.0339, 731.57916, 509.12827, 730.0465);
        ((GeneralPath) shape).curveTo(507.22144, 726.81946, 501.50922, 726.274, 501.50922, 729.3189);
        ((GeneralPath) shape).curveTo(501.50922, 730.4514, 502.49048, 731.3779, 503.6898, 731.3779);
        ((GeneralPath) shape).curveTo(504.8891, 731.3779, 505.2977, 732.3045, 504.59778, 733.43695);
        ((GeneralPath) shape).curveTo(503.84094, 734.6615, 506.0865, 735.4301, 510.1386, 735.33344);
        ((GeneralPath) shape).curveTo(513.886, 735.244, 515.56213, 734.6449, 513.8634, 734.002);
        ((GeneralPath) shape).closePath();
        ((GeneralPath) shape).moveTo(524.15857, 731.3779);
        ((GeneralPath) shape).curveTo(522.52545, 730.3686, 520.726, 730.0061, 520.1597, 730.5723);
        ((GeneralPath) shape).curveTo(519.5935, 731.13855, 520.46643, 732.4276, 522.0995, 733.43695);
        ((GeneralPath) shape).curveTo(523.7326, 734.4463, 525.53204, 734.8088, 526.0983, 734.24255);
        ((GeneralPath) shape).curveTo(526.66455, 733.67633, 525.7917, 732.38727, 524.15857, 731.3779);
        ((GeneralPath) shape).closePath();
        ((GeneralPath) shape).moveTo(451.18414, 730.28296);
        ((GeneralPath) shape).curveTo(447.2626, 727.31683, 441.79727, 726.19476, 441.79727, 728.3557);
        ((GeneralPath) shape).curveTo(441.79727, 729.60175, 450.00537, 733.1425, 453.12195, 733.24097);
        ((GeneralPath) shape).curveTo(454.25443, 733.2767, 453.3824, 731.9456, 451.18414, 730.28296);
        ((GeneralPath) shape).closePath();
        ((GeneralPath) shape).moveTo(467.74966, 727.8175);
        ((GeneralPath) shape).curveTo(467.06546, 727.1333, 466.57883, 728.3494, 466.66824, 730.51996);
        ((GeneralPath) shape).curveTo(466.76715, 732.91864, 467.25494, 733.4065, 467.91223, 731.764);
        ((GeneralPath) shape).curveTo(468.50702, 730.2776, 468.4339, 728.50165, 467.74982, 727.8175);
        ((GeneralPath) shape).closePath();
        ((GeneralPath) shape).moveTo(611.8819, 725.7585);
        ((GeneralPath) shape).curveTo(611.1977, 725.0743, 610.71106, 726.2904, 610.8005, 728.46094);
        ((GeneralPath) shape).curveTo(610.89935, 730.8596, 611.38715, 731.3475, 612.0445, 729.70496);
        ((GeneralPath) shape).curveTo(612.6393, 728.21857, 612.56616, 726.4427, 611.8821, 725.7585);
        ((GeneralPath) shape).closePath();
        ((GeneralPath) shape).moveTo(627.8715, 708.932);
        ((GeneralPath) shape).curveTo(626.37286, 701.4387, 622.9921, 700.3853, 622.9921, 707.4117);
        ((GeneralPath) shape).curveTo(622.9921, 710.0848, 622.52277, 716.80237, 621.9491, 722.33966);
        ((GeneralPath) shape).lineTo(620.906, 732.4075);
        ((GeneralPath) shape).lineTo(625.02686, 723.86);
        ((GeneralPath) shape).curveTo(627.8188, 718.06885, 628.73615, 713.255, 627.8716, 708.932);
        ((GeneralPath) shape).closePath();
        ((GeneralPath) shape).moveTo(568.407, 727.2263);
        ((GeneralPath) shape).curveTo(567.6957, 726.0754, 566.25116, 725.66675, 565.1969, 726.3183);
        ((GeneralPath) shape).curveTo(562.34094, 728.0834, 562.8735, 729.3189, 566.49023, 729.3189);
        ((GeneralPath) shape).curveTo(568.25574, 729.3189, 569.1183, 728.37726, 568.407, 727.2263);
        ((GeneralPath) shape).closePath();
        ((GeneralPath) shape).moveTo(323.91653, 712.3314);
        ((GeneralPath) shape).curveTo(323.39044, 710.91583, 321.79712, 704.66156, 320.37582, 698.4329);
        ((GeneralPath) shape).curveTo(318.95453, 692.20435, 316.37375, 682.4754, 314.64078, 676.8131);
        ((GeneralPath) shape).curveTo(312.9078, 671.15076, 311.03885, 659.3175, 310.48752, 650.5169);
        ((GeneralPath) shape).curveTo(309.9362, 641.7163, 308.67874, 634.0175, 307.69315, 633.4084);
        ((GeneralPath) shape).curveTo(306.70758, 632.7993, 305.90118, 623.08997, 305.90118, 611.8321);
        ((GeneralPath) shape).lineTo(305.90118, 591.3633);
        ((GeneralPath) shape).lineTo(294.5765, 591.3633);
        ((GeneralPath) shape).curveTo(280.78107, 591.3633, 280.62994, 592.13556, 290.32095, 613.1105);
        ((GeneralPath) shape).curveTo(294.20898, 621.5256, 297.35583, 630.9621, 297.31396, 634.08057);
        ((GeneralPath) shape).curveTo(297.27216, 637.19904, 299.30957, 644.33057, 301.84164, 649.92834);
        ((GeneralPath) shape).curveTo(304.37375, 655.5262, 306.55463, 663.95483, 306.68805, 668.6587);
        ((GeneralPath) shape).curveTo(306.82147, 673.3626, 308.1798, 678.71606, 309.70654, 680.5552);
        ((GeneralPath) shape).curveTo(311.23328, 682.39435, 312.50275, 687.4009, 312.5276, 691.6808);
        ((GeneralPath) shape).curveTo(312.6081, 705.5716, 315.85803, 714.9052, 320.61404, 714.9052);
        ((GeneralPath) shape).curveTo(323.1587, 714.9052, 324.488, 713.8692, 323.9165, 712.3314);
        ((GeneralPath) shape).closePath();
        ((GeneralPath) shape).moveTo(338.49774, 713.1048);
        ((GeneralPath) shape).curveTo(340.57632, 711.7871, 340.9692, 707.1941, 340.12418, 694.0903);
        ((GeneralPath) shape).curveTo(339.51138, 684.5878, 339.50424, 678.4346, 340.10767, 680.41644);
        ((GeneralPath) shape).curveTo(340.71176, 682.39825, 342.517, 684.0198, 344.11932, 684.0198);
        ((GeneralPath) shape).curveTo(348.63446, 684.0198, 346.72427, 674.93805, 341.9336, 673.6281);
        ((GeneralPath) shape).curveTo(338.516, 672.6936, 337.7571, 670.5922, 337.47202, 661.2739);
        ((GeneralPath) shape).curveTo(337.28308, 655.09845, 337.98273, 646.6862, 339.02682, 642.5801);
        ((GeneralPath) shape).curveTo(340.40634, 637.1547, 340.1601, 633.6397, 338.12576, 629.71857);
        ((GeneralPath) shape).curveTo(335.7686, 625.1751, 335.7669, 622.6245, 338.11575, 613.5715);
        ((GeneralPath) shape).curveTo(339.64963, 607.65826, 340.9046, 599.73676, 340.9046, 595.9682);
        ((GeneralPath) shape).lineTo(340.9046, 589.1162);
        ((GeneralPath) shape).lineTo(327.00613, 589.72504);
        ((GeneralPath) shape).lineTo(313.10767, 590.33386);
        ((GeneralPath) shape).lineTo(313.77765, 596.4893);
        ((GeneralPath) shape).curveTo(314.14615, 599.8748, 316.23093, 607.7185, 318.4105, 613.91974);
        ((GeneralPath) shape).curveTo(320.59006, 620.121, 322.37332, 628.547, 322.37332, 632.6442);
        ((GeneralPath) shape).curveTo(322.37332, 636.7415, 323.01785, 640.73834, 323.8056, 641.52606);
        ((GeneralPath) shape).curveTo(326.19128, 643.91174, 327.16446, 649.43335, 327.50797, 662.5329);
        ((GeneralPath) shape).curveTo(327.68808, 669.4008, 328.39682, 675.9284, 329.083, 677.0387);
        ((GeneralPath) shape).curveTo(329.7692, 678.1489, 330.30283, 686.13855, 330.2689, 694.79346);
        ((GeneralPath) shape).curveTo(330.19308, 714.1234, 331.6781, 717.42804, 338.49765, 713.10486);
        ((GeneralPath) shape).closePath();
        ((GeneralPath) shape).moveTo(386.7316, 709.0175);
        ((GeneralPath) shape).curveTo(394.38312, 709.2212, 401.14673, 708.8843, 401.76178, 708.2693);
        ((GeneralPath) shape).curveTo(402.37686, 707.65424, 401.95514, 701.2515, 400.82465, 694.0411);
        ((GeneralPath) shape).curveTo(399.69412, 686.8306, 397.684, 671.6655, 396.35773, 660.3408);
        ((GeneralPath) shape).curveTo(395.03143, 649.0162, 393.20538, 636.73914, 392.29987, 633.05865);
        ((GeneralPath) shape).curveTo(390.22083, 624.60846, 394.28436, 623.9046, 398.15082, 632.04517);
        ((GeneralPath) shape).curveTo(400.31323, 636.59796, 406.7037, 679.3023, 406.77585, 689.682);
        ((GeneralPath) shape).curveTo(406.78586, 691.0976, 407.78375, 692.2558, 408.99374, 692.2558);
        ((GeneralPath) shape).curveTo(411.03174, 692.2558, 410.3082, 665.5117, 407.57324, 639.7505);
        ((GeneralPath) shape).curveTo(407.0923, 635.22064, 406.21045, 617.1526, 405.6136, 599.59937);
        ((GeneralPath) shape).curveTo(405.0167, 582.04614, 403.9644, 566.2945, 403.2751, 564.5958);
        ((GeneralPath) shape).curveTo(401.7825, 560.9174, 401.78058, 561.00525, 403.51654, 553.64185);
        ((GeneralPath) shape).curveTo(404.79004, 548.24005, 404.48563, 547.88135, 399.1477, 548.49426);
        ((GeneralPath) shape).curveTo(394.3432, 549.0459, 393.30487, 550.2438, 392.7637, 555.8591);
        ((GeneralPath) shape).curveTo(392.3186, 560.4776, 393.11978, 562.9497, 395.3375, 563.8007);
        ((GeneralPath) shape).curveTo(399.4717, 565.3872, 399.69403, 579.63745, 395.64767, 583.6838);
        ((GeneralPath) shape).curveTo(393.14633, 586.1851, 393.14066, 588.87976, 395.60718, 602.8769);
        ((GeneralPath) shape).curveTo(397.1853, 611.83264, 398.49478, 619.3918, 398.51706, 619.67487);
        ((GeneralPath) shape).curveTo(398.53925, 619.958, 396.82025, 620.18964, 394.69687, 620.18964);
        ((GeneralPath) shape).curveTo(390.25775, 620.18964, 388.2624, 613.0806, 388.2624, 597.26465);
        ((GeneralPath) shape).lineTo(388.2624, 587.2086);
        ((GeneralPath) shape).lineTo(367.6247, 587.6775);
        ((GeneralPath) shape).curveTo(349.98987, 588.0782, 347.1825, 588.6051, 348.3304, 591.2991);
        ((GeneralPath) shape).curveTo(351.6763, 599.15106, 354.41833, 625.15936, 353.98135, 644.898);
        ((GeneralPath) shape).curveTo(353.39438, 671.4117, 351.6889, 697.86084, 350.15817, 704.1899);
        ((GeneralPath) shape).curveTo(348.402, 711.45105, 350.18576, 712.39813, 361.9473, 710.44904);
        ((GeneralPath) shape).curveTo(367.9271, 709.45807, 379.08, 708.81384, 386.73154, 709.0174);
        ((GeneralPath) shape).closePath();
        ((GeneralPath) shape).moveTo(279.35147, 697.6658);
        ((GeneralPath) shape).curveTo(276.91122, 694.72546, 268.8386, 695.394, 268.8386, 698.5364);
        ((GeneralPath) shape).curveTo(268.8386, 700.0872, 279.13126, 702.26355, 280.97147, 701.10175);
        ((GeneralPath) shape).curveTo(281.41595, 700.8211, 280.68695, 699.27496, 279.35147, 697.6658);
        ((GeneralPath) shape).closePath();
        ((GeneralPath) shape).moveTo(468.0083, 699.07275);
        ((GeneralPath) shape).curveTo(468.41006, 697.8675, 467.30978, 696.33295, 465.5632, 695.6628);
        ((GeneralPath) shape).curveTo(463.33762, 694.8087, 462.38763, 695.70807, 462.38763, 698.66925);
        ((GeneralPath) shape).curveTo(462.38763, 702.9054, 466.62924, 703.20996, 468.0083, 699.0728);
        ((GeneralPath) shape).closePath();
        ((GeneralPath) shape).moveTo(635.3148, 686.59357);
        ((GeneralPath) shape).curveTo(635.29034, 682.18115, 634.84265, 681.61304, 633.2873, 684.0198);
        ((GeneralPath) shape).curveTo(630.68384, 688.04834, 630.68384, 692.2559, 633.2873, 692.2559);
        ((GeneralPath) shape).curveTo(634.41974, 692.2559, 635.33215, 689.7079, 635.3148, 686.59357);
        ((GeneralPath) shape).closePath();
        ((GeneralPath) shape).moveTo(304.5913, 685.0611);
        ((GeneralPath) shape).curveTo(303.94196, 683.3689, 302.58118, 682.497, 301.56738, 683.1236);
        ((GeneralPath) shape).curveTo(298.6602, 684.92035, 299.41776, 688.1378, 302.74805, 688.1378);
        ((GeneralPath) shape).curveTo(304.58487, 688.1378, 305.3085, 686.93, 304.59134, 685.0611);
        ((GeneralPath) shape).closePath();
        ((GeneralPath) shape).moveTo(324.43246, 682.99023);
        ((GeneralPath) shape).curveTo(324.43246, 681.2915, 323.5059, 679.9017, 322.37344, 679.9017);
        ((GeneralPath) shape).curveTo(321.24097, 679.9017, 320.3144, 681.2915, 320.3144, 682.99023);
        ((GeneralPath) shape).curveTo(320.3144, 684.68896, 321.24097, 686.0788, 322.37344, 686.0788);
        ((GeneralPath) shape).curveTo(323.5059, 686.0788, 324.43246, 684.68896, 324.43246, 682.99023);
        ((GeneralPath) shape).closePath();
        ((GeneralPath) shape).moveTo(614.756, 677.8819);
        ((GeneralPath) shape).curveTo(614.756, 675.4152, 604.81525, 672.68384, 602.8803, 674.6188);
        ((GeneralPath) shape).curveTo(601.0912, 676.40784, 606.4809, 679.8293, 611.1527, 679.8702);
        ((GeneralPath) shape).curveTo(613.1345, 679.88666, 614.756, 678.9928, 614.756, 677.8819);
        ((GeneralPath) shape).closePath();
        ((GeneralPath) shape).moveTo(262.6615, 665.36694);
        ((GeneralPath) shape).curveTo(262.6615, 664.1676, 261.73492, 663.75903, 260.60248, 664.4589);
        ((GeneralPath) shape).curveTo(259.47, 665.1588, 258.54346, 666.1401, 258.54346, 666.63947);
        ((GeneralPath) shape).curveTo(258.54346, 667.13885, 259.47003, 667.5475, 260.60248, 667.5475);
        ((GeneralPath) shape).curveTo(261.73492, 667.5475, 262.6615, 666.5662, 262.6615, 665.36694);
        ((GeneralPath) shape).closePath();
