package com.pump.awt.geom.outline.clipart;

import java.awt.*;
import java.awt.geom.AffineTransform;
import java.awt.geom.GeneralPath;

import static java.awt.Color.BLACK;

/**
 * This class has been automatically generated using
 * <a href="http://ebourg.github.io/flamingo-svg-transcoder/">Flamingo SVG transcoder</a>.
 * <p>
 * Source image: https://openclipart.org/detail/321036/running-retro-cartoon-dog
 * </p>
 */
public class RunningDogRetro implements javax.swing.Icon {

    /** The width of this icon. */
    private int width;

    /** The height of this icon. */
    private int height;

    /**
     * Creates a new transcoded SVG image.
     */
    public RunningDogRetro() {
        this(896, 487);
    }

    /**
     * Creates a new transcoded SVG image.
     */
    public RunningDogRetro(int width, int height) {
        this.width = width;
        this.height = height;
    }

    @Override
    public int getIconHeight() {
        return height;
    }

    @Override
    public int getIconWidth() {
        return width;
    }

    @Override
    public void paintIcon(Component c, Graphics g, int x, int y) {
        double coef = Math.min((double) width / (double) 896, (double) height / (double) 487);

        Graphics2D g2d = (Graphics2D) g.create();
        g2d.translate(x, y);
        g2d.setRenderingHint(RenderingHints.KEY_ANTIALIASING, RenderingHints.VALUE_ANTIALIAS_ON);
        g2d.scale(coef, coef);
        paint(g2d);
        g2d.dispose();
    }

    /**
     * Paints the transcoded SVG image on the specified graphics context.
     * 
     * @param g Graphics context.
     */
    private static void paint(Graphics2D g) {
        Shape shape = null;
        
        float origAlpha = 1.0f;
        
        java.util.LinkedList<AffineTransform> transformations = new java.util.LinkedList<AffineTransform>();
        

        // 
        transformations.push(g.getTransform());
        g.transform(new AffineTransform(1.0666666f, 0, 0, 1.0666666f, 3.255208E-5f, 0));

        // _0
        transformations.push(g.getTransform());
        g.transform(new AffineTransform(1, 0, 0, 1, -568.3936f, -876.0769f));

        // _0_0
        transformations.push(g.getTransform());
        g.transform(new AffineTransform(0.9375f, 0, 0, 0.9375f, -591.61456f, 291.6519f));

        // _0_0_0
        shape = new GeneralPath();
        ((GeneralPath) shape).moveTo(1448.5098, 623.3867);
        ((GeneralPath) shape).curveTo(1443.8966, 623.3867, 1442.0074, 623.97437, 1438.6444, 626.45703);
        ((GeneralPath) shape).curveTo(1429.7993, 632.98694, 1417.3539, 648.3054, 1415.7635, 654.6211);
        ((GeneralPath) shape).curveTo(1414.9427, 657.881, 1412.5654, 661.3283, 1407.1521, 667.1074);
        ((GeneralPath) shape).curveTo(1398.7408, 676.0872, 1391.7173, 689.0664, 1390.5975, 697.6992);
        ((GeneralPath) shape).curveTo(1390.2299, 700.534, 1389.2416, 703.64636, 1388.4003, 704.6172);
        ((GeneralPath) shape).curveTo(1387.0618, 706.1615, 1387.1361, 706.9032, 1388.9921, 710.541);
        ((GeneralPath) shape).curveTo(1390.1588, 712.8279, 1392.4088, 715.29034, 1393.9921, 716.0117);
        ((GeneralPath) shape).curveTo(1396.5011, 717.1549, 1396.7826, 717.75653, 1396.1932, 720.7031);
        ((GeneralPath) shape).curveTo(1395.8213, 722.5625, 1394.5647, 725.0986, 1393.4003, 726.3379);
        ((GeneralPath) shape).curveTo(1390.4055, 729.5256, 1390.5645, 733.3049, 1393.6796, 732.9746);
        ((GeneralPath) shape).curveTo(1395.5226, 732.7792, 1396.1536, 733.33594, 1396.406, 735.3867);
        ((GeneralPath) shape).curveTo(1397.128, 741.2489, 1400.0037, 748.10156, 1402.0096, 748.7383);
        ((GeneralPath) shape).curveTo(1406.4948, 750.16174, 1407.2089, 747.5317, 1404.4471, 739.75586);
        ((GeneralPath) shape).curveTo(1402.983, 735.6337, 1402.844, 733.215, 1403.6464, 725.75586);
        ((GeneralPath) shape).curveTo(1404.3773, 718.9608, 1405.0256, 716.6605, 1406.2772, 716.4238);
        ((GeneralPath) shape).curveTo(1407.6494, 716.1651, 1407.8881, 717.14954, 1407.6503, 722.0117);
        ((GeneralPath) shape).curveTo(1407.4915, 725.2583, 1406.8198, 728.9257, 1406.1581, 730.1621);
        ((GeneralPath) shape).curveTo(1404.5315, 733.2015, 1405.5781, 737.9694, 1409.9491, 747.4297);
        ((GeneralPath) shape).curveTo(1413.6018, 755.3354, 1416.3038, 758.1308, 1421.5721, 759.4531);
        ((GeneralPath) shape).curveTo(1424.8125, 760.26636, 1425.0205, 759.2557, 1423.1405, 751.78906);
        ((GeneralPath) shape).curveTo(1422.2653, 748.3117, 1422.2526, 746.6593, 1423.0955, 745.8164);
        ((GeneralPath) shape).curveTo(1425.0529, 743.85895, 1427.0775, 746.561, 1429.5701, 754.459);
        ((GeneralPath) shape).lineTo(1431.8806, 761.7793);
        ((GeneralPath) shape).lineTo(1444.3826, 767.88477);
        ((GeneralPath) shape).curveTo(1451.933, 771.57214, 1459.3702, 776.1424, 1463.1619, 779.4219);
        ((GeneralPath) shape).lineTo(1469.4392, 784.85156);
        ((GeneralPath) shape).lineTo(1474.5056, 783.05273);
        ((GeneralPath) shape).curveTo(1477.2914, 782.0633, 1480.3018, 781.2539, 1481.197, 781.2539);
        ((GeneralPath) shape).curveTo(1482.0922, 781.2539, 1485.2925, 779.30194, 1488.3083, 776.91797);
        ((GeneralPath) shape).curveTo(1493.8613, 772.52875, 1497.4177, 771.80725, 1497.4177, 775.0703);
        ((GeneralPath) shape).curveTo(1497.4177, 776.0543, 1494.6582, 779.7138, 1491.2849, 783.2012);
        ((GeneralPath) shape).curveTo(1487.9115, 786.68866, 1485.1501, 789.8864, 1485.1501, 790.3086);
        ((GeneralPath) shape).curveTo(1485.1501, 790.7308, 1483.7302, 793.1811, 1481.9939, 795.7539);
        ((GeneralPath) shape).curveTo(1477.4401, 802.50134, 1476.6332, 804.2088, 1474.955, 810.65234);
        ((GeneralPath) shape).curveTo(1474.1267, 813.83167, 1472.0032, 819.1441, 1470.2343, 822.459);
        ((GeneralPath) shape).curveTo(1468.4652, 825.77386, 1467.0175, 829.1637, 1467.0175, 829.99023);
        ((GeneralPath) shape).curveTo(1467.0175, 830.8168, 1466.2043, 833.0287, 1465.2108, 834.90625);
        ((GeneralPath) shape).curveTo(1464.2172, 836.7838, 1462.5609, 842.6399, 1461.5292, 847.9199);
        ((GeneralPath) shape).curveTo(1460.4976, 853.19995, 1458.4918, 861.59924, 1457.0721, 866.58594);
        ((GeneralPath) shape).curveTo(1453.0472, 880.7228, 1451.0175, 889.587, 1451.0175, 893.03125);
        ((GeneralPath) shape).curveTo(1451.0175, 898.7783, 1448.7004, 899.13367, 1442.6112, 894.3203);
        ((GeneralPath) shape).curveTo(1439.6078, 891.9462, 1437.1425, 889.65485, 1437.1425, 889.2285);
        ((GeneralPath) shape).curveTo(1437.1014, 885.2846, 1434.4878, 873.4858, 1432.6718, 869.0449);
        ((GeneralPath) shape).curveTo(1429.7146, 861.8135, 1426.7911, 860.44977, 1419.5271, 862.916);
        ((GeneralPath) shape).curveTo(1412.0608, 865.4509, 1410.2228, 866.905, 1402.2557, 876.584);
        ((GeneralPath) shape).curveTo(1398.331, 881.352, 1394.7292, 885.4161, 1394.2499, 885.61523);
        ((GeneralPath) shape).curveTo(1393.7705, 885.8145, 1390.7822, 891.3367, 1387.6093, 897.8867);
        ((GeneralPath) shape).curveTo(1382.3225, 908.8007, 1377.5269, 915.31, 1371.4452, 919.8262);
        ((GeneralPath) shape).curveTo(1370.33, 920.65424, 1367.9083, 922.73755, 1366.0643, 924.45703);
        ((GeneralPath) shape).curveTo(1363.098, 927.2232, 1362.4236, 927.4335, 1360.199, 926.2871);
        ((GeneralPath) shape).curveTo(1358.8163, 925.5746, 1356.3334, 923.7311, 1354.6814, 922.18945);
        ((GeneralPath) shape).curveTo(1351.027, 918.7788, 1343.6586, 918.28546, 1340.4021, 921.2324);
        ((GeneralPath) shape).curveTo(1338.1453, 923.2749, 1333.5696, 932.8719, 1331.4666, 939.97266);
        ((GeneralPath) shape).curveTo(1330.7195, 942.4953, 1329.7377, 944.7878, 1329.2869, 945.0664);
        ((GeneralPath) shape).curveTo(1327.6747, 946.0628, 1314.2383, 941.96655, 1312.3025, 939.8887);
        ((GeneralPath) shape).curveTo(1310.6877, 938.1556, 1309.36, 937.86487, 1305.0057, 938.2832);
        ((GeneralPath) shape).curveTo(1299.1343, 938.84735, 1294.323, 942.168, 1289.99, 948.64844);
        ((GeneralPath) shape).curveTo(1287.832, 951.87604, 1287.6195, 953.1442, 1288.2048, 959.3164);
        ((GeneralPath) shape).curveTo(1289.5546, 973.54913, 1290.8221, 980.50543, 1292.9373, 985.2871);
        ((GeneralPath) shape).curveTo(1294.8275, 989.5606, 1295.6997, 990.35004, 1299.7283, 991.44336);
        ((GeneralPath) shape).curveTo(1303.2927, 992.4107, 1305.0828, 992.40625, 1307.5505, 991.42);
        ((GeneralPath) shape).curveTo(1312.8478, 989.30273, 1313.9828, 989.4944, 1313.6619, 992.4532);
        ((GeneralPath) shape).curveTo(1313.2448, 996.2988, 1308.1753, 1006.1674, 1304.1111, 1011.0449);
        ((GeneralPath) shape).curveTo(1302.19, 1013.3505, 1300.617, 1016.0708, 1300.617, 1017.08984);
        ((GeneralPath) shape).curveTo(1300.617, 1020.9935, 1296.022, 1029.4653, 1291.2224, 1034.4103);
        ((GeneralPath) shape).curveTo(1288.4594, 1037.257, 1282.8848, 1041.2593, 1278.779, 1043.3439);
        ((GeneralPath) shape).curveTo(1274.6881, 1045.4209, 1267.7279, 1049.8468, 1263.3123, 1053.1798);
        ((GeneralPath) shape).curveTo(1258.8965, 1056.5128, 1253.6039, 1060.2589, 1251.5505, 1061.504);
        ((GeneralPath) shape).curveTo(1249.4972, 1062.7491, 1245.4269, 1066.5367, 1242.5056, 1069.922);
        ((GeneralPath) shape).curveTo(1237.8857, 1075.2755, 1237.2157, 1076.6401, 1237.3591, 1080.3984);
        ((GeneralPath) shape).curveTo(1237.74, 1090.3749, 1238.6929, 1092.8147, 1241.8826, 1091.9806);
        ((GeneralPath) shape).curveTo(1243.2976, 1091.6105, 1245.3741, 1092.8129, 1248.4958, 1095.8126);
        ((GeneralPath) shape).curveTo(1250.9989, 1098.2178, 1253.4971, 1100.1857, 1254.0466, 1100.1857);
        ((GeneralPath) shape).curveTo(1254.5962, 1100.1857, 1257.143, 1102.1194, 1259.7068, 1104.4825);
        ((GeneralPath) shape).lineTo(1264.3689, 1108.7794);
        ((GeneralPath) shape).lineTo(1274.0135, 1108.6251);
        ((GeneralPath) shape).curveTo(1279.3184, 1108.5402, 1283.9601, 1108.7728, 1284.328, 1109.1407);
        ((GeneralPath) shape).curveTo(1284.6959, 1109.5087, 1285.7513, 1109.5864, 1286.6737, 1109.3147);
        ((GeneralPath) shape).curveTo(1287.5961, 1109.0428, 1289.7906, 1108.487, 1291.5507, 1108.0782);
        ((GeneralPath) shape).curveTo(1293.3107, 1107.6696, 1295.698, 1106.6871, 1296.8553, 1105.8947);
        ((GeneralPath) shape).curveTo(1298.0126, 1105.1023, 1299.7168, 1104.4532, 1300.6443, 1104.4532);
        ((GeneralPath) shape).curveTo(1301.5721, 1104.4532, 1303.9858, 1102.7208, 1306.0076, 1100.6036);
        ((GeneralPath) shape).curveTo(1308.0294, 1098.4863, 1311.4834, 1095.5996, 1313.6833, 1094.1897);
        ((GeneralPath) shape).curveTo(1315.8833, 1092.7795, 1317.6833, 1091.203, 1317.6833, 1090.6857);
        ((GeneralPath) shape).curveTo(1317.6833, 1090.1685, 1319.0619, 1088.2698, 1320.7458, 1086.4669);
        ((GeneralPath) shape).curveTo(1322.4298, 1084.6642, 1324.6079, 1081.5004, 1325.5876, 1079.4357);
        ((GeneralPath) shape).curveTo(1326.5675, 1077.371, 1328.43, 1075.1251, 1329.7263, 1074.4436);
        ((GeneralPath) shape).curveTo(1333.1936, 1072.6207, 1342.2166, 1063.6653, 1342.2166, 1062.0471);
        ((GeneralPath) shape).curveTo(1342.2166, 1061.2804, 1342.8997, 1060.3907, 1343.7341, 1060.0706);
        ((GeneralPath) shape).curveTo(1345.4031, 1059.4302, 1348.617, 1052.2183, 1348.617, 1049.1135);
        ((GeneralPath) shape).curveTo(1348.617, 1048.0339, 1349.8119, 1045.3909, 1351.2712, 1043.2405);
        ((GeneralPath) shape).curveTo(1352.7306, 1041.0901, 1354.228, 1038.0242, 1354.6013, 1036.426);
        ((GeneralPath) shape).curveTo(1355.7438, 1031.5325, 1359.3646, 1020.9885, 1360.9666, 1017.8908);
        ((GeneralPath) shape).curveTo(1361.8004, 1016.27814, 1362.4841, 1013.8896, 1362.4841, 1012.5822);
        ((GeneralPath) shape).curveTo(1362.4841, 1011.2747, 1363.0608, 1008.6106, 1363.7654, 1006.6623);
        ((GeneralPath) shape).curveTo(1364.8247, 1003.7328, 1365.5945, 1003.11926, 1368.2146, 1003.11926);
        ((GeneralPath) shape).curveTo(1369.9574, 1003.11926, 1372.14, 1003.75397, 1373.0662, 1004.5295);
        ((GeneralPath) shape).curveTo(1374.6714, 1005.8733, 1391.9094, 1011.9353, 1399.8162, 1013.93567);
        ((GeneralPath) shape).curveTo(1401.8695, 1014.45526, 1408.1101, 1014.8752, 1413.6833, 1014.8752);
        ((GeneralPath) shape).curveTo(1430.0248, 1014.8652, 1443.1252, 1011.26337, 1456.8064, 1003.0119);
        ((GeneralPath) shape).curveTo(1460.7863, 1000.6115, 1466.2711, 997.89905, 1468.9958, 996.9846);
        ((GeneralPath) shape).curveTo(1471.7207, 996.0701, 1476.099, 993.8353, 1478.7263, 992.0198);
        ((GeneralPath) shape).curveTo(1481.3536, 990.2043, 1484.0712, 988.4791, 1484.7634, 988.1858);
        ((GeneralPath) shape).curveTo(1485.4557, 987.89246, 1489.0664, 984.9508, 1492.7869, 981.6467);
        ((GeneralPath) shape).curveTo(1501.7384, 973.6971, 1512.5988, 964.695, 1516.8298, 961.719);
        ((GeneralPath) shape).curveTo(1518.7068, 960.3988, 1521.7649, 956.9674, 1523.6267, 954.094);
        ((GeneralPath) shape).curveTo(1526.1205, 950.24524, 1528.3225, 948.3067, 1531.986, 946.7307);
        ((GeneralPath) shape).curveTo(1534.8717, 945.4893, 1539.63, 941.848, 1543.322, 938.05493);
        ((GeneralPath) shape).curveTo(1546.8214, 934.4596, 1551.2437, 930.85187, 1553.1501, 930.0393);
        ((GeneralPath) shape).curveTo(1560.3821, 926.95685, 1563.6174, 923.45337, 1566.6775, 915.39087);
        ((GeneralPath) shape).curveTo(1574.7815, 894.0389, 1585.1691, 878.0924, 1593.951, 873.5217);
        ((GeneralPath) shape).curveTo(1595.4176, 872.7583, 1597.981, 870.8683, 1599.6482, 869.32056);
        ((GeneralPath) shape).curveTo(1603.8352, 865.43384, 1628.2935, 853.936, 1636.0837, 852.19165);
        ((GeneralPath) shape).curveTo(1650.0477, 849.06494, 1658.5624, 847.3605, 1660.154, 847.3733);
        ((GeneralPath) shape).curveTo(1661.1409, 847.3813, 1663.0922, 850.0397, 1664.9216, 853.86743);
        ((GeneralPath) shape).curveTo(1668.1643, 860.6521, 1673.6558, 866.3075, 1681.4138, 870.85376);
        ((GeneralPath) shape).curveTo(1683.9167, 872.32043, 1689.0842, 876.5191, 1692.8981, 880.1858);
        ((GeneralPath) shape).curveTo(1696.712, 883.8525, 1700.6095, 886.85077, 1701.5582, 886.8401);
        ((GeneralPath) shape).curveTo(1702.507, 886.83307, 1707.2576, 888.36536, 1712.1149, 890.24634);
        ((GeneralPath) shape).curveTo(1723.717, 894.73914, 1723.829, 895.1202, 1717.8082, 909.6936);
        ((GeneralPath) shape).curveTo(1713.4656, 920.20526, 1707.2218, 931.2097, 1704.9567, 932.344);
        ((GeneralPath) shape).curveTo(1703.6116, 933.0176, 1700.2849, 935.68933, 1697.5642, 938.27954);
        ((GeneralPath) shape).curveTo(1694.8434, 940.86975, 1690.7781, 944.331, 1688.5309, 945.9729);
        ((GeneralPath) shape).curveTo(1685.2545, 948.367, 1684.5691, 949.44794, 1685.066, 951.428);
        ((GeneralPath) shape).curveTo(1685.5281, 953.26843, 1684.9701, 954.45935, 1682.8746, 956.10767);
        ((GeneralPath) shape).curveTo(1681.3285, 957.3239, 1679.527, 958.33563, 1678.8727, 958.35376);
        ((GeneralPath) shape).curveTo(1676.9427, 958.40875, 1674.315, 960.8252, 1673.5446, 963.2522);
        ((GeneralPath) shape).curveTo(1673.0273, 964.88196, 1673.5715, 966.2139, 1675.5035, 968.0471);
        ((GeneralPath) shape).curveTo(1677.0137, 969.4797, 1678.1882, 971.8013, 1678.1989, 973.37524);
        ((GeneralPath) shape).curveTo(1678.2428, 980.023, 1684.7312, 983.39014, 1698.484, 983.90063);
        ((GeneralPath) shape).curveTo(1707.6418, 984.2406, 1711.6929, 985.39874, 1713.0172, 988.05493);
        ((GeneralPath) shape).curveTo(1714.5693, 991.1682, 1725.753, 997.7104, 1729.5973, 997.75415);
        ((GeneralPath) shape).curveTo(1731.163, 997.772, 1733.8035, 998.493, 1735.4644, 999.3557);
        ((GeneralPath) shape).curveTo(1737.1251, 1000.2183, 1742.084, 1002.6088, 1746.484, 1004.6682);
        ((GeneralPath) shape).curveTo(1755.2577, 1008.77484, 1755.8146, 1009.1055, 1764.8219, 1015.5686);
        ((GeneralPath) shape).curveTo(1768.2323, 1018.0157, 1772.457, 1020.3324, 1774.2086, 1020.717);
        ((GeneralPath) shape).curveTo(1775.9602, 1021.1017, 1777.6669, 1021.8611, 1778.0016, 1022.40247);
        ((GeneralPath) shape).curveTo(1778.3363, 1022.9441, 1779.297, 1023.38684, 1780.1383, 1023.38684);
        ((GeneralPath) shape).curveTo(1780.9797, 1023.38684, 1787.6418, 1025.7356, 1794.943, 1028.6075);
        ((GeneralPath) shape).curveTo(1802.2439, 1031.4795, 1813.6484, 1035.141, 1820.2848, 1036.7423);
        ((GeneralPath) shape).curveTo(1842.0894, 1042.0032, 1856.8174, 1045.8885, 1860.9664, 1047.4747);
        ((GeneralPath) shape).curveTo(1866.831, 1049.7172, 1873.5919, 1050.3035, 1895.2828, 1050.4532);
        ((GeneralPath) shape).curveTo(1905.8429, 1050.5262, 1915.09, 1050.9794, 1915.8317, 1051.4591);
        ((GeneralPath) shape).curveTo(1918.6599, 1053.2886, 1926.7496, 1071.0833, 1926.7496, 1075.4747);
        ((GeneralPath) shape).curveTo(1926.7496, 1076.9369, 1925.9603, 1080.6356, 1924.9957, 1083.6954);
        ((GeneralPath) shape).lineTo(1923.2418, 1089.2599);
        ((GeneralPath) shape).lineTo(1926.0621, 1092.957);
        ((GeneralPath) shape).curveTo(1927.6134, 1094.9907, 1928.8844, 1097.6505, 1928.8844, 1098.8672);
        ((GeneralPath) shape).curveTo(1928.8844, 1107.7704, 1941.0507, 1110.2471, 1949.9684, 1103.1602);
        ((GeneralPath) shape).curveTo(1952.1304, 1101.442, 1955.2688, 1099.7626, 1956.943, 1099.4276);
        ((GeneralPath) shape).curveTo(1958.6172, 1099.0928, 1960.543, 1097.9265, 1961.2242, 1096.8358);
        ((GeneralPath) shape).curveTo(1962.8, 1094.3131, 1963.6965, 1094.327, 1964.3649, 1096.8828);
        ((GeneralPath) shape).curveTo(1964.743, 1098.3287, 1966.54, 1099.2742, 1970.6227, 1100.1758);
        ((GeneralPath) shape).curveTo(1977.2567, 1101.641, 1979.6371, 1100.9846, 1985.9255, 1095.959);
        ((GeneralPath) shape).lineTo(1990.1677, 1092.5684);
        ((GeneralPath) shape).lineTo(1991.7185, 1095.8438);
        ((GeneralPath) shape).curveTo(1993.7126, 1100.0547, 1996.9277, 1100.1255, 2002.8416, 1096.0879);
        ((GeneralPath) shape).curveTo(2005.2842, 1094.4202, 2009.0292, 1091.9283, 2011.1619, 1090.5508);
        ((GeneralPath) shape).curveTo(2016.1417, 1087.3342, 2020.617, 1078.49, 2020.617, 1071.8652);
        ((GeneralPath) shape).curveTo(2020.617, 1069.0768, 2021.7913, 1064.2693, 2023.4119, 1060.4219);
        ((GeneralPath) shape).curveTo(2025.9409, 1054.4177, 2026.1599, 1052.8158, 2025.7166, 1043.5723);
        ((GeneralPath) shape).curveTo(2025.087, 1030.4501, 2022.9211, 1026.5695, 2011.4333, 1017.9668);
        ((GeneralPath) shape).curveTo(2000.1149, 1009.4909, 1983.3546, 1004.2532, 1969.9509, 1005.0059);
        ((GeneralPath) shape).curveTo(1965.8442, 1005.2365, 1959.6038, 1005.5625, 1956.0837, 1005.7305);
        ((GeneralPath) shape).curveTo(1952.5637, 1005.89856, 1948.3009, 1006.59235, 1946.6111, 1007.27155);
        ((GeneralPath) shape).curveTo(1942.5858, 1008.8892, 1917.492, 1007.79565, 1914.4841, 1005.87115);
        ((GeneralPath) shape).curveTo(1913.3108, 1005.12036, 1907.6956, 1004.16595, 1902.0076, 1003.7521);
        ((GeneralPath) shape).curveTo(1896.3196, 1003.3381, 1890.5608, 1002.8343, 1889.2087, 1002.631);
        ((GeneralPath) shape).curveTo(1887.8567, 1002.4277, 1884.6176, 1001.9535, 1882.0115, 1001.5782);
        ((GeneralPath) shape).curveTo(1877.0702, 1000.86676, 1872.6558, 999.5949, 1857.2908, 994.4591);
        ((GeneralPath) shape).curveTo(1852.2345, 992.7691, 1846.6503, 991.38684, 1844.8806, 991.38684);
        ((GeneralPath) shape).curveTo(1842.6313, 991.38684, 1841.1392, 990.5889, 1839.9255, 988.73645);
        ((GeneralPath) shape).curveTo(1838.9706, 987.27905, 1836.891, 985.762, 1835.3025, 985.3634);
        ((GeneralPath) shape).curveTo(1831.9432, 984.5203, 1826.4487, 981.4866, 1821.1501, 977.54895);
        ((GeneralPath) shape).curveTo(1819.0968, 976.0231, 1814.2975, 972.89087, 1810.4841, 970.58997);
        ((GeneralPath) shape).curveTo(1804.3021, 966.85986, 1799.9546, 963.13165, 1799.8533, 961.4728);
        ((GeneralPath) shape).curveTo(1799.8342, 961.1531, 1804.0168, 960.10187, 1809.1501, 959.13684);
        ((GeneralPath) shape).curveTo(1814.2834, 958.1717, 1819.8344, 957.05096, 1821.4861, 956.6466);
        ((GeneralPath) shape).curveTo(1823.8151, 956.0765, 1824.8273, 956.3927, 1825.99, 958.05286);
        ((GeneralPath) shape).curveTo(1828.342, 961.41095, 1832.618, 961.56085, 1843.5505, 958.672);
        ((GeneralPath) shape).curveTo(1852.584, 956.2849, 1855.0155, 956.0645, 1865.9509, 956.6349);
        ((GeneralPath) shape).curveTo(1872.6975, 956.9867, 1884.6969, 958.246, 1892.617, 959.4337);
        ((GeneralPath) shape).curveTo(1931.6333, 965.2846, 1943.7162, 965.6207, 1965.1501, 961.4474);
        ((GeneralPath) shape).curveTo(1968.3768, 960.8191, 1984.6978, 960.1558, 2001.4177, 959.97473);
        ((GeneralPath) shape).curveTo(2036.0438, 959.5998, 2035.5505, 959.4916, 2035.5505, 967.57434);
        ((GeneralPath) shape).curveTo(2035.5505, 972.7283, 2038.8484, 978.9658, 2043.5154, 982.63684);
        ((GeneralPath) shape).curveTo(2046.6497, 985.10236, 2049.9758, 984.6231, 2056.5134, 980.76575);
        ((GeneralPath) shape).curveTo(2058.5442, 979.56757, 2060.8398, 978.58606, 2061.615, 978.58606);
        ((GeneralPath) shape).curveTo(2063.6067, 978.58606, 2065.6687, 984.1441, 2064.865, 987.3458);
        ((GeneralPath) shape).curveTo(2064.494, 988.8239, 2064.7017, 991.92975, 2065.326, 994.24817);
        ((GeneralPath) shape).curveTo(2066.2544, 997.6966, 2067.2876, 998.8616, 2071.0056, 1000.65045);
        ((GeneralPath) shape).curveTo(2078.4539, 1004.2341, 2085.3816, 1005.73474, 2088.3142, 1004.39844);
        ((GeneralPath) shape).curveTo(2090.273, 1003.50604, 2091.1353, 1003.57764, 2092.076, 1004.71094);
        ((GeneralPath) shape).curveTo(2092.747, 1005.51965, 2095.2463, 1007.1967, 2097.6306, 1008.4395);
        ((GeneralPath) shape).curveTo(2101.8892, 1010.65924, 2102.0586, 1010.66534, 2107.2654, 1008.793);
        ((GeneralPath) shape).curveTo(2113.9656, 1006.3837, 2118.0686, 1001.35236, 2121.197, 991.7071);
        ((GeneralPath) shape).curveTo(2123.4233, 984.8433, 2123.7388, 984.4354, 2127.07, 984.1153);
        ((GeneralPath) shape).curveTo(2131.105, 983.72754, 2132.6016, 981.09595, 2132.4763, 974.6016);
        ((GeneralPath) shape).curveTo(2132.2375, 962.2311, 2121.5452, 938.89923, 2113.3337, 932.8282);
        ((GeneralPath) shape).curveTo(2111.6191, 931.5605, 2110.2166, 929.5951, 2110.2166, 928.461);
        ((GeneralPath) shape).curveTo(2110.2166, 925.07806, 2102.1157, 918.16565, 2096.5173, 916.77155);
        ((GeneralPath) shape).curveTo(2091.8477, 915.60876, 2088.18, 914.1194, 2079.283, 909.7696);
        ((GeneralPath) shape).curveTo(2069.9243, 905.1941, 2058.2405, 904.7691, 2047.283, 908.6075);
        ((GeneralPath) shape).curveTo(2040.8911, 910.8465, 2024.6028, 910.95337, 2022.7888, 908.76764);
        ((GeneralPath) shape).curveTo(2021.0731, 906.70044, 2021.824, 905.71564, 2028.4899, 901.2911);
        ((GeneralPath) shape).curveTo(2031.5947, 899.23016, 2035.0245, 895.8902, 2036.1129, 893.8692);
        ((GeneralPath) shape).curveTo(2037.2012, 891.8482, 2039.321, 889.56335, 2040.8219, 888.7911);
        ((GeneralPath) shape).curveTo(2042.3228, 888.0187, 2044.7458, 886.3064, 2046.2065, 884.9864);
        ((GeneralPath) shape).curveTo(2047.6672, 883.6664, 2049.2537, 882.586, 2049.732, 882.586);
        ((GeneralPath) shape).curveTo(2051.1416, 882.586, 2056.1978, 870.65796, 2056.5874, 866.4141);
        ((GeneralPath) shape).curveTo(2057.4805, 856.68475, 2047.1406, 844.04834, 2036.6597, 842.0606);
        ((GeneralPath) shape).curveTo(2033.6732, 841.4942, 2027.7612, 839.9984, 2023.5228, 838.73444);
        ((GeneralPath) shape).curveTo(2016.911, 836.7626, 2014.89, 835.52814, 2009.2964, 830.043);
        ((GeneralPath) shape).curveTo(2005.7107, 826.52673, 2000.986, 822.8212, 1998.7964, 821.80865);
        ((GeneralPath) shape).curveTo(1996.0544, 820.5407, 1994.2291, 818.6735, 1992.9331, 815.8106);
        ((GeneralPath) shape).curveTo(1991.898, 813.5243, 1990.0116, 810.7296, 1988.7417, 809.5997);
        ((GeneralPath) shape).curveTo(1987.4718, 808.4697, 1985.6707, 804.86975, 1984.7378, 801.5997);
        ((GeneralPath) shape).curveTo(1983.805, 798.3296, 1982.1769, 794.69293, 1981.1187, 793.5196);
        ((GeneralPath) shape).curveTo(1980.0604, 792.34625, 1976.7124, 787.0672, 1973.6792, 781.7872);
        ((GeneralPath) shape).curveTo(1966.9052, 769.9953, 1966.4454, 769.47894, 1957.3667, 763.4434);
        ((GeneralPath) shape).curveTo(1953.338, 760.76514, 1949.7968, 757.93585, 1949.4976, 757.1563);
        ((GeneralPath) shape).curveTo(1949.1986, 756.3767, 1950.2849, 752.95935, 1951.9098, 749.56256);
        ((GeneralPath) shape).curveTo(1956.241, 740.50775, 1957.4243, 732.52496, 1956.8394, 716.3282);
        ((GeneralPath) shape).curveTo(1956.3518, 702.8234, 1956.234, 702.22327, 1954.1362, 702.5313);
        ((GeneralPath) shape).curveTo(1952.6904, 702.7436, 1951.645, 704.00665, 1951.0698, 706.23834);
        ((GeneralPath) shape).curveTo(1950.5226, 708.3618, 1948.8837, 710.4367, 1946.6733, 711.8028);
        ((GeneralPath) shape).curveTo(1944.7351, 713.00073, 1942.5608, 715.08136, 1941.8413, 716.42584);
        ((GeneralPath) shape).curveTo(1941.1217, 717.7703, 1938.9482, 719.95605, 1937.0112, 721.28326);
        ((GeneralPath) shape).curveTo(1931.9211, 724.7711, 1920.4075, 736.44965, 1918.5854, 739.9727);
        ((GeneralPath) shape).curveTo(1917.4714, 742.1271, 1916.3611, 742.8904, 1914.6891, 742.6524);
        ((GeneralPath) shape).curveTo(1912.7913, 742.38245, 1912.118, 741.21405, 1911.1207, 736.4532);
        ((GeneralPath) shape).curveTo(1910.4447, 733.2265, 1908.9242, 727.7076, 1907.7418, 724.18756);
        ((GeneralPath) shape).curveTo(1906.5594, 720.66754, 1905.0254, 715.6375, 1904.3317, 713.0098);
        ((GeneralPath) shape).curveTo(1902.5565, 706.28644, 1894.8481, 690.5563, 1892.9763, 689.83795);
        ((GeneralPath) shape).curveTo(1888.3295, 688.0549, 1883.3951, 694.76636, 1881.0563, 706.0528);
        ((GeneralPath) shape).curveTo(1879.0704, 715.63617, 1875.709, 727.12085, 1874.5504, 728.27936);
        ((GeneralPath) shape).curveTo(1873.9266, 728.90326, 1873.4176, 730.12195, 1873.4176, 730.98834);
        ((GeneralPath) shape).curveTo(1873.4176, 733.18286, 1865.8751, 743.92, 1864.3336, 743.92);
        ((GeneralPath) shape).curveTo(1863.6392, 743.92, 1861.0098, 742.4276, 1858.4918, 740.6036);
        ((GeneralPath) shape).curveTo(1852.2947, 736.1144, 1845.4191, 733.8157, 1842.6403, 735.3028);
        ((GeneralPath) shape).curveTo(1841.4299, 735.95056, 1838.4198, 736.1477, 1835.6188, 735.76373);
        ((GeneralPath) shape).curveTo(1831.444, 735.1916, 1830.6265, 734.6791, 1830.1031, 732.3067);
        ((GeneralPath) shape).curveTo(1829.7651, 730.77435, 1828.711, 727.5411, 1827.7614, 725.12115);
        ((GeneralPath) shape).curveTo(1825.2439, 718.7054, 1817.0095, 713.6711, 1815.4938, 717.62115);
        ((GeneralPath) shape).curveTo(1814.8901, 719.1939, 1818.4982, 728.0074, 1820.1677, 729.0391);
        ((GeneralPath) shape).curveTo(1820.7408, 729.3934, 1821.7026, 732.7665, 1822.3063, 736.5352);
        ((GeneralPath) shape).curveTo(1822.91, 740.30396, 1824.1046, 744.46204, 1824.9606, 745.77545);
        ((GeneralPath) shape).curveTo(1826.8116, 748.6155, 1825.599, 751.24475, 1821.2379, 753.8497);
        ((GeneralPath) shape).curveTo(1816.6016, 756.619, 1810.7863, 763.336, 1807.3649, 769.87115);
        ((GeneralPath) shape).curveTo(1805.5746, 773.2908, 1803.0239, 777.60297, 1801.697, 779.45514);
        ((GeneralPath) shape).curveTo(1798.4703, 783.9587, 1796.8171, 787.1489, 1794.4099, 793.5196);
        ((GeneralPath) shape).curveTo(1793.3015, 796.45294, 1791.4235, 800.75415, 1790.238, 803.0782);
        ((GeneralPath) shape).curveTo(1789.0525, 805.4022, 1788.084, 808.0428, 1788.0837, 808.9454);
        ((GeneralPath) shape).curveTo(1788.0835, 809.848, 1787.0684, 813.2265, 1785.8298, 816.4532);
        ((GeneralPath) shape).curveTo(1783.8893, 821.50854, 1783.6704, 823.67584, 1784.2477, 832.12897);
        ((GeneralPath) shape).curveTo(1784.8569, 841.0492, 1786.2808, 851.6565, 1789.0153, 867.65436);
        ((GeneralPath) shape).curveTo(1789.9279, 872.9927, 1789.7391, 874.1612, 1786.9176, 880.6329);
        ((GeneralPath) shape).curveTo(1785.2122, 884.54456, 1783.816, 887.9814, 1783.816, 888.27155);
        ((GeneralPath) shape).curveTo(1783.816, 889.9878, 1774.7356, 904.1375, 1773.0582, 905.0352);
        ((GeneralPath) shape).curveTo(1770.5396, 906.3832, 1767.6406, 911.8218, 1768.3942, 913.7852);
        ((GeneralPath) shape).curveTo(1769.0059, 915.37915, 1755.2051, 932.0105, 1752.3668, 933.0997);
        ((GeneralPath) shape).curveTo(1748.2361, 934.68475, 1746.0458, 947.16406, 1749.1266, 951.56256);
        ((GeneralPath) shape).curveTo(1751.2655, 954.61633, 1757.9906, 957.9718, 1762.1969, 958.08405);
        ((GeneralPath) shape).curveTo(1764.0928, 958.13464, 1766.9731, 958.9034, 1768.5973, 959.7911);
        ((GeneralPath) shape).curveTo(1770.2214, 960.67865, 1773.4692, 962.2182, 1775.816, 963.21295);
        ((GeneralPath) shape).curveTo(1784.869, 967.0505, 1792.0238, 970.68243, 1797.1266, 974.03326);
        ((GeneralPath) shape).curveTo(1800.0466, 975.9508, 1802.9868, 977.5196, 1803.6617, 977.5196);
        ((GeneralPath) shape).curveTo(1804.3365, 977.5196, 1805.4607, 978.2086, 1806.1598, 979.05084);
        ((GeneralPath) shape).curveTo(1806.8586, 979.8932, 1808.7777, 980.8788, 1810.4233, 981.2403);
        ((GeneralPath) shape).curveTo(1812.0691, 981.6018, 1814.5194, 983.07355, 1815.8687, 984.5098);
        ((GeneralPath) shape).curveTo(1817.218, 985.946, 1818.6748, 987.12115, 1819.1069, 987.12115);
        ((GeneralPath) shape).curveTo(1820.2589, 987.12115, 1834.8558, 994.2628, 1839.8159, 997.25397);
        ((GeneralPath) shape).curveTo(1842.1626, 998.6691, 1845.043, 999.8601, 1846.2163, 999.8985);
        ((GeneralPath) shape).curveTo(1847.3896, 999.9369, 1849.5504, 1000.891, 1851.0171, 1002.01953);
        ((GeneralPath) shape).curveTo(1854.348, 1004.5827, 1852.9316, 1006.44244, 1847.2612, 1006.95123);
        ((GeneralPath) shape).curveTo(1843.9963, 1007.24426, 1843.5634, 1007.05554, 1844.6128, 1005.791);
        ((GeneralPath) shape).curveTo(1846.6788, 1003.2989, 1844.9777, 1002.0877, 1841.1362, 1003.3105);
        ((GeneralPath) shape).curveTo(1839.2374, 1003.91486, 1834.323, 1005.0804, 1830.2163, 1005.9023);
        ((GeneralPath) shape).curveTo(1826.1096, 1006.7243, 1821.5502, 1007.8354, 1820.0835, 1008.3711);
        ((GeneralPath) shape).curveTo(1816.1089, 1009.8225, 1803.0171, 1010.6841, 1803.0171, 1009.4941);
        ((GeneralPath) shape).curveTo(1803.0171, 1008.1174, 1810.0883, 1005.2577, 1813.5464, 1005.23627);
        ((GeneralPath) shape).curveTo(1816.8569, 1005.2153, 1824.5052, 1001.09784, 1825.2103, 998.95703);
        ((GeneralPath) shape).curveTo(1825.5983, 997.77893, 1824.8484, 997.59924, 1821.681, 998.1133);
        ((GeneralPath) shape).curveTo(1818.1714, 998.68286, 1817.2832, 998.36365, 1814.7103, 995.6094);
        ((GeneralPath) shape).curveTo(1811.6665, 992.3509, 1807.9723, 991.7175, 1801.9507, 993.4199);
        ((GeneralPath) shape).curveTo(1800.484, 993.83466, 1797.942, 993.67426, 1796.3021, 993.0625);
        ((GeneralPath) shape).curveTo(1794.1534, 992.26056, 1793.1097, 992.28674, 1792.5679, 993.1602);
        ((GeneralPath) shape).curveTo(1792.1543, 993.8268, 1788.9375, 994.6472, 1785.4175, 994.9825);
        ((GeneralPath) shape).curveTo(1781.8975, 995.3179, 1776.4508, 995.8952, 1773.314, 996.2657);
        ((GeneralPath) shape).curveTo(1769.9452, 996.6637, 1767.1682, 996.4969, 1766.5306, 995.85944);
        ((GeneralPath) shape).curveTo(1765.8029, 995.13153, 1767.8329, 994.55707, 1772.7671, 994.0938);
        ((GeneralPath) shape).curveTo(1776.791, 993.716, 1781.2828, 992.7605, 1782.7495, 991.97076);
        ((GeneralPath) shape).curveTo(1784.2162, 991.1811, 1789.1229, 990.1917, 1793.6538, 989.77155);
        ((GeneralPath) shape).curveTo(1802.1276, 988.9857, 1804.8667, 987.50214, 1803.6577, 984.3516);
        ((GeneralPath) shape).curveTo(1803.1349, 982.98926, 1802.1484, 982.7758, 1799.0054, 983.34576);
        ((GeneralPath) shape).curveTo(1796.8112, 983.7435, 1792.123, 984.311, 1788.5874, 984.6075);
        ((GeneralPath) shape).curveTo(1783.0334, 985.0734, 1781.8866, 984.8464, 1780.1558, 982.93365);
        ((GeneralPath) shape).curveTo(1778.7089, 981.33496, 1776.8542, 980.7188, 1773.4801, 980.7188);
        ((GeneralPath) shape).curveTo(1769.0902, 980.7188, 1768.8789, 980.5861, 1769.986, 978.51764);
        ((GeneralPath) shape).curveTo(1772.6097, 973.615, 1768.3044, 973.0742, 1743.5563, 975.1973);
        ((GeneralPath) shape).curveTo(1738.7198, 975.61224, 1733.9584, 975.66943, 1732.9742, 975.3243);
        ((GeneralPath) shape).curveTo(1731.4308, 974.78296, 1731.5355, 974.45087, 1733.7379, 972.90826);
        ((GeneralPath) shape).curveTo(1735.1423, 971.92456, 1737.3746, 971.1192, 1738.6989, 971.1192);
        ((GeneralPath) shape).curveTo(1742.11, 971.1192, 1749.7853, 967.88184, 1749.0797, 966.7403);
        ((GeneralPath) shape).curveTo(1748.7555, 966.2158, 1747.3838, 965.7872, 1746.0308, 965.7872);
        ((GeneralPath) shape).curveTo(1744.678, 965.7872, 1742.2607, 964.75555, 1740.6598, 963.49615);
        ((GeneralPath) shape).curveTo(1737.8322, 961.27203, 1737.4027, 961.2429, 1725.691, 962.4942);
        ((GeneralPath) shape).curveTo(1714.1943, 963.7226, 1700.6168, 963.19965, 1700.6168, 961.5274);
        ((GeneralPath) shape).curveTo(1700.6168, 961.0964, 1702.6567, 959.3683, 1705.15, 957.68756);
        ((GeneralPath) shape).curveTo(1719.1033, 948.2821, 1721.9469, 944.5536, 1721.9469, 935.70514);
        ((GeneralPath) shape).curveTo(1721.9469, 932.3463, 1722.7693, 928.3223, 1723.9762, 925.7872);
        ((GeneralPath) shape).curveTo(1725.0933, 923.4405, 1726.8435, 918.8791, 1727.8668, 915.6524);
        ((GeneralPath) shape).curveTo(1728.89, 912.4257, 1731.0834, 906.8381, 1732.7399, 903.23444);
        ((GeneralPath) shape).curveTo(1738.5304, 890.63776, 1742.0024, 878.18396, 1743.2634, 865.49225);
        ((GeneralPath) shape).curveTo(1745.1656, 846.3453, 1745.1785, 846.8536, 1742.7595, 846.8536);
        ((GeneralPath) shape).curveTo(1740.0927, 846.8536, 1737.3215, 852.3669, 1736.3279, 859.6524);
        ((GeneralPath) shape).curveTo(1735.388, 866.5445, 1729.9978, 877.9913, 1727.2869, 878.8516);
        ((GeneralPath) shape).curveTo(1726.1417, 879.215, 1723.6327, 878.8176, 1721.7107, 877.9688);
        ((GeneralPath) shape).curveTo(1719.789, 877.11993, 1714.8772, 875.6463, 1710.7947, 874.6934);
        ((GeneralPath) shape).curveTo(1699.0638, 871.9556, 1688.2826, 865.99725, 1680.1775, 857.77155);
        ((GeneralPath) shape).curveTo(1676.7557, 854.29944, 1676.3013, 853.26746, 1676.8103, 850.1309);
        ((GeneralPath) shape).curveTo(1677.3428, 846.8494, 1677.0594, 846.3273, 1673.8318, 844.65826);
        ((GeneralPath) shape).curveTo(1671.87, 843.64374, 1667.3663, 839.8906, 1663.824, 836.31647);
        ((GeneralPath) shape).lineTo(1657.3845, 829.81647);
        ((GeneralPath) shape).lineTo(1640.8806, 830.17584);
        ((GeneralPath) shape).curveTo(1627.2897, 830.4719, 1622.7926, 830.994, 1615.4119, 833.1329);
        ((GeneralPath) shape).curveTo(1610.4824, 834.56134, 1605.9869, 835.5771, 1605.4216, 835.38873);
        ((GeneralPath) shape).curveTo(1604.1443, 834.963, 1611.8457, 828.5661, 1617.9451, 824.9864);
        ((GeneralPath) shape).curveTo(1624.2772, 821.2699, 1642.4261, 808.31665, 1644.0603, 806.3477);
        ((GeneralPath) shape).curveTo(1644.8031, 805.45276, 1646.2102, 804.7188, 1647.1853, 804.7188);
        ((GeneralPath) shape).curveTo(1648.8748, 804.7188, 1651.2234, 803.02765, 1659.949, 795.5274);
        ((GeneralPath) shape).curveTo(1662.0765, 793.6986, 1664.8966, 791.8658, 1666.2166, 791.45514);
        ((GeneralPath) shape).curveTo(1668.9696, 790.5985, 1669.3595, 788.9378, 1667.0173, 788.0391);
        ((GeneralPath) shape).curveTo(1664.521, 787.0812, 1665.1023, 785.0639, 1669.1501, 780.6446);
        ((GeneralPath) shape).curveTo(1673.211, 776.2111, 1674.0657, 773.41956, 1671.0173, 774.5411);
        ((GeneralPath) shape).curveTo(1668.6359, 775.41724, 1665.5787, 777.26807, 1656.533, 783.31647);
        ((GeneralPath) shape).curveTo(1652.5272, 785.9949, 1647.974, 788.86725, 1646.4138, 789.6993);
        ((GeneralPath) shape).curveTo(1641.2188, 792.46985, 1628.095, 802.6433, 1626.4216, 805.1973);
        ((GeneralPath) shape).curveTo(1625.5137, 806.5828, 1623.6669, 807.9931, 1622.3162, 808.3321);
        ((GeneralPath) shape).curveTo(1620.9655, 808.6711, 1615.3098, 812.1979, 1609.7498, 816.168);
        ((GeneralPath) shape).curveTo(1590.3805, 829.9988, 1584.4729, 835.4151, 1574.5349, 848.4532);
        ((GeneralPath) shape).curveTo(1572.9697, 850.50653, 1569.345, 854.6167, 1566.4783, 857.586);
        ((GeneralPath) shape).curveTo(1556.377, 868.0483, 1546.6373, 885.4716, 1544.2615, 897.33405);
        ((GeneralPath) shape).curveTo(1539.6024, 920.59766, 1539.373, 921.31323, 1534.0975, 928.9864);
        ((GeneralPath) shape).curveTo(1526.884, 939.4779, 1523.0679, 943.3868, 1520.035, 943.3868);
        ((GeneralPath) shape).curveTo(1518.5785, 943.3868, 1514.5083, 945.6851, 1510.6404, 948.6934);
        ((GeneralPath) shape).curveTo(1506.8873, 951.61237, 1502.1371, 954.78046, 1500.0837, 955.7325);
        ((GeneralPath) shape).curveTo(1496.4885, 957.3995, 1493.7657, 958.7844, 1486.6189, 962.5821);
        ((GeneralPath) shape).curveTo(1484.7869, 963.55554, 1481.9714, 965.3877, 1480.3611, 966.65436);
        ((GeneralPath) shape).curveTo(1478.7509, 967.921, 1477.0013, 968.69104, 1476.4744, 968.3653);
        ((GeneralPath) shape).curveTo(1474.5721, 967.1897, 1479.1965, 961.6746, 1484.281, 959.05475);
        ((GeneralPath) shape).curveTo(1490.6859, 955.75446, 1501.0311, 947.59357, 1501.0994, 945.7872);
        ((GeneralPath) shape).curveTo(1501.1714, 943.89606, 1496.9425, 944.12524, 1496.2029, 946.0528);
        ((GeneralPath) shape).curveTo(1495.8652, 946.9328, 1494.6986, 947.6524, 1493.6111, 947.6524);
        ((GeneralPath) shape).curveTo(1492.5238, 947.6524, 1491.016, 948.3966, 1490.2596, 949.30475);
        ((GeneralPath) shape).curveTo(1487.0647, 953.1405, 1484.6489, 955.1192, 1483.1659, 955.1192);
        ((GeneralPath) shape).curveTo(1482.296, 955.1192, 1480.7053, 955.9165, 1479.6288, 956.8907);
        ((GeneralPath) shape).curveTo(1478.5522, 957.8652, 1477.3486, 958.34094, 1476.955, 957.9473);
        ((GeneralPath) shape).curveTo(1475.7504, 956.74274, 1482.2188, 950.7226, 1486.9159, 948.6778);
        ((GeneralPath) shape).curveTo(1490.9875, 946.9051, 1503.2831, 935.5593, 1503.2831, 933.5743);
        ((GeneralPath) shape).curveTo(1503.2831, 933.10474, 1502.5635, 932.7188, 1501.6835, 932.7188);
        ((GeneralPath) shape).curveTo(1500.8035, 932.7188, 1500.0839, 931.9992, 1500.0839, 931.1192);
        ((GeneralPath) shape).curveTo(1500.0839, 928.176, 1497.655, 929.31213, 1486.326, 937.55084);
        ((GeneralPath) shape).curveTo(1483.0691, 939.9194, 1477.6835, 941.16797, 1477.6835, 939.55475);
        ((GeneralPath) shape).curveTo(1477.6835, 939.2072, 1478.643, 937.70264, 1479.8163, 936.211);
        ((GeneralPath) shape).curveTo(1482.7845, 932.4373, 1482.5032, 931.2748, 1478.7987, 932.0157);
        ((GeneralPath) shape).curveTo(1476.2571, 932.52405, 1475.2286, 932.11316, 1473.4803, 929.8907);
        ((GeneralPath) shape).curveTo(1471.1871, 926.9754, 1470.8373, 927.28625, 1469.9021, 933.0684);
        ((GeneralPath) shape).curveTo(1469.4576, 935.81757, 1469.6461, 936.0259, 1472.029, 935.4278);
        ((GeneralPath) shape).curveTo(1474.8933, 934.70886, 1474.6963, 935.1209, 1469.4177, 940.8692);
        ((GeneralPath) shape).curveTo(1468.0978, 942.30676, 1467.0173, 944.1413, 1467.0173, 944.9454);
        ((GeneralPath) shape).curveTo(1467.0173, 947.8134, 1454.183, 956.1856, 1449.7869, 956.1856);
        ((GeneralPath) shape).curveTo(1446.8282, 956.1856, 1447.3906, 954.42865, 1451.6853, 950.2579);
        ((GeneralPath) shape).curveTo(1453.8131, 948.1915, 1455.3175, 946.26514, 1455.029, 945.9766);
        ((GeneralPath) shape).curveTo(1454.4438, 945.3915, 1443.9624, 951.9301, 1441.3279, 954.5235);
        ((GeneralPath) shape).curveTo(1439.6318, 956.19293, 1436.0837, 956.82324, 1436.0837, 955.45514);
        ((GeneralPath) shape).curveTo(1436.0837, 953.9955, 1440.7639, 949.78735, 1442.4021, 949.7735);
        ((GeneralPath) shape).curveTo(1443.3265, 949.7655, 1447.0831, 946.7116, 1450.7498, 942.9864);
        ((GeneralPath) shape).curveTo(1457.0596, 936.5759, 1458.7568, 933.7872, 1456.3494, 933.7872);
        ((GeneralPath) shape).curveTo(1455.7627, 933.7872, 1455.283, 933.23, 1455.283, 932.5489);
        ((GeneralPath) shape).curveTo(1455.283, 930.8422, 1465.4805, 917.54034, 1472.7322, 909.7872);
        ((GeneralPath) shape).curveTo(1479.0527, 903.0294, 1479.7388, 901.7872, 1477.1501, 901.7872);
        ((GeneralPath) shape).curveTo(1476.2701, 901.7872, 1475.5505, 901.0086, 1475.5505, 900.0567);
        ((GeneralPath) shape).curveTo(1475.5505, 898.56775, 1475.3043, 898.5296, 1473.7849, 899.7891);
        ((GeneralPath) shape).curveTo(1472.1411, 901.1516, 1472.1411, 901.27673, 1473.7849, 901.5977);
        ((GeneralPath) shape).curveTo(1476.5852, 902.1446, 1475.8907, 904.9864, 1472.9567, 904.9864);
        ((GeneralPath) shape).curveTo(1470.2086, 904.9864, 1465.9508, 909.7869, 1465.9508, 912.8848);
        ((GeneralPath) shape).curveTo(1465.9508, 914.8203, 1463.2488, 915.1905, 1462.1461, 913.4063);
        ((GeneralPath) shape).curveTo(1461.7449, 912.75714, 1461.953, 910.4774, 1462.607, 908.3399);
        ((GeneralPath) shape).curveTo(1463.2611, 906.2024, 1464.407, 901.8127, 1465.1539, 898.586);
        ((GeneralPath) shape).curveTo(1466.2155, 894.00104, 1466.9169, 892.7883, 1468.3649, 893.03326);
        ((GeneralPath) shape).curveTo(1469.4454, 893.21606, 1470.2164, 892.6734, 1470.2164, 891.7325);
        ((GeneralPath) shape).curveTo(1470.2164, 890.7331, 1469.6044, 890.35547, 1468.6168, 890.73444);
        ((GeneralPath) shape).curveTo(1464.9213, 892.1526, 1468.1732, 882.61017, 1472.8473, 878.3204);
        ((GeneralPath) shape).curveTo(1476.2095, 875.2344, 1479.2322, 869.90845, 1478.2008, 868.8868);
        ((GeneralPath) shape).curveTo(1477.8115, 868.5013, 1476.3564, 869.60675, 1474.9684, 871.3438);
        ((GeneralPath) shape).curveTo(1473.5803, 873.0809, 1472.1401, 874.1972, 1471.7672, 873.8243);
        ((GeneralPath) shape).curveTo(1470.6628, 872.71985, 1472.1245, 869.504, 1475.5426, 865.5196);
        ((GeneralPath) shape).curveTo(1479.3893, 861.03546, 1479.5111, 860.1856, 1476.3062, 860.1856);
        ((GeneralPath) shape).curveTo(1473.8672, 860.1856, 1473.8638, 860.1686, 1475.0387, 851.92);
        ((GeneralPath) shape).curveTo(1475.6862, 847.37335, 1476.5065, 842.9328, 1476.8608, 842.0528);
        ((GeneralPath) shape).curveTo(1477.2153, 841.1728, 1477.8224, 839.014, 1478.2104, 837.25397);
        ((GeneralPath) shape).curveTo(1478.5985, 835.49396, 1479.5378, 833.3332, 1480.2983, 832.4532);
        ((GeneralPath) shape).curveTo(1481.0591, 831.5732, 1483.7152, 823.89343, 1486.2007, 815.3868);
        ((GeneralPath) shape).curveTo(1491.2104, 798.2394, 1492.8779, 794.72736, 1495.6089, 795.5743);
        ((GeneralPath) shape).curveTo(1496.7986, 795.94324, 1499.6028, 794.1088, 1503.8159, 790.2071);
        ((GeneralPath) shape).curveTo(1507.3359, 786.94727, 1512.1372, 783.0605, 1514.4839, 781.5684);
        ((GeneralPath) shape).curveTo(1516.8304, 780.0765, 1521.1501, 777.0466, 1524.0835, 774.836);
        ((GeneralPath) shape).curveTo(1527.0168, 772.62555, 1531.8683, 769.7751, 1534.8647, 768.502);
        ((GeneralPath) shape).curveTo(1540.2721, 766.20483, 1546.4407, 759.9049, 1544.06, 759.1114);
        ((GeneralPath) shape).curveTo(1542.4828, 758.5855, 1543.6555, 755.6524, 1545.443, 755.6524);
        ((GeneralPath) shape).curveTo(1546.2113, 755.6524, 1547.0197, 756.1928, 1547.2397, 756.8536);
        ((GeneralPath) shape).curveTo(1547.7534, 758.3947, 1555.2583, 754.6592, 1558.2144, 751.3907);
        ((GeneralPath) shape).curveTo(1559.3864, 750.0949, 1561.666, 748.35065, 1563.2808, 747.5157);
        ((GeneralPath) shape).curveTo(1566.299, 745.95496, 1567.113, 743.5338, 1565.0483, 742.2579);
        ((GeneralPath) shape).curveTo(1564.4059, 741.86084, 1562.5978, 742.4846, 1561.0288, 743.6446);
        ((GeneralPath) shape).curveTo(1559.4598, 744.8045, 1556.9841, 746.11646, 1555.5288, 746.5606);
        ((GeneralPath) shape).curveTo(1551.5988, 747.7601, 1531.0472, 758.578, 1527.3179, 761.4102);
        ((GeneralPath) shape).curveTo(1525.5388, 762.7612, 1521.8492, 764.8513, 1519.1185, 766.05475);
        ((GeneralPath) shape).curveTo(1516.388, 767.25824, 1512.828, 769.7312, 1511.2084, 771.5489);
        ((GeneralPath) shape).curveTo(1507.6372, 775.557, 1505.4174, 775.8001, 1505.4174, 772.1856);
        ((GeneralPath) shape).curveTo(1505.4174, 768.6706, 1509.1573, 764.9423, 1511.8313, 765.7911);
        ((GeneralPath) shape).curveTo(1514.1589, 766.52985, 1517.4127, 765.01733, 1521.345, 761.37115);
        ((GeneralPath) shape).curveTo(1522.8391, 759.9858, 1524.7065, 758.8536, 1525.4954, 758.8536);
        ((GeneralPath) shape).curveTo(1526.2843, 758.8536, 1529.65, 756.7584, 1532.9739, 754.1973);
        ((GeneralPath) shape).curveTo(1536.2976, 751.63635, 1541.1757, 748.4117, 1543.8157, 747.0313);
        ((GeneralPath) shape).curveTo(1546.4557, 745.6508, 1549.5094, 743.78534, 1550.6008, 742.8868);
        ((GeneralPath) shape).curveTo(1552.4916, 741.3299, 1552.4417, 741.22723, 1549.5344, 740.70905);
        ((GeneralPath) shape).curveTo(1547.4385, 740.3355, 1546.4836, 739.53125, 1546.4836, 738.13873);
        ((GeneralPath) shape).curveTo(1546.4836, 736.59985, 1548.4105, 735.37164, 1554.4836, 733.043);
        ((GeneralPath) shape).curveTo(1558.8837, 731.3559, 1564.4026, 729.0834, 1566.7493, 727.99225);
        ((GeneralPath) shape).curveTo(1569.096, 726.9011, 1571.8922, 725.71985, 1572.9622, 725.36725);
        ((GeneralPath) shape).curveTo(1574.0945, 724.99414, 1574.7549, 723.9438, 1574.5422, 722.8555);
        ((GeneralPath) shape).curveTo(1574.239, 721.3042, 1573.0895, 721.00836, 1567.7961, 721.11725);
        ((GeneralPath) shape).curveTo(1562.0818, 721.23474, 1557.1595, 722.2474, 1543.343, 726.1446);
        ((GeneralPath) shape).curveTo(1537.6652, 727.74615, 1529.2467, 734.5842, 1527.343, 739.1407);
        ((GeneralPath) shape).curveTo(1525.5673, 743.3903, 1523.4241, 743.8802, 1521.2083, 740.543);
        ((GeneralPath) shape).lineTo(1519.675, 738.2305);
        ((GeneralPath) shape).lineTo(1513.8782, 740.2286);
        ((GeneralPath) shape).curveTo(1510.6906, 741.3272, 1507.4845, 742.66547, 1506.7532, 743.20123);
        ((GeneralPath) shape).curveTo(1506.0217, 743.737, 1502.711, 744.3782, 1499.3958, 744.627);
        ((GeneralPath) shape).curveTo(1496.0804, 744.87585, 1492.4425, 745.57465, 1491.3118, 746.17975);
        ((GeneralPath) shape).curveTo(1490.1649, 746.7935, 1487.3896, 746.9644, 1485.0344, 746.56647);
        ((GeneralPath) shape).curveTo(1482.0679, 746.06537, 1480.0836, 746.3319, 1478.3605, 747.461);
        ((GeneralPath) shape).curveTo(1475.4082, 749.3954, 1473.9028, 748.61566, 1471.4991, 743.9063);
        ((GeneralPath) shape).curveTo(1470.4999, 741.9484, 1468.8159, 739.8299, 1467.755, 739.1993);
        ((GeneralPath) shape).curveTo(1466.1736, 738.25934, 1465.4354, 738.58295, 1463.6613, 740.99225);
        ((GeneralPath) shape).curveTo(1461.155, 744.3956, 1460.0791, 744.0512, 1458.0519, 739.1993);
        ((GeneralPath) shape).curveTo(1456.4752, 735.426, 1451.3016, 730.0528, 1449.2452, 730.0528);
        ((GeneralPath) shape).curveTo(1448.5525, 730.0528, 1447.6586, 728.56396, 1447.2589, 726.7442);
        ((GeneralPath) shape).curveTo(1446.1824, 721.8429, 1443.0092, 719.03015, 1440.2335, 720.5157);
        ((GeneralPath) shape).curveTo(1437.2145, 722.1315, 1437.0304, 721.6217, 1438.6475, 716.1446);
        ((GeneralPath) shape).curveTo(1439.8881, 711.9434, 1439.8198, 710.7127, 1438.0675, 705.6192);
        ((GeneralPath) shape).curveTo(1436.976, 702.44714, 1436.0831, 699.1137, 1436.0831, 698.211);
        ((GeneralPath) shape).curveTo(1436.0831, 697.3083, 1434.7992, 695.23016, 1433.2296, 693.59186);
        ((GeneralPath) shape).curveTo(1430.6171, 690.86505, 1430.4976, 690.3828, 1431.8273, 687.8985);
        ((GeneralPath) shape).curveTo(1432.6262, 686.4059, 1435.4666, 683.4, 1438.1378, 681.2188);
        ((GeneralPath) shape).curveTo(1440.809, 679.03766, 1444.9197, 675.31146, 1447.2725, 672.9395);
        ((GeneralPath) shape).curveTo(1449.6254, 670.5676, 1454.1897, 666.6816, 1457.4171, 664.3028);
        ((GeneralPath) shape).curveTo(1464.8175, 658.8482, 1466.6453, 656.7206, 1465.1846, 655.2598);
        ((GeneralPath) shape).curveTo(1464.4266, 654.50183, 1461.6273, 655.4313, 1456.2158, 658.23834);
        ((GeneralPath) shape).curveTo(1451.8893, 660.48254, 1446.5486, 663.14, 1444.3486, 664.14264);
        ((GeneralPath) shape).curveTo(1440.5325, 665.8818, 1440.3486, 665.8773, 1440.3486, 664.0449);
        ((GeneralPath) shape).curveTo(1440.3486, 662.9886, 1441.4291, 661.09753, 1442.749, 659.8418);
        ((GeneralPath) shape).curveTo(1452.6769, 650.39734, 1459.4971, 642.8236, 1459.5205, 641.21875);
        ((GeneralPath) shape).curveTo(1459.5875, 636.6764, 1454.7274, 637.989, 1440.0264, 646.4785);
        ((GeneralPath) shape).curveTo(1436.6218, 648.4447, 1433.1296, 650.05273, 1432.2667, 650.05273);
        ((GeneralPath) shape).curveTo(1431.4036, 650.05273, 1430.2404, 651.2521, 1429.6827, 652.71875);
        ((GeneralPath) shape).curveTo(1429.0569, 654.365, 1427.834, 655.3867, 1426.4855, 655.3867);
        ((GeneralPath) shape).curveTo(1424.4006, 655.3867, 1424.3802, 655.26385, 1426.048, 652.71875);
        ((GeneralPath) shape).curveTo(1427.009, 651.2521, 1428.1862, 650.05273, 1428.6652, 650.05273);
        ((GeneralPath) shape).curveTo(1429.1444, 650.05273, 1433.1458, 646.57367, 1437.5558, 642.3203);
        ((GeneralPath) shape).curveTo(1441.966, 638.06696, 1447.5188, 632.9708, 1449.8956, 630.9961);
        ((GeneralPath) shape).curveTo(1452.2723, 629.02136, 1454.216, 626.5018, 1454.216, 625.3965);
        ((GeneralPath) shape).curveTo(1454.216, 623.6785, 1453.3873, 623.3867, 1448.5089, 623.3867);
        ((GeneralPath) shape).closePath();
        ((GeneralPath) shape).moveTo(1418.9668, 632.9883);
        ((GeneralPath) shape).curveTo(1417.3389, 633.05426, 1413.9596, 635.6805, 1409.002, 640.7656);
        ((GeneralPath) shape).curveTo(1400.7136, 649.26697, 1395.1816, 658.89594, 1390.9043, 672.26953);
        ((GeneralPath) shape).curveTo(1388.6572, 679.2953, 1388.5702, 680.25183, 1390.041, 681.72266);
        ((GeneralPath) shape).curveTo(1391.5118, 683.1935, 1391.9722, 682.9973, 1394.5939, 679.78516);
        ((GeneralPath) shape).curveTo(1396.1981, 677.8195, 1398.1045, 674.4134, 1398.8302, 672.21484);
        ((GeneralPath) shape).curveTo(1399.5557, 670.0163, 1401.035, 667.415, 1402.1173, 666.43555);
        ((GeneralPath) shape).curveTo(1403.1995, 665.4561, 1404.0841, 664.2537, 1404.0841, 663.7637);
        ((GeneralPath) shape).curveTo(1404.0841, 663.2736, 1406.1337, 659.8696, 1408.6388, 656.19727);
        ((GeneralPath) shape).curveTo(1413.837, 648.5771, 1420.0841, 636.731, 1420.0841, 634.49414);
        ((GeneralPath) shape).curveTo(1420.0841, 633.4577, 1419.7069, 632.95825, 1418.9669, 632.9883);
        ((GeneralPath) shape).closePath();
        ((GeneralPath) shape).moveTo(1422.5742, 656.791);
        ((GeneralPath) shape).curveTo(1423.4297, 656.75464, 1423.3774, 657.7814, 1421.6896, 659.6465);
        ((GeneralPath) shape).curveTo(1420.6245, 660.8234, 1418.9987, 661.7871, 1418.0763, 661.7871);
        ((GeneralPath) shape).curveTo(1416.8478, 661.7871, 1417.1683, 661.0174, 1419.2755, 658.91016);
        ((GeneralPath) shape).curveTo(1420.694, 657.49176, 1421.909, 656.81934, 1422.5743, 656.791);
        ((GeneralPath) shape).closePath();
        ((GeneralPath) shape).moveTo(1647.6562, 657.61914);
        ((GeneralPath) shape).curveTo(1644.0858, 657.7097, 1643.2578, 658.3341, 1641.3711, 659.95703);
        ((GeneralPath) shape).curveTo(1638.6442, 662.3026, 1638.433, 662.9062, 1639.5098, 665.26953);
        ((GeneralPath) shape).curveTo(1641.3627, 669.3363, 1652.8616, 675.77747, 1663.0176, 678.4375);
        ((GeneralPath) shape).curveTo(1663.7509, 678.6296, 1664.3516, 679.297, 1664.3516, 679.9199);
        ((GeneralPath) shape).curveTo(1664.3516, 680.96857, 1657.6206, 680.7559, 1645.1504, 679.3164);
        ((GeneralPath) shape).curveTo(1636.8282, 678.3558, 1620.3009, 678.7256, 1617.375, 679.9375);
        ((GeneralPath) shape).curveTo(1613.4489, 681.5637, 1612.1775, 685.10376, 1614.8242, 687.03906);
        ((GeneralPath) shape).curveTo(1616.2251, 688.0634, 1621.4852, 688.482, 1633.8887, 688.5586);
        ((GeneralPath) shape).curveTo(1643.3098, 688.6168, 1652.2189, 688.80273, 1653.6854, 688.9707);
        ((GeneralPath) shape).curveTo(1655.1521, 689.1387, 1665.6383, 689.85956, 1676.9883, 690.5742);
        ((GeneralPath) shape).curveTo(1699.4948, 691.99133, 1701.842, 691.60333, 1697.7266, 687.13477);
        ((GeneralPath) shape).curveTo(1694.926, 684.0945, 1694.985, 679.2365, 1697.8165, 679.72656);
        ((GeneralPath) shape).curveTo(1698.8961, 679.9134, 1703.5269, 681.71344, 1708.1056, 683.72656);
        ((GeneralPath) shape).curveTo(1712.6843, 685.73975, 1716.9089, 687.3867, 1717.4941, 687.3867);
        ((GeneralPath) shape).curveTo(1722.3398, 687.3867, 1757.0398, 701.68445, 1758.6953, 704.3633);
        ((GeneralPath) shape).curveTo(1759.0885, 704.99945, 1760.8602, 705.51953, 1762.6328, 705.51953);
        ((GeneralPath) shape).curveTo(1765.4023, 705.51953, 1766.0911, 704.9205, 1767.5312, 701.2539);
        ((GeneralPath) shape).curveTo(1768.4531, 698.9072, 1769.6968, 696.9863, 1770.2949, 696.9863);
        ((GeneralPath) shape).curveTo(1772.8613, 696.9863, 1780.194, 706.3602, 1782.166, 712.1621);
        ((GeneralPath) shape).curveTo(1783.7482, 716.8167, 1785.2451, 718.99194, 1788.5586, 721.4531);
        ((GeneralPath) shape).curveTo(1796.2906, 727.1962, 1796.917, 725.91626, 1794.5352, 709.2539);
        ((GeneralPath) shape).curveTo(1792.6455, 696.03467, 1792.0656, 694.4586, 1788.6405, 693.25586);
        ((GeneralPath) shape).curveTo(1786.3744, 692.4601, 1785.4836, 692.5267, 1785.1522, 693.51953);
        ((GeneralPath) shape).curveTo(1784.6437, 695.0434, 1780.6171, 695.36084, 1780.6171, 693.87695);
        ((GeneralPath) shape).curveTo(1780.6171, 692.28674, 1772.4159, 686.2661, 1768.8593, 685.2461);
        ((GeneralPath) shape).curveTo(1764.8304, 684.09064, 1763.3751, 686.3804, 1766.1737, 689.47266);
        ((GeneralPath) shape).curveTo(1767.172, 690.57574, 1767.8304, 692.475, 1767.6366, 693.69336);
        ((GeneralPath) shape).curveTo(1767.3083, 695.75714, 1766.805, 695.5986, 1760.2714, 691.38086);
        ((GeneralPath) shape).curveTo(1756.414, 688.89087, 1752.5391, 686.1339, 1751.66, 685.2539);
        ((GeneralPath) shape).curveTo(1748.8278, 682.4189, 1737.5443, 677.7871, 1733.4706, 677.7871);
        ((GeneralPath) shape).curveTo(1732.5566, 677.7871, 1729.1182, 676.55426, 1725.83, 675.0488);
        ((GeneralPath) shape).curveTo(1722.5416, 673.5434, 1716.8439, 671.4041, 1713.1678, 670.29297);
        ((GeneralPath) shape).curveTo(1700.3285, 666.41205, 1692.6052, 663.62744, 1691.0175, 662.3086);
        ((GeneralPath) shape).curveTo(1688.1388, 659.91754, 1681.3011, 659.0154, 1657.8651, 657.93164);
        ((GeneralPath) shape).curveTo(1652.927, 657.7033, 1649.7985, 657.56476, 1647.6561, 657.61914);
        ((GeneralPath) shape).closePath();
        ((GeneralPath) shape).moveTo(1436.8711, 666.1992);
        ((GeneralPath) shape).curveTo(1436.987, 666.1972, 1437.0928, 666.2119, 1437.1836, 666.24225);
        ((GeneralPath) shape).curveTo(1438.1359, 666.5597, 1437.9952, 667.18835, 1436.6836, 668.50006);
        ((GeneralPath) shape).curveTo(1435.6832, 669.50055, 1434.072, 670.3204, 1433.1035, 670.3204);
        ((GeneralPath) shape).curveTo(1431.6237, 670.3204, 1431.7048, 669.9593, 1433.6035, 668.0606);
        ((GeneralPath) shape).curveTo(1434.6908, 666.9733, 1436.0591, 666.21075, 1436.8711, 666.1993);
        ((GeneralPath) shape).closePath();
        ((GeneralPath) shape).moveTo(1688.3438, 675.75195);
        ((GeneralPath) shape).curveTo(1688.9257, 675.6361, 1689.9846, 676.1499, 1691.4883, 677.2871);
        ((GeneralPath) shape).curveTo(1693.561, 678.8548, 1693.1776, 679.0303, 1689.6836, 678.1172);
        ((GeneralPath) shape).curveTo(1688.6569, 677.8489, 1687.8184, 677.1862, 1687.8184, 676.6426);
        ((GeneralPath) shape).curveTo(1687.8184, 676.1189, 1687.9945, 675.8215, 1688.3438, 675.75195);
        ((GeneralPath) shape).closePath();
        ((GeneralPath) shape).moveTo(1416.4805, 676.06836);
        ((GeneralPath) shape).curveTo(1416.61, 676.06433, 1416.7533, 676.10516, 1416.9022, 676.19727);
        ((GeneralPath) shape).curveTo(1417.4985, 676.56573, 1417.7085, 677.31323, 1417.371, 677.8594);
        ((GeneralPath) shape).curveTo(1416.4565, 679.33887, 1415.8182, 679.0631, 1415.8182, 677.18945);
        ((GeneralPath) shape).curveTo(1415.8182, 676.5035, 1416.0916, 676.0814, 1416.4803, 676.06836);
        ((GeneralPath) shape).closePath();
        ((GeneralPath) shape).moveTo(1605.418, 690.59766);
        ((GeneralPath) shape).curveTo(1598.746, 690.5096, 1590.8452, 691.2237, 1585.5449, 692.61523);
        ((GeneralPath) shape).curveTo(1574.6316, 695.4804, 1570.7001, 699.57556, 1576.084, 702.46875);
        ((GeneralPath) shape).curveTo(1578.4723, 703.75214, 1578.4695, 703.76154, 1575.2852, 704.65234);
        ((GeneralPath) shape).curveTo(1573.5251, 705.1447, 1570.9823, 705.2879, 1569.6348, 704.96875);
        ((GeneralPath) shape).curveTo(1567.8832, 704.5539, 1565.3939, 705.6426, 1560.9082, 708.78906);
        ((GeneralPath) shape).curveTo(1553.0988, 714.267, 1552.4357, 715.7494, 1556.9141, 717.709);
        ((GeneralPath) shape).curveTo(1561.0172, 719.50446, 1562.6975, 719.7022, 1563.4551, 718.47656);
        ((GeneralPath) shape).curveTo(1564.0803, 717.465, 1581.446, 715.70386, 1588.0156, 715.9863);
        ((GeneralPath) shape).curveTo(1590.3245, 716.08563, 1592.5817, 716.7655, 1593.0332, 717.4961);
        ((GeneralPath) shape).curveTo(1593.6866, 718.5533, 1594.5183, 718.5554, 1597.1035, 717.5061);
        ((GeneralPath) shape).curveTo(1600.9276, 715.9536, 1604.9856, 714.57227, 1609.418, 713.31665);
        ((GeneralPath) shape).curveTo(1613.3578, 712.20056, 1614.3389, 708.3648, 1611.125, 706.6448);
        ((GeneralPath) shape).curveTo(1609.9398, 706.0105, 1608.5907, 705.59296, 1608.127, 705.71704);
        ((GeneralPath) shape).curveTo(1606.0264, 706.2792, 1589.6836, 704.2058, 1589.6836, 703.3772);
        ((GeneralPath) shape).curveTo(1589.6836, 702.4543, 1594.1975, 702.5182, 1625.9512, 703.88306);
        ((GeneralPath) shape).curveTo(1644.5507, 704.6825, 1652.084, 703.46075, 1652.084, 699.6467);
        ((GeneralPath) shape).curveTo(1652.084, 698.1593, 1651.0652, 697.3985, 1648.3516, 696.8635);
        ((GeneralPath) shape).curveTo(1639.8639, 695.1903, 1630.3962, 693.72845, 1624.8651, 693.2366);
        ((GeneralPath) shape).curveTo(1621.6284, 692.9487, 1617.3129, 692.23553, 1615.2733, 691.65063);
        ((GeneralPath) shape).curveTo(1612.9819, 690.99347, 1609.421, 690.65076, 1605.418, 690.5979);
        ((GeneralPath) shape).closePath();
        ((GeneralPath) shape).moveTo(1402.6777, 692.20703);
        ((GeneralPath) shape).curveTo(1403.6194, 692.1953, 1404.2975, 693.8591, 1403.666, 696.375);
        ((GeneralPath) shape).curveTo(1403.2871, 697.88464, 1402.2654, 699.11914, 1401.3965, 699.11914);
        ((GeneralPath) shape).curveTo(1399.5278, 699.11914, 1399.4335, 698.13464, 1400.9238, 694.21484);
        ((GeneralPath) shape).curveTo(1401.4529, 692.8235, 1402.1128, 692.21405, 1402.6777, 692.20703);
        ((GeneralPath) shape).closePath();
        ((GeneralPath) shape).moveTo(1652.9238, 706.6289);
        ((GeneralPath) shape).curveTo(1651.3373, 706.7047, 1648.1901, 707.6738, 1641.7599, 709.875);
        ((GeneralPath) shape).curveTo(1635.118, 712.1486, 1629.0018, 714.0192, 1628.1681, 714.03125);
        ((GeneralPath) shape).curveTo(1626.1671, 714.06006, 1622.7501, 717.2062, 1622.7501, 719.01953);
        ((GeneralPath) shape).curveTo(1622.7501, 721.0271, 1625.8981, 720.7992, 1629.6837, 718.5176);
        ((GeneralPath) shape).curveTo(1635.1547, 715.22034, 1647.4064, 710.7485, 1649.3126, 711.3535);
        ((GeneralPath) shape).curveTo(1651.7709, 712.1337, 1655.2587, 709.4482, 1654.4669, 707.38477);
        ((GeneralPath) shape).curveTo(1654.2655, 706.8598, 1653.8759, 706.58344, 1652.924, 706.6289);
        ((GeneralPath) shape).closePath();
        ((GeneralPath) shape).moveTo(1802.25, 710.8535);
        ((GeneralPath) shape).curveTo(1800.8752, 710.8535, 1799.5658, 711.45416, 1799.3398, 712.1875);
        ((GeneralPath) shape).curveTo(1797.5391, 718.033, 1797.8035, 719.1684, 1802.6603, 726.4199);
        ((GeneralPath) shape).curveTo(1805.3737, 730.4715, 1808.5586, 734.6257, 1809.7363, 735.65234);
        ((GeneralPath) shape).curveTo(1813.0018, 738.49896, 1817.7401, 738.0848, 1819.2267, 734.82227);
        ((GeneralPath) shape).curveTo(1820.2723, 732.5272, 1820.1052, 731.692, 1818.1075, 729.22266);
        ((GeneralPath) shape).curveTo(1816.816, 727.6263, 1814.4528, 724.3994, 1812.8556, 722.05273);
        ((GeneralPath) shape).curveTo(1806.4954, 712.70734, 1804.7383, 710.8535, 1802.2501, 710.8535);
        ((GeneralPath) shape).closePath();
        ((GeneralPath) shape).moveTo(1889.6113, 711.15234);
        ((GeneralPath) shape).curveTo(1889.9684, 711.07684, 1890.3329, 711.691, 1891.084, 713.0742);
        ((GeneralPath) shape).curveTo(1891.8541, 714.4927, 1893.2662, 719.01245, 1894.2207, 723.11914);
        ((GeneralPath) shape).curveTo(1895.175, 727.2258, 1896.6443, 731.86084, 1897.4863, 733.41797);
        ((GeneralPath) shape).curveTo(1898.5226, 735.3345, 1899.0176, 739.6599, 1899.0176, 746.8047);
        ((GeneralPath) shape).curveTo(1899.0176, 753.5923, 1899.4738, 757.8156, 1900.2969, 758.6387);
        ((GeneralPath) shape).curveTo(1902.418, 760.75995, 1906.1962, 760.0881, 1908.4824, 757.18164);
        ((GeneralPath) shape).curveTo(1910.4689, 754.6564, 1911.1942, 754.46747, 1917.7891, 754.7637);
        ((GeneralPath) shape).curveTo(1923.8112, 755.03406, 1925.1243, 754.77576, 1926.1112, 753.1211);
        ((GeneralPath) shape).curveTo(1928.6439, 748.87494, 1931.2379, 746.05273, 1932.6093, 746.05273);
        ((GeneralPath) shape).curveTo(1934.5509, 746.05273, 1935.7028, 751.8111, 1934.289, 754.4531);
        ((GeneralPath) shape).curveTo(1932.6146, 757.5814, 1932.8286, 758.4119, 1936.3495, 762.4219);
        ((GeneralPath) shape).curveTo(1938.5076, 764.8798, 1941.166, 766.4726, 1944.5175, 767.3164);
        ((GeneralPath) shape).curveTo(1947.25, 768.0045, 1950.8691, 769.6217, 1952.5603, 770.91016);
        ((GeneralPath) shape).curveTo(1964.6075, 780.08777, 1968.5635, 785.5169, 1972.1208, 797.7539);
        ((GeneralPath) shape).curveTo(1974.5863, 806.23486, 1983.0939, 820.35626, 1989.0408, 825.8379);
        ((GeneralPath) shape).curveTo(1991.7147, 828.3026, 1994.4115, 830.3203, 1995.033, 830.3203);
        ((GeneralPath) shape).curveTo(1996.516, 830.3203, 2014.2166, 847.5038, 2014.2166, 848.94336);
        ((GeneralPath) shape).curveTo(2014.2166, 849.5536, 2012.5518, 851.3807, 2010.5173, 853.0039);
        ((GeneralPath) shape).curveTo(2005.2411, 857.2139, 2001.3444, 864.35236, 2001.2654, 869.9531);
        ((GeneralPath) shape).curveTo(2001.1226, 880.02563, 2003.9321, 884.9105, 2011.863, 888.38477);
        ((GeneralPath) shape).curveTo(2023.3193, 893.4031, 2023.5526, 894.272, 2014.9763, 899.94727);
        ((GeneralPath) shape).curveTo(2004.3577, 906.97406, 1991.75, 907.0781, 1972.8533, 900.2969);
        ((GeneralPath) shape).curveTo(1960.0728, 895.7104, 1942.9403, 879.8776, 1942.4158, 872.16797);
        ((GeneralPath) shape).lineTo(1942.2166, 869.2539);
        ((GeneralPath) shape).lineTo(1952.4744, 869.5918);
        ((GeneralPath) shape).curveTo(1961.6646, 869.8947, 1962.7786, 869.72675, 1963.1951, 867.99023);
        ((GeneralPath) shape).curveTo(1963.9514, 864.8375, 1962.9907, 862.3203, 1961.031, 862.3203);
        ((GeneralPath) shape).curveTo(1960.0248, 862.3203, 1957.3843, 861.39276, 1955.1619, 860.25977);
        ((GeneralPath) shape).curveTo(1951.5631, 858.425, 1950.1083, 858.3083, 1941.8689, 859.1914);
        ((GeneralPath) shape).curveTo(1927.0789, 860.7768, 1920.6534, 862.6745, 1916.5232, 866.67773);
        ((GeneralPath) shape).curveTo(1912.7596, 870.3256, 1911.709, 874.7362, 1914.3611, 875.7539);
        ((GeneralPath) shape).curveTo(1915.1736, 876.0657, 1918.6049, 875.1543, 1921.9861, 873.7285);
        ((GeneralPath) shape).curveTo(1925.3674, 872.3027, 1928.9897, 871.3589, 1930.0369, 871.6328);
        ((GeneralPath) shape).curveTo(1932.145, 872.1841, 1935.283, 877.97797, 1935.283, 881.31836);
        ((GeneralPath) shape).curveTo(1935.283, 885.4884, 1948.278, 899.58203, 1957.4763, 905.3887);
        ((GeneralPath) shape).curveTo(1964.0101, 909.51337, 1980.0184, 915.6518, 1984.2908, 915.6699);
        ((GeneralPath) shape).curveTo(1986.3768, 915.6789, 1988.7461, 916.1051, 1989.5544, 916.6172);
        ((GeneralPath) shape).curveTo(1992.0333, 918.1873, 1989.7887, 919.9199, 1985.2771, 919.9199);
        ((GeneralPath) shape).curveTo(1981.4578, 919.9199, 1981.0317, 920.17865, 1981.3083, 922.3203);
        ((GeneralPath) shape).curveTo(1981.7793, 925.9662, 1980.4664, 927.21136, 1975.5251, 927.8086);
        ((GeneralPath) shape).curveTo(1962.2161, 929.4171, 1958.132, 929.3091, 1951.8181, 927.1875);
        ((GeneralPath) shape).curveTo(1942.6569, 924.1091, 1927.9762, 921.2243, 1915.0173, 919.9551);
        ((GeneralPath) shape).curveTo(1908.8573, 919.35187, 1900.4579, 918.1448, 1896.3513, 917.27344);
        ((GeneralPath) shape).curveTo(1892.2446, 916.40216, 1887.4434, 915.6655, 1885.6833, 915.6367);
        ((GeneralPath) shape).curveTo(1882.0695, 915.5775, 1878.8911, 913.5933, 1879.5037, 911.77734);
        ((GeneralPath) shape).curveTo(1880.1978, 909.7193, 1876.968, 907.4491, 1872.279, 906.6992);
        ((GeneralPath) shape).curveTo(1867.1583, 905.88043, 1867.4713, 904.4374, 1872.6931, 904.78906);
        ((GeneralPath) shape).curveTo(1874.6, 904.9175, 1877.0844, 904.3459, 1878.2145, 903.51953);
        ((GeneralPath) shape).curveTo(1881.7637, 900.9243, 1878.5565, 898.58936, 1871.4196, 898.57227);
        ((GeneralPath) shape).curveTo(1861.4358, 898.5481, 1861.0802, 898.2942, 1858.1031, 889.06445);
        ((GeneralPath) shape).curveTo(1856.6405, 884.52985, 1853.9133, 878.2208, 1852.0406, 875.0449);
        ((GeneralPath) shape).lineTo(1848.6344, 869.2715);
        ((GeneralPath) shape).lineTo(1853.7965, 864.7285);
        ((GeneralPath) shape).curveTo(1862.4248, 857.136, 1867.7362, 860.1035, 1859.4176, 867.86914);
        ((GeneralPath) shape).lineTo(1856.3315, 870.75);
        ((GeneralPath) shape).lineTo(1859.5934, 877.1719);
        ((GeneralPath) shape).curveTo(1861.388, 880.7035, 1863.2151, 883.81476, 1863.6539, 884.08594);
        ((GeneralPath) shape).curveTo(1865.3081, 885.10834, 1867.1824, 882.76904, 1867.5074, 879.2754);
        ((GeneralPath) shape).curveTo(1867.9884, 874.10736, 1870.1809, 865.5459, 1872.0172, 861.6719);
        ((GeneralPath) shape).curveTo(1873.8287, 857.8501, 1873.5354, 852.0562, 1871.5504, 852.4531);
        ((GeneralPath) shape).curveTo(1869.8271, 852.79785, 1869.8394, 852.7203, 1872.3278, 847.2363);
        ((GeneralPath) shape).curveTo(1874.6411, 842.1384, 1875.1044, 835.6037, 1873.3806, 832.3828);
        ((GeneralPath) shape).curveTo(1872.5665, 830.8615, 1871.1337, 830.3203, 1867.9313, 830.3203);
        ((GeneralPath) shape).curveTo(1864.1903, 830.3203, 1863.7036, 830.06104, 1864.4177, 828.4531);
        ((GeneralPath) shape).curveTo(1864.8737, 827.42645, 1865.4524, 824.4271, 1865.7029, 821.7871);
        ((GeneralPath) shape).curveTo(1866.0099, 818.55273, 1867.0405, 816.0473, 1868.865, 814.1094);
        ((GeneralPath) shape).curveTo(1870.9711, 811.87225, 1871.4333, 810.53143, 1870.9412, 808.0703);
        ((GeneralPath) shape).curveTo(1870.5076, 805.9025, 1870.8276, 804.47394, 1871.9587, 803.53516);
        ((GeneralPath) shape).curveTo(1873.439, 802.30676, 1873.4142, 802.02094, 1871.7107, 800.7754);
        ((GeneralPath) shape).curveTo(1870.6656, 800.0111, 1868.7019, 799.3867, 1867.3475, 799.3867);
        ((GeneralPath) shape).curveTo(1862.9635, 799.3867, 1864.7311, 797.8316, 1871.3163, 795.8965);
        ((GeneralPath) shape).lineTo(1877.744, 794.0078);
        ((GeneralPath) shape).lineTo(1881.5604, 785.9668);
        ((GeneralPath) shape).curveTo(1883.6598, 781.5439, 1885.0914, 777.6384, 1884.7421, 777.28906);
        ((GeneralPath) shape).curveTo(1884.3928, 776.9398, 1881.6477, 777.4487, 1878.6405, 778.4199);
        ((GeneralPath) shape).curveTo(1875.6333, 779.39124, 1872.2603, 780.18555, 1871.1464, 780.18555);
        ((GeneralPath) shape).curveTo(1870.0325, 780.18555, 1868.2882, 780.6195, 1867.2694, 781.14844);
        ((GeneralPath) shape).curveTo(1866.2509, 781.6775, 1863.5345, 782.518, 1861.2323, 783.0156);
        ((GeneralPath) shape).curveTo(1856.3169, 784.0781, 1854.747, 786.58594, 1858.9979, 786.58594);
        ((GeneralPath) shape).curveTo(1860.5521, 786.58594, 1862.7933, 786.0678, 1863.9784, 785.4336);
        ((GeneralPath) shape).curveTo(1867.1637, 783.7289, 1867.8438, 785.27905, 1864.8202, 787.3535);
        ((GeneralPath) shape).curveTo(1859.3065, 791.13654, 1855.389, 795.8215, 1855.9491, 797.9629);
        ((GeneralPath) shape).curveTo(1856.579, 800.37164, 1855.3558, 801.5829, 1848.7343, 805.1035);
        ((GeneralPath) shape).curveTo(1845.5398, 806.80194, 1842.8948, 807.4533, 1840.578, 807.1133);
        ((GeneralPath) shape).curveTo(1837.2883, 806.6305, 1837.1503, 806.4127, 1837.1503, 801.7051);
        ((GeneralPath) shape).curveTo(1837.1503, 797.6466, 1837.6519, 796.40137, 1840.0487, 794.49023);
        ((GeneralPath) shape).curveTo(1842.7924, 792.3025, 1842.8644, 792.0182, 1841.4159, 789.1172);
        ((GeneralPath) shape).curveTo(1840.5747, 787.4324, 1839.7092, 785.6903, 1839.494, 785.24805);
        ((GeneralPath) shape).curveTo(1839.2789, 784.8058, 1842.1821, 783.0634, 1845.9452, 781.375);
        ((GeneralPath) shape).curveTo(1853.2872, 778.08093, 1856.2133, 774.1277, 1854.7421, 769.4922);
        ((GeneralPath) shape).curveTo(1854.1637, 767.67, 1854.9325, 766.2859, 1858.3378, 763.0137);
        ((GeneralPath) shape).curveTo(1863.5039, 758.04974, 1867.2043, 757.58685, 1869.8182, 761.5762);
        ((GeneralPath) shape).curveTo(1870.7996, 763.07385, 1873.3309, 765.1874, 1875.4432, 766.27344);
        ((GeneralPath) shape).lineTo(1879.2831, 768.24805);
        ((GeneralPath) shape).lineTo(1875.0175, 768.9453);
        ((GeneralPath) shape).curveTo(1866.9927, 770.25604, 1865.7998, 770.6663, 1866.246, 771.959);
        ((GeneralPath) shape).curveTo(1866.4934, 772.6759, 1868.0739, 773.119, 1869.789, 772.9531);
        ((GeneralPath) shape).curveTo(1871.4917, 772.78845, 1878.1555, 772.5486, 1884.5975, 772.4199);
        ((GeneralPath) shape).curveTo(1894.4521, 772.22314, 1896.3636, 771.9111, 1896.6503, 770.4492);
        ((GeneralPath) shape).curveTo(1896.9098, 769.1257, 1895.8335, 768.53674, 1892.1366, 767.9824);
        ((GeneralPath) shape).curveTo(1887.5508, 767.29474, 1885.7314, 765.2711, 1888.2811, 763.6953);
        ((GeneralPath) shape).curveTo(1890.2037, 762.50714, 1892.6172, 751.5161, 1892.6172, 743.9512);
        ((GeneralPath) shape).curveTo(1892.6172, 734.51874, 1891.3735, 731.73114, 1887.5859, 732.68164);
        ((GeneralPath) shape).curveTo(1884.98, 733.3358, 1884.8939, 733.2149, 1885.6172, 729.84375);
        ((GeneralPath) shape).curveTo(1886.033, 727.90594, 1886.6365, 723.6798, 1886.959, 720.4531);
        ((GeneralPath) shape).curveTo(1887.2814, 717.22644, 1888.0272, 713.66614, 1888.6152, 712.541);
        ((GeneralPath) shape).curveTo(1889.0613, 711.6876, 1889.3337, 711.21106, 1889.6113, 711.15234);
        ((GeneralPath) shape).closePath();
        ((GeneralPath) shape).moveTo(1646.9023, 717.4492);
        ((GeneralPath) shape).curveTo(1645.4435, 717.41895, 1643.1537, 717.9589, 1641.4453, 718.76953);
        ((GeneralPath) shape).curveTo(1639.493, 719.696, 1637.4633, 720.4531, 1636.9355, 720.4531);
        ((GeneralPath) shape).curveTo(1635.4594, 720.4531, 1630.8025, 722.56665, 1617.4277, 729.3047);
        ((GeneralPath) shape).curveTo(1606.4037, 734.8586, 1598.2168, 740.7208, 1598.2168, 743.0625);
        ((GeneralPath) shape).curveTo(1598.2168, 745.05396, 1603.3523, 743.6839, 1606.9258, 740.7383);
        ((GeneralPath) shape).curveTo(1609.0493, 738.98785, 1611.9193, 737.05255, 1613.3027, 736.4375);
        ((GeneralPath) shape).curveTo(1614.6863, 735.8223, 1619.1786, 733.4453, 1623.2853, 731.15625);
        ((GeneralPath) shape).curveTo(1631.2251, 726.7305, 1641.4767, 721.54297, 1646.7501, 719.2832);
        ((GeneralPath) shape).curveTo(1649.8088, 717.9725, 1649.8416, 717.89343, 1647.4728, 717.49805);
        ((GeneralPath) shape).curveTo(1647.3024, 717.46967, 1647.1108, 717.45355, 1646.9023, 717.4492);
        ((GeneralPath) shape).closePath();
        ((GeneralPath) shape).moveTo(1587.2461, 721.5664);
        ((GeneralPath) shape).curveTo(1586.0338, 721.6522, 1584.3516, 722.68835, 1584.3516, 723.6582);
        ((GeneralPath) shape).curveTo(1584.3516, 724.44714, 1585.0337, 724.4291, 1586.5762, 723.6035);
        ((GeneralPath) shape).curveTo(1587.7999, 722.94867, 1588.539, 722.15424, 1588.2207, 721.83594);
        ((GeneralPath) shape).curveTo(1588.0009, 721.61615, 1587.6501, 721.5378, 1587.2461, 721.5664);
        ((GeneralPath) shape).closePath();
        ((GeneralPath) shape).moveTo(1575.3145, 728.2656);
        ((GeneralPath) shape).curveTo(1573.8096, 728.1214, 1566.2168, 731.44305, 1566.2168, 732.34766);
        ((GeneralPath) shape).curveTo(1566.2168, 732.84534, 1566.7617, 733.2539, 1567.4258, 733.2539);
        ((GeneralPath) shape).curveTo(1568.904, 733.2539, 1576.087, 728.9015, 1575.5293, 728.34375);
        ((GeneralPath) shape).curveTo(1575.4873, 728.3016, 1575.4148, 728.27527, 1575.3145, 728.2656);
        ((GeneralPath) shape).closePath();
        ((GeneralPath) shape).moveTo(1422.5723, 732.2207);
        ((GeneralPath) shape).curveTo(1423.2576, 732.2394, 1422.8849, 732.959, 1421.7461, 733.8203);
        ((GeneralPath) shape).curveTo(1419.3956, 735.5982, 1417.9512, 735.83154, 1417.9512, 734.4336);
        ((GeneralPath) shape).curveTo(1417.9512, 733.40765, 1420.5458, 732.1652, 1422.5723, 732.2207);
        ((GeneralPath) shape).closePath();
        ((GeneralPath) shape).moveTo(1646.4629, 733.9297);
        ((GeneralPath) shape).curveTo(1645.9446, 733.9176, 1645.2115, 734.043, 1644.3516, 734.3086);
        ((GeneralPath) shape).curveTo(1642.7382, 734.80676, 1638.7773, 736.0153, 1635.5508, 736.9961);
        ((GeneralPath) shape).curveTo(1632.3241, 737.977, 1629.2273, 739.2167, 1628.6699, 739.75);
        ((GeneralPath) shape).curveTo(1628.1127, 740.28345, 1626.9711, 740.7207, 1626.131, 740.7207);
        ((GeneralPath) shape).curveTo(1625.291, 740.7207, 1622.944, 741.7448, 1620.9161, 742.99805);
        ((GeneralPath) shape).curveTo(1618.1656, 744.698, 1617.5912, 745.50653, 1618.6564, 746.18164);
        ((GeneralPath) shape).curveTo(1620.4281, 747.3044, 1620.271, 747.30493, 1622.4982, 746.21094);
        ((GeneralPath) shape).curveTo(1627.2148, 743.89435, 1632.0483, 741.8678, 1634.4846, 741.1875);
        ((GeneralPath) shape).curveTo(1638.7158, 740.00586, 1647.2854, 735.447, 1647.2854, 734.37695);
        ((GeneralPath) shape).curveTo(1647.2854, 734.09143, 1646.9814, 733.9418, 1646.4631, 733.9297);
        ((GeneralPath) shape).closePath();
        ((GeneralPath) shape).moveTo(1658.4883, 735.72656);
        ((GeneralPath) shape).curveTo(1657.6459, 735.77844, 1656.7512, 736.0893, 1656.0449, 736.6953);
        ((GeneralPath) shape).curveTo(1655.04, 737.5573, 1653.3782, 738.5597, 1652.3516, 738.9238);
        ((GeneralPath) shape).curveTo(1651.3248, 739.2879, 1650.4844, 740.0824, 1650.4844, 740.6875);
        ((GeneralPath) shape).curveTo(1650.4844, 741.2925, 1651.4674, 741.7871, 1652.6699, 741.7871);
        ((GeneralPath) shape).curveTo(1655.4437, 741.7871, 1661.1504, 738.87445, 1661.1504, 737.459);
        ((GeneralPath) shape).curveTo(1661.1504, 736.27277, 1659.8923, 735.6401, 1658.4883, 735.72656);
        ((GeneralPath) shape).closePath();
        ((GeneralPath) shape).moveTo(1940.9258, 736.8711);
        ((GeneralPath) shape).curveTo(1942.1357, 736.8621, 1944.0527, 741.60974, 1943.2285, 742.94336);
        ((GeneralPath) shape).curveTo(1942.6895, 743.8157, 1940.7323, 744.3326, 1940.5449, 743.65234);
        ((GeneralPath) shape).curveTo(1939.8458, 741.1159, 1939.927, 737.413, 1940.6935, 736.93945);
        ((GeneralPath) shape).curveTo(1940.7665, 736.89417, 1940.8452, 736.87177, 1940.9259, 736.87103);
        ((GeneralPath) shape).closePath();
        ((GeneralPath) shape).moveTo(1424.0215, 738.58594);
        ((GeneralPath) shape).curveTo(1425.0105, 738.58594, 1425.443, 739.44385, 1425.2246, 740.9746);
        ((GeneralPath) shape).curveTo(1424.8583, 743.54175, 1421.8162, 744.7925, 1420.625, 742.86523);
        ((GeneralPath) shape).curveTo(1419.7198, 741.4006, 1421.9534, 738.58594, 1424.0215, 738.58594);
        ((GeneralPath) shape).closePath();
        ((GeneralPath) shape).moveTo(1646.8867, 742.8535);
        ((GeneralPath) shape).curveTo(1644.8864, 742.8535, 1635.6536, 746.96344, 1632.1855, 749.39844);
        ((GeneralPath) shape).curveTo(1630.6283, 750.49164, 1628.6963, 751.3867, 1627.8906, 751.3867);
        ((GeneralPath) shape).curveTo(1625.7042, 751.3867, 1621.556, 754.58466, 1622.2617, 755.72656);
        ((GeneralPath) shape).curveTo(1623.2076, 757.257, 1623.5618, 757.13214, 1636.3516, 750.7324);
        ((GeneralPath) shape).curveTo(1647.4456, 745.18115, 1650.5577, 742.8535, 1646.8867, 742.8535);
        ((GeneralPath) shape).closePath();
        ((GeneralPath) shape).moveTo(1885.1875, 744.9863);
        ((GeneralPath) shape).curveTo(1887.0004, 744.9863, 1886.291, 750.4834, 1883.998, 754.19336);
        ((GeneralPath) shape).curveTo(1881.0039, 759.0389, 1879.834, 758.7184, 1881.0332, 753.38086);
        ((GeneralPath) shape).curveTo(1882.2107, 748.1403, 1883.7716, 744.9863, 1885.1875, 744.9863);
        ((GeneralPath) shape).closePath();
        ((GeneralPath) shape).moveTo(1616.8848, 745.78906);
        ((GeneralPath) shape).lineTo(1614.2168, 746.5703);
        ((GeneralPath) shape).curveTo(1606.7306, 748.7636, 1603.7858, 751.7075, 1607.8027, 752.9824);
        ((GeneralPath) shape).curveTo(1609.4142, 753.4939, 1609.8589, 754.26324, 1609.3906, 755.7383);
        ((GeneralPath) shape).curveTo(1609.0328, 756.86426, 1609.0743, 757.7871, 1609.4827, 757.7871);
        ((GeneralPath) shape).curveTo(1611.015, 757.7871, 1621.6838, 751.1896, 1621.6838, 750.2422);
        ((GeneralPath) shape).curveTo(1621.6838, 748.6565, 1619.2825, 749.0999, 1615.551, 751.375);
        ((GeneralPath) shape).curveTo(1611.4756, 753.8598, 1610.9069, 752.2664, 1614.4846, 748.3887);
        ((GeneralPath) shape).closePath();
        ((GeneralPath) shape).moveTo(1651.0762, 751.0801);
        ((GeneralPath) shape).curveTo(1648.9188, 751.1865, 1644.0209, 753.1931, 1642.7383, 754.7637);
        ((GeneralPath) shape).curveTo(1642.0118, 755.6532, 1637.457, 758.6625, 1632.6172, 761.4512);
        ((GeneralPath) shape).curveTo(1627.7775, 764.23987, 1623.5509, 766.9573, 1623.2227, 767.4883);
        ((GeneralPath) shape).curveTo(1622.8944, 768.01935, 1621.0017, 768.4531, 1619.0176, 768.4531);
        ((GeneralPath) shape).curveTo(1617.0334, 768.4531, 1615.1125, 768.93286, 1614.75, 769.51953);
        ((GeneralPath) shape).curveTo(1613.752, 771.1343, 1611.0176, 770.79663, 1611.0176, 769.0586);
        ((GeneralPath) shape).curveTo(1611.0176, 768.2182, 1611.8928, 767.2518, 1612.9629, 766.9121);
        ((GeneralPath) shape).curveTo(1615.3323, 766.1601, 1621.227, 760.1743, 1620.4062, 759.3535);
        ((GeneralPath) shape).curveTo(1619.7605, 758.70764, 1608.166, 765.21375, 1602.916, 769.16797);
        ((GeneralPath) shape).curveTo(1601.1007, 770.5352, 1599.2952, 771.6543, 1598.9023, 771.6543);
        ((GeneralPath) shape).curveTo(1598.5095, 771.6543, 1596.5203, 772.7327, 1594.4824, 774.05273);
        ((GeneralPath) shape).curveTo(1589.3296, 777.39056, 1589.549, 779.73755, 1594.75, 776.91406);
        ((GeneralPath) shape).curveTo(1605.1615, 771.2619, 1606.6123, 770.58594, 1608.3359, 770.58594);
        ((GeneralPath) shape).curveTo(1611.542, 770.58594, 1609.7838, 773.3621, 1602.9316, 779.11914);
        ((GeneralPath) shape).curveTo(1594.7512, 785.9922, 1588.2054, 793.58936, 1589.1484, 795.11523);
        ((GeneralPath) shape).curveTo(1589.5137, 795.70605, 1592.5427, 793.41724, 1595.881, 790.0293);
        ((GeneralPath) shape).curveTo(1599.2192, 786.6415, 1604.228, 782.46674, 1607.0118, 780.75195);
        ((GeneralPath) shape).curveTo(1609.7955, 779.0372, 1612.3479, 776.76917, 1612.6837, 775.71094);
        ((GeneralPath) shape).curveTo(1613.3689, 773.5519, 1617.419, 773.04565, 1617.4181, 775.11914);
        ((GeneralPath) shape).curveTo(1617.4174, 776.59467, 1608.0743, 786.58594, 1606.6954, 786.58594);
        ((GeneralPath) shape).curveTo(1606.218, 786.58594, 1605.5403, 787.49066, 1605.1896, 788.5957);
        ((GeneralPath) shape).curveTo(1604.8387, 789.7007, 1603.1091, 792.11584, 1601.3439, 793.9629);
        ((GeneralPath) shape).curveTo(1599.5786, 795.81006, 1598.4365, 797.81134, 1598.8066, 798.41016);
        ((GeneralPath) shape).curveTo(1599.9116, 800.1981, 1601.8484, 798.9581, 1603.5508, 795.37305);
        ((GeneralPath) shape).curveTo(1605.0646, 792.185, 1610.362, 788.7762, 1611.709, 790.12305);
        ((GeneralPath) shape).curveTo(1612.0519, 790.466, 1610.7446, 792.197, 1608.8027, 793.9707);
        ((GeneralPath) shape).curveTo(1606.8608, 795.7444, 1605.567, 797.4907, 1605.9277, 797.85156);
        ((GeneralPath) shape).curveTo(1606.7101, 798.634, 1615.5933, 793.5833, 1617.5215, 791.25977);
        ((GeneralPath) shape).curveTo(1618.2654, 790.36346, 1620.587, 788.74567, 1622.6797, 787.66406);
        ((GeneralPath) shape).curveTo(1624.7723, 786.58246, 1628.4888, 783.7533, 1630.9395, 781.37695);
        ((GeneralPath) shape).curveTo(1633.8007, 778.60254, 1637.0867, 776.6312, 1640.1211, 775.8672);
        ((GeneralPath) shape).curveTo(1644.6525, 774.7262, 1646.1841, 773.3656, 1653.5156, 763.9668);
        ((GeneralPath) shape).curveTo(1654.2964, 762.9658, 1654.6252, 761.64734, 1654.248, 761.0371);
        ((GeneralPath) shape).curveTo(1653.2389, 759.40405, 1647.8213, 762.514, 1642.5527, 767.75);
        ((GeneralPath) shape).curveTo(1634.0713, 776.179, 1627.5396, 781.2033, 1624.2129, 781.85547);
        ((GeneralPath) shape).curveTo(1622.1104, 782.26764, 1620.4392, 783.4623, 1619.7012, 785.08203);
        ((GeneralPath) shape).curveTo(1618.9095, 786.81934, 1617.6497, 787.6543, 1615.8164, 787.6543);
        ((GeneralPath) shape).curveTo(1613.2365, 787.6543, 1613.1805, 787.5326, 1614.6953, 785.2207);
        ((GeneralPath) shape).curveTo(1615.5718, 783.8831, 1618.5325, 780.8837, 1621.2754, 778.5547);
        ((GeneralPath) shape).curveTo(1624.0183, 776.22565, 1626.9097, 772.7852, 1627.6992, 770.9082);
        ((GeneralPath) shape).curveTo(1628.5326, 768.927, 1630.592, 766.79126, 1632.6094, 765.8164);
        ((GeneralPath) shape).curveTo(1634.5205, 764.8929, 1637.9364, 762.4673, 1640.2012, 760.42773);
        ((GeneralPath) shape).curveTo(1642.4658, 758.38824, 1644.7668, 756.7207, 1645.3125, 756.7207);
        ((GeneralPath) shape).curveTo(1646.905, 756.7207, 1652.5808, 752.1891, 1652.0547, 751.3379);
        ((GeneralPath) shape).curveTo(1651.927, 751.1312, 1651.574, 751.0555, 1651.0762, 751.0801);
        ((GeneralPath) shape).closePath();
        ((GeneralPath) shape).moveTo(1859.7656, 751.3867);
        ((GeneralPath) shape).curveTo(1861.4281, 751.3867, 1861.5696, 751.74, 1860.6172, 753.51953);
        ((GeneralPath) shape).curveTo(1859.2819, 756.0145, 1857.8817, 756.2655, 1857.0723, 754.15625);
        ((GeneralPath) shape).curveTo(1856.3499, 752.274, 1857.213, 751.3867, 1859.7656, 751.3867);
        ((GeneralPath) shape).closePath();
        ((GeneralPath) shape).moveTo(1577.4551, 751.8867);
        ((GeneralPath) shape).curveTo(1576.9338, 751.9155, 1576.0549, 752.3215, 1575.207, 752.9629);
        ((GeneralPath) shape).curveTo(1574.0765, 753.8181, 1573.6301, 754.5264, 1574.2168, 754.5371);
        ((GeneralPath) shape).curveTo(1575.8018, 754.56323, 1578.5114, 752.65784, 1577.8418, 751.9883);
        ((GeneralPath) shape).curveTo(1577.7618, 751.9085, 1577.6288, 751.87714, 1577.4551, 751.8867);
        ((GeneralPath) shape).closePath();
        ((GeneralPath) shape).moveTo(1677.543, 752.4531);
        ((GeneralPath) shape).curveTo(1675.5259, 752.4531, 1663.1321, 764.14355, 1663.875, 765.3457);
        ((GeneralPath) shape).curveTo(1664.7784, 766.80725, 1667.7662, 765.1394, 1674.1934, 759.58594);
        ((GeneralPath) shape).curveTo(1680.0504, 754.5251, 1681.0249, 752.4531, 1677.543, 752.4531);
        ((GeneralPath) shape).closePath();
        ((GeneralPath) shape).moveTo(1540.1055, 758.23047);
        ((GeneralPath) shape).curveTo(1540.2556, 758.2204, 1540.3622, 758.2411, 1540.418, 758.2969);
        ((GeneralPath) shape).curveTo(1541.3132, 759.19226, 1536.5547, 762.9268, 1533.4551, 763.7617);
        ((GeneralPath) shape).curveTo(1532.1561, 764.1117, 1530.805, 765.31067, 1530.4512, 766.4258);
        ((GeneralPath) shape).curveTo(1530.0974, 767.5408, 1529.1041, 768.4531, 1528.244, 768.4531);
        ((GeneralPath) shape).curveTo(1527.384, 768.4531, 1525.0867, 770.0461, 1523.1387, 771.99414);
        ((GeneralPath) shape).curveTo(1519.3784, 775.75433, 1505.8961, 785.51953, 1504.4647, 785.51953);
        ((GeneralPath) shape).curveTo(1503.9971, 785.51953, 1502.7454, 786.479, 1501.6835, 787.65234);
        ((GeneralPath) shape).curveTo(1499.4773, 790.0902, 1497.951, 790.40857, 1497.951, 788.4297);
        ((GeneralPath) shape).curveTo(1497.951, 784.97687, 1514.9865, 770.58594, 1519.0741, 770.58594);
        ((GeneralPath) shape).curveTo(1520.1812, 770.58594, 1521.999, 769.5787, 1523.1132, 768.34766);
        ((GeneralPath) shape).curveTo(1525.6355, 765.56036, 1537.8528, 758.38184, 1540.1053, 758.23047);
        ((GeneralPath) shape).closePath();
        ((GeneralPath) shape).moveTo(1565.7772, 758.96875);
        ((GeneralPath) shape).curveTo(1564.2765, 759.1289, 1561.9512, 760.2287, 1561.9512, 761.0586);
        ((GeneralPath) shape).curveTo(1561.9512, 761.6058, 1561.0488, 762.05273, 1559.9473, 762.05273);
        ((GeneralPath) shape).curveTo(1558.8458, 762.05273, 1557.3474, 762.77234, 1556.6172, 763.65234);
        ((GeneralPath) shape).curveTo(1555.8821, 764.538, 1555.7651, 765.2539, 1556.3535, 765.2539);
        ((GeneralPath) shape).curveTo(1557.9528, 765.2539, 1567.4724, 759.7517, 1566.8867, 759.166);
        ((GeneralPath) shape).curveTo(1566.6868, 758.96606, 1566.2776, 758.91534, 1565.7773, 758.96875);
        ((GeneralPath) shape).closePath();
        ((GeneralPath) shape).moveTo(1604.4452, 759.02344);
        ((GeneralPath) shape).curveTo(1602.8599, 758.99536, 1599.285, 761.85156, 1599.285, 763.28516);
        ((GeneralPath) shape).curveTo(1599.285, 764.83276, 1600.9149, 764.2793, 1603.5271, 761.8457);
        ((GeneralPath) shape).curveTo(1605.1635, 760.3212, 1605.5848, 759.35394, 1604.7343, 759.0703);
        ((GeneralPath) shape).curveTo(1604.6482, 759.0415, 1604.5509, 759.0253, 1604.4452, 759.02344);
        ((GeneralPath) shape).closePath();
        ((GeneralPath) shape).moveTo(1596.0077, 765.30273);
        ((GeneralPath) shape).curveTo(1594.7253, 765.3378, 1592.5334, 766.8387, 1592.0585, 768.2637);
        ((GeneralPath) shape).curveTo(1591.828, 768.9551, 1592.3401, 769.51953, 1593.1971, 769.51953);
        ((GeneralPath) shape).curveTo(1595.1078, 769.51953, 1597.7334, 766.5461, 1596.7186, 765.53125);
        ((GeneralPath) shape).curveTo(1596.5518, 765.36444, 1596.3036, 765.2946, 1596.0076, 765.30273);
        ((GeneralPath) shape).closePath();
        ((GeneralPath) shape).moveTo(1679.3417, 766.44336);
        ((GeneralPath) shape).curveTo(1677.414, 766.5486, 1673.951, 769.8612, 1673.951, 771.7715);
        ((GeneralPath) shape).curveTo(1673.951, 773.7609, 1677.093, 772.59735, 1679.3085, 769.7871);
        ((GeneralPath) shape).curveTo(1681.4531, 767.0668, 1681.4813, 766.82477, 1679.705, 766.4668);
        ((GeneralPath) shape).curveTo(1679.5916, 766.4439, 1679.4702, 766.4363, 1679.3417, 766.4434);
        ((GeneralPath) shape).closePath();
        ((GeneralPath) shape).moveTo(1548.6171, 767.3867);
        ((GeneralPath) shape).curveTo(1547.737, 767.3867, 1547.0175, 767.86646, 1547.0175, 768.4531);
        ((GeneralPath) shape).curveTo(1547.0175, 769.0398, 1547.737, 769.51953, 1548.6171, 769.51953);
        ((GeneralPath) shape).curveTo(1549.4971, 769.51953, 1550.2167, 769.0398, 1550.2167, 768.4531);
        ((GeneralPath) shape).curveTo(1550.2167, 767.86646, 1549.4971, 767.3867, 1548.6171, 767.3867);
        ((GeneralPath) shape).closePath();
        ((GeneralPath) shape).moveTo(1690.4882, 770.0488);
        ((GeneralPath) shape).curveTo(1687.6304, 770.3315, 1680.4476, 775.86743, 1680.3749, 778.3203);
        ((GeneralPath) shape).curveTo(1680.3248, 779.99, 1684.2758, 779.0149, 1688.1034, 776.41406);
        ((GeneralPath) shape).curveTo(1691.8455, 773.8712, 1692.9559, 771.81335, 1691.4159, 770.27344);
        ((GeneralPath) shape).curveTo(1691.2177, 770.07513, 1690.8964, 770.0084, 1690.4882, 770.0488);
        ((GeneralPath) shape).closePath();
        ((GeneralPath) shape).moveTo(1559.6307, 772.34375);
        ((GeneralPath) shape).curveTo(1557.5317, 772.473, 1551.0027, 776.1641, 1550.4745, 777.7871);
        ((GeneralPath) shape).curveTo(1550.2358, 778.52045, 1550.5165, 779.11914, 1551.0995, 779.11914);
        ((GeneralPath) shape).curveTo(1553.0159, 779.11914, 1560.8201, 773.4788, 1560.2284, 772.5215);
        ((GeneralPath) shape).curveTo(1560.1394, 772.3782, 1559.9305, 772.32526, 1559.6307, 772.34375);
        ((GeneralPath) shape).closePath();
        ((GeneralPath) shape).moveTo(1653.031, 774.13477);
        ((GeneralPath) shape).curveTo(1651.8138, 774.02277, 1649.1647, 775.10156, 1647.4451, 776.6289);
        ((GeneralPath) shape).curveTo(1644.9219, 778.87, 1638.6677, 783.1124, 1635.5505, 784.69727);
        ((GeneralPath) shape).curveTo(1632.4031, 786.2976, 1629.1381, 789.9706, 1629.8455, 791.11523);
        ((GeneralPath) shape).curveTo(1630.7091, 792.51245, 1632.1521, 792.00336, 1635.1189, 789.2539);
        ((GeneralPath) shape).curveTo(1636.7015, 787.78723, 1638.5417, 786.58594, 1639.2087, 786.58594);
        ((GeneralPath) shape).curveTo(1641.258, 786.58594, 1653.6833, 776.35675, 1653.6833, 774.6699);
        ((GeneralPath) shape).curveTo(1653.6833, 774.34064, 1653.4368, 774.1721, 1653.031, 774.13477);
        ((GeneralPath) shape).closePath();
        ((GeneralPath) shape).moveTo(1708.9333, 775.05273);
        ((GeneralPath) shape).curveTo(1705.6582, 775.1876, 1700.0411, 777.0558, 1693.1677, 780.39844);
        ((GeneralPath) shape).curveTo(1678.7222, 787.4235, 1672.8845, 791.52655, 1672.8845, 794.65625);
        ((GeneralPath) shape).curveTo(1672.8845, 796.9868, 1673.1521, 797.18384, 1674.992, 796.1992);
        ((GeneralPath) shape).curveTo(1676.1519, 795.57855, 1677.5975, 794.14246, 1678.2048, 793.0078);
        ((GeneralPath) shape).curveTo(1678.8157, 791.8667, 1680.9784, 790.6315, 1683.0427, 790.24414);
        ((GeneralPath) shape).curveTo(1685.0955, 789.8591, 1687.0298, 789.1331, 1687.3416, 788.6289);
        ((GeneralPath) shape).curveTo(1687.6532, 788.1247, 1689.9144, 787.17017, 1692.367, 786.50977);
        ((GeneralPath) shape).curveTo(1694.8196, 785.84937, 1698.1964, 784.1569, 1699.8708, 782.74805);
        ((GeneralPath) shape).curveTo(1701.5452, 781.3392, 1704.225, 780.1875, 1705.8279, 780.1875);
        ((GeneralPath) shape).curveTo(1709.5209, 780.1875, 1712.962, 777.7735, 1711.8455, 775.9668);
        ((GeneralPath) shape).curveTo(1711.4259, 775.2881, 1710.4221, 774.9914, 1708.9333, 775.05273);
        ((GeneralPath) shape).closePath();
        ((GeneralPath) shape).moveTo(1547.5076, 779.43164);
        ((GeneralPath) shape).curveTo(1546.473, 779.47626, 1544.1384, 780.18634, 1541.4197, 781.52344);
        ((GeneralPath) shape).curveTo(1538.3384, 783.03876, 1534.7623, 784.5819, 1533.4725, 784.9531);
        ((GeneralPath) shape).curveTo(1532.1825, 785.32434, 1530.8297, 786.565, 1530.4667, 787.709);
        ((GeneralPath) shape).curveTo(1530.1035, 788.8529, 1528.8795, 790.2859, 1527.746, 790.8926);
        ((GeneralPath) shape).curveTo(1526.6123, 791.49927, 1525.6835, 792.45746, 1525.6835, 793.02344);
        ((GeneralPath) shape).curveTo(1525.6835, 794.6528, 1527.82, 794.21985, 1528.4979, 792.4531);
        ((GeneralPath) shape).curveTo(1528.8357, 791.5731, 1529.9772, 790.8535, 1531.0352, 790.8535);
        ((GeneralPath) shape).curveTo(1532.093, 790.8535, 1535.2927, 789.008, 1538.1444, 786.7539);
        ((GeneralPath) shape).curveTo(1540.9962, 784.4997, 1544.4409, 782.06067, 1545.7987, 781.334);
        ((GeneralPath) shape).curveTo(1548.2777, 780.0073, 1548.5424, 779.387, 1547.5077, 779.43164);
        ((GeneralPath) shape).closePath();
        ((GeneralPath) shape).moveTo(1527.7107, 782.7422);
        ((GeneralPath) shape).curveTo(1527.2286, 782.7189, 1526.4542, 783.23627, 1525.7361, 784.12305);
        ((GeneralPath) shape).curveTo(1524.7786, 785.3054, 1522.936, 786.8398, 1521.6404, 787.5332);
        ((GeneralPath) shape).curveTo(1520.3447, 788.2266, 1519.285, 789.25824, 1519.285, 789.8242);
        ((GeneralPath) shape).curveTo(1519.285, 791.1612, 1519.9895, 791.1228, 1522.7771, 789.63086);
        ((GeneralPath) shape).curveTo(1525.7979, 788.0142, 1528.8416, 784.1804, 1528.0818, 782.9512);
        ((GeneralPath) shape).curveTo(1527.9988, 782.81665, 1527.8713, 782.75, 1527.7107, 782.7422);
        ((GeneralPath) shape).closePath();
        ((GeneralPath) shape).moveTo(1717.2751, 786.05273);
        ((GeneralPath) shape).curveTo(1715.0104, 785.8636, 1701.3699, 788.7189, 1700.1697, 789.71484);
        ((GeneralPath) shape).curveTo(1699.5211, 790.2532, 1696.118, 791.7629, 1692.6052, 793.0703);
        ((GeneralPath) shape).curveTo(1689.0923, 794.37775, 1684.1088, 797.2941, 1681.533, 799.5508);
        ((GeneralPath) shape).curveTo(1678.957, 801.8073, 1676.2722, 803.65234, 1675.5662, 803.65234);
        ((GeneralPath) shape).curveTo(1674.2444, 803.65234, 1661.963, 813.90546, 1661.3279, 815.53906);
        ((GeneralPath) shape).curveTo(1660.4762, 817.7298, 1665.5352, 816.1983, 1667.115, 813.7871);
        ((GeneralPath) shape).curveTo(1668.076, 812.32043, 1669.2872, 811.11914, 1669.8064, 811.11914);
        ((GeneralPath) shape).curveTo(1671.1132, 811.11914, 1670.9965, 815.1073, 1669.6658, 815.9297);
        ((GeneralPath) shape).curveTo(1669.0695, 816.2982, 1668.8596, 817.0476, 1669.197, 817.59375);
        ((GeneralPath) shape).curveTo(1670.2128, 819.2375, 1672.4324, 818.7209, 1674.5856, 816.33984);
        ((GeneralPath) shape).curveTo(1675.7032, 815.1041, 1678.5377, 813.0893, 1680.8845, 811.8633);
        ((GeneralPath) shape).curveTo(1683.8741, 810.30115, 1684.6083, 809.5164, 1683.3395, 809.2422);
        ((GeneralPath) shape).curveTo(1682.3436, 809.02704, 1680.5753, 809.36255, 1679.4099, 809.9863);
        ((GeneralPath) shape).curveTo(1673.6913, 813.0468, 1671.8112, 809.382, 1677.4177, 806.1035);
        ((GeneralPath) shape).curveTo(1681.8722, 803.49884, 1695.502, 797.3601, 1706.7966, 792.87305);
        ((GeneralPath) shape).curveTo(1714.7773, 789.7026, 1718.7198, 787.23694, 1717.5701, 786.1328);
        ((GeneralPath) shape).curveTo(1717.5271, 786.09174, 1717.4261, 786.0653, 1717.2751, 786.05273);
        ((GeneralPath) shape).closePath();
        ((GeneralPath) shape).moveTo(1658.6013, 788.11523);
        ((GeneralPath) shape).curveTo(1658.7738, 788.12976, 1658.9344, 788.15894, 1659.0798, 788.205);
        ((GeneralPath) shape).curveTo(1662.688, 789.35016, 1661.3654, 791.33813, 1653.5505, 796.5136);
        ((GeneralPath) shape).curveTo(1645.0624, 802.1348, 1641.5347, 803.43384, 1640.279, 801.4023);
        ((GeneralPath) shape).curveTo(1639.7805, 800.5956, 1640.0131, 799.85425, 1640.8533, 799.57416);
        ((GeneralPath) shape).curveTo(1641.6306, 799.31506, 1643.756, 797.6675, 1645.5759, 795.91205);
        ((GeneralPath) shape).curveTo(1650.4894, 791.17236, 1656.0137, 787.8978, 1658.6013, 788.1152);
        ((GeneralPath) shape).closePath();
        ((GeneralPath) shape).moveTo(1953.2947, 791.03125);
        ((GeneralPath) shape).curveTo(1952.0393, 790.9932, 1950.8729, 791.18604, 1949.8689, 791.64453);
        ((GeneralPath) shape).curveTo(1943.3356, 794.62823, 1931.7358, 807.0766, 1928.908, 814.1406);
        ((GeneralPath) shape).curveTo(1926.9966, 818.91516, 1927.4259, 827.5476, 1929.8396, 832.8906);
        ((GeneralPath) shape).curveTo(1932.6313, 839.0704, 1938.3652, 845.14343, 1942.8376, 846.65625);
        ((GeneralPath) shape).curveTo(1947.7501, 848.3179, 1958.0668, 848.215, 1960.1521, 846.4844);
        ((GeneralPath) shape).curveTo(1961.0392, 845.74817, 1963.4595, 842.6504, 1965.531, 839.5996);
        ((GeneralPath) shape).curveTo(1972.5061, 829.3275, 1974.0559, 811.52136, 1968.8514, 801.45703);
        ((GeneralPath) shape).curveTo(1965.8617, 795.6753, 1958.7347, 791.1959, 1953.2948, 791.03125);
        ((GeneralPath) shape).closePath();
        ((GeneralPath) shape).moveTo(1517.2771, 791.9199);
        ((GeneralPath) shape).curveTo(1516.6906, 791.9199, 1515.9131, 792.39966, 1515.5507, 792.9863);
        ((GeneralPath) shape).curveTo(1515.1881, 793.573, 1515.3722, 794.05273, 1515.9589, 794.05273);
        ((GeneralPath) shape).curveTo(1516.5455, 794.05273, 1517.3209, 793.573, 1517.6835, 792.9863);
        ((GeneralPath) shape).curveTo(1518.046, 792.39966, 1517.8639, 791.9199, 1517.2772, 791.9199);
        ((GeneralPath) shape).closePath();
        ((GeneralPath) shape).moveTo(1625.7107, 792.9863);
        ((GeneralPath) shape).curveTo(1623.2739, 792.9863, 1620.2175, 795.7432, 1621.0896, 797.1543);
        ((GeneralPath) shape).curveTo(1621.7037, 798.14777, 1622.4031, 798.1034, 1624.1268, 796.959);
        ((GeneralPath) shape).curveTo(1626.8668, 795.1396, 1627.7256, 792.9863, 1625.7107, 792.9863);
        ((GeneralPath) shape).closePath();
        ((GeneralPath) shape).moveTo(1828.3396, 794.50977);
        ((GeneralPath) shape).curveTo(1828.815, 794.56824, 1829.2399, 795.1132, 1829.9978, 796.1953);
        ((GeneralPath) shape).curveTo(1831.0645, 797.7186, 1831.4043, 799.88257, 1831.0232, 802.72266);
        ((GeneralPath) shape).curveTo(1830.6891, 805.2147, 1831.0132, 808.02075, 1831.8103, 809.5078);
        ((GeneralPath) shape).curveTo(1832.5568, 810.9023, 1832.8846, 812.7789, 1832.539, 813.6797);
        ((GeneralPath) shape).curveTo(1831.0039, 817.6798, 1837.0677, 817.0258, 1841.7029, 812.6914);
        ((GeneralPath) shape).curveTo(1845.5493, 809.0945, 1856.056, 805.5535, 1858.6932, 806.96484);
        ((GeneralPath) shape).curveTo(1862.3827, 808.93933, 1861.1404, 810.2972, 1848.576, 818.01953);
        ((GeneralPath) shape).curveTo(1840.3921, 823.0495, 1839.375, 824.4531, 1843.914, 824.4531);
