package com.pump.awt.geom.outline.clipart;

import java.awt.*;
import java.awt.geom.AffineTransform;
import java.awt.geom.Ellipse2D;
import java.awt.geom.GeneralPath;

import static java.awt.Color.BLACK;
import static java.awt.Color.WHITE;

/**
 * This class has been automatically generated using
 * <a href="http://ebourg.github.io/flamingo-svg-transcoder/">Flamingo SVG transcoder</a>.
 * <p>
 * Source image: https://openclipart.org/detail/303322/well-dressed-owl
 * </p>
 */
public class WellDressedOwl implements javax.swing.Icon {

    /** The width of this icon. */
    private int width;

    /** The height of this icon. */
    private int height;

    /**
     * Creates a new transcoded SVG image.
     */
    public WellDressedOwl() {
        this(715, 1076);
    }

    /**
     * Creates a new transcoded SVG image.
     */
    public WellDressedOwl(int width, int height) {
        this.width = width;
        this.height = height;
    }

    @Override
    public int getIconHeight() {
        return height;
    }

    @Override
    public int getIconWidth() {
        return width;
    }

    @Override
    public void paintIcon(Component c, Graphics g, int x, int y) {
        double coef = Math.min((double) width / (double) 715, (double) height / (double) 1076);

        Graphics2D g2d = (Graphics2D) g.create();
        g2d.translate(x, y);
        g2d.setRenderingHint(RenderingHints.KEY_ANTIALIASING, RenderingHints.VALUE_ANTIALIAS_ON);
        g2d.scale(coef, coef);
        paint(g2d);
        g2d.dispose();
    }

    /**
     * Paints the transcoded SVG image on the specified graphics context.
     * 
     * @param g Graphics context.
     */
    private static void paint(Graphics2D g) {
        Shape shape = null;
        
        float origAlpha = 1.0f;
        
        java.util.LinkedList<AffineTransform> transformations = new java.util.LinkedList<AffineTransform>();
        

        // 
        transformations.push(g.getTransform());
        g.transform(new AffineTransform(1.066657f, 0, 0, 1.066657f, 0, 0.010449124f));

        // _0
        transformations.push(g.getTransform());
        g.transform(new AffineTransform(1, 0, 0, 1, 182.13f, 140.56f));

        // _0_0
        transformations.push(g.getTransform());
        g.transform(new AffineTransform(2.4009f, 0, 0, 2.4009f, -1782.2f, -1444.7f));

        // _0_0_0

        // _0_0_0_0
        shape = new GeneralPath();
        ((GeneralPath) shape).moveTo(922.5, 811.5);
        ((GeneralPath) shape).curveTo(921.0, 825.6, 920.6, 839.2, 913.8, 852.0);
        ((GeneralPath) shape).curveTo(907.3, 864.2, 900.3, 876.7, 891.6, 887.5);
        ((GeneralPath) shape).curveTo(888.0, 892.0, 881.5, 895.8, 876.39996, 898.2);
        ((GeneralPath) shape).curveTo(869.8, 901.4, 863.49994, 905.2, 856.89996, 908.5);
        ((GeneralPath) shape).curveTo(854.1, 909.9, 851.19995, 911.2, 848.19995, 912.3);
        ((GeneralPath) shape).curveTo(845.39996, 913.3, 842.69995, 912.5, 840.1, 913.7);
        ((GeneralPath) shape).curveTo(833.19995, 916.8, 827.0, 918.3, 819.3, 918.7);
        ((GeneralPath) shape).curveTo(812.5, 919.0, 805.6, 919.5, 798.89996, 920.4);
        ((GeneralPath) shape).curveTo(790.99994, 921.5, 783.89996, 920.10004, 776.19995, 918.60004);
        ((GeneralPath) shape).curveTo(769.39996, 917.30005, 762.39996, 917.10004, 755.49994, 916.4);
        ((GeneralPath) shape).curveTo(748.69995, 915.7, 743.0999, 912.10004, 737.49994, 908.60004);
        ((GeneralPath) shape).curveTo(732.0999, 905.2, 726.7999, 901.60004, 722.0999, 897.4);
        ((GeneralPath) shape).curveTo(716.99994, 892.80005, 713.3999, 886.9, 709.3999, 881.30005);
        ((GeneralPath) shape).curveTo(705.7999, 876.30005, 704.4999, 870.30005, 702.3999, 864.60004);
        ((GeneralPath) shape).curveTo(699.9999, 857.9, 697.5999, 851.30005, 695.2999, 844.60004);
        ((GeneralPath) shape).curveTo(690.8999, 831.2, 687.99994, 817.7, 684.7999, 804.10004);
        ((GeneralPath) shape).curveTo(681.3999, 789.80005, 682.0999, 775.10004, 682.19995, 760.60004);
        ((GeneralPath) shape).curveTo(682.2999, 753.7, 682.2999, 746.80005, 682.7999, 739.9);
        ((GeneralPath) shape).curveTo(683.0999, 736.10004, 683.2999, 732.30005, 683.2999, 728.5);
        ((GeneralPath) shape).curveTo(683.2999, 727.1, 682.8999, 725.0, 683.3999, 723.7);
        ((GeneralPath) shape).curveTo(683.7999, 722.7, 684.9999, 722.2, 685.8999, 721.9);
        ((GeneralPath) shape).curveTo(690.3999, 720.2, 689.8999, 730.4, 694.6999, 728.7);
        ((GeneralPath) shape).curveTo(696.9999, 727.9, 704.0999, 717.8, 706.29987, 719.60004);
        ((GeneralPath) shape).curveTo(708.09985, 721.00006, 708.4999, 723.80005, 711.29987, 723.7);
        ((GeneralPath) shape).curveTo(713.6999, 723.60004, 715.4999, 721.0, 716.9999, 719.4);
        ((GeneralPath) shape).curveTo(719.1999, 716.9, 721.4999, 714.4, 723.6999, 711.9);
        ((GeneralPath) shape).curveTo(727.29987, 707.9, 726.4999, 710.7, 730.0999, 712.60004);
        ((GeneralPath) shape).curveTo(732.6999, 714.00006, 734.8999, 712.2, 736.99994, 710.00006);
        ((GeneralPath) shape).curveTo(740.0999, 706.9001, 744.7999, 706.00006, 745.49994, 707.50006);
        ((GeneralPath) shape).curveTo(745.99994, 708.50006, 746.39996, 709.7001, 746.7999, 710.30005);
        ((GeneralPath) shape).curveTo(748.0999, 712.50006, 750.19995, 714.2001, 752.8999, 713.80005);
        ((GeneralPath) shape).curveTo(754.5999, 713.50006, 757.2999, 711.00006, 758.7999, 711.4);
        ((GeneralPath) shape).curveTo(760.5999, 711.9, 761.3999, 715.60004, 762.8999, 716.80005);
        ((GeneralPath) shape).curveTo(767.4999, 720.2001, 772.5999, 710.2001, 777.5999, 711.9);
        ((GeneralPath) shape).curveTo(784.6999, 714.4, 790.8999, 739.60004, 800.8999, 726.5);
        ((GeneralPath) shape).curveTo(802.3999, 724.6, 803.6999, 722.0, 804.1999, 719.6);
        ((GeneralPath) shape).curveTo(804.3999, 718.3, 804.1999, 715.1, 805.3999, 714.19995);
        ((GeneralPath) shape).curveTo(806.8999, 713.1, 808.1999, 714.49994, 809.2999, 716.39996);
        ((GeneralPath) shape).curveTo(810.69995, 718.89996, 812.0999, 723.39996, 813.5999, 725.99994);
        ((GeneralPath) shape).curveTo(814.5999, 727.69995, 815.7999, 729.19995, 817.2999, 729.7999);
        ((GeneralPath) shape).curveTo(822.0999, 731.69995, 828.69995, 723.99994, 830.2999, 720.2999);
        ((GeneralPath) shape).curveTo(831.7999, 717.0999, 831.0999, 712.69995, 835.49994, 712.0999);
        ((GeneralPath) shape).curveTo(836.89996, 711.8999, 837.7999, 712.2999, 838.49994, 712.7999);
        ((GeneralPath) shape).curveTo(839.89996, 713.8999, 843.19995, 715.69995, 845.0999, 714.0999);
        ((GeneralPath) shape).curveTo(846.1999, 713.0999, 847.1999, 711.6999, 847.99994, 710.6999);
        ((GeneralPath) shape).curveTo(849.2999, 708.9999, 851.2999, 704.9999, 853.69995, 707.6999);
        ((GeneralPath) shape).curveTo(855.6, 709.6999, 857.19995, 711.6999, 860.19995, 712.0999);
        ((GeneralPath) shape).curveTo(863.2999, 712.5999, 865.89996, 710.3999, 868.49994, 708.3999);
        ((GeneralPath) shape).curveTo(872.5999, 705.1999, 878.5999, 707.6999, 880.69995, 708.7999);
        ((GeneralPath) shape).curveTo(881.99994, 709.49994, 883.2999, 710.19995, 884.6, 710.7999);
        ((GeneralPath) shape).curveTo(887.39996, 712.19995, 889.39996, 709.49994, 891.19995, 707.69995);
        ((GeneralPath) shape).curveTo(892.19995, 706.69995, 894.7999, 702.49994, 896.49994, 703.39996);
        ((GeneralPath) shape).curveTo(899.0999, 704.8, 901.0999, 707.89996, 904.2999, 707.99994);
        ((GeneralPath) shape).curveTo(909.69995, 707.99994, 907.99994, 697.2999, 912.8999, 703.7999);
        ((GeneralPath) shape).curveTo(914.2999, 705.5999, 914.2999, 709.19995, 914.7999, 711.8999);
        ((GeneralPath) shape).curveTo(915.5999, 715.8999, 916.3999, 719.8999, 917.0999, 723.8999);
        ((GeneralPath) shape).curveTo(922.8999, 752.6999, 925.49994, 781.7999, 922.49994, 811.4999);
        ((GeneralPath) shape).closePath();

        g.setPaint(new Color(0x947054));
        g.fill(shape);

        // _0_0_0_1
        shape = new GeneralPath();
        ((GeneralPath) shape).moveTo(913.3, 718.6);
        ((GeneralPath) shape).curveTo(912.8, 718.6, 912.3, 718.60095, 911.8, 718.80115);
        ((GeneralPath) shape).curveTo(911.39996, 719.80115, 910.5988, 720.90076, 910.5988, 721.90076);
        ((GeneralPath) shape).curveTo(910.7988, 725.3008, 909.4984, 728.10077, 907.6984, 730.90076);
        ((GeneralPath) shape).curveTo(906.1984, 733.20074, 904.4992, 735.10114, 901.9992, 736.30115);
        ((GeneralPath) shape).curveTo(898.6992, 737.9011, 895.5988, 738.7999, 892.5988, 735.6);
        ((GeneralPath) shape).curveTo(891.1988, 734.1, 889.2992, 734.69995, 888.4992, 736.6);
        ((GeneralPath) shape).curveTo(888.1992, 737.39996, 888.1996, 738.3996, 887.8996, 739.1996);
        ((GeneralPath) shape).curveTo(887.3996, 740.79956, 886.8992, 742.6004, 885.9992, 744.00037);
        ((GeneralPath) shape).curveTo(884.9992, 745.60034, 883.7, 746.9996, 882.3, 748.1996);
        ((GeneralPath) shape).curveTo(878.8, 751.1996, 874.9992, 753.50116, 869.99896, 752.8012);
        ((GeneralPath) shape).curveTo(867.09894, 752.4012, 864.79974, 751.6004, 863.79974, 748.5004);
        ((GeneralPath) shape).curveTo(863.19977, 746.70044, 862.09973, 746.10126, 860.79974, 746.3012);
        ((GeneralPath) shape).curveTo(859.59973, 746.6012, 858.89813, 747.5012, 858.6981, 749.3012);
        ((GeneralPath) shape).lineTo(858.6981, 749.69965);
        ((GeneralPath) shape).curveTo(858.59814, 753.2996, 856.9989, 756.30005, 854.9989, 759.10004);
        ((GeneralPath) shape).curveTo(853.5989, 761.00006, 851.6981, 762.10046, 849.1981, 762.0004);
        ((GeneralPath) shape).curveTo(846.6981, 761.9004, 844.09894, 761.8004, 841.4989, 761.5004);
        ((GeneralPath) shape).curveTo(839.0989, 761.20044, 836.9981, 760.1008, 835.1981, 758.4008);
        ((GeneralPath) shape).curveTo(833.4981, 756.7008, 831.79974, 755.20044, 830.79974, 753.0004);
        ((GeneralPath) shape).curveTo(830.3997, 751.90045, 829.3989, 750.90045, 827.99896, 751.0004);
        ((GeneralPath) shape).curveTo(826.49896, 751.1004, 826.29974, 752.5, 825.79974, 753.60004);
        ((GeneralPath) shape).curveTo(824.69977, 756.00006, 823.59937, 758.30005, 822.39935, 760.60004);
        ((GeneralPath) shape).curveTo(820.19934, 764.60004, 816.99854, 767.5996, 812.5986, 769.19965);
        ((GeneralPath) shape).curveTo(811.5986, 769.49963, 810.69977, 770.0004, 809.79974, 770.5004);
        ((GeneralPath) shape).curveTo(803.49976, 773.6004, 796.89874, 774.69965, 789.9987, 774.19965);
        ((GeneralPath) shape).curveTo(786.4987, 773.99963, 783.2987, 772.89966, 780.4987, 770.69965);
        ((GeneralPath) shape).curveTo(776.9987, 767.89966, 774.9987, 764.50085, 775.9987, 759.90063);
        ((GeneralPath) shape).curveTo(776.2987, 758.7006, 776.59955, 757.50104, 776.7995, 756.301);
        ((GeneralPath) shape).curveTo(777.1995, 754.101, 776.6995, 752.6998, 775.2995, 752.09985);
        ((GeneralPath) shape).curveTo(774.0995, 751.59985, 772.8979, 752.20026, 771.6979, 754.00024);
        ((GeneralPath) shape).curveTo(769.5979, 757.1002, 767.2991, 760.00024, 764.39905, 762.50024);
        ((GeneralPath) shape).curveTo(760.499, 765.90027, 756.09863, 767.99945, 750.999, 768.69946);
        ((GeneralPath) shape).curveTo(749.299, 768.99945, 747.6998, 768.801, 746.2998, 767.801);
        ((GeneralPath) shape).curveTo(742.6998, 765.20105, 740.0998, 762.00104, 740.2998, 757.301);
        ((GeneralPath) shape).curveTo(740.3998, 755.801, 740.6994, 754.40063, 740.8994, 752.90063);
        ((GeneralPath) shape).curveTo(740.9994, 751.90063, 741.1986, 750.801, 741.09863, 749.801);
        ((GeneralPath) shape).curveTo(740.79865, 747.801, 738.999, 747.2002, 737.499, 748.50024);
        ((GeneralPath) shape).curveTo(737.099, 748.80023, 736.79944, 749.1998, 736.3994, 749.59985);
        ((GeneralPath) shape).curveTo(735.29944, 750.6998, 734.2986, 751.801, 733.09863, 752.801);
        ((GeneralPath) shape).curveTo(728.49866, 756.70105, 723.19824, 758.10065, 717.1986, 756.90063);
        ((GeneralPath) shape).curveTo(713.9986, 756.2006, 712.6986, 754.89984, 712.1986, 751.59985);
        ((GeneralPath) shape).curveTo(711.8986, 749.1998, 712.19904, 746.89984, 713.099, 744.59985);
        ((GeneralPath) shape).curveTo(713.699, 743.09985, 713.2998, 741.90106, 712.3998, 741.301);
        ((GeneralPath) shape).curveTo(711.49976, 740.701, 710.4986, 741.00104, 709.1986, 742.301);
        ((GeneralPath) shape).curveTo(707.8986, 743.50104, 706.79944, 744.80023, 705.4994, 746.00024);
        ((GeneralPath) shape).curveTo(702.4994, 748.80023, 699.0002, 750.1002, 694.8004, 749.00024);
        ((GeneralPath) shape).curveTo(691.20044, 748.00024, 689.8004, 746.3994, 689.8004, 742.69946);
        ((GeneralPath) shape).curveTo(689.70044, 740.69946, 689.9, 738.69946, 689.9, 736.69946);
        ((GeneralPath) shape).curveTo(689.9, 736.19946, 689.3988, 735.801, 689.19885, 735.3011);
        ((GeneralPath) shape).curveTo(688.7988, 735.6011, 688.39966, 735.90106, 687.99963, 736.3011);
        ((GeneralPath) shape).curveTo(687.7996, 736.5011, 687.69885, 736.89954, 687.69885, 737.1995);
        ((GeneralPath) shape).curveTo(687.39886, 739.39954, 687.0004, 741.4995, 686.8005, 743.6995);
        ((GeneralPath) shape).curveTo(686.5005, 746.09955, 687.2001, 748.20074, 688.9001, 749.9007);
        ((GeneralPath) shape).curveTo(689.6001, 750.6007, 689.6001, 751.4007, 689.4001, 752.4007);
        ((GeneralPath) shape).curveTo(688.3001, 756.7007, 688.2005, 761.1003, 688.8005, 765.5007);
        ((GeneralPath) shape).curveTo(689.0005, 767.0007, 689.89886, 768.5011, 690.69885, 769.90106);
        ((GeneralPath) shape).curveTo(691.0989, 770.70105, 691.80005, 771.30066, 692.4, 772.0007);
        ((GeneralPath) shape).curveTo(693.2, 772.80066, 693.3996, 773.6999, 692.99963, 774.6999);
        ((GeneralPath) shape).curveTo(691.39966, 779.1999, 691.19965, 783.9999, 691.49963, 788.6999);
        ((GeneralPath) shape).curveTo(691.99963, 795.0999, 694.79926, 800.4019, 700.09924, 804.3019);
        ((GeneralPath) shape).curveTo(701.39923, 805.2019, 701.90045, 806.20026, 701.8004, 807.70026);
        ((GeneralPath) shape).curveTo(701.6004, 810.1003, 702.1996, 812.30023, 703.49963, 814.20026);
        ((GeneralPath) shape).curveTo(707.5996, 820.30023, 712.39966, 825.7023, 718.99963, 829.30225);
        ((GeneralPath) shape).curveTo(720.19965, 830.00226, 720.79926, 830.9022, 720.59924, 832.30225);
        ((GeneralPath) shape).curveTo(720.29926, 834.60223, 720.69885, 836.8018, 721.69885, 838.90186);
        ((GeneralPath) shape).curveTo(723.19885, 842.40186, 724.59924, 845.90186, 727.09924, 848.90186);
        ((GeneralPath) shape).curveTo(730.39923, 852.8019, 734.80005, 855.20105, 739.40027, 857.1011);
        ((GeneralPath) shape).curveTo(741.6003, 858.0011, 742.6999, 859.5011, 743.4999, 861.6011);
        ((GeneralPath) shape).curveTo(744.1999, 863.6011, 745.0007, 865.7023, 746.30066, 867.30225);
        ((GeneralPath) shape).curveTo(750.10065, 872.10223, 754.40063, 876.50226, 759.30066, 880.30225);
        ((GeneralPath) shape).curveTo(762.60065, 882.80225, 766.40063, 884.1011, 770.30066, 885.1011);
        ((GeneralPath) shape).curveTo(772.0007, 885.5011, 773.0995, 886.30145, 773.5995, 888.00146);
        ((GeneralPath) shape).curveTo(773.8995, 889.2015, 774.6007, 890.40186, 775.30066, 891.40186);
        ((GeneralPath) shape).curveTo(778.90063, 896.40186, 783.90063, 899.3019, 789.80066, 900.40186);
        ((GeneralPath) shape).curveTo(792.90063, 901.00183, 796.10065, 901.0011, 799.30066, 901.1011);
        ((GeneralPath) shape).curveTo(803.60065, 901.20105, 807.9991, 901.20105, 812.19867, 900.1011);
        ((GeneralPath) shape).curveTo(820.99866, 897.8011, 828.69867, 893.4015, 835.19867, 887.0011);
        ((GeneralPath) shape).curveTo(836.79865, 885.5011, 838.20026, 883.8007, 838.8003, 881.6007);
        ((GeneralPath) shape).curveTo(839.1003, 880.50073, 839.9991, 879.9011, 841.0991, 879.5011);
        ((GeneralPath) shape).curveTo(842.99915, 878.8011, 844.99994, 878.1015, 846.8999, 877.4015);
        ((GeneralPath) shape).curveTo(852.1999, 875.4015, 856.7995, 872.3011, 859.9999, 867.5011);
        ((GeneralPath) shape).curveTo(862.3999, 864.0011, 864.4991, 860.3007, 866.6991, 856.6011);
        ((GeneralPath) shape).curveTo(867.0991, 855.90106, 867.3999, 855.0007, 867.4999, 854.2007);
        ((GeneralPath) shape).curveTo(867.6999, 852.5007, 868.59906, 851.50226, 870.1991, 850.8023);
        ((GeneralPath) shape).curveTo(871.4991, 850.3023, 872.7003, 849.50073, 873.90027, 848.7007);
        ((GeneralPath) shape).curveTo(878.70026, 845.4007, 882.70026, 841.1011, 886.40027, 836.6007);
        ((GeneralPath) shape).curveTo(887.70026, 835.1007, 888.60065, 833.3015, 889.30066, 831.4015);
        ((GeneralPath) shape).curveTo(891.10065, 826.3015, 892.49945, 821.2015, 892.0995, 815.8015);
        ((GeneralPath) shape).curveTo(891.8995, 814.20154, 892.5003, 812.9015, 893.90027, 811.8015);
        ((GeneralPath) shape).curveTo(895.20026, 810.8015, 896.29987, 809.5015, 897.4999, 808.3015);
        ((GeneralPath) shape).curveTo(899.9999, 805.8015, 901.6991, 802.8015, 902.1991, 799.3015);
        ((GeneralPath) shape).curveTo(902.5991, 797.0015, 902.7999, 794.5999, 902.9999, 792.1999);
        ((GeneralPath) shape).curveTo(903.09985, 790.6999, 903.3995, 789.40106, 904.5995, 788.40106);
        ((GeneralPath) shape).curveTo(911.4995, 782.20105, 914.40027, 774.30005, 914.40027, 765.2001);
        ((GeneralPath) shape).curveTo(914.40027, 763.80005, 914.19946, 762.50085, 913.0995, 761.50085);
        ((GeneralPath) shape).curveTo(912.19946, 760.70087, 912.0995, 759.80005, 912.5995, 758.7001);
        ((GeneralPath) shape).curveTo(915.3995, 752.50006, 914.80066, 746.1001, 914.30066, 739.6001);
        ((GeneralPath) shape).curveTo(914.2007, 738.6001, 913.6003, 737.4997, 912.90027, 736.6997);
        ((GeneralPath) shape).curveTo(911.8003, 735.2997, 911.6999, 735.2005, 912.4999, 733.5005);
        ((GeneralPath) shape).curveTo(912.8999, 732.9005, 913.19946, 732.2997, 913.5995, 731.6997);
        ((GeneralPath) shape).curveTo(915.4995, 728.59973, 915.9007, 725.30133, 915.30066, 721.80133);
        ((GeneralPath) shape).curveTo(915.0007, 720.4013, 914.5007, 719.3001, 913.30066, 718.60016);
        ((GeneralPath) shape).closePath();
        ((GeneralPath) shape).moveTo(901.35297, 725.9613);
        ((GeneralPath) shape).curveTo(900.14355, 725.9941, 898.84985, 726.80035, 898.39984, 728.0004);
        ((GeneralPath) shape).curveTo(897.89984, 729.40045, 898.69946, 731.10126, 899.99945, 731.8012);
        ((GeneralPath) shape).curveTo(901.3995, 732.4012, 903.1998, 731.9, 903.89984, 730.60004);
        ((GeneralPath) shape).curveTo(904.79987, 729.10004, 904.0994, 726.89966, 902.49945, 726.19965);
        ((GeneralPath) shape).curveTo(902.1495, 726.02466, 901.75604, 725.95044, 901.35297, 725.96136);
        ((GeneralPath) shape).closePath();
        ((GeneralPath) shape).moveTo(697.96295, 738.6523);
        ((GeneralPath) shape).curveTo(696.77704, 738.54913, 695.5212, 739.1492, 694.99615, 740.19916);
        ((GeneralPath) shape).curveTo(694.29614, 741.5992, 694.99615, 743.5992, 696.49615, 744.19916);
        ((GeneralPath) shape).curveTo(697.79614, 744.79913, 699.59534, 744.10077, 700.1954, 742.8008);
        ((GeneralPath) shape).curveTo(700.8954, 741.5008, 700.39575, 739.8, 699.09576, 739.0);
        ((GeneralPath) shape).curveTo(698.7458, 738.8, 698.3583, 738.6867, 697.96295, 738.65234);
        ((GeneralPath) shape).closePath();
        ((GeneralPath) shape).moveTo(875.66296, 739.91595);
        ((GeneralPath) shape).curveTo(874.99554, 739.89136, 874.3298, 739.9742, 873.69226, 740.19916);
        ((GeneralPath) shape).curveTo(871.99225, 740.79913, 870.59344, 742.50073, 870.89343, 744.3008);
        ((GeneralPath) shape).curveTo(871.1934, 746.7008, 874.29346, 748.00037, 876.39343, 746.9004);
        ((GeneralPath) shape).curveTo(878.39343, 745.9004, 879.39343, 743.2008, 878.89343, 740.8008);
        ((GeneralPath) shape).curveTo(877.89343, 740.3008, 876.7752, 739.95703, 875.6629, 739.916);
        ((GeneralPath) shape).closePath();
        ((GeneralPath) shape).moveTo(907.542, 740.60736);
        ((GeneralPath) shape).curveTo(908.1123, 740.58875, 908.3311, 741.1132, 908.3936, 742.3008);
        ((GeneralPath) shape).lineTo(908.3936, 745.9004);
        ((GeneralPath) shape).curveTo(908.4936, 748.00037, 908.294, 750.4992, 907.294, 752.6992);
        ((GeneralPath) shape).curveTo(904.69403, 758.89923, 897.69324, 762.89923, 890.993, 762.0996);
        ((GeneralPath) shape).curveTo(888.29297, 761.7996, 886.1922, 760.3996, 884.6922, 758.0996);
        ((GeneralPath) shape).curveTo(883.7922, 756.6996, 883.7922, 756.0008, 885.1922, 754.8008);
        ((GeneralPath) shape).curveTo(887.8922, 752.5008, 890.0938, 749.7008, 891.2938, 746.3008);
        ((GeneralPath) shape).curveTo(891.5938, 745.60077, 891.793, 744.79956, 891.99304, 744.0996);
        ((GeneralPath) shape).curveTo(892.293, 742.99963, 893.09265, 742.7, 894.09265, 743.0);
        ((GeneralPath) shape).curveTo(894.29266, 743.1, 894.5939, 743.2008, 894.7938, 743.3008);
        ((GeneralPath) shape).curveTo(897.99384, 744.5008, 901.09265, 744.1004, 904.09265, 742.4004);
        ((GeneralPath) shape).curveTo(904.79266, 742.00037, 905.39264, 741.59924, 906.09265, 741.1992);
        ((GeneralPath) shape).curveTo(906.73016, 740.8242, 907.19965, 740.6185, 907.5419, 740.6074);
        ((GeneralPath) shape).closePath();
        ((GeneralPath) shape).moveTo(722.692, 744.59955);
        ((GeneralPath) shape).curveTo(720.392, 744.4996, 718.292, 746.89954, 718.692, 749.09955);
        ((GeneralPath) shape).curveTo(718.992, 750.59955, 720.3928, 751.89996, 721.9928, 751.99994);
        ((GeneralPath) shape).curveTo(723.5928, 752.19995, 725.1936, 751.19916, 725.7936, 749.69916);
        ((GeneralPath) shape).curveTo(726.6936, 747.5992, 724.992, 744.79956, 722.69196, 744.59955);
        ((GeneralPath) shape).closePath();
        ((GeneralPath) shape).moveTo(898.112, 749.1815);
        ((GeneralPath) shape).curveTo(897.0134, 749.2157, 895.9206, 749.7616, 895.2956, 750.6991);
        ((GeneralPath) shape).curveTo(894.2956, 752.1991, 894.8952, 754.4007, 896.3952, 755.3007);
        ((GeneralPath) shape).curveTo(897.8952, 756.20074, 899.9952, 755.5992, 900.8952, 754.1991);
        ((GeneralPath) shape).curveTo(901.7952, 752.799, 901.3948, 750.5991, 899.9948, 749.6991);
        ((GeneralPath) shape).curveTo(899.4323, 749.3241, 898.77124, 749.161, 898.112, 749.1815);
        ((GeneralPath) shape).closePath();
        ((GeneralPath) shape).moveTo(847.03, 749.4491);
        ((GeneralPath) shape).curveTo(846.39014, 749.4551, 845.75653, 749.6003, 845.19403, 749.90027);
        ((GeneralPath) shape).curveTo(843.69403, 750.70026, 842.69525, 752.4991, 842.8952, 754.1991);
        ((GeneralPath) shape).curveTo(843.1952, 756.9991, 846.69403, 758.8995, 849.19403, 757.5995);
        ((GeneralPath) shape).curveTo(851.59406, 756.2995, 852.09485, 752.29987, 849.9948, 750.4999);
        ((GeneralPath) shape).curveTo(849.1823, 749.8124, 848.09644, 749.43835, 847.03, 749.4491);
        ((GeneralPath) shape).closePath();
        ((GeneralPath) shape).moveTo(707.26, 749.6073);
        ((GeneralPath) shape).curveTo(707.6106, 749.6473, 707.8303, 749.9374, 707.8928, 750.4999);
        ((GeneralPath) shape).curveTo(707.9928, 750.9999, 707.99243, 751.59906, 707.99243, 752.1991);
        ((GeneralPath) shape).curveTo(708.2924, 756.2991, 710.192, 759.2007, 714.09204, 760.8007);
        ((GeneralPath) shape).curveTo(716.192, 761.6007, 716.29205, 762.4007, 714.59204, 763.8007);
        ((GeneralPath) shape).curveTo(712.892, 765.20074, 711.09326, 766.6999, 709.2932, 767.99994);
        ((GeneralPath) shape).curveTo(704.4932, 771.5999, 697.1922, 770.4995, 694.0922, 765.59955);
        ((GeneralPath) shape).curveTo(693.3922, 764.4996, 692.9934, 763.19995, 692.7934, 761.99994);
        ((GeneralPath) shape).curveTo(692.4934, 760.69995, 692.5926, 759.20074, 692.4926, 757.8007);
        ((GeneralPath) shape).lineTo(692.4926, 754.49994);
        ((GeneralPath) shape).curveTo(692.5926, 752.7999, 692.9918, 752.49915, 694.69183, 752.69916);
        ((GeneralPath) shape).lineTo(697.40186, 753.00916);
        ((GeneralPath) shape).curveTo(700.40186, 753.20917, 703.00183, 752.3088, 705.40186, 750.60876);
        ((GeneralPath) shape).curveTo(705.8019, 750.3088, 706.10144, 750.00995, 706.50146, 749.80994);
        ((GeneralPath) shape).curveTo(706.80145, 749.6599, 707.05865, 749.5925, 707.26904, 749.6166);
        ((GeneralPath) shape).closePath();
        ((GeneralPath) shape).moveTo(752.46704, 752.2245);
        ((GeneralPath) shape).curveTo(751.267, 752.2995, 750.09326, 752.7991, 749.2932, 753.6991);
        ((GeneralPath) shape).curveTo(749.19324, 753.8991, 748.9928, 754.0991, 748.8928, 754.1991);
        ((GeneralPath) shape).curveTo(747.59283, 756.1991, 748.0924, 759.1995, 749.99243, 760.5995);
        ((GeneralPath) shape).curveTo(751.89246, 761.99945, 754.8928, 761.5991, 756.3928, 759.6991);
        ((GeneralPath) shape).curveTo(757.8928, 757.7991, 757.5932, 754.8007, 755.7932, 753.3007);
        ((GeneralPath) shape).curveTo(754.8932, 752.50073, 753.667, 752.14954, 752.46704, 752.22455);
        ((GeneralPath) shape).closePath();
        ((GeneralPath) shape).moveTo(797.77, 755.1679);
        ((GeneralPath) shape).curveTo(796.34973, 755.1867, 794.9423, 755.3753, 793.59235, 755.9003);
        ((GeneralPath) shape).curveTo(791.79236, 756.60034, 790.29236, 757.8991, 789.59235, 759.69916);
        ((GeneralPath) shape).curveTo(788.4924, 762.8992, 790.9935, 766.49994, 794.2935, 767.49994);
        ((GeneralPath) shape).curveTo(797.4935, 768.49994, 800.9923, 767.5991, 804.09235, 766.19916);
        ((GeneralPath) shape).curveTo(805.4924, 765.5992, 806.99194, 764.7004, 807.69196, 763.4003);
        ((GeneralPath) shape).curveTo(808.79193, 761.30035, 807.69293, 758.59955, 805.8931, 757.09955);
        ((GeneralPath) shape).curveTo(803.9931, 755.6995, 801.49194, 755.29913, 799.19196, 755.19916);
        ((GeneralPath) shape).curveTo(798.717, 755.17413, 798.2435, 755.1617, 797.7701, 755.16797);
        ((GeneralPath) shape).closePath();
        ((GeneralPath) shape).moveTo(862.68005, 756.3007);
        ((GeneralPath) shape).curveTo(863.29254, 756.2257, 863.99176, 756.7999, 865.1918, 757.49994);
        ((GeneralPath) shape).curveTo(868.29175, 759.39996, 871.8926, 759.79913, 875.4928, 759.69916);
        ((GeneralPath) shape).curveTo(875.9928, 759.69916, 876.3932, 759.59955, 876.8932, 759.59955);
        ((GeneralPath) shape).curveTo(877.99316, 759.4996, 878.5928, 760.09955, 878.4928, 761.09955);
        ((GeneralPath) shape).curveTo(878.3928, 761.89954, 878.2928, 762.8992, 877.9928, 763.69916);
        ((GeneralPath) shape).curveTo(876.8928, 766.3992, 875.7932, 769.09955, 874.3932, 771.59955);
        ((GeneralPath) shape).curveTo(872.49316, 774.9996, 869.3924, 776.6995, 864.09216, 776.59955);
        ((GeneralPath) shape).curveTo(859.9922, 776.29956, 855.4922, 773.89996, 851.59216, 769.99994);
        ((GeneralPath) shape).curveTo(850.59216, 768.89996, 850.7922, 767.9995, 852.09216, 767.59955);
        ((GeneralPath) shape).curveTo(856.59216, 766.29956, 858.99176, 762.89996, 860.6918, 758.99994);
        ((GeneralPath) shape).curveTo(861.54175, 757.0999, 862.06757, 756.37573, 862.68005, 756.3007);
        ((GeneralPath) shape).closePath();
        ((GeneralPath) shape).moveTo(735.79004, 757.09955);
        ((GeneralPath) shape).curveTo(735.89, 757.59955, 736.1884, 758.19916, 736.1884, 758.69916);
        ((GeneralPath) shape).curveTo(736.08844, 764.8992, 739.69, 768.8992, 744.29004, 772.19916);
        ((GeneralPath) shape).curveTo(746.69006, 773.99915, 746.7888, 774.1996, 744.58887, 776.09955);
        ((GeneralPath) shape).curveTo(740.7889, 779.39954, 736.28845, 781.8007, 731.68884, 783.8007);
        ((GeneralPath) shape).curveTo(727.7888, 785.50073, 725.09, 783.8999, 722.39, 779.99994);
        ((GeneralPath) shape).curveTo(720.49, 777.2999, 720.19, 773.99915, 719.89, 770.69916);
        ((GeneralPath) shape).curveTo(720.29004, 768.29913, 720.6904, 765.89954, 721.2904, 763.59955);
        ((GeneralPath) shape).curveTo(721.4904, 762.6995, 721.9904, 762.3007, 722.7904, 762.3007);
        ((GeneralPath) shape).curveTo(727.2904, 762.4007, 730.7892, 760.1991, 734.0894, 757.6991);
        ((GeneralPath) shape).curveTo(734.48944, 757.2991, 735.1906, 757.2995, 735.7906, 757.0995);
        ((GeneralPath) shape).closePath();
        ((GeneralPath) shape).moveTo(702.87805, 758.05853);
        ((GeneralPath) shape).curveTo(700.83746, 758.0219, 699.04016, 760.4257, 699.79016, 762.3007);
        ((GeneralPath) shape).curveTo(700.6902, 764.4007, 703.9902, 764.7999, 705.29016, 762.99994);
        ((GeneralPath) shape).curveTo(706.59015, 761.2999, 705.39014, 758.39954, 703.29016, 758.09955);
        ((GeneralPath) shape).curveTo(703.15265, 758.0745, 703.01404, 758.061, 702.87805, 758.05853);
        ((GeneralPath) shape).closePath();
        ((GeneralPath) shape).moveTo(830.24805, 760.5839);
        ((GeneralPath) shape).curveTo(830.51404, 760.62555, 830.81836, 760.79956, 831.19336, 761.09955);
        ((GeneralPath) shape).curveTo(831.5934, 761.39954, 831.89496, 761.79913, 832.295, 762.19916);
        ((GeneralPath) shape).curveTo(834.795, 764.79913, 837.79456, 766.39996, 841.3946, 766.99994);
        ((GeneralPath) shape).curveTo(843.3946, 767.39996, 843.8946, 767.89996, 843.8946, 769.99994);
        ((GeneralPath) shape).curveTo(843.99457, 770.89996, 843.8938, 771.8991, 843.5938, 772.69916);
        ((GeneralPath) shape).curveTo(839.6938, 782.49915, 832.9948, 789.40015, 822.39484, 791.90015);
        ((GeneralPath) shape).curveTo(821.1948, 792.20013, 819.89404, 792.20013, 818.59406, 792.40015);
        ((GeneralPath) shape).curveTo(815.29407, 792.40015, 812.29364, 791.29974, 809.69366, 789.49976);
        ((GeneralPath) shape).curveTo(808.0937, 788.3998, 806.5937, 787.39935, 805.19366, 786.09937);
        ((GeneralPath) shape).curveTo(804.29364, 785.2994, 803.5937, 784.19934, 803.19366, 783.09937);
        ((GeneralPath) shape).curveTo(802.49365, 781.09937, 803.09406, 780.29895, 805.09406, 779.699);
        ((GeneralPath) shape).curveTo(808.59406, 778.599, 811.9949, 777.49896, 815.3951, 776.199);
        ((GeneralPath) shape).curveTo(821.0951, 774.099, 824.8943, 769.89935, 827.59406, 764.599);
        ((GeneralPath) shape).curveTo(828.09406, 763.599, 828.4941, 762.4994, 829.09406, 761.4994);
        ((GeneralPath) shape).curveTo(829.46906, 760.8119, 829.80493, 760.51404, 830.24835, 760.5834);
        ((GeneralPath) shape).closePath();
        ((GeneralPath) shape).moveTo(865.32806, 763.68945);
        ((GeneralPath) shape).curveTo(863.69543, 763.65186, 862.00616, 764.618, 861.5937, 766.1993);
        ((GeneralPath) shape).curveTo(860.8937, 768.49927, 863.19366, 771.20087, 865.5937, 770.8009);
        ((GeneralPath) shape).curveTo(866.9937, 770.6009, 868.19366, 769.4993, 868.5937, 768.1993);
        ((GeneralPath) shape).curveTo(868.9937, 766.79926, 868.4945, 765.3005, 867.3945, 764.40045);
        ((GeneralPath) shape).curveTo(866.80066, 763.9317, 866.07007, 763.7066, 865.32806, 763.6895);
        ((GeneralPath) shape).closePath();
        ((GeneralPath) shape).moveTo(770.00604, 764.53516);
        ((GeneralPath) shape).curveTo(770.50116, 764.4326, 770.8068, 764.8633, 770.9943, 765.8008);
        ((GeneralPath) shape).curveTo(771.9943, 770.3008, 774.99475, 773.4992, 778.3947, 776.1988);
        ((GeneralPath) shape).curveTo(782.1947, 779.1988, 786.7935, 780.5988, 791.6937, 780.6988);
        ((GeneralPath) shape).curveTo(792.6937, 780.6988, 793.79535, 780.7008, 794.79535, 780.80035);
        ((GeneralPath) shape).curveTo(796.09534, 780.9003, 796.39417, 781.80035, 795.5942, 782.80035);
        ((GeneralPath) shape).curveTo(795.19415, 783.4003, 794.5946, 783.79877, 793.99457, 784.1987);
        ((GeneralPath) shape).curveTo(788.8946, 787.59875, 783.3946, 789.8991, 777.59454, 791.5991);
        ((GeneralPath) shape).curveTo(773.6945, 792.6991, 770.09534, 792.09875, 766.89557, 789.6987);
        ((GeneralPath) shape).curveTo(764.0956, 787.6987, 761.496, 785.49994, 758.79596, 783.3999);
        ((GeneralPath) shape).curveTo(756.59595, 781.6999, 755.5956, 779.3995, 755.89557, 776.4995);
        ((GeneralPath) shape).curveTo(755.49554, 774.1995, 756.59515, 772.7999, 758.9952, 771.8999);
        ((GeneralPath) shape).curveTo(762.79517, 770.4999, 766.0956, 768.3003, 768.89557, 765.3003);
        ((GeneralPath) shape).curveTo(769.3456, 764.8503, 769.7098, 764.5962, 770.0069, 764.53467);
        ((GeneralPath) shape).closePath();
        ((GeneralPath) shape).moveTo(908.796, 764.6992);
        ((GeneralPath) shape).curveTo(908.896, 765.39923, 909.1948, 766.09924, 909.09485, 766.6992);
        ((GeneralPath) shape).curveTo(908.39484, 770.09924, 907.29486, 773.30084, 905.59485, 776.30084);
        ((GeneralPath) shape).curveTo(904.1948, 778.9008, 902.1948, 781.00006, 899.59485, 782.50006);
        ((GeneralPath) shape).curveTo(895.29486, 785.10004, 890.89526, 787.09924, 885.9949, 786.6993);
        ((GeneralPath) shape).curveTo(882.6949, 786.8993, 879.8945, 786.30084, 877.5945, 784.3009);
        ((GeneralPath) shape).curveTo(876.9945, 783.7009, 876.39526, 783.1005, 875.89526, 782.4005);
        ((GeneralPath) shape).curveTo(875.19525, 781.4005, 875.29443, 780.4997, 876.0945, 779.59973);
        ((GeneralPath) shape).curveTo(879.19446, 776.29974, 881.29565, 772.29974, 882.79565, 768.09973);
        ((GeneralPath) shape).curveTo(883.59564, 765.8997, 883.9949, 765.70056, 885.9949, 766.9005);
        ((GeneralPath) shape).curveTo(889.3949, 769.0005, 893.09485, 769.5005, 896.9949, 768.9005);
        ((GeneralPath) shape).curveTo(900.59485, 768.30054, 903.99445, 767.19934, 907.09485, 765.19934);
        ((GeneralPath) shape).curveTo(907.59485, 764.89935, 908.19604, 764.89935, 908.796, 764.69934);
        ((GeneralPath) shape).closePath();
        ((GeneralPath) shape).moveTo(730.586, 766.6054);
        ((GeneralPath) shape).curveTo(729.4469, 766.6004, 728.34, 766.94916, 727.4962, 767.6992);
        ((GeneralPath) shape).curveTo(726.7962, 768.2992, 726.29584, 769.2008, 726.0958, 770.30084);
        ((GeneralPath) shape).curveTo(725.29584, 774.30084, 728.6962, 777.69965, 732.4962, 776.5997);
        ((GeneralPath) shape).curveTo(734.6962, 775.9997, 736.3958, 773.6009, 736.0958, 771.30084);
        ((GeneralPath) shape).curveTo(735.75214, 768.34467, 733.0922, 766.6165, 730.586, 766.6055);
        ((GeneralPath) shape).closePath();
        ((GeneralPath) shape).moveTo(714.846, 770.5683);
        ((GeneralPath) shape).curveTo(715.2298, 770.5773, 715.471, 770.91205, 715.596, 771.5995);
        ((GeneralPath) shape).lineTo(715.596, 772.5995);
        ((GeneralPath) shape).curveTo(715.596, 778.7995, 718.0972, 784.0005, 722.2972, 788.4005);
        ((GeneralPath) shape).curveTo(723.59717, 789.7005, 723.79596, 790.7005, 722.596, 791.9005);
        ((GeneralPath) shape).curveTo(720.096, 794.5005, 717.5956, 797.19934, 714.1956, 798.69934);
        ((GeneralPath) shape).curveTo(712.9956, 799.2993, 711.69684, 799.70013, 710.3968, 800.0001);
        ((GeneralPath) shape).curveTo(705.1968, 801.1001, 701.796, 799.5001, 699.09576, 795.0001);
        ((GeneralPath) shape).curveTo(696.39575, 790.6001, 696.0962, 789.1005, 695.99615, 781.90015);
        ((GeneralPath) shape).curveTo(695.99615, 780.40015, 695.8962, 778.9006, 695.99615, 777.30054);
        ((GeneralPath) shape).curveTo(695.99615, 775.30054, 696.69617, 774.8001, 698.49615, 775.40015);
        ((GeneralPath) shape).curveTo(703.29614, 777.0001, 707.4966, 776.0001, 711.3962, 772.90015);
        ((GeneralPath) shape).curveTo(712.19617, 772.20013, 713.09576, 771.5001, 713.9958, 770.90015);
        ((GeneralPath) shape).curveTo(714.3333, 770.6752, 714.6151, 770.56287, 714.8454, 770.5681);
        ((GeneralPath) shape).closePath();
        ((GeneralPath) shape).moveTo(892.036, 773.8085);
        ((GeneralPath) shape).curveTo(891.8227, 773.8193, 891.6098, 773.8503, 891.39734, 773.90027);
        ((GeneralPath) shape).curveTo(889.4973, 774.40027, 888.29736, 776.59985, 888.89734, 778.4999);
        ((GeneralPath) shape).curveTo(889.4973, 780.29987, 891.7965, 781.39905, 893.59656, 780.6991);
        ((GeneralPath) shape).curveTo(895.3966, 779.99915, 896.2966, 777.6003, 895.59656, 775.90027);
        ((GeneralPath) shape).curveTo(894.9841, 774.58777, 893.52893, 773.7333, 892.0361, 773.8085);
        ((GeneralPath) shape).closePath();
        ((GeneralPath) shape).moveTo(822.97003, 775.48425);
        ((GeneralPath) shape).curveTo(822.5106, 775.46234, 822.04694, 775.49945, 821.5969, 775.5995);
        ((GeneralPath) shape).curveTo(819.79694, 775.9995, 818.2981, 777.3991, 817.7981, 779.1991);
        ((GeneralPath) shape).curveTo(817.4981, 780.1991, 817.4981, 781.1991, 817.7981, 782.1991);
        ((GeneralPath) shape).curveTo(818.3981, 784.1991, 820.29767, 785.8003, 822.3977, 785.90027);
        ((GeneralPath) shape).curveTo(824.49774, 786.00024, 826.5973, 784.8003, 827.4973, 782.90027);
        ((GeneralPath) shape).curveTo(828.39734, 781.00024, 827.9969, 778.6991, 826.5969, 777.1991);
        ((GeneralPath) shape).curveTo(825.6969, 776.1491, 824.34814, 775.5499, 822.97003, 775.4843);
        ((GeneralPath) shape).closePath();
        ((GeneralPath) shape).moveTo(769.517, 775.5936);
        ((GeneralPath) shape).curveTo(768.2094, 775.5936, 766.89795, 776.0624, 765.89795, 776.9998);
        ((GeneralPath) shape).curveTo(764.39795, 778.39984, 763.8967, 780.8006, 764.6968, 782.8006);
        ((GeneralPath) shape).curveTo(765.6968, 785.2006, 768.49756, 786.6006, 770.99756, 785.8006);
        ((GeneralPath) shape).curveTo(772.99756, 785.2006, 774.49677, 783.4006, 774.6968, 781.3006);
        ((GeneralPath) shape).curveTo(774.8968, 779.2006, 773.69836, 777.0994, 771.7984, 776.0994);
        ((GeneralPath) shape).curveTo(771.0859, 775.7619, 770.3017, 775.59357, 769.5171, 775.59357);
        ((GeneralPath) shape).closePath();
        ((GeneralPath) shape).moveTo(848.322, 775.9745);
        ((GeneralPath) shape).curveTo(848.77203, 775.8745, 849.2974, 776.20026, 850.0974, 776.90027);
        ((GeneralPath) shape).curveTo(854.99744, 781.20026, 860.5984, 783.7991, 867.2984, 783.6991);
        ((GeneralPath) shape).curveTo(869.1984, 783.5991, 869.5976, 784.1003, 868.9976, 785.90027);
        ((GeneralPath) shape).curveTo(867.89764, 789.20026, 866.2984, 792.1003, 863.2984, 794.40027);
        ((GeneralPath) shape).curveTo(857.4984, 798.90027, 850.6974, 800.8003, 844.9974, 801.40027);
        ((GeneralPath) shape).curveTo(839.59735, 801.50024, 836.09735, 799.89905, 832.4974, 798.1991);
        ((GeneralPath) shape).curveTo(831.09735, 797.4991, 831.19696, 796.4995, 832.597, 795.5995);
        ((GeneralPath) shape).curveTo(836.597, 793.19946, 839.7978, 789.8995, 842.39777, 786.0995);
        ((GeneralPath) shape).curveTo(844.19775, 783.3995, 845.59735, 780.4995, 846.9974, 777.5995);
        ((GeneralPath) shape).curveTo(847.4974, 776.5995, 847.8716, 776.07446, 848.3216, 775.9745);
        ((GeneralPath) shape).closePath();
        ((GeneralPath) shape).moveTo(749.01, 782.1249);
        ((GeneralPath) shape).curveTo(749.6624, 782.0282, 750.0608, 782.5116, 750.4983, 783.6991);
        ((GeneralPath) shape).curveTo(751.1983, 785.6991, 752.2987, 787.4999, 753.8987, 788.9999);
        ((GeneralPath) shape).curveTo(756.99866, 791.79987, 759.99786, 794.6007, 763.0979, 797.30066);
        ((GeneralPath) shape).curveTo(764.3979, 798.5007, 764.5987, 799.2007, 763.3987, 800.30066);
        ((GeneralPath) shape).curveTo(758.0987, 804.80066, 752.29767, 808.1998, 746.1977, 808.4999);
        ((GeneralPath) shape).curveTo(737.8977, 808.3999, 732.4997, 805.3999, 728.7997, 799.4999);
        ((GeneralPath) shape).curveTo(727.4997, 797.4999, 727.69885, 795.2995, 727.9989, 793.0995);
        ((GeneralPath) shape).curveTo(728.0989, 792.19946, 728.6985, 791.6991, 729.5985, 791.6991);
        ((GeneralPath) shape).curveTo(734.1985, 791.7991, 737.9981, 789.3995, 741.6985, 787.0995);
        ((GeneralPath) shape).curveTo(743.6985, 785.8995, 745.5993, 784.3003, 747.49927, 782.90027);
        ((GeneralPath) shape).curveTo(748.1368, 782.45026, 748.61957, 782.18286, 749.011, 782.1249);
        ((GeneralPath) shape).closePath();
        ((GeneralPath) shape).moveTo(707.594, 782.61316);
        ((GeneralPath) shape).curveTo(705.4803, 782.63635, 703.4237, 784.2007, 702.8987, 786.30066);
        ((GeneralPath) shape).curveTo(702.2987, 788.7007, 703.8991, 791.3995, 706.2991, 792.0995);
        ((GeneralPath) shape).curveTo(708.7991, 792.7995, 711.6991, 791.0995, 712.2991, 788.5995);
        ((GeneralPath) shape).curveTo(712.89905, 786.0995, 710.9983, 783.1991, 708.4983, 782.6991);
        ((GeneralPath) shape).curveTo(708.1983, 782.6366, 707.896, 782.6098, 707.594, 782.6132);
        ((GeneralPath) shape).closePath();
        ((GeneralPath) shape).moveTo(852.224, 787.35144);
        ((GeneralPath) shape).curveTo(850.6462, 787.3842, 849.1259, 788.4127, 848.6009, 789.90027);
        ((GeneralPath) shape).curveTo(847.70087, 792.1003, 849.4005, 794.9007, 851.7005, 795.30066);
        ((GeneralPath) shape).curveTo(854.1005, 795.60065, 856.5021, 793.49945, 856.3021, 791.0995);
        ((GeneralPath) shape).curveTo(856.20215, 789.2995, 854.7017, 787.7003, 852.90173, 787.40027);
        ((GeneralPath) shape).curveTo(852.67676, 787.3628, 852.44934, 787.34674, 852.22406, 787.35144);
        ((GeneralPath) shape).closePath();
        ((GeneralPath) shape).moveTo(873.529, 788.6873);
        ((GeneralPath) shape).curveTo(873.7757, 788.7019, 874.04, 788.8369, 874.3025, 789.0994);
        ((GeneralPath) shape).curveTo(880.2025, 794.99945, 887.3015, 794.8006, 894.6015, 793.3006);
        ((GeneralPath) shape).curveTo(895.5015, 793.1006, 896.5027, 792.4006, 897.3027, 793.3006);
        ((GeneralPath) shape).curveTo(898.3027, 794.3006, 897.7027, 795.5002, 897.3027, 796.4002);
        ((GeneralPath) shape).curveTo(896.90265, 797.5002, 896.2027, 798.6994, 895.3027, 799.5994);
        ((GeneralPath) shape).curveTo(891.8027, 802.79944, 888.30145, 806.0994, 884.6017, 809.0994);
        ((GeneralPath) shape).curveTo(881.20166, 811.79944, 877.40247, 813.49945, 872.9027, 813.5994);
        ((GeneralPath) shape).curveTo(870.9027, 813.0994, 868.80273, 812.9006, 866.9027, 812.3006);
        ((GeneralPath) shape).curveTo(864.5027, 811.3006, 862.20233, 810.1006, 860.0023, 808.8006);
        ((GeneralPath) shape).curveTo(858.20233, 807.7006, 858.30194, 806.5998, 860.1019, 805.4998);
        ((GeneralPath) shape).curveTo(861.80194, 804.39984, 863.50195, 803.29944, 865.1019, 802.0994);
        ((GeneralPath) shape).curveTo(868.2019, 799.8994, 870.4027, 796.8994, 871.4027, 793.0994);
        ((GeneralPath) shape).curveTo(871.7027, 791.8994, 872.0023, 790.6994, 872.5023, 789.5994);
        ((GeneralPath) shape).curveTo(872.7523, 788.9744, 873.1185, 788.6629, 873.5296, 788.6873);
        ((GeneralPath) shape).closePath();
        ((GeneralPath) shape).moveTo(800.277, 789.82404);
        ((GeneralPath) shape).curveTo(800.727, 789.84906, 801.1524, 790.14905, 801.80237, 790.69904);
        ((GeneralPath) shape).curveTo(803.90234, 792.499, 806.0008, 794.29987, 808.20074, 795.9998);
        ((GeneralPath) shape).curveTo(811.50073, 798.4998, 815.20197, 799.6994, 819.40173, 799.5994);
        ((GeneralPath) shape).lineTo(820.40173, 799.5994);
        ((GeneralPath) shape).curveTo(821.80176, 799.79944, 822.1021, 800.4002, 821.3021, 801.4002);
        ((GeneralPath) shape).curveTo(819.9021, 803.2002, 818.4005, 804.9994, 816.7005, 806.5994);
        ((GeneralPath) shape).curveTo(814.5005, 808.5994, 812.2017, 810.50024, 809.9017, 812.4002);
        ((GeneralPath) shape).curveTo(806.6017, 815.2002, 802.9009, 816.5006, 798.60065, 815.8006);
        ((GeneralPath) shape).curveTo(797.80066, 815.8006, 796.90106, 815.6006, 796.00104, 815.8006);
        ((GeneralPath) shape).curveTo(789.70105, 815.8006, 784.601, 812.8998, 779.90106, 808.9998);
        ((GeneralPath) shape).curveTo(777.8011, 807.1998, 775.79987, 805.2998, 773.6999, 803.4998);
        ((GeneralPath) shape).curveTo(773.3999, 803.2998, 773.1007, 803.1006, 773.0007, 802.8006);
        ((GeneralPath) shape).curveTo(772.80066, 802.3006, 772.50024, 801.8002, 772.6003, 801.4002);
        ((GeneralPath) shape).curveTo(772.6003, 801.2002, 773.29987, 800.9002, 773.6999, 800.9002);
        ((GeneralPath) shape).curveTo(780.6999, 800.2002, 787.0999, 797.7002, 793.1999, 794.4002);
        ((GeneralPath) shape).curveTo(795.0999, 793.30023, 796.8003, 791.8994, 798.6003, 790.5994);
        ((GeneralPath) shape).curveTo(799.3503, 790.04944, 799.8261, 789.799, 800.27606, 789.82404);
        ((GeneralPath) shape).closePath();
        ((GeneralPath) shape).moveTo(745.61896, 791.9373);
        ((GeneralPath) shape).curveTo(745.3088, 791.9586, 745.001, 792.0119, 744.7009, 792.0994);
        ((GeneralPath) shape).curveTo(742.40094, 792.99945, 741.00214, 795.89905, 741.9021, 798.19904);
        ((GeneralPath) shape).curveTo(742.8021, 800.299, 745.4013, 801.60065, 747.6013, 800.80066);
        ((GeneralPath) shape).curveTo(749.80133, 800.10065, 751.2013, 797.5007, 750.6013, 795.30066);
        ((GeneralPath) shape).curveTo(750.0763, 793.2007, 747.79004, 791.7883, 745.6189, 791.9374);
        ((GeneralPath) shape).closePath();
        ((GeneralPath) shape).moveTo(798.67896, 796.6834);
        ((GeneralPath) shape).curveTo(796.8716, 796.6378, 795.0447, 797.1631, 793.6008, 798.3006);
        ((GeneralPath) shape).curveTo(791.6008, 800.0006, 790.40045, 802.7006, 790.70044, 805.3006);
        ((GeneralPath) shape).curveTo(791.20044, 810.1006, 797.0012, 813.499, 801.50146, 811.699);
        ((GeneralPath) shape).curveTo(806.00146, 809.899, 807.7007, 803.39935, 804.7007, 799.599);
        ((GeneralPath) shape).curveTo(803.2945, 797.7428, 801.0031, 796.7416, 798.6792, 796.683);
        ((GeneralPath) shape).closePath();
        ((GeneralPath) shape).moveTo(722.99493, 798.3455);
        ((GeneralPath) shape).curveTo(723.44226, 798.2898, 723.7625, 798.6502, 724.2, 799.4002);
        ((GeneralPath) shape).curveTo(725.3, 801.4002, 726.3, 803.399, 727.7, 805.19904);
        ((GeneralPath) shape).curveTo(730.4, 808.69904, 733.9, 811.20026, 737.7, 813.4002);
        ((GeneralPath) shape).curveTo(738.7, 814.0002, 739.9008, 814.1998, 741.0008, 814.4998);
        ((GeneralPath) shape).curveTo(742.60077, 814.9998, 742.9008, 815.6998, 742.0008, 816.9998);
        ((GeneralPath) shape).curveTo(739.8008, 820.0998, 737.3004, 822.9002, 734.1004, 824.9002);
        ((GeneralPath) shape).curveTo(732.1004, 826.1002, 730.6004, 826.5998, 727.6004, 826.4998);
        ((GeneralPath) shape).curveTo(724.3004, 826.1998, 720.6, 824.7002, 717.2004, 822.4002);
        ((GeneralPath) shape).curveTo(713.1004, 819.7002, 709.8016, 816.099, 706.90137, 812.1992);
        ((GeneralPath) shape).curveTo(706.1014, 811.09924, 705.50055, 809.70044, 705.1006, 808.4004);
        ((GeneralPath) shape).curveTo(704.6006, 806.9004, 705.30176, 806.0996, 706.80176, 806.0996);
        ((GeneralPath) shape).curveTo(712.7018, 805.99963, 717.40173, 803.5004, 721.40173, 799.4004);
        ((GeneralPath) shape).curveTo(721.60175, 799.2004, 721.80133, 799.1004, 722.00134, 798.9004);
        ((GeneralPath) shape).curveTo(722.4138, 798.56287, 722.7272, 798.3791, 722.9954, 798.3457);
        ((GeneralPath) shape).closePath();
        ((GeneralPath) shape).moveTo(876.8949, 798.8963);
        ((GeneralPath) shape).curveTo(876.3043, 798.9369, 875.7226, 799.1002, 875.1976, 799.4002);
        ((GeneralPath) shape).curveTo(873.29755, 800.5002, 872.49835, 803.0994, 873.49835, 805.0994);
        ((GeneralPath) shape).curveTo(874.49835, 806.99945, 877.19794, 807.89984, 879.09796, 806.9998);
        ((GeneralPath) shape).curveTo(881.09796, 805.9998, 882.09753, 803.4002, 881.1976, 801.4002);
        ((GeneralPath) shape).curveTo(880.5226, 799.7502, 878.66675, 798.7744, 876.8949, 798.8963);
        ((GeneralPath) shape).closePath();
        ((GeneralPath) shape).moveTo(827.9609, 801.4744);
        ((GeneralPath) shape).curveTo(828.2984, 801.42444, 828.6476, 801.64905, 829.0976, 802.19904);
        ((GeneralPath) shape).curveTo(831.0976, 804.59906, 833.698, 806.0006, 836.498, 807.30066);
        ((GeneralPath) shape).curveTo(840.09796, 808.90063, 843.7972, 809.19904, 847.69696, 808.69904);
        ((GeneralPath) shape).curveTo(848.49695, 808.59906, 849.19775, 808.4006, 849.99774, 808.3006);
        ((GeneralPath) shape).curveTo(851.69775, 808.1006, 852.29816, 808.7002, 851.89813, 810.4002);
        ((GeneralPath) shape).curveTo(851.6981, 811.5002, 851.2985, 812.4998, 850.7985, 813.4998);
        ((GeneralPath) shape).curveTo(849.19855, 816.4998, 847.1973, 819.29944, 844.59735, 821.5994);
        ((GeneralPath) shape).curveTo(840.4974, 825.29944, 836.1973, 828.7998, 831.09735, 830.9998);
        ((GeneralPath) shape).curveTo(828.9974, 831.89984, 826.7977, 832.40063, 824.49774, 832.3006);
        ((GeneralPath) shape).curveTo(821.0977, 832.3006, 817.89734, 831.49945, 815.09735, 829.5994);
        ((GeneralPath) shape).curveTo(813.1973, 828.3994, 811.19855, 827.29944, 809.2985, 826.0994);
        ((GeneralPath) shape).curveTo(808.3985, 825.47943, 807.69855, 824.7794, 806.99854, 823.97943);
        ((GeneralPath) shape).curveTo(805.89856, 822.7794, 806.0985, 821.67944, 807.49854, 820.97943);
        ((GeneralPath) shape).curveTo(812.7985, 818.37946, 816.79895, 814.0794, 820.89856, 809.97943);
        ((GeneralPath) shape).curveTo(823.19855, 807.67944, 824.99854, 804.97986, 826.89856, 802.3798);
        ((GeneralPath) shape).curveTo(827.2986, 801.82983, 827.62354, 801.504, 827.96106, 801.45404);
        ((GeneralPath) shape).closePath();
        ((GeneralPath) shape).moveTo(769.1739, 804.2752);
        ((GeneralPath) shape).curveTo(769.7239, 804.3252, 770.2485, 804.7002, 770.8985, 805.4002);
        ((GeneralPath) shape).curveTo(772.2985, 806.80023, 773.4981, 808.40063, 774.9981, 809.8006);
        ((GeneralPath) shape).curveTo(778.1981, 812.7006, 781.2973, 815.7002, 784.6973, 818.4002);
        ((GeneralPath) shape).curveTo(787.1973, 820.4002, 790.1989, 821.40063, 793.29895, 821.8006);
        ((GeneralPath) shape).curveTo(794.09894, 821.9006, 794.89777, 821.8994, 795.5978, 822.0994);
        ((GeneralPath) shape).curveTo(796.19775, 822.1994, 796.7986, 822.6002, 797.39856, 822.9002);
        ((GeneralPath) shape).curveTo(797.0986, 823.5002, 796.99817, 824.299, 796.49817, 824.69904);
        ((GeneralPath) shape).curveTo(794.99817, 825.999, 793.39734, 827.30066, 791.6974, 828.30066);
        ((GeneralPath) shape).curveTo(788.5974, 830.0007, 785.4974, 831.6998, 782.1974, 832.9999);
        ((GeneralPath) shape).curveTo(780.0974, 833.8999, 777.599, 833.9999, 775.299, 834.4999);
        ((GeneralPath) shape).curveTo(769.69904, 834.1999, 764.79803, 832.70026, 760.598, 828.90027);
        ((GeneralPath) shape).curveTo(757.99805, 826.6003, 755.1984, 824.5007, 752.4984, 822.30066);
        ((GeneralPath) shape).curveTo(750.89844, 821.0007, 749.698, 819.40027, 749.098, 817.40027);
        ((GeneralPath) shape).curveTo(748.49805, 815.70026, 748.898, 814.9007, 750.598, 814.30066);
        ((GeneralPath) shape).curveTo(756.598, 812.10065, 762.299, 809.29944, 767.299, 805.0995);
        ((GeneralPath) shape).curveTo(768.049, 804.4995, 768.624, 804.2253, 769.174, 804.27527);
        ((GeneralPath) shape).closePath();
        ((GeneralPath) shape).moveTo(723.3929, 807.3455);
        ((GeneralPath) shape).curveTo(721.2793, 807.43445, 719.2226, 808.9873, 718.6976, 810.9998);
        ((GeneralPath) shape).curveTo(717.99756, 813.2998, 719.3976, 816.00024, 721.6976, 816.9002);
        ((GeneralPath) shape).curveTo(724.5976, 818.0002, 728.1988, 815.6994, 728.39874, 812.5994);
        ((GeneralPath) shape).curveTo(728.59875, 810.1994, 726.69916, 807.80023, 724.29913, 807.4002);
        ((GeneralPath) shape).curveTo(723.99915, 807.3502, 723.6948, 807.3328, 723.3928, 807.3455);
        ((GeneralPath) shape).closePath();
        ((GeneralPath) shape).moveTo(829.9029, 810.98553);
        ((GeneralPath) shape).curveTo(829.231, 810.94806, 828.55676, 811.0097, 827.9068, 811.18475);
        ((GeneralPath) shape).curveTo(825.7068, 811.7847, 823.80597, 813.48474, 823.106, 815.68475);
        ((GeneralPath) shape).curveTo(822.00604, 818.88477, 823.8068, 822.78516, 826.9068, 824.08514);
        ((GeneralPath) shape).curveTo(829.9068, 825.48517, 833.8064, 824.18634, 835.5064, 821.2863);
        ((GeneralPath) shape).curveTo(836.90643, 818.9863, 836.706, 815.7847, 835.106, 813.6847);
        ((GeneralPath) shape).curveTo(833.906, 812.1097, 831.9185, 811.098, 829.9029, 810.9855);
        ((GeneralPath) shape).closePath();
        ((GeneralPath) shape).moveTo(857.2839, 813.8156);
        ((GeneralPath) shape).curveTo(857.5962, 813.8508, 857.98157, 814.0484, 858.5066, 814.3859);
        ((GeneralPath) shape).curveTo(861.0066, 815.8859, 863.5066, 817.38635, 866.0066, 818.7863);
        ((GeneralPath) shape).curveTo(871.4066, 821.7863, 876.9066, 821.88513, 882.5066, 819.08514);
        ((GeneralPath) shape).curveTo(883.4066, 818.6851, 884.2062, 818.18634, 885.1062, 817.7863);
        ((GeneralPath) shape).curveTo(886.5062, 817.18634, 887.2066, 817.6851, 887.0066, 819.08514);
        ((GeneralPath) shape).curveTo(886.5066, 822.38513, 885.90576, 825.7855, 883.7058, 828.48553);
        ((GeneralPath) shape).curveTo(881.50586, 831.18555, 879.20624, 833.98596, 876.6062, 836.3859);
        ((GeneralPath) shape).curveTo(873.8062, 839.08594, 870.8058, 841.68555, 867.2058, 843.48553);
        ((GeneralPath) shape).curveTo(864.10583, 845.0855, 861.0066, 845.88635, 857.5066, 845.7863);
        ((GeneralPath) shape).curveTo(851.8066, 845.68634, 846.60657, 844.1847, 841.5066, 841.1847);
        ((GeneralPath) shape).curveTo(838.60657, 839.3847, 838.60657, 835.3851, 841.5066, 833.5851);
        ((GeneralPath) shape).curveTo(848.60657, 829.0851, 852.8066, 822.4851, 856.0066, 815.0851);
        ((GeneralPath) shape).curveTo(856.4441, 814.1476, 856.76337, 813.75696, 857.2839, 813.8156);
        ((GeneralPath) shape).closePath();
        ((GeneralPath) shape).moveTo(772.6059, 814.3859);
        ((GeneralPath) shape).curveTo(769.5059, 814.4859, 766.60547, 816.7863, 765.7055, 819.7863);
        ((GeneralPath) shape).curveTo(764.8055, 822.9863, 766.4067, 826.7859, 769.4067, 828.3859);
        ((GeneralPath) shape).curveTo(772.00665, 829.78595, 775.5055, 829.38556, 777.7055, 827.48553);
        ((GeneralPath) shape).curveTo(779.9055, 825.38556, 780.8071, 821.9863, 779.8071, 819.2863);
        ((GeneralPath) shape).curveTo(778.8071, 816.3863, 775.70593, 814.2859, 772.60596, 814.3859);
        ((GeneralPath) shape).closePath();
        ((GeneralPath) shape).moveTo(745.7449, 821.89764);
        ((GeneralPath) shape).curveTo(746.1324, 821.91016, 746.5066, 822.2359, 747.0066, 822.8859);
        ((GeneralPath) shape).curveTo(747.60657, 823.58594, 748.00616, 824.38513, 748.6062, 825.08514);
        ((GeneralPath) shape).curveTo(752.2062, 829.28516, 756.4074, 832.88635, 760.8072, 836.28613);
        ((GeneralPath) shape).curveTo(763.5072, 838.3861, 766.8056, 839.4849, 770.20557, 840.08496);
        ((GeneralPath) shape).curveTo(772.80554, 840.58496, 772.40717, 841.48456, 771.8072, 843.1846);
        ((GeneralPath) shape).curveTo(770.8072, 845.6846, 768.6072, 847.0862, 766.8072, 848.7862);
        ((GeneralPath) shape).curveTo(766.6072, 849.0862, 766.2068, 849.1854, 765.9068, 849.4854);
        ((GeneralPath) shape).curveTo(762.0068, 852.7854, 757.4056, 854.0858, 752.7058, 853.3858);
        ((GeneralPath) shape).curveTo(744.9058, 853.7858, 738.3078, 851.185, 732.3078, 847.085);
        ((GeneralPath) shape).curveTo(728.0078, 844.085, 725.707, 839.58624, 724.007, 834.786);
        ((GeneralPath) shape).curveTo(723.90704, 834.386, 723.8078, 833.88525, 723.8078, 833.4852);
        ((GeneralPath) shape).curveTo(723.8078, 832.2852, 724.307, 831.68524, 725.507, 831.9852);
        ((GeneralPath) shape).curveTo(733.607, 833.68524, 738.807, 829.286, 743.507, 823.786);
        ((GeneralPath) shape).curveTo(743.807, 823.486, 744.1074, 823.086, 744.4074, 822.786);
        ((GeneralPath) shape).curveTo(744.9574, 822.18604, 745.3578, 821.8848, 745.7453, 821.89734);
        ((GeneralPath) shape).closePath();
        ((GeneralPath) shape).moveTo(861.5249, 823.1671);
        ((GeneralPath) shape).curveTo(857.8212, 823.3011, 854.2233, 826.21094, 853.6108, 829.8859);
        ((GeneralPath) shape).curveTo(852.91077, 834.1859, 856.3108, 838.5847, 860.6108, 839.18475);
        ((GeneralPath) shape).curveTo(864.91077, 839.68475, 869.21075, 836.186, 869.6108, 831.8859);
        ((GeneralPath) shape).curveTo(870.0108, 827.9859, 867.0108, 823.9863, 863.1108, 823.2863);
        ((GeneralPath) shape).curveTo(862.58575, 823.18634, 862.05396, 823.148, 861.5249, 823.1672);
        ((GeneralPath) shape).closePath();
        ((GeneralPath) shape).moveTo(803.1359, 827.3859);
        ((GeneralPath) shape).curveTo(803.6359, 827.3859, 804.16174, 827.7359, 804.8117, 828.3859);
        ((GeneralPath) shape).curveTo(806.6117, 830.1859, 808.3109, 831.98474, 810.0109, 833.68475);
        ((GeneralPath) shape).curveTo(815.5109, 839.18475, 822.1109, 840.68555, 829.5109, 838.98553);
        ((GeneralPath) shape).curveTo(829.8109, 838.88556, 830.11176, 838.7863, 830.3117, 838.7863);
        ((GeneralPath) shape).curveTo(831.1117, 838.7863, 831.8109, 838.78595, 832.5109, 838.8859);
        ((GeneralPath) shape).curveTo(832.41095, 839.58594, 832.51013, 840.28595, 832.21014, 840.8859);
        ((GeneralPath) shape).curveTo(827.8101, 849.58594, 820.8101, 855.28595, 811.71014, 858.4859);
        ((GeneralPath) shape).curveTo(810.01013, 859.0859, 808.21136, 859.1863, 806.9113, 859.3863);
        ((GeneralPath) shape).curveTo(799.81134, 858.7863, 793.2103, 858.1859, 787.6103, 853.9859);
        ((GeneralPath) shape).curveTo(784.1103, 851.1859, 780.9107, 847.8859, 778.0107, 844.4859);
        ((GeneralPath) shape).curveTo(775.61066, 841.7859, 776.10986, 840.8851, 779.7099, 840.6851);
        ((GeneralPath) shape).curveTo(784.5099, 840.38513, 788.6099, 838.0863, 792.7099, 835.8863);
        ((GeneralPath) shape).curveTo(796.1099, 833.98627, 799.2103, 831.5859, 801.6103, 828.4859);
        ((GeneralPath) shape).curveTo(802.1603, 827.7359, 802.6357, 827.3863, 803.1357, 827.3863);
        ((GeneralPath) shape).closePath();
        ((GeneralPath) shape).moveTo(746.0739, 832.7863);
        ((GeneralPath) shape).curveTo(744.0864, 832.81134, 742.11224, 833.58514, 740.8122, 835.08514);
        ((GeneralPath) shape).curveTo(738.2122, 838.1851, 739.0118, 843.38513, 742.4118, 845.58514);
        ((GeneralPath) shape).curveTo(745.2118, 847.38513, 749.411, 846.7847, 751.611, 844.18475);
        ((GeneralPath) shape).curveTo(753.711, 841.7847, 753.6118, 837.48553, 751.4118, 834.98553);
        ((GeneralPath) shape).curveTo(750.0618, 833.48553, 748.0614, 832.76135, 746.0739, 832.7863);
        ((GeneralPath) shape).closePath();
        ((GeneralPath) shape).moveTo(803.06793, 836.11444);
        ((GeneralPath) shape).curveTo(802.28046, 836.0972, 801.48553, 836.1859, 800.7105, 836.3859);
        ((GeneralPath) shape).curveTo(796.8105, 837.3859, 793.9109, 841.3859, 794.1109, 845.3859);
        ((GeneralPath) shape).curveTo(794.3109, 849.3859, 797.7109, 852.9851, 801.6109, 853.58514);
        ((GeneralPath) shape).curveTo(805.6109, 854.1851, 809.8109, 851.58636, 811.1109, 847.7863);
        ((GeneralPath) shape).curveTo(812.2109, 844.7863, 811.4121, 841.2859, 809.3121, 838.8859);
        ((GeneralPath) shape).curveTo(807.73706, 837.16095, 805.43036, 836.166, 803.0679, 836.11444);
        ((GeneralPath) shape).closePath();
        ((GeneralPath) shape).moveTo(837.21094, 845.29803);
        ((GeneralPath) shape).curveTo(837.5609, 845.23553, 837.96173, 845.4359, 838.5117, 845.8859);
        ((GeneralPath) shape).curveTo(844.5117, 851.08594, 851.6117, 853.18634, 859.41174, 853.2863);
        ((GeneralPath) shape).curveTo(862.31177, 853.2863, 862.51215, 853.5863, 861.31213, 856.2863);
        ((GeneralPath) shape).curveTo(859.71216, 859.9863, 857.31055, 863.08514, 854.7105, 866.08514);
        ((GeneralPath) shape).curveTo(853.8105, 867.08514, 852.6117, 867.98474, 851.4117, 868.68475);
        ((GeneralPath) shape).curveTo(845.4117, 872.48474, 838.9107, 874.88477, 832.11066, 876.68475);
        ((GeneralPath) shape).curveTo(831.31067, 876.88477, 830.4111, 876.98474, 829.01105, 877.18475);
        ((GeneralPath) shape).curveTo(827.51105, 876.7847, 825.5106, 876.28516, 823.61066, 875.58514);
        ((GeneralPath) shape).curveTo(819.91064, 874.1851, 816.1119, 872.7847, 813.31165, 869.68475);
        ((GeneralPath) shape).curveTo(813.01166, 869.48474, 812.8104, 869.2855, 812.6105, 868.98553);
        ((GeneralPath) shape).curveTo(811.0105, 867.0855, 811.3105, 866.08636, 813.6105, 865.2863);
        ((GeneralPath) shape).curveTo(822.21045, 862.18634, 829.0115, 856.7855, 834.4115, 849.4853);
        ((GeneralPath) shape).curveTo(835.1115, 848.4853, 835.6103, 847.3861, 836.2103, 846.2861);
        ((GeneralPath) shape).curveTo(836.5603, 845.6861, 836.86035, 845.3603, 837.2103, 845.2978);
        ((GeneralPath) shape).closePath();
        ((GeneralPath) shape).moveTo(774.5999, 847.5988);
        ((GeneralPath) shape).curveTo(774.93744, 847.6113, 775.2612, 847.9351, 775.71124, 848.58514);
        ((GeneralPath) shape).curveTo(778.61127, 853.1851, 782.7128, 856.8859, 786.81323, 860.38617);
        ((GeneralPath) shape).curveTo(790.6132, 863.5862, 795.4116, 864.685, 800.21124, 865.685);
        ((GeneralPath) shape).curveTo(801.3112, 865.985, 802.51166, 866.08655, 803.61163, 866.28656);
        ((GeneralPath) shape).curveTo(805.2116, 866.58655, 805.71204, 867.4866, 804.512, 868.78656);
        ((GeneralPath) shape).curveTo(803.21204, 870.1866, 801.7116, 871.6866, 800.11163, 872.78656);
        ((GeneralPath) shape).curveTo(795.2116, 875.9866, 789.71265, 878.0854, 783.8126, 879.0854);
        ((GeneralPath) shape).curveTo(777.8126, 880.0854, 772.01263, 879.28656, 766.4126, 877.28656);
        ((GeneralPath) shape).curveTo(759.2126, 874.6866, 754.0126, 869.58575, 749.3126, 863.98553);
        ((GeneralPath) shape).curveTo(748.71265, 863.2855, 748.2122, 862.38556, 747.91223, 861.48553);
        ((GeneralPath) shape).curveTo(747.5122, 860.38556, 748.0114, 859.88635, 749.11145, 859.7863);
        ((GeneralPath) shape).curveTo(750.41144, 859.68634, 751.81146, 859.7863, 753.61145, 859.7863);
        ((GeneralPath) shape).curveTo(760.91144, 860.5863, 766.41144, 856.5847, 771.2114, 851.1847);
        ((GeneralPath) shape).curveTo(772.0114, 850.3847, 772.71265, 849.3855, 773.4126, 848.4855);
        ((GeneralPath) shape).curveTo(773.9126, 847.8855, 774.2626, 847.58624, 774.6001, 847.59875);
        ((GeneralPath) shape).closePath();
        ((GeneralPath) shape).moveTo(839.11194, 856.2863);
        ((GeneralPath) shape).curveTo(836.81195, 856.2863, 834.51154, 857.58514, 833.21155, 859.58514);
        ((GeneralPath) shape).curveTo(832.01154, 861.58514, 831.81274, 864.18634, 832.9127, 866.2863);
        ((GeneralPath) shape).curveTo(834.31274, 869.18634, 838.1115, 870.7863, 841.21155, 869.7863);
        ((GeneralPath) shape).curveTo(844.3116, 868.7863, 846.4127, 865.38513, 845.9127, 862.08514);
        ((GeneralPath) shape).curveTo(845.4127, 858.88513, 842.3119, 856.2863, 839.11194, 856.2863);
        ((GeneralPath) shape).closePath();
        ((GeneralPath) shape).moveTo(774.7429, 858.41724);
        ((GeneralPath) shape).curveTo(770.89, 858.28906, 767.0749, 861.33527, 766.5124, 865.08527);
        ((GeneralPath) shape).curveTo(765.8124, 869.18524, 768.9124, 873.48486, 773.0124, 874.1849);
        ((GeneralPath) shape).curveTo(777.2124, 874.8849, 781.6116, 871.58606, 782.2116, 867.38605);
        ((GeneralPath) shape).curveTo(782.7116, 863.2861, 779.5124, 859.08563, 775.5124, 858.48566);
        ((GeneralPath) shape).curveTo(775.25616, 858.4482, 774.9997, 858.42584, 774.7429, 858.41724);
        ((GeneralPath) shape).closePath();
        ((GeneralPath) shape).moveTo(807.7509, 872.37225);
        ((GeneralPath) shape).curveTo(808.1134, 872.35974, 808.463, 872.58514, 808.913, 873.08514);
        ((GeneralPath) shape).curveTo(810.913, 875.38513, 813.5134, 876.78595, 816.3134, 877.8859);
        ((GeneralPath) shape).curveTo(818.9134, 878.8859, 821.5122, 879.88635, 824.11224, 880.7863);
        ((GeneralPath) shape).curveTo(825.31226, 881.18634, 826.61304, 881.28516, 827.913, 881.58514);
        ((GeneralPath) shape).curveTo(828.513, 881.78516, 829.21344, 882.0863, 829.8134, 882.2863);
        ((GeneralPath) shape).curveTo(829.4134, 882.7863, 829.11224, 883.4859, 828.61224, 883.8859);
        ((GeneralPath) shape).curveTo(826.81226, 885.28595, 824.91266, 886.68634, 823.01263, 887.7863);
        ((GeneralPath) shape).curveTo(817.91266, 890.7863, 812.7136, 893.38513, 806.81366, 894.08514);
        ((GeneralPath) shape).curveTo(805.0137, 894.28516, 803.11206, 894.28595, 801.21204, 894.3859);
        ((GeneralPath) shape).curveTo(796.41205, 894.3859, 791.61285, 893.7863, 787.01306, 892.2863);
        ((GeneralPath) shape).curveTo(784.7131, 891.4863, 782.61304, 890.2847, 780.51306, 889.1847);
        ((GeneralPath) shape).curveTo(780.01306, 888.8847, 779.51263, 888.38586, 779.1127, 887.88586);
        ((GeneralPath) shape).curveTo(778.5127, 887.18585, 778.71265, 886.58624, 779.6127, 886.28625);
        ((GeneralPath) shape).curveTo(779.91266, 886.1863, 780.3127, 886.1847, 780.6127, 886.1847);
        ((GeneralPath) shape).curveTo(789.1127, 885.28467, 796.6127, 882.0859, 803.0127, 876.38586);
        ((GeneralPath) shape).curveTo(804.2127, 875.38586, 805.3127, 874.18506, 806.5127, 873.0851);
        ((GeneralPath) shape).curveTo(807.0127, 872.6351, 807.3885, 872.3847, 807.751, 872.3722);
        ((GeneralPath) shape).closePath();
        ((GeneralPath) shape).moveTo(807.3134, 878.9114);
        ((GeneralPath) shape).curveTo(805.7634, 878.9864, 804.263, 879.6856, 803.413, 880.9856);
        ((GeneralPath) shape).curveTo(801.31305, 880.6856, 799.41345, 882.686, 799.3134, 884.886);
        ((GeneralPath) shape).curveTo(799.3134, 886.98596, 800.7122, 888.88556, 802.61224, 889.9856);
        ((GeneralPath) shape).curveTo(805.31226, 891.4856, 809.01184, 891.1856, 811.21185, 888.9856);
        ((GeneralPath) shape).curveTo(813.41187, 886.7856, 813.6127, 882.7852, 811.51263, 880.5852);
        ((GeneralPath) shape).curveTo(810.46265, 879.3852, 808.86346, 878.8364, 807.3134, 878.9114);
        ((GeneralPath) shape).closePath();

        g.setPaint(new Color(0xDBCEC5));
        g.fill(shape);
        transformations.push(g.getTransform());
        g.transform(new AffineTransform(1, 0, 0, 1, 1200, 0));

        // _0_0_0_2

        // _0_0_0_2_0

        // _0_0_0_2_0_0
        shape = new GeneralPath();
        ((GeneralPath) shape).moveTo(-444.1, 715.63);
        ((GeneralPath) shape).curveTo(-452.3261, 714.93335, -459.68402, 721.5029, -460.332, 729.626);
        ((GeneralPath) shape).curveTo(-461.04123, 738.1758, -463.2189, 749.49896, -454.9433, 755.222);
        ((GeneralPath) shape).curveTo(-445.5129, 761.11346, -433.9613, 756.16254, -425.1703, 751.4532);
        ((GeneralPath) shape).curveTo(-419.70657, 748.06586, -412.6333, 746.983, -407.79428, 742.72);
        ((GeneralPath) shape).curveTo(-406.03027, 738.52856, -409.1377, 733.81384, -407.6439, 729.394);
        ((GeneralPath) shape).curveTo(-406.90213, 722.2176, -415.6459, 720.83057, -420.70288, 719.107);
        ((GeneralPath) shape).curveTo(-428.25677, 716.7277, -436.15488, 715.27997, -444.09888, 715.6304);
        ((GeneralPath) shape).closePath();

        g.setPaint(new Color(0xAA4400));
        g.fill(shape);

        // _0_0_0_2_0_1
        shape = new GeneralPath();
        ((GeneralPath) shape).moveTo(-352.53, 713.88);
        ((GeneralPath) shape).curveTo(-362.2238, 715.4027, -372.331, 717.3508, -380.893, 722.128);
        ((GeneralPath) shape).curveTo(-385.9046, 726.53076, -382.2867, 733.725, -384.16452, 739.321);
        ((GeneralPath) shape).curveTo(-383.22574, 745.1054, -375.53043, 745.169, -371.35852, 747.50006);
        ((GeneralPath) shape).curveTo(-363.0873, 749.56903, -354.90152, 757.2021, -345.98853, 753.03186);
        ((GeneralPath) shape).curveTo(-341.80383, 751.35156, -338.82364, 747.44727, -338.07254, 743.02985);
        ((GeneralPath) shape).curveTo(-338.36502, 739.7399, -336.48035, 742.5335, -337.47516, 738.84216);
        ((GeneralPath) shape).curveTo(-336.93546, 730.23645, -337.37857, 718.7162, -346.57645, 714.76416);
        ((GeneralPath) shape).curveTo(-348.45566, 713.999, -350.51526, 713.77893, -352.52954, 713.8794);
        ((GeneralPath) shape).closePath();

        g.fill(shape);

        // _0_0_0_2_0_2
        shape = new GeneralPath();
        ((GeneralPath) shape).moveTo(-396.26, 723.72);
        ((GeneralPath) shape).curveTo(-400.3019, 723.59186, -406.2005, 724.77856, -405.8284, 730.0032);
        ((GeneralPath) shape).curveTo(-406.06946, 734.59375, -404.8981, 741.4612, -398.9417, 741.3152);
        ((GeneralPath) shape).curveTo(-394.1777, 741.72284, -386.1167, 742.8056, -385.1997, 736.1726);
        ((GeneralPath) shape).curveTo(-383.9382, 730.9018, -386.2796, 723.6986, -392.686, 723.8156);
        ((GeneralPath) shape).curveTo(-393.8747, 723.7325, -395.0704, 723.72943, -396.2602, 723.7199);
        ((GeneralPath) shape).closePath();

        g.fill(shape);

        // _0_0_0_2_1
        shape = new GeneralPath();
        ((GeneralPath) shape).moveTo(-357.86, 718.21);
        ((GeneralPath) shape).curveTo(-359.75998, 718.21, -361.05917, 719.41003, -361.05917, 721.21);
        ((GeneralPath) shape).curveTo(-361.05917, 723.11005, -359.36, 724.80963, -357.36, 724.80963);
        ((GeneralPath) shape).curveTo(-355.36, 724.80963, -353.8596, 723.3104, -353.9596, 721.6104);
        ((GeneralPath) shape).curveTo(-353.9596, 719.7104, -355.66, 718.21, -357.86, 718.21);
        ((GeneralPath) shape).closePath();
        ((GeneralPath) shape).moveTo(-346.25998, 718.6104);
        ((GeneralPath) shape).curveTo(-348.46, 718.51044, -350.55878, 720.5096, -350.55878, 722.80963);
        ((GeneralPath) shape).curveTo(-350.65878, 724.70966, -348.65878, 726.6104, -346.55878, 726.6104);
        ((GeneralPath) shape).curveTo(-344.55878, 726.6104, -343.05878, 724.8092, -343.05878, 722.40924);
        ((GeneralPath) shape).curveTo(-343.05878, 720.10925, -344.36, 718.6104, -346.25998, 718.6104);
        ((GeneralPath) shape).closePath();
        ((GeneralPath) shape).moveTo(-366.36, 719.90924);
        ((GeneralPath) shape).curveTo(-367.86, 719.90924, -368.9592, 721.00885, -369.05917, 722.50885);
        ((GeneralPath) shape).curveTo(-369.05917, 724.00885, -367.55957, 725.50885, -365.95956, 725.50885);
        ((GeneralPath) shape).curveTo(-364.55957, 725.50885, -363.35995, 724.20966, -363.35995, 722.80963);
        ((GeneralPath) shape).curveTo(-363.35995, 721.4096, -364.75995, 720.0092, -366.35995, 719.90924);
        ((GeneralPath) shape).closePath();
        ((GeneralPath) shape).moveTo(-427.96, 720.1104);
        ((GeneralPath) shape).curveTo(-429.36, 720.2104, -430.6608, 721.6088, -430.7608, 723.0088);
        ((GeneralPath) shape).curveTo(-430.8608, 724.7088, -429.26, 726.31, -427.46, 726.20996);
        ((GeneralPath) shape).curveTo(-425.86, 726.11, -424.7608, 725.00916, -424.7608, 723.4092);
        ((GeneralPath) shape).curveTo(-424.7608, 721.70917, -426.26, 720.11035, -427.96, 720.11035);
        ((GeneralPath) shape).closePath();
        ((GeneralPath) shape).moveTo(-437.22168, 720.25104);
        ((GeneralPath) shape).curveTo(-438.45917, 720.3026, -439.5858, 720.95886, -440.26077, 722.00885);
        ((GeneralPath) shape).curveTo(-441.16077, 723.50885, -440.86, 725.50885, -439.46, 727.00885);
        ((GeneralPath) shape).curveTo(-439.36, 727.1088, -439.2596, 727.30927, -439.0596, 727.40924);
        ((GeneralPath) shape).curveTo(-437.8596, 728.30927, -436.5596, 729.1096, -435.0596, 728.30963);
        ((GeneralPath) shape).curveTo(-433.5596, 727.50964, -433.06, 726.20966, -432.96, 724.80963);
        ((GeneralPath) shape).curveTo(-432.96, 722.70966, -434.25998, 720.90924, -435.96, 720.40924);
        ((GeneralPath) shape).curveTo(-436.38498, 720.28424, -436.8092, 720.2338, -437.22168, 720.25104);
        ((GeneralPath) shape).closePath();
        ((GeneralPath) shape).moveTo(-448.0597, 720.71);
        ((GeneralPath) shape).curveTo(-450.5597, 720.71, -452.25928, 722.11005, -452.1593, 724.21);
        ((GeneralPath) shape).curveTo(-452.0593, 726.71, -450.2605, 728.50885, -447.8605, 728.50885);
        ((GeneralPath) shape).curveTo(-445.6605, 728.50885, -444.1593, 726.80884, -444.1593, 724.50885);
        ((GeneralPath) shape).curveTo(-444.2593, 722.20886, -445.7597, 720.71, -448.0597, 720.71);
        ((GeneralPath) shape).closePath();
        ((GeneralPath) shape).moveTo(-374.4597, 723.1104);
        ((GeneralPath) shape).curveTo(-376.1597, 723.1104, -377.2601, 724.0104, -377.36008, 725.6104);
        ((GeneralPath) shape).curveTo(-377.46008, 728.01044, -375.4593, 730.40924, -373.55927, 730.40924);
        ((GeneralPath) shape).curveTo(-371.95926, 730.40924, -370.76047, 728.80927, -370.76047, 726.90924);
        ((GeneralPath) shape).curveTo(-370.76047, 724.80927, -372.35968, 723.1104, -374.45966, 723.1104);
        ((GeneralPath) shape).closePath();
        ((GeneralPath) shape).moveTo(-420.5597, 725.21);
        ((GeneralPath) shape).curveTo(-422.6597, 725.31, -424.5601, 727.0092, -424.46008, 728.90924);
        ((GeneralPath) shape).curveTo(-424.46008, 730.7092, -422.4597, 732.6104, -420.5597, 732.6104);
        ((GeneralPath) shape).curveTo(-418.7597, 732.6104, -416.96008, 730.5088, -416.96008, 728.5088);
        ((GeneralPath) shape).curveTo(-416.96008, 726.5088, -418.4597, 725.11, -420.5597, 725.20996);
        ((GeneralPath) shape).closePath();
        ((GeneralPath) shape).moveTo(-397.5597, 726.6104);
        ((GeneralPath) shape).curveTo(-398.85968, 726.5104, -400.1609, 727.51, -400.2609, 728.71);
        ((GeneralPath) shape).curveTo(-400.3609, 730.01, -399.2605, 731.2096, -397.8605, 731.30963);
        ((GeneralPath) shape).curveTo(-396.6605, 731.4096, -395.2593, 730.1088, -395.1593, 729.00885);
        ((GeneralPath) shape).curveTo(-395.0593, 727.70886, -396.1597, 726.71045, -397.5597, 726.6105);
        ((GeneralPath) shape).closePath();
        ((GeneralPath) shape).moveTo(-365.8607, 727.30963);
        ((GeneralPath) shape).curveTo(-367.5607, 727.30963, -369.05948, 728.7092, -369.1595, 730.40924);
        ((GeneralPath) shape).curveTo(-369.2595, 732.40924, -367.66028, 734.30963, -365.9603, 734.30963);
        ((GeneralPath) shape).curveTo(-364.3603, 734.30963, -362.9607, 732.70966, -362.8607, 730.80963);
        ((GeneralPath) shape).curveTo(-362.76068, 728.9096, -364.16068, 727.20966, -365.8607, 727.30963);
        ((GeneralPath) shape).closePath();
        ((GeneralPath) shape).moveTo(-356.4603, 727.6104);
        ((GeneralPath) shape).curveTo(-358.5603, 727.5104, -360.0599, 728.90924, -360.0599, 730.90924);
        ((GeneralPath) shape).curveTo(-360.0599, 733.0092, -358.0595, 735.1104, -356.15952, 735.1104);
        ((GeneralPath) shape).curveTo(-354.25952, 735.1104, -352.7611, 733.40924, -352.7611, 731.40924);
        ((GeneralPath) shape).curveTo(-352.6611, 729.30927, -354.2603, 727.6104, -356.4603, 727.6104);
        ((GeneralPath) shape).closePath();
        ((GeneralPath) shape).moveTo(-391.4603, 728.30963);
        ((GeneralPath) shape).curveTo(-392.6603, 728.4096, -393.5599, 729.4088, -393.5599, 730.50885);
        ((GeneralPath) shape).curveTo(-393.4599, 731.80884, -392.5595, 732.6105, -391.15952, 732.6105);
        ((GeneralPath) shape).curveTo(-389.85953, 732.6105, -388.95993, 731.60925, -389.0599, 730.4093);
        ((GeneralPath) shape).curveTo(-389.15988, 729.20935, -390.1603, 728.2097, -391.4603, 728.3097);
        ((GeneralPath) shape).closePath();
        ((GeneralPath) shape).moveTo(-430.5603, 728.90924);
        ((GeneralPath) shape).curveTo(-432.4603, 728.90924, -434.2611, 730.91003, -434.3611, 733.21);
        ((GeneralPath) shape).curveTo(-434.46112, 735.31, -432.7607, 737.40924, -430.96072, 737.40924);
        ((GeneralPath) shape).curveTo(-428.86072, 737.40924, -426.8611, 735.5101, -426.8611, 733.21);
        ((GeneralPath) shape).curveTo(-426.8611, 730.81, -428.46033, 728.90924, -430.5603, 728.90924);
        ((GeneralPath) shape).closePath();
        ((GeneralPath) shape).moveTo(-441.5783, 730.81946);
        ((GeneralPath) shape).curveTo(-442.6799, 730.8105, -443.71112, 731.3347, -444.46112, 732.30963);
        ((GeneralPath) shape).curveTo(-445.8611, 734.00964, -446.06192, 735.6096, -445.2619, 736.80963);
        ((GeneralPath) shape).curveTo(-444.3619, 738.20966, -442.9615, 738.71, -441.3615, 738.21);
        ((GeneralPath) shape).curveTo(-439.6615, 737.71, -438.46112, 736.11005, -438.46112, 734.21);
        ((GeneralPath) shape).curveTo(-438.46112, 732.61005, -439.16113, 731.4088, -440.46112, 731.00885);
        ((GeneralPath) shape).curveTo(-440.83612, 730.88385, -441.21112, 730.8225, -441.5783, 730.8194);
        ((GeneralPath) shape).closePath();
        ((GeneralPath) shape).moveTo(-346.4613, 730.90924);
        ((GeneralPath) shape).curveTo(-348.3613, 730.90924, -349.8617, 732.31006, -349.8617, 734.21);
        ((GeneralPath) shape).curveTo(-349.7617, 736.61005, -347.8621, 738.71, -345.7621, 738.71);
        ((GeneralPath) shape).curveTo(-343.7621, 738.71, -342.3617, 737.21045, -342.3617, 735.1104);
        ((GeneralPath) shape).curveTo(-342.3617, 732.8104, -344.1613, 730.90924, -346.4613, 730.90924);
        ((GeneralPath) shape).closePath();
        ((GeneralPath) shape).moveTo(-449.7013, 731.06354);
        ((GeneralPath) shape).curveTo(-450.84488, 730.9688, -452.0724, 731.4854, -453.2599, 731.6104);
        ((GeneralPath) shape).curveTo(-454.65988, 731.7104, -455.55988, 732.6088, -455.7599, 734.0088);
        ((GeneralPath) shape).curveTo(-455.8599, 734.3088, -455.8595, 734.7088, -455.8595, 735.0088);
        ((GeneralPath) shape).curveTo(-455.7595, 737.5088, -453.5583, 739.4092, -450.6583, 739.4092);
        ((GeneralPath) shape).curveTo(-448.8583, 739.50916, -447.8587, 738.2088, -447.0587, 736.5088);
        ((GeneralPath) shape).curveTo(-446.25867, 734.8088, -446.75986, 733.4104, -447.75986, 732.1104);
        ((GeneralPath) shape).curveTo(-448.35986, 731.3979, -449.01517, 731.12036, -449.70126, 731.06354);
        ((GeneralPath) shape).closePath();
        ((GeneralPath) shape).moveTo(-396.0583, 731.90924);
        ((GeneralPath) shape).curveTo(-397.2583, 731.90924, -398.2595, 733.0101, -398.2595, 734.21);
        ((GeneralPath) shape).curveTo(-398.2595, 735.41, -397.1587, 736.40924, -395.95868, 736.40924);
        ((GeneralPath) shape).curveTo(-394.6587, 736.40924, -393.5583, 735.30884, -393.5583, 734.00885);
        ((GeneralPath) shape).curveTo(-393.45828, 732.70886, -394.45828, 731.90924, -396.0583, 731.90924);
        ((GeneralPath) shape).closePath();
        ((GeneralPath) shape).moveTo(-373.5583, 732.6104);
        ((GeneralPath) shape).curveTo(-375.1583, 732.6104, -376.5583, 733.90924, -376.5583, 735.40924);
        ((GeneralPath) shape).curveTo(-376.5583, 737.2092, -374.95908, 739.1104, -373.3591, 739.1104);
        ((GeneralPath) shape).curveTo(-371.75912, 739.1104, -370.4587, 737.6092, -370.4587, 735.90924);
        ((GeneralPath) shape).curveTo(-370.4587, 734.10925, -371.7583, 732.71045, -373.55832, 732.6104);
        ((GeneralPath) shape).closePath();
        ((GeneralPath) shape).moveTo(-419.6973, 734.43463);
        ((GeneralPath) shape).curveTo(-420.67776, 734.30084, -421.83398, 734.93463, -423.45898, 736.30963);
        ((GeneralPath) shape).curveTo(-424.85898, 737.50964, -425.059, 739.31006, -423.95898, 740.71);
        ((GeneralPath) shape).curveTo(-422.95898, 742.01, -421.2598, 742.6088, -419.7598, 742.00885);
        ((GeneralPath) shape).curveTo(-418.1598, 741.4089, -417.0594, 739.80927, -416.8594, 737.90924);
        ((GeneralPath) shape).curveTo(-417.2594, 737.10925, -417.45862, 736.20886, -418.0586, 735.50885);
        ((GeneralPath) shape).curveTo(-418.5836, 734.87134, -419.109, 734.5149, -419.6973, 734.43463);
        ((GeneralPath) shape).closePath();
        ((GeneralPath) shape).moveTo(-363.85928, 735.80963);
        ((GeneralPath) shape).curveTo(-365.65927, 735.80963, -367.3589, 737.41046, -367.4589, 739.1104);
        ((GeneralPath) shape).curveTo(-367.4589, 741.1104, -365.5597, 743.30963, -363.7597, 743.30963);
        ((GeneralPath) shape).curveTo(-361.8597, 743.4096, -360.3593, 741.7088, -360.3593, 739.50885);
        ((GeneralPath) shape).curveTo(-360.3593, 737.4089, -361.8593, 735.80963, -363.8593, 735.80963);
        ((GeneralPath) shape).closePath();
        ((GeneralPath) shape).moveTo(-353.25928, 739.21);
        ((GeneralPath) shape).curveTo(-355.15927, 739.11005, -356.75928, 740.81, -356.75928, 742.71);
        ((GeneralPath) shape).curveTo(-356.75928, 744.81, -354.65927, 747.1104, -352.75928, 747.1104);
        ((GeneralPath) shape).curveTo(-350.85928, 747.0104, -349.45847, 745.3104, -349.45847, 743.1104);
        ((GeneralPath) shape).curveTo(-349.45847, 740.9104, -351.05927, 739.21, -353.25928, 739.21);
        ((GeneralPath) shape).closePath();
        ((GeneralPath) shape).moveTo(-433.95828, 739.80963);
        ((GeneralPath) shape).curveTo(-436.0583, 739.80963, -437.45868, 741.1088, -437.35867, 743.00885);
        ((GeneralPath) shape).curveTo(-437.35867, 745.4089, -435.25827, 747.50885, -432.95828, 747.50885);
        ((GeneralPath) shape).curveTo(-431.0583, 747.50885, -429.5583, 745.91003, -429.45828, 743.71);
        ((GeneralPath) shape).curveTo(-429.35828, 741.51, -431.25827, 739.80963, -433.95828, 739.80963);
        ((GeneralPath) shape).closePath();
        ((GeneralPath) shape).moveTo(-344.1573, 740.21);
        ((GeneralPath) shape).curveTo(-345.6573, 740.31, -346.8585, 741.6096, -346.8585, 743.30963);
        ((GeneralPath) shape).curveTo(-346.8585, 745.1096, -345.25888, 747.00885, -343.75888, 747.00885);
        ((GeneralPath) shape).curveTo(-342.3589, 746.9089, -340.95807, 745.20886, -340.95807, 743.50885);
        ((GeneralPath) shape).curveTo(-340.95807, 741.80884, -342.65726, 740.11005, -344.15726, 740.21);
        ((GeneralPath) shape).closePath();
        ((GeneralPath) shape).moveTo(-446.51727, 742.1456);
        ((GeneralPath) shape).curveTo(-448.77316, 742.19073, -451.12466, 743.5476, -451.56216, 745.21);
        ((GeneralPath) shape).curveTo(-451.56216, 745.51, -451.66177, 745.70886, -451.66177, 746.00885);
        ((GeneralPath) shape).curveTo(-451.8618, 748.70886, -449.4622, 750.90924, -446.56216, 750.90924);
        ((GeneralPath) shape).curveTo(-444.06216, 750.90924, -442.26178, 749.20966, -442.16177, 746.80963);
        ((GeneralPath) shape).curveTo(-441.96176, 744.50964, -443.4622, 742.51, -445.56216, 742.21);
        ((GeneralPath) shape).curveTo(-445.87466, 742.16003, -446.19498, 742.1391, -446.51724, 742.1456);
        ((GeneralPath) shape).closePath();

        g.setPaint(new Color(0xFFAAAA));
        g.fill(shape);

        // _0_0_0_2_2
        shape = new GeneralPath();
        ((GeneralPath) shape).moveTo(-348.56, 710.11);
        ((GeneralPath) shape).curveTo(-341.86, 711.70996, -336.56, 716.61, -334.46, 723.31);
        ((GeneralPath) shape).curveTo(-333.36, 726.91, -333.36, 731.01, -333.25998, 734.71);
        ((GeneralPath) shape).curveTo(-333.15997, 739.01, -333.46, 743.21, -334.55997, 747.41003);
        ((GeneralPath) shape).curveTo(-336.25998, 753.81006, -341.75998, 759.91003, -348.65997, 760.71);
        ((GeneralPath) shape).curveTo(-356.15997, 761.61005, -361.45996, 756.31, -368.05997, 753.81);
        ((GeneralPath) shape).curveTo(-371.65997, 752.51, -375.15997, 751.31, -378.55997, 749.61);
        ((GeneralPath) shape).curveTo(-381.95996, 747.91, -385.05997, 745.20996, -389.05997, 745.20996);
        ((GeneralPath) shape).curveTo(-390.85995, 745.20996, -392.65997, 745.61, -394.55997, 745.61);
        ((GeneralPath) shape).curveTo(-396.45996, 745.61, -398.35995, 745.41, -400.15997, 745.51);
        ((GeneralPath) shape).curveTo(-404.05997, 745.81, -408.25998, 748.91003, -411.75998, 750.61);
        ((GeneralPath) shape).curveTo(-419.25998, 754.31, -426.75998, 758.31, -434.55997, 761.41);
        ((GeneralPath) shape).curveTo(-440.75998, 763.91, -450.65997, 764.50995, -456.35995, 760.50995);
        ((GeneralPath) shape).curveTo(-461.95996, 756.6099, -465.25995, 751.1099, -465.25995, 744.30994);
        ((GeneralPath) shape).curveTo(-465.25995, 736.4099, -464.85995, 728.6099, -462.05994, 721.1099);
        ((GeneralPath) shape).curveTo(-456.85992, 707.80994, -436.75995, 709.30994, -425.65994, 712.1099);
        ((GeneralPath) shape).curveTo(-419.35995, 713.7099, -412.45993, 716.1099, -408.35995, 721.4099);
        ((GeneralPath) shape).curveTo(-407.75995, 722.2099, -406.95996, 723.7099, -405.75995, 723.7099);
        ((GeneralPath) shape).curveTo(-404.25995, 723.6099, -402.75995, 722.4099, -401.35995, 722.0099);
        ((GeneralPath) shape).curveTo(-397.85995, 720.8099, -394.05997, 720.7099, -390.45996, 721.2099);
        ((GeneralPath) shape).curveTo(-388.95996, 721.4099, -386.95996, 722.3099, -385.55997, 721.6099);
        ((GeneralPath) shape).curveTo(-384.15997, 720.91, -382.95996, 719.4099, -381.55997, 718.6099);
        ((GeneralPath) shape).curveTo(-378.65997, 716.9099, -375.35995, 715.80994, -372.15997, 714.9099);
        ((GeneralPath) shape).curveTo(-364.36, 712.7099, -356.45996, 710.1099, -348.55997, 710.1099);
        ((GeneralPath) shape).curveTo(-344.85995, 711.00995, -350.05997, 710.1099, -348.55997, 710.1099);
        ((GeneralPath) shape).closePath();
        ((GeneralPath) shape).moveTo(-440.46, 717.61);
        ((GeneralPath) shape).curveTo(-445.36, 717.61, -449.96, 717.41, -453.86, 720.81);
        ((GeneralPath) shape).curveTo(-458.65997, 725.01, -458.75998, 732.11, -458.96, 738.01);
        ((GeneralPath) shape).curveTo(-459.16, 743.91003, -459.36, 748.81, -454.66, 752.91003);
        ((GeneralPath) shape).curveTo(-450.46, 756.61005, -443.16, 756.31006, -438.06, 754.91003);
        ((GeneralPath) shape).curveTo(-434.86, 754.01, -431.76, 752.31006, -428.76, 750.91003);
        ((GeneralPath) shape).curveTo(-425.26, 749.31006, -421.86002, 747.71, -418.36002, 746.11005);
        ((GeneralPath) shape).curveTo(-416.76, 745.41003, -415.16, 744.71, -413.66, 743.91003);
        ((GeneralPath) shape).curveTo(-412.36002, 743.31006, -410.26, 742.81006, -409.46, 741.61005);
        ((GeneralPath) shape).curveTo(-408.86, 740.71, -409.25998, 739.5101, -409.46, 738.61005);
        ((GeneralPath) shape).curveTo(-409.75998, 736.71, -409.96, 734.91003, -409.96, 733.0101);
        ((GeneralPath) shape).curveTo(-409.96, 730.31006, -408.66, 727.11005, -411.16, 725.11005);
        ((GeneralPath) shape).curveTo(-413.56, 723.21, -417.16, 722.41003, -420.06, 721.41003);
        ((GeneralPath) shape).curveTo(-426.56, 719.31006, -433.46, 717.71, -440.46, 717.61005);
        ((GeneralPath) shape).curveTo(-441.86, 717.61005, -431.06, 717.71, -440.46, 717.61005);
        ((GeneralPath) shape).closePath();
        ((GeneralPath) shape).moveTo(-339.46, 733.81);
        ((GeneralPath) shape).curveTo(-339.46, 728.81, -339.66, 724.31, -342.86, 720.11);
        ((GeneralPath) shape).curveTo(-346.46, 715.51, -350.96, 715.31, -356.36, 716.41);
        ((GeneralPath) shape).curveTo(-362.25998, 717.61, -368.25998, 719.00995, -373.96, 721.11);
        ((GeneralPath) shape).curveTo(-376.06, 721.91, -378.75998, 722.51, -380.25998, 724.31);
        ((GeneralPath) shape).curveTo(-381.86, 726.11, -381.75998, 728.61, -381.55997, 730.81);
        ((GeneralPath) shape).curveTo(-381.45996, 732.11, -381.35995, 733.41, -381.45996, 734.71);
        ((GeneralPath) shape).curveTo(-381.55997, 736.21, -382.15997, 737.81, -382.15997, 739.31);
        ((GeneralPath) shape).curveTo(-382.15997, 741.71, -377.65997, 742.91, -375.86, 743.61);
        ((GeneralPath) shape).curveTo(-370.25998, 746.01, -364.36, 747.51, -358.96, 750.41);
        ((GeneralPath) shape).curveTo(-353.66, 753.11, -347.75998, 753.00995, -343.16, 748.81);
        ((GeneralPath) shape).curveTo(-339.56, 745.51, -339.16, 738.31, -339.46, 733.81);
        ((GeneralPath) shape).curveTo(-339.46, 732.31, -339.25998, 737.31, -339.46, 733.81);
        ((GeneralPath) shape).closePath();
        ((GeneralPath) shape).moveTo(-396.06, 725.71);
        ((GeneralPath) shape).curveTo(-396.06, 725.71, -401.16, 726.21, -401.86, 726.51);
        ((GeneralPath) shape).curveTo(-403.86, 727.41003, -403.96, 729.51, -403.75998, 731.41003);
        ((GeneralPath) shape).curveTo(-403.55997, 733.41003, -403.55997, 736.61005, -402.05997, 738.11005);
        ((GeneralPath) shape).curveTo(-400.55997, 739.71, -397.15997, 739.31006, -395.15997, 739.41003);
        ((GeneralPath) shape).curveTo(-393.25998, 739.51, -390.65997, 739.91003, -388.95996, 738.81006);
        ((GeneralPath) shape).curveTo(-387.05997, 737.61005, -386.95996, 735.11005, -387.05997, 733.11005);
        ((GeneralPath) shape).curveTo(-387.05997, 731.0101, -387.25998, 728.61005, -388.95996, 727.21);
        ((GeneralPath) shape).curveTo(-390.95996, 725.51, -393.65997, 725.81, -396.05997, 725.71);
        ((GeneralPath) shape).curveTo(-396.05997, 725.71, -394.65997, 725.81, -396.05997, 725.71);
        ((GeneralPath) shape).closePath();

        g.fill(shape);

        g.setTransform(transformations.pop()); // _0_0_0_2

        // _0_0_0_3

        // _0_0_0_3_0
        shape = new GeneralPath();
        ((GeneralPath) shape).moveTo(679.8, 715.1);
        ((GeneralPath) shape).curveTo(678.8, 713.1, 678.1, 709.19995, 678.2, 706.69995);
        ((GeneralPath) shape).curveTo(678.3, 705.19995, 678.4, 703.6, 678.5, 702.19995);
        ((GeneralPath) shape).lineTo(678.8, 697.69995);
        ((GeneralPath) shape).curveTo(679.1, 695.19995, 680.39996, 691.6, 680.89996, 689.39996);
        ((GeneralPath) shape).curveTo(681.19995, 687.99994, 681.1, 686.69995, 679.69995, 685.8);
        ((GeneralPath) shape).curveTo(676.39996, 683.6, 671.2999, 690.8, 672.39996, 683.0);
        ((GeneralPath) shape).curveTo(672.89996, 679.5, 673.19995, 675.8, 673.69995, 672.2);
        ((GeneralPath) shape).curveTo(674.6, 666.3, 678.19995, 659.2, 679.19995, 655.60004);
        ((GeneralPath) shape).curveTo(679.89996, 653.10004, 679.49994, 651.2, 675.69995, 652.2);
        ((GeneralPath) shape).curveTo(671.99994, 653.2, 675.99994, 637.2, 676.69995, 635.3);
        ((GeneralPath) shape).curveTo(677.69995, 632.7, 678.99994, 630.3, 680.6, 628.1);
        ((GeneralPath) shape).curveTo(682.0, 626.19995, 684.19995, 624.6, 685.39996, 622.5);
        ((GeneralPath) shape).curveTo(687.1, 619.5, 683.3, 619.2, 681.49994, 619.7);
        ((GeneralPath) shape).curveTo(677.39996, 620.8, 678.2999, 618.4, 680.49994, 615.9);
        ((GeneralPath) shape).curveTo(682.69995, 613.5, 684.99994, 611.2, 687.0999, 608.7);
        ((GeneralPath) shape).curveTo(688.99994, 606.5, 690.3999, 603.9, 692.5999, 602.0);
        ((GeneralPath) shape).curveTo(695.3999, 599.6, 706.1999, 594.7, 696.99994, 593.4);
        ((GeneralPath) shape).curveTo(692.89996, 592.80005, 703.5999, 586.4, 704.49994, 585.80005);
        ((GeneralPath) shape).curveTo(706.49994, 584.60004, 714.39996, 580.7001, 712.99994, 577.4);
        ((GeneralPath) shape).curveTo(711.0999, 572.9, 705.19995, 571.5, 700.89996, 571.7);
        ((GeneralPath) shape).curveTo(698.1, 571.8, 695.3, 571.9, 692.49994, 572.2);
        ((GeneralPath) shape).curveTo(690.99994, 572.4, 689.49994, 572.8, 687.99994, 573.10004);
        ((GeneralPath) shape).curveTo(685.49994, 573.60004, 684.89996, 570.4, 688.49994, 569.00006);
        ((GeneralPath) shape).curveTo(690.7999, 568.10004, 693.39996, 567.7001, 695.2999, 567.50006);
        ((GeneralPath) shape).curveTo(696.3999, 567.4001, 697.2999, 566.80005, 697.69995, 566.00006);
        ((GeneralPath) shape).curveTo(698.49994, 564.60004, 696.6, 562.00006, 694.89996, 561.4001);
        ((GeneralPath) shape).curveTo(693.8, 561.00006, 692.69995, 560.8001, 691.8, 560.6001);
        ((GeneralPath) shape).curveTo(685.89996, 559.0001, 694.39996, 556.3001, 696.5, 555.7001);
        ((GeneralPath) shape).curveTo(699.2, 554.9001, 702.0, 554.4001, 704.8, 554.4001);
        ((GeneralPath) shape).curveTo(706.7, 554.4001, 709.8, 555.00006, 710.1, 552.3001);
        ((GeneralPath) shape).curveTo(710.19995, 551.5001, 708.89996, 548.9001, 710.1, 548.5001);
        ((GeneralPath) shape).curveTo(712.19995, 547.8001, 715.1, 548.5001, 717.3, 548.70013);
        ((GeneralPath) shape).curveTo(720.0, 549.0001, 722.7, 549.3001, 725.3, 549.60016);
        ((GeneralPath) shape).curveTo(729.7, 550.20013, 736.8, 551.70013, 740.89996, 553.20013);
        ((GeneralPath) shape).curveTo(743.39996, 554.10016, 745.89996, 555.20013, 748.3, 556.20013);
        ((GeneralPath) shape).curveTo(749.7, 556.8001, 752.39996, 557.40015, 753.3, 558.8001);
        ((GeneralPath) shape).curveTo(754.7, 561.0001, 756.7, 561.5001, 759.0, 560.6001);
        ((GeneralPath) shape).curveTo(763.4, 558.8001, 770.2, 559.2001, 774.9, 559.0001);
        ((GeneralPath) shape).curveTo(780.80005, 558.70013, 786.7, 558.6001, 792.60004, 558.3001);
        ((GeneralPath) shape).curveTo(798.4, 558.0001, 804.30005, 557.4001, 810.10004, 557.9001);
        ((GeneralPath) shape).curveTo(816.30005, 558.4001, 822.2, 560.00006, 828.2, 561.6001);
        ((GeneralPath) shape).curveTo(833.3, 563.0001, 838.8, 564.0001, 843.9, 561.8001);
        ((GeneralPath) shape).curveTo(848.7, 559.70013, 852.5, 557.20013, 857.7, 556.0001);
        ((GeneralPath) shape).curveTo(863.4, 554.70013, 869.10004, 554.70013, 874.8, 554.6001);
        ((GeneralPath) shape).curveTo(877.7, 554.6001, 880.6, 554.5001, 883.6, 554.5001);
        ((GeneralPath) shape).curveTo(884.89996, 554.5001, 886.3, 554.3001, 887.69995, 554.3001);
        ((GeneralPath) shape).curveTo(889.99994, 554.3001, 888.7999, 556.5001, 885.2999, 558.1001);
        ((GeneralPath) shape).curveTo(882.69995, 559.3001, 880.5999, 560.8001, 881.99994, 563.3001);
        ((GeneralPath) shape).curveTo(882.5999, 564.3001, 883.69995, 564.8001, 884.99994, 565.1001);
        ((GeneralPath) shape).curveTo(886.89996, 565.5001, 889.7999, 565.8001, 891.39996, 566.1001);
        ((GeneralPath) shape).curveTo(892.8, 566.4001, 893.99994, 566.9001, 893.3, 567.5001);
        ((GeneralPath) shape).curveTo(892.3, 568.20013, 890.1, 569.0001, 888.5, 570.0001);
        ((GeneralPath) shape).curveTo(886.0, 571.70013, 888.7, 575.3001, 890.1, 575.6001);
        ((GeneralPath) shape).curveTo(891.0, 575.8001, 891.89996, 575.9001, 892.69995, 576.0001);
        ((GeneralPath) shape).curveTo(893.89996, 576.3001, 895.19995, 576.70013, 896.2999, 577.20013);
        ((GeneralPath) shape).curveTo(898.19995, 578.10016, 900.69995, 580.0001, 901.7999, 581.3001);
        ((GeneralPath) shape).curveTo(902.49994, 582.1001, 903.0999, 583.0001, 903.2999, 584.0001);
        ((GeneralPath) shape).curveTo(903.7999, 586.3001, 899.7999, 585.20013, 898.49994, 585.0001);
        ((GeneralPath) shape).curveTo(893.49994, 584.3001, 887.89996, 582.5001, 882.7999, 583.8001);
        ((GeneralPath) shape).curveTo(877.7999, 585.0001, 876.19995, 588.8001, 876.99994, 593.4001);
        ((GeneralPath) shape).curveTo(877.2999, 595.3001, 876.99994, 597.3001, 877.99994, 599.1001);
        ((GeneralPath) shape).curveTo(879.39996, 601.7001, 882.0999, 604.0001, 884.2999, 606.0001);
        ((GeneralPath) shape).curveTo(885.19995, 606.90015, 886.19995, 607.6001, 887.2999, 608.40015);
        ((GeneralPath) shape).curveTo(888.99994, 609.70013, 891.8999, 611.70013, 890.99994, 612.40015);
        ((GeneralPath) shape).curveTo(890.5999, 612.70013, 889.7999, 612.90015, 889.0999, 613.40015);
        ((GeneralPath) shape).curveTo(885.7999, 615.8002, 892.3999, 622.10016, 893.7999, 623.90015);
        ((GeneralPath) shape).curveTo(895.19995, 625.8002, 902.2999, 634.40015, 898.7999, 636.0001);
        ((GeneralPath) shape).curveTo(894.19995, 638.1001, 899.0999, 645.0001, 900.3999, 647.90015);
        ((GeneralPath) shape).curveTo(902.5999, 652.90015, 904.9999, 657.8002, 907.3999, 662.70013);
        ((GeneralPath) shape).curveTo(909.1999, 666.5001, 901.2999, 664.90015, 905.0999, 670.10016);
        ((GeneralPath) shape).curveTo(908.0999, 674.3002, 910.7999, 678.0002, 912.2999, 683.0002);
        ((GeneralPath) shape).curveTo(912.8999, 685.10016, 913.5999, 687.7002, 913.99994, 690.3002);
        ((GeneralPath) shape).curveTo(914.5999, 694.40015, 912.19995, 696.5002, 910.39996, 695.0002);
        ((GeneralPath) shape).curveTo(908.99994, 693.9002, 907.6, 693.10016, 906.69995, 693.8002);
        ((GeneralPath) shape).curveTo(905.6, 694.7002, 906.49994, 696.60016, 906.69995, 697.7002);
        ((GeneralPath) shape).curveTo(906.99994, 699.4002, 906.39996, 700.8002, 905.69995, 702.3002);
        ((GeneralPath) shape).curveTo(904.39996, 705.40015, 901.89996, 702.8002, 900.2999, 701.3002);
        ((GeneralPath) shape).curveTo(897.8999, 699.10016, 895.8999, 697.5002, 893.0999, 700.2002);
        ((GeneralPath) shape).curveTo(892.2999, 701.0002, 891.2999, 702.1002, 890.2999, 703.2002);
        ((GeneralPath) shape).curveTo(888.69995, 704.8002, 885.3999, 705.8002, 883.5999, 704.9002);
        ((GeneralPath) shape).curveTo(882.3999, 704.30023, 881.2999, 703.4002, 880.49994, 703.0002);
        ((GeneralPath) shape).curveTo(878.0999, 701.60016, 875.89996, 699.8002, 872.99994, 700.60016);
        ((GeneralPath) shape).curveTo(869.7999, 701.5002, 866.99994, 704.3002, 864.2999, 706.10016);
        ((GeneralPath) shape).curveTo(858.7999, 709.90015, 857.2999, 700.8002, 851.3999, 701.90015);
        ((GeneralPath) shape).curveTo(848.6999, 702.40015, 847.1999, 704.90015, 845.7999, 707.0001);
        ((GeneralPath) shape).curveTo(843.19995, 710.70013, 842.8999, 708.5001, 839.49994, 707.40015);
        ((GeneralPath) shape).curveTo(830.2999, 704.3002, 826.5999, 719.90015, 821.7999, 724.8002);
        ((GeneralPath) shape).curveTo(815.99994, 730.60016, 812.2999, 714.3002, 809.99994, 711.10016);
        ((GeneralPath) shape).curveTo(806.7999, 706.8002, 802.19995, 711.40015, 801.49994, 715.10016);
        ((GeneralPath) shape).curveTo(800.89996, 718.60016, 801.19995, 724.5002, 796.2999, 724.8002);
        ((GeneralPath) shape).curveTo(789.2999, 725.3002, 785.69995, 713.0002, 781.49994, 709.0002);
        ((GeneralPath) shape).curveTo(777.39996, 705.2002, 772.0999, 707.8002, 768.2999, 710.60016);
        ((GeneralPath) shape).curveTo(765.3999, 712.70013, 764.8999, 710.8002, 763.5999, 708.3002);
        ((GeneralPath) shape).curveTo(761.7999, 704.90015, 758.6999, 706.10016, 755.99994, 707.7002);
        ((GeneralPath) shape).curveTo(749.7999, 711.2002, 750.89996, 703.8002, 746.99994, 700.9002);
        ((GeneralPath) shape).curveTo(742.0999, 697.30023, 736.69995, 704.9002, 733.19995, 706.80023);
        ((GeneralPath) shape).curveTo(731.49994, 707.70026, 729.7999, 704.20026, 727.99994, 704.00024);
        ((GeneralPath) shape).curveTo(725.2999, 703.80023, 722.7999, 707.6002, 721.19995, 709.30023);
        ((GeneralPath) shape).curveTo(718.7999, 711.80023, 716.2999, 714.4002, 713.89996, 716.9002);
