package com.pump.awt.geom.clipart;

import java.awt.*;
import java.awt.geom.AffineTransform;
import java.awt.geom.GeneralPath;

import static java.awt.Color.BLACK;
import static java.awt.Color.WHITE;

/**
 * This class has been automatically generated using
 * <a href="http://ebourg.github.io/flamingo-svg-transcoder/">Flamingo SVG transcoder</a>.
 * <p>
 * Source image: https://openclipart.org/detail/302705/cat-5
 * </p>
 */
public class Cat5 implements javax.swing.Icon {

    /** The width of this icon. */
    private int width;

    /** The height of this icon. */
    private int height;

    /**
     * Creates a new transcoded SVG image.
     */
    public Cat5() {
        this(1283, 1848);
    }

    /**
     * Creates a new transcoded SVG image.
     */
    public Cat5(int width, int height) {
        this.width = width;
        this.height = height;
    }

    @Override
    public int getIconHeight() {
        return height;
    }

    @Override
    public int getIconWidth() {
        return width;
    }

    @Override
    public void paintIcon(Component c, Graphics g, int x, int y) {
        double coef = Math.min((double) width / (double) 1283, (double) height / (double) 1848);

        Graphics2D g2d = (Graphics2D) g.create();
        g2d.translate(x, y);
        g2d.setRenderingHint(RenderingHints.KEY_ANTIALIASING, RenderingHints.VALUE_ANTIALIAS_ON);
        g2d.scale(coef, coef);
        paint(g2d);
        g2d.dispose();
    }

    /**
     * Paints the transcoded SVG image on the specified graphics context.
     * 
     * @param g Graphics context.
     */
    private static void paint(Graphics2D g) {
        Shape shape = null;
        
        float origAlpha = 1.0f;
        
        java.util.LinkedList<AffineTransform> transformations = new java.util.LinkedList<AffineTransform>();
        

        // 
        transformations.push(g.getTransform());
        g.transform(new AffineTransform(1.066672f, 0, 0, 1.066672f, 0, 0.004622419f));

        // _0
        transformations.push(g.getTransform());
        g.transform(new AffineTransform(1, 0, 0, 1, 1829.9f, 862.17f));

        // _0_0
        transformations.push(g.getTransform());
        g.transform(new AffineTransform(1.25f, 0, 0, -1.25f, -2726.4f, 1073.1f));

        // _0_0_0
        transformations.push(g.getTransform());
        g.transform(new AffineTransform(1, 0, 0, 1, 1460.6f, 1149.7f));

        // _0_0_0_0

        // _0_0_0_0_0
        shape = new GeneralPath();
        ((GeneralPath) shape).moveTo(0.0, 0.0);
        ((GeneralPath) shape).curveTo(-0.165, 0.107, -0.33, 0.214, -0.495, 0.322);
        ((GeneralPath) shape).curveTo(-0.465, 0.286, -0.44300002, 0.241, -0.41, 0.20899999);
        ((GeneralPath) shape).curveTo(-0.304, 0.10799999, -0.139, 0.06799999, 0.0, -1.4901161E-8);

        g.setPaint(BLACK);
        g.fill(shape);

        g.setTransform(transformations.pop()); // _0_0_0_0
        transformations.push(g.getTransform());
        g.transform(new AffineTransform(1, 0, 0, 1, 1451.7f, 1155.2f));

        // _0_0_0_1

        // _0_0_0_1_0
        shape = new GeneralPath();
        ((GeneralPath) shape).moveTo(0.0, 0.0);
        ((GeneralPath) shape).curveTo(-0.02, 0.067, -0.052, 0.12, -0.069, 0.19);
        ((GeneralPath) shape).lineTo(-0.18, 0.074999996);
        ((GeneralPath) shape).curveTo(-0.120000005, 0.049999997, -0.06000001, 0.023999996, 0.0, -7.4505806E-9);

        g.fill(shape);

        g.setTransform(transformations.pop()); // _0_0_0_1
        transformations.push(g.getTransform());
        g.transform(new AffineTransform(1, 0, 0, 1, 1456.1f, 1151.8f));

        // _0_0_0_2

        // _0_0_0_2_0
        shape = new GeneralPath();
        ((GeneralPath) shape).moveTo(0.0, 0.0);
        ((GeneralPath) shape).curveTo(-0.079, 0.042, -0.162, 0.078, -0.243, 0.118);
        ((GeneralPath) shape).curveTo(-0.211, 0.031000003, -0.15200001, -0.022, -0.125, -0.11399999);
        ((GeneralPath) shape).curveTo(-0.12, -0.10999999, 0.0, 7.4505806E-9, 0.0, 7.4505806E-9);

        g.fill(shape);

        g.setTransform(transformations.pop()); // _0_0_0_2
        transformations.push(g.getTransform());
        g.transform(new AffineTransform(1, 0, 0, 1, 1451.7f, 1155.4f));

        // _0_0_0_3

        // _0_0_0_3_0
        shape = new GeneralPath();
        ((GeneralPath) shape).moveTo(0.0, 0.0);
        ((GeneralPath) shape).curveTo(-0.129, -0.007, -0.254, -0.003, -0.382, -0.008);
        ((GeneralPath) shape).lineTo(-0.11500001, -0.119);
        ((GeneralPath) shape).curveTo(-0.11100001, -0.115, -7.4505806E-9, 0.0, -7.4505806E-9, 0.0);

        g.fill(shape);

        g.setTransform(transformations.pop()); // _0_0_0_3
        transformations.push(g.getTransform());
        g.transform(new AffineTransform(1, 0, 0, 1, 1448.1f, 1156.9f));

        // _0_0_0_4

        // _0_0_0_4_0
        shape = new GeneralPath();
        ((GeneralPath) shape).moveTo(0.0, 0.0);
        ((GeneralPath) shape).lineTo(-0.103, -0.116);
        ((GeneralPath) shape).curveTo(-0.012000002, -0.154, 0.078999996, -0.192, 0.17099999, -0.22999999);
        ((GeneralPath) shape).curveTo(0.117999986, -0.14199999, 0.04699999, -0.099999994, -1.4901161E-8, 1.4901161E-8);

        g.fill(shape);

        g.setTransform(transformations.pop()); // _0_0_0_4
        transformations.push(g.getTransform());
        g.transform(new AffineTransform(1, 0, 0, 1, 1132.6f, 1119.1f));

        // _0_0_0_5

        // _0_0_0_5_0
        shape = new GeneralPath();
        ((GeneralPath) shape).moveTo(0.0, 0.0);
        ((GeneralPath) shape).curveTo(-3.394, -0.846, -6.787, -1.697, -10.178, -2.553);
        ((GeneralPath) shape).curveTo(-6.7870007, -1.697, -3.3940005, -0.845, 0.0, 0.0);
        ((GeneralPath) shape).closePath();

        g.fill(shape);

        g.setTransform(transformations.pop()); // _0_0_0_5
        transformations.push(g.getTransform());
        g.transform(new AffineTransform(1, 0, 0, 1, 912.94f, 1351.4f));

        // _0_0_0_6

        // _0_0_0_6_0
        shape = new GeneralPath();
        ((GeneralPath) shape).moveTo(0.0, 0.0);
        ((GeneralPath) shape).curveTo(0.29, 0.407, 0.581, 0.813, 0.871, 1.22);
        ((GeneralPath) shape).curveTo(0.581, 0.813, 0.29000002, 0.40600002, 0.0, 0.0);
        ((GeneralPath) shape).closePath();

        g.fill(shape);

        g.setTransform(transformations.pop()); // _0_0_0_6
        transformations.push(g.getTransform());
        g.transform(new AffineTransform(1, 0, 0, 1, 1346, 250.38f));

        // _0_0_0_7

        // _0_0_0_7_0
        shape = new GeneralPath();
        ((GeneralPath) shape).moveTo(0.0, 0.0);
        ((GeneralPath) shape).curveTo(0.69, 0.26, 1.351, 0.697, 2.027, 1.041);
        ((GeneralPath) shape).curveTo(2.032, 1.041, 2.036, 1.042, 2.041, 1.042);
        ((GeneralPath) shape).curveTo(1.3579998, 0.69900006, 0.69299984, 0.26100004, 0.0, 0.0);

        g.fill(shape);

        g.setTransform(transformations.pop()); // _0_0_0_7
        transformations.push(g.getTransform());
        g.transform(new AffineTransform(1, 0, 0, 1, 1448.1f, 1156.9f));

        // _0_0_0_8

        // _0_0_0_8_0
        shape = new GeneralPath();
        ((GeneralPath) shape).moveTo(0.0, 0.0);
        ((GeneralPath) shape).curveTo(-0.188, 0.058, -0.375, 0.117, -0.563, 0.175);
        ((GeneralPath) shape).curveTo(-0.40900004, 0.078999996, -0.25700003, -0.020999998, -0.10200003, -0.11600001);
        ((GeneralPath) shape).lineTo(-2.9802322E-8, -1.4901161E-8);
        ((GeneralPath) shape).closePath();

        g.fill(shape);

        g.setTransform(transformations.pop()); // _0_0_0_8
        transformations.push(g.getTransform());
        g.transform(new AffineTransform(1, 0, 0, 1, 796.08f, 915.16f));

        // _0_0_0_9

        // _0_0_0_9_0
        shape = new GeneralPath();
        ((GeneralPath) shape).moveTo(0.0, 0.0);
        ((GeneralPath) shape).lineTo(0.437, 0.002);
        ((GeneralPath) shape).lineTo(0.22700001, 0.491);
        ((GeneralPath) shape).lineTo(1.4901161E-8, 0.0);
        ((GeneralPath) shape).closePath();

        g.fill(shape);

        g.setTransform(transformations.pop()); // _0_0_0_9
        transformations.push(g.getTransform());
        g.transform(new AffineTransform(1, 0, 0, 1, 781.11f, 1436.4f));

        // _0_0_0_10

        // _0_0_0_10_0
        shape = new GeneralPath();
        ((GeneralPath) shape).moveTo(0.0, 0.0);
        ((GeneralPath) shape).curveTo(9.421, -1.693, 16.819, -4.212, 24.169, -6.813);
        ((GeneralPath) shape).curveTo(34.905, -10.614, 45.595, -14.551001, 56.236, -18.609);
        ((GeneralPath) shape).curveTo(59.764, -19.955, 63.279, -21.540998, 66.455, -23.560999);
        ((GeneralPath) shape).curveTo(75.842, -29.529999, 85.139, -35.649998, 94.313, -41.942);
        ((GeneralPath) shape).curveTo(102.194, -47.349003, 108.810005, -54.185, 115.146, -61.306);
        ((GeneralPath) shape).curveTo(117.623, -64.09, 118.887, -67.149, 118.944, -70.875);
        ((GeneralPath) shape).curveTo(119.031, -76.575, 119.169, -82.283, 119.574, -87.966995);
        ((GeneralPath) shape).curveTo(120.440994, -100.144, 121.492, -112.30699, 122.471, -124.476);
        ((GeneralPath) shape).curveTo(122.514, -125.017, 122.636, -125.555, 122.643, -126.095);
        ((GeneralPath) shape).curveTo(122.81, -140.468, 122.766, -154.83301, 121.542, -169.182);
        ((GeneralPath) shape).curveTo(119.43, -169.313, 119.302, -167.707, 118.791, -166.67801);
        ((GeneralPath) shape).curveTo(110.594, -150.15001, 102.732, -133.45001, 94.223, -117.08501);
        ((GeneralPath) shape).curveTo(79.385, -88.545006, 61.436, -62.081005, 39.935, -38.088005);
        ((GeneralPath) shape).curveTo(29.030003, -25.913006, 16.833002, -15.106005, 4.722, -4.208004);
        ((GeneralPath) shape).curveTo(3.5670002, -3.168004, 2.403, -2.138004, -0.0089998245, 0.014996052);

        g.setPaint(new Color(0xCC8564));
        g.fill(shape);

        g.setTransform(transformations.pop()); // _0_0_0_10
        transformations.push(g.getTransform());
        g.transform(new AffineTransform(1, 0, 0, 1, 1384, 1473));

        // _0_0_0_11

        // _0_0_0_11_0
        shape = new GeneralPath();
        ((GeneralPath) shape).moveTo(0.0, 0.0);
        ((GeneralPath) shape).curveTo(2.267, 2.194, 4.535, 4.389, 7.234, 7.001);
        ((GeneralPath) shape).curveTo(6.1050005, 7.6, 5.287, 8.368, 4.406, 8.448999);
        ((GeneralPath) shape).curveTo(-2.0759997, 9.047999, -8.571, 9.504, -15.060999, 10.016999);
        ((GeneralPath) shape).curveTo(-17.200998, 10.185999, -19.336998, 10.393, -21.918, 10.622);
        ((GeneralPath) shape).curveTo(-21.781, 16.087, -20.977999, 20.967999, -17.224998, 24.911);
        ((GeneralPath) shape).curveTo(-12.352999, 30.030998, -7.3449984, 35.012, -1.2089977, 38.659);
        ((GeneralPath) shape).curveTo(8.821002, 44.621002, 19.061003, 50.259003, 28.837002, 56.611);
        ((GeneralPath) shape).curveTo(35.074, 60.664, 41.746002, 63.506, 48.621002, 65.995);
        ((GeneralPath) shape).curveTo(52.127003, 67.264, 55.733, 68.706, 59.642002, 67.986);
        ((GeneralPath) shape).curveTo(59.708004, 67.368004, 59.989002, 66.717, 59.778004, 66.435);
        ((GeneralPath) shape).curveTo(49.625004, 52.894997, 43.986004, 37.427, 40.743004, 21.036999);
        ((GeneralPath) shape).curveTo(37.322002, 3.7459984, 33.927002, -13.565002, 31.198004, -30.974003);
        ((GeneralPath) shape).curveTo(29.351004, -42.750004, 28.651005, -54.708, 27.483004, -66.589005);
        ((GeneralPath) shape).curveTo(25.437004, -87.401, 24.222004, -108.257, 24.281004, -129.17801);
        ((GeneralPath) shape).curveTo(24.283005, -129.64601, 23.978004, -130.11401, 23.800003, -130.62701);
        ((GeneralPath) shape).curveTo(22.206003, -130.14801, 22.109003, -128.61902, 21.745003, -127.443016);
        ((GeneralPath) shape).curveTo(17.170002, -112.66102, 13.272003, -97.75601, 11.287003, -82.32902);
        ((GeneralPath) shape).curveTo(10.382003, -75.28702, 10.118003, -68.304016, 9.888002, -61.259018);
        ((GeneralPath) shape).curveTo(9.533003, -50.414017, 8.899002, -39.579018, 8.472002, -28.73602);
        ((GeneralPath) shape).curveTo(8.291002, -24.126019, 8.353002, -19.507019, 8.262002, -14.892019);
        ((GeneralPath) shape).curveTo(8.237002, -13.60302, 8.060002, -12.316019, 7.894002, -10.31502);
        ((GeneralPath) shape).curveTo(6.455002, -10.88702, 5.385002, -11.04002, 4.706002, -11.63802);
        ((GeneralPath) shape).curveTo(3.109002, -13.041019, 1.7010021, -14.65702, -0.652998, -17.08302);
        ((GeneralPath) shape).curveTo(-0.456998, -13.979019, 0.676002, -12.531019, 1.4910021, -10.994019);
        ((GeneralPath) shape).curveTo(2.379002, -9.319018, 3.2980022, -7.6580186, 4.247002, -6.0160184);
        ((GeneralPath) shape).curveTo(5.164002, -4.4310184, 6.137002, -2.8780184, 7.1120024, -1.2670183);
        ((GeneralPath) shape).curveTo(4.734002, 1.1609817, 2.1550026, -0.43601835, -0.06699753, 0.079981685);
        ((GeneralPath) shape).lineTo(2.4735928E-6, -1.8313527E-5);
        ((GeneralPath) shape).closePath();

        g.setPaint(new Color(0xE0926E));
        g.fill(shape);

        g.setTransform(transformations.pop()); // _0_0_0_11
        transformations.push(g.getTransform());
        g.transform(new AffineTransform(1, 0, 0, 1, 1347.5f, 1485.4f));

        // _0_0_0_12

        // _0_0_0_12_0
        shape = new GeneralPath();
        ((GeneralPath) shape).moveTo(0.0, 0.0);
        ((GeneralPath) shape).curveTo(0.981, 1.456, 2.141, 2.957, 3.068, 4.591);
        ((GeneralPath) shape).curveTo(6.879, 11.307, 12.139, 16.74, 18.082, 21.538);
        ((GeneralPath) shape).curveTo(21.243, 24.09, 24.478, 26.589, 27.893002, 28.78);
        ((GeneralPath) shape).curveTo(34.503002, 33.02, 41.314003, 36.945, 47.942, 41.159);
        ((GeneralPath) shape).curveTo(51.256, 43.266, 55.286003, 44.421, 57.562, 47.99);
        ((GeneralPath) shape).curveTo(54.683, 47.632, 51.729, 47.557003, 48.949, 46.823);
        ((GeneralPath) shape).curveTo(34.551003, 43.017002, 20.262001, 38.783, 5.8170013, 35.172);
        ((GeneralPath) shape).curveTo(-12.935999, 30.485, -29.218998, 20.933, -45.03, 10.337002);
        ((GeneralPath) shape).curveTo(-46.009, 9.682002, -46.708, 8.610002, -47.711, 7.5490017);
        ((GeneralPath) shape).curveTo(-37.697, 3.9380016, -9.197998, -0.52399826, 0.0, 1.9073486E-6);
        ((GeneralPath) shape).moveTo(57.656, 48.118004);
        ((GeneralPath) shape).curveTo(57.627, 48.072002, 57.591, 48.036003, 57.561996, 47.990005);
        ((GeneralPath) shape).curveTo(57.621998, 47.998005, 57.682995, 48.002007, 57.743996, 48.010006);
        ((GeneralPath) shape).lineTo(57.655994, 48.118008);
        ((GeneralPath) shape).closePath();
        ((GeneralPath) shape).moveTo(-339.764, -449.982);
        ((GeneralPath) shape).curveTo(-341.894, -448.555, -343.366, -447.49, -344.91202, -446.54498);
        ((GeneralPath) shape).curveTo(-352.37402, -441.985, -359.11002, -436.53497, -365.10703, -430.17297);
        ((GeneralPath) shape).curveTo(-366.59702, -428.593, -368.10703, -427.02798, -369.536, -425.39297);
        ((GeneralPath) shape).curveTo(-370.888, -423.84497, -372.544, -423.15997, -374.574, -423.24997);
        ((GeneralPath) shape).curveTo(-382.71, -423.61096, -390.92102, -423.38397, -398.97, -424.42197);
        ((GeneralPath) shape).curveTo(-422.47202, -427.45496, -445.22, -433.74597, -467.565, -441.52997);
        ((GeneralPath) shape).curveTo(-469.564, -442.22696, -471.446, -443.25998, -472.994, -443.95996);
        ((GeneralPath) shape).curveTo(-477.43, -456.56396, -481.65198, -468.59195, -485.89798, -480.61197);
        ((GeneralPath) shape).curveTo(-489.24097, -490.07397, -492.624, -499.52197, -495.95898, -508.98798);
        ((GeneralPath) shape).curveTo(-496.373, -510.166, -497.15698, -511.485, -495.034, -512.743);
        ((GeneralPath) shape).curveTo(-491.363, -509.91397, -487.555, -506.926, -483.69, -504.01398);
        ((GeneralPath) shape).curveTo(-476.776, -498.80597, -476.03, -498.503, -469.864, -498.408);
        ((GeneralPath) shape).curveTo(-477.272, -505.76898, -484.832, -511.926, -491.746, -521.453);
        ((GeneralPath) shape).curveTo(-480.133, -518.341, -471.086, -512.979, -460.201, -513.792);
        ((GeneralPath) shape).curveTo(-460.789, -515.013, -460.981, -515.855, -461.49197, -516.395);
        ((GeneralPath) shape).curveTo(-464.10297, -519.154, -466.60397, -522.065, -469.498, -524.5);
        ((GeneralPath) shape).curveTo(-478.01797, -531.667, -486.70798, -538.631, -495.322, -545.685);
        ((GeneralPath) shape).curveTo(-496.50998, -546.658, -498.218, -547.31, -497.824, -549.36);
        ((GeneralPath) shape).curveTo(-490.712, -553.399, -485.723, -555.17096, -477.915, -556.372);
        ((GeneralPath) shape).curveTo(-439.565, -511.614, -393.196, -476.858, -339.765, -449.982);
        ((GeneralPath) shape).moveTo(303.71497, -666.562);
        ((GeneralPath) shape).curveTo(302.39096, -663.887, 301.19196, -661.14, 299.70496, -658.559);
        ((GeneralPath) shape).curveTo(297.68396, -655.05005, 295.44196, -651.668, 293.42694, -648.44604);
        ((GeneralPath) shape).curveTo(293.59494, -645.0621, 295.67093, -643.416, 297.91995, -641.762);
        ((GeneralPath) shape).curveTo(299.95895, -640.262, 302.98196, -639.939, 304.25894, -636.831);
        ((GeneralPath) shape).curveTo(297.71295, -632.98, 291.46695, -629.3, 283.93494, -628.497);
        ((GeneralPath) shape).curveTo(281.94495, -628.28503, 279.56195, -628.478, 278.15094, -626.231);
        ((GeneralPath) shape).curveTo(279.93393, -620.958, 283.50894, -617.39905, 287.92093, -614.541);
        ((GeneralPath) shape).curveTo(292.20392, -611.767, 296.50592, -609.021, 302.35593, -605.26404);
        ((GeneralPath) shape).curveTo(297.64893, -604.34406, 294.73093, -603.75903, 291.80792, -603.20306);
        ((GeneralPath) shape).curveTo(279.1769, -600.8011, 266.35593, -600.93604, 253.61093, -600.9111);
        ((GeneralPath) shape).curveTo(233.47693, -600.8711, 213.45694, -602.8841, 193.65393, -606.58307);
        ((GeneralPath) shape).curveTo(163.93094, -612.1351, 138.36794, -625.6221, 117.27993, -647.37305);
        ((GeneralPath) shape).curveTo(105.022934, -660.0151, 95.99293, -674.78906, 88.967926, -690.85803);
        ((GeneralPath) shape).curveTo(82.316925, -706.07, 77.080925, -721.78503, 72.72793, -737.776);
        ((GeneralPath) shape).curveTo(64.941925, -766.372, 59.28793, -795.385, 55.944927, -824.861);
        ((GeneralPath) shape).curveTo(53.583927, -845.689, 52.572926, -866.539, 52.887928, -887.49304);
        ((GeneralPath) shape).curveTo(53.103928, -901.9241, 54.396927, -916.24805, 56.24593, -930.53107);
        ((GeneralPath) shape).curveTo(58.65093, -949.1091, 61.05593, -967.69104, 63.82793, -986.21704);
        ((GeneralPath) shape).curveTo(66.480934, -1003.93805, 69.70293, -1021.57306, 72.49593, -1039.2731);
        ((GeneralPath) shape).curveTo(76.562935, -1065.05, 81.97293, -1090.53, 89.216934, -1115.5991);
        ((GeneralPath) shape).curveTo(90.408936, -1119.7261, 92.15293, -1123.8181, 94.34693, -1127.5071);
        ((GeneralPath) shape).curveTo(101.01093, -1138.711, 108.01593, -1149.7131, 114.90693, -1160.7831);
        ((GeneralPath) shape).curveTo(115.41493, -1161.5991, 115.842926, -1162.7561, 117.38793, -1161.9851);
        ((GeneralPath) shape).curveTo(117.230934, -1161.2432, 117.145935, -1160.4691, 116.90393, -1159.7471);
        ((GeneralPath) shape).curveTo(107.63593, -1132.088, 102.20593, -1103.577, 98.08793, -1074.78);
        ((GeneralPath) shape).curveTo(96.01193, -1060.266, 93.84693, -1045.758, 92.11393, -1031.202);
        ((GeneralPath) shape).curveTo(90.63793, -1018.80005, 89.17693, -1006.353, 88.69593, -993.887);
        ((GeneralPath) shape).curveTo(88.06793, -977.604, 87.87493, -961.26404, 88.49393, -944.986);
        ((GeneralPath) shape).curveTo(89.080925, -929.536, 90.538925, -914.085, 92.372925, -898.72504);
        ((GeneralPath) shape).curveTo(94.50392, -880.88306, 99.36492, -863.598, 104.856926, -846.512);
        ((GeneralPath) shape).curveTo(112.608925, -822.39703, 122.46693, -799.187, 134.73293, -777.007);
        ((GeneralPath) shape).curveTo(144.90092, -758.62305, 158.66393, -743.474, 175.57092, -731.073);
        ((GeneralPath) shape).curveTo(182.01692, -726.345, 189.14592, -723.084, 196.70792, -720.77);
        ((GeneralPath) shape).curveTo(214.69492, -715.266, 231.03392, -718.133, 245.44691, -730.633);
        ((GeneralPath) shape).curveTo(258.2789, -741.761, 269.74393, -753.966, 277.1969, -769.487);
        ((GeneralPath) shape).curveTo(278.0879, -771.344, 279.3949, -773.0, 280.5309, -774.783);
        ((GeneralPath) shape).curveTo(281.35092, -774.158, 282.02292, -773.919, 282.1419, -773.515);
        ((GeneralPath) shape).curveTo(285.1449, -763.372, 288.65692, -753.33704, 290.92792, -743.03);
        ((GeneralPath) shape).curveTo(295.8359, -720.765, 300.03992, -698.34503, 304.6979, -676.023);
        ((GeneralPath) shape).curveTo(305.40692, -672.63, 305.2159, -669.59503, 303.7149, -666.562);
        ((GeneralPath) shape).moveTo(50.9449, -505.742);
        ((GeneralPath) shape).curveTo(12.893902, -476.571, -28.772102, -454.057, -73.9851, -438.11102);
        ((GeneralPath) shape).curveTo(-81.0691, -435.61304, -87.6231, -438.584, -90.2381, -445.53403);
        ((GeneralPath) shape).curveTo(-92.5331, -451.63403, -94.5551, -457.84604, -97.0821, -463.84604);
        ((GeneralPath) shape).curveTo(-99.7151, -470.09604, -102.6741, -476.22104, -105.7471, -482.27005);
        ((GeneralPath) shape).curveTo(-107.8841, -486.47806, -109.8631, -487.23706, -114.3861, -486.00406);
        ((GeneralPath) shape).curveTo(-116.4591, -485.44006, -118.5181, -484.60706, -120.3881, -483.55005);
        ((GeneralPath) shape).curveTo(-129.4271, -478.43805, -137.69211, -472.27905, -144.9071, -464.77905);
        ((GeneralPath) shape).curveTo(-146.4041, -463.22406, -147.7101, -461.48505, -148.9501, -460.01105);
        ((GeneralPath) shape).curveTo(-150.7211, -460.31104, -151.7711, -460.48105, -152.8191, -460.66605);
        ((GeneralPath) shape).curveTo(-164.5811, -462.75006, -176.3011, -465.12805, -188.11711, -466.83505);
        ((GeneralPath) shape).curveTo(-199.24312, -468.44305, -210.34111, -468.28806, -220.91711, -463.47906);
        ((GeneralPath) shape).curveTo(-222.86412, -462.59308, -225.07211, -462.28006, -226.98311, -461.75208);
        ((GeneralPath) shape).curveTo(-235.54012, -465.15707, -236.80711, -465.20407, -247.8831, -464.9691);
        ((GeneralPath) shape).curveTo(-264.2101, -464.62408, -280.4031, -462.7251, -296.5921, -460.8961);
        ((GeneralPath) shape).curveTo(-305.7501, -459.86108, -315.0361, -458.8551, -323.7071, -455.5381);
        ((GeneralPath) shape).curveTo(-328.5841, -453.6721, -332.43408, -454.58008, -336.76608, -456.9181);
        ((GeneralPath) shape).curveTo(-354.7251, -466.61008, -372.0941, -477.2671, -389.04507, -488.5961);
        ((GeneralPath) shape).curveTo(-417.36707, -507.5241, -443.8061, -528.8091, -468.15707, -552.6531);
        ((GeneralPath) shape).curveTo(-469.63406, -554.09906, -471.6761, -555.2521, -471.90707, -558.16907);
        ((GeneralPath) shape).curveTo(-469.79907, -558.76306, -467.81006, -559.5361, -465.74908, -559.8691);
        ((GeneralPath) shape).curveTo(-453.9451, -561.7781, -442.13107, -563.58905, -430.12207, -563.6401);
        ((GeneralPath) shape).curveTo(-422.51108, -563.67206, -414.90207, -563.94507, -407.29208, -564.0641);
        ((GeneralPath) shape).curveTo(-396.7021, -564.2281, -386.10208, -564.6971, -375.52408, -564.40106);
        ((GeneralPath) shape).curveTo(-361.4181, -564.0071, -347.32907, -563.02106, -333.23407, -562.25507);
        ((GeneralPath) shape).curveTo(-319.12506, -561.4891, -305.01907, -560.64905, -290.90808, -559.89905);
        ((GeneralPath) shape).curveTo(-263.7751, -558.45905, -236.64308, -556.9761, -209.50208, -555.6871);
        ((GeneralPath) shape).curveTo(-199.45908, -555.2101, -189.38408, -555.42004, -179.33908, -554.9751);
        ((GeneralPath) shape).curveTo(-162.24008, -554.2191, -145.15308, -553.1891, -128.06108, -552.2831);
        ((GeneralPath) shape).curveTo(-107.17008, -551.1761, -86.28708, -549.8871, -65.385086, -549.04205);
        ((GeneralPath) shape).curveTo(-49.806084, -548.41205, -34.637085, -545.663, -19.668087, -541.55206);
        ((GeneralPath) shape).curveTo(2.3299122, -535.5101, 24.323914, -529.47504, 46.785915, -525.32007);
        ((GeneralPath) shape).curveTo(53.629913, -524.0541, 60.389915, -522.3351, 68.015915, -520.63904);
        ((GeneralPath) shape).curveTo(66.556915, -519.01807, 65.793915, -517.94006, 64.81492, -517.12006);
        ((GeneralPath) shape).curveTo(60.23092, -513.28107, 55.690918, -509.37805, 50.947918, -505.74207);
        ((GeneralPath) shape).moveTo(49.858917, -1255.302);
        ((GeneralPath) shape).curveTo(50.754917, -1255.082, 51.651917, -1254.863, 52.547916, -1254.643);
        ((GeneralPath) shape).curveTo(52.573917, -1254.7899, 52.599915, -1254.9359, 52.626915, -1255.0829);
        ((GeneralPath) shape).curveTo(51.705914, -1255.1569, 50.782913, -1255.2299, 49.858913, -1255.3019);
        ((GeneralPath) shape).moveTo(153.8789, -1245.5139);
        ((GeneralPath) shape).curveTo(152.2489, -1242.3989, 150.24991, -1239.4469, 148.17491, -1236.5989);
        ((GeneralPath) shape).curveTo(142.25491, -1228.4729, 136.30292, -1220.3668, 130.19391, -1212.3829);
        ((GeneralPath) shape).curveTo(113.61691, -1190.72, 95.20691, -1170.7579, 74.04191, -1153.4979);
        ((GeneralPath) shape).curveTo(61.62091, -1143.3689, 48.91391, -1133.575, 36.08891, -1123.9569);
        ((GeneralPath) shape).curveTo(18.697908, -1110.914, 0.6999092, -1098.6539, -16.355091, -1085.195);
        ((GeneralPath) shape).curveTo(-35.33709, -1070.216, -53.55609, -1054.271, -72.10009, -1038.7379);
        ((GeneralPath) shape).curveTo(-90.01909, -1023.7269, -107.999084, -1008.7869, -125.82409, -993.6649);
        ((GeneralPath) shape).curveTo(-143.77708, -978.4329, -159.23509, -960.9629, -171.40509, -940.7659);
        ((GeneralPath) shape).curveTo(-177.56909, -930.5349, -183.1641, -919.96094, -188.9621, -909.51294);
        ((GeneralPath) shape).curveTo(-193.0461, -902.15393, -197.01309, -894.73193, -201.1001, -887.37494);
        ((GeneralPath) shape).curveTo(-201.7101, -886.2769, -202.3331, -884.8779, -204.5101, -885.31195);
        ((GeneralPath) shape).curveTo(-205.5161, -887.5449, -206.7421, -889.954, -207.7081, -892.4639);
        ((GeneralPath) shape).curveTo(-213.1661, -906.6519, -219.1371, -920.67694, -223.7961, -935.12494);
        ((GeneralPath) shape).curveTo(-227.5341, -946.71594, -230.2761, -958.72095, -232.36609, -970.7329);
        ((GeneralPath) shape).curveTo(-236.9361, -997.0029, -238.96909, -1023.5609, -239.36009, -1050.22);
        ((GeneralPath) shape).curveTo(-239.53609, -1062.187, -238.7761, -1074.15, -236.61809, -1085.9309);
        ((GeneralPath) shape).curveTo(-233.78108, -1101.4199, -230.67308, -1116.8639, -227.4101, -1132.2699);
        ((GeneralPath) shape).curveTo(-224.2571, -1147.153, -220.5811, -1161.908, -214.5501, -1175.9589);
        ((GeneralPath) shape).curveTo(-212.62709, -1180.4388, -210.5911, -1184.8918, -209.0201, -1189.4978);
        ((GeneralPath) shape).curveTo(-203.8931, -1204.5258, -196.7051, -1218.4918, -187.5541, -1231.4238);
        ((GeneralPath) shape).curveTo(-184.58109, -1235.6249, -181.0261, -1239.4158, -177.68309, -1243.3489);
        ((GeneralPath) shape).curveTo(-177.02708, -1244.1208, -176.1211, -1244.6809, -175.01909, -1245.5979);
        ((GeneralPath) shape).curveTo(-174.64108, -1244.4539, -174.33508, -1243.7859, -174.20209, -1243.085);
        ((GeneralPath) shape).curveTo(-173.09009, -1237.219, -172.24109, -1231.292, -170.86209, -1225.491);
        ((GeneralPath) shape).curveTo(-169.0671, -1217.945, -165.6041, -1211.135, -159.6151, -1206.044);
        ((GeneralPath) shape).curveTo(-153.79309, -1201.095, -147.4261, -1196.8839, -139.8401, -1195.0499);
        ((GeneralPath) shape).curveTo(-134.0441, -1193.6489, -128.20111, -1192.444, -122.3841, -1191.1299);
        ((GeneralPath) shape).curveTo(-120.8411, -1190.7809, -119.3151, -1190.3508, -117.282104, -1189.8309);
        ((GeneralPath) shape).curveTo(-118.5201, -1187.5709, -119.5491, -1185.715, -120.557106, -1183.8469);
        ((GeneralPath) shape).curveTo(-124.42711, -1176.6809, -128.8751, -1169.7579, -132.02411, -1162.2869);
        ((GeneralPath) shape).curveTo(-137.31511, -1149.7318, -143.8721, -1137.8549, -150.15811, -1125.8269);
        ((GeneralPath) shape).curveTo(-156.3231, -1114.0299, -162.51012, -1102.2379, -169.0301, -1090.637);
        ((GeneralPath) shape).curveTo(-174.2411, -1081.366, -180.61511, -1072.8529, -188.3761, -1065.531);
        ((GeneralPath) shape).curveTo(-194.5091, -1059.745, -201.2311, -1054.679, -208.8431, -1050.915);
        ((GeneralPath) shape).curveTo(-210.1901, -1050.249, -211.5681, -1049.646, -212.8671, -1049.045);
        ((GeneralPath) shape).curveTo(-209.90309, -1039.8721, -208.5441, -1038.3611, -199.43109, -1034.06);
        ((GeneralPath) shape).curveTo(-202.64609, -1031.692, -205.74908, -1029.5641, -208.6691, -1027.211);
        ((GeneralPath) shape).curveTo(-211.5051, -1024.926, -214.8291, -1022.98804, -216.3401, -1018.89606);
        ((GeneralPath) shape).curveTo(-214.17911, -1018.62604, -212.5621, -1018.543, -210.99811, -1018.21106);
        ((GeneralPath) shape).curveTo(-199.93211, -1015.8611, -188.85811, -1016.1501, -177.8201, -1018.24506);
        ((GeneralPath) shape).curveTo(-154.3251, -1022.70404, -132.6881, -1032.003, -112.1511, -1043.9901);
        ((GeneralPath) shape).curveTo(-106.5421, -1047.2642, -101.1111, -1050.9271, -96.8581, -1056.0061);
        ((GeneralPath) shape).curveTo(-96.547104, -1056.5131, -96.2361, -1057.0201, -95.9251, -1057.5271);
        ((GeneralPath) shape).curveTo(-96.5201, -1057.3461, -97.114105, -1057.165, -97.7091, -1056.9851);
        ((GeneralPath) shape).curveTo(-100.3631, -1055.6561, -103.0841, -1054.4481, -105.6581, -1052.9791);
        ((GeneralPath) shape).curveTo(-123.884094, -1042.5791, -142.94809, -1034.1132, -163.1001, -1028.2172);
        ((GeneralPath) shape).curveTo(-174.59709, -1024.8531, -186.3291, -1022.7192, -198.36609, -1022.71515);
        ((GeneralPath) shape).curveTo(-199.64108, -1022.7142, -201.14009, -1022.4302, -202.02309, -1024.3612);
        ((GeneralPath) shape).curveTo(-200.57608, -1026.6102, -197.89508, -1027.4622, -195.79808, -1029.0402);
        ((GeneralPath) shape).curveTo(-193.64207, -1030.6602, -191.42007, -1032.2592, -189.57909, -1034.2012);
        ((GeneralPath) shape).curveTo(-188.85608, -1034.9641, -188.73009, -1036.7252, -189.02208, -1037.8531);
        ((GeneralPath) shape).curveTo(-189.19408, -1038.5182, -190.67508, -1039.0962, -191.64308, -1039.2551);
        ((GeneralPath) shape).curveTo(-194.56808, -1039.7351, -197.55708, -1039.8441, -200.47008, -1040.3782);
        ((GeneralPath) shape).curveTo(-203.04507, -1040.8512, -204.71307, -1042.5471, -205.46808, -1044.9822);
        ((GeneralPath) shape).curveTo(-205.04608, -1045.5721, -204.84108, -1046.1552, -204.43707, -1046.3792);
        ((GeneralPath) shape).curveTo(-198.46507, -1049.6921, -192.77608, -1053.2921, -188.86707, -1059.1702);
        ((GeneralPath) shape).curveTo(-188.00706, -1060.4641, -186.42107, -1061.2892, -185.12807, -1062.2772);
        ((GeneralPath) shape).curveTo(-177.95506, -1067.7622, -171.84306, -1074.2772, -166.39307, -1081.4473);
        ((GeneralPath) shape).curveTo(-158.15306, -1092.2893, -151.25307, -1103.9542, -144.78307, -1115.9153);
        ((GeneralPath) shape).curveTo(-136.64706, -1130.9553, -128.61206, -1146.0703, -119.85806, -1160.7502);
        ((GeneralPath) shape).curveTo(-113.89307, -1170.7512, -107.244064, -1180.4323, -100.06906, -1189.6062);
        ((GeneralPath) shape).curveTo(-82.97306, -1211.4642, -62.268063, -1229.2422, -37.71706, -1242.3903);
        ((GeneralPath) shape).curveTo(-19.42706, -1252.1853, -0.029060364, -1257.6353, 20.826939, -1257.0172);
        ((GeneralPath) shape).curveTo(30.210938, -1256.7382, 39.58194, -1256.0002, 48.95894, -1255.4633);
        ((GeneralPath) shape).curveTo(48.04894, -1255.9193, 47.169937, -1256.5453, 46.21594, -1256.6973);
        ((GeneralPath) shape).curveTo(38.71494, -1257.8933, 31.22794, -1259.3073, 23.675938, -1260.0303);
        ((GeneralPath) shape).curveTo(5.3479385, -1261.7833, -12.731064, -1260.2512, -30.215061, -1254.2393);
        ((GeneralPath) shape).curveTo(-52.92306, -1246.4313, -72.90006, -1234.1353, -89.84906, -1217.0262);
        ((GeneralPath) shape).curveTo(-93.09606, -1213.7483, -96.51506, -1210.6422, -100.35006, -1206.9852);
        ((GeneralPath) shape).curveTo(-101.99206, -1206.7073, -104.38606, -1206.1462, -106.81106, -1205.9182);
        ((GeneralPath) shape).curveTo(-118.19906, -1204.8433, -129.56706, -1204.3322, -140.89105, -1206.7703);
        ((GeneralPath) shape).curveTo(-147.34505, -1208.1593, -152.47205, -1211.4122, -156.05405, -1216.8943);
        ((GeneralPath) shape).curveTo(-157.82504, -1219.6053, -159.45805, -1222.4902, -160.61205, -1225.5033);
        ((GeneralPath) shape).curveTo(-164.15305, -1234.7452, -165.34805, -1244.4303, -165.37105, -1254.2793);
        ((GeneralPath) shape).curveTo(-165.37305, -1255.2183, -165.08505, -1256.1583, -164.63304, -1258.9293);
        ((GeneralPath) shape).curveTo(-163.59604, -1256.2463, -163.22604, -1255.3313, -162.88704, -1254.4043);
        ((GeneralPath) shape).curveTo(-160.74203, -1248.5503, -158.82803, -1242.5983, -156.39804, -1236.8654);
        ((GeneralPath) shape).curveTo(-154.15804, -1231.5803, -150.79604, -1226.9243, -146.53804, -1223.0154);
        ((GeneralPath) shape).curveTo(-145.67503, -1222.2234, -144.57603, -1220.9304, -142.98305, -1222.5514);
        ((GeneralPath) shape).curveTo(-148.38005, -1229.2474, -151.54205, -1237.0664, -153.39505, -1245.3204);
        ((GeneralPath) shape).curveTo(-155.23605, -1253.5154, -156.36806, -1261.8694, -157.84406, -1270.1475);
        ((GeneralPath) shape).curveTo(-158.37906, -1273.1505, -157.41406, -1275.4705, -154.92606, -1277.2004);
        ((GeneralPath) shape).curveTo(-153.81105, -1277.9755, -152.80206, -1278.9424, -151.61006, -1279.5625);
        ((GeneralPath) shape).curveTo(-144.38106, -1283.3175, -137.13907, -1287.0496, -129.83105, -1290.6445);
        ((GeneralPath) shape).curveTo(-128.76105, -1291.1715, -127.31106, -1290.9236, -125.58405, -1291.0735);
        ((GeneralPath) shape).curveTo(-125.85606, -1284.1605, -126.68305, -1277.6675, -126.24205, -1271.2625);
        ((GeneralPath) shape).curveTo(-125.43905, -1259.6124, -123.00505, -1248.1875, -119.53405, -1237.0165);
        ((GeneralPath) shape).curveTo(-119.46505, -1236.7975, -118.64505, -1236.8125, -118.01505, -1236.6865);
        ((GeneralPath) shape).curveTo(-117.77005, -1237.4095, -117.263054, -1238.1665, -117.30805, -1238.8895);
        ((GeneralPath) shape).curveTo(-117.79705, -1246.7535, -118.441055, -1254.6075, -118.902054, -1262.4725);
        ((GeneralPath) shape).curveTo(-119.25305, -1268.4365, -119.595055, -1274.4115, -119.57305, -1280.3795);
        ((GeneralPath) shape).curveTo(-119.55905, -1284.3695, -118.96105, -1288.3685, -117.59305, -1292.5215);
        ((GeneralPath) shape).curveTo(-114.041046, -1292.6775, -110.81405, -1292.8955, -107.584045, -1292.9495);
        ((GeneralPath) shape).curveTo(-74.68904, -1293.5005, -41.822044, -1292.6045, -8.968048, -1291.0365);
        ((GeneralPath) shape).curveTo(-6.5250483, -1290.9196, -4.087048, -1290.7195, -1.6460481, -1290.5645);
        ((GeneralPath) shape).curveTo(12.448952, -1289.6715, 26.536953, -1288.6654, 40.63995, -1287.9375);
        ((GeneralPath) shape).curveTo(47.14795, -1287.6025, 53.68795, -1287.9545, 60.205948, -1287.7426);
        ((GeneralPath) shape).curveTo(80.31795, -1287.0916, 100.42495, -1287.0336, 120.52595, -1287.9706);
        ((GeneralPath) shape).curveTo(130.55995, -1288.4386, 140.58295, -1289.1466, 150.61395, -1289.6766);
        ((GeneralPath) shape).curveTo(157.93396, -1290.0626, 165.25995, -1290.3556, 172.58595, -1290.6377);
        ((GeneralPath) shape).curveTo(173.58995, -1290.6766, 174.60495, -1290.4127, 176.27995, -1290.2067);
        ((GeneralPath) shape).curveTo(175.39795, -1288.0256, 174.83495, -1286.2677, 174.00696, -1284.6447);
        ((GeneralPath) shape).curveTo(167.33997, -1271.5797, 160.67896, -1258.5106, 153.87895, -1245.5146);
        ((GeneralPath) shape).moveTo(-246.87105, -769.00464);
        ((GeneralPath) shape).curveTo(-246.94305, -769.09467, -247.05605, -769.1516, -247.15605, -769.21967);
        ((GeneralPath) shape).curveTo(-247.02705, -768.96765, -246.89806, -768.7167, -246.76906, -768.46466);
        ((GeneralPath) shape).curveTo(-246.79906, -768.6487, -246.77007, -768.87866, -246.87106, -769.00464);
        ((GeneralPath) shape).moveTo(-215.21007, -1220.0547);
        ((GeneralPath) shape).curveTo(-223.37607, -1190.7417, -229.79007, -1161.0046, -236.30807, -1131.2987);
        ((GeneralPath) shape).curveTo(-239.39308, -1117.2386, -242.17108, -1103.1298, -243.58307, -1088.7557);
        ((GeneralPath) shape).curveTo(-244.67607, -1077.6298, -244.52307, -1066.5198, -244.68108, -1055.3827);
        ((GeneralPath) shape).curveTo(-244.98708, -1033.8796, -242.91107, -1012.48267, -242.34607, -991.02167);
        ((GeneralPath) shape).curveTo(-242.18207, -984.7837, -241.72208, -978.51666, -240.84708, -972.3407);
        ((GeneralPath) shape).curveTo(-238.14407, -953.2547, -235.56807, -934.1527, -231.33807, -915.3047);
        ((GeneralPath) shape).curveTo(-224.19807, -883.4877, -216.01807, -851.9867, -205.21007, -821.1837);
        ((GeneralPath) shape).curveTo(-189.90007, -777.5567, -172.80006, -734.7027, -151.34407, -693.6837);
        ((GeneralPath) shape).curveTo(-148.57307, -688.3867, -145.77707, -683.1027, -143.05006, -677.7827);
        ((GeneralPath) shape).curveTo(-129.87706, -652.0857, -114.71906, -627.6347, -97.17006, -604.6857);
        ((GeneralPath) shape).curveTo(-92.87806, -599.0737, -88.48506, -593.53876, -84.18206, -587.9357);
        ((GeneralPath) shape).curveTo(-83.43006, -586.9567, -82.89306, -585.8117, -81.90506, -584.15173);
        ((GeneralPath) shape).curveTo(-85.14306, -584.44476, -87.26106, -585.61774, -89.51406, -586.34875);
        ((GeneralPath) shape).curveTo(-101.27906, -590.1628, -113.24806, -592.3608, -125.606064, -589.9288);
        ((GeneralPath) shape).curveTo(-134.66307, -588.14575, -143.75806, -586.3678, -152.24007, -582.52576);
        ((GeneralPath) shape).curveTo(-163.61607, -577.3738, -174.93207, -572.08875, -186.28906, -566.8948);
        ((GeneralPath) shape).curveTo(-187.69307, -566.25275, -189.19006, -565.81775, -190.57506, -565.31177);
        ((GeneralPath) shape).curveTo(-192.61206, -572.54376, -194.34906, -579.36475, -196.45605, -586.06976);
        ((GeneralPath) shape).curveTo(-201.43506, -601.9128, -209.75705, -615.75476, -221.69305, -627.3788);
        ((GeneralPath) shape).curveTo(-232.06206, -637.47577, -243.35605, -646.3528, -255.92305, -653.57275);
        ((GeneralPath) shape).curveTo(-256.63004, -653.9778, -257.41306, -654.29175, -258.02505, -654.80774);
        ((GeneralPath) shape).curveTo(-258.66806, -655.34875, -260.21106, -655.4987, -259.14105, -657.22375);
        ((GeneralPath) shape).curveTo(-256.55606, -656.81976, -253.88306, -656.4437, -251.22505, -655.97473);
        ((GeneralPath) shape).curveTo(-248.41205, -655.47876, -245.58005, -654.2857, -241.93105, -656.6337);
        ((GeneralPath) shape).curveTo(-245.06804, -659.60175, -248.43405, -661.26874, -251.40105, -663.42175);
        ((GeneralPath) shape).curveTo(-254.69905, -665.8168, -258.04205, -668.1547, -261.25806, -670.6547);
        ((GeneralPath) shape).curveTo(-264.26205, -672.9887, -267.17706, -675.4447, -270.03607, -677.9547);
        ((GeneralPath) shape).curveTo(-273.02606, -680.57874, -276.30508, -682.9487, -279.12006, -687.0637);
        ((GeneralPath) shape).curveTo(-272.15906, -686.0067, -266.23904, -681.4867, -259.78705, -685.2707);
        ((GeneralPath) shape).curveTo(-259.34705, -688.8177, -260.40704, -691.5767, -261.51904, -694.3477);
        ((GeneralPath) shape).curveTo(-263.94904, -700.3967, -266.38605, -706.4437, -268.70804, -712.5347);
        ((GeneralPath) shape).curveTo(-270.33102, -716.79175, -272.13504, -721.0357, -272.05005, -726.3007);
        ((GeneralPath) shape).curveTo(-270.67905, -725.8197, -269.67105, -725.61774, -268.81506, -725.1427);
        ((GeneralPath) shape).curveTo(-262.40308, -721.5857, -256.01907, -717.9777, -249.63106, -714.3777);
        ((GeneralPath) shape).curveTo(-248.21706, -713.5807, -246.87006, -712.64667, -245.40605, -711.9617);
        ((GeneralPath) shape).curveTo(-243.86705, -711.24066, -241.77405, -712.6437, -241.96506, -714.25165);
        ((GeneralPath) shape).curveTo(-242.15605, -715.8547, -242.47606, -717.46564, -242.94806, -719.00867);
        ((GeneralPath) shape).curveTo(-245.55305, -727.53265, -248.22105, -736.0367, -250.86707, -744.54767);
        ((GeneralPath) shape).curveTo(-248.31207, -744.5387, -247.51506, -742.2287, -246.17307, -740.73364);
        ((GeneralPath) shape).curveTo(-239.27507, -733.04767, -232.51607, -725.2346, -225.58307, -717.58167);
        ((GeneralPath) shape).curveTo(-223.59007, -715.38165, -221.23506, -713.49164, -218.93407, -711.59467);
        ((GeneralPath) shape).curveTo(-217.41707, -710.3437, -215.63307, -709.69965, -213.03006, -710.8597);
        ((GeneralPath) shape).curveTo(-212.97305, -712.9537, -212.85007, -715.3367, -212.85606, -717.71967);
        ((GeneralPath) shape).curveTo(-212.87007, -723.15265, -212.99207, -728.58466, -212.96106, -734.01764);
        ((GeneralPath) shape).curveTo(-212.95406, -735.18665, -213.52606, -736.79266, -211.33105, -737.3956);
        ((GeneralPath) shape).curveTo(-210.54906, -736.42566, -209.60106, -735.45465, -208.88806, -734.33264);
        ((GeneralPath) shape).curveTo(-204.05707, -726.73065, -198.01506, -720.09265, -192.32506, -713.1616);
        ((GeneralPath) shape).curveTo(-188.36707, -708.3416, -184.89206, -703.1196, -181.29706, -698.0106);
        ((GeneralPath) shape).curveTo(-179.58105, -695.5706, -178.14406, -692.93463, -176.45706, -690.47064);
        ((GeneralPath) shape).curveTo(-175.94206, -689.7186, -175.01807, -689.2446, -173.48807, -687.99567);
        ((GeneralPath) shape).curveTo(-173.20807, -690.2577, -172.65306, -691.5997, -172.97507, -692.6827);
        ((GeneralPath) shape).curveTo(-174.51607, -697.87366, -175.71106, -703.2837, -178.09407, -708.0877);
        ((GeneralPath) shape).curveTo(-186.49007, -725.0107, -197.34708, -740.2337, -211.14407, -753.2437);
        ((GeneralPath) shape).curveTo(-211.98207, -754.0337, -213.18707, -754.4337, -214.63007, -755.2457);
        ((GeneralPath) shape).curveTo(-216.61807, -744.8137, -218.47406, -735.07776, -220.55606, -724.15674);
        ((GeneralPath) shape).curveTo(-222.11006, -726.07874, -222.87706, -727.06775, -223.68607, -728.02075);
        ((GeneralPath) shape).curveTo(-227.90007, -732.98676, -231.67706, -738.4338, -236.44307, -742.79974);
        ((GeneralPath) shape).curveTo(-245.42506, -751.0278, -253.97208, -759.5928, -261.52106, -769.7357);
        ((GeneralPath) shape).curveTo(-262.01605, -768.6367, -262.60507, -767.95874, -262.55206, -767.3357);
        ((GeneralPath) shape).curveTo(-262.31708, -764.6397, -262.13705, -761.9007, -261.49707, -759.28467);
        ((GeneralPath) shape).curveTo(-259.43307, -750.84564, -257.18008, -742.45264, -254.98708, -734.04565);
        ((GeneralPath) shape).curveTo(-254.26608, -731.28064, -253.37007, -728.53766, -253.82507, -725.17865);
        ((GeneralPath) shape).curveTo(-259.3401, -726.8597, -264.12808, -728.6146, -268.41507, -731.59064);
        ((GeneralPath) shape).curveTo(-271.29007, -733.58563, -274.44406, -734.86365, -278.73407, -735.43964);
        ((GeneralPath) shape).curveTo(-278.24008, -721.22864, -272.91208, -708.20667, -272.42807, -693.53265);
        ((GeneralPath) shape).curveTo(-280.04108, -698.66364, -285.89606, -704.10767, -290.43707, -710.99066);
        ((GeneralPath) shape).curveTo(-302.42007, -729.15063, -313.73508, -747.70166, -323.89908, -766.95166);
        ((GeneralPath) shape).curveTo(-340.14508, -797.72064, -355.32208, -829.01764, -369.99408, -860.55365);
        ((GeneralPath) shape).curveTo(-378.93207, -879.76263, -387.7331, -899.0577, -395.82108, -918.63367);
        ((GeneralPath) shape).curveTo(-419.61508, -976.2217, -438.62607, -1035.4037, -453.86008, -1095.8137);
        ((GeneralPath) shape).curveTo(-458.3101, -1113.4587, -462.7621, -1131.1067, -465.5641, -1149.1127);
        ((GeneralPath) shape).curveTo(-468.02808, -1164.9497, -470.4751, -1180.7887, -472.8661, -1196.6367);
        ((GeneralPath) shape).curveTo(-475.90707, -1216.8007, -478.3111, -1237.0308, -478.9911, -1257.4357);
        ((GeneralPath) shape).curveTo(-479.0901, -1260.4187, -479.4501, -1263.3937, -479.7031, -1266.3707);
        ((GeneralPath) shape).curveTo(-480.6211, -1277.1987, -481.6301, -1288.0187, -482.41708, -1298.8557);
        ((GeneralPath) shape).curveTo(-482.64807, -1302.0427, -483.0911, -1305.3607, -481.54108, -1308.5477);
        ((GeneralPath) shape).curveTo(-472.10907, -1307.5508, -462.75607, -1306.5627, -453.5171, -1305.5867);
        ((GeneralPath) shape).curveTo(-451.4541, -1301.0306, -451.86908, -1296.6177, -451.8291, -1292.3326);
        ((GeneralPath) shape).curveTo(-451.6611, -1274.3026, -448.6861, -1256.6406, -445.1061, -1239.0516);
        ((GeneralPath) shape).curveTo(-444.94812, -1238.2756, -444.31512, -1237.5956, -443.9031, -1236.8706);
        ((GeneralPath) shape).curveTo(-442.8341, -1238.7476, -442.7601, -1240.3236, -442.8461, -1241.8906);
        ((GeneralPath) shape).curveTo(-443.7731, -1258.7136, -444.7561, -1275.5336, -445.6461, -1292.3586);
        ((GeneralPath) shape).curveTo(-445.84308, -1296.0776, -446.6741, -1299.8556, -445.43808, -1303.8536);
        ((GeneralPath) shape).curveTo(-436.77808, -1305.1747, -428.55408, -1302.3527, -420.19507, -1302.5027);
        ((GeneralPath) shape).curveTo(-416.75406, -1302.5637, -413.10907, -1302.8176, -409.41507, -1300.8597);
        ((GeneralPath) shape).curveTo(-409.41507, -1298.8588, -409.23907, -1296.7047, -409.44708, -1294.5878);
        ((GeneralPath) shape).curveTo(-410.13907, -1287.5587, -411.0641, -1280.5527, -411.7241, -1273.5208);
        ((GeneralPath) shape).curveTo(-412.8971, -1261.0448, -412.78708, -1248.5448, -412.0311, -1236.0487);
        ((GeneralPath) shape).curveTo(-411.9371, -1234.4967, -412.0041, -1232.7157, -409.6021, -1231.9847);
        ((GeneralPath) shape).curveTo(-409.3501, -1232.9797, -408.97412, -1233.9268, -408.88412, -1234.8998);
        ((GeneralPath) shape).curveTo(-407.08612, -1254.3707, -405.3351, -1273.8447, -403.53513, -1293.3158);
        ((GeneralPath) shape).curveTo(-403.28812, -1295.9818, -403.02512, -1298.6877, -401.61414, -1300.8278);
        ((GeneralPath) shape).curveTo(-393.21112, -1302.4647, -379.89114, -1302.1498, -373.51312, -1300.0818);
        ((GeneralPath) shape).curveTo(-373.51312, -1297.0658, -373.28412, -1293.8368, -373.55713, -1290.6508);
        ((GeneralPath) shape).curveTo(-374.36914, -1281.1768, -375.40912, -1271.7218, -376.30313, -1262.2548);
        ((GeneralPath) shape).curveTo(-376.99213, -1254.9528, -377.67514, -1247.6498, -378.22113, -1240.3358);
        ((GeneralPath) shape).curveTo(-379.19012, -1227.3268, -379.90912, -1214.2979, -380.99512, -1201.2998);
        ((GeneralPath) shape).curveTo(-382.51312, -1183.1328, -383.32013, -1164.9688, -382.51312, -1146.7318);
        ((GeneralPath) shape).curveTo(-381.26312, -1118.4908, -379.33212, -1090.3048, -376.94113, -1062.1338);
        ((GeneralPath) shape).curveTo(-375.03113, -1039.6218, -371.82913, -1017.3028, -367.70615, -995.15076);
        ((GeneralPath) shape).curveTo(-362.14413, -965.26074, -355.98013, -935.46875, -349.39413, -905.78674);
        ((GeneralPath) shape).curveTo(-342.43112, -874.4047, -331.60614, -844.2327, -318.65213, -814.83673);
        ((GeneralPath) shape).curveTo(-316.46613, -809.87573, -313.78412, -805.1207, -311.11612, -800.3927);
        ((GeneralPath) shape).curveTo(-310.4291, -799.1747, -309.0451, -798.3487, -307.92313, -797.3767);
        ((GeneralPath) shape).curveTo(-308.21512, -798.8567, -308.37314, -800.3867, -308.8951, -801.78174);
        ((GeneralPath) shape).curveTo(-313.0791, -812.97174, -317.4491, -824.0927, -321.5621, -835.3087);
        ((GeneralPath) shape).curveTo(-328.9491, -855.45074, -336.14612, -875.65674, -340.9571, -896.6207);
        ((GeneralPath) shape).curveTo(-348.5511, -929.7077, -355.5231, -962.92474, -360.96408, -996.43475);
        ((GeneralPath) shape).curveTo(-363.79208, -1013.85175, -366.35107, -1031.3278, -367.10208, -1049.0057);
        ((GeneralPath) shape).curveTo(-367.32108, -1054.1598, -367.97107, -1059.2947, -368.3281, -1064.4447);
        ((GeneralPath) shape).curveTo(-369.26608, -1077.9867, -370.5731, -1091.5217, -370.9651, -1105.0807);
        ((GeneralPath) shape).curveTo(-371.63208, -1128.1697, -371.8551, -1151.2777, -369.6201, -1174.3237);
        ((GeneralPath) shape).curveTo(-368.30807, -1187.8407, -367.27408, -1201.3907, -365.6811, -1214.8738);
        ((GeneralPath) shape).curveTo(-363.8341, -1230.5128, -361.52408, -1246.0968, -359.37408, -1261.6987);
        ((GeneralPath) shape).curveTo(-359.1601, -1263.2548, -358.66708, -1264.7727, -358.23608, -1266.5907);
        ((GeneralPath) shape).curveTo(-352.04007, -1266.3057, -346.12207, -1265.9637, -340.1991, -1265.7806);
        ((GeneralPath) shape).curveTo(-333.9561, -1265.5876, -327.6861, -1265.8276, -321.4681, -1265.3546);
        ((GeneralPath) shape).curveTo(-315.6151, -1264.9097, -309.6211, -1266.4026, -303.71912, -1264.6676);
        ((GeneralPath) shape).curveTo(-303.48712, -1263.1456, -303.1831, -1262.1027, -303.1931, -1261.0626);
        ((GeneralPath) shape).curveTo(-303.26312, -1253.7256, -303.33713, -1246.3876, -303.52612, -1239.0526);
        ((GeneralPath) shape).curveTo(-303.74313, -1230.6376, -304.39813, -1222.2216, -304.28214, -1213.8146);
        ((GeneralPath) shape).curveTo(-304.14615, -1204.0416, -303.43515, -1194.2756, -302.87415, -1184.5116);
        ((GeneralPath) shape).curveTo(-301.93915, -1168.2366, -300.87015, -1151.9686, -299.95914, -1135.6926);
        ((GeneralPath) shape).curveTo(-298.73013, -1113.7186, -297.09714, -1091.7786, -294.56613, -1069.9126);
        ((GeneralPath) shape).curveTo(-291.56815, -1044.0146, -288.74612, -1018.0916, -285.39313, -992.2386);
        ((GeneralPath) shape).curveTo(-282.07614, -966.66156, -278.11914, -941.1676, -274.59213, -915.61755);
        ((GeneralPath) shape).curveTo(-273.07013, -904.59357, -271.91113, -893.51855, -270.60913, -882.46454);
        ((GeneralPath) shape).curveTo(-269.27512, -871.14453, -268.36014, -859.7595, -266.56613, -848.51355);
        ((GeneralPath) shape).curveTo(-262.84113, -825.16956, -257.31213, -802.2026, -250.96013, -779.4396);
        ((GeneralPath) shape).curveTo(-250.04514, -776.1606, -248.63313, -773.02057, -247.43112, -769.8216);
        ((GeneralPath) shape).curveTo(-246.75412, -775.4586, -247.97412, -780.9526, -248.78513, -786.46857);
        ((GeneralPath) shape).curveTo(-250.72012, -799.6316, -252.38513, -812.84656, -254.77513, -825.92755);
        ((GeneralPath) shape).curveTo(-257.17212, -839.04456, -258.86014, -852.23157, -260.32214, -865.46454);
        ((GeneralPath) shape).curveTo(-261.57513, -876.80853, -262.80014, -888.15656, -264.11615, -899.4935);
        ((GeneralPath) shape).curveTo(-265.52615, -911.63556, -267.08115, -923.76154, -268.47714, -935.9055);
        ((GeneralPath) shape).curveTo(-269.71713, -946.7035, -270.71313, -957.5305, -272.02014, -968.3205);
        ((GeneralPath) shape).curveTo(-274.43814, -988.2785, -277.40814, -1008.1775, -279.40915, -1028.1755);
        ((GeneralPath) shape).curveTo(-282.08615, -1054.9435, -284.05215, -1081.7815, -286.34015, -1108.5875);
        ((GeneralPath) shape).curveTo(-286.89413, -1115.0845, -287.55316, -1121.5715, -288.09116, -1128.0696);
        ((GeneralPath) shape).curveTo(-288.98715, -1138.9016, -289.90616, -1149.7335, -290.66617, -1160.5756);
        ((GeneralPath) shape).curveTo(-291.52118, -1172.7736, -292.15317, -1184.9875, -292.98718, -1197.1875);
        ((GeneralPath) shape).curveTo(-293.8022, -1209.1115, -294.75317, -1221.0255, -295.63718, -1232.9445);
        ((GeneralPath) shape).curveTo(-296.28217, -1241.6324, -296.60318, -1250.3135, -295.38116, -1258.9895);
        ((GeneralPath) shape).curveTo(-293.78818, -1270.3005, -292.54315, -1281.6425, -292.50516, -1293.0885);
        ((GeneralPath) shape).curveTo(-292.50116, -1294.3475, -292.11615, -1295.6045, -291.84317, -1297.2555);
        ((GeneralPath) shape).curveTo(-282.4272, -1295.9855, -273.36417, -1295.3545, -264.01016, -1293.4495);
        ((GeneralPath) shape).curveTo(-264.37115, -1291.5764, -264.58417, -1290.2825, -264.87317, -1289.0055);
        ((GeneralPath) shape).curveTo(-265.71118, -1285.3005, -266.75018, -1281.6315, -267.40616, -1277.8955);
        ((GeneralPath) shape).curveTo(-270.18417, -1262.0546, -270.85516, -1246.0325, -271.21417, -1229.9955);
        ((GeneralPath) shape).curveTo(-271.28116, -1227.0155, -270.99017, -1224.0175, -270.68716, -1221.0465);
        ((GeneralPath) shape).curveTo(-270.58316, -1220.0175, -270.93716, -1218.4395, -268.94815, -1218.1135);
        ((GeneralPath) shape).curveTo(-267.64215, -1226.0415, -266.49915, -1233.8135, -265.06015, -1241.5295);
        ((GeneralPath) shape).curveTo(-262.42215, -1255.6796, -259.71915, -1269.8185, -256.78217, -1283.9076);
        ((GeneralPath) shape).curveTo(-256.14716, -1286.9546, -255.83417, -1290.4116, -253.23117, -1292.5966);
        ((GeneralPath) shape).curveTo(-240.13817, -1293.1896, -234.08318, -1292.5625, -228.32417, -1290.0526);
        ((GeneralPath) shape).curveTo(-227.17218, -1285.0646, -229.12218, -1280.3687, -229.78517, -1275.5686);
        ((GeneralPath) shape).curveTo(-231.34618, -1264.2697, -233.15417, -1253.0037, -234.84618, -1241.7227);
        ((GeneralPath) shape).curveTo(-235.27718, -1238.8486, -235.65318, -1235.9677, -236.05318, -1233.0896);
        ((GeneralPath) shape).curveTo(-233.54817, -1234.6075, -233.04218, -1237.3276, -232.13017, -1239.7876);
        ((GeneralPath) shape).curveTo(-227.02017, -1253.5646, -222.90918, -1267.6136, -220.60117, -1282.1566);
        ((GeneralPath) shape).curveTo(-220.14317, -1285.0406, -219.46516, -1287.8906, -218.80817, -1291.1586);
        ((GeneralPath) shape).curveTo(-209.43617, -1290.6335, -200.53116, -1290.1395, -191.62717, -1289.6285);
        ((GeneralPath) shape).curveTo(-190.81917, -1289.5825, -190.01317, -1289.4506, -189.21716, -1289.3005);
        ((GeneralPath) shape).curveTo(-189.00616, -1289.2605, -188.79216, -1289.0376, -188.65816, -1288.8435);
        ((GeneralPath) shape).curveTo(-188.50716, -1288.6255, -188.44516, -1288.3466, -188.31616, -1288.0215);
        ((GeneralPath) shape).curveTo(-191.14516, -1282.5215, -194.33516, -1277.1205, -196.78915, -1271.4034);
        ((GeneralPath) shape).curveTo(-203.97116, -1254.6714, -210.31915, -1237.6115, -215.21016, -1220.0575);
        ((GeneralPath) shape).moveTo(-250.90717, -744.6775);
        ((GeneralPath) shape).curveTo(-250.89417, -744.6355, -250.88017, -744.59247, -250.86717, -744.5495);
        ((GeneralPath) shape).curveTo(-250.91817, -744.5505, -250.95917, -744.5635, -251.01117, -744.5625);
        ((GeneralPath) shape).lineTo(-250.90717, -744.6775);
        ((GeneralPath) shape).closePath();
        ((GeneralPath) shape).moveTo(-382.23718, -329.7975);
        ((GeneralPath) shape).curveTo(-386.70117, -331.7685, -391.27618, -333.50848, -395.8722, -335.1525);
        ((GeneralPath) shape).curveTo(-397.5552, -335.7545, -399.4492, -335.7665, -401.6562, -336.1125);
        ((GeneralPath) shape).curveTo(-401.95618, -333.7855, -402.37518, -331.96048, -402.3982, -330.1315);
        ((GeneralPath) shape).curveTo(-402.6532, -310.0195, -401.70218, -289.9695, -399.96518, -269.9215);
        ((GeneralPath) shape).curveTo(-398.73517, -255.7395, -395.40918, -242.09251, -391.35617, -228.5655);
        ((GeneralPath) shape).curveTo(-387.22617, -214.7805, -382.54718, -201.1745, -376.66418, -188.0245);
        ((GeneralPath) shape).curveTo(-371.70218, -176.9375, -364.6522, -167.38951, -354.9532, -159.9575);
        ((GeneralPath) shape).curveTo(-352.59518, -158.1505, -350.02118, -156.6075, -347.46118, -155.0865);
        ((GeneralPath) shape).curveTo(-342.02917, -151.8585, -336.0522, -151.6985, -330.0662, -152.5805);
        ((GeneralPath) shape).curveTo(-325.0122, -153.3255, -320.8282, -156.0765, -318.00418, -160.2445);
        ((GeneralPath) shape).curveTo(-315.43918, -164.03151, -313.0752, -168.0995, -311.4802, -172.36351);
        ((GeneralPath) shape).curveTo(-309.3002, -178.18951, -307.6152, -184.24951, -306.2792, -190.3325);
        ((GeneralPath) shape).curveTo(-303.0192, -205.1725, -299.7582, -220.0265, -297.1062, -234.98251);
        ((GeneralPath) shape).curveTo(-294.4522, -249.94652, -292.5642, -265.00952, -292.7562, -280.3185);
        ((GeneralPath) shape).curveTo(-292.8502, -287.7495, -296.2682, -291.9305, -302.5052, -294.6925);
        ((GeneralPath) shape).curveTo(-302.75317, -294.8025, -303.01718, -294.87552, -303.27118, -294.97052);
        ((GeneralPath) shape).curveTo(-330.2592, -305.07153, -355.91818, -318.18152, -382.23718, -329.79752);
        ((GeneralPath) shape).moveTo(-380.26617, -134.99751);
        ((GeneralPath) shape).curveTo(-375.38718, -126.37651, -368.5652, -119.40651, -360.34616, -113.89851);
        ((GeneralPath) shape).curveTo(-351.16016, -107.742516, -341.37015, -107.62251, -331.81516, -112.54452);
        ((GeneralPath) shape).curveTo(-321.89316, -117.65452, -314.54916, -125.506516, -310.38416, -136.04852);
        ((GeneralPath) shape).curveTo(-310.01715, -136.97752, -309.92615, -138.01552, -309.31314, -140.77252);
        ((GeneralPath) shape).curveTo(-311.49915, -138.44353, -312.58115, -137.47552, -313.44513, -136.34052);
        ((GeneralPath) shape).curveTo(-317.74713, -130.68051, -322.84012, -125.84451, -328.64914, -121.78052);
        ((GeneralPath) shape).curveTo(-331.99313, -119.44152, -335.56113, -117.505516, -339.70114, -116.910515);
        ((GeneralPath) shape).curveTo(-346.72113, -115.90051, -353.28214, -116.97352, -358.77515, -121.714516);
        ((GeneralPath) shape).curveTo(-362.24814, -124.71152, -365.74313, -127.80652, -368.60715, -131.35751);
        ((GeneralPath) shape).curveTo(-373.19214, -137.04051, -377.26614, -143.13652, -381.54715, -149.06451);
        ((GeneralPath) shape).curveTo(-383.09216, -151.20352, -384.61514, -153.35852, -386.14716, -155.5075);
        ((GeneralPath) shape).curveTo(-386.75217, -147.9425, -383.83615, -141.30351, -380.26614, -134.99751);
        ((GeneralPath) shape).moveTo(-201.22615, -116.258514);
        ((GeneralPath) shape).curveTo(-198.18515, -99.90652, -190.46014, -86.62651, -175.26915, -78.910515);
        ((GeneralPath) shape).curveTo(-165.67415, -74.035515, -155.32115, -73.79151, -145.12614, -77.131516);
        ((GeneralPath) shape).curveTo(-134.86914, -80.49052, -126.02515, -86.39052, -118.76614, -94.30752);
        ((GeneralPath) shape).curveTo(-113.82614, -99.69552, -109.59215, -105.73252, -105.097145, -111.52252);
        ((GeneralPath) shape).curveTo(-104.65714, -112.08952, -104.60214, -112.95552, -104.36915, -113.682526);
        ((GeneralPath) shape).curveTo(-104.69115, -114.00953, -105.014145, -114.335526, -105.33715, -114.66152);
        ((GeneralPath) shape).curveTo(-107.53115, -113.10552, -109.76915, -111.60852, -111.90915, -109.98252);
        ((GeneralPath) shape).curveTo(-118.61715, -104.88752, -125.25015, -99.69252, -131.99216, -94.64452);
        ((GeneralPath) shape).curveTo(-134.81216, -92.53352, -137.77815, -90.599525, -140.77916, -88.751526);
        ((GeneralPath) shape).curveTo(-149.10316, -83.627525, -158.26616, -83.03953, -167.56915, -84.53953);
        ((GeneralPath) shape).curveTo(-173.94916, -85.56853, -179.01115, -89.348526, -183.35815, -94.02653);
        ((GeneralPath) shape).curveTo(-189.16615, -100.27853, -193.18016, -107.66653, -196.70816, -115.349525);
        ((GeneralPath) shape).curveTo(-197.49516, -117.06352, -198.15816, -118.835526, -198.87616, -120.573524);
        ((GeneralPath) shape).curveTo(-201.32216, -120.404526, -200.87616, -118.447525, -201.27615, -117.06653);
        ((GeneralPath) shape).curveTo(-201.34715, -116.821526, -201.27615, -116.52353, -201.22615, -116.25853);
        ((GeneralPath) shape).moveTo(-56.816147, -194.78253);
        ((GeneralPath) shape).curveTo(-49.949146, -206.80054, -42.998146, -218.81053, -39.045147, -232.19853);
        ((GeneralPath) shape).curveTo(-35.59015, -243.89653, -32.384148, -255.66853, -29.072147, -267.40854);
        ((GeneralPath) shape).curveTo(-28.925148, -267.93054, -28.807148, -268.46155, -28.705147, -268.99454);
        ((GeneralPath) shape).curveTo(-27.485147, -275.35754, -28.578146, -277.40955, -34.718147, -279.28055);
        ((GeneralPath) shape).curveTo(-38.078148, -280.30453, -41.545147, -281.17755, -45.025146, -281.56354);
        ((GeneralPath) shape).curveTo(-51.49415, -282.28055, -58.000145, -282.77155, -64.50314, -283.03653);
        ((GeneralPath) shape).curveTo(-82.404144, -283.76553, -100.30914, -284.39252, -118.21614, -284.92554);
        ((GeneralPath) shape).curveTo(-124.99414, -285.12653, -131.78413, -284.95853, -138.56815, -284.95853);
        ((GeneralPath) shape).curveTo(-138.56714, -284.91254, -138.56615, -284.86652, -138.56415, -284.82053);
        ((GeneralPath) shape).curveTo(-148.87215, -284.40454, -159.18115, -284.01752, -169.48615, -283.55753);
        ((GeneralPath) shape).curveTo(-174.12314, -283.35052, -175.08514, -282.39252, -175.60014, -277.78354);
        ((GeneralPath) shape).curveTo(-175.75114, -276.43753, -175.76614, -275.07452, -175.82214, -273.71854);
        ((GeneralPath) shape).curveTo(-176.48415, -257.71454, -176.75314, -241.68153, -177.90715, -225.71353);
        ((GeneralPath) shape).curveTo(-179.12315, -208.90353, -179.66216, -192.10153, -179.56615, -175.26154);
        ((GeneralPath) shape).curveTo(-179.50314, -164.39554, -179.24815, -153.54053, -177.50415, -142.78653);
        ((GeneralPath) shape).curveTo(-176.58815, -137.14752, -175.25815, -131.60553, -172.54015, -126.50853);
        ((GeneralPath) shape).curveTo(-168.29214, -118.54153, -161.95514, -114.60053, -152.62915, -115.44253);
        ((GeneralPath) shape).curveTo(-145.71014, -116.06753, -139.40715, -118.14853, -133.33914, -121.36953);
        ((GeneralPath) shape).curveTo(-100.87514, -138.59853, -75.096146, -162.79153, -56.81614, -194.78253);
        ((GeneralPath) shape).moveTo(-460.91614, -430.64252);
        ((GeneralPath) shape).curveTo(-453.34915, -428.45752, -445.80212, -426.2025, -438.21014, -424.10553);
        ((GeneralPath) shape).curveTo(-422.72015, -419.82852, -406.96515, -416.95752, -390.94614, -415.64352);
        ((GeneralPath) shape).curveTo(-378.68713, -414.6375, -366.47513, -415.74353, -354.35413, -417.3315);
        ((GeneralPath) shape).curveTo(-345.1711, -418.5335, -336.3221, -421.3095, -328.20013, -425.97052);
        ((GeneralPath) shape).curveTo(-326.90814, -426.71252, -325.79114, -427.75952, -323.58914, -429.42352);
        ((GeneralPath) shape).curveTo(-325.65915, -429.22052, -326.46213, -429.31253, -327.12714, -429.0515);
        ((GeneralPath) shape).curveTo(-337.63812, -424.9345, -348.64114, -423.46152, -359.81613, -422.9125);
        ((GeneralPath) shape).curveTo(-361.85114, -422.8125, -363.99112, -422.5075, -365.83414, -424.6715);
        ((GeneralPath) shape).curveTo(-364.44315, -425.98752, -363.36115, -427.1785, -362.11514, -428.16052);
        ((GeneralPath) shape).curveTo(-354.14413, -434.4515, -345.24713, -438.99353, -335.72516, -442.49753);
        ((GeneralPath) shape).curveTo(-330.11316, -444.56354, -324.84915, -444.90353, -319.14716, -442.6765);
        ((GeneralPath) shape).curveTo(-308.50015, -438.51852, -297.42816, -438.6075, -286.26816, -440.5465);
        ((GeneralPath) shape).curveTo(-287.95117, -441.2385, -289.69217, -441.4805, -291.42416, -441.7785);
        ((GeneralPath) shape).curveTo(-297.56915, -442.8335, -303.72617, -443.8355, -309.84418, -445.03052);
        ((GeneralPath) shape).curveTo(-311.17517, -445.29053, -312.36618, -446.26752, -314.52417, -447.3785);
        ((GeneralPath) shape).curveTo(-289.13116, -453.34552, -264.58716, -453.8205, -240.26917, -452.1495);
        ((GeneralPath) shape).curveTo(-237.52817, -448.2135, -237.33316, -444.6225, -238.29817, -440.69852);
        ((GeneralPath) shape).curveTo(-242.53917, -423.4595, -244.45618, -405.94852, -244.19917, -388.1935);
        ((GeneralPath) shape).curveTo(-244.17618, -386.62152, -244.61618, -385.04352, -244.90717, -383.0125);
        ((GeneralPath) shape).curveTo(-250.60716, -381.82852, -256.15018, -380.58252, -261.73117, -379.5375);
        ((GeneralPath) shape).curveTo(-273.19418, -377.39252, -283.42017, -372.6065, -292.51617, -365.36652);
        ((GeneralPath) shape).curveTo(-298.80417, -360.3615, -303.43018, -354.21252, -306.53918, -346.68652);
        ((GeneralPath) shape).curveTo(-308.5182, -341.89352, -307.59918, -338.35352, -304.31018, -334.85553);
        ((GeneralPath) shape).curveTo(-300.17017, -330.45154, -295.25818, -327.08054, -290.1822, -323.88354);
        ((GeneralPath) shape).curveTo(-271.2782, -311.97556, -250.43419, -308.23154, -228.5102, -309.47055);
        ((GeneralPath) shape).curveTo(-223.96419, -309.72855, -219.36919, -310.89255, -215.0152, -312.31155);
        ((GeneralPath) shape).curveTo(-209.6882, -314.04855, -206.6322, -318.05954, -205.9252, -323.75757);
        ((GeneralPath) shape).curveTo(-205.2342, -329.32257, -205.9832, -334.73358, -208.59221, -339.60156);
        ((GeneralPath) shape).curveTo(-212.0502, -346.05356, -215.7982, -352.38358, -219.8742, -358.46255);
        ((GeneralPath) shape).curveTo(-224.56421, -365.45755, -229.6492, -372.19754, -234.7702, -378.88855);
        ((GeneralPath) shape).curveTo(-236.7062, -381.41656, -237.73221, -383.97855, -237.4772, -387.13055);
        ((GeneralPath) shape).curveTo(-236.8652, -394.70856, -236.6942, -402.34555, -235.6362, -409.85855);
        ((GeneralPath) shape).curveTo(-234.1602, -420.33655, -232.1132, -430.73755, -230.1252, -441.13556);
        ((GeneralPath) shape).curveTo(-229.7352, -443.17856, -228.9102, -445.40656, -227.5902, -446.95755);
        ((GeneralPath) shape).curveTo(-221.29419, -454.35455, -213.43219, -458.83856, -203.41919, -458.31656);
        ((GeneralPath) shape).curveTo(-196.64319, -457.96356, -189.79019, -457.76956, -183.14319, -456.56055);
        ((GeneralPath) shape).curveTo(-168.18518, -453.83856, -153.29219, -450.71555, -138.45119, -447.40454);
        ((GeneralPath) shape).curveTo(-124.65318, -444.32553, -111.135185, -440.21555, -98.01219, -434.89755);
        ((GeneralPath) shape).curveTo(-96.36619, -434.23056, -94.44719, -433.86755, -93.72219, -431.34454);
        ((GeneralPath) shape).curveTo(-102.75719, -427.55453, -111.95719, -425.24255, -121.02019, -422.61053);
        ((GeneralPath) shape).curveTo(-129.8812, -420.03854, -138.85118, -417.73154, -147.8982, -415.94254);
        ((GeneralPath) shape).curveTo(-157.0662, -414.12955, -166.38719, -413.09253, -175.64119, -411.71555);
        ((GeneralPath) shape).curveTo(-174.78918, -410.99854, -174.00519, -410.81955, -173.2132, -410.77054);
        ((GeneralPath) shape).curveTo(-161.42819, -410.03754, -149.9262, -412.34055, -138.42319, -414.27353);
        ((GeneralPath) shape).curveTo(-121.00619, -417.20053, -103.77919, -421.07553, -86.748184, -425.77353);
        ((GeneralPath) shape).curveTo(-84.247185, -426.46353, -82.07719, -426.38254, -79.73618, -425.09753);
        ((GeneralPath) shape).curveTo(-68.27818, -418.80853, -56.91918, -412.40253, -47.501183, -403.11954);
        ((GeneralPath) shape).curveTo(-46.595184, -402.22653, -45.40618, -401.61954, -43.457184, -400.25653);
        ((GeneralPath) shape).curveTo(-43.781185, -402.53854, -43.730183, -403.87854, -44.175182, -405.02753);
        ((GeneralPath) shape).curveTo(-46.38618, -410.7455, -50.179184, -415.3445, -54.85018, -419.2065);
        ((GeneralPath) shape).curveTo(-58.40918, -422.1505, -62.160183, -424.8615, -65.75318, -427.7665);
        ((GeneralPath) shape).curveTo(-66.66218, -428.5015, -67.29118, -429.5835, -68.40718, -430.9415);
        ((GeneralPath) shape).curveTo(-49.81218, -436.8555, -32.273182, -443.4205, -15.445179, -451.7575);
        ((GeneralPath) shape).curveTo(1.3918209, -460.1005, 17.580822, -469.4815, 32.59782, -480.8725);
        ((GeneralPath) shape).curveTo(47.60582, -492.2565, 60.22782, -506.0915, 72.98082, -519.8925);
        ((GeneralPath) shape).curveTo(76.82182, -519.49054, 80.31982, -519.13654, 83.81582, -518.7555);
        ((GeneralPath) shape).curveTo(87.32782, -518.3735, 90.83682, -517.9595, 94.34782, -517.5705);
        ((GeneralPath) shape).curveTo(98.128815, -517.1515, 101.90182, -516.6125, 105.69382, -516.3715);
        ((GeneralPath) shape).curveTo(109.21682, -516.1485, 112.76182, -516.2965, 116.294815, -516.19354);
        ((GeneralPath) shape).curveTo(119.64581, -516.0955, 123.11781, -516.94653, 126.948814, -515.39954);
        ((GeneralPath) shape).curveTo(124.09482, -511.24252, 121.02281, -508.20154, 117.767815, -505.37354);
        ((GeneralPath) shape).curveTo(113.254814, -501.45255, 108.59281, -497.70255, 104.00082, -493.87152);
        ((GeneralPath) shape).curveTo(102.98682, -493.02454, 101.75882, -492.28152, 102.25781, -490.20853);
        ((GeneralPath) shape).curveTo(104.28381, -490.13452, 106.42681, -489.86252, 108.53481, -490.03354);
        ((GeneralPath) shape).curveTo(110.682816, -490.20755, 112.806816, -490.77054, 114.921814, -491.24854);
        ((GeneralPath) shape).curveTo(117.307816, -491.78754, 119.699814, -492.32953, 122.03781, -493.04153);
        ((GeneralPath) shape).curveTo(124.10381, -493.67154, 126.11981, -494.48654, 128.11981, -495.31055);
        ((GeneralPath) shape).curveTo(129.9378, -496.05954, 131.33081, -498.02155, 134.16281, -497.64655);
        ((GeneralPath) shape).curveTo(133.7738, -496.11655, 133.64781, -495.06955, 133.24881, -494.14053);
        ((GeneralPath) shape).curveTo(127.34881, -480.38754, 120.78781, -466.97052, 112.90581, -454.22653);
        ((GeneralPath) shape).curveTo(106.45881, -443.80054, 99.58381, -433.70654, 90.80981, -425.03455);
        ((GeneralPath) shape).curveTo(89.47181, -423.71155, 88.33481, -422.14355, 87.325806, -420.54855);
        ((GeneralPath) shape).curveTo(86.85081, -419.79855, 86.9008, -418.71555, 86.48981, -416.67957);
        ((GeneralPath) shape).curveTo(95.049805, -419.85757, 102.813805, -421.97757, 109.65381, -426.61456);
        ((GeneralPath) shape).curveTo(118.52481, -432.62857, 126.12281, -439.91956, 132.70981, -448.33356);
        ((GeneralPath) shape).curveTo(135.72382, -452.18457, 138.82881, -455.96756, 141.9528, -459.73157);
        ((GeneralPath) shape).curveTo(142.6988, -460.62958, 143.6858, -461.32758, 145.67581, -463.12256);
        ((GeneralPath) shape).curveTo(143.27982, -450.71356, 141.02881, -439.83655, 139.15181, -428.89557);
        ((GeneralPath) shape).curveTo(138.50981, -425.15756, 136.72081, -423.15256, 133.2528, -422.01758);
        ((GeneralPath) shape).curveTo(124.47581, -419.14557, 115.78081, -416.02557, 107.00481, -413.1526);
        ((GeneralPath) shape).curveTo(81.187805, -404.70358, 55.322807, -396.43558, 28.826805, -390.2816);
        ((GeneralPath) shape).curveTo(4.934805, -384.7316, -19.260197, -381.02258, -43.719193, -380.06458);
        ((GeneralPath) shape).curveTo(-65.70819, -379.20358, -87.76619, -379.39456, -109.77319, -379.9546);
        ((GeneralPath) shape).curveTo(-126.61119, -380.3826, -143.38919, -382.3466, -159.8622, -386.18658);
        ((GeneralPath) shape).curveTo(-166.1292, -387.64658, -172.3542, -389.2876, -178.5972, -390.84958);
        ((GeneralPath) shape).curveTo(-177.0022, -388.03857, -173.9752, -387.4246, -171.3092, -386.47256);
        ((GeneralPath) shape).curveTo(-157.71521, -381.61755, -143.7222, -378.26056, -129.4762, -376.02057);
        ((GeneralPath) shape).curveTo(-111.185196, -373.14456, -92.70819, -372.25656, -74.24919, -371.49158);
        ((GeneralPath) shape).curveTo(-46.76219, -370.35358, -19.359192, -371.37057, 7.8368073, -375.96658);
        ((GeneralPath) shape).curveTo(30.626808, -379.81857, 53.162807, -384.72958, 75.23981, -391.6526);
        ((GeneralPath) shape).curveTo(93.41681, -397.3526, 111.09581, -404.31058, 128.36281, -412.3436);
        ((GeneralPath) shape).curveTo(130.4488, -413.3146, 132.4288, -414.9096, 135.1678, -414.3706);
        ((GeneralPath) shape).curveTo(135.2278, -413.3866, 135.4718, -412.55762, 135.2928, -411.8326);
        ((GeneralPath) shape).curveTo(133.0178, -402.6076, 130.6388, -393.4086, 128.3738, -384.1806);
        ((GeneralPath) shape).curveTo(126.7578, -377.5946, 125.0758, -371.0146, 123.7858, -364.3616);
        ((GeneralPath) shape).curveTo(122.385796, -357.1456, 120.5438, -350.0826, 118.2538, -343.0996);
        ((GeneralPath) shape).curveTo(117.2278, -339.97162, 115.6928, -338.0606, 112.4078, -337.0906);
        ((GeneralPath) shape).curveTo(94.914795, -331.9276, 77.190796, -327.9646, 59.0588, -325.82062);
        ((GeneralPath) shape).curveTo(44.4408, -324.09262, 29.7648, -324.1216, 15.084801, -323.8796);
        ((GeneralPath) shape).curveTo(-14.689199, -323.38962, -44.0412, -326.9796, -73.1352, -332.9226);
        ((GeneralPath) shape).curveTo(-116.754196, -341.83362, -158.4292, -356.4786, -198.44519, -375.9176);
        ((GeneralPath) shape).curveTo(-199.33719, -376.35062, -200.34119, -377.0406, -201.53918, -375.4906);
        ((GeneralPath) shape).curveTo(-199.18619, -372.0976, -195.43819, -370.3166, -191.91219, -368.5996);
        ((GeneralPath) shape).curveTo(-179.2172, -362.4186, -166.58418, -356.0306, -153.54619, -350.64362);
        ((GeneralPath) shape).curveTo(-109.53219, -332.45862, -63.72419, -321.30762, -16.226181, -317.65262);
        ((GeneralPath) shape).curveTo(7.1008186, -315.85663, 30.511818, -316.06763, 53.875816, -317.49063);
        ((GeneralPath) shape).curveTo(59.547817, -317.83563, 65.184814, -318.95163, 70.80582, -319.90662);
        ((GeneralPath) shape).curveTo(83.69282, -322.09662, 96.25781, -325.49762, 108.52682, -330.0386);
        ((GeneralPath) shape).curveTo(110.098816, -330.6196, 111.809814, -332.2606, 114.058815, -330.4606);
        ((GeneralPath) shape).curveTo(113.33981, -327.9876, 112.709816, -325.3826, 111.82881, -322.8646);
        ((GeneralPath) shape).curveTo(105.09581, -303.63858, 98.28381, -284.4396, 91.55281, -265.2126);
        ((GeneralPath) shape).curveTo(82.57581, -239.56758, 73.09581, -214.11859, 62.69981, -189.00458);
        ((GeneralPath) shape).curveTo(57.30081, -175.96259, 52.05981, -162.82858, 48.38481, -149.14658);
        ((GeneralPath) shape).curveTo(44.222813, -133.65958, 40.28781, -118.14358, 38.95381, -102.07458);
        ((GeneralPath) shape).curveTo(38.01081, -90.703575, 36.626812, -79.368576, 35.60781, -68.00258);
        ((GeneralPath) shape).curveTo(35.29481, -64.51758, 35.30381, -60.96558, 35.57281, -57.47558);
        ((GeneralPath) shape).curveTo(36.07181, -51.03758, 36.87181, -44.623577, 37.58881, -37.788578);
        ((GeneralPath) shape).curveTo(32.94781, -38.812576, 30.87081, -43.96058, 25.52581, -43.91858);
        ((GeneralPath) shape).curveTo(25.63381, -36.67858, 28.20281, -30.066578, 29.291811, -22.85458);
        ((GeneralPath) shape).curveTo(23.494812, -22.98058, 19.29781, -28.08358, 12.9698105, -26.55158);
        ((GeneralPath) shape).curveTo(18.329811, -18.72258, 27.15981, -15.27058, 33.06581, -7.6315804);
        ((GeneralPath) shape).curveTo(30.550812, -7.6315804, 28.946812, -7.56858, 27.348812, -7.64058);
        ((GeneralPath) shape).curveTo(3.9348125, -8.6955805, -19.387188, -7.69558, -42.586185, -4.33558);
        ((GeneralPath) shape).curveTo(-63.286186, -1.33758, -83.943184, 1.91542, -104.342186, 6.6344204);
        ((GeneralPath) shape).curveTo(-135.56418, 13.85742, -166.80418, 20.99842, -198.04019, 28.157421);
        ((GeneralPath) shape).curveTo(-199.55519, 28.504421, -201.10619, 28.697422, -202.7862, 28.986422);
        ((GeneralPath) shape).curveTo(-202.6962, 28.197422, -202.76419, 27.792421, -202.6212, 27.694422);
        ((GeneralPath) shape).curveTo(-198.1432, 24.625422, -193.6962, 21.506422, -189.1362, 18.562422);
        ((GeneralPath) shape).curveTo(-184.0062, 15.251422, -180.0362, 10.841421, -176.6592, 5.8524218);
        ((GeneralPath) shape).curveTo(-176.1662, 5.1244216, -176.1472, 4.074422, -175.46219, 1.4834218);
        ((GeneralPath) shape).curveTo(-187.19418, 7.416422, -197.77019, 12.109423, -208.86618, 15.548422);
        ((GeneralPath) shape).curveTo(-220.35118, 19.107422, -231.97118, 21.646421, -244.00818, 22.11642);
        ((GeneralPath) shape).lineTo(-243.88318, 22.063421);
        ((GeneralPath) shape).curveTo(-239.89719, 19.251421, -235.75517, 16.63142, -231.96417, 13.576421);
        ((GeneralPath) shape).curveTo(-227.29517, 9.813421, -225.17818, 4.742421, -225.31218, -1.965579);
        ((GeneralPath) shape).curveTo(-235.61919, 2.0384212, -245.67818, 5.028421, -255.94019, 7.2974205);
        ((GeneralPath) shape).curveTo(-266.4232, 9.61542, -276.8372, 12.508421, -289.0542, 11.74642);
        ((GeneralPath) shape).curveTo(-286.3942, 9.41342, -284.5672, 7.94942, -282.9072, 6.3154197);
        ((GeneralPath) shape).curveTo(-281.1712, 4.6064196, -279.4302, 2.8544197, -277.9992, 0.89741945);
        ((GeneralPath) shape).curveTo(-276.6412, -0.95958054, -273.7202, -1.5985806, -273.4572, -4.9285808);
        ((GeneralPath) shape).curveTo(-274.99622, -4.9285808, -276.25122, -4.9365807, -277.5072, -4.927581);
        ((GeneralPath) shape).curveTo(-285.1052, -4.867581, -292.75922, -4.1985807, -300.2872, -4.892581);
        ((GeneralPath) shape).curveTo(-310.2762, -5.811581, -320.2092, -7.562581, -330.0912, -9.363581);
        ((GeneralPath) shape).curveTo(-360.63818, -14.931581, -390.4152, -23.239582, -419.18118, -35.023582);
        ((GeneralPath) shape).curveTo(-430.0062, -39.45758, -439.96817, -45.58058, -450.30017, -50.978584);
        ((GeneralPath) shape).curveTo(-451.15518, -51.424583, -452.43817, -51.757584, -452.09018, -53.618584);
        ((GeneralPath) shape).curveTo(-449.56317, -54.815582, -445.61417, -54.238583, -444.30118, -58.508583);
        ((GeneralPath) shape).curveTo(-446.35117, -60.693584, -448.5782, -63.015583, -450.72418, -65.409584);
        ((GeneralPath) shape).curveTo(-451.01517, -65.73358, -450.90518, -66.41759, -450.98218, -66.94158);
        ((GeneralPath) shape).curveTo(-449.56717, -67.61858, -448.15018, -68.296585, -446.60117, -69.03858);
        ((GeneralPath) shape).curveTo(-446.20816, -72.657585, -445.78915, -76.14158, -445.45816, -79.63458);
        ((GeneralPath) shape).curveTo(-444.56317, -89.100586, -443.64615, -98.56458, -442.85516, -108.03958);
        ((GeneralPath) shape).curveTo(-442.38116, -113.72058, -442.20016, -119.42658, -441.75818, -125.11158);
        ((GeneralPath) shape).curveTo(-441.20917, -132.15659, -440.00317, -139.19058, -440.00018, -146.22958);
        ((GeneralPath) shape).curveTo(-439.99118, -167.71158, -437.51218, -189.12558, -438.4232, -210.62457);
        ((GeneralPath) shape).curveTo(-438.9982, -224.19957, -438.94818, -237.82857, -440.1882, -251.34058);
        ((GeneralPath) shape).curveTo(-442.0512, -271.62756, -443.1422, -291.98157, -445.9442, -312.20056);
        ((GeneralPath) shape).curveTo(-448.0302, -327.25858, -449.2922, -342.42657, -452.4252, -357.33957);
        ((GeneralPath) shape).curveTo(-452.9102, -359.64557, -452.80222, -362.07455, -452.9422, -364.08057);
        ((GeneralPath) shape).curveTo(-450.2222, -366.14157, -447.6962, -365.58356, -445.3112, -365.60156);
        ((GeneralPath) shape).curveTo(-436.8822, -365.66656, -428.45117, -365.59555, -420.02118, -365.63257);
        ((GeneralPath) shape).curveTo(-400.0622, -365.72058, -380.45117, -368.22858, -361.39017, -374.33456);
        ((GeneralPath) shape).curveTo(-348.89017, -378.33957, -337.08817, -383.78357, -326.62418, -391.84155);
        ((GeneralPath) shape).curveTo(-325.69818, -392.55457, -324.06616, -393.06354, -324.9882, -395.14655);
        ((GeneralPath) shape).curveTo(-326.4642, -394.36255, -327.90518, -393.67953, -329.26718, -392.86154);
        ((GeneralPath) shape).curveTo(-341.74017, -385.37054, -355.27417, -380.49753, -369.33218, -377.14655);
        ((GeneralPath) shape).curveTo(-396.8072, -370.59854, -424.7212, -369.73755, -452.78317, -371.41254);
        ((GeneralPath) shape).curveTo(-453.50616, -371.45554, -454.19516, -372.08752, -454.88016, -372.43555);
        ((GeneralPath) shape).curveTo(-455.22314, -373.28055, -455.62814, -373.99954, -455.81216, -374.77054);
        ((GeneralPath) shape).curveTo(-460.14417, -393.00153, -464.46616, -411.23453, -468.72217, -429.48254);
        ((GeneralPath) shape).curveTo(-468.93417, -430.39554, -468.52716, -431.45255, -468.36618, -432.79855);
        ((GeneralPath) shape).curveTo(-465.57117, -431.98956, -463.24118, -431.31454, -460.9112, -430.64255);

        g.setPaint(new Color(0xF5E8AA));
        g.fill(shape);

        g.setTransform(transformations.pop()); // _0_0_0_12
        transformations.push(g.getTransform());
        g.transform(new AffineTransform(1, 0, 0, 1, 1116.8f, 1167.3f));

        // _0_0_0_13

        // _0_0_0_13_0
        shape = new GeneralPath();
        ((GeneralPath) shape).moveTo(0.0, 0.0);
        ((GeneralPath) shape).curveTo(2.012, -3.173, 1.437, -5.56, -0.264, -7.471);
        ((GeneralPath) shape).curveTo(-2.406, -9.876, -4.674, -12.32, -7.325, -14.094);
        ((GeneralPath) shape).curveTo(-18.640999, -21.667, -30.935001, -27.314999, -43.865, -31.51);
        ((GeneralPath) shape).curveTo(-48.243, -32.931, -52.850002, -33.588, -57.508003, -33.131);
        ((GeneralPath) shape).curveTo(-64.253006, -32.47, -69.987, -30.065, -73.656006, -23.871);
        ((GeneralPath) shape).curveTo(-72.381004, -20.632, -69.728004, -19.156, -67.295006, -17.536);
        ((GeneralPath) shape).curveTo(-54.924004, -9.296999, -40.951004, -5.048999, -26.744007, -1.4159985);
        ((GeneralPath) shape).curveTo(-17.978008, 0.8250015, -9.110006, 0.9190016, -7.6293945E-6, 1.5497208E-6);

        g.setPaint(new Color(0xF77959));
        g.fill(shape);

        g.setTransform(transformations.pop()); // _0_0_0_13
        transformations.push(g.getTransform());
        g.transform(new AffineTransform(1, 0, 0, 1, 1205.8f, 1027.1f));

        // _0_0_0_14

        // _0_0_0_14_0
        shape = new GeneralPath();
        ((GeneralPath) shape).moveTo(0.0, 0.0);
        ((GeneralPath) shape).curveTo(11.773, 3.539, 23.433, 6.255, 35.794, 10.367);
        ((GeneralPath) shape).curveTo(33.071, -0.04300022, 30.706, -9.0859995, 28.336998, -18.140999);
        ((GeneralPath) shape).curveTo(22.811998, -16.504, 5.8989983, -5.6659985, -1.9073486E-6, 1.9073486E-6);

        g.setPaint(WHITE);
        g.fill(shape);

        g.setTransform(transformations.pop()); // _0_0_0_14
        transformations.push(g.getTransform());
        g.transform(new AffineTransform(1, 0, 0, 1, 967.65f, 1187.5f));

        // _0_0_0_15

        // _0_0_0_15_0
        shape = new GeneralPath();
        ((GeneralPath) shape).moveTo(0.0, 0.0);
        ((GeneralPath) shape).curveTo(-2.038, 0.918, -4.448, 0.54, -6.038, -0.947);
        ((GeneralPath) shape).curveTo(-8.71, -3.445, -9.616, -8.116, -8.071, -11.417999);
        ((GeneralPath) shape).curveTo(-6.484, -14.806999, -1.5669999, -15.657999, 0.69299984, -12.665999);
        ((GeneralPath) shape).curveTo(2.0909998, -10.813999, 2.751, -8.403999, 3.202, -7.4229994);
        ((GeneralPath) shape).curveTo(3.2989998, -3.0179992, 2.21, -0.9949994, 0.0, 4.7683716E-7);
        ((GeneralPath) shape).moveTo(68.46, 93.072);
        ((GeneralPath) shape).curveTo(66.218, 104.542, 63.159, 115.831, 58.192, 126.489);
        ((GeneralPath) shape).curveTo(57.165, 128.691, 56.012, 130.89099, 54.565002, 132.83);
        ((GeneralPath) shape).curveTo(51.343002, 137.149, 46.850002, 138.896, 41.625004, 137.737);
        ((GeneralPath) shape).curveTo(38.769005, 137.104, 35.786003, 136.046, 33.435005, 134.372);
        ((GeneralPath) shape).curveTo(29.924006, 131.873, 26.705006, 128.86499, 23.740005, 125.716995);
        ((GeneralPath) shape).curveTo(14.236006, 115.617, 8.138005, 103.517, 3.9930058, 90.43199);
        ((GeneralPath) shape).curveTo(-0.35299444, 76.71199, -4.3849945, 62.89299, -8.513994, 49.10599);
        ((GeneralPath) shape).curveTo(-8.783995, 48.20599, -8.703994, 47.200993, -8.817994, 45.88699);
        ((GeneralPath) shape).curveTo(2.7750063, 52.56099, 4.293006, 52.99099, 17.509007, 53.13099);
        ((GeneralPath) shape).curveTo(16.390007, 50.70199, 15.642007, 49.042988, 14.865006, 47.397987);
        ((GeneralPath) shape).curveTo(10.209006, 37.54199, 13.604007, 28.072987, 23.518005, 23.788988);
        ((GeneralPath) shape).curveTo(29.735004, 21.101988, 36.126007, 20.662989, 42.549004, 23.246988);
        ((GeneralPath) shape).curveTo(43.992004, 23.826988, 45.445004, 24.382988, 47.260002, 25.093988);
        ((GeneralPath) shape).curveTo(50.561, 17.642988, 50.582, 10.008988, 51.512, 1.9389877);
        ((GeneralPath) shape).curveTo(53.800003, 2.6609879, 55.895, 3.0689878, 57.761, 3.9549878);
        ((GeneralPath) shape).curveTo(64.846, 7.3209877, 72.013, 10.577988, 77.855, 15.401987);
        ((GeneralPath) shape).curveTo(80.588005, 24.535988, 78.969, 33.244987, 77.672005, 41.737988);
        ((GeneralPath) shape).curveTo(75.047005, 58.91699, 71.79401, 76.00799, 68.46001, 93.068985);
        ((GeneralPath) shape).moveTo(228.18001, 45.315987);
        ((GeneralPath) shape).curveTo(225.60101, 46.540985, 223.014, 46.582985, 220.514, 44.93099);
        ((GeneralPath) shape).curveTo(216.10501, 42.01799, 216.408, 31.842987, 221.24101, 29.462988);
        ((GeneralPath) shape).curveTo(223.89502, 28.155989, 226.34702, 27.976988, 228.878, 29.527988);
        ((GeneralPath) shape).curveTo(231.92401, 31.394989, 233.07701, 34.266987, 233.21701, 37.29699);
        ((GeneralPath) shape).curveTo(233.11101, 41.27399, 231.35501, 43.80899, 228.18001, 45.31599);
        ((GeneralPath) shape).moveTo(341.82, 31.466991);
        ((GeneralPath) shape).curveTo(337.86002, 48.13299, 332.099, 64.16499, 325.59802, 80.02199);
        ((GeneralPath) shape).curveTo(317.959, 98.65799, 306.739, 114.66199, 293.43802, 129.61398);
        ((GeneralPath) shape).curveTo(277.89203, 147.08998, 260.09903, 161.46698, 239.33202, 172.14798);
        ((GeneralPath) shape).curveTo(235.74402, 173.99397, 231.93402, 175.63197, 228.03601, 176.60599);
        ((GeneralPath) shape).curveTo(219.64201, 178.70299, 214.81201, 175.67299, 213.35602, 167.20999);
        ((GeneralPath) shape).curveTo(212.07002, 159.73799, 210.89001, 152.14899, 210.76802, 144.594);
        ((GeneralPath) shape).curveTo(210.47803, 126.676994, 210.83502, 108.74999, 210.96303, 90.826996);
        ((GeneralPath) shape).curveTo(210.97102, 89.829994, 210.79402, 88.593994, 212.58803, 88.141);
        ((GeneralPath) shape).curveTo(221.52203, 95.432, 231.27502, 100.639, 244.06503, 95.791);
        ((GeneralPath) shape).curveTo(243.23604, 94.484, 242.78703, 93.542, 242.13103, 92.78);
        ((GeneralPath) shape).curveTo(234.60503, 84.038, 234.99002, 73.992, 242.76402, 65.925);
        ((GeneralPath) shape).curveTo(250.11203, 58.300003, 262.18103, 61.128002, 266.109, 67.962006);
        ((GeneralPath) shape).curveTo(267.027, 69.560005, 268.032, 71.108, 269.6, 73.66301);
        ((GeneralPath) shape).curveTo(272.723, 69.99901, 273.775, 66.63201, 274.898, 63.33001);
        ((GeneralPath) shape).curveTo(275.944, 60.25101, 276.996, 57.15601, 277.737, 53.99501);
        ((GeneralPath) shape).curveTo(278.539, 50.57001, 279.166, 47.08001, 279.531, 43.58201);
        ((GeneralPath) shape).curveTo(279.867, 40.35201, 279.94, 37.06601, 279.78702, 33.820007);
        ((GeneralPath) shape).curveTo(279.626, 30.433006, 279.057, 27.066008, 278.605, 23.153008);
        ((GeneralPath) shape).curveTo(282.177, 22.992008, 285.11902, 22.818008, 288.065, 22.737007);
        ((GeneralPath) shape).curveTo(292.949, 22.604008, 297.861, 22.814007, 302.716, 22.375008);
        ((GeneralPath) shape).curveTo(314.177, 21.338007, 325.486, 22.339008, 336.754, 24.303007);
        ((GeneralPath) shape).curveTo(338.578, 24.621008, 340.368, 25.133007, 342.514, 25.635008);
        ((GeneralPath) shape).curveTo(342.268, 27.793007, 342.245, 29.678009, 341.82, 31.467007);

        g.fill(shape);

        g.setTransform(transformations.pop()); // _0_0_0_15
        transformations.push(g.getTransform());
        g.transform(new AffineTransform(1, 0, 0, 1, 1376.4f, 1464.5f));

        // _0_0_0_16

        // _0_0_0_16_0
        shape = new GeneralPath();
        ((GeneralPath) shape).moveTo(0.0, 0.0);
        ((GeneralPath) shape).curveTo(4.286, 4.138, 7.21, 9.664, 8.22, 15.535);
        ((GeneralPath) shape).curveTo(0.4420004, 15.615, -7.3359995, 15.695, -15.114999, 15.775);
        ((GeneralPath) shape).curveTo(-17.658998, 20.885, -16.442999, 27.223999, -13.460999, 32.092);
        ((GeneralPath) shape).curveTo(-10.477999, 36.96, -5.9669986, 40.663998, -1.5419989, 44.271);
        ((GeneralPath) shape).curveTo(17.294003, 59.625, 37.436, 75.569, 61.503, 78.929);
        ((GeneralPath) shape).curveTo(40.907997, 59.406, 30.38, 31.362999, 25.427998, 3.4209976);
        ((GeneralPath) shape).curveTo(20.474998, -24.521002, 20.450996, -53.086002, 17.291998, -81.287);
        ((GeneralPath) shape).curveTo(13.171998, -57.219, 13.827998, -32.622, 14.496998, -8.213005);
        ((GeneralPath) shape).curveTo(10.266998, -9.724005, 6.473998, -12.439005, 3.6799974, -15.956005);
        ((GeneralPath) shape).curveTo(3.8379974, -9.901005, 5.433997, -3.8880053, 8.300997, 1.4489956);
        ((GeneralPath) shape).lineTo(-2.861023E-6, -4.4107437E-6);
        ((GeneralPath) shape).closePath();

        g.setPaint(new Color(0xCC8564));
        g.fill(shape);

        g.setTransform(transformations.pop()); // _0_0_0_16
        transformations.push(g.getTransform());
        g.transform(new AffineTransform(1, 0, 0, 1, 1075.2f, 1150.2f));

        // _0_0_0_17

        // _0_0_0_17_0
        shape = new GeneralPath();
        ((GeneralPath) shape).moveTo(0.0, 0.0);
        ((GeneralPath) shape).curveTo(-9.356, -3.238, -18.396, -7.552, -27.418, -11.9);
        ((GeneralPath) shape).curveTo(-24.171999, -14.379999, -20.217999, -15.577, -15.820999, -16.008);
        ((GeneralPath) shape).curveTo(-11.162999, -16.465, -6.555999, -15.808, -2.1779995, -14.386999);
        ((GeneralPath) shape).curveTo(10.752001, -10.191999, 23.046001, -4.5439987, 34.362, 3.0290012);
        ((GeneralPath) shape).curveTo(37.013, 4.8030014, 39.281, 7.247001, 41.423, 9.652001);
        ((GeneralPath) shape).curveTo(41.607, 9.859001, 41.771, 10.075002, 41.927002, 10.293001);
        ((GeneralPath) shape).curveTo(27.745003, 8.159001, 13.799002, 4.776001, 3.8146973E-6, 9.536743E-7);

        g.setPaint(new Color(0xC44727));
        g.fill(shape);

        g.setTransform(transformations.pop()); // _0_0_0_17
        transformations.push(g.getTransform());
        g.transform(new AffineTransform(1, 0, 0, 1, -529.15f, -264.58f));

        // _0_0_0_18

        // _0_0_0_18_0
        g.setComposite(AlphaComposite.getInstance(3, 0.39999f * origAlpha));

        // _0_0_0_18_0_0
        transformations.push(g.getTransform());
        g.transform(new AffineTransform(1, 0, 0, 1, 1959.2f, 597.8f));

        // _0_0_0_18_0_0_0

        // _0_0_0_18_0_0_0_0
        shape = new GeneralPath();
        ((GeneralPath) shape).moveTo(0.0, 0.0);
        ((GeneralPath) shape).curveTo(-27.846, 24.44, -59.867, 43.568, -89.724, 65.506);
        ((GeneralPath) shape).curveTo(-112.459, 82.211, -133.94, 100.547, -155.397, 118.864);
        ((GeneralPath) shape).curveTo(-149.79001, 99.576, -140.104, 81.485, -127.16, 66.125);
        ((GeneralPath) shape).curveTo(-139.412, 75.270996, -152.71, 84.224, -167.244, 88.127);
        ((GeneralPath) shape).curveTo(-198.65001, 109.063995, -232.965, 126.517, -270.08398, 132.368);
        ((GeneralPath) shape).curveTo(-257.163, 129.465, -248.85098, 115.97099, -243.02399, 103.658);
        ((GeneralPath) shape).curveTo(-237.61398, 92.224, -232.64499, 80.584, -227.15799, 69.187);
        ((GeneralPath) shape).curveTo(-216.06099, 46.138996, -202.70099, 23.916996, -185.00598, 5.444996);
        ((GeneralPath) shape).curveTo(-193.74799, 22.848995, -198.75098, 42.120995, -199.57898, 61.579994);
        ((GeneralPath) shape).curveTo(-164.65198, 5.9409943, -99.95998, -22.315002, -50.808975, -65.90001);
        ((GeneralPath) shape).curveTo(-61.576973, -44.83901, -75.33298, -25.30801, -91.53697, -8.076008);
        ((GeneralPath) shape).curveTo(-65.52898, -22.701008, -42.44897, -42.507008, -24.044975, -65.994);
        ((GeneralPath) shape).curveTo(-31.842976, -50.242004, -40.982975, -35.270004, -51.175976, -21.031002);
        ((GeneralPath) shape).curveTo(-50.727974, -14.699002, -52.286976, -8.215002, -55.705975, -2.8580017);
        ((GeneralPath) shape).curveTo(-3.765976, -36.099003, 47.764027, -72.454, 84.32402, -122.118004);
        ((GeneralPath) shape).curveTo(66.80102, -75.313, 37.550022, -32.953003, -0.008979797, 0.011993408);
        ((GeneralPath) shape).moveTo(-319.15897, 181.652);
        ((GeneralPath) shape).curveTo(-316.06097, 197.872, -311.85898, 213.858, -307.66098, 229.82799);
        ((GeneralPath) shape).curveTo(-295.67798, 275.41498, -283.69498, 321.00098, -271.71198, 366.58798);
        ((GeneralPath) shape).curveTo(-289.50098, 324.34198, -304.179, 280.862, -318.52698, 237.32799);
        ((GeneralPath) shape).curveTo(-324.74896, 218.44798, -330.92596, 199.49599, -334.835, 180.00499);
        ((GeneralPath) shape).curveTo(-340.356, 152.484, -341.28198, 124.275986, -342.192, 96.22099);
        ((GeneralPath) shape).curveTo(-342.65598, 81.88799, -343.12, 67.51399, -341.86798, 53.228992);
        ((GeneralPath) shape).curveTo(-338.11, 10.319992, -318.857, -30.203007, -292.58398, -64.33101);
        ((GeneralPath) shape).curveTo(-307.107, -27.34401, -317.055, 11.436989, -322.13098, 50.84899);
        ((GeneralPath) shape).curveTo(-327.72498, 94.28899, -327.37598, 138.63998, -319.159, 181.659);
        ((GeneralPath) shape).moveTo(-457.739, -117.871);
        ((GeneralPath) shape).curveTo(-454.50403, -80.403, -453.57202, -42.737, -454.94803, -5.151001);
        ((GeneralPath) shape).curveTo(-455.55704, 11.471998, -456.61703, 28.082, -456.81503, 44.715);
        ((GeneralPath) shape).curveTo(-457.88605, 134.478, -433.95102, 222.435, -410.20404, 309.005);
        ((GeneralPath) shape).curveTo(-407.20105, 319.95, -404.14105, 331.036, -398.43204, 340.845);
        ((GeneralPath) shape).curveTo(-484.42404, 206.745, -506.80203, 33.695007, -457.73904, -117.86499);
        ((GeneralPath) shape).moveTo(98.60098, 544.09503);
        ((GeneralPath) shape).curveTo(90.95398, 538.72504, 84.318985, 532.04504, 78.03798, 525.11505);
        ((GeneralPath) shape).curveTo(42.26398, 485.69507, 16.726978, 437.06506, 4.584976, 385.23505);
        ((GeneralPath) shape).curveTo(26.212976, 438.16605, 66.48097, 483.26205, 116.63498, 510.72504);
        ((GeneralPath) shape).curveTo(103.64498, 500.68903, 95.21298, 484.97003, 94.03698, 468.59705);
        ((GeneralPath) shape).curveTo(111.02898, 486.87805, 131.60898, 501.80905, 154.25998, 512.291);
        ((GeneralPath) shape).curveTo(148.12997, 499.94302, 146.58798, 485.381, 149.99597, 472.02402);
        ((GeneralPath) shape).curveTo(159.46198, 504.794, 175.31197, 535.70703, 196.39497, 562.52);
        ((GeneralPath) shape).curveTo(162.62697, 563.398, 126.23598, 563.528, 98.599976, 544.104);
        ((GeneralPath) shape).moveTo(-321.90002, 429.654);
        ((GeneralPath) shape).curveTo(-310.618, 440.746, -299.33603, 451.839, -288.05502, 462.931);
        ((GeneralPath) shape).curveTo(-285.09802, 453.214, -284.562, 442.769, -286.51102, 432.8);
        ((GeneralPath) shape).curveTo(-272.941, 449.314, -259.37003, 465.82898, -245.80002, 482.344);
        ((GeneralPath) shape).curveTo(-255.63503, 449.26498, -262.695, 415.362, -266.88, 381.104);
        ((GeneralPath) shape).curveTo(-241.56201, 444.794, -207.675, 505.074, -166.42001, 559.804);
        ((GeneralPath) shape).curveTo(-203.945, 532.56104, -240.25002, 503.63702, -275.19, 473.148);
        ((GeneralPath) shape).curveTo(-271.622, 482.21802, -268.053, 491.28802, -264.48502, 500.358);
        ((GeneralPath) shape).curveTo(-276.37302, 491.212, -288.26, 482.065, -300.148, 472.919);
        ((GeneralPath) shape).curveTo(-293.67902, 484.31, -285.45502, 494.70102, -275.854, 503.613);
        ((GeneralPath) shape).curveTo(-301.13602, 493.672, -322.098, 473.229, -332.669, 448.20502);
        ((GeneralPath) shape).curveTo(-326.22202, 453.52402, -319.35602, 458.33502, -312.156, 462.579);
        ((GeneralPath) shape).lineTo(-321.901, 429.652);
        ((GeneralPath) shape).closePath();
        ((GeneralPath) shape).moveTo(-100.27002, 1105.7739);
        ((GeneralPath) shape).curveTo(-95.91702, 1105.418, -91.09802, 1105.195, -87.67002, 1107.8999);
        ((GeneralPath) shape).curveTo(-85.30102, 1109.7709, -84.07702, 1112.6919, -82.77802, 1115.4169);
        ((GeneralPath) shape).curveTo(-77.46302, 1126.5709, -69.345024, 1136.3749, -59.38002, 1143.6779);
        ((GeneralPath) shape).curveTo(-74.93002, 1143.7289, -90.30502, 1146.7048, -105.57102, 1149.6698);
        ((GeneralPath) shape).curveTo(-158.32703, 1159.9178, -211.08102, 1170.1658, -263.84103, 1180.4138);
        ((GeneralPath) shape).curveTo(-234.86703, 1163.4858, -212.13303, 1136.7698, -181.79904, 1122.4229);
        ((GeneralPath) shape).curveTo(-156.58005, 1110.4949, -128.07605, 1108.0438, -100.27104, 1105.7738);
        ((GeneralPath) shape).moveTo(-350.36102, 733.5238);
        ((GeneralPath) shape).curveTo(-355.19403, 738.4748, -361.015, 742.4578, -367.38004, 745.1708);
        ((GeneralPath) shape).curveTo(-383.79404, 752.1658, -402.91605, 750.33276, -419.57202, 743.9358);
        ((GeneralPath) shape).curveTo(-427.14102, 741.0298, -434.364, 737.2218, -441.03903, 732.6188);
        ((GeneralPath) shape).curveTo(-443.26004, 731.08777, -445.62305, 729.11176, -445.77203, 726.41876);
        ((GeneralPath) shape).curveTo(-445.90604, 723.99475, -444.17203, 721.8948, -442.41003, 720.2248);
        ((GeneralPath) shape).curveTo(-429.04803, 707.5668, -409.51904, 704.5048, -391.27902, 702.0378);
        ((GeneralPath) shape).curveTo(-377.98804, 700.2388, -364.69702, 698.4408, -351.406, 696.64276);
        ((GeneralPath) shape).curveTo(-349.36502, 696.36676, -347.174, 696.1138, -345.34302, 697.05676);
        ((GeneralPath) shape).curveTo(-343.83203, 697.83575, -342.812, 699.31775, -342.05002, 700.8368);
        ((GeneralPath) shape).curveTo(-336.67, 711.5668, -341.976, 724.9338, -350.36102, 733.5238);
        ((GeneralPath) shape).moveTo(-316.92902, 718.69183);
        ((GeneralPath) shape).curveTo(-315.27103, 710.85284, -313.364, 702.5418, -307.683, 696.8928);
        ((GeneralPath) shape).curveTo(-300.927, 690.1768, -290.56302, 688.91583, -281.03802, 688.79083);
        ((GeneralPath) shape).curveTo(-279.93903, 688.7758, -278.84402, 688.81384, -277.74802, 688.8258);
        ((GeneralPath) shape).curveTo(-281.81003, 696.2698, -284.26703, 704.5188, -285.575, 713.04083);
        ((GeneralPath) shape).curveTo(-288.397, 724.78186, -289.91202, 736.55383, -288.717, 748.8488);
        ((GeneralPath) shape).curveTo(-287.298, 763.4368, -284.04202, 778.8598, -271.36502, 787.86383);
