package com.pump.awt.geom.clipart;

import java.awt.*;
import java.awt.geom.AffineTransform;
import java.awt.geom.GeneralPath;

/**
 * This class has been automatically generated using
 * <a href="http://ebourg.github.io/flamingo-svg-transcoder/">Flamingo SVG transcoder</a>.
 * <p>
 * Source image: https://openclipart.org/detail/209290/firebog-garden-sign-crop-01a-g1
 * </p>
 */
public class GardenSign implements javax.swing.Icon {

    /** The width of this icon. */
    private int width;

    /** The height of this icon. */
    private int height;

    /**
     * Creates a new transcoded SVG image.
     */
    public GardenSign() {
        this(1000, 1000);
    }

    /**
     * Creates a new transcoded SVG image.
     */
    public GardenSign(int width, int height) {
        this.width = width;
        this.height = height;
    }

    @Override
    public int getIconHeight() {
        return height;
    }

    @Override
    public int getIconWidth() {
        return width;
    }

    @Override
    public void paintIcon(Component c, Graphics g, int x, int y) {
        double coef = Math.min((double) width / (double) 1, (double) height / (double) 1);

        Graphics2D g2d = (Graphics2D) g.create();
        g2d.translate(x, y);
        g2d.setRenderingHint(RenderingHints.KEY_ANTIALIASING, RenderingHints.VALUE_ANTIALIAS_ON);
        g2d.scale(coef, coef);
        paint(g2d);
        g2d.dispose();
    }

    /**
     * Paints the transcoded SVG image on the specified graphics context.
     * 
     * @param g Graphics context.
     */
    private static void paint(Graphics2D g) {
        Shape shape = null;
        
        float origAlpha = 1.0f;
        
        java.util.LinkedList<AffineTransform> transformations = new java.util.LinkedList<AffineTransform>();
        

        // 
        transformations.push(g.getTransform());
        g.transform(new AffineTransform(0.017269963f, 0, 0, 0.017269963f, 0.06479689f, 0));

        // _0
        transformations.push(g.getTransform());
        g.transform(new AffineTransform(1.25f, 0, 0, -1.25f, 0, 57.904f));

        // _0_0

        // _0_0_0

        // _0_0_0_0
        shape = new GeneralPath();
        ((GeneralPath) shape).moveTo(38.48, 43.163);
        ((GeneralPath) shape).lineTo(38.440998, 42.843);
        ((GeneralPath) shape).lineTo(34.839996, 42.963997);
        ((GeneralPath) shape).curveTo(34.386997, 42.963997, 33.612995, 43.018997, 32.519997, 43.123997);
        ((GeneralPath) shape).curveTo(31.507998, 43.201996, 30.722996, 43.244995, 30.159996, 43.244995);
        ((GeneralPath) shape).curveTo(27.175997, 43.323994, 25.667995, 43.362995, 25.640995, 43.362995);
        ((GeneralPath) shape).curveTo(25.265995, 43.389996, 24.108995, 43.537994, 22.159996, 43.803997);
        ((GeneralPath) shape).curveTo(20.507996, 44.018997, 18.921997, 44.123997, 17.401997, 44.123997);
        ((GeneralPath) shape).curveTo(15.534997, 44.123997, 13.772997, 44.218, 12.120996, 44.401997);
        ((GeneralPath) shape).curveTo(8.386996, 44.803997, 5.7069964, 44.975998, 4.0779963, 44.924995);
        ((GeneralPath) shape).curveTo(3.6019962, 44.924995, 3.2659962, 44.897995, 3.0779963, 44.842995);
        ((GeneralPath) shape).curveTo(2.8669963, 44.815994, 2.6949964, 44.655994, 2.5589962, 44.362995);
        ((GeneralPath) shape).lineTo(2.237996, 43.682995);
        ((GeneralPath) shape).lineTo(2.077996, 43.323994);
        ((GeneralPath) shape).lineTo(2.358996, 46.123993);
        ((GeneralPath) shape).lineTo(15.159996, 45.201992);
        ((GeneralPath) shape).curveTo(17.104996, 45.041992, 21.745996, 44.70999, 29.077995, 44.201992);
        ((GeneralPath) shape).curveTo(30.651995, 44.018993, 33.546997, 43.803993, 37.761993, 43.561993);
        ((GeneralPath) shape).curveTo(37.972992, 43.561993, 38.198994, 43.54999, 38.440994, 43.52299);
        ((GeneralPath) shape).lineTo(38.519993, 43.52299);
        ((GeneralPath) shape).lineTo(38.479992, 43.16299);
        ((GeneralPath) shape).closePath();
        ((GeneralPath) shape).moveTo(36.559, 41.561996);
        ((GeneralPath) shape).lineTo(35.121, 41.522995);
        ((GeneralPath) shape).curveTo(35.093998, 41.604996, 35.078, 41.670994, 35.078, 41.721996);
        ((GeneralPath) shape).lineTo(37.038998, 41.643997);
        ((GeneralPath) shape).lineTo(37.641, 41.561996);
        ((GeneralPath) shape).lineTo(36.559, 41.561996);
        ((GeneralPath) shape).closePath();
        ((GeneralPath) shape).moveTo(35.038998, 31.002996);
        ((GeneralPath) shape).lineTo(36.479996, 30.764996);
        ((GeneralPath) shape).curveTo(34.878994, 30.924995, 33.679996, 31.069996, 32.878994, 31.201996);
        ((GeneralPath) shape).lineTo(37.237995, 31.201996);
        ((GeneralPath) shape).lineTo(37.237995, 31.041996);
        ((GeneralPath) shape).lineTo(34.558994, 31.084995);
        ((GeneralPath) shape).lineTo(35.038994, 31.002995);
        ((GeneralPath) shape).closePath();
        ((GeneralPath) shape).moveTo(5.1989975, 26.323997);
        ((GeneralPath) shape).lineTo(8.800998, 25.604998);
        ((GeneralPath) shape).lineTo(5.2809978, 25.682997);
        ((GeneralPath) shape).lineTo(2.2809978, 26.362997);
        ((GeneralPath) shape).curveTo(2.4139977, 26.334997, 2.6019979, 26.350998, 2.8399978, 26.401997);
        ((GeneralPath) shape).lineTo(3.9219978, 26.444996);
        ((GeneralPath) shape).lineTo(4.319998, 26.444996);
        ((GeneralPath) shape).lineTo(4.601998, 26.483995);
        ((GeneralPath) shape).lineTo(4.718998, 26.444996);
        ((GeneralPath) shape).lineTo(5.198998, 26.323996);
        ((GeneralPath) shape).closePath();
        ((GeneralPath) shape).moveTo(3.9999976, 40.085);
        ((GeneralPath) shape).lineTo(3.3979976, 39.804);
        ((GeneralPath) shape).curveTo(3.1879976, 39.699, 2.9999976, 39.523003, 2.8399975, 39.285);
        ((GeneralPath) shape).curveTo(2.6799974, 39.019, 2.6249976, 38.683, 2.6799974, 38.285);
        ((GeneralPath) shape).lineTo(3.0779974, 38.285);
        ((GeneralPath) shape).curveTo(3.2659974, 38.285, 3.3869975, 38.257, 3.4409974, 38.202);
        ((GeneralPath) shape).curveTo(3.3319974, 38.124, 3.2659974, 38.058, 3.2379973, 38.003);
        ((GeneralPath) shape).curveTo(3.1599972, 37.925, 3.1209972, 37.855, 3.1209972, 37.803997);
        ((GeneralPath) shape).curveTo(3.1209972, 37.748997, 3.0779972, 37.495, 2.9999971, 37.041996);
        ((GeneralPath) shape).lineTo(2.960997, 36.721996);
        ((GeneralPath) shape).lineTo(2.800997, 35.401997);
        ((GeneralPath) shape).curveTo(2.772997, 35.295998, 2.772997, 35.123997, 2.800997, 34.881996);
        ((GeneralPath) shape).lineTo(2.718997, 34.764996);
        ((GeneralPath) shape).lineTo(2.679997, 34.764996);
        ((GeneralPath) shape).curveTo(2.464997, 34.709995, 2.304997, 34.655994, 2.198997, 34.604996);
        ((GeneralPath) shape).lineTo(2.237997, 34.764996);
        ((GeneralPath) shape).lineTo(2.3979971, 36.643997);
        ((GeneralPath) shape).lineTo(2.5199971, 37.843);
        ((GeneralPath) shape).lineTo(2.6799972, 39.722);
        ((GeneralPath) shape).lineTo(2.7189972, 39.722);
        ((GeneralPath) shape).curveTo(2.8669972, 39.824, 3.0079973, 39.89, 3.1409972, 39.925);
        ((GeneralPath) shape).lineTo(3.1599972, 39.925);
        ((GeneralPath) shape).curveTo(3.1909971, 39.929, 3.2269971, 39.937, 3.2619972, 39.945);
        ((GeneralPath) shape).curveTo(3.3049972, 39.949, 3.3519971, 39.956, 3.3979971, 39.964);
        ((GeneralPath) shape).lineTo(4.120997, 40.163002);
        ((GeneralPath) shape).lineTo(3.999997, 40.085003);
        ((GeneralPath) shape).closePath();
        ((GeneralPath) shape).moveTo(2.2379975, 30.765);
        ((GeneralPath) shape).curveTo(2.2149975, 30.71, 2.1879976, 30.656, 2.1599975, 30.605);
        ((GeneralPath) shape).lineTo(1.8399975, 30.163);
        ((GeneralPath) shape).lineTo(1.8009975, 30.124);
        ((GeneralPath) shape).lineTo(1.8789974, 30.722);
        ((GeneralPath) shape).lineTo(2.0389974, 32.605);
        ((GeneralPath) shape).curveTo(2.8119974, 32.605, 3.9729974, 32.656, 5.5199976, 32.765);
        ((GeneralPath) shape).curveTo(5.4919977, 32.765, 5.1599975, 32.644, 4.5199976, 32.402);
        ((GeneralPath) shape).lineTo(3.3199975, 32.042);
        ((GeneralPath) shape).curveTo(2.8949976, 31.859, 2.6129975, 31.671, 2.4799976, 31.484);
        ((GeneralPath) shape).curveTo(2.3979976, 31.401999, 2.3479977, 31.257, 2.3199975, 31.042);
        ((GeneralPath) shape).curveTo(2.3199975, 30.992, 2.2929976, 30.898, 2.2379975, 30.765);
        ((GeneralPath) shape).closePath();

        g.setPaint(new Color(0xE2CD9A));
        g.fill(shape);

        // _0_0_0_1
        shape = new GeneralPath();
        ((GeneralPath) shape).moveTo(38.398, 42.324);
        ((GeneralPath) shape).lineTo(38.48, 43.163002);
        ((GeneralPath) shape).lineTo(38.52, 43.523003);
        ((GeneralPath) shape).lineTo(38.438, 43.523003);
        ((GeneralPath) shape).curveTo(38.199, 43.550003, 37.973, 43.562004, 37.758, 43.562004);
        ((GeneralPath) shape).lineTo(40.32, 43.925003);
        ((GeneralPath) shape).lineTo(40.16, 42.324);
        ((GeneralPath) shape).lineTo(39.641, 42.124);
        ((GeneralPath) shape).lineTo(37.68, 41.804);
        ((GeneralPath) shape).curveTo(37.359, 41.749, 37.0, 41.722, 36.602, 41.722);
        ((GeneralPath) shape).lineTo(35.641003, 41.882);
        ((GeneralPath) shape).lineTo(38.359, 41.925);
        ((GeneralPath) shape).lineTo(38.398003, 42.323997);
        ((GeneralPath) shape).closePath();
        ((GeneralPath) shape).moveTo(38.878998, 31.003002);
        ((GeneralPath) shape).lineTo(35.038998, 31.003002);
        ((GeneralPath) shape).lineTo(34.559, 31.085003);
        ((GeneralPath) shape).lineTo(37.238, 31.042004);
        ((GeneralPath) shape).lineTo(37.398, 32.523003);
        ((GeneralPath) shape).lineTo(37.68, 32.804);
        ((GeneralPath) shape).curveTo(37.945, 33.042, 38.066, 33.456, 38.039, 34.042);
        ((GeneralPath) shape).curveTo(37.988003, 34.843, 37.973, 35.296, 38.0, 35.402);
        ((GeneralPath) shape).curveTo(38.055, 35.562, 38.094, 35.699, 38.121, 35.804);
        ((GeneralPath) shape).curveTo(38.171997, 35.992, 38.188, 36.269, 38.16, 36.644);
        ((GeneralPath) shape).curveTo(38.133, 37.042, 38.121, 37.324, 38.121, 37.484);
        ((GeneralPath) shape).curveTo(38.093998, 38.202, 38.078, 38.831, 38.078, 39.363003);
        ((GeneralPath) shape).lineTo(38.281, 41.245003);
        ((GeneralPath) shape).lineTo(38.641, 41.245003);
        ((GeneralPath) shape).curveTo(39.093998, 41.245003, 39.52, 41.296, 39.921997, 41.402004);
        ((GeneralPath) shape).lineTo(39.077995, 31.124004);
        ((GeneralPath) shape).lineTo(38.878994, 31.003004);
        ((GeneralPath) shape).closePath();
        ((GeneralPath) shape).moveTo(36.999996, 28.523003);
        ((GeneralPath) shape).lineTo(37.038998, 28.843002);
        ((GeneralPath) shape).curveTo(37.148, 28.898003, 37.281, 28.925003, 37.440998, 28.925003);
        ((GeneralPath) shape).curveTo(37.788998, 28.925003, 38.0, 28.949003, 38.078, 29.003002);
        ((GeneralPath) shape).curveTo(37.652, 29.136002, 37.32, 29.202002, 37.078, 29.202002);
        ((GeneralPath) shape).lineTo(37.078, 29.245);
        ((GeneralPath) shape).lineTo(37.198997, 30.484001);
        ((GeneralPath) shape).lineTo(38.238, 30.484001);
        ((GeneralPath) shape).curveTo(38.398, 30.456001, 38.625, 30.445002, 38.921997, 30.445002);
        ((GeneralPath) shape).lineTo(38.159996, 22.925001);
        ((GeneralPath) shape).curveTo(38.132996, 22.898, 38.026997, 22.882002, 37.839996, 22.882002);
        ((GeneralPath) shape).lineTo(36.960995, 22.765001);
        ((GeneralPath) shape).curveTo(36.933994, 23.003002, 36.933994, 23.312002, 36.960995, 23.683);
        ((GeneralPath) shape).curveTo(37.038994, 24.085001, 37.077995, 24.390001, 37.077995, 24.605001);
        ((GeneralPath) shape).lineTo(37.120995, 25.363);
        ((GeneralPath) shape).curveTo(37.253994, 26.031, 37.265995, 26.511002, 37.159996, 26.804);
        ((GeneralPath) shape).curveTo(37.077995, 26.855001, 37.038998, 26.910002, 37.038998, 26.964);
        ((GeneralPath) shape).curveTo(36.988, 27.097, 36.961, 27.285, 36.961, 27.523);
        ((GeneralPath) shape).curveTo(36.934, 27.605001, 36.921997, 27.683, 36.921997, 27.765001);
        ((GeneralPath) shape).lineTo(36.999996, 28.523);
        ((GeneralPath) shape).closePath();
        ((GeneralPath) shape).moveTo(36.519997, 19.722004);
        ((GeneralPath) shape).lineTo(36.921997, 19.925003);
        ((GeneralPath) shape).lineTo(37.319996, 20.085003);
        ((GeneralPath) shape).lineTo(36.519997, 19.722002);
        ((GeneralPath) shape).closePath();
        ((GeneralPath) shape).moveTo(2.2379951, 26.163004);
        ((GeneralPath) shape).lineTo(4.679995, 25.683004);
        ((GeneralPath) shape).lineTo(0.31999493, 25.804005);
        ((GeneralPath) shape).lineTo(2.237995, 26.163004);
        ((GeneralPath) shape).closePath();

        g.setPaint(new Color(0x796942));
        g.fill(shape);

        // _0_0_0_2
        shape = new GeneralPath();
        ((GeneralPath) shape).moveTo(3.16, 43.605);
        ((GeneralPath) shape).lineTo(3.039, 43.324);
        ((GeneralPath) shape).lineTo(4.801, 43.882);
        ((GeneralPath) shape).curveTo(4.508, 43.882, 4.1210003, 43.843, 3.6410003, 43.765);
        ((GeneralPath) shape).lineTo(4.0390005, 43.882);
        ((GeneralPath) shape).curveTo(3.5860004, 43.882, 2.9880004, 43.815998, 2.2380004, 43.683);
        ((GeneralPath) shape).lineTo(2.5590005, 44.363);
        ((GeneralPath) shape).curveTo(6.1050005, 44.577, 9.172001, 44.455997, 11.762001, 44.003);
        ((GeneralPath) shape).curveTo(13.652001, 43.656, 15.707001, 43.23, 17.922, 42.722);
        ((GeneralPath) shape).curveTo(19.734001, 42.378, 21.855001, 42.245, 24.281002, 42.324);
        ((GeneralPath) shape).curveTo(27.641003, 42.456, 32.348003, 42.456, 38.398003, 42.324);
        ((GeneralPath) shape).lineTo(38.359, 41.925003);
        ((GeneralPath) shape).lineTo(35.641003, 41.882004);
        ((GeneralPath) shape).lineTo(36.602, 41.722004);
        ((GeneralPath) shape).lineTo(37.039, 41.644005);
        ((GeneralPath) shape).lineTo(35.078003, 41.722004);
        ((GeneralPath) shape).curveTo(35.000004, 41.910004, 34.840004, 42.070004, 34.602, 42.202003);
        ((GeneralPath) shape).curveTo(34.121002, 42.070004, 33.691, 41.898003, 33.32, 41.683002);
        ((GeneralPath) shape).curveTo(31.961, 41.738003, 30.640999, 41.738003, 29.359, 41.683002);
        ((GeneralPath) shape).curveTo(28.026999, 41.605003, 26.585999, 41.589, 25.039, 41.644);
        ((GeneralPath) shape).curveTo(26.215, 41.671, 27.855, 41.792, 29.960999, 42.003002);
        ((GeneralPath) shape).lineTo(19.878998, 42.124);
        ((GeneralPath) shape).curveTo(18.464998, 42.335, 17.374998, 42.468002, 16.601997, 42.523);
        ((GeneralPath) shape).lineTo(16.640997, 42.483997);
        ((GeneralPath) shape).curveTo(16.507998, 42.510998, 16.374996, 42.523, 16.237997, 42.523);
        ((GeneralPath) shape).lineTo(16.280996, 42.483997);
        ((GeneralPath) shape).curveTo(14.280996, 42.803997, 12.237996, 43.041996, 10.159996, 43.201996);
        ((GeneralPath) shape).curveTo(7.2809963, 43.416996, 5.187996, 43.377995, 3.878996, 43.084995);
        ((GeneralPath) shape).lineTo(2.0389957, 42.643993);
        ((GeneralPath) shape).lineTo(1.9999957, 42.643993);
        ((GeneralPath) shape).lineTo(2.0779958, 43.323994);
        ((GeneralPath) shape).lineTo(3.1599958, 43.604992);
        ((GeneralPath) shape).closePath();
        ((GeneralPath) shape).moveTo(38.281, 41.445);
        ((GeneralPath) shape).lineTo(36.559, 41.562);
        ((GeneralPath) shape).lineTo(37.641, 41.562);
        ((GeneralPath) shape).lineTo(37.761997, 41.523);
        ((GeneralPath) shape).lineTo(38.276997, 41.483997);
        ((GeneralPath) shape).lineTo(38.276997, 41.444996);
        ((GeneralPath) shape).lineTo(38.281, 41.444996);
        ((GeneralPath) shape).closePath();
        ((GeneralPath) shape).moveTo(36.198997, 20.605);
        ((GeneralPath) shape).lineTo(36.078, 19.522999);
        ((GeneralPath) shape).lineTo(26.84, 20.401999);
        ((GeneralPath) shape).lineTo(26.039, 20.484);
        ((GeneralPath) shape).lineTo(28.879, 20.925);
        ((GeneralPath) shape).curveTo(30.906, 21.244999, 33.387, 21.588999, 36.32, 21.963999);
        ((GeneralPath) shape).lineTo(36.32, 21.925);
        ((GeneralPath) shape).lineTo(34.878998, 21.605);
        ((GeneralPath) shape).curveTo(34.586, 21.55, 34.226997, 21.428999, 33.801, 21.244999);
        ((GeneralPath) shape).curveTo(33.238, 21.002998, 32.878998, 20.859, 32.718998, 20.803999);
        ((GeneralPath) shape).lineTo(30.679998, 20.202);
        ((GeneralPath) shape).curveTo(32.386997, 20.472, 34.226997, 20.605, 36.198997, 20.605);
        ((GeneralPath) shape).closePath();
        ((GeneralPath) shape).moveTo(3.9609985, 26.445);
        ((GeneralPath) shape).lineTo(3.9219985, 26.445);
        ((GeneralPath) shape).lineTo(3.8009984, 26.484);
        ((GeneralPath) shape).lineTo(1.3199985, 26.362999);
        ((GeneralPath) shape).lineTo(0.3979985, 26.522999);
        ((GeneralPath) shape).lineTo(0.5199985, 27.561998);
        ((GeneralPath) shape).lineTo(1.5589986, 27.561998);
        ((GeneralPath) shape).lineTo(3.9999986, 27.604998);
        ((GeneralPath) shape).lineTo(4.4409986, 27.604998);
        ((GeneralPath) shape).curveTo(5.2659984, 27.576998, 5.9059987, 27.510998, 6.3589983, 27.401999);
        ((GeneralPath) shape).curveTo(7.3979983, 27.162998, 7.933998, 27.041998, 7.9609985, 27.041998);
        ((GeneralPath) shape).curveTo(7.9339986, 27.096998, 7.8949986, 27.135998, 7.8399987, 27.162998);
        ((GeneralPath) shape).lineTo(8.358998, 27.041998);
        ((GeneralPath) shape).curveTo(7.9609985, 27.549997, 7.413998, 27.909998, 6.7189984, 28.123999);
        ((GeneralPath) shape).curveTo(6.1599984, 28.39, 5.7459984, 28.561998, 5.4799986, 28.644);
        ((GeneralPath) shape).curveTo(5.187999, 28.748999, 4.6519985, 28.803999, 3.8789988, 28.803999);
        ((GeneralPath) shape).lineTo(3.0389988, 28.803999);
        ((GeneralPath) shape).curveTo(2.5859988, 28.803999, 1.9059988, 28.748999, 0.9999988, 28.644);
        ((GeneralPath) shape).lineTo(0.6019988, 28.561998);
        ((GeneralPath) shape).lineTo(0.7619988, 30.123999);
        ((GeneralPath) shape).lineTo(0.80099875, 30.162998);
        ((GeneralPath) shape).lineTo(1.1599988, 30.604998);
        ((GeneralPath) shape).curveTo(1.3979988, 30.655998, 1.6409988, 30.698997, 1.8789988, 30.721998);
        ((GeneralPath) shape).lineTo(1.8009988, 30.123999);
        ((GeneralPath) shape).lineTo(1.8399988, 30.162998);
        ((GeneralPath) shape).lineTo(2.159999, 30.604998);
        ((GeneralPath) shape).curveTo(2.187999, 30.655998, 2.210999, 30.709997, 2.237999, 30.764997);
        ((GeneralPath) shape).curveTo(3.093999, 30.869997, 3.866999, 30.842997, 4.558999, 30.682997);
        ((GeneralPath) shape).curveTo(5.011999, 30.576996, 5.866999, 29.991997, 7.1209993, 28.924997);
        ((GeneralPath) shape).curveTo(8.452999, 27.803997, 10.198999, 26.897997, 12.358999, 26.201998);
        ((GeneralPath) shape).curveTo(12.492, 26.151999, 12.624999, 26.108997, 12.761999, 26.084997);
        ((GeneralPath) shape).curveTo(13.718999, 25.444998, 14.651999, 25.162996, 15.558999, 25.244997);
        ((GeneralPath) shape).curveTo(15.827999, 25.190996, 16.105, 25.123997, 16.397999, 25.041998);
        ((GeneralPath) shape).curveTo(16.508, 24.858997, 16.668, 24.670998, 16.879, 24.483997);
        ((GeneralPath) shape).curveTo(16.640999, 24.561996, 16.465, 24.576998, 16.359, 24.522997);
        ((GeneralPath) shape).curveTo(16.199, 24.549997, 16.078, 24.549997, 15.999999, 24.522997);
        ((GeneralPath) shape).curveTo(16.026999, 24.334997, 16.293, 24.190996, 16.800999, 24.084997);
        ((GeneralPath) shape).curveTo(16.987999, 24.030996, 17.214998, 23.963997, 17.48, 23.881998);
        ((GeneralPath) shape).curveTo(17.586, 23.748999, 17.668, 23.604998, 17.719, 23.444998);
        ((GeneralPath) shape).curveTo(18.066, 23.494997, 18.398, 23.576998, 18.719, 23.682999);
        ((GeneralPath) shape).curveTo(19.305, 23.605, 19.961, 23.576998, 20.68, 23.605);
        ((GeneralPath) shape).curveTo(21.426, 23.605, 22.254, 23.628, 23.16, 23.682999);
        ((GeneralPath) shape).curveTo(23.133, 23.655998, 23.121, 23.627998, 23.121, 23.605);
        ((GeneralPath) shape).curveTo(23.172, 23.628, 23.238, 23.671, 23.32, 23.722);
        ((GeneralPath) shape).curveTo(23.879, 23.777, 24.469, 23.843, 25.078, 23.925);
        ((GeneralPath) shape).lineTo(23.960999, 23.882);
        ((GeneralPath) shape).curveTo(23.960999, 23.91, 23.972998, 23.921, 23.999998, 23.925);
        ((GeneralPath) shape).lineTo(23.761997, 23.925);
        ((GeneralPath) shape).curveTo(24.640997, 24.269, 25.800997, 24.511, 27.241997, 24.644);
        ((GeneralPath) shape).curveTo(28.948997, 24.803999, 30.198997, 25.019, 30.999996, 25.285);
        ((GeneralPath) shape).curveTo(32.198997, 25.362999, 33.651997, 25.445, 35.358997, 25.523);
        ((GeneralPath) shape).lineTo(36.679996, 25.363);
        ((GeneralPath) shape).lineTo(36.601997, 24.605001);
        ((GeneralPath) shape).curveTo(34.546997, 24.765001, 32.253998, 24.699001, 29.718998, 24.402002);
        ((GeneralPath) shape).curveTo(25.347998, 23.816002, 22.491997, 23.456003, 21.159998, 23.324003);
        ((GeneralPath) shape).curveTo(19.187998, 23.136003, 17.733997, 23.230003, 16.800999, 23.605003);
        ((GeneralPath) shape).curveTo(13.811998, 24.831003, 11.573998, 25.523003, 10.077999, 25.683002);
        ((GeneralPath) shape).lineTo(5.198999, 26.324003);
        ((GeneralPath) shape).lineTo(4.718999, 26.445004);
        ((GeneralPath) shape).lineTo(4.601999, 26.484003);
        ((GeneralPath) shape).lineTo(4.3199987, 26.445004);
        ((GeneralPath) shape).lineTo(4.198999, 26.484003);
        ((GeneralPath) shape).lineTo(3.960999, 26.445004);
        ((GeneralPath) shape).closePath();
        ((GeneralPath) shape).moveTo(11.319999, 21.644);
        ((GeneralPath) shape).lineTo(1.1209984, 22.644);
        ((GeneralPath) shape).lineTo(1.2379984, 24.042);
        ((GeneralPath) shape).curveTo(3.2379985, 24.202, 5.3049984, 24.285, 7.4409986, 24.285);
        ((GeneralPath) shape).lineTo(9.878999, 23.244999);
        ((GeneralPath) shape).curveTo(11.718999, 22.471998, 13.253999, 21.869999, 14.479999, 21.445);
        ((GeneralPath) shape).lineTo(14.519999, 21.402);
        ((GeneralPath) shape).lineTo(14.479999, 21.402);
        ((GeneralPath) shape).lineTo(12.761998, 21.523);
        ((GeneralPath) shape).lineTo(12.440998, 21.804);
        ((GeneralPath) shape).curveTo(12.144999, 21.777, 11.788998, 21.898, 11.358998, 22.163);
        ((GeneralPath) shape).curveTo(10.718998, 22.538, 10.374998, 22.738, 10.319998, 22.765);
        ((GeneralPath) shape).curveTo(10.026998, 22.869999, 9.558998, 22.976, 8.921998, 23.085);
        ((GeneralPath) shape).curveTo(7.507998, 23.269, 6.3589983, 23.23, 5.479998, 22.963999);
        ((GeneralPath) shape).curveTo(5.6679983, 22.936998, 6.104998, 22.925, 6.800998, 22.925);
        ((GeneralPath) shape).curveTo(7.3319983, 22.897999, 7.7729983, 22.859, 8.120998, 22.803999);
        ((GeneralPath) shape).curveTo(8.573998, 22.721998, 9.077998, 22.561998, 9.640999, 22.324);
        ((GeneralPath) shape).curveTo(9.960999, 22.191, 10.452999, 21.991999, 11.120998, 21.722);
        ((GeneralPath) shape).lineTo(11.319999, 21.644001);
        ((GeneralPath) shape).closePath();
        ((GeneralPath) shape).moveTo(6.640999, 33.085);
        ((GeneralPath) shape).curveTo(5.093999, 33.085, 3.2269988, 32.964, 1.0389986, 32.722);
        ((GeneralPath) shape).lineTo(0.9999986, 32.722);
        ((GeneralPath) shape).lineTo(1.1209986, 33.562);
        ((GeneralPath) shape).lineTo(6.159999, 33.562);
        ((GeneralPath) shape).curveTo(6.3199987, 33.429, 6.479999, 33.269, 6.640999, 33.085);
        ((GeneralPath) shape).closePath();
        ((GeneralPath) shape).moveTo(1.1989989, 34.323997);
        ((GeneralPath) shape).lineTo(1.1599989, 34.323997);
        ((GeneralPath) shape).lineTo(1.1989989, 34.604996);
        ((GeneralPath) shape).curveTo(1.3049989, 34.655994, 1.479999, 34.709995, 1.7189989, 34.764996);
        ((GeneralPath) shape).lineTo(2.237999, 34.764996);
        ((GeneralPath) shape).lineTo(2.198999, 34.604996);
        ((GeneralPath) shape).curveTo(2.3049989, 34.655994, 2.464999, 34.709995, 2.6799989, 34.764996);
        ((GeneralPath) shape).lineTo(2.718999, 34.764996);
        ((GeneralPath) shape).curveTo(3.3049989, 34.791996, 3.921999, 34.776997, 4.558999, 34.721996);
        ((GeneralPath) shape).curveTo(4.7729993, 34.670998, 5.026999, 34.538, 5.319999, 34.323997);
        ((GeneralPath) shape).curveTo(4.866999, 34.350998, 4.2929993, 34.363, 3.6019993, 34.363);
        ((GeneralPath) shape).lineTo(3.1799994, 34.363);
        ((GeneralPath) shape).curveTo(2.6209993, 34.358997, 1.9609994, 34.343, 1.1989994, 34.323997);
        ((GeneralPath) shape).closePath();
        ((GeneralPath) shape).moveTo(3.999999, 40.085);
        ((GeneralPath) shape).lineTo(4.120999, 40.163);
        ((GeneralPath) shape).lineTo(3.3979988, 39.963997);
        ((GeneralPath) shape).curveTo(3.3519988, 39.955997, 3.3049989, 39.948997, 3.261999, 39.944996);
        ((GeneralPath) shape).curveTo(3.2269988, 39.936996, 3.1909988, 39.928997, 3.159999, 39.924995);
        ((GeneralPath) shape).lineTo(3.1409988, 39.924995);
        ((GeneralPath) shape).curveTo(2.9449987, 39.889996, 2.7659988, 39.862995, 2.6019988, 39.842995);
        ((GeneralPath) shape).lineTo(3.2809987, 40.162994);
        ((GeneralPath) shape).lineTo(2.2379987, 39.924995);
        ((GeneralPath) shape).curveTo(2.0779986, 39.897995, 1.9219987, 39.830994, 1.7619987, 39.721996);
        ((GeneralPath) shape).lineTo(1.7189987, 39.721996);
        ((GeneralPath) shape).lineTo(1.7619987, 40.323997);
        ((GeneralPath) shape).lineTo(1.8009987, 40.323997);
        ((GeneralPath) shape).lineTo(2.5199986, 40.561996);
        ((GeneralPath) shape).curveTo(2.6019986, 40.588997, 2.6799986, 40.604996, 2.7619987, 40.604996);
        ((GeneralPath) shape).lineTo(2.7189987, 40.323997);
        ((GeneralPath) shape).lineTo(3.3979988, 40.561996);
        ((GeneralPath) shape).curveTo(4.358999, 40.830997, 5.3199987, 41.069996, 6.2809987, 41.284996);
        ((GeneralPath) shape).curveTo(5.8009987, 41.311996, 5.3479986, 41.323997, 4.921999, 41.323997);
        ((GeneralPath) shape).curveTo(3.7729988, 41.350998, 2.761999, 41.245, 1.878999, 41.003);
        ((GeneralPath) shape).lineTo(1.839999, 41.003);
        ((GeneralPath) shape).lineTo(1.921999, 41.683);
        ((GeneralPath) shape).curveTo(4.026999, 41.948997, 5.894999, 42.108997, 7.519999, 42.163);
        ((GeneralPath) shape).curveTo(7.546999, 42.003, 7.546999, 41.91, 7.519999, 41.882);
        ((GeneralPath) shape).curveTo(7.440999, 41.749, 7.159999, 41.644, 6.679999, 41.562);
        ((GeneralPath) shape).curveTo(6.784999, 41.109, 7.038999, 40.898, 7.440999, 40.925);
        ((GeneralPath) shape).lineTo(7.519999, 40.925);
        ((GeneralPath) shape).curveTo(7.386999, 40.898, 7.253999, 40.87, 7.120999, 40.843);
        ((GeneralPath) shape).curveTo(5.894999, 40.523, 4.8549986, 40.268997, 3.9999988, 40.085);
        ((GeneralPath) shape).closePath();
        ((GeneralPath) shape).moveTo(2.397999, 36.643997);
        ((GeneralPath) shape).curveTo(2.265999, 36.616997, 2.132999, 36.588997, 1.999999, 36.561996);
        ((GeneralPath) shape).lineTo(2.077999, 37.041996);
        ((GeneralPath) shape).curveTo(2.1599991, 37.494995, 2.1989992, 37.748997, 2.1989992, 37.803997);
        ((GeneralPath) shape).curveTo(2.304999, 37.830997, 2.413999, 37.843, 2.5199993, 37.843);
        ((GeneralPath) shape).lineTo(2.3979993, 36.643997);
        ((GeneralPath) shape).closePath();
        ((GeneralPath) shape).moveTo(9.718999, 42.201996);
        ((GeneralPath) shape).curveTo(11.0269985, 42.178997, 12.120998, 42.069996, 12.999999, 41.881996);
        ((GeneralPath) shape).curveTo(13.878999, 41.698997, 14.905999, 41.428997, 16.078, 41.084995);
        ((GeneralPath) shape).curveTo(16.026999, 40.897995, 15.987999, 40.698994, 15.9609995, 40.483994);
        ((GeneralPath) shape).curveTo(14.492, 40.991993, 13.077999, 41.268993, 11.719, 41.323994);
        ((GeneralPath) shape).lineTo(10.84, 41.323994);
        ((GeneralPath) shape).curveTo(10.895, 41.401993, 10.973001, 41.467995, 11.078, 41.522995);
        ((GeneralPath) shape).curveTo(10.84, 42.084995, 10.531, 42.217995, 10.16, 41.924995);
        ((GeneralPath) shape).curveTo(9.68, 41.576996, 9.375, 41.455994, 9.238, 41.561996);
        ((GeneralPath) shape).curveTo(9.348, 41.698997, 9.508, 41.909996, 9.719, 42.201996);
        ((GeneralPath) shape).closePath();
        ((GeneralPath) shape).moveTo(29.440998, 35.522995);
        ((GeneralPath) shape).curveTo(29.440998, 35.311996, 29.425999, 35.108994, 29.397999, 34.924995);
        ((GeneralPath) shape).curveTo(26.866999, 35.057995, 24.359, 35.295994, 21.878998, 35.643997);
        ((GeneralPath) shape).lineTo(17.679998, 36.924995);
        ((GeneralPath) shape).curveTo(17.573997, 37.135994, 17.464998, 37.334995, 17.359, 37.522995);
        ((GeneralPath) shape).curveTo(18.133, 37.334995, 18.973, 37.108994, 19.879, 36.842995);
        ((GeneralPath) shape).curveTo(22.414, 36.123993, 24.719, 35.709995, 26.800999, 35.604996);
        ((GeneralPath) shape).curveTo(27.679998, 35.549995, 28.558998, 35.522995, 29.440998, 35.522995);
        ((GeneralPath) shape).closePath();
        ((GeneralPath) shape).moveTo(17.999998, 36.244995);
        ((GeneralPath) shape).curveTo(17.921999, 36.377995, 17.854998, 36.510994, 17.800999, 36.643993);
        ((GeneralPath) shape).curveTo(18.280998, 36.510994, 18.745998, 36.377995, 19.199, 36.244995);
        ((GeneralPath) shape).lineTo(19.48, 36.162994);
        ((GeneralPath) shape).lineTo(17.762, 36.721992);
        ((GeneralPath) shape).lineTo(17.762, 36.76499);
        ((GeneralPath) shape).curveTo(18.453, 36.604992, 19.144999, 36.428993, 19.84, 36.24499);
        ((GeneralPath) shape).lineTo(21.723, 35.68299);
        ((GeneralPath) shape).curveTo(20.281, 35.89799, 19.039, 36.08499, 18.0, 36.24499);
        ((GeneralPath) shape).closePath();
        ((GeneralPath) shape).moveTo(16.319998, 40.362995);
        ((GeneralPath) shape).curveTo(16.237997, 40.627995, 16.198997, 40.858994, 16.198997, 41.041996);
        ((GeneralPath) shape).curveTo(17.159998, 40.776997, 18.214998, 40.444996, 19.358997, 40.041996);
        ((GeneralPath) shape).curveTo(19.198997, 40.041996, 19.104998, 40.030994, 19.077997, 40.002995);
        ((GeneralPath) shape).curveTo(18.972998, 40.030994, 18.878998, 40.041996, 18.800997, 40.041996);
        ((GeneralPath) shape).curveTo(18.640997, 40.041996, 18.534996, 40.018997, 18.479998, 39.963997);
        ((GeneralPath) shape).curveTo(18.987997, 39.510998, 19.507998, 39.135998, 20.038998, 38.843);
        ((GeneralPath) shape).curveTo(18.944998, 39.295998, 18.011997, 39.683, 17.237997, 40.003);
        ((GeneralPath) shape).curveTo(16.921997, 40.135998, 16.612997, 40.257, 16.319998, 40.363);
        ((GeneralPath) shape).closePath();
        ((GeneralPath) shape).moveTo(14.839998, 36.803993);
        ((GeneralPath) shape).curveTo(14.866999, 36.854992, 14.878998, 36.897995, 14.878998, 36.92499);
        ((GeneralPath) shape).curveTo(14.827998, 37.13599, 14.733997, 37.284992, 14.601997, 37.36299);
        ((GeneralPath) shape).curveTo(14.651998, 37.36299, 14.718997, 37.35099, 14.800998, 37.32399);
        ((GeneralPath) shape).curveTo(15.304997, 37.21799, 15.800998, 37.10899, 16.280998, 37.00299);
        ((GeneralPath) shape).curveTo(16.304998, 36.86999, 16.347998, 36.721992, 16.397999, 36.56199);
        ((GeneralPath) shape).curveTo(15.894999, 36.67099, 15.374999, 36.74899, 14.839999, 36.80399);
        ((GeneralPath) shape).closePath();
        ((GeneralPath) shape).moveTo(12.198998, 37.721992);
        ((GeneralPath) shape).lineTo(12.601998, 37.08499);
        ((GeneralPath) shape).curveTo(12.972999, 37.24499, 13.253999, 37.401993, 13.440998, 37.561993);
        ((GeneralPath) shape).curveTo(13.6519985, 37.537994, 13.866998, 37.49499, 14.077998, 37.444992);
        ((GeneralPath) shape).curveTo(13.999998, 37.444992, 13.921998, 37.428993, 13.839998, 37.401993);
        ((GeneralPath) shape).curveTo(13.546998, 37.295994, 13.319998, 37.162994, 13.159998, 37.002995);
        ((GeneralPath) shape).curveTo(12.733998, 37.030994, 12.280998, 37.057995, 11.800998, 37.084995);
        ((GeneralPath) shape).curveTo(11.878998, 37.217995, 11.944998, 37.350994, 11.999998, 37.483994);
        ((GeneralPath) shape).curveTo(11.972998, 37.616993, 11.933998, 37.709995, 11.878998, 37.76499);
        ((GeneralPath) shape).curveTo(11.987998, 37.76499, 12.093998, 37.748993, 12.1989975, 37.721992);
        ((GeneralPath) shape).closePath();
        ((GeneralPath) shape).moveTo(12.718998, 38.52299);
        ((GeneralPath) shape).lineTo(12.558998, 38.444992);
        ((GeneralPath) shape).lineTo(12.519999, 38.483994);
        ((GeneralPath) shape).lineTo(11.038999, 38.483994);
        ((GeneralPath) shape).curveTo(11.093999, 38.534992, 11.132998, 38.604992, 11.159999, 38.682995);
        ((GeneralPath) shape).curveTo(11.237999, 38.682995, 11.319999, 38.670994, 11.397999, 38.643993);
        ((GeneralPath) shape).lineTo(11.397999, 38.522995);
        ((GeneralPath) shape).curveTo(11.667999, 38.494995, 11.921999, 38.522995, 12.159999, 38.604996);
        ((GeneralPath) shape).curveTo(12.347999, 38.576996, 12.534999, 38.549995, 12.718999, 38.522995);
        ((GeneralPath) shape).closePath();
        ((GeneralPath) shape).moveTo(13.718998, 38.123993);
        ((GeneralPath) shape).curveTo(13.718998, 38.201992, 13.706998, 38.284992, 13.679998, 38.36299);
        ((GeneralPath) shape).curveTo(14.397999, 38.256992, 15.214998, 38.08499, 16.120998, 37.84299);
        ((GeneralPath) shape).curveTo(16.144999, 37.68299, 16.171999, 37.52299, 16.198997, 37.36299);
        ((GeneralPath) shape).lineTo(13.718998, 38.123993);
        ((GeneralPath) shape).closePath();
        ((GeneralPath) shape).moveTo(10.839998, 37.842995);
        ((GeneralPath) shape).curveTo(10.468998, 37.682995, 10.214998, 37.455994, 10.077998, 37.162994);
        ((GeneralPath) shape).lineTo(9.440998, 37.162994);
        ((GeneralPath) shape).lineTo(9.519999, 37.244995);
        ((GeneralPath) shape).curveTo(9.679998, 37.455994, 9.706999, 37.682995, 9.601998, 37.924995);
        ((GeneralPath) shape).lineTo(9.921998, 37.924995);
        ((GeneralPath) shape).lineTo(9.999998, 37.764996);
        ((GeneralPath) shape).curveTo(10.104998, 37.815994, 10.214998, 37.858997, 10.319998, 37.881996);
        ((GeneralPath) shape).curveTo(10.479998, 37.881996, 10.651998, 37.869995, 10.839998, 37.842995);
        ((GeneralPath) shape).closePath();
        ((GeneralPath) shape).moveTo(37.440998, 37.682995);
        ((GeneralPath) shape).curveTo(37.491997, 37.897995, 37.508, 38.030994, 37.48, 38.084995);
        ((GeneralPath) shape).curveTo(37.348, 38.135994, 37.199, 38.190994, 37.038998, 38.244995);
        ((GeneralPath) shape).curveTo(37.198997, 38.268993, 37.347996, 38.295994, 37.48, 38.323994);
        ((GeneralPath) shape).lineTo(38.0, 38.444992);
        ((GeneralPath) shape).lineTo(37.922, 37.721992);
        ((GeneralPath) shape).curveTo(37.734, 37.721992, 37.574, 37.70999, 37.441, 37.68299);
        ((GeneralPath) shape).closePath();
        ((GeneralPath) shape).moveTo(32.358997, 38.162994);
        ((GeneralPath) shape).curveTo(32.440998, 37.948994, 32.479996, 37.737995, 32.479996, 37.522995);
        ((GeneralPath) shape).lineTo(31.999996, 37.522995);
        ((GeneralPath) shape).lineTo(31.999996, 38.162994);
        ((GeneralPath) shape).lineTo(32.358997, 38.162994);
        ((GeneralPath) shape).closePath();
        ((GeneralPath) shape).moveTo(31.159998, 34.842995);
        ((GeneralPath) shape).curveTo(31.612997, 35.190994, 32.238, 35.428993, 33.038998, 35.561996);
        ((GeneralPath) shape).curveTo(33.148, 35.588997, 33.238, 35.604996, 33.319996, 35.604996);
        ((GeneralPath) shape).curveTo(34.546997, 35.655994, 36.011997, 35.748997, 37.722996, 35.881996);
        ((GeneralPath) shape).lineTo(37.640995, 34.881996);
        ((GeneralPath) shape).curveTo(35.452995, 34.776997, 33.292995, 34.764996, 31.159996, 34.842995);
        ((GeneralPath) shape).closePath();
        ((GeneralPath) shape).moveTo(20.999998, 31.123995);
        ((GeneralPath) shape).curveTo(20.999998, 30.858995, 21.026999, 30.576994, 21.077997, 30.284994);
        ((GeneralPath) shape).curveTo(20.761997, 30.362993, 20.440998, 30.428993, 20.120996, 30.483994);
        ((GeneralPath) shape).curveTo(20.093996, 30.776993, 20.054996, 31.069994, 19.999996, 31.362993);
        ((GeneralPath) shape).curveTo(20.319996, 31.284994, 20.651997, 31.201994, 20.999996, 31.123993);
        ((GeneralPath) shape).closePath();
        ((GeneralPath) shape).moveTo(33.32, 29.323996);
        ((GeneralPath) shape).curveTo(33.027, 29.323996, 32.785, 29.268995, 32.602, 29.162996);
        ((GeneralPath) shape).curveTo(32.574, 29.244997, 32.559002, 29.311996, 32.559002, 29.362997);
        ((GeneralPath) shape).lineTo(33.320004, 29.323997);
        ((GeneralPath) shape).closePath();
        ((GeneralPath) shape).moveTo(32.641, 29.041996);
        ((GeneralPath) shape).curveTo(33.652, 28.909996, 35.105, 28.737995, 37.0, 28.522997);
        ((GeneralPath) shape).lineTo(36.961, 28.201998);
        ((GeneralPath) shape).curveTo(35.625, 28.284998, 34.211, 28.389997, 32.718998, 28.522997);
        ((GeneralPath) shape).curveTo(32.690998, 28.682997, 32.668, 28.842997, 32.641, 29.002996);
        ((GeneralPath) shape).lineTo(32.641, 29.041996);
        ((GeneralPath) shape).closePath();
        ((GeneralPath) shape).moveTo(28.718998, 38.362995);
        ((GeneralPath) shape).lineTo(21.839998, 39.084995);
        ((GeneralPath) shape).curveTo(21.762, 39.057995, 21.573997, 39.123997, 21.280998, 39.284996);
        ((GeneralPath) shape).lineTo(20.679998, 39.604996);
        ((GeneralPath) shape).curveTo(21.585999, 39.284996, 22.198997, 39.108997, 22.519999, 39.084995);
        ((GeneralPath) shape).curveTo(24.811998, 38.787994, 26.878998, 38.561996, 28.718998, 38.401997);
        ((GeneralPath) shape).lineTo(28.718998, 38.362995);
        ((GeneralPath) shape).closePath();
        ((GeneralPath) shape).moveTo(21.558998, 38.244995);
        ((GeneralPath) shape).curveTo(22.093998, 38.135994, 22.828, 38.069996, 23.761997, 38.041996);
        ((GeneralPath) shape).curveTo(24.585997, 37.991997, 25.386997, 37.963997, 26.159998, 37.963997);
        ((GeneralPath) shape).curveTo(27.065998, 37.963997, 27.944998, 37.991997, 28.800999, 38.041996);
        ((GeneralPath) shape).curveTo(28.828, 37.881996, 28.866999, 37.721996, 28.921999, 37.561996);
        ((GeneralPath) shape).curveTo(25.508, 37.670998, 23.054998, 37.897995, 21.558998, 38.244995);
        ((GeneralPath) shape).closePath();
        ((GeneralPath) shape).moveTo(23.479998, 30.522995);
        ((GeneralPath) shape).curveTo(23.479998, 30.494995, 23.464998, 30.467995, 23.440998, 30.444996);
        ((GeneralPath) shape).curveTo(23.358997, 30.256996, 23.292997, 30.069996, 23.237999, 29.881996);
        ((GeneralPath) shape).curveTo(23.105, 29.909996, 22.987999, 29.924995, 22.879, 29.924995);
        ((GeneralPath) shape).curveTo(22.772999, 30.162996, 22.706999, 30.428995, 22.68, 30.721996);
        ((GeneralPath) shape).curveTo(22.945, 30.643997, 23.215, 30.576996, 23.48, 30.522997);
        ((GeneralPath) shape).closePath();
        ((GeneralPath) shape).moveTo(17.198997, 32.123997);
        ((GeneralPath) shape).curveTo(17.358997, 32.069996, 17.519997, 32.031, 17.679998, 32.003);
        ((GeneralPath) shape).curveTo(17.734, 31.655998, 17.784998, 31.323997, 17.839998, 31.002998);
        ((GeneralPath) shape).curveTo(17.706999, 31.030998, 17.585999, 31.057999, 17.479998, 31.085);
        ((GeneralPath) shape).curveTo(17.397997, 31.269, 17.237997, 31.39, 16.999998, 31.445);
        ((GeneralPath) shape).curveTo(16.944998, 31.362999, 16.894999, 31.285, 16.839998, 31.202);
        ((GeneralPath) shape).curveTo(16.519999, 31.285, 16.214998, 31.362999, 15.921998, 31.445);
        ((GeneralPath) shape).curveTo(15.839998, 31.468, 15.761998, 31.484, 15.679998, 31.484);
        ((GeneralPath) shape).curveTo(15.573998, 31.699, 15.386998, 31.925, 15.120998, 32.163);
        ((GeneralPath) shape).lineTo(14.440998, 31.803999);
        ((GeneralPath) shape).curveTo(14.120998, 31.881998, 13.827998, 31.949, 13.558998, 32.003);
        ((GeneralPath) shape).curveTo(13.772998, 32.135998, 14.065998, 32.285, 14.440998, 32.445);
        ((GeneralPath) shape).curveTo(14.624998, 32.577, 14.718998, 32.722, 14.718998, 32.882);
        ((GeneralPath) shape).curveTo(15.065998, 32.777, 15.425998, 32.656, 15.800998, 32.523);
        ((GeneralPath) shape).lineTo(15.397998, 32.323997);
        ((GeneralPath) shape).curveTo(15.612998, 31.494997, 16.054998, 31.268997, 16.718998, 31.643997);
        ((GeneralPath) shape).curveTo(16.987997, 31.776997, 17.144999, 31.936996, 17.198997, 32.123997);
        ((GeneralPath) shape).closePath();
        ((GeneralPath) shape).moveTo(8.1989975, 37.163);
        ((GeneralPath) shape).curveTo(6.3049974, 37.135998, 4.558997, 36.991997, 2.9609976, 36.721996);
        ((GeneralPath) shape).lineTo(2.9999976, 37.041996);
        ((GeneralPath) shape).curveTo(3.0779977, 37.494995, 3.1209977, 37.748997, 3.1209977, 37.803997);
        ((GeneralPath) shape).curveTo(3.1209977, 37.854996, 3.1599977, 37.924995, 3.2379978, 38.003);
        ((GeneralPath) shape).curveTo(4.7619977, 38.295998, 6.187998, 38.483997, 7.5199976, 38.561996);
        ((GeneralPath) shape).curveTo(7.4689975, 38.428997, 7.4919977, 38.311996, 7.6019974, 38.201996);
        ((GeneralPath) shape).curveTo(7.8399973, 38.096996, 8.187998, 38.151997, 8.640997, 38.362995);
        ((GeneralPath) shape).curveTo(8.854997, 38.467995, 8.987997, 38.576996, 9.038997, 38.682995);
        ((GeneralPath) shape).lineTo(9.479997, 38.682995);
        ((GeneralPath) shape).lineTo(9.6799965, 38.362995);
        ((GeneralPath) shape).curveTo(9.491997, 38.334995, 9.3049965, 38.295994, 9.120996, 38.244995);
        ((GeneralPath) shape).curveTo(8.507997, 38.057995, 8.077996, 37.948994, 7.8399963, 37.924995);
        ((GeneralPath) shape).lineTo(8.280996, 37.924995);
        ((GeneralPath) shape).curveTo(8.144997, 37.869995, 8.011996, 37.787994, 7.8789964, 37.682995);
        ((GeneralPath) shape).lineTo(8.198997, 37.162994);
        ((GeneralPath) shape).closePath();
        ((GeneralPath) shape).moveTo(8.280997, 33.042);
        ((GeneralPath) shape).curveTo(8.011997, 33.257, 7.7729974, 33.445, 7.558997, 33.605);
        ((GeneralPath) shape).lineTo(8.558997, 33.605);
        ((GeneralPath) shape).curveTo(8.718997, 33.55, 8.866997, 33.538, 8.999997, 33.562);
        ((GeneralPath) shape).curveTo(9.187997, 33.511, 9.347997, 33.55, 9.479997, 33.683);
        ((GeneralPath) shape).curveTo(8.6799965, 33.765, 8.077997, 33.855, 7.6799965, 33.963997);
        ((GeneralPath) shape).curveTo(7.3049965, 34.041996, 6.9729967, 34.096996, 6.6799965, 34.123997);
        ((GeneralPath) shape).curveTo(6.1719966, 34.416996, 5.7189965, 34.604996, 5.3199964, 34.683);
        ((GeneralPath) shape).curveTo(6.144996, 34.656, 6.987996, 34.605, 7.8399963, 34.523);
        ((GeneralPath) shape).curveTo(8.292996, 34.468, 8.733996, 34.417, 9.159996, 34.363);
        ((GeneralPath) shape).curveTo(9.159996, 34.312, 9.171996, 34.257, 9.198996, 34.202);
        ((GeneralPath) shape).curveTo(9.491996, 34.257, 9.694996, 34.124, 9.800996, 33.804);
        ((GeneralPath) shape).curveTo(10.038996, 33.937, 10.253996, 34.058002, 10.440996, 34.163002);
        ((GeneralPath) shape).curveTo(10.632997, 34.117, 10.823997, 34.070004, 11.019997, 34.023003);
        ((GeneralPath) shape).curveTo(10.964996, 34.031002, 10.917996, 34.023003, 10.878997, 34.003002);
        ((GeneralPath) shape).curveTo(10.319997, 33.870003, 9.972997, 33.577003, 9.839996, 33.124);
        ((GeneralPath) shape).lineTo(9.999996, 32.843002);
        ((GeneralPath) shape).curveTo(9.944996, 32.870003, 9.905996, 32.882004, 9.878996, 32.882004);
        ((GeneralPath) shape).curveTo(9.397996, 32.964005, 8.866996, 33.019005, 8.280996, 33.042004);
        ((GeneralPath) shape).closePath();
        ((GeneralPath) shape).moveTo(12.120997, 33.722);
        ((GeneralPath) shape).curveTo(12.1989975, 33.699, 12.292997, 33.671, 12.397998, 33.644);
        ((GeneralPath) shape).curveTo(12.640998, 33.562, 12.944998, 33.468002, 13.319998, 33.363003);
        ((GeneralPath) shape).curveTo(13.214998, 33.312004, 13.120997, 33.230003, 13.038998, 33.124004);
        ((GeneralPath) shape).curveTo(12.718998, 32.804005, 12.640998, 32.495003, 12.800998, 32.202003);
        ((GeneralPath) shape).curveTo(12.694998, 32.230003, 12.601997, 32.245003, 12.519998, 32.245003);
        ((GeneralPath) shape).curveTo(12.358997, 32.456, 12.1329975, 32.523003, 11.839997, 32.445004);
        ((GeneralPath) shape).curveTo(11.468997, 32.523003, 11.159997, 32.589005, 10.921997, 32.644005);
        ((GeneralPath) shape).lineTo(11.960997, 33.245007);
        ((GeneralPath) shape).curveTo(11.905996, 33.538006, 11.800997, 33.74901, 11.640997, 33.882008);
        ((GeneralPath) shape).curveTo(11.718997, 33.855007, 11.811996, 33.83101, 11.921997, 33.80401);
        ((GeneralPath) shape).curveTo(11.972997, 33.777008, 12.038997, 33.74901, 12.120997, 33.722008);
        ((GeneralPath) shape).closePath();
        ((GeneralPath) shape).moveTo(20.440998, 23.882);
        ((GeneralPath) shape).curveTo(20.093998, 23.91, 19.706999, 23.949, 19.280998, 24.003);
        ((GeneralPath) shape).curveTo(19.413998, 24.109001, 19.546999, 24.23, 19.679998, 24.363);
        ((GeneralPath) shape).curveTo(20.265999, 24.257, 20.828, 24.191, 21.359, 24.163);
        ((GeneralPath) shape).lineTo(23.120998, 24.363);
        ((GeneralPath) shape).curveTo(23.144999, 24.202002, 23.159998, 24.058, 23.159998, 23.925001);
        ((GeneralPath) shape).lineTo(20.679998, 23.882002);
        ((GeneralPath) shape).lineTo(20.440998, 23.882002);
        ((GeneralPath) shape).closePath();

        g.setPaint(new Color(0xB59C60));
        g.fill(shape);

        // _0_0_0_3
        shape = new GeneralPath();
        ((GeneralPath) shape).moveTo(39.922, 41.402);
        ((GeneralPath) shape).curveTo(39.52, 41.296, 39.094, 41.245, 38.641003, 41.245);
        ((GeneralPath) shape).lineTo(38.277004, 41.245);
        ((GeneralPath) shape).lineTo(38.277004, 41.483997);
        ((GeneralPath) shape).lineTo(37.641003, 41.561996);
        ((GeneralPath) shape).lineTo(37.039, 41.643997);
        ((GeneralPath) shape).lineTo(36.598, 41.721996);
        ((GeneralPath) shape).curveTo(37.0, 41.721996, 37.359, 41.748997, 37.68, 41.803997);
        ((GeneralPath) shape).lineTo(39.641, 42.123997);
        ((GeneralPath) shape).lineTo(39.52, 42.084995);
        ((GeneralPath) shape).lineTo(39.961002, 41.924995);
        ((GeneralPath) shape).lineTo(39.922, 41.401997);
        ((GeneralPath) shape).closePath();
        ((GeneralPath) shape).moveTo(36.48, 30.765);
        ((GeneralPath) shape).lineTo(35.039, 31.003);
        ((GeneralPath) shape).lineTo(38.879, 31.003);
        ((GeneralPath) shape).lineTo(38.641003, 30.882);
        ((GeneralPath) shape).lineTo(38.922, 30.722);
        ((GeneralPath) shape).lineTo(38.922, 30.445);
        ((GeneralPath) shape).curveTo(38.629, 30.445, 38.402, 30.456, 38.238, 30.484);
        ((GeneralPath) shape).lineTo(37.198997, 30.484);
        ((GeneralPath) shape).lineTo(37.198997, 30.644);
        ((GeneralPath) shape).lineTo(36.479996, 30.765);
        ((GeneralPath) shape).closePath();
        ((GeneralPath) shape).moveTo(37.32, 20.085);
        ((GeneralPath) shape).lineTo(36.922, 19.925);
        ((GeneralPath) shape).lineTo(36.801003, 20.324);
        ((GeneralPath) shape).curveTo(36.613003, 20.859, 36.586002, 21.362999, 36.719, 21.842999);
        ((GeneralPath) shape).curveTo(36.879, 22.588999, 36.961002, 23.362999, 36.961002, 24.162998);
        ((GeneralPath) shape).curveTo(36.961002, 25.256998, 36.906002, 26.002998, 36.801003, 26.401999);
        ((GeneralPath) shape).lineTo(36.922, 27.760998);
        ((GeneralPath) shape).curveTo(36.922, 27.682999, 36.934002, 27.600998, 36.961002, 27.522997);
        ((GeneralPath) shape).curveTo(36.961002, 27.284996, 36.988003, 27.096996, 37.039, 26.963997);
        ((GeneralPath) shape).curveTo(37.039, 26.909996, 37.078003, 26.854998, 37.16, 26.803997);
        ((GeneralPath) shape).curveTo(37.266, 26.510998, 37.254, 26.030996, 37.121, 25.362997);
        ((GeneralPath) shape).lineTo(37.078, 24.600998);
        ((GeneralPath) shape).curveTo(37.078, 24.389997, 37.038998, 24.080997, 36.961, 23.682999);
        ((GeneralPath) shape).curveTo(36.934, 23.307999, 36.934, 23.002998, 36.961, 22.760998);
        ((GeneralPath) shape).lineTo(37.84, 22.881998);
        ((GeneralPath) shape).curveTo(38.027, 22.881998, 38.133, 22.897999, 38.16, 22.920998);
        ((GeneralPath) shape).lineTo(38.121, 22.522997);
        ((GeneralPath) shape).curveTo(38.121, 22.041996, 38.026997, 21.307997, 37.84, 20.323997);
        ((GeneralPath) shape).lineTo(37.32, 20.084997);
        ((GeneralPath) shape).closePath();
        ((GeneralPath) shape).moveTo(37.398, 32.523);
        ((GeneralPath) shape).lineTo(37.641, 34.882);
        ((GeneralPath) shape).lineTo(37.723, 35.882);
        ((GeneralPath) shape).lineTo(37.922, 37.722);
        ((GeneralPath) shape).lineTo(38.0, 38.445);
        ((GeneralPath) shape).lineTo(38.082, 39.363);
        ((GeneralPath) shape).curveTo(38.082, 38.830997, 38.094, 38.202, 38.121002, 37.483997);
        ((GeneralPath) shape).curveTo(38.121002, 37.323997, 38.137, 37.041996, 38.160004, 36.643997);
        ((GeneralPath) shape).curveTo(38.188004, 36.268997, 38.176003, 35.991997, 38.121002, 35.803997);
        ((GeneralPath) shape).curveTo(38.094, 35.698997, 38.055, 35.561996, 38.000004, 35.401997);
        ((GeneralPath) shape).curveTo(37.977005, 35.295998, 37.988003, 34.842995, 38.043003, 34.041996);
        ((GeneralPath) shape).curveTo(38.066, 33.455997, 37.949, 33.041996, 37.680004, 32.803997);
        ((GeneralPath) shape).lineTo(37.398003, 32.523);
        ((GeneralPath) shape).closePath();
        ((GeneralPath) shape).moveTo(37.038998, 28.842999);
        ((GeneralPath) shape).lineTo(37.078, 29.201998);
        ((GeneralPath) shape).curveTo(37.32, 29.201998, 37.652, 29.135998, 38.078, 29.002998);
        ((GeneralPath) shape).curveTo(38.0, 28.948997, 37.788998, 28.925, 37.440998, 28.925);
        ((GeneralPath) shape).curveTo(37.281, 28.925, 37.148, 28.897999, 37.038998, 28.842999);
        ((GeneralPath) shape).closePath();

        g.setPaint(new Color(0x594C30));
        g.fill(shape);

        // _0_0_0_4
        shape = new GeneralPath();
        ((GeneralPath) shape).moveTo(9.719, 38.285);
        ((GeneralPath) shape).curveTo(9.613, 38.285, 9.5199995, 38.269, 9.441, 38.245);
        ((GeneralPath) shape).curveTo(9.039, 38.108997, 8.734, 38.018997, 8.52, 37.964);
        ((GeneralPath) shape).curveTo(8.469001, 37.964, 8.4140005, 37.949, 8.359, 37.925);
        ((GeneralPath) shape).lineTo(7.84, 37.925);
        ((GeneralPath) shape).curveTo(8.078, 37.948997, 8.508, 38.058, 9.121, 38.245);
        ((GeneralPath) shape).curveTo(9.305, 38.295998, 9.492001, 38.335, 9.68, 38.363);
        ((GeneralPath) shape).lineTo(9.719, 38.285);
        ((GeneralPath) shape).closePath();
        ((GeneralPath) shape).moveTo(8.879, 40.324);
        ((GeneralPath) shape).lineTo(8.9609995, 39.765);
        ((GeneralPath) shape).curveTo(8.9609995, 39.523, 9.054999, 39.312, 9.238, 39.124);
        ((GeneralPath) shape).lineTo(10.32, 39.722);
        ((GeneralPath) shape).curveTo(9.945, 40.55, 9.465, 40.749, 8.879, 40.324);
        ((GeneralPath) shape).closePath();
        ((GeneralPath) shape).moveTo(11.32, 39.843002);
        ((GeneralPath) shape).curveTo(11.934, 40.163002, 12.105, 40.511, 11.84, 40.882004);
        ((GeneralPath) shape).curveTo(11.332, 40.937004, 10.812, 40.777004, 10.281, 40.402004);
        ((GeneralPath) shape).curveTo(10.387, 39.710003, 10.734, 39.523003, 11.32, 39.843002);
        ((GeneralPath) shape).closePath();
        ((GeneralPath) shape).moveTo(15.9609995, 40.484);
        ((GeneralPath) shape).curveTo(15.879, 39.765, 15.933999, 38.882, 16.121, 37.843002);
        ((GeneralPath) shape).curveTo(15.215, 38.085003, 14.398001, 38.257004, 13.68, 38.363003);
        ((GeneralPath) shape).curveTo(13.625, 38.523003, 13.52, 38.699, 13.359, 38.882004);
        ((GeneralPath) shape).lineTo(12.719, 38.523003);
        ((GeneralPath) shape).curveTo(12.535, 38.550003, 12.348, 38.577003, 12.16, 38.605003);
        ((GeneralPath) shape).curveTo(12.426, 38.683002, 12.68, 38.816, 12.922, 39.003002);
        ((GeneralPath) shape).lineTo(12.281, 40.085003);
        ((GeneralPath) shape).curveTo(11.879, 39.925003, 11.613, 39.699, 11.4800005, 39.402004);
        ((GeneralPath) shape).curveTo(11.398001, 39.218006, 11.375001, 38.964005, 11.398001, 38.644005);
        ((GeneralPath) shape).curveTo(11.320001, 38.671005, 11.238001, 38.683006, 11.160001, 38.683006);
        ((GeneralPath) shape).curveTo(11.188001, 38.710007, 11.211, 38.74901, 11.238001, 38.804005);
        ((GeneralPath) shape).lineTo(10.922001, 39.324005);
        ((GeneralPath) shape).curveTo(10.387001, 39.378006, 9.879001, 39.218006, 9.398001, 38.843006);
        ((GeneralPath) shape).lineTo(9.4800005, 38.683006);
        ((GeneralPath) shape).lineTo(9.0390005, 38.683006);
        ((GeneralPath) shape).curveTo(9.094001, 38.843006, 9.012, 39.019005, 8.801001, 39.202007);
        ((GeneralPath) shape).curveTo(8.586, 39.468006, 8.281, 39.42901, 7.8790007, 39.085007);
        ((GeneralPath) shape).curveTo(7.6950006, 38.898006, 7.574001, 38.722008, 7.5200005, 38.562008);
        ((GeneralPath) shape).curveTo(6.1880007, 38.48401, 4.7620006, 38.29601, 3.2380004, 38.003006);
        ((GeneralPath) shape).curveTo(3.2660005, 38.058006, 3.3320005, 38.124004, 3.4410005, 38.202007);
        ((GeneralPath) shape).curveTo(3.3870006, 38.257008, 3.2660005, 38.285007, 3.0780005, 38.285007);
        ((GeneralPath) shape).lineTo(2.6800005, 38.285007);
        ((GeneralPath) shape).curveTo(2.6250005, 38.683006, 2.6800005, 39.01901, 2.8400006, 39.285007);
        ((GeneralPath) shape).curveTo(3.0000007, 39.523006, 3.1880007, 39.69901, 3.3980007, 39.80401);
        ((GeneralPath) shape).lineTo(4.000001, 40.085007);
        ((GeneralPath) shape).curveTo(4.855001, 40.269005, 5.895001, 40.523006, 7.1210012, 40.843006);
        ((GeneralPath) shape).curveTo(7.254001, 40.870007, 7.387001, 40.898006, 7.5200014, 40.925007);
        ((GeneralPath) shape).curveTo(7.9220014, 40.949005, 8.172002, 40.870007, 8.281001, 40.683006);
        ((GeneralPath) shape).curveTo(7.801001, 40.577007, 7.480001, 40.484005, 7.320001, 40.402008);
        ((GeneralPath) shape).curveTo(7.027001, 40.29601, 6.945001, 40.058006, 7.078001, 39.683006);
        ((GeneralPath) shape).curveTo(7.293001, 39.765007, 7.574001, 39.683006, 7.922001, 39.445007);
        ((GeneralPath) shape).curveTo(8.535001, 40.48401, 9.453001, 40.99201, 10.68, 40.96401);
        ((GeneralPath) shape).curveTo(10.652, 41.097008, 10.707001, 41.21801, 10.84, 41.32401);
        ((GeneralPath) shape).lineTo(11.719, 41.32401);
        ((GeneralPath) shape).curveTo(13.078, 41.26901, 14.492, 40.99201, 15.961, 40.48401);
        ((GeneralPath) shape).closePath();
        ((GeneralPath) shape).moveTo(9.719, 42.202);
        ((GeneralPath) shape).curveTo(9.855, 42.495, 9.762, 42.788, 9.441, 43.085);
        ((GeneralPath) shape).curveTo(9.172, 42.628, 8.895, 42.483997, 8.602, 42.643997);
        ((GeneralPath) shape).curveTo(8.199, 42.881996, 7.828, 42.898, 7.4800005, 42.683);
        ((GeneralPath) shape).curveTo(7.5080004, 42.468, 7.5200005, 42.295998, 7.5200005, 42.163);
        ((GeneralPath) shape).curveTo(5.8950005, 42.113, 4.0270004, 41.948997, 1.9220004, 41.683);
        ((GeneralPath) shape).lineTo(2.0390005, 42.643997);
        ((GeneralPath) shape).lineTo(3.8790007, 43.085);
        ((GeneralPath) shape).curveTo(5.1880007, 43.378, 7.2810006, 43.417, 10.160001, 43.202);
        ((GeneralPath) shape).curveTo(12.238001, 43.042, 14.281, 42.804, 16.281, 42.484);
        ((GeneralPath) shape).lineTo(16.359, 42.445);
        ((GeneralPath) shape).curveTo(16.519999, 42.312, 16.866999, 42.190998, 17.397999, 42.085);
        ((GeneralPath) shape).curveTo(17.695, 42.031, 17.999998, 41.992, 18.32, 41.964);
        ((GeneralPath) shape).curveTo(20.055, 41.671, 21.934, 41.562, 23.960999, 41.644);
        ((GeneralPath) shape).curveTo(25.054998, 41.671, 26.546999, 41.792, 28.440998, 42.003002);
        ((GeneralPath) shape).lineTo(19.237999, 42.124);
        ((GeneralPath) shape).curveTo(18.144999, 42.312, 17.280998, 42.429, 16.640999, 42.484);
        ((GeneralPath) shape).lineTo(16.602, 42.523003);
        ((GeneralPath) shape).curveTo(17.375, 42.468002, 18.465, 42.335003, 19.879, 42.124004);
        ((GeneralPath) shape).lineTo(29.960999, 42.003006);
        ((GeneralPath) shape).curveTo(27.852, 41.788006, 26.210999, 41.671005, 25.038998, 41.644005);
        ((GeneralPath) shape).curveTo(26.585999, 41.589005, 28.026997, 41.605003, 29.358997, 41.683006);
        ((GeneralPath) shape).curveTo(30.640997, 41.738007, 31.960997, 41.738007, 33.319996, 41.683006);
        ((GeneralPath) shape).curveTo(32.491997, 41.257008, 31.827995, 40.699005, 31.319996, 40.003006);
        ((GeneralPath) shape).curveTo(32.065994, 39.628006, 32.347996, 39.269005, 32.159996, 38.925007);
        ((GeneralPath) shape).curveTo(31.308996, 39.671005, 30.440996, 40.390007, 29.558996, 41.085007);
        ((GeneralPath) shape).curveTo(28.761995, 40.550007, 28.479996, 39.656006, 28.718996, 38.402008);
        ((GeneralPath) shape).curveTo(26.878996, 38.562008, 24.811996, 38.78801, 22.519997, 39.085007);
        ((GeneralPath) shape).curveTo(22.198997, 39.109005, 21.585997, 39.285007, 20.679996, 39.605007);
        ((GeneralPath) shape).lineTo(21.276997, 39.285007);
        ((GeneralPath) shape).curveTo(21.573997, 39.12401, 21.761997, 39.058006, 21.839996, 39.085007);
        ((GeneralPath) shape).lineTo(28.722996, 38.363007);
        ((GeneralPath) shape).curveTo(28.745996, 38.257008, 28.772995, 38.152008, 28.800995, 38.042007);
        ((GeneralPath) shape).curveTo(27.948996, 37.99201, 27.065994, 37.96401, 26.159994, 37.96401);
        ((GeneralPath) shape).curveTo(27.011993, 37.99201, 27.839994, 38.070007, 28.640995, 38.202007);
        ((GeneralPath) shape).lineTo(21.038994, 39.085007);
        ((GeneralPath) shape).curveTo(20.987993, 39.058006, 20.811995, 39.12401, 20.519995, 39.285007);
        ((GeneralPath) shape).lineTo(19.999994, 39.605007);
        ((GeneralPath) shape).curveTo(19.624994, 39.788006, 19.319994, 39.925007, 19.077993, 40.003006);
        ((GeneralPath) shape).curveTo(19.104994, 40.031006, 19.198994, 40.042007, 19.358994, 40.042007);
        ((GeneralPath) shape).curveTo(18.210993, 40.445007, 17.159994, 40.777008, 16.198994, 41.042007);
        ((GeneralPath) shape).curveTo(16.171993, 41.202007, 16.171993, 41.351006, 16.198994, 41.48401);
        ((GeneralPath) shape).curveTo(16.144993, 41.37801, 16.104994, 41.24501, 16.077993, 41.08501);
        ((GeneralPath) shape).curveTo(14.905993, 41.429012, 13.878994, 41.69901, 12.999993, 41.88201);
        ((GeneralPath) shape).curveTo(12.120994, 42.07001, 11.026993, 42.179012, 9.718993, 42.20201);
        ((GeneralPath) shape).closePath();
        ((GeneralPath) shape).moveTo(3.1599998, 43.605);
        ((GeneralPath) shape).lineTo(2.0779998, 43.324);
        ((GeneralPath) shape).lineTo(2.238, 43.683002);
        ((GeneralPath) shape).curveTo(2.988, 43.816, 3.586, 43.882004, 4.039, 43.882004);
        ((GeneralPath) shape).lineTo(3.641, 43.765003);
        ((GeneralPath) shape).curveTo(3.48, 43.738003, 3.32, 43.710003, 3.16, 43.683002);
        ((GeneralPath) shape).lineTo(3.16, 43.605003);
        ((GeneralPath) shape).closePath();
        ((GeneralPath) shape).moveTo(38.48, 43.163);
        ((GeneralPath) shape).lineTo(38.398, 42.323997);
        ((GeneralPath) shape).curveTo(32.348, 42.455997, 27.640999, 42.455997, 24.280998, 42.323997);
        ((GeneralPath) shape).curveTo(21.854998, 42.245, 19.733997, 42.378, 17.921997, 42.721996);
        ((GeneralPath) shape).curveTo(15.706997, 43.229996, 13.651997, 43.656, 11.761997, 44.002995);
        ((GeneralPath) shape).curveTo(9.171997, 44.455994, 6.104997, 44.576996, 2.5589972, 44.362995);
        ((GeneralPath) shape).curveTo(2.694997, 44.655994, 2.8669972, 44.815994, 3.0779972, 44.842995);
        ((GeneralPath) shape).curveTo(3.2659972, 44.897995, 3.6019971, 44.924995, 4.077997, 44.924995);
        ((GeneralPath) shape).curveTo(5.706997, 44.975994, 8.386997, 44.803997, 12.120997, 44.401997);
        ((GeneralPath) shape).curveTo(13.772997, 44.218, 15.534998, 44.123997, 17.397997, 44.123997);
        ((GeneralPath) shape).curveTo(18.921997, 44.123997, 20.507998, 44.018997, 22.159996, 43.803997);
        ((GeneralPath) shape).curveTo(24.104996, 43.538, 25.265995, 43.389996, 25.640995, 43.362995);
        ((GeneralPath) shape).curveTo(25.667995, 43.362995, 27.171995, 43.323994, 30.159996, 43.244995);
        ((GeneralPath) shape).curveTo(30.718996, 43.244995, 31.507996, 43.201996, 32.519997, 43.123997);
        ((GeneralPath) shape).curveTo(33.612995, 43.018997, 34.386997, 42.963997, 34.839996, 42.963997);
        ((GeneralPath) shape).lineTo(38.437996, 42.843);
        ((GeneralPath) shape).lineTo(38.479996, 43.163);
        ((GeneralPath) shape).closePath();
        ((GeneralPath) shape).moveTo(37.641, 41.561996);
        ((GeneralPath) shape).lineTo(38.281, 41.483997);
        ((GeneralPath) shape).lineTo(37.761997, 41.523);
        ((GeneralPath) shape).lineTo(37.641, 41.562);
        ((GeneralPath) shape).closePath();
        ((GeneralPath) shape).moveTo(32.358997, 38.163);
        ((GeneralPath) shape).lineTo(31.999998, 38.163);
        ((GeneralPath) shape).curveTo(31.972998, 38.510998, 31.972998, 38.698997, 31.999998, 38.722);
        ((GeneralPath) shape).curveTo(32.133, 38.777, 32.641, 38.91, 33.519997, 39.124);
        ((GeneralPath) shape).curveTo(34.132996, 39.285, 34.612995, 39.538002, 34.961, 39.882);
        ((GeneralPath) shape).curveTo(34.773, 39.992, 34.801, 40.335, 35.038998, 40.925);
        ((GeneralPath) shape).curveTo(35.121, 41.163, 35.148, 41.363, 35.121, 41.523);
        ((GeneralPath) shape).lineTo(36.559, 41.562);
        ((GeneralPath) shape).lineTo(38.281, 41.445);
        ((GeneralPath) shape).lineTo(38.281, 41.245);
        ((GeneralPath) shape).lineTo(38.078, 39.363);
        ((GeneralPath) shape).lineTo(38.0, 38.445);
        ((GeneralPath) shape).lineTo(37.48, 38.324);
        ((GeneralPath) shape).curveTo(37.348, 38.296, 37.199, 38.269, 37.038998, 38.245003);
        ((GeneralPath) shape).curveTo(36.801, 38.351, 36.491997, 38.456, 36.121, 38.562004);
        ((GeneralPath) shape).curveTo(35.773, 38.671005, 35.358997, 38.925003, 34.878998, 39.324005);
        ((GeneralPath) shape).curveTo(34.641, 39.163006, 34.214996, 39.003006, 33.601997, 38.843006);
        ((GeneralPath) shape).curveTo(33.011997, 38.710007, 32.586, 38.511005, 32.319996, 38.245007);
        ((GeneralPath) shape).curveTo(32.319996, 38.218006, 32.331997, 38.191006, 32.358997, 38.163006);
        ((GeneralPath) shape).closePath();
        ((GeneralPath) shape).moveTo(11.319998, 21.644);
        ((GeneralPath) shape).curveTo(9.585998, 21.776999, 7.5199976, 21.949, 5.120998, 22.162998);
        ((GeneralPath) shape).lineTo(-1.9073486E-6, 22.644);
        ((GeneralPath) shape).lineTo(0.3199981, 25.803999);
        ((GeneralPath) shape).lineTo(4.6799984, 25.682999);
        ((GeneralPath) shape).lineTo(2.2379985, 26.162998);
        ((GeneralPath) shape).lineTo(0.39799845, 26.522999);
        ((GeneralPath) shape).lineTo(1.3199985, 26.362999);
        ((GeneralPath) shape).lineTo(3.8009984, 26.484);
        ((GeneralPath) shape).lineTo(3.9219985, 26.445);
        ((GeneralPath) shape).lineTo(2.8399985, 26.402);
        ((GeneralPath) shape).curveTo(2.6019986, 26.351, 2.4139986, 26.335001, 2.2809985, 26.363);
        ((GeneralPath) shape).lineTo(5.280998, 25.683);
        ((GeneralPath) shape).lineTo(8.800999, 25.605001);
        ((GeneralPath) shape).lineTo(5.1989985, 26.324001);
        ((GeneralPath) shape).lineTo(10.077999, 25.683);
        ((GeneralPath) shape).curveTo(11.573999, 25.523, 13.811999, 24.831001, 16.800999, 23.605);
        ((GeneralPath) shape).curveTo(17.734, 23.23, 19.188, 23.136, 21.16, 23.324);
        ((GeneralPath) shape).curveTo(22.492, 23.456, 25.348, 23.816, 29.719, 24.401999);
        ((GeneralPath) shape).curveTo(32.254, 24.699, 34.547, 24.765, 36.602, 24.604998);
        ((GeneralPath) shape).lineTo(36.281002, 21.401997);
        ((GeneralPath) shape).lineTo(36.320004, 21.924997);
        ((GeneralPath) shape).lineTo(36.320004, 21.963997);
        ((GeneralPath) shape).curveTo(33.387005, 21.588997, 30.906004, 21.244997, 28.879004, 20.924997);
        ((GeneralPath) shape).lineTo(26.039003, 20.483997);
        ((GeneralPath) shape).lineTo(26.840004, 20.401997);
        ((GeneralPath) shape).curveTo(25.988005, 20.455997, 25.172005, 20.522997, 24.398005, 20.600996);
        ((GeneralPath) shape).curveTo(23.438005, 20.682997, 22.547005, 20.760996, 21.719006, 20.842997);
        ((GeneralPath) shape).lineTo(21.680006, 20.842997);
        ((GeneralPath) shape).curveTo(18.562006, 21.108997, 16.188005, 21.295996, 14.562006, 21.401997);
        ((GeneralPath) shape).lineTo(14.520006, 21.401997);
        ((GeneralPath) shape).lineTo(14.480006, 21.444996);
        ((GeneralPath) shape).curveTo(13.254006, 21.869995, 11.719007, 22.467997, 9.879006, 23.244995);
        ((GeneralPath) shape).lineTo(7.4410067, 24.284996);
        ((GeneralPath) shape).curveTo(5.305007, 24.284996, 3.2380066, 24.201996, 1.2380066, 24.041996);
        ((GeneralPath) shape).lineTo(1.1210066, 22.643995);
        ((GeneralPath) shape).lineTo(11.320007, 21.643995);
        ((GeneralPath) shape).closePath();
        ((GeneralPath) shape).moveTo(3.9609976, 26.445);
        ((GeneralPath) shape).lineTo(4.1989975, 26.484);
        ((GeneralPath) shape).lineTo(4.3199973, 26.445);
        ((GeneralPath) shape).lineTo(3.9609973, 26.445);
        ((GeneralPath) shape).closePath();
        ((GeneralPath) shape).moveTo(0.5199976, 27.562);
        ((GeneralPath) shape).lineTo(0.6019976, 28.562);
        ((GeneralPath) shape).lineTo(0.9999976, 28.644001);
        ((GeneralPath) shape).curveTo(1.9059976, 28.749, 2.5859976, 28.804, 3.0389977, 28.804);
        ((GeneralPath) shape).lineTo(3.6019976, 28.804);
        ((GeneralPath) shape).curveTo(3.1989975, 28.777, 2.6679976, 28.722, 1.9999976, 28.644001);
        ((GeneralPath) shape).lineTo(1.6799977, 28.562);
        ((GeneralPath) shape).lineTo(1.5589976, 27.562);
        ((GeneralPath) shape).lineTo(0.5199976, 27.562);
        ((GeneralPath) shape).closePath();
        ((GeneralPath) shape).moveTo(0.7619976, 30.124);
        ((GeneralPath) shape).lineTo(1.0389977, 32.722);
        ((GeneralPath) shape).curveTo(3.2269976, 32.964, 5.0939975, 33.085, 6.640998, 33.085);
        ((GeneralPath) shape).curveTo(7.573998, 32.124, 8.694998, 30.737999, 9.999998, 28.925);
        ((GeneralPath) shape).curveTo(10.933998, 27.644, 11.854998, 26.699, 12.761998, 26.085);
        ((GeneralPath) shape).curveTo(12.624998, 26.109, 12.491998, 26.151999, 12.358998, 26.202);
        ((GeneralPath) shape).curveTo(10.198998, 26.897999, 8.452998, 27.803999, 7.1209984, 28.925);
        ((GeneralPath) shape).curveTo(5.8669987, 29.991999, 5.011998, 30.577, 4.558998, 30.682999);
        ((GeneralPath) shape).curveTo(3.8669982, 30.842999, 3.093998, 30.869999, 2.237998, 30.765);
        ((GeneralPath) shape).curveTo(2.292998, 30.897999, 2.319998, 30.991999, 2.319998, 31.042);
        ((GeneralPath) shape).curveTo(2.3479981, 31.257, 2.397998, 31.402, 2.479998, 31.484);
        ((GeneralPath) shape).curveTo(2.612998, 31.671, 2.894998, 31.855, 3.319998, 32.042);
        ((GeneralPath) shape).lineTo(4.519998, 32.402);
        ((GeneralPath) shape).curveTo(5.159998, 32.644, 5.491998, 32.765, 5.519998, 32.765);
        ((GeneralPath) shape).curveTo(3.9729981, 32.656, 2.8119981, 32.605, 2.0389981, 32.605);
        ((GeneralPath) shape).lineTo(1.8789982, 30.722);
        ((GeneralPath) shape).curveTo(1.6409981, 30.699, 1.3979981, 30.656, 1.1599982, 30.605);
        ((GeneralPath) shape).lineTo(0.8009982, 30.163);
        ((GeneralPath) shape).lineTo(0.76199824, 30.124);
        ((GeneralPath) shape).closePath();
        ((GeneralPath) shape).moveTo(3.1799974, 34.363);
        ((GeneralPath) shape).curveTo(2.8709974, 34.355, 2.5469975, 34.343, 2.1989975, 34.323997);
        ((GeneralPath) shape).lineTo(2.1209974, 33.561996);
        ((GeneralPath) shape).lineTo(1.1209974, 33.561996);
        ((GeneralPath) shape).lineTo(1.1989974, 34.323997);
        ((GeneralPath) shape).curveTo(1.9609973, 34.343, 2.6209974, 34.358997, 3.1799974, 34.363);
        ((GeneralPath) shape).closePath();
        ((GeneralPath) shape).moveTo(1.1989975, 34.605);
        ((GeneralPath) shape).lineTo(1.7189975, 39.722);
        ((GeneralPath) shape).lineTo(1.7619975, 39.722);
        ((GeneralPath) shape).curveTo(1.9219974, 39.831, 2.0779974, 39.898, 2.2379975, 39.925);
        ((GeneralPath) shape).lineTo(3.2809975, 40.163);
        ((GeneralPath) shape).lineTo(2.6019974, 39.843);
        ((GeneralPath) shape).curveTo(2.7659974, 39.863, 2.9449973, 39.89, 3.1409974, 39.925);
        ((GeneralPath) shape).curveTo(3.0079975, 39.89, 2.8669975, 39.823997, 2.7189975, 39.722);
        ((GeneralPath) shape).lineTo(2.6799974, 39.722);
        ((GeneralPath) shape).lineTo(2.5199974, 37.843);
        ((GeneralPath) shape).curveTo(2.4139974, 37.843, 2.3049974, 37.830997, 2.1989973, 37.803997);
        ((GeneralPath) shape).curveTo(2.1989973, 37.748997, 2.1599972, 37.495, 2.0779972, 37.041996);
        ((GeneralPath) shape).lineTo(1.9999973, 36.561996);
        ((GeneralPath) shape).curveTo(2.1329973, 36.588997, 2.2659972, 36.616997, 2.3979974, 36.643997);
        ((GeneralPath) shape).lineTo(2.2379973, 34.764996);
        ((GeneralPath) shape).lineTo(1.7189972, 34.764996);
        ((GeneralPath) shape).curveTo(1.4799973, 34.709995, 1.3049972, 34.655994, 1.1989973, 34.604996);
        ((GeneralPath) shape).closePath();
        ((GeneralPath) shape).moveTo(1.8789976, 41.003);
        ((GeneralPath) shape).curveTo(2.7619977, 41.245, 3.7729976, 41.350998, 4.9219975, 41.323997);
        ((GeneralPath) shape).curveTo(4.1449976, 41.295998, 3.4409976, 41.190998, 2.8009975, 41.003);
        ((GeneralPath) shape).lineTo(2.7619975, 40.605);
        ((GeneralPath) shape).curveTo(2.6799974, 40.605, 2.6019974, 40.589, 2.5199974, 40.562);
        ((GeneralPath) shape).lineTo(1.8009974, 40.324);
        ((GeneralPath) shape).lineTo(1.8789973, 41.003002);
        ((GeneralPath) shape).closePath();
        ((GeneralPath) shape).moveTo(37.440998, 37.683);
        ((GeneralPath) shape).curveTo(37.573997, 37.71, 37.733997, 37.722, 37.921997, 37.722);
        ((GeneralPath) shape).lineTo(37.722996, 35.882);
        ((GeneralPath) shape).curveTo(36.011997, 35.749, 34.546997, 35.656, 33.319996, 35.605);
        ((GeneralPath) shape).curveTo(35.640995, 35.975998, 37.026997, 36.495, 37.479996, 37.163);
        ((GeneralPath) shape).curveTo(37.374996, 37.268997, 37.347996, 37.417, 37.397995, 37.605);
        ((GeneralPath) shape).curveTo(37.397995, 37.628, 37.413994, 37.656, 37.440994, 37.683);
        ((GeneralPath) shape).closePath();
        ((GeneralPath) shape).moveTo(37.398, 32.523);
        ((GeneralPath) shape).lineTo(37.238, 31.042);
        ((GeneralPath) shape).lineTo(37.238, 31.202);
        ((GeneralPath) shape).lineTo(32.878998, 31.202);
        ((GeneralPath) shape).curveTo(33.679996, 31.07, 34.878998, 30.925, 36.48, 30.765);
        ((GeneralPath) shape).lineTo(37.199, 30.644);
        ((GeneralPath) shape).lineTo(37.199, 30.484);
        ((GeneralPath) shape).lineTo(37.078003, 29.244999);
        ((GeneralPath) shape).lineTo(36.762, 29.324);
        ((GeneralPath) shape).lineTo(33.32, 29.324);
        ((GeneralPath) shape).lineTo(32.559, 29.362999);
        ((GeneralPath) shape).curveTo(32.348, 30.112999, 31.827997, 30.963999, 30.999998, 31.925);
        ((GeneralPath) shape).curveTo(30.679998, 32.135998, 30.280998, 32.23, 29.800999, 32.202);
        ((GeneralPath) shape).curveTo(29.265999, 32.202, 28.852, 32.296, 28.558998, 32.484);
        ((GeneralPath) shape).curveTo(27.733997, 33.976, 26.479998, 34.699, 24.800999, 34.644);
        ((GeneralPath) shape).curveTo(23.171999, 34.589, 22.012, 33.937, 21.32, 32.683002);
        ((GeneralPath) shape).curveTo(21.078, 32.257004, 20.973, 31.738003, 21.0, 31.124002);
        ((GeneralPath) shape).curveTo(20.652, 31.202002, 20.32, 31.285002, 20.0, 31.363003);
        ((GeneralPath) shape).curveTo(19.812, 32.218002, 19.48, 33.163002, 19.0, 34.202003);
        ((GeneralPath) shape).curveTo(18.625, 34.976, 18.293, 35.656002, 18.0, 36.245003);
        ((GeneralPath) shape).curveTo(19.039, 36.085003, 20.281, 35.898003, 21.719, 35.683002);
        ((GeneralPath) shape).lineTo(19.84, 36.245003);
        ((GeneralPath) shape).curveTo(19.145, 36.429, 18.453001, 36.605003, 17.762001, 36.765003);
        ((GeneralPath) shape).curveTo(17.734001, 36.816, 17.707, 36.870003, 17.68, 36.925003);
        ((GeneralPath) shape).lineTo(21.879, 35.644005);
        ((GeneralPath) shape).curveTo(24.359, 35.296005, 26.867, 35.058006, 29.397999, 34.925003);
        ((GeneralPath) shape).curveTo(29.265999, 34.285004, 28.839998, 33.859, 28.120998, 33.644005);
        ((GeneralPath) shape).curveTo(28.227, 33.296005, 28.534998, 33.003006, 29.038998, 32.765003);
        ((GeneralPath) shape).curveTo(29.573997, 32.495003, 29.972998, 32.456005, 30.237997, 32.644005);
        ((GeneralPath) shape).curveTo(30.132998, 33.628006, 30.437998, 34.363007, 31.159998, 34.843006);
        ((GeneralPath) shape).curveTo(33.293, 34.765007, 35.453, 34.777004, 37.641, 34.882008);
        ((GeneralPath) shape).lineTo(37.398, 32.523006);
        ((GeneralPath) shape).closePath();
        ((GeneralPath) shape).moveTo(37.0, 28.522999);
        ((GeneralPath) shape).lineTo(36.922, 27.765);
        ((GeneralPath) shape).lineTo(36.801003, 26.401999);
        ((GeneralPath) shape).lineTo(36.680004, 25.362999);
        ((GeneralPath) shape).lineTo(35.359005, 25.522999);
        ((GeneralPath) shape).curveTo(33.652004, 25.445, 32.199005, 25.362999, 31.000004, 25.284998);
        ((GeneralPath) shape).curveTo(31.160004, 25.334997, 31.293003, 25.389997, 31.398005, 25.444998);
        ((GeneralPath) shape).curveTo(32.309006, 26.510998, 32.746006, 27.537998, 32.719006, 28.522999);
        ((GeneralPath) shape).curveTo(34.211006, 28.39, 35.625004, 28.284998, 36.961006, 28.202);
        ((GeneralPath) shape).lineTo(37.000008, 28.522999);
        ((GeneralPath) shape).closePath();
        ((GeneralPath) shape).moveTo(29.441, 35.523);
        ((GeneralPath) shape).curveTo(28.559, 35.523, 27.68, 35.55, 26.801, 35.605);
        ((GeneralPath) shape).curveTo(24.719, 35.71, 22.414001, 36.124, 19.879002, 36.843);
        ((GeneralPath) shape).curveTo(18.973001, 37.108997, 18.133001, 37.335, 17.359001, 37.523);
        ((GeneralPath) shape).curveTo(17.227001, 37.788, 17.121, 38.018997, 17.039001, 38.202);
        ((GeneralPath) shape).curveTo(16.668001, 39.058, 16.426, 39.777, 16.320002, 40.363);
        ((GeneralPath) shape).curveTo(16.613, 40.257, 16.922, 40.135998, 17.238, 40.003);
        ((GeneralPath) shape).curveTo(18.012001, 39.683, 18.945002, 39.295998, 20.039001, 38.843);
        ((GeneralPath) shape).curveTo(20.309002, 38.683, 20.574001, 38.55, 20.840002, 38.445);
        ((GeneralPath) shape).curveTo(20.973001, 38.39, 21.121002, 38.350998, 21.281002, 38.324);
        ((GeneralPath) shape).curveTo(21.332003, 38.296, 21.398003, 38.285, 21.480001, 38.285);
        ((GeneralPath) shape).lineTo(21.562002, 38.245);
        ((GeneralPath) shape).curveTo(23.055002, 37.898, 25.508003, 37.670998, 28.922003, 37.562);
        ((GeneralPath) shape).curveTo(28.973003, 37.378002, 29.039003, 37.191, 29.121002, 37.003);
        ((GeneralPath) shape).curveTo(29.332003, 36.445, 29.441002, 35.948997, 29.441002, 35.523);
        ((GeneralPath) shape).closePath();
        ((GeneralPath) shape).moveTo(32.48, 37.523);
        ((GeneralPath) shape).curveTo(32.453, 37.285, 32.387, 37.042, 32.281, 36.803997);
        ((GeneralPath) shape).curveTo(32.038998, 36.218, 31.667997, 35.936996, 31.159998, 35.963997);
        ((GeneralPath) shape).curveTo(31.722998, 36.256996, 31.999998, 36.683, 31.999998, 37.244995);
        ((GeneralPath) shape).lineTo(31.999998, 37.522995);
        ((GeneralPath) shape).lineTo(32.48, 37.522995);
        ((GeneralPath) shape).closePath();
        ((GeneralPath) shape).moveTo(13.719, 38.085);
        ((GeneralPath) shape).lineTo(13.719, 38.124);
        ((GeneralPath) shape).lineTo(16.199, 37.363);
        ((GeneralPath) shape).curveTo(16.199, 37.335, 16.215, 37.295998, 16.237999, 37.245);
        ((GeneralPath) shape).lineTo(13.718999, 38.085);
        ((GeneralPath) shape).closePath();
        ((GeneralPath) shape).moveTo(23.237999, 29.882);
        ((GeneralPath) shape).curveTo(23.188, 29.777, 23.147999, 29.671, 23.120998, 29.562);
        ((GeneralPath) shape).curveTo(23.038998, 29.671, 22.960999, 29.792, 22.878998, 29.925001);
        ((GeneralPath) shape).curveTo(22.987997, 29.925001, 23.104998, 29.910002, 23.237997, 29.882002);
        ((GeneralPath) shape).closePath();
        ((GeneralPath) shape).moveTo(23.48, 30.523);
        ((GeneralPath) shape).curveTo(23.215, 30.577002, 22.945, 30.644001, 22.68, 30.722);
        ((GeneralPath) shape).curveTo(22.652, 30.749, 22.641, 30.788, 22.641, 30.843);
        ((GeneralPath) shape).curveTo(22.559, 31.378, 22.547, 31.738, 22.602001, 31.925001);
        ((GeneralPath) shape).curveTo(22.68, 32.296, 22.922, 32.710003, 23.320002, 33.163002);
        ((GeneralPath) shape).curveTo(23.746002, 33.644, 24.359001, 33.843002, 25.160002, 33.765003);
        ((GeneralPath) shape).curveTo(25.879002, 33.683002, 26.453001, 33.429005, 26.879002, 33.003002);
        ((GeneralPath) shape).curveTo(27.332, 32.577003, 27.426003, 32.230003, 27.160002, 31.964003);
        ((GeneralPath) shape).curveTo(26.945002, 31.777002, 26.680002, 31.699003, 26.359001, 31.722002);
        ((GeneralPath) shape).curveTo(25.641, 31.859001, 24.988, 31.804003, 24.398, 31.562002);
        ((GeneralPath) shape).curveTo(24.078001, 31.429003, 23.773, 31.085003, 23.480001, 30.523003);
        ((GeneralPath) shape).closePath();
        ((GeneralPath) shape).moveTo(15.801, 32.523003);
        ((GeneralPath) shape).curveTo(15.426, 32.656002, 15.066, 32.777004, 14.719, 32.882004);
        ((GeneralPath) shape).curveTo(14.719, 33.070004, 14.602, 33.269005, 14.359, 33.484005);
        ((GeneralPath) shape).curveTo(14.012, 33.671005, 13.668, 33.628006, 13.32, 33.363007);
        ((GeneralPath) shape).curveTo(12.945, 33.468006, 12.641, 33.562008, 12.398, 33.644005);
        ((GeneralPath) shape).curveTo(12.48, 33.644005, 12.559, 33.656006, 12.641, 33.683006);
        ((GeneralPath) shape).curveTo(12.773, 33.710007, 13.188, 33.910007, 13.879, 34.285007);
        ((GeneralPath) shape).curveTo(13.745999, 34.925007, 13.387, 35.17901, 12.801, 35.042007);
        ((GeneralPath) shape).curveTo(12.238, 34.937008, 11.8949995, 34.656006, 11.761999, 34.202007);
        ((GeneralPath) shape).curveTo(11.839999, 33.99201, 11.9609995, 33.83101, 12.120999, 33.722008);
        ((GeneralPath) shape).curveTo(12.039, 33.74901, 11.973, 33.777008, 11.921999, 33.80401);
        ((GeneralPath) shape).curveTo(11.811999, 33.83101, 11.718999, 33.855007, 11.640999, 33.882008);
        ((GeneralPath) shape).curveTo(11.452999, 33.937008, 11.265999, 33.97601, 11.077999, 34.003006);
        ((GeneralPath) shape).curveTo(11.058999, 34.011005, 11.039, 34.015007, 11.0199995, 34.023006);
        ((GeneralPath) shape).curveTo(10.823999, 34.070007, 10.632999, 34.11701, 10.441, 34.163006);
        ((GeneralPath) shape).curveTo(10.602, 34.269005, 10.719, 34.363007, 10.801, 34.445007);
        ((GeneralPath) shape).curveTo(11.012, 34.710007, 10.988, 35.01901, 10.719, 35.363007);
        ((GeneralPath) shape).curveTo(10.398, 35.445007, 10.026999, 35.363007, 9.602, 35.12401);
        ((GeneralPath) shape).curveTo(9.227, 34.882008, 9.078, 34.62801, 9.16, 34.363007);
        ((GeneralPath) shape).curveTo(8.734, 34.417007, 8.293, 34.468006, 7.8399997, 34.523006);
        ((GeneralPath) shape).curveTo(6.988, 34.605007, 6.1449995, 34.656006, 5.3199997, 34.683006);
        ((GeneralPath) shape).curveTo(5.0269995, 34.765007, 4.7619996, 34.788006, 4.5199995, 34.765007);
        ((GeneralPath) shape).lineTo(4.5589995, 34.722008);
        ((GeneralPath) shape).curveTo(3.9219995, 34.777008, 3.3049996, 34.78801, 2.7189994, 34.765007);
        ((GeneralPath) shape).lineTo(2.8009994, 34.882008);
        ((GeneralPath) shape).curveTo(2.7729993, 35.12401, 2.7729993, 35.29601, 2.8009994, 35.402008);
        ((GeneralPath) shape).lineTo(2.9609995, 36.722008);
        ((GeneralPath) shape).curveTo(4.5589995, 36.99201, 6.3049994, 37.13601, 8.198999, 37.16301);
        ((GeneralPath) shape).lineTo(8.5199995, 36.60501);
        ((GeneralPath) shape).curveTo(8.973, 36.84301, 9.280999, 37.03101, 9.441, 37.16301);
        ((GeneralPath) shape).lineTo(10.078, 37.16301);
        ((GeneralPath) shape).curveTo(10.055, 37.13601, 10.0390005, 37.11301, 10.0390005, 37.08501);
        ((GeneralPath) shape).curveTo(10.199, 36.57701, 10.547001, 36.41701, 11.078001, 36.60501);
        ((GeneralPath) shape).curveTo(11.398001, 36.73801, 11.641001, 36.89801, 11.801001, 37.08501);
        ((GeneralPath) shape).curveTo(12.281, 37.05801, 12.734, 37.03101, 13.160001, 37.00301);
        ((GeneralPath) shape).curveTo(13.055001, 36.87001, 12.973001, 36.72201, 12.922001, 36.562008);
        ((GeneralPath) shape).curveTo(13.078001, 36.058006, 13.426001, 35.898006, 13.961, 36.085007);
        ((GeneralPath) shape).curveTo(14.4140005, 36.245007, 14.707001, 36.484005, 14.84, 36.80401);
        ((GeneralPath) shape).curveTo(15.375, 36.74901, 15.895, 36.67101, 16.398, 36.562008);
        ((GeneralPath) shape).curveTo(16.559, 35.925007, 16.762001, 35.230007, 17.0, 34.48401);
        ((GeneralPath) shape).curveTo(17.293, 33.577007, 17.52, 32.74901, 17.68, 32.00301);
        ((GeneralPath) shape).curveTo(17.52, 32.03101, 17.359001, 32.07001, 17.199, 32.12401);
        ((GeneralPath) shape).curveTo(17.305, 32.417007, 17.171999, 32.738007, 16.800999, 33.085007);
        ((GeneralPath) shape).lineTo(15.800999, 32.523006);
        ((GeneralPath) shape).closePath();
        ((GeneralPath) shape).moveTo(10.84, 35.765003);
        ((GeneralPath) shape).lineTo(11.281, 34.964005);
        ((GeneralPath) shape).lineTo(12.961, 35.882004);
        ((GeneralPath) shape).curveTo(12.828, 36.523003, 12.465, 36.777004, 11.879001, 36.644005);
        ((GeneralPath) shape).curveTo(11.320001, 36.511005, 10.973001, 36.218006, 10.84, 35.765003);
        ((GeneralPath) shape).closePath();
        ((GeneralPath) shape).moveTo(14.641001, 33.644005);
        ((GeneralPath) shape).curveTo(14.828001, 33.191006, 15.121, 33.019005, 15.52, 33.124004);
        ((GeneralPath) shape).curveTo(15.68, 33.179005, 16.094, 33.390003, 16.762001, 33.765003);
        ((GeneralPath) shape).curveTo(16.625002, 34.511, 16.266, 34.792004, 15.680001, 34.605003);
        ((GeneralPath) shape).curveTo(15.121001, 34.417004, 14.773002, 34.097004, 14.641001, 33.644005);
        ((GeneralPath) shape).closePath();
        ((GeneralPath) shape).moveTo(12.801001, 32.202003);
        ((GeneralPath) shape).curveTo(12.879001, 32.070004, 13.000001, 31.937004, 13.160001, 31.804003);
        ((GeneralPath) shape).curveTo(13.266001, 31.855003, 13.398001, 31.925003, 13.559001, 32.003002);
        ((GeneralPath) shape).curveTo(13.828001, 31.949001, 14.121001, 31.882002, 14.441001, 31.804003);
        ((GeneralPath) shape).lineTo(13.4800005, 31.285004);
        ((GeneralPath) shape).curveTo(13.695001, 30.218004, 14.227, 29.925003, 15.078001, 30.402004);
        ((GeneralPath) shape).curveTo(15.668001, 30.699005, 15.867001, 31.058004, 15.680001, 31.484005);
        ((GeneralPath) shape).curveTo(15.762001, 31.484005, 15.840001, 31.468004, 15.922001, 31.445005);
        ((GeneralPath) shape).curveTo(16.215, 31.363005, 16.52, 31.285006, 16.84, 31.202005);
        ((GeneralPath) shape).curveTo(16.441, 30.749006, 15.934, 30.351006, 15.32, 30.003006);
        ((GeneralPath) shape).curveTo(14.573999, 29.605005, 13.855, 29.390005, 13.16, 29.363007);
        ((GeneralPath) shape).curveTo(13.398, 28.804007, 13.746, 28.402006, 14.198999, 28.163006);
        ((GeneralPath) shape).curveTo(15.452999, 28.749006, 16.559, 29.351006, 17.52, 29.964006);
        ((GeneralPath) shape).lineTo(17.52, 30.882006);
        ((GeneralPath) shape).curveTo(17.52, 30.964006, 17.508001, 31.031006, 17.48, 31.085005);
        ((GeneralPath) shape).curveTo(17.586, 31.058004, 17.706999, 31.031004, 17.84, 31.003004);
        ((GeneralPath) shape).curveTo(18.055, 29.511003, 17.945, 28.351004, 17.52, 27.523005);
        ((GeneralPath) shape).curveTo(17.68, 27.683004, 17.922, 27.656004, 18.238, 27.445005);
        ((GeneralPath) shape).curveTo(18.559, 27.257006, 18.559, 27.070005, 18.238, 26.882006);
        ((GeneralPath) shape).curveTo(16.266, 26.402006, 13.855001, 27.617006, 11.000001, 30.523006);
        ((GeneralPath) shape).curveTo(9.988001, 31.562006, 9.078001, 32.402008, 8.281001, 33.042007);
        ((GeneralPath) shape).curveTo(8.867002, 33.01901, 9.398001, 32.96401, 9.879002, 32.882008);
        ((GeneralPath) shape).curveTo(9.906002, 32.882008, 9.945002, 32.870007, 10.000002, 32.843006);
        ((GeneralPath) shape).lineTo(10.320002, 32.324005);
        ((GeneralPath) shape).lineTo(10.922002, 32.644005);
        ((GeneralPath) shape).curveTo(11.160002, 32.589005, 11.469002, 32.523006, 11.840002, 32.445004);
        ((GeneralPath) shape).curveTo(11.652002, 32.363003, 11.238002, 32.152004, 10.602002, 31.804003);
        ((GeneralPath) shape).curveTo(10.762002, 31.163002, 11.133002, 30.910004, 11.719002, 31.042004);
        ((GeneralPath) shape).curveTo(12.254002, 31.152004, 12.586001, 31.445004, 12.719002, 31.925003);
        ((GeneralPath) shape).curveTo(12.668002, 32.058002, 12.602002, 32.163002, 12.520001, 32.245003);
        ((GeneralPath) shape).curveTo(12.602001, 32.245003, 12.695002, 32.230003, 12.801002, 32.202003);
        ((GeneralPath) shape).closePath();
        ((GeneralPath) shape).moveTo(20.121, 30.484003);
        ((GeneralPath) shape).curveTo(20.438, 30.429003, 20.762001, 30.363003, 21.078001, 30.285004);
        ((GeneralPath) shape).curveTo(21.211, 29.644003, 21.465, 28.898005, 21.84, 28.042004);
        ((GeneralPath) shape).curveTo(22.559, 26.417004, 22.988, 25.191004, 23.121, 24.363003);
        ((GeneralPath) shape).lineTo(21.359001, 24.163002);
        ((GeneralPath) shape).curveTo(20.828001, 24.191002, 20.266, 24.257002, 19.68, 24.363003);
        ((GeneralPath) shape).curveTo(19.762001, 24.445004, 19.84, 24.538002, 19.922, 24.644003);
        ((GeneralPath) shape).curveTo(19.68, 24.937002, 19.508001, 25.351004, 19.398, 25.882004);
        ((GeneralPath) shape).curveTo(19.320002, 26.390003, 19.121, 26.816004, 18.801, 27.163004);
        ((GeneralPath) shape).curveTo(19.812, 27.910004, 20.254, 29.019005, 20.121, 30.484005);
        ((GeneralPath) shape).closePath();
        ((GeneralPath) shape).moveTo(16.641, 27.765003);
        ((GeneralPath) shape).curveTo(16.961, 27.898003, 17.199001, 28.218002, 17.359001, 28.722004);
        ((GeneralPath) shape).curveTo(17.492, 29.230003, 17.414001, 29.456003, 17.121, 29.402004);
        ((GeneralPath) shape).curveTo(17.172, 29.058004, 16.773, 28.722004, 15.922, 28.402004);
        ((GeneralPath) shape).curveTo(15.094, 28.109005, 14.719, 27.910004, 14.801, 27.804005);
        ((GeneralPath) shape).curveTo(14.988, 27.882004, 15.280999, 27.831005, 15.679999, 27.644005);
        ((GeneralPath) shape).curveTo(16.026999, 27.511005, 16.348, 27.550005, 16.640999, 27.765005);
        ((GeneralPath) shape).closePath();
        ((GeneralPath) shape).moveTo(4.441001, 27.605003);
        ((GeneralPath) shape).lineTo(4.762001, 27.605003);
        ((GeneralPath) shape).curveTo(5.695001, 27.605003, 6.414001, 27.538004, 6.922001, 27.402004);
        ((GeneralPath) shape).lineTo(7.840001, 27.163004);
        ((GeneralPath) shape).curveTo(7.895001, 27.136003, 7.934001, 27.097004, 7.961001, 27.042004);
        ((GeneralPath) shape).curveTo(7.934001, 27.042004, 7.3980007, 27.163004, 6.359001, 27.402004);
        ((GeneralPath) shape).curveTo(5.906001, 27.511003, 5.266001, 27.577003, 4.441001, 27.605003);
        ((GeneralPath) shape).closePath();
        ((GeneralPath) shape).moveTo(9.000001, 33.562004);
        ((GeneralPath) shape).curveTo(8.867001, 33.538006, 8.719001, 33.550003, 8.559001, 33.605003);
        ((GeneralPath) shape).lineTo(8.922001, 33.605003);
        ((GeneralPath) shape).curveTo(8.945001, 33.605003, 8.973001, 33.589005, 9.000001, 33.562004);
        ((GeneralPath) shape).closePath();
        ((GeneralPath) shape).moveTo(15.801001, 35.324005);
        ((GeneralPath) shape).curveTo(15.668, 35.964005, 15.305, 36.230003, 14.719001, 36.124004);
        ((GeneralPath) shape).curveTo(14.188001, 35.992004, 13.840001, 35.699005, 13.68, 35.245003);
        ((GeneralPath) shape).lineTo(14.16, 34.445004);
        ((GeneralPath) shape).lineTo(15.801, 35.324005);
        ((GeneralPath) shape).closePath();
        ((GeneralPath) shape).moveTo(12.719001, 29.484005);
        ((GeneralPath) shape).curveTo(13.680001, 29.804005, 13.840001, 30.351006, 13.199, 31.124004);
        ((GeneralPath) shape).lineTo(11.84, 30.363005);
        ((GeneralPath) shape).curveTo(11.922, 30.179005, 12.066, 30.031004, 12.281, 29.925005);
        ((GeneralPath) shape).curveTo(12.492001, 29.788006, 12.641, 29.644005, 12.719, 29.484005);
        ((GeneralPath) shape).closePath();
        ((GeneralPath) shape).moveTo(8.398001, 36.202003);
        ((GeneralPath) shape).curveTo(8.719001, 35.296005, 9.387001, 35.191, 10.398001, 35.882004);
        ((GeneralPath) shape).lineTo(9.762001, 36.964005);
        ((GeneralPath) shape).lineTo(8.398001, 36.202003);
        ((GeneralPath) shape).closePath();
        ((GeneralPath) shape).moveTo(23.602001, 23.843002);
        ((GeneralPath) shape).curveTo(23.707, 23.870003, 23.828001, 23.882002, 23.961, 23.882002);
        ((GeneralPath) shape).lineTo(25.078001, 23.925001);
        ((GeneralPath) shape).curveTo(24.465, 23.843, 23.879002, 23.777, 23.320002, 23.722002);
        ((GeneralPath) shape).curveTo(23.398, 23.777002, 23.492002, 23.816002, 23.602001, 23.843002);
        ((GeneralPath) shape).closePath();
        ((GeneralPath) shape).moveTo(23.160002, 23.804003);
        ((GeneralPath) shape).lineTo(23.160002, 23.683002);
        ((GeneralPath) shape).curveTo(22.254002, 23.628002, 21.426003, 23.605003, 20.680002, 23.605003);
        ((GeneralPath) shape).curveTo(21.426003, 23.628004, 22.254002, 23.699003, 23.160002, 23.804003);
        ((GeneralPath) shape).closePath();
        ((GeneralPath) shape).moveTo(17.039001, 24.363003);
        ((GeneralPath) shape).lineTo(17.000002, 24.363003);
        ((GeneralPath) shape).curveTo(16.812002, 24.417004, 16.652002, 24.456003, 16.520002, 24.484003);
        ((GeneralPath) shape).curveTo(16.469002, 24.511003, 16.414001, 24.523003, 16.359003, 24.523003);
        ((GeneralPath) shape).curveTo(16.465004, 24.577003, 16.641003, 24.562002, 16.879004, 24.484003);
        ((GeneralPath) shape).curveTo(16.906004, 24.456003, 16.934004, 24.429003, 16.961004, 24.402002);
        ((GeneralPath) shape).curveTo(16.984005, 24.378002, 17.012005, 24.363003, 17.039003, 24.363003);
        ((GeneralPath) shape).closePath();
        ((GeneralPath) shape).moveTo(16.398, 25.042004);
        ((GeneralPath) shape).curveTo(16.105001, 25.124004, 15.828001, 25.191004, 15.559001, 25.245003);
        ((GeneralPath) shape).curveTo(15.773001, 25.269003, 15.988001, 25.324003, 16.199001, 25.402002);
        ((GeneralPath) shape).curveTo(16.254002, 25.269003, 16.320002, 25.152002, 16.398, 25.042002);
        ((GeneralPath) shape).closePath();
        ((GeneralPath) shape).moveTo(19.281, 24.003004);
        ((GeneralPath) shape).curveTo(19.707, 23.949003, 20.094, 23.910004, 20.441, 23.882004);
        ((GeneralPath) shape).lineTo(20.0, 23.882004);
        ((GeneralPath) shape).curveTo(19.734, 23.882004, 19.453, 23.898005, 19.16, 23.925003);
        ((GeneralPath) shape).curveTo(19.188, 23.949003, 19.227, 23.976004, 19.281, 24.003002);
        ((GeneralPath) shape).closePath();

        g.setPaint(new Color(0xC5AA6B));
        g.fill(shape);

        // _0_0_0_5
        shape = new GeneralPath();
        ((GeneralPath) shape).moveTo(2.359, 46.124);
        ((GeneralPath) shape).lineTo(5.359, 46.324);
        ((GeneralPath) shape).lineTo(20.48, 45.402);
        ((GeneralPath) shape).curveTo(21.706999, 45.351, 24.171999, 45.218002, 27.879, 45.003002);
        ((GeneralPath) shape).curveTo(31.668, 44.765003, 33.961, 44.589, 34.762, 44.484);
        ((GeneralPath) shape).lineTo(40.32, 43.925003);
        ((GeneralPath) shape).lineTo(37.762, 43.562004);
        ((GeneralPath) shape).curveTo(33.547, 43.804005, 30.652, 44.019005, 29.078001, 44.202003);
        ((GeneralPath) shape).curveTo(21.746002, 44.710003, 17.105001, 45.042004, 15.160001, 45.202003);
        ((GeneralPath) shape).lineTo(2.3590012, 46.124004);
        ((GeneralPath) shape).closePath();

        g.setPaint(new Color(0x968251));
        g.fill(shape);

        // _0_0_0_6
        shape = new GeneralPath();
        ((GeneralPath) shape).moveTo(28.719, 38.363);
        ((GeneralPath) shape).lineTo(28.719, 38.402);
        ((GeneralPath) shape).curveTo(28.48, 39.656002, 28.762, 40.55, 29.559, 41.085);
        ((GeneralPath) shape).curveTo(30.441, 40.39, 31.309, 39.670998, 32.16, 38.925);
        ((GeneralPath) shape).curveTo(32.348, 39.269, 32.065998, 39.628, 31.32, 40.003);
        ((GeneralPath) shape).curveTo(31.828, 40.698997, 32.492, 41.257, 33.32, 41.683);
        ((GeneralPath) shape).curveTo(33.690998, 41.898, 34.121, 42.07, 34.602, 42.202);
        ((GeneralPath) shape).curveTo(34.84, 42.07, 35.0, 41.91, 35.078003, 41.722);
        ((GeneralPath) shape).curveTo(35.078003, 41.671, 35.094, 41.605, 35.121002, 41.523);
        ((GeneralPath) shape).curveTo(35.148003, 41.363, 35.121002, 41.163, 35.039, 40.925);
        ((GeneralPath) shape).curveTo(34.801003, 40.335, 34.773003, 39.992, 34.961002, 39.882);
        ((GeneralPath) shape).curveTo(34.613003, 39.538, 34.133003, 39.285, 33.520004, 39.124);
        ((GeneralPath) shape).curveTo(32.641003, 38.91, 32.133003, 38.777, 32.000004, 38.722);
        ((GeneralPath) shape).curveTo(31.973003, 38.699, 31.973003, 38.511, 32.000004, 38.163002);
        ((GeneralPath) shape).lineTo(32.000004, 37.245003);
        ((GeneralPath) shape).curveTo(32.000004, 36.683002, 31.719004, 36.257004, 31.160004, 35.964005);
        ((GeneralPath) shape).curveTo(31.668003, 35.937004, 32.039005, 36.218006, 32.277004, 36.804005);
        ((GeneralPath) shape).curveTo(32.387005, 37.042004, 32.453003, 37.285004, 32.480003, 37.523006);
        ((GeneralPath) shape).curveTo(32.480003, 37.738007, 32.438004, 37.949005, 32.359005, 38.163006);
        ((GeneralPath) shape).curveTo(32.332005, 38.191006, 32.320004, 38.218006, 32.320004, 38.245007);
        ((GeneralPath) shape).curveTo(32.586002, 38.511005, 33.012005, 38.710007, 33.602005, 38.843006);
        ((GeneralPath) shape).curveTo(34.215004, 39.003006, 34.641006, 39.163006, 34.879005, 39.324005);
        ((GeneralPath) shape).curveTo(35.359005, 38.925007, 35.773006, 38.671005, 36.121006, 38.562004);
        ((GeneralPath) shape).curveTo(36.492004, 38.456005, 36.801006, 38.351006, 37.039005, 38.245003);
        ((GeneralPath) shape).curveTo(37.199005, 38.191, 37.348003, 38.136, 37.480007, 38.085003);
        ((GeneralPath) shape).curveTo(37.508007, 38.031002, 37.49201, 37.898003, 37.441006, 37.683002);
        ((GeneralPath) shape).curveTo(37.414005, 37.656002, 37.398006, 37.628002, 37.398006, 37.605003);
        ((GeneralPath) shape).curveTo(37.348007, 37.417004, 37.375008, 37.269005, 37.480007, 37.163002);
        ((GeneralPath) shape).curveTo(37.027008, 36.495003, 35.641006, 35.976, 33.320007, 35.605003);
        ((GeneralPath) shape).curveTo(33.238007, 35.605003, 33.148006, 35.589005, 33.03901, 35.562004);
        ((GeneralPath) shape).curveTo(32.23801, 35.429005, 31.613008, 35.191006, 31.16001, 34.843002);
        ((GeneralPath) shape).curveTo(30.44101, 34.363003, 30.133009, 33.628002, 30.238008, 32.644);
        ((GeneralPath) shape).curveTo(29.97301, 32.456, 29.574009, 32.495003, 29.03901, 32.765);
        ((GeneralPath) shape).curveTo(28.53501, 33.003, 28.227009, 33.295998, 28.12101, 33.644);
        ((GeneralPath) shape).curveTo(28.84001, 33.859, 29.26601, 34.285, 29.40201, 34.925);
        ((GeneralPath) shape).curveTo(29.42601, 35.108997, 29.44101, 35.312, 29.44101, 35.523);
        ((GeneralPath) shape).curveTo(29.44101, 35.948997, 29.33601, 36.445, 29.12101, 37.003);
        ((GeneralPath) shape).curveTo(29.03901, 37.190998, 28.97301, 37.378, 28.92201, 37.561996);
        ((GeneralPath) shape).curveTo(28.86701, 37.721996, 28.82801, 37.881996, 28.80101, 38.041996);
        ((GeneralPath) shape).curveTo(28.77301, 38.151997, 28.74601, 38.256996, 28.71901, 38.362995);
        ((GeneralPath) shape).closePath();
        ((GeneralPath) shape).moveTo(9.719, 42.202);
        ((GeneralPath) shape).curveTo(9.507999, 41.91, 9.348, 41.699, 9.238, 41.562);
        ((GeneralPath) shape).curveTo(9.375, 41.456, 9.68, 41.577, 10.16, 41.925);
        ((GeneralPath) shape).curveTo(10.531, 42.218, 10.84, 42.085, 11.078, 41.523);
        ((GeneralPath) shape).curveTo(10.973001, 41.468, 10.895, 41.402, 10.84, 41.323997);
        ((GeneralPath) shape).curveTo(10.707, 41.218, 10.652, 41.096996, 10.68, 40.963997);
        ((GeneralPath) shape).curveTo(9.453, 40.991997, 8.531, 40.483997, 7.9220004, 39.444996);
        ((GeneralPath) shape).curveTo(7.5740004, 39.682995, 7.293, 39.764996, 7.0780005, 39.682995);
        ((GeneralPath) shape).curveTo(6.9450006, 40.057995, 7.0270004, 40.295994, 7.3200006, 40.401997);
        ((GeneralPath) shape).curveTo(7.4800005, 40.483997, 7.8010006, 40.576996, 8.281001, 40.682995);
        ((GeneralPath) shape).curveTo(8.172001, 40.869995, 7.922001, 40.948994, 7.520001, 40.924995);
        ((GeneralPath) shape).lineTo(7.441001, 40.924995);
        ((GeneralPath) shape).curveTo(7.039001, 40.897995, 6.789001, 41.108994, 6.680001, 41.561996);
        ((GeneralPath) shape).curveTo(7.160001, 41.643997, 7.441001, 41.748997, 7.520001, 41.881996);
        ((GeneralPath) shape).curveTo(7.547001, 41.909996, 7.547001, 42.002995, 7.520001, 42.162994);
        ((GeneralPath) shape).curveTo(7.520001, 42.295994, 7.508001, 42.467995, 7.480001, 42.682995);
