package com.pump.awt.geom.clipart;

import java.awt.*;
import java.awt.geom.AffineTransform;
import java.awt.geom.GeneralPath;

import static java.awt.Color.BLACK;
import static java.awt.Color.WHITE;

/**
 * This class has been automatically generated using
 * <a href="http://ebourg.github.io/flamingo-svg-transcoder/">Flamingo SVG transcoder</a>.
 * <p>
 * Source image: https://openclipart.org/detail/329278/gift-box-with-white-ribbon
 * </p>
 */
public class GiftBox implements javax.swing.Icon {

    /** The width of this icon. */
    private int width;

    /** The height of this icon. */
    private int height;

    /**
     * Creates a new transcoded SVG image.
     */
    public GiftBox() {
        this(503, 496);
    }

    /**
     * Creates a new transcoded SVG image.
     */
    public GiftBox(int width, int height) {
        this.width = width;
        this.height = height;
    }

    @Override
    public int getIconHeight() {
        return height;
    }

    @Override
    public int getIconWidth() {
        return width;
    }

    @Override
    public void paintIcon(Component c, Graphics g, int x, int y) {
        double coef = Math.min((double) width / (double) 503, (double) height / (double) 496);

        Graphics2D g2d = (Graphics2D) g.create();
        g2d.translate(x, y);
        g2d.setRenderingHint(RenderingHints.KEY_ANTIALIASING, RenderingHints.VALUE_ANTIALIAS_ON);
        g2d.scale(coef, coef);
        paint(g2d);
        g2d.dispose();
    }

    /**
     * Paints the transcoded SVG image on the specified graphics context.
     * 
     * @param g Graphics context.
     */
    private static void paint(Graphics2D g) {
        Shape shape = null;
        
        float origAlpha = 1.0f;
        
        java.util.LinkedList<AffineTransform> transformations = new java.util.LinkedList<AffineTransform>();
        

        // 

        // _0
        transformations.push(g.getTransform());
        g.transform(new AffineTransform(1.3333333f, 0, 0, -1.3333333f, 0, 609.4427f));

        // _0_0

        // _0_0_0

        // _0_0_0_0

        // _0_0_0_0_0
        shape = new GeneralPath();
        ((GeneralPath) shape).moveTo(324.613, 81.048);
        ((GeneralPath) shape).curveTo(318.434, 79.239, 298.015, 89.254, 287.457, 90.76);
        ((GeneralPath) shape).curveTo(284.719, 91.148, 282.0, 91.401, 280.0, 91.144);
        ((GeneralPath) shape).lineTo(280.0, 55.082);
        ((GeneralPath) shape).lineTo(415.0, 55.082);
        ((GeneralPath) shape).lineTo(415.0, 180.082);
        ((GeneralPath) shape).lineTo(281.686, 180.082);
        ((GeneralPath) shape).curveTo(304.456, 151.082, 327.58002, 114.175, 324.613, 81.048004);

        g.setPaint(new Color(0xF7931E));
        g.fill(shape);

        // _0_0_0_0_1
        shape = new GeneralPath();
        ((GeneralPath) shape).moveTo(177.033, 84.849);
        ((GeneralPath) shape).curveTo(166.201, 87.498, 151.88101, 71.931, 144.384, 74.374);
        ((GeneralPath) shape).curveTo(144.354, 78.045, 144.98401, 82.304, 146.179, 87.009);
        ((GeneralPath) shape).curveTo(145.554, 86.883, 144.92, 86.803, 144.293, 86.803);
        ((GeneralPath) shape).curveTo(142.04199, 86.803, 140.015, 87.674, 138.275, 89.394005);
        ((GeneralPath) shape).lineTo(137.668, 89.990005);
        ((GeneralPath) shape).lineTo(137.66, 90.30401);
        ((GeneralPath) shape).curveTo(137.478, 112.28701, 160.564, 150.082, 181.524, 180.082);
        ((GeneralPath) shape).lineTo(64.0, 180.082);
        ((GeneralPath) shape).lineTo(64.0, 55.082);
        ((GeneralPath) shape).lineTo(191.0, 55.082);
        ((GeneralPath) shape).lineTo(191.0, 76.673004);
        ((GeneralPath) shape).curveTo(187.0, 80.58301, 181.998, 83.633, 177.033, 84.84901);

        g.fill(shape);

        // _0_0_0_0_2
        shape = new GeneralPath();
        ((GeneralPath) shape).moveTo(102.043, 289.47);
        ((GeneralPath) shape).lineTo(102.2, 291.208);
        ((GeneralPath) shape).lineTo(104.028, 291.396);
        ((GeneralPath) shape).curveTo(126.768, 292.16, 153.466, 280.082, 175.142, 270.082);
        ((GeneralPath) shape).lineTo(180.959, 270.082);
        ((GeneralPath) shape).curveTo(167.762, 277.082, 155.345, 283.375, 147.401, 287.047);
        ((GeneralPath) shape).curveTo(143.285, 288.95, 140.309, 290.241, 138.741, 291.174);
        ((GeneralPath) shape).lineTo(137.08699, 292.11502);
        ((GeneralPath) shape).lineTo(137.956, 293.81003);
        ((GeneralPath) shape).curveTo(138.528, 294.94302, 152.39299, 321.68604, 188.43799, 335.20404);
        ((GeneralPath) shape).lineTo(189.25499, 335.50403);
        ((GeneralPath) shape).lineTo(190.105, 335.12802);
        ((GeneralPath) shape).curveTo(190.383, 334.99603, 191.0, 334.81104, 191.0, 334.661);
        ((GeneralPath) shape).lineTo(191.0, 401.082);
        ((GeneralPath) shape).lineTo(64.0, 401.082);
        ((GeneralPath) shape).lineTo(64.0, 270.082);
        ((GeneralPath) shape).lineTo(101.419, 270.082);
        ((GeneralPath) shape).curveTo(101.312996, 276.082, 101.484, 282.925, 102.043, 289.47);

        g.fill(shape);

        // _0_0_0_0_3
        shape = new GeneralPath();
        ((GeneralPath) shape).moveTo(322.057, 297.148);
        ((GeneralPath) shape).lineTo(323.41202, 295.30002);
        ((GeneralPath) shape).lineTo(321.30603, 294.255);
        ((GeneralPath) shape).curveTo(317.43903, 291.953, 300.48804, 280.082, 283.70703, 270.082);
        ((GeneralPath) shape).lineTo(288.11203, 270.082);
        ((GeneralPath) shape).curveTo(307.43002, 279.082, 330.83405, 289.006, 352.08405, 289.006);
        ((GeneralPath) shape).curveTo(352.88403, 289.006, 353.67703, 288.90903, 354.46906, 288.88303);
        ((GeneralPath) shape).lineTo(356.18607, 288.78302);
        ((GeneralPath) shape).lineTo(356.43808, 287.23102);
        ((GeneralPath) shape).curveTo(357.30508, 281.367, 357.86108, 274.08203, 358.18808, 270.08203);
        ((GeneralPath) shape).lineTo(415.0, 270.08203);
        ((GeneralPath) shape).lineTo(415.0, 401.08203);
        ((GeneralPath) shape).lineTo(280.0, 401.08203);
        ((GeneralPath) shape).lineTo(280.0, 331.42902);
        ((GeneralPath) shape).curveTo(304.0, 318.77902, 321.297, 298.091, 322.057, 297.148);

        g.fill(shape);

        // _0_0_0_0_4
        shape = new GeneralPath();
        ((GeneralPath) shape).moveTo(412.351, 336.451);
        ((GeneralPath) shape).curveTo(410.49802, 336.451, 409.12302, 334.947, 409.12302, 333.09198);
        ((GeneralPath) shape).curveTo(409.12302, 331.23798, 410.44302, 329.75497, 412.29602, 329.75497);
        ((GeneralPath) shape).curveTo(413.515, 329.75497, 415.00003, 330.40198, 415.00003, 331.36597);
        ((GeneralPath) shape).lineTo(415.00003, 334.82397);
        ((GeneralPath) shape).curveTo(415.00003, 335.79596, 413.57004, 336.451, 412.35104, 336.451);

        g.setPaint(new Color(0x231F20));
        g.fill(shape);

        // _0_0_0_0_5
        shape = new GeneralPath();
        ((GeneralPath) shape).moveTo(412.351, 363.21);
        ((GeneralPath) shape).curveTo(410.49802, 363.21, 409.12302, 361.729, 409.12302, 359.874);
        ((GeneralPath) shape).curveTo(409.12302, 358.02, 410.44302, 356.53598, 412.29602, 356.53598);
        ((GeneralPath) shape).curveTo(413.515, 356.53598, 415.00003, 357.184, 415.00003, 358.14597);
        ((GeneralPath) shape).lineTo(415.00003, 361.59998);
        ((GeneralPath) shape).curveTo(415.00003, 362.56396, 413.57004, 363.20996, 412.35104, 363.20996);

        g.fill(shape);

        // _0_0_0_0_6
        shape = new GeneralPath();
        ((GeneralPath) shape).moveTo(412.351, 349.841);
        ((GeneralPath) shape).curveTo(410.49802, 349.841, 409.12302, 348.337, 409.12302, 346.482);
        ((GeneralPath) shape).curveTo(409.12302, 344.629, 410.44302, 343.125, 412.29602, 343.125);
        ((GeneralPath) shape).curveTo(413.515, 343.125, 415.00003, 343.779, 415.00003, 344.75);
        ((GeneralPath) shape).lineTo(415.00003, 348.215);
        ((GeneralPath) shape).curveTo(415.00003, 349.186, 413.57004, 349.841, 412.35104, 349.841);

        g.fill(shape);

        // _0_0_0_0_7
        shape = new GeneralPath();
        ((GeneralPath) shape).moveTo(412.351, 390.013);
        ((GeneralPath) shape).curveTo(410.49802, 390.013, 409.12302, 388.509, 409.12302, 386.654);
        ((GeneralPath) shape).curveTo(409.12302, 384.801, 410.44302, 383.297, 412.29602, 383.297);
        ((GeneralPath) shape).curveTo(413.515, 383.297, 415.00003, 383.951, 415.00003, 384.922);
        ((GeneralPath) shape).lineTo(415.00003, 388.387);
        ((GeneralPath) shape).curveTo(415.00003, 389.358, 413.57004, 390.013, 412.35104, 390.013);

        g.fill(shape);

        // _0_0_0_0_8
        shape = new GeneralPath();
        ((GeneralPath) shape).moveTo(412.351, 376.622);
        ((GeneralPath) shape).curveTo(410.49802, 376.622, 409.12302, 375.11902, 409.12302, 373.264);
        ((GeneralPath) shape).curveTo(409.12302, 371.41, 410.44302, 369.927, 412.29602, 369.927);
        ((GeneralPath) shape).curveTo(413.515, 369.927, 415.00003, 370.574, 415.00003, 371.538);
        ((GeneralPath) shape).lineTo(415.00003, 374.996);
        ((GeneralPath) shape).curveTo(415.00003, 375.967, 413.57004, 376.622, 412.35104, 376.622);

        g.fill(shape);

        // _0_0_0_0_9
        shape = new GeneralPath();
        ((GeneralPath) shape).moveTo(412.351, 403.383);
        ((GeneralPath) shape).curveTo(410.49802, 403.383, 409.12302, 401.9, 409.12302, 400.04498);
        ((GeneralPath) shape).curveTo(409.12302, 398.19098, 410.44302, 396.70898, 412.29602, 396.70898);
        ((GeneralPath) shape).curveTo(413.515, 396.70898, 415.00003, 397.35498, 415.00003, 398.31897);
        ((GeneralPath) shape).lineTo(415.00003, 401.77197);
        ((GeneralPath) shape).curveTo(415.00003, 402.73697, 413.57004, 403.38297, 412.35104, 403.38297);

        g.fill(shape);

        // _0_0_0_0_10
        shape = new GeneralPath();
        ((GeneralPath) shape).moveTo(412.351, 323.039);
        ((GeneralPath) shape).curveTo(410.49802, 323.039, 409.12302, 321.556, 409.12302, 319.701);
        ((GeneralPath) shape).curveTo(409.12302, 317.847, 410.44302, 316.36398, 412.29602, 316.36398);
        ((GeneralPath) shape).curveTo(413.515, 316.36398, 415.00003, 317.011, 415.00003, 317.97498);
        ((GeneralPath) shape).lineTo(415.00003, 321.42798);
        ((GeneralPath) shape).curveTo(415.00003, 322.39297, 413.57004, 323.03897, 412.35104, 323.03897);

        g.fill(shape);

        // _0_0_0_0_11
        shape = new GeneralPath();
        ((GeneralPath) shape).moveTo(407.606, 339.787);
        ((GeneralPath) shape).curveTo(407.606, 341.78598, 405.0, 343.392, 404.0, 343.392);
        ((GeneralPath) shape).lineTo(404.0, 336.182);
        ((GeneralPath) shape).curveTo(405.0, 336.182, 407.606, 337.789, 407.606, 339.78702);

        g.fill(shape);

        // _0_0_0_0_12
        shape = new GeneralPath();
        ((GeneralPath) shape).moveTo(404.904, 403.65);
        ((GeneralPath) shape).lineTo(403.069, 403.65);
        ((GeneralPath) shape).lineTo(403.069, 403.13498);
        ((GeneralPath) shape).curveTo(403.744, 403.13498, 404.368, 403.331, 404.904, 403.65);

        g.fill(shape);

        // _0_0_0_0_13
        shape = new GeneralPath();
        ((GeneralPath) shape).moveTo(407.606, 393.35);
        ((GeneralPath) shape).curveTo(407.606, 395.349, 405.0, 396.95502, 404.0, 396.95502);
        ((GeneralPath) shape).lineTo(404.0, 389.74503);
        ((GeneralPath) shape).curveTo(405.0, 389.74503, 407.606, 391.35202, 407.606, 393.35004);

        g.fill(shape);

        // _0_0_0_0_14
        shape = new GeneralPath();
        ((GeneralPath) shape).moveTo(407.606, 326.396);
        ((GeneralPath) shape).curveTo(407.606, 328.395, 405.0, 330.001, 404.0, 330.001);
        ((GeneralPath) shape).lineTo(404.0, 322.79102);
        ((GeneralPath) shape).curveTo(405.0, 322.79102, 407.606, 324.398, 407.606, 326.39603);

        g.fill(shape);

        // _0_0_0_0_15
        shape = new GeneralPath();
        ((GeneralPath) shape).moveTo(407.606, 379.959);
        ((GeneralPath) shape).curveTo(407.606, 381.958, 405.0, 383.56403, 404.0, 383.56403);
        ((GeneralPath) shape).lineTo(404.0, 376.35403);
        ((GeneralPath) shape).curveTo(405.0, 376.35403, 407.606, 377.96103, 407.606, 379.95905);

        g.fill(shape);

        // _0_0_0_0_16
        shape = new GeneralPath();
        ((GeneralPath) shape).moveTo(407.606, 366.568);
        ((GeneralPath) shape).curveTo(407.606, 368.567, 405.0, 370.173, 404.0, 370.173);
        ((GeneralPath) shape).lineTo(404.0, 362.963);
        ((GeneralPath) shape).curveTo(405.0, 362.963, 407.606, 364.57, 407.606, 366.56802);

        g.fill(shape);

        // _0_0_0_0_17
        shape = new GeneralPath();
        ((GeneralPath) shape).moveTo(407.606, 353.178);
        ((GeneralPath) shape).curveTo(407.606, 355.177, 405.0, 356.78302, 404.0, 356.78302);
        ((GeneralPath) shape).lineTo(404.0, 349.57303);
        ((GeneralPath) shape).curveTo(405.0, 349.57303, 407.606, 351.18002, 407.606, 353.17804);

        g.fill(shape);

        // _0_0_0_0_18
        shape = new GeneralPath();
        ((GeneralPath) shape).moveTo(406.676, 313.082);
        ((GeneralPath) shape).curveTo(406.676, 315.082, 405.0, 316.61002, 404.0, 316.61002);
        ((GeneralPath) shape).lineTo(404.0, 313.082);
        ((GeneralPath) shape).closePath();

        g.fill(shape);

        // _0_0_0_0_19
        shape = new GeneralPath();
        ((GeneralPath) shape).moveTo(412.351, 229.324);
        ((GeneralPath) shape).curveTo(410.49802, 229.324, 409.12302, 227.82, 409.12302, 225.966);
        ((GeneralPath) shape).curveTo(409.12302, 224.112, 410.44302, 222.608, 412.29602, 222.608);
        ((GeneralPath) shape).curveTo(413.515, 222.608, 415.00003, 223.264, 415.00003, 224.233);
        ((GeneralPath) shape).lineTo(415.00003, 227.698);
        ((GeneralPath) shape).curveTo(415.00003, 228.66899, 413.57004, 229.324, 412.35104, 229.324);

        g.fill(shape);

        // _0_0_0_0_20
        shape = new GeneralPath();
        ((GeneralPath) shape).moveTo(412.351, 256.085);
        ((GeneralPath) shape).curveTo(410.49802, 256.085, 409.12302, 254.60199, 409.12302, 252.74799);
        ((GeneralPath) shape).curveTo(409.12302, 250.89398, 410.44302, 249.41098, 412.29602, 249.41098);
        ((GeneralPath) shape).curveTo(413.515, 249.41098, 415.00003, 250.05798, 415.00003, 251.02098);
        ((GeneralPath) shape).lineTo(415.00003, 254.47298);
        ((GeneralPath) shape).curveTo(415.00003, 255.43898, 413.57004, 256.085, 412.35104, 256.085);

        g.fill(shape);

        // _0_0_0_0_21
        shape = new GeneralPath();
        ((GeneralPath) shape).moveTo(412.351, 282.866);
        ((GeneralPath) shape).curveTo(410.49802, 282.866, 409.12302, 281.383, 409.12302, 279.529);
        ((GeneralPath) shape).curveTo(409.12302, 277.675, 410.44302, 276.171, 412.29602, 276.171);
        ((GeneralPath) shape).curveTo(413.515, 276.171, 415.00003, 276.826, 415.00003, 277.796);
        ((GeneralPath) shape).lineTo(415.00003, 281.255);
        ((GeneralPath) shape).curveTo(415.00003, 282.22, 413.57004, 282.866, 412.35104, 282.866);

        g.fill(shape);

        // _0_0_0_0_22
        shape = new GeneralPath();
        ((GeneralPath) shape).moveTo(412.351, 242.694);
        ((GeneralPath) shape).curveTo(410.49802, 242.694, 409.12302, 241.211, 409.12302, 239.356);
        ((GeneralPath) shape).curveTo(409.12302, 237.503, 410.44302, 236.0, 412.29602, 236.0);
        ((GeneralPath) shape).curveTo(413.515, 236.0, 415.00003, 236.653, 415.00003, 237.625);
        ((GeneralPath) shape).lineTo(415.00003, 241.083);
        ((GeneralPath) shape).curveTo(415.00003, 242.04799, 413.57004, 242.69398, 412.35104, 242.69398);

        g.fill(shape);

        // _0_0_0_0_23
        shape = new GeneralPath();
        ((GeneralPath) shape).moveTo(412.351, 269.497);
        ((GeneralPath) shape).curveTo(410.49802, 269.497, 409.12302, 267.993, 409.12302, 266.138);
        ((GeneralPath) shape).curveTo(409.12302, 264.285, 410.44302, 262.781, 412.29602, 262.781);
        ((GeneralPath) shape).curveTo(413.515, 262.781, 415.00003, 263.435, 415.00003, 264.406);
        ((GeneralPath) shape).lineTo(415.00003, 267.871);
        ((GeneralPath) shape).curveTo(415.00003, 268.842, 413.57004, 269.497, 412.35104, 269.497);

        g.fill(shape);

        // _0_0_0_0_24
        shape = new GeneralPath();
        ((GeneralPath) shape).moveTo(412.351, 309.669);
        ((GeneralPath) shape).curveTo(410.49802, 309.669, 409.12302, 308.165, 409.12302, 306.31);
        ((GeneralPath) shape).curveTo(409.12302, 304.457, 410.44302, 302.953, 412.29602, 302.953);
        ((GeneralPath) shape).curveTo(413.515, 302.953, 415.00003, 303.607, 415.00003, 304.578);
        ((GeneralPath) shape).lineTo(415.00003, 308.043);
        ((GeneralPath) shape).curveTo(415.00003, 309.014, 413.57004, 309.669, 412.35104, 309.669);

        g.fill(shape);

        // _0_0_0_0_25
        shape = new GeneralPath();
        ((GeneralPath) shape).moveTo(412.351, 296.278);
        ((GeneralPath) shape).curveTo(410.49802, 296.278, 409.12302, 294.77402, 409.12302, 292.919);
        ((GeneralPath) shape).curveTo(409.12302, 291.065, 410.44302, 289.582, 412.29602, 289.582);
        ((GeneralPath) shape).curveTo(413.515, 289.582, 415.00003, 290.229, 415.00003, 291.193);
        ((GeneralPath) shape).lineTo(415.00003, 294.651);
        ((GeneralPath) shape).curveTo(415.00003, 295.623, 413.57004, 296.278, 412.35104, 296.278);

        g.fill(shape);

        // _0_0_0_0_26
        shape = new GeneralPath();
        ((GeneralPath) shape).moveTo(412.351, 189.152);
        ((GeneralPath) shape).curveTo(410.49802, 189.152, 409.12302, 187.64899, 409.12302, 185.79399);
        ((GeneralPath) shape).curveTo(409.12302, 183.93999, 410.44302, 182.437, 412.29602, 182.437);
        ((GeneralPath) shape).curveTo(413.515, 182.437, 415.00003, 183.09, 415.00003, 184.062);
        ((GeneralPath) shape).lineTo(415.00003, 187.526);
        ((GeneralPath) shape).curveTo(415.00003, 188.497, 413.57004, 189.15201, 412.35104, 189.15201);

        g.fill(shape);

        // _0_0_0_0_27
        shape = new GeneralPath();
        ((GeneralPath) shape).moveTo(412.351, 202.522);
        ((GeneralPath) shape).curveTo(410.49802, 202.522, 409.12302, 201.039, 409.12302, 199.184);
        ((GeneralPath) shape).curveTo(409.12302, 197.33, 410.44302, 195.82701, 412.29602, 195.82701);
        ((GeneralPath) shape).curveTo(413.515, 195.82701, 415.00003, 196.48102, 415.00003, 197.45201);
        ((GeneralPath) shape).lineTo(415.00003, 200.91101);
        ((GeneralPath) shape).curveTo(415.00003, 201.876, 413.57004, 202.522, 412.35104, 202.522);

        g.fill(shape);

        // _0_0_0_0_28
        shape = new GeneralPath();
        ((GeneralPath) shape).moveTo(412.351, 215.913);
        ((GeneralPath) shape).curveTo(410.49802, 215.913, 409.12302, 214.43, 409.12302, 212.575);
        ((GeneralPath) shape).curveTo(409.12302, 210.721, 410.44302, 209.23799, 412.29602, 209.23799);
        ((GeneralPath) shape).curveTo(413.515, 209.23799, 415.00003, 209.885, 415.00003, 210.84898);
        ((GeneralPath) shape).lineTo(415.00003, 214.30199);
        ((GeneralPath) shape).curveTo(415.00003, 215.26799, 413.57004, 215.91298, 412.35104, 215.91298);

        g.fill(shape);

        // _0_0_0_0_29
        shape = new GeneralPath();
        ((GeneralPath) shape).moveTo(404.0, 263.048);
        ((GeneralPath) shape).lineTo(404.0, 255.838);
        ((GeneralPath) shape).curveTo(405.0, 255.838, 407.606, 257.445, 407.606, 259.443);
        ((GeneralPath) shape).curveTo(407.606, 261.442, 405.0, 263.048, 404.0, 263.048);

        g.fill(shape);

        // _0_0_0_0_30
        shape = new GeneralPath();
        ((GeneralPath) shape).moveTo(404.0, 276.438);
        ((GeneralPath) shape).lineTo(404.0, 269.22897);
        ((GeneralPath) shape).curveTo(405.0, 269.22897, 407.606, 270.85498, 407.606, 272.83298);
        ((GeneralPath) shape).curveTo(407.606, 274.83298, 405.0, 276.438, 404.0, 276.438);

        g.fill(shape);

        // _0_0_0_0_31
        shape = new GeneralPath();
        ((GeneralPath) shape).moveTo(404.0, 303.22);
        ((GeneralPath) shape).lineTo(404.0, 296.01);
        ((GeneralPath) shape).curveTo(405.0, 296.01, 407.606, 297.617, 407.606, 299.61502);
        ((GeneralPath) shape).curveTo(407.606, 301.614, 405.0, 303.22003, 404.0, 303.22003);

        g.fill(shape);

        // _0_0_0_0_32
        shape = new GeneralPath();
        ((GeneralPath) shape).moveTo(404.0, 289.829);
        ((GeneralPath) shape).lineTo(404.0, 282.61902);
        ((GeneralPath) shape).curveTo(405.0, 282.61902, 407.606, 284.226, 407.606, 286.22403);
        ((GeneralPath) shape).curveTo(407.606, 288.22302, 405.0, 289.82904, 404.0, 289.82904);

        g.fill(shape);

        // _0_0_0_0_33
        shape = new GeneralPath();
        ((GeneralPath) shape).moveTo(404.0, 236.266);
        ((GeneralPath) shape).lineTo(404.0, 229.056);
        ((GeneralPath) shape).curveTo(405.0, 229.056, 407.606, 230.663, 407.606, 232.661);
        ((GeneralPath) shape).curveTo(407.606, 234.65999, 405.0, 236.26599, 404.0, 236.26599);

        g.fill(shape);

        // _0_0_0_0_34
        shape = new GeneralPath();
        ((GeneralPath) shape).moveTo(404.0, 209.485);
        ((GeneralPath) shape).lineTo(404.0, 202.274);
        ((GeneralPath) shape).curveTo(405.0, 202.274, 407.606, 203.882, 407.606, 205.88);
        ((GeneralPath) shape).curveTo(407.606, 207.879, 405.0, 209.485, 404.0, 209.485);

        g.fill(shape);

        // _0_0_0_0_35
        shape = new GeneralPath();
        ((GeneralPath) shape).moveTo(404.0, 249.657);
        ((GeneralPath) shape).lineTo(404.0, 242.44699);
        ((GeneralPath) shape).curveTo(405.0, 242.44699, 407.606, 244.05399, 407.606, 246.05199);
        ((GeneralPath) shape).curveTo(407.606, 248.05098, 405.0, 249.65698, 404.0, 249.65698);

        g.fill(shape);

        // _0_0_0_0_36
        shape = new GeneralPath();
        ((GeneralPath) shape).moveTo(404.0, 222.876);
        ((GeneralPath) shape).lineTo(404.0, 215.666);
        ((GeneralPath) shape).curveTo(405.0, 215.666, 407.606, 217.273, 407.606, 219.271);
        ((GeneralPath) shape).curveTo(407.606, 221.26999, 405.0, 222.87599, 404.0, 222.87599);

        g.fill(shape);

        // _0_0_0_0_37
        shape = new GeneralPath();
        ((GeneralPath) shape).moveTo(404.0, 196.094);
        ((GeneralPath) shape).lineTo(404.0, 188.88399);
        ((GeneralPath) shape).curveTo(405.0, 188.88399, 407.606, 190.49098, 407.606, 192.48898);
        ((GeneralPath) shape).curveTo(407.606, 194.48798, 405.0, 196.09398, 404.0, 196.09398);

        g.fill(shape);

        // _0_0_0_0_38
        shape = new GeneralPath();
        ((GeneralPath) shape).moveTo(404.0, 182.703);
        ((GeneralPath) shape).lineTo(404.0, 178.082);
        ((GeneralPath) shape).lineTo(406.676, 178.082);
        ((GeneralPath) shape).curveTo(406.676, 180.082, 405.0, 182.703, 404.0, 182.703);

        g.fill(shape);

        // _0_0_0_0_39
        shape = new GeneralPath();
        ((GeneralPath) shape).moveTo(404.0, 309.4);
        ((GeneralPath) shape).curveTo(405.0, 309.4, 406.676, 310.082, 406.676, 313.082);
        ((GeneralPath) shape).lineTo(404.0, 313.082);
        ((GeneralPath) shape).closePath();

        g.fill(shape);

        // _0_0_0_0_40
        shape = new GeneralPath();
        ((GeneralPath) shape).moveTo(412.351, 82.025);
        ((GeneralPath) shape).curveTo(410.49802, 82.025, 409.12302, 80.523, 409.12302, 78.668);
        ((GeneralPath) shape).curveTo(409.12302, 76.815, 410.44302, 75.33, 412.29602, 75.33);
        ((GeneralPath) shape).curveTo(413.515, 75.33, 415.00003, 75.979004, 415.00003, 76.942);
        ((GeneralPath) shape).lineTo(415.00003, 80.399);
        ((GeneralPath) shape).curveTo(415.00003, 81.372, 413.57004, 82.025, 412.35104, 82.025);

        g.fill(shape);

        // _0_0_0_0_41
        shape = new GeneralPath();
        ((GeneralPath) shape).moveTo(412.351, 108.808);
        ((GeneralPath) shape).curveTo(410.49802, 108.808, 409.12302, 107.304, 409.12302, 105.449);
        ((GeneralPath) shape).curveTo(409.12302, 103.597, 410.44302, 102.112, 412.29602, 102.112);
        ((GeneralPath) shape).curveTo(413.515, 102.112, 415.00003, 102.759, 415.00003, 103.724);
        ((GeneralPath) shape).lineTo(415.00003, 107.182);
        ((GeneralPath) shape).curveTo(415.00003, 108.153, 413.57004, 108.808, 412.35104, 108.808);

        g.fill(shape);

        // _0_0_0_0_42
        shape = new GeneralPath();
        ((GeneralPath) shape).moveTo(412.351, 162.35);
        ((GeneralPath) shape).curveTo(410.49802, 162.35, 409.12302, 160.867, 409.12302, 159.013);
        ((GeneralPath) shape).curveTo(409.12302, 157.158, 410.44302, 155.676, 412.29602, 155.676);
        ((GeneralPath) shape).curveTo(413.515, 155.676, 415.00003, 156.32199, 415.00003, 157.286);
        ((GeneralPath) shape).lineTo(415.00003, 160.73799);
        ((GeneralPath) shape).curveTo(415.00003, 161.70299, 413.57004, 162.34999, 412.35104, 162.34999);

        g.fill(shape);

        // _0_0_0_0_43
        shape = new GeneralPath();
        ((GeneralPath) shape).moveTo(412.351, 95.416);
        ((GeneralPath) shape).curveTo(410.49802, 95.416, 409.12302, 93.914, 409.12302, 92.059);
        ((GeneralPath) shape).curveTo(409.12302, 90.205, 410.44302, 88.722, 412.29602, 88.722);
        ((GeneralPath) shape).curveTo(413.515, 88.722, 415.00003, 89.369, 415.00003, 90.332);
        ((GeneralPath) shape).lineTo(415.00003, 93.791);
        ((GeneralPath) shape).curveTo(415.00003, 94.763, 413.57004, 95.416, 412.35104, 95.416);

        g.fill(shape);

        // _0_0_0_0_44
        shape = new GeneralPath();
        ((GeneralPath) shape).moveTo(412.351, 68.636);
        ((GeneralPath) shape).curveTo(410.49802, 68.636, 409.12302, 67.132, 409.12302, 65.277);
        ((GeneralPath) shape).curveTo(409.12302, 63.425, 410.44302, 61.939, 412.29602, 61.939);
        ((GeneralPath) shape).curveTo(413.515, 61.939, 415.00003, 62.586998, 415.00003, 63.552);
        ((GeneralPath) shape).lineTo(415.00003, 67.009995);
        ((GeneralPath) shape).curveTo(415.00003, 67.979996, 413.57004, 68.635994, 412.35104, 68.635994);

        g.fill(shape);

        // _0_0_0_0_45
        shape = new GeneralPath();
        ((GeneralPath) shape).moveTo(412.351, 148.959);
        ((GeneralPath) shape).curveTo(410.49802, 148.959, 409.12302, 147.477, 409.12302, 145.621);
        ((GeneralPath) shape).curveTo(409.12302, 143.769, 410.44302, 142.264, 412.29602, 142.264);
        ((GeneralPath) shape).curveTo(413.515, 142.264, 415.00003, 142.919, 415.00003, 143.89001);
        ((GeneralPath) shape).lineTo(415.00003, 147.348);
        ((GeneralPath) shape).curveTo(415.00003, 148.313, 413.57004, 148.959, 412.35104, 148.959);

        g.fill(shape);

        // _0_0_0_0_46
        shape = new GeneralPath();
        ((GeneralPath) shape).moveTo(412.351, 175.762);
        ((GeneralPath) shape).curveTo(410.49802, 175.762, 409.12302, 174.258, 409.12302, 172.403);
        ((GeneralPath) shape).curveTo(409.12302, 170.549, 410.44302, 169.046, 412.29602, 169.046);
        ((GeneralPath) shape).curveTo(413.515, 169.046, 415.00003, 169.699, 415.00003, 170.671);
        ((GeneralPath) shape).lineTo(415.00003, 174.136);
        ((GeneralPath) shape).curveTo(415.00003, 175.107, 413.57004, 175.76201, 412.35104, 175.76201);

        g.fill(shape);

        // _0_0_0_0_47
        shape = new GeneralPath();
        ((GeneralPath) shape).moveTo(412.351, 135.588);
        ((GeneralPath) shape).curveTo(410.49802, 135.588, 409.12302, 134.086, 409.12302, 132.23);
        ((GeneralPath) shape).curveTo(409.12302, 130.37799, 410.44302, 128.894, 412.29602, 128.894);
        ((GeneralPath) shape).curveTo(413.515, 128.894, 415.00003, 129.541, 415.00003, 130.50499);
        ((GeneralPath) shape).lineTo(415.00003, 133.96298);
        ((GeneralPath) shape).curveTo(415.00003, 134.93498, 413.57004, 135.58798, 412.35104, 135.58798);

        g.fill(shape);

        // _0_0_0_0_48
        shape = new GeneralPath();
        ((GeneralPath) shape).moveTo(412.351, 122.198);
        ((GeneralPath) shape).curveTo(410.49802, 122.198, 409.12302, 120.695, 409.12302, 118.840996);
        ((GeneralPath) shape).curveTo(409.12302, 116.987, 410.44302, 115.502, 412.29602, 115.502);
        ((GeneralPath) shape).curveTo(413.515, 115.502, 415.00003, 116.15, 415.00003, 117.114);
        ((GeneralPath) shape).lineTo(415.00003, 120.572);
        ((GeneralPath) shape).curveTo(415.00003, 121.545, 413.57004, 122.198, 412.35104, 122.198);

        g.fill(shape);

        // _0_0_0_0_49
        shape = new GeneralPath();
        ((GeneralPath) shape).moveTo(404.0, 62.188);
        ((GeneralPath) shape).lineTo(404.0, 57.082);
        ((GeneralPath) shape).lineTo(406.506, 57.082);
        ((GeneralPath) shape).curveTo(406.60602, 57.082, 407.142, 57.986, 407.142, 58.347);
        ((GeneralPath) shape).curveTo(407.142, 60.345, 405.0, 62.188, 404.0, 62.188);

        g.fill(shape);

        // _0_0_0_0_50
        shape = new GeneralPath();
        ((GeneralPath) shape).moveTo(404.0, 115.75);
        ((GeneralPath) shape).lineTo(404.0, 108.54);
        ((GeneralPath) shape).curveTo(405.0, 108.54, 407.606, 110.167, 407.606, 112.145004);
        ((GeneralPath) shape).curveTo(407.606, 114.143005, 405.0, 115.75001, 404.0, 115.75001);

        g.fill(shape);

        // _0_0_0_0_51
        shape = new GeneralPath();
        ((GeneralPath) shape).moveTo(404.0, 155.922);
        ((GeneralPath) shape).lineTo(404.0, 148.71199);
        ((GeneralPath) shape).curveTo(405.0, 148.71199, 407.606, 150.31898, 407.606, 152.318);
        ((GeneralPath) shape).curveTo(407.606, 154.31499, 405.0, 155.922, 404.0, 155.922);

        g.fill(shape);

        // _0_0_0_0_52
        shape = new GeneralPath();
        ((GeneralPath) shape).moveTo(404.0, 102.359);
        ((GeneralPath) shape).lineTo(404.0, 95.148);
        ((GeneralPath) shape).curveTo(405.0, 95.148, 407.606, 96.776, 407.606, 98.756004);
        ((GeneralPath) shape).curveTo(407.606, 100.75201, 405.0, 102.359, 404.0, 102.359);

        g.fill(shape);

        // _0_0_0_0_53
        shape = new GeneralPath();
        ((GeneralPath) shape).moveTo(404.0, 75.577);
        ((GeneralPath) shape).lineTo(404.0, 68.367004);
        ((GeneralPath) shape).curveTo(405.0, 68.367004, 407.606, 69.995, 407.606, 71.97301);
        ((GeneralPath) shape).curveTo(407.606, 73.97101, 405.0, 75.57701, 404.0, 75.57701);

        g.fill(shape);

        // _0_0_0_0_54
        shape = new GeneralPath();
        ((GeneralPath) shape).moveTo(404.0, 142.531);
        ((GeneralPath) shape).lineTo(404.0, 135.32);
        ((GeneralPath) shape).curveTo(405.0, 135.32, 407.606, 136.927, 407.606, 138.927);
        ((GeneralPath) shape).curveTo(407.606, 140.925, 405.0, 142.531, 404.0, 142.531);

        g.fill(shape);

        // _0_0_0_0_55
        shape = new GeneralPath();
        ((GeneralPath) shape).moveTo(404.0, 169.313);
        ((GeneralPath) shape).lineTo(404.0, 162.103);
        ((GeneralPath) shape).curveTo(405.0, 162.103, 407.606, 163.70999, 407.606, 165.707);
        ((GeneralPath) shape).curveTo(407.606, 167.707, 405.0, 169.313, 404.0, 169.313);

        g.fill(shape);

        // _0_0_0_0_56
        shape = new GeneralPath();
        ((GeneralPath) shape).moveTo(404.0, 129.142);
        ((GeneralPath) shape).lineTo(404.0, 121.931);
        ((GeneralPath) shape).curveTo(405.0, 121.931, 407.606, 123.558, 407.606, 125.535);
        ((GeneralPath) shape).curveTo(407.606, 127.534004, 405.0, 129.142, 404.0, 129.142);

        g.fill(shape);

        // _0_0_0_0_57
        shape = new GeneralPath();
        ((GeneralPath) shape).moveTo(404.0, 88.969);
        ((GeneralPath) shape).lineTo(404.0, 81.758);
        ((GeneralPath) shape).curveTo(405.0, 81.758, 407.606, 83.386, 407.606, 85.364006);
        ((GeneralPath) shape).curveTo(407.606, 87.36101, 405.0, 88.96901, 404.0, 88.96901);

        g.fill(shape);

        // _0_0_0_0_58
        shape = new GeneralPath();
        ((GeneralPath) shape).moveTo(404.0, 175.494);
        ((GeneralPath) shape).curveTo(405.0, 175.494, 406.676, 177.082, 406.676, 178.082);
        ((GeneralPath) shape).lineTo(404.0, 178.082);
        ((GeneralPath) shape).closePath();

        g.fill(shape);

        // _0_0_0_0_59
        shape = new GeneralPath();
        ((GeneralPath) shape).moveTo(279.587, 322.008);
        ((GeneralPath) shape).curveTo(278.288, 322.008, 277.258, 320.979, 277.258, 319.69998);
        ((GeneralPath) shape).curveTo(277.258, 320.97897, 278.31, 322.008, 279.587, 322.008);

        g.fill(shape);

        // _0_0_0_0_60
        shape = new GeneralPath();
        ((GeneralPath) shape).moveTo(279.587, 317.374);
        ((GeneralPath) shape).curveTo(278.31, 317.374, 277.258, 318.42398, 277.258, 319.701);
        ((GeneralPath) shape).curveTo(277.258, 318.42398, 278.288, 317.374, 279.587, 317.374);

        g.fill(shape);

        // _0_0_0_0_61
        shape = new GeneralPath();
        ((GeneralPath) shape).moveTo(300.373, 319.701);
        ((GeneralPath) shape).curveTo(300.373, 320.69, 299.569, 321.51398, 298.58, 321.51398);
        ((GeneralPath) shape).curveTo(298.081, 321.51398, 297.62698, 321.304, 297.29797, 320.96896);
        ((GeneralPath) shape).curveTo(297.623, 321.29297, 298.076, 321.49295, 298.58, 321.49295);
        ((GeneralPath) shape).curveTo(299.569, 321.49295, 300.373, 320.68994, 300.373, 319.70096);

        g.fill(shape);

        // _0_0_0_0_62
        shape = new GeneralPath();
        ((GeneralPath) shape).moveTo(316.417, 319.17);
        ((GeneralPath) shape).curveTo(316.413, 319.181, 316.40198, 319.18802, 316.39798, 319.19803);
        ((GeneralPath) shape).curveTo(316.404, 319.18802, 316.413, 319.18103, 316.417, 319.17);

        g.fill(shape);

        // _0_0_0_0_63
        shape = new GeneralPath();
        ((GeneralPath) shape).moveTo(318.77, 319.199);
        ((GeneralPath) shape).curveTo(318.76498, 319.187, 318.753, 319.17902, 318.748, 319.167);
        ((GeneralPath) shape).curveTo(318.753, 319.179, 318.76498, 319.18698, 318.77, 319.199);

        g.fill(shape);

        // _0_0_0_0_64
        shape = new GeneralPath();
        ((GeneralPath) shape).moveTo(318.75, 320.232);
        ((GeneralPath) shape).curveTo(318.755, 320.221, 318.765, 320.214, 318.77, 320.203);
        ((GeneralPath) shape).curveTo(318.76498, 320.214, 318.75497, 320.221, 318.75, 320.232);

        g.fill(shape);

        // _0_0_0_0_65
        shape = new GeneralPath();
        ((GeneralPath) shape).moveTo(316.398, 320.204);
        ((GeneralPath) shape).curveTo(316.402, 320.212, 316.41, 320.21902, 316.415, 320.229);
        ((GeneralPath) shape).curveTo(316.41, 320.221, 316.402, 320.212, 316.398, 320.204);

        g.fill(shape);

        // _0_0_0_0_66
        shape = new GeneralPath();
        ((GeneralPath) shape).moveTo(374.578, 316.858);
        ((GeneralPath) shape).curveTo(376.12302, 316.858, 377.401, 318.13602, 377.401, 319.701);
        ((GeneralPath) shape).curveTo(377.401, 318.136, 376.123, 316.879, 374.578, 316.879);
        ((GeneralPath) shape).curveTo(373.013, 316.879, 371.736, 318.136, 371.736, 319.701);
        ((GeneralPath) shape).curveTo(371.736, 318.136, 373.013, 316.858, 374.578, 316.858);

        g.fill(shape);

        // _0_0_0_0_67
        shape = new GeneralPath();
        ((GeneralPath) shape).moveTo(241.577, 356.536);
        ((GeneralPath) shape).curveTo(243.43199, 356.536, 244.935, 358.019, 244.935, 359.87302);
        ((GeneralPath) shape).curveTo(244.935, 361.72803, 243.43199, 363.21002, 241.577, 363.21002);
        ((GeneralPath) shape).curveTo(239.724, 363.21002, 238.23999, 361.72803, 238.23999, 359.87302);
        ((GeneralPath) shape).curveTo(238.23999, 358.019, 239.72398, 356.536, 241.577, 356.536);

        g.fill(shape);

        // _0_0_0_0_68
        shape = new GeneralPath();
        ((GeneralPath) shape).moveTo(241.577, 343.146);
        ((GeneralPath) shape).curveTo(243.43199, 343.146, 244.935, 344.628, 244.935, 346.481);
        ((GeneralPath) shape).curveTo(244.935, 348.336, 243.43199, 349.819, 241.577, 349.819);
        ((GeneralPath) shape).curveTo(239.724, 349.819, 238.23999, 348.336, 238.23999, 346.481);
        ((GeneralPath) shape).curveTo(238.23999, 344.628, 239.72398, 343.146, 241.577, 343.146);

        g.fill(shape);

        // _0_0_0_0_69
        shape = new GeneralPath();
        ((GeneralPath) shape).moveTo(241.577, 329.734);
        ((GeneralPath) shape).curveTo(243.43199, 329.734, 244.935, 331.238, 244.935, 333.092);
        ((GeneralPath) shape).curveTo(244.935, 334.94702, 243.43199, 336.42902, 241.577, 336.42902);
        ((GeneralPath) shape).curveTo(239.724, 336.42902, 238.23999, 334.94702, 238.23999, 333.092);
        ((GeneralPath) shape).curveTo(238.23999, 331.238, 239.72398, 329.734, 241.577, 329.734);

        g.fill(shape);

        // _0_0_0_0_70
        shape = new GeneralPath();
        ((GeneralPath) shape).moveTo(241.577, 396.687);
        ((GeneralPath) shape).curveTo(243.43199, 396.687, 244.935, 398.191, 244.935, 400.045);
        ((GeneralPath) shape).curveTo(244.935, 401.90002, 243.43199, 403.40402, 241.577, 403.40402);
        ((GeneralPath) shape).curveTo(239.724, 403.40402, 238.23999, 401.90002, 238.23999, 400.045);
        ((GeneralPath) shape).curveTo(238.23999, 398.191, 239.72398, 396.687, 241.577, 396.687);

        g.fill(shape);

        // _0_0_0_0_71
        shape = new GeneralPath();
        ((GeneralPath) shape).moveTo(241.577, 383.297);
        ((GeneralPath) shape).curveTo(243.43199, 383.297, 244.935, 384.801, 244.935, 386.654);
        ((GeneralPath) shape).curveTo(244.935, 388.509, 243.43199, 390.013, 241.577, 390.013);
        ((GeneralPath) shape).curveTo(239.724, 390.013, 238.23999, 388.509, 238.23999, 386.654);
        ((GeneralPath) shape).curveTo(238.23999, 384.801, 239.72398, 383.297, 241.577, 383.297);

        g.fill(shape);

        // _0_0_0_0_72
        shape = new GeneralPath();
        ((GeneralPath) shape).moveTo(241.577, 369.927);
        ((GeneralPath) shape).curveTo(243.43199, 369.927, 244.935, 371.409, 244.935, 373.263);
        ((GeneralPath) shape).curveTo(244.935, 375.118, 243.43199, 376.622, 241.577, 376.622);
        ((GeneralPath) shape).curveTo(239.724, 376.622, 238.23999, 375.118, 238.23999, 373.263);
        ((GeneralPath) shape).curveTo(238.23999, 371.409, 239.72398, 369.927, 241.577, 369.927);

        g.fill(shape);

        // _0_0_0_0_73
        shape = new GeneralPath();
        ((GeneralPath) shape).moveTo(241.577, 316.343);
        ((GeneralPath) shape).curveTo(243.43199, 316.343, 244.935, 317.84598, 244.935, 319.69998);
        ((GeneralPath) shape).curveTo(244.935, 321.555, 243.43199, 323.059, 241.577, 323.059);
        ((GeneralPath) shape).curveTo(239.724, 323.059, 238.23999, 321.555, 238.23999, 319.69998);
        ((GeneralPath) shape).curveTo(238.23999, 317.84598, 239.72398, 316.343, 241.577, 316.343);

        g.fill(shape);

        // _0_0_0_0_74
        shape = new GeneralPath();
        ((GeneralPath) shape).moveTo(251.074, 363.478);
        ((GeneralPath) shape).curveTo(252.785, 363.478, 254.164, 364.859, 254.164, 366.568);
        ((GeneralPath) shape).curveTo(254.164, 368.27798, 252.785, 369.658, 251.074, 369.658);
        ((GeneralPath) shape).curveTo(249.363, 369.658, 247.98401, 368.27798, 247.98401, 366.568);
        ((GeneralPath) shape).curveTo(247.98401, 364.85898, 249.363, 363.478, 251.074, 363.478);

        g.fill(shape);

        // _0_0_0_0_75
        shape = new GeneralPath();
        ((GeneralPath) shape).moveTo(251.074, 376.869);
        ((GeneralPath) shape).curveTo(252.785, 376.869, 254.164, 378.25, 254.164, 379.95798);
        ((GeneralPath) shape).curveTo(254.164, 381.66898, 252.785, 383.05, 251.074, 383.05);
        ((GeneralPath) shape).curveTo(249.363, 383.05, 247.98401, 381.66898, 247.98401, 379.95798);
        ((GeneralPath) shape).curveTo(247.98401, 378.24997, 249.363, 376.869, 251.074, 376.869);

        g.fill(shape);

        // _0_0_0_0_76
        shape = new GeneralPath();
        ((GeneralPath) shape).moveTo(251.074, 350.087);
        ((GeneralPath) shape).curveTo(252.785, 350.087, 254.164, 351.46802, 254.164, 353.177);
        ((GeneralPath) shape).curveTo(254.164, 354.887, 252.785, 356.269, 251.074, 356.269);
        ((GeneralPath) shape).curveTo(249.363, 356.269, 247.98401, 354.88702, 247.98401, 353.177);
        ((GeneralPath) shape).curveTo(247.98401, 351.468, 249.363, 350.087, 251.074, 350.087);

        g.fill(shape);

        // _0_0_0_0_77
        shape = new GeneralPath();
        ((GeneralPath) shape).moveTo(251.074, 336.697);
        ((GeneralPath) shape).curveTo(252.785, 336.697, 254.164, 338.078, 254.164, 339.787);
        ((GeneralPath) shape).curveTo(254.164, 341.49698, 252.785, 342.87698, 251.074, 342.87698);
        ((GeneralPath) shape).curveTo(249.363, 342.87698, 247.98401, 341.49698, 247.98401, 339.787);
        ((GeneralPath) shape).curveTo(247.98401, 338.07797, 249.363, 336.697, 251.074, 336.697);

        g.fill(shape);

        // _0_0_0_0_78
        shape = new GeneralPath();
        ((GeneralPath) shape).moveTo(251.074, 323.306);
        ((GeneralPath) shape).curveTo(252.785, 323.306, 254.164, 324.688, 254.164, 326.396);
        ((GeneralPath) shape).curveTo(254.164, 328.105, 252.785, 329.487, 251.074, 329.487);
        ((GeneralPath) shape).curveTo(249.363, 329.487, 247.98401, 328.105, 247.98401, 326.396);
        ((GeneralPath) shape).curveTo(247.98401, 324.688, 249.363, 323.306, 251.074, 323.306);

        g.fill(shape);

        // _0_0_0_0_79
        shape = new GeneralPath();
        ((GeneralPath) shape).moveTo(251.074, 390.26);
        ((GeneralPath) shape).curveTo(252.785, 390.26, 254.164, 391.64102, 254.164, 393.35);
        ((GeneralPath) shape).curveTo(254.164, 395.06, 252.785, 396.44, 251.074, 396.44);
        ((GeneralPath) shape).curveTo(249.363, 396.44, 247.98401, 395.06, 247.98401, 393.35);
        ((GeneralPath) shape).curveTo(247.98401, 391.641, 249.363, 390.26, 251.074, 390.26);

        g.fill(shape);

        // _0_0_0_0_80
        shape = new GeneralPath();
        ((GeneralPath) shape).moveTo(251.074, 316.171);
        ((GeneralPath) shape).curveTo(249.363, 316.171, 247.98401, 314.08298, 247.98401, 313.08298);
        ((GeneralPath) shape).lineTo(254.164, 313.08298);
        ((GeneralPath) shape).curveTo(254.164, 314.08298, 252.785, 316.171, 251.074, 316.171);

        g.fill(shape);

        // _0_0_0_0_81
        shape = new GeneralPath();
        ((GeneralPath) shape).moveTo(260.57, 343.639);
        ((GeneralPath) shape).curveTo(262.138, 343.639, 263.415, 344.91702, 263.415, 346.482);
        ((GeneralPath) shape).curveTo(263.415, 348.048, 262.138, 349.305, 260.57, 349.305);
        ((GeneralPath) shape).curveTo(259.006, 349.305, 257.75, 348.048, 257.75, 346.482);
        ((GeneralPath) shape).curveTo(257.75, 344.917, 259.006, 343.639, 260.57, 343.639);

        g.fill(shape);

        // _0_0_0_0_82
        shape = new GeneralPath();
        ((GeneralPath) shape).moveTo(260.57, 330.27);
        ((GeneralPath) shape).curveTo(262.138, 330.27, 263.415, 331.526, 263.415, 333.09198);
        ((GeneralPath) shape).curveTo(263.415, 334.658, 262.138, 335.93497, 260.57, 335.93497);
        ((GeneralPath) shape).curveTo(259.006, 335.93497, 257.75, 334.65796, 257.75, 333.09198);
        ((GeneralPath) shape).curveTo(257.75, 331.52597, 259.006, 330.27, 260.57, 330.27);

        g.fill(shape);

        // _0_0_0_0_83
        shape = new GeneralPath();
        ((GeneralPath) shape).moveTo(260.57, 397.203);
        ((GeneralPath) shape).curveTo(262.138, 397.203, 263.415, 398.479, 263.415, 400.044);
        ((GeneralPath) shape).curveTo(263.415, 401.612, 262.138, 402.868, 260.57, 402.868);
        ((GeneralPath) shape).curveTo(259.006, 402.868, 257.75, 401.612, 257.75, 400.044);
        ((GeneralPath) shape).curveTo(257.75, 398.479, 259.006, 397.203, 260.57, 397.203);

        g.fill(shape);

        // _0_0_0_0_84
        shape = new GeneralPath();
        ((GeneralPath) shape).moveTo(260.57, 357.051);
        ((GeneralPath) shape).curveTo(262.138, 357.051, 263.415, 358.307, 263.415, 359.873);
        ((GeneralPath) shape).curveTo(263.415, 361.439, 262.138, 362.69498, 260.57, 362.69498);
        ((GeneralPath) shape).curveTo(259.006, 362.69498, 257.75, 361.43896, 257.75, 359.873);
        ((GeneralPath) shape).curveTo(257.75, 358.30698, 259.006, 357.051, 260.57, 357.051);

        g.fill(shape);

        // _0_0_0_0_85
        shape = new GeneralPath();
        ((GeneralPath) shape).moveTo(260.57, 383.812);
        ((GeneralPath) shape).curveTo(262.138, 383.812, 263.415, 385.088, 263.415, 386.65402);
        ((GeneralPath) shape).curveTo(263.415, 388.221, 262.138, 389.47803, 260.57, 389.47803);
        ((GeneralPath) shape).curveTo(259.006, 389.47803, 257.75, 388.22104, 257.75, 386.65402);
        ((GeneralPath) shape).curveTo(257.75, 385.088, 259.006, 383.812, 260.57, 383.812);

        g.fill(shape);

        // _0_0_0_0_86
        shape = new GeneralPath();
        ((GeneralPath) shape).moveTo(260.57, 370.442);
        ((GeneralPath) shape).curveTo(262.138, 370.442, 263.415, 371.698, 263.415, 373.26398);
        ((GeneralPath) shape).curveTo(263.415, 374.83096, 262.138, 376.10696, 260.57, 376.10696);
        ((GeneralPath) shape).curveTo(259.006, 376.10696, 257.75, 374.83096, 257.75, 373.26398);
        ((GeneralPath) shape).curveTo(257.75, 371.69797, 259.006, 370.442, 260.57, 370.442);

        g.fill(shape);

        // _0_0_0_0_87
        shape = new GeneralPath();
        ((GeneralPath) shape).moveTo(260.57, 316.879);
        ((GeneralPath) shape).curveTo(262.138, 316.879, 263.415, 318.135, 263.415, 319.7);
        ((GeneralPath) shape).curveTo(263.415, 321.267, 262.138, 322.523, 260.57, 322.523);
        ((GeneralPath) shape).curveTo(259.006, 322.523, 257.75, 321.267, 257.75, 319.7);
        ((GeneralPath) shape).curveTo(257.75, 318.135, 259.006, 316.879, 260.57, 316.879);

        g.fill(shape);

        // _0_0_0_0_88
        shape = new GeneralPath();
        ((GeneralPath) shape).moveTo(270.089, 337.212);
        ((GeneralPath) shape).curveTo(271.49, 337.212, 272.645, 338.36502, 272.645, 339.78702);
        ((GeneralPath) shape).curveTo(272.645, 341.209, 271.49, 342.36203, 270.089, 342.36203);
        ((GeneralPath) shape).curveTo(268.647, 342.36203, 267.494, 341.209, 267.494, 339.78702);
        ((GeneralPath) shape).curveTo(267.494, 338.36502, 268.647, 337.212, 270.089, 337.212);

        g.fill(shape);

        // _0_0_0_0_89
        shape = new GeneralPath();
        ((GeneralPath) shape).moveTo(270.089, 323.821);
        ((GeneralPath) shape).curveTo(271.49, 323.821, 272.645, 324.975, 272.645, 326.39603);
        ((GeneralPath) shape).curveTo(272.645, 327.81702, 271.49, 328.97104, 270.089, 328.97104);
        ((GeneralPath) shape).curveTo(268.647, 328.97104, 267.494, 327.81705, 267.494, 326.39603);
        ((GeneralPath) shape).curveTo(267.494, 324.97504, 268.647, 323.821, 270.089, 323.821);

        g.fill(shape);

        // _0_0_0_0_90
        shape = new GeneralPath();
        ((GeneralPath) shape).moveTo(270.089, 350.603);
        ((GeneralPath) shape).curveTo(271.49, 350.603, 272.645, 351.756, 272.645, 353.178);
        ((GeneralPath) shape).curveTo(272.645, 354.6, 271.49, 355.752, 270.089, 355.752);
        ((GeneralPath) shape).curveTo(268.647, 355.752, 267.494, 354.6, 267.494, 353.178);
        ((GeneralPath) shape).curveTo(267.494, 351.756, 268.647, 350.603, 270.089, 350.603);

        g.fill(shape);

        // _0_0_0_0_91
        shape = new GeneralPath();
        ((GeneralPath) shape).moveTo(270.089, 363.993);
        ((GeneralPath) shape).curveTo(271.49, 363.993, 272.645, 365.147, 272.645, 366.56802);
        ((GeneralPath) shape).curveTo(272.645, 367.99002, 271.49, 369.14304, 270.089, 369.14304);
        ((GeneralPath) shape).curveTo(268.647, 369.14304, 267.494, 367.99002, 267.494, 366.56802);
        ((GeneralPath) shape).curveTo(267.494, 365.14703, 268.647, 363.993, 270.089, 363.993);

        g.fill(shape);

        // _0_0_0_0_92
        shape = new GeneralPath();
        ((GeneralPath) shape).moveTo(270.089, 390.774);
        ((GeneralPath) shape).curveTo(271.49, 390.774, 272.645, 391.92798, 272.645, 393.35098);
        ((GeneralPath) shape).curveTo(272.645, 394.771, 271.49, 395.92398, 270.089, 395.92398);
        ((GeneralPath) shape).curveTo(268.647, 395.92398, 267.494, 394.77097, 267.494, 393.35098);
        ((GeneralPath) shape).curveTo(267.494, 391.92798, 268.647, 390.774, 270.089, 390.774);

        g.fill(shape);

        // _0_0_0_0_93
        shape = new GeneralPath();
        ((GeneralPath) shape).moveTo(270.089, 377.384);
        ((GeneralPath) shape).curveTo(271.49, 377.384, 272.645, 378.53702, 272.645, 379.959);
        ((GeneralPath) shape).curveTo(272.645, 381.381, 271.49, 382.53403, 270.089, 382.53403);
        ((GeneralPath) shape).curveTo(268.647, 382.53403, 267.494, 381.381, 267.494, 379.959);
        ((GeneralPath) shape).curveTo(267.494, 378.53702, 268.647, 377.384, 270.089, 377.384);

        g.fill(shape);

        // _0_0_0_0_94
        shape = new GeneralPath();
        ((GeneralPath) shape).moveTo(272.645, 313.082);
        ((GeneralPath) shape).curveTo(272.645, 314.082, 271.49, 315.657, 270.089, 315.657);
        ((GeneralPath) shape).curveTo(268.647, 315.657, 267.49298, 314.082, 267.49298, 313.082);
        ((GeneralPath) shape).closePath();

        g.fill(shape);

        // _0_0_0_0_95
        shape = new GeneralPath();
        ((GeneralPath) shape).moveTo(279.587, 357.566);
        ((GeneralPath) shape).curveTo(280.864, 357.566, 281.893, 358.596, 281.893, 359.87402);
        ((GeneralPath) shape).curveTo(281.893, 361.15002, 280.864, 362.20102, 279.587, 362.20102);
        ((GeneralPath) shape).curveTo(278.31, 362.20102, 277.258, 361.15002, 277.258, 359.87402);
        ((GeneralPath) shape).curveTo(277.258, 358.596, 278.31, 357.566, 279.587, 357.566);

        g.fill(shape);

        // _0_0_0_0_96
        shape = new GeneralPath();
        ((GeneralPath) shape).moveTo(279.587, 370.957);
        ((GeneralPath) shape).curveTo(280.864, 370.957, 281.893, 371.987, 281.893, 373.264);
        ((GeneralPath) shape).curveTo(281.893, 374.54102, 280.864, 375.592, 279.587, 375.592);
        ((GeneralPath) shape).curveTo(278.31, 375.592, 277.258, 374.54102, 277.258, 373.264);
        ((GeneralPath) shape).curveTo(277.258, 371.987, 278.31, 370.957, 279.587, 370.957);

        g.fill(shape);

        // _0_0_0_0_97
        shape = new GeneralPath();
        ((GeneralPath) shape).moveTo(279.587, 384.348);
        ((GeneralPath) shape).curveTo(280.864, 384.348, 281.893, 385.378, 281.893, 386.654);
        ((GeneralPath) shape).curveTo(281.893, 387.931, 280.864, 388.983, 279.587, 388.983);
        ((GeneralPath) shape).curveTo(278.31, 388.983, 277.258, 387.931, 277.258, 386.654);
        ((GeneralPath) shape).curveTo(277.258, 385.378, 278.31, 384.348, 279.587, 384.348);

        g.fill(shape);

        // _0_0_0_0_98
        shape = new GeneralPath();
        ((GeneralPath) shape).moveTo(279.587, 344.155);
        ((GeneralPath) shape).curveTo(280.864, 344.155, 281.893, 345.206, 281.893, 346.482);
        ((GeneralPath) shape).curveTo(281.893, 347.76, 280.864, 348.79, 279.587, 348.79);
        ((GeneralPath) shape).curveTo(278.31, 348.79, 277.258, 347.76, 277.258, 346.482);
        ((GeneralPath) shape).curveTo(277.258, 345.206, 278.31, 344.155, 279.587, 344.155);

        g.fill(shape);

        // _0_0_0_0_99
        shape = new GeneralPath();
        ((GeneralPath) shape).moveTo(279.587, 330.764);
        ((GeneralPath) shape).curveTo(280.864, 330.764, 281.893, 331.814, 281.893, 333.092);
        ((GeneralPath) shape).curveTo(281.893, 334.36902, 280.864, 335.40002, 279.587, 335.40002);
        ((GeneralPath) shape).curveTo(278.31, 335.40002, 277.258, 334.36902, 277.258, 333.092);
        ((GeneralPath) shape).curveTo(277.258, 331.814, 278.31, 330.764, 279.587, 330.764);

        g.fill(shape);

        // _0_0_0_0_100
        shape = new GeneralPath();
        ((GeneralPath) shape).moveTo(279.587, 397.717);
        ((GeneralPath) shape).curveTo(280.864, 397.717, 281.893, 398.768, 281.893, 400.045);
        ((GeneralPath) shape).curveTo(281.893, 401.32202, 280.864, 402.35303, 279.587, 402.35303);
        ((GeneralPath) shape).curveTo(278.31, 402.35303, 277.258, 401.32202, 277.258, 400.045);
        ((GeneralPath) shape).curveTo(277.258, 398.768, 278.31, 397.717, 279.587, 397.717);

        g.fill(shape);

        // _0_0_0_0_101
        shape = new GeneralPath();
        ((GeneralPath) shape).moveTo(279.587, 317.374);
        ((GeneralPath) shape).curveTo(280.864, 317.374, 281.893, 318.42398, 281.893, 319.701);
        ((GeneralPath) shape).curveTo(281.893, 320.979, 280.864, 322.008, 279.587, 322.008);
        ((GeneralPath) shape).curveTo(278.31, 322.008, 277.258, 320.979, 277.258, 319.701);
        ((GeneralPath) shape).curveTo(277.258, 318.42398, 278.31, 317.374, 279.587, 317.374);

        g.fill(shape);

        // _0_0_0_0_102
        shape = new GeneralPath();
        ((GeneralPath) shape).moveTo(289.084, 364.508);
        ((GeneralPath) shape).curveTo(290.217, 364.508, 291.144, 365.436, 291.144, 366.569);
        ((GeneralPath) shape).curveTo(291.144, 367.702, 290.217, 368.629, 289.084, 368.629);
        ((GeneralPath) shape).curveTo(287.93002, 368.629, 287.02402, 367.702, 287.02402, 366.569);
        ((GeneralPath) shape).curveTo(287.02402, 365.436, 287.93002, 364.508, 289.084, 364.508);

        g.fill(shape);

        // _0_0_0_0_103
        shape = new GeneralPath();
        ((GeneralPath) shape).moveTo(289.084, 391.29);
        ((GeneralPath) shape).curveTo(290.217, 391.29, 291.144, 392.217, 291.144, 393.35);
        ((GeneralPath) shape).curveTo(291.144, 394.483, 290.217, 395.41, 289.084, 395.41);
        ((GeneralPath) shape).curveTo(287.93002, 395.41, 287.02402, 394.483, 287.02402, 393.35);
        ((GeneralPath) shape).curveTo(287.02402, 392.217, 287.93002, 391.29, 289.084, 391.29);

        g.fill(shape);

        // _0_0_0_0_104
        shape = new GeneralPath();
        ((GeneralPath) shape).moveTo(289.084, 377.899);
        ((GeneralPath) shape).curveTo(290.217, 377.899, 291.144, 378.826, 291.144, 379.95898);
        ((GeneralPath) shape).curveTo(291.144, 381.093, 290.217, 382.01898, 289.084, 382.01898);
        ((GeneralPath) shape).curveTo(287.93002, 382.01898, 287.02402, 381.093, 287.02402, 379.95898);
        ((GeneralPath) shape).curveTo(287.02402, 378.826, 287.93002, 377.899, 289.084, 377.899);

        g.fill(shape);

        // _0_0_0_0_105
        shape = new GeneralPath();
        ((GeneralPath) shape).moveTo(289.084, 324.336);
        ((GeneralPath) shape).curveTo(290.217, 324.336, 291.144, 325.263, 291.144, 326.396);
        ((GeneralPath) shape).curveTo(291.144, 327.53, 290.217, 328.456, 289.084, 328.456);
        ((GeneralPath) shape).curveTo(287.93002, 328.456, 287.02402, 327.53, 287.02402, 326.396);
        ((GeneralPath) shape).curveTo(287.02402, 325.263, 287.93002, 324.336, 289.084, 324.336);

        g.fill(shape);

        // _0_0_0_0_106
        shape = new GeneralPath();
        ((GeneralPath) shape).moveTo(289.084, 351.118);
        ((GeneralPath) shape).curveTo(290.217, 351.118, 291.144, 352.045, 291.144, 353.178);
        ((GeneralPath) shape).curveTo(291.144, 354.312, 290.217, 355.238, 289.084, 355.238);
        ((GeneralPath) shape).curveTo(287.93002, 355.238, 287.02402, 354.312, 287.02402, 353.178);
        ((GeneralPath) shape).curveTo(287.02402, 352.045, 287.93002, 351.118, 289.084, 351.118);

        g.fill(shape);

        // _0_0_0_0_107
        shape = new GeneralPath();
        ((GeneralPath) shape).moveTo(289.084, 337.727);
        ((GeneralPath) shape).curveTo(290.217, 337.727, 291.144, 338.655, 291.144, 339.788);
        ((GeneralPath) shape).curveTo(291.144, 340.91998, 290.217, 341.848, 289.084, 341.848);
        ((GeneralPath) shape).curveTo(287.93002, 341.848, 287.02402, 340.91998, 287.02402, 339.788);
        ((GeneralPath) shape).curveTo(287.02402, 338.655, 287.93002, 337.727, 289.084, 337.727);

        g.fill(shape);

        // _0_0_0_0_108
        shape = new GeneralPath();
        ((GeneralPath) shape).moveTo(289.084, 315.142);
        ((GeneralPath) shape).curveTo(287.93002, 315.142, 287.02402, 314.082, 287.02402, 313.082);
        ((GeneralPath) shape).lineTo(291.144, 313.082);
        ((GeneralPath) shape).curveTo(291.144, 314.082, 290.217, 315.142, 289.084, 315.142);

        g.fill(shape);

        // _0_0_0_0_109
        shape = new GeneralPath();
        ((GeneralPath) shape).moveTo(298.581, 371.472);
        ((GeneralPath) shape).curveTo(299.569, 371.472, 300.374, 372.275, 300.374, 373.26398);
        ((GeneralPath) shape).curveTo(300.374, 374.253, 299.569, 375.05597, 298.581, 375.05597);
        ((GeneralPath) shape).curveTo(297.57098, 375.05597, 296.768, 374.25296, 296.768, 373.26398);
        ((GeneralPath) shape).curveTo(296.768, 372.27496, 297.571, 371.472, 298.581, 371.472);

        g.fill(shape);

        // _0_0_0_0_110
        shape = new GeneralPath();
        ((GeneralPath) shape).moveTo(298.581, 317.888);
        ((GeneralPath) shape).curveTo(299.569, 317.888, 300.374, 318.712, 300.374, 319.7);
        ((GeneralPath) shape).curveTo(300.374, 320.68903, 299.569, 321.493, 298.581, 321.493);
        ((GeneralPath) shape).curveTo(298.076, 321.493, 297.624, 321.29202, 297.298, 320.96802);
        ((GeneralPath) shape).curveTo(296.97, 320.643, 296.768, 320.196, 296.768, 319.7);
        ((GeneralPath) shape).curveTo(296.768, 318.712, 297.571, 317.888, 298.581, 317.888);

        g.fill(shape);

        // _0_0_0_0_111
        shape = new GeneralPath();
        ((GeneralPath) shape).moveTo(298.581, 384.842);
        ((GeneralPath) shape).curveTo(299.569, 384.842, 300.374, 385.66602, 300.374, 386.65402);
        ((GeneralPath) shape).curveTo(300.374, 387.644, 299.569, 388.46802, 298.581, 388.46802);
        ((GeneralPath) shape).curveTo(297.57098, 388.46802, 296.768, 387.644, 296.768, 386.65402);
        ((GeneralPath) shape).curveTo(296.768, 385.66602, 297.571, 384.842, 298.581, 384.842);

        g.fill(shape);

        // _0_0_0_0_112
        shape = new GeneralPath();
        ((GeneralPath) shape).moveTo(298.581, 344.669);
        ((GeneralPath) shape).curveTo(299.569, 344.669, 300.374, 345.493, 300.374, 346.48102);
        ((GeneralPath) shape).curveTo(300.374, 347.471, 299.569, 348.295, 298.581, 348.295);
        ((GeneralPath) shape).curveTo(297.57098, 348.295, 296.768, 347.471, 296.768, 346.48102);
        ((GeneralPath) shape).curveTo(296.768, 345.493, 297.571, 344.669, 298.581, 344.669);

        g.fill(shape);

        // _0_0_0_0_113
        shape = new GeneralPath();
        ((GeneralPath) shape).moveTo(298.581, 331.3);
        ((GeneralPath) shape).curveTo(299.569, 331.3, 300.374, 332.103, 300.374, 333.09198);
        ((GeneralPath) shape).curveTo(300.374, 334.08, 299.569, 334.88297, 298.581, 334.88297);
        ((GeneralPath) shape).curveTo(297.57098, 334.88297, 296.768, 334.07996, 296.768, 333.09198);
        ((GeneralPath) shape).curveTo(296.768, 332.10297, 297.571, 331.3, 298.581, 331.3);

        g.fill(shape);

        // _0_0_0_0_114
        shape = new GeneralPath();
        ((GeneralPath) shape).moveTo(298.581, 398.232);
        ((GeneralPath) shape).curveTo(299.569, 398.232, 300.374, 399.057, 300.374, 400.044);
        ((GeneralPath) shape).curveTo(300.374, 401.03302, 299.569, 401.858, 298.581, 401.858);
        ((GeneralPath) shape).curveTo(297.57098, 401.858, 296.768, 401.033, 296.768, 400.044);
        ((GeneralPath) shape).curveTo(296.768, 399.057, 297.571, 398.232, 298.581, 398.232);

        g.fill(shape);

        // _0_0_0_0_115
        shape = new GeneralPath();
        ((GeneralPath) shape).moveTo(298.581, 358.061);
        ((GeneralPath) shape).curveTo(299.569, 358.061, 300.374, 358.884, 300.374, 359.87302);
        ((GeneralPath) shape).curveTo(300.374, 360.86102, 299.569, 361.687, 298.581, 361.687);
        ((GeneralPath) shape).curveTo(297.57098, 361.687, 296.768, 360.86102, 296.768, 359.87302);
        ((GeneralPath) shape).curveTo(296.768, 358.884, 297.571, 358.061, 298.581, 358.061);

        g.fill(shape);

        // _0_0_0_0_116
        shape = new GeneralPath();
        ((GeneralPath) shape).moveTo(308.078, 338.242);
        ((GeneralPath) shape).curveTo(308.922, 338.242, 309.622, 338.943, 309.622, 339.78702);
        ((GeneralPath) shape).curveTo(309.622, 340.63202, 308.922, 341.33102, 308.078, 341.33102);
        ((GeneralPath) shape).curveTo(307.233, 341.33102, 306.532, 340.63202, 306.532, 339.78702);
        ((GeneralPath) shape).curveTo(306.532, 338.94302, 307.233, 338.242, 308.078, 338.242);

        g.fill(shape);

        // _0_0_0_0_117
        shape = new GeneralPath();
        ((GeneralPath) shape).moveTo(308.078, 378.414);
        ((GeneralPath) shape).curveTo(308.922, 378.414, 309.622, 379.116, 309.622, 379.958);
        ((GeneralPath) shape).curveTo(309.622, 380.82602, 308.922, 381.50302, 308.078, 381.50302);
        ((GeneralPath) shape).curveTo(307.233, 381.50302, 306.532, 380.82602, 306.532, 379.958);
        ((GeneralPath) shape).curveTo(306.532, 379.116, 307.233, 378.414, 308.078, 378.414);

        g.fill(shape);

        // _0_0_0_0_118
        shape = new GeneralPath();
        ((GeneralPath) shape).moveTo(308.078, 391.805);
        ((GeneralPath) shape).curveTo(308.922, 391.805, 309.622, 392.50598, 309.622, 393.35);
        ((GeneralPath) shape).curveTo(309.622, 394.195, 308.922, 394.89502, 308.078, 394.89502);
        ((GeneralPath) shape).curveTo(307.233, 394.89502, 306.532, 394.195, 306.532, 393.35);
        ((GeneralPath) shape).curveTo(306.532, 392.506, 307.233, 391.805, 308.078, 391.805);

        g.fill(shape);

        // _0_0_0_0_119
        shape = new GeneralPath();
        ((GeneralPath) shape).moveTo(308.078, 365.023);
        ((GeneralPath) shape).curveTo(308.922, 365.023, 309.622, 365.725, 309.622, 366.56802);
        ((GeneralPath) shape).curveTo(309.622, 367.41403, 308.922, 368.11304, 308.078, 368.11304);
        ((GeneralPath) shape).curveTo(307.233, 368.11304, 306.532, 367.41403, 306.532, 366.56802);
        ((GeneralPath) shape).curveTo(306.532, 365.72504, 307.233, 365.023, 308.078, 365.023);

        g.fill(shape);

        // _0_0_0_0_120
        shape = new GeneralPath();
        ((GeneralPath) shape).moveTo(308.078, 351.632);
        ((GeneralPath) shape).curveTo(308.922, 351.632, 309.622, 352.33298, 309.622, 353.177);
        ((GeneralPath) shape).curveTo(309.622, 354.043, 308.922, 354.72202, 308.078, 354.72202);
        ((GeneralPath) shape).curveTo(307.233, 354.72202, 306.532, 354.04303, 306.532, 353.177);
        ((GeneralPath) shape).curveTo(306.532, 352.333, 307.233, 351.632, 308.078, 351.632);

        g.fill(shape);

        // _0_0_0_0_121
        shape = new GeneralPath();
        ((GeneralPath) shape).moveTo(308.078, 324.851);
        ((GeneralPath) shape).curveTo(308.922, 324.851, 309.622, 325.552, 309.622, 326.39603);
        ((GeneralPath) shape).curveTo(309.622, 327.24103, 308.922, 327.94104, 308.078, 327.94104);
        ((GeneralPath) shape).curveTo(307.233, 327.94104, 306.532, 327.24103, 306.532, 326.39603);
        ((GeneralPath) shape).curveTo(306.532, 325.55203, 307.233, 324.851, 308.078, 324.851);

        g.fill(shape);

        // _0_0_0_0_122
        shape = new GeneralPath();
        ((GeneralPath) shape).moveTo(308.078, 314.626);
        ((GeneralPath) shape).curveTo(307.233, 314.626, 306.532, 314.083, 306.532, 313.083);
        ((GeneralPath) shape).lineTo(309.622, 313.083);
        ((GeneralPath) shape).curveTo(309.622, 314.083, 308.922, 314.626, 308.078, 314.626);

        g.fill(shape);

        // _0_0_0_0_123
        shape = new GeneralPath();
        ((GeneralPath) shape).moveTo(317.575, 331.794);
        ((GeneralPath) shape).curveTo(318.29602, 331.794, 318.87302, 332.392, 318.87302, 333.092);
        ((GeneralPath) shape).curveTo(318.87302, 333.793, 318.29602, 334.39102, 317.575, 334.39102);
        ((GeneralPath) shape).curveTo(316.854, 334.39102, 316.297, 333.79303, 316.297, 333.092);
        ((GeneralPath) shape).curveTo(316.297, 332.392, 316.854, 331.794, 317.575, 331.794);

        g.fill(shape);

        // _0_0_0_0_124
        shape = new GeneralPath();
        ((GeneralPath) shape).moveTo(317.575, 385.357);
        ((GeneralPath) shape).curveTo(318.29602, 385.357, 318.87302, 385.955, 318.87302, 386.654);
        ((GeneralPath) shape).curveTo(318.87302, 387.37598, 318.29602, 387.932, 317.575, 387.932);
        ((GeneralPath) shape).curveTo(316.854, 387.932, 316.297, 387.376, 316.297, 386.654);
        ((GeneralPath) shape).curveTo(316.297, 385.955, 316.854, 385.357, 317.575, 385.357);

        g.fill(shape);

        // _0_0_0_0_125
        shape = new GeneralPath();
        ((GeneralPath) shape).moveTo(317.575, 398.747);
        ((GeneralPath) shape).curveTo(318.29602, 398.747, 318.87302, 399.345, 318.87302, 400.045);
        ((GeneralPath) shape).curveTo(318.87302, 400.767, 318.29602, 401.34402, 317.575, 401.34402);
        ((GeneralPath) shape).curveTo(316.854, 401.34402, 316.297, 400.76703, 316.297, 400.045);
        ((GeneralPath) shape).curveTo(316.297, 399.345, 316.854, 398.747, 317.575, 398.747);

        g.fill(shape);

        // _0_0_0_0_126
        shape = new GeneralPath();
        ((GeneralPath) shape).moveTo(317.575, 345.206);
        ((GeneralPath) shape).curveTo(318.29602, 345.206, 318.87302, 345.78198, 318.87302, 346.482);
        ((GeneralPath) shape).curveTo(318.87302, 347.20398, 318.29602, 347.781, 317.575, 347.781);
        ((GeneralPath) shape).curveTo(316.854, 347.781, 316.297, 347.204, 316.297, 346.482);
        ((GeneralPath) shape).curveTo(316.297, 345.78198, 316.854, 345.206, 317.575, 345.206);

        g.fill(shape);

        // _0_0_0_0_127
        shape = new GeneralPath();
        ((GeneralPath) shape).moveTo(317.575, 358.596);
        ((GeneralPath) shape).curveTo(318.29602, 358.596, 318.87302, 359.152, 318.87302, 359.87302);
        ((GeneralPath) shape).curveTo(318.87302, 360.59402, 318.29602, 361.15002, 317.575, 361.15002);
        ((GeneralPath) shape).curveTo(316.854, 361.15002, 316.297, 360.59402, 316.297, 359.87302);
        ((GeneralPath) shape).curveTo(316.297, 359.152, 316.854, 358.596, 317.575, 358.596);

        g.fill(shape);

        // _0_0_0_0_128
        shape = new GeneralPath();
        ((GeneralPath) shape).moveTo(317.575, 371.987);
        ((GeneralPath) shape).curveTo(318.29602, 371.987, 318.87302, 372.543, 318.87302, 373.263);
        ((GeneralPath) shape).curveTo(318.87302, 373.985, 318.29602, 374.542, 317.575, 374.542);
        ((GeneralPath) shape).curveTo(316.854, 374.542, 316.297, 373.985, 316.297, 373.263);
        ((GeneralPath) shape).curveTo(316.297, 372.543, 316.854, 371.987, 317.575, 371.987);

        g.fill(shape);

        // _0_0_0_0_129
        shape = new GeneralPath();
        ((GeneralPath) shape).moveTo(316.417, 319.17);
        ((GeneralPath) shape).curveTo(316.615, 318.72702, 317.04898, 318.402, 317.57498, 318.402);
        ((GeneralPath) shape).curveTo(318.10098, 318.402, 318.54297, 318.725, 318.748, 319.16702);
        ((GeneralPath) shape).curveTo(318.753, 319.178, 318.76498, 319.18802, 318.77, 319.19803);
        ((GeneralPath) shape).curveTo(318.836, 319.35403, 318.873, 319.52402, 318.873, 319.70004);
        ((GeneralPath) shape).curveTo(318.873, 319.87805, 318.836, 320.04605, 318.77, 320.20303);
        ((GeneralPath) shape).curveTo(318.76498, 320.21304, 318.75497, 320.22003, 318.75, 320.23203);
        ((GeneralPath) shape).curveTo(318.545, 320.67603, 318.101, 321.00003, 317.575, 321.00003);
        ((GeneralPath) shape).curveTo(317.047, 321.00003, 316.612, 320.67502, 316.415, 320.22903);
        ((GeneralPath) shape).curveTo(316.41, 320.21805, 316.402, 320.21204, 316.398, 320.20404);
        ((GeneralPath) shape).curveTo(316.334, 320.04703, 316.297, 319.87805, 316.297, 319.70004);
        ((GeneralPath) shape).curveTo(316.297, 319.52405, 316.33398, 319.35403, 316.398, 319.19803);
        ((GeneralPath) shape).curveTo(316.402, 319.18802, 316.41302, 319.18103, 316.41702, 319.17);

        g.fill(shape);

        // _0_0_0_0_130
        shape = new GeneralPath();
        ((GeneralPath) shape).moveTo(404.0, 336.182);
        ((GeneralPath) shape).lineTo(404.0, 343.392);
        ((GeneralPath) shape).curveTo(401.0, 343.392, 400.396, 341.786, 400.396, 339.787);
        ((GeneralPath) shape).curveTo(400.396, 337.789, 401.0, 336.18198, 404.0, 336.18198);

        g.fill(shape);

        // _0_0_0_0_131
        shape = new GeneralPath();
        ((GeneralPath) shape).moveTo(404.0, 349.572);
        ((GeneralPath) shape).lineTo(404.0, 356.78198);
        ((GeneralPath) shape).curveTo(401.0, 356.78198, 400.396, 355.176, 400.396, 353.17697);
        ((GeneralPath) shape).curveTo(400.396, 351.179, 401.0, 349.57196, 404.0, 349.57196);

        g.fill(shape);

        // _0_0_0_0_132
        shape = new GeneralPath();
        ((GeneralPath) shape).moveTo(403.069, 403.65);
        ((GeneralPath) shape).lineTo(401.234, 403.65);
        ((GeneralPath) shape).curveTo(401.772, 403.331, 402.396, 403.13498, 403.069, 403.13498);
        ((GeneralPath) shape).closePath();

        g.fill(shape);

        // _0_0_0_0_133
        shape = new GeneralPath();
        ((GeneralPath) shape).moveTo(404.0, 322.791);
        ((GeneralPath) shape).lineTo(404.0, 330.00098);
        ((GeneralPath) shape).curveTo(401.0, 330.00098, 400.396, 328.395, 400.396, 326.39597);
        ((GeneralPath) shape).curveTo(400.396, 324.39798, 401.0, 322.79095, 404.0, 322.79095);

        g.fill(shape);

        // _0_0_0_0_134
        shape = new GeneralPath();
        ((GeneralPath) shape).moveTo(404.0, 376.354);
        ((GeneralPath) shape).lineTo(404.0, 383.564);
        ((GeneralPath) shape).curveTo(401.0, 383.564, 400.396, 381.958, 400.396, 379.95898);
        ((GeneralPath) shape).curveTo(400.396, 377.961, 401.0, 376.35397, 404.0, 376.35397);

        g.fill(shape);

        // _0_0_0_0_135
        shape = new GeneralPath();
        ((GeneralPath) shape).moveTo(404.0, 362.963);
        ((GeneralPath) shape).lineTo(404.0, 370.173);
        ((GeneralPath) shape).curveTo(401.0, 370.173, 400.396, 368.56702, 400.396, 366.568);
        ((GeneralPath) shape).curveTo(400.396, 364.57, 401.0, 362.96298, 404.0, 362.96298);

        g.fill(shape);

        // _0_0_0_0_136
        shape = new GeneralPath();
        ((GeneralPath) shape).moveTo(404.0, 389.745);
        ((GeneralPath) shape).lineTo(404.0, 396.955);
        ((GeneralPath) shape).curveTo(401.0, 396.955, 400.396, 395.349, 400.396, 393.34998);
        ((GeneralPath) shape).curveTo(400.396, 391.352, 401.0, 389.74496, 404.0, 389.74496);

        g.fill(shape);

        // _0_0_0_0_137
        shape = new GeneralPath();
        ((GeneralPath) shape).moveTo(404.0, 316.61);
        ((GeneralPath) shape).curveTo(401.0, 316.61, 399.465, 315.08298, 399.465, 313.08298);
        ((GeneralPath) shape).lineTo(404.0, 313.08298);
        ((GeneralPath) shape).closePath();

        g.fill(shape);

        // _0_0_0_0_138
        shape = new GeneralPath();
        ((GeneralPath) shape).moveTo(393.572, 329.734);
        ((GeneralPath) shape).curveTo(395.427, 329.734, 396.909, 331.238, 396.909, 333.092);
        ((GeneralPath) shape).curveTo(396.909, 334.94702, 395.427, 336.45102, 393.572, 336.45102);
        ((GeneralPath) shape).curveTo(391.719, 336.45102, 390.233, 334.94702, 390.233, 333.092);
        ((GeneralPath) shape).curveTo(390.233, 331.238, 391.719, 329.734, 393.572, 329.734);

        g.fill(shape);

        // _0_0_0_0_139
        shape = new GeneralPath();
        ((GeneralPath) shape).moveTo(393.572, 343.146);
        ((GeneralPath) shape).curveTo(395.427, 343.146, 396.909, 344.628, 396.909, 346.481);
        ((GeneralPath) shape).curveTo(396.909, 348.336, 395.427, 349.84, 393.572, 349.84);
        ((GeneralPath) shape).curveTo(391.719, 349.84, 390.233, 348.336, 390.233, 346.481);
        ((GeneralPath) shape).curveTo(390.233, 344.628, 391.719, 343.146, 393.572, 343.146);

        g.fill(shape);

        // _0_0_0_0_140
        shape = new GeneralPath();
        ((GeneralPath) shape).moveTo(393.572, 369.906);
        ((GeneralPath) shape).curveTo(395.427, 369.906, 396.909, 371.41, 396.909, 373.264);
        ((GeneralPath) shape).curveTo(396.909, 375.11902, 395.427, 376.601, 393.572, 376.601);
        ((GeneralPath) shape).curveTo(391.719, 376.601, 390.233, 375.11902, 390.233, 373.264);
        ((GeneralPath) shape).curveTo(390.233, 371.41, 391.719, 369.906, 393.572, 369.906);

        g.fill(shape);

        // _0_0_0_0_141
        shape = new GeneralPath();
        ((GeneralPath) shape).moveTo(393.572, 396.687);
        ((GeneralPath) shape).curveTo(395.427, 396.687, 396.909, 398.191, 396.909, 400.045);
        ((GeneralPath) shape).curveTo(396.909, 401.90002, 395.427, 403.40402, 393.572, 403.40402);
        ((GeneralPath) shape).curveTo(391.719, 403.40402, 390.233, 401.90002, 390.233, 400.045);
        ((GeneralPath) shape).curveTo(390.233, 398.191, 391.719, 396.687, 393.572, 396.687);

        g.fill(shape);

        // _0_0_0_0_142
        shape = new GeneralPath();
        ((GeneralPath) shape).moveTo(393.572, 356.536);
        ((GeneralPath) shape).curveTo(395.427, 356.536, 396.909, 358.019, 396.909, 359.87302);
        ((GeneralPath) shape).curveTo(396.909, 361.72803, 395.427, 363.23203, 393.572, 363.23203);
        ((GeneralPath) shape).curveTo(391.719, 363.23203, 390.233, 361.72803, 390.233, 359.87302);
        ((GeneralPath) shape).curveTo(390.233, 358.019, 391.719, 356.536, 393.572, 356.536);

        g.fill(shape);

        // _0_0_0_0_143
        shape = new GeneralPath();
        ((GeneralPath) shape).moveTo(393.572, 383.297);
        ((GeneralPath) shape).curveTo(395.427, 383.297, 396.909, 384.801, 396.909, 386.654);
        ((GeneralPath) shape).curveTo(396.909, 388.509, 395.427, 389.992, 393.572, 389.992);
        ((GeneralPath) shape).curveTo(391.719, 389.992, 390.233, 388.509, 390.233, 386.654);
        ((GeneralPath) shape).curveTo(390.233, 384.801, 391.719, 383.297, 393.572, 383.297);

        g.fill(shape);

        // _0_0_0_0_144
        shape = new GeneralPath();
        ((GeneralPath) shape).moveTo(393.572, 316.343);
        ((GeneralPath) shape).curveTo(395.427, 316.343, 396.909, 317.84598, 396.909, 319.69998);
        ((GeneralPath) shape).curveTo(396.909, 321.555, 395.427, 323.038, 393.572, 323.038);
        ((GeneralPath) shape).curveTo(391.719, 323.038, 390.233, 321.555, 390.233, 319.69998);
        ((GeneralPath) shape).curveTo(390.233, 317.84598, 391.719, 316.343, 393.572, 316.343);

        g.fill(shape);

        // _0_0_0_0_145
        shape = new GeneralPath();
        ((GeneralPath) shape).moveTo(384.076, 390.26);
        ((GeneralPath) shape).curveTo(385.76398, 390.26, 387.166, 391.64102, 387.166, 393.35);
        ((GeneralPath) shape).curveTo(387.166, 395.06, 385.76398, 396.44, 384.076, 396.44);
        ((GeneralPath) shape).curveTo(382.366, 396.44, 380.985, 395.06, 380.985, 393.35);
        ((GeneralPath) shape).curveTo(380.985, 391.641, 382.366, 390.26, 384.076, 390.26);

        g.fill(shape);

        // _0_0_0_0_146
        shape = new GeneralPath();
        ((GeneralPath) shape).moveTo(384.076, 363.478);
        ((GeneralPath) shape).curveTo(385.76398, 363.478, 387.166, 364.859, 387.166, 366.568);
        ((GeneralPath) shape).curveTo(387.166, 368.27798, 385.76398, 369.658, 384.076, 369.658);
        ((GeneralPath) shape).curveTo(382.366, 369.658, 380.985, 368.27798, 380.985, 366.568);
        ((GeneralPath) shape).curveTo(380.985, 364.85898, 382.366, 363.478, 384.076, 363.478);

        g.fill(shape);

        // _0_0_0_0_147
        shape = new GeneralPath();
        ((GeneralPath) shape).moveTo(384.076, 376.869);
        ((GeneralPath) shape).curveTo(385.76398, 376.869, 387.166, 378.25, 387.166, 379.95798);
        ((GeneralPath) shape).curveTo(387.166, 381.66898, 385.76398, 383.05, 384.076, 383.05);
        ((GeneralPath) shape).curveTo(382.366, 383.05, 380.985, 381.66898, 380.985, 379.95798);
        ((GeneralPath) shape).curveTo(380.985, 378.24997, 382.366, 376.869, 384.076, 376.869);

        g.fill(shape);

        // _0_0_0_0_148
        shape = new GeneralPath();
        ((GeneralPath) shape).moveTo(384.076, 350.087);
        ((GeneralPath) shape).curveTo(385.76398, 350.087, 387.166, 351.46802, 387.166, 353.177);
        ((GeneralPath) shape).curveTo(387.166, 354.887, 385.76398, 356.269, 384.076, 356.269);
        ((GeneralPath) shape).curveTo(382.366, 356.269, 380.985, 354.88702, 380.985, 353.177);
        ((GeneralPath) shape).curveTo(380.985, 351.468, 382.366, 350.087, 384.076, 350.087);

        g.fill(shape);

        // _0_0_0_0_149
        shape = new GeneralPath();
        ((GeneralPath) shape).moveTo(384.076, 336.697);
        ((GeneralPath) shape).curveTo(385.76398, 336.697, 387.166, 338.078, 387.166, 339.787);
        ((GeneralPath) shape).curveTo(387.166, 341.49698, 385.76398, 342.87698, 384.076, 342.87698);
        ((GeneralPath) shape).curveTo(382.366, 342.87698, 380.985, 341.49698, 380.985, 339.787);
        ((GeneralPath) shape).curveTo(380.985, 338.07797, 382.366, 336.697, 384.076, 336.697);

        g.fill(shape);

        // _0_0_0_0_150
        shape = new GeneralPath();
        ((GeneralPath) shape).moveTo(384.076, 323.306);
        ((GeneralPath) shape).curveTo(385.76398, 323.306, 387.166, 324.688, 387.166, 326.396);
        ((GeneralPath) shape).curveTo(387.166, 328.105, 385.76398, 329.487, 384.076, 329.487);
        ((GeneralPath) shape).curveTo(382.366, 329.487, 380.985, 328.105, 380.985, 326.396);
        ((GeneralPath) shape).curveTo(380.985, 324.688, 382.366, 323.306, 384.076, 323.306);

        g.fill(shape);

        // _0_0_0_0_151
        shape = new GeneralPath();
        ((GeneralPath) shape).moveTo(384.076, 316.171);
        ((GeneralPath) shape).curveTo(382.366, 316.171, 380.985, 314.08298, 380.985, 313.08298);
        ((GeneralPath) shape).lineTo(387.166, 313.08298);
        ((GeneralPath) shape).curveTo(387.166, 314.08298, 385.76398, 316.171, 384.076, 316.171);

        g.fill(shape);

        // _0_0_0_0_152
        shape = new GeneralPath();
        ((GeneralPath) shape).moveTo(374.578, 397.224);
        ((GeneralPath) shape).curveTo(376.12302, 397.224, 377.401, 398.479, 377.401, 400.044);
        ((GeneralPath) shape).curveTo(377.401, 401.612, 376.123, 402.889, 374.578, 402.889);
        ((GeneralPath) shape).curveTo(373.013, 402.889, 371.736, 401.612, 371.736, 400.044);
        ((GeneralPath) shape).curveTo(371.736, 398.479, 373.013, 397.224, 374.578, 397.224);

        g.fill(shape);

        // _0_0_0_0_153
        shape = new GeneralPath();
        ((GeneralPath) shape).moveTo(374.578, 343.639);
        ((GeneralPath) shape).curveTo(376.12302, 343.639, 377.401, 344.91702, 377.401, 346.482);
        ((GeneralPath) shape).curveTo(377.401, 348.048, 376.123, 349.305, 374.578, 349.305);
        ((GeneralPath) shape).curveTo(373.013, 349.305, 371.736, 348.048, 371.736, 346.482);
        ((GeneralPath) shape).curveTo(371.736, 344.917, 373.013, 343.639, 374.578, 343.639);

        g.fill(shape);

        // _0_0_0_0_154
        shape = new GeneralPath();
        ((GeneralPath) shape).moveTo(374.578, 383.833);
        ((GeneralPath) shape).curveTo(376.12302, 383.833, 377.401, 385.088, 377.401, 386.65402);
        ((GeneralPath) shape).curveTo(377.401, 388.221, 376.123, 389.49802, 374.578, 389.49802);
        ((GeneralPath) shape).curveTo(373.013, 389.49802, 371.736, 388.221, 371.736, 386.65402);
        ((GeneralPath) shape).curveTo(371.736, 385.088, 373.013, 383.833, 374.578, 383.833);

        g.fill(shape);

        // _0_0_0_0_155
        shape = new GeneralPath();
        ((GeneralPath) shape).moveTo(374.578, 357.03);
        ((GeneralPath) shape).curveTo(376.12302, 357.03, 377.401, 358.307, 377.401, 359.873);
        ((GeneralPath) shape).curveTo(377.401, 361.439, 376.123, 362.69498, 374.578, 362.69498);
        ((GeneralPath) shape).curveTo(373.013, 362.69498, 371.736, 361.43896, 371.736, 359.873);
        ((GeneralPath) shape).curveTo(371.736, 358.30698, 373.013, 357.03, 374.578, 357.03);

        g.fill(shape);

        // _0_0_0_0_156
        shape = new GeneralPath();
        ((GeneralPath) shape).moveTo(374.578, 330.27);
        ((GeneralPath) shape).curveTo(376.12302, 330.27, 377.401, 331.526, 377.401, 333.09198);
        ((GeneralPath) shape).curveTo(377.401, 334.658, 376.123, 335.91397, 374.578, 335.91397);
        ((GeneralPath) shape).curveTo(373.013, 335.91397, 371.736, 334.65796, 371.736, 333.09198);
        ((GeneralPath) shape).curveTo(371.736, 331.52597, 373.013, 330.27, 374.578, 330.27);

        g.fill(shape);

        // _0_0_0_0_157
        shape = new GeneralPath();
        ((GeneralPath) shape).moveTo(374.578, 370.421);
        ((GeneralPath) shape).curveTo(376.12302, 370.421, 377.401, 371.698, 377.401, 373.263);
        ((GeneralPath) shape).curveTo(377.401, 374.831, 376.123, 376.107, 374.578, 376.107);
        ((GeneralPath) shape).curveTo(373.013, 376.107, 371.736, 374.831, 371.736, 373.263);
        ((GeneralPath) shape).curveTo(371.736, 371.698, 373.013, 370.421, 374.578, 370.421);

        g.fill(shape);

        // _0_0_0_0_158
        shape = new GeneralPath();
        ((GeneralPath) shape).moveTo(374.578, 316.879);
        ((GeneralPath) shape).curveTo(376.12302, 316.879, 377.401, 318.135, 377.401, 319.7);
        ((GeneralPath) shape).curveTo(377.401, 321.267, 376.123, 322.544, 374.578, 322.544);
        ((GeneralPath) shape).curveTo(373.013, 322.544, 371.736, 321.267, 371.736, 319.7);
        ((GeneralPath) shape).curveTo(371.736, 318.135, 373.013, 316.879, 374.578, 316.879);

        g.fill(shape);

        // _0_0_0_0_159
        shape = new GeneralPath();
        ((GeneralPath) shape).moveTo(365.082, 337.212);
        ((GeneralPath) shape).curveTo(366.482, 337.212, 367.656, 338.36502, 367.656, 339.78702);
        ((GeneralPath) shape).curveTo(367.656, 341.209, 366.482, 342.36203, 365.082, 342.36203);
        ((GeneralPath) shape).curveTo(363.639, 342.36203, 362.506, 341.209, 362.506, 339.78702);
        ((GeneralPath) shape).curveTo(362.506, 338.36502, 363.639, 337.212, 365.082, 337.212);

        g.fill(shape);

        // _0_0_0_0_160
        shape = new GeneralPath();
        ((GeneralPath) shape).moveTo(365.082, 363.993);
        ((GeneralPath) shape).curveTo(366.482, 363.993, 367.656, 365.147, 367.656, 366.56802);
        ((GeneralPath) shape).curveTo(367.656, 367.99002, 366.482, 369.14304, 365.082, 369.14304);
        ((GeneralPath) shape).curveTo(363.639, 369.14304, 362.506, 367.99002, 362.506, 366.56802);
        ((GeneralPath) shape).curveTo(362.506, 365.14703, 363.639, 363.993, 365.082, 363.993);

        g.fill(shape);

        // _0_0_0_0_161
        shape = new GeneralPath();
        ((GeneralPath) shape).moveTo(365.082, 350.603);
        ((GeneralPath) shape).curveTo(366.482, 350.603, 367.656, 351.756, 367.656, 353.178);
        ((GeneralPath) shape).curveTo(367.656, 354.6, 366.482, 355.752, 365.082, 355.752);
        ((GeneralPath) shape).curveTo(363.639, 355.752, 362.506, 354.6, 362.506, 353.178);
        ((GeneralPath) shape).curveTo(362.506, 351.756, 363.639, 350.603, 365.082, 350.603);

        g.fill(shape);

        // _0_0_0_0_162
        shape = new GeneralPath();
        ((GeneralPath) shape).moveTo(365.082, 323.821);
        ((GeneralPath) shape).curveTo(366.482, 323.821, 367.656, 324.975, 367.656, 326.39603);
        ((GeneralPath) shape).curveTo(367.656, 327.81702, 366.482, 328.97104, 365.082, 328.97104);
        ((GeneralPath) shape).curveTo(363.639, 328.97104, 362.506, 327.81705, 362.506, 326.39603);
        ((GeneralPath) shape).curveTo(362.506, 324.97504, 363.639, 323.821, 365.082, 323.821);

        g.fill(shape);

        // _0_0_0_0_163
        shape = new GeneralPath();
        ((GeneralPath) shape).moveTo(365.082, 377.384);
        ((GeneralPath) shape).curveTo(366.482, 377.384, 367.656, 378.53702, 367.656, 379.959);
        ((GeneralPath) shape).curveTo(367.656, 381.381, 366.482, 382.53403, 365.082, 382.53403);
        ((GeneralPath) shape).curveTo(363.639, 382.53403, 362.506, 381.381, 362.506, 379.959);
        ((GeneralPath) shape).curveTo(362.506, 378.53702, 363.639, 377.384, 365.082, 377.384);

        g.fill(shape);

        // _0_0_0_0_164
        shape = new GeneralPath();
        ((GeneralPath) shape).moveTo(365.082, 390.774);
        ((GeneralPath) shape).curveTo(366.482, 390.774, 367.656, 391.92798, 367.656, 393.35098);
        ((GeneralPath) shape).curveTo(367.656, 394.771, 366.482, 395.92398, 365.082, 395.92398);
        ((GeneralPath) shape).curveTo(363.639, 395.92398, 362.506, 394.77097, 362.506, 393.35098);
        ((GeneralPath) shape).curveTo(362.506, 391.92798, 363.639, 390.774, 365.082, 390.774);

        g.fill(shape);

        // _0_0_0_0_165
        shape = new GeneralPath();
        ((GeneralPath) shape).moveTo(365.082, 315.657);
        ((GeneralPath) shape).curveTo(363.639, 315.657, 362.506, 314.082, 362.506, 313.082);
        ((GeneralPath) shape).lineTo(367.656, 313.082);
        ((GeneralPath) shape).curveTo(367.656, 314.082, 366.482, 315.657, 365.082, 315.657);

        g.fill(shape);

        // _0_0_0_0_166
        shape = new GeneralPath();
        ((GeneralPath) shape).moveTo(355.564, 384.348);
        ((GeneralPath) shape).curveTo(356.861, 384.348, 357.891, 385.378, 357.891, 386.654);
        ((GeneralPath) shape).curveTo(357.891, 387.931, 356.861, 388.983, 355.564, 388.983);
        ((GeneralPath) shape).curveTo(354.28598, 388.983, 353.257, 387.931, 353.257, 386.654);
        ((GeneralPath) shape).curveTo(353.257, 385.378, 354.28598, 384.348, 355.564, 384.348);

        g.fill(shape);

        // _0_0_0_0_167
        shape = new GeneralPath();
        ((GeneralPath) shape).moveTo(355.564, 370.936);
        ((GeneralPath) shape).curveTo(356.861, 370.936, 357.891, 371.987, 357.891, 373.264);
        ((GeneralPath) shape).curveTo(357.891, 374.54102, 356.861, 375.571, 355.564, 375.571);
        ((GeneralPath) shape).curveTo(354.28598, 375.571, 353.257, 374.54102, 353.257, 373.264);
        ((GeneralPath) shape).curveTo(353.257, 371.987, 354.28598, 370.936, 355.564, 370.936);

        g.fill(shape);

        // _0_0_0_0_168
        shape = new GeneralPath();
        ((GeneralPath) shape).moveTo(355.564, 357.566);
        ((GeneralPath) shape).curveTo(356.861, 357.566, 357.891, 358.596, 357.891, 359.87402);
        ((GeneralPath) shape).curveTo(357.891, 361.15002, 356.861, 362.20102, 355.564, 362.20102);
        ((GeneralPath) shape).curveTo(354.28598, 362.20102, 353.257, 361.15002, 353.257, 359.87402);
        ((GeneralPath) shape).curveTo(353.257, 358.596, 354.28598, 357.566, 355.564, 357.566);

        g.fill(shape);

        // _0_0_0_0_169
        shape = new GeneralPath();
        ((GeneralPath) shape).moveTo(355.564, 397.717);
        ((GeneralPath) shape).curveTo(356.861, 397.717, 357.891, 398.768, 357.891, 400.045);
        ((GeneralPath) shape).curveTo(357.891, 401.32202, 356.861, 402.35303, 355.564, 402.35303);
        ((GeneralPath) shape).curveTo(354.28598, 402.35303, 353.257, 401.32202, 353.257, 400.045);
        ((GeneralPath) shape).curveTo(353.257, 398.768, 354.28598, 397.717, 355.564, 397.717);

        g.fill(shape);

        // _0_0_0_0_170
        shape = new GeneralPath();
        ((GeneralPath) shape).moveTo(355.564, 330.785);
        ((GeneralPath) shape).curveTo(356.861, 330.785, 357.891, 331.815, 357.891, 333.092);
        ((GeneralPath) shape).curveTo(357.891, 334.36902, 356.861, 335.42, 355.564, 335.42);
        ((GeneralPath) shape).curveTo(354.28598, 335.42, 353.257, 334.36902, 353.257, 333.092);
        ((GeneralPath) shape).curveTo(353.257, 331.815, 354.28598, 330.785, 355.564, 330.785);

        g.fill(shape);

        // _0_0_0_0_171
        shape = new GeneralPath();
        ((GeneralPath) shape).moveTo(355.564, 344.155);
        ((GeneralPath) shape).curveTo(356.861, 344.155, 357.891, 345.206, 357.891, 346.482);
        ((GeneralPath) shape).curveTo(357.891, 347.76, 356.861, 348.79, 355.564, 348.79);
        ((GeneralPath) shape).curveTo(354.28598, 348.79, 353.257, 347.76, 353.257, 346.482);
        ((GeneralPath) shape).curveTo(353.257, 345.206, 354.28598, 344.155, 355.564, 344.155);

        g.fill(shape);

        // _0_0_0_0_172
        shape = new GeneralPath();
        ((GeneralPath) shape).moveTo(355.564, 317.374);
        ((GeneralPath) shape).curveTo(356.861, 317.374, 357.891, 318.42398, 357.891, 319.701);
        ((GeneralPath) shape).curveTo(357.891, 320.979, 356.861, 322.008, 355.564, 322.008);
        ((GeneralPath) shape).curveTo(354.28598, 322.008, 353.257, 320.979, 353.257, 319.701);
        ((GeneralPath) shape).curveTo(353.257, 318.42398, 354.28598, 317.374, 355.564, 317.374);

        g.fill(shape);

        // _0_0_0_0_173
        shape = new GeneralPath();
        ((GeneralPath) shape).moveTo(346.065, 364.508);
        ((GeneralPath) shape).curveTo(347.199, 364.508, 348.126, 365.436, 348.126, 366.569);
        ((GeneralPath) shape).curveTo(348.126, 367.702, 347.199, 368.629, 346.065, 368.629);
        ((GeneralPath) shape).curveTo(344.933, 368.629, 344.006, 367.702, 344.006, 366.569);
        ((GeneralPath) shape).curveTo(344.006, 365.436, 344.933, 364.508, 346.065, 364.508);

        g.fill(shape);

        // _0_0_0_0_174
        shape = new GeneralPath();
        ((GeneralPath) shape).moveTo(346.065, 391.29);
        ((GeneralPath) shape).curveTo(347.199, 391.29, 348.126, 392.217, 348.126, 393.35);
        ((GeneralPath) shape).curveTo(348.126, 394.483, 347.199, 395.41, 346.065, 395.41);
        ((GeneralPath) shape).curveTo(344.933, 395.41, 344.006, 394.483, 344.006, 393.35);
        ((GeneralPath) shape).curveTo(344.006, 392.217, 344.933, 391.29, 346.065, 391.29);

        g.fill(shape);

        // _0_0_0_0_175
        shape = new GeneralPath();
        ((GeneralPath) shape).moveTo(346.065, 324.336);
        ((GeneralPath) shape).curveTo(347.199, 324.336, 348.126, 325.263, 348.126, 326.396);
        ((GeneralPath) shape).curveTo(348.126, 327.53, 347.199, 328.456, 346.065, 328.456);
        ((GeneralPath) shape).curveTo(344.933, 328.456, 344.006, 327.53, 344.006, 326.396);
        ((GeneralPath) shape).curveTo(344.006, 325.263, 344.933, 324.336, 346.065, 324.336);

        g.fill(shape);

        // _0_0_0_0_176
        shape = new GeneralPath();
        ((GeneralPath) shape).moveTo(346.065, 377.899);
        ((GeneralPath) shape).curveTo(347.199, 377.899, 348.126, 378.826, 348.126, 379.95898);
        ((GeneralPath) shape).curveTo(348.126, 381.093, 347.199, 382.01898, 346.065, 382.01898);
        ((GeneralPath) shape).curveTo(344.933, 382.01898, 344.006, 381.093, 344.006, 379.95898);
        ((GeneralPath) shape).curveTo(344.006, 378.826, 344.933, 377.899, 346.065, 377.899);

        g.fill(shape);

        // _0_0_0_0_177
        shape = new GeneralPath();
        ((GeneralPath) shape).moveTo(346.065, 351.118);
        ((GeneralPath) shape).curveTo(347.199, 351.118, 348.126, 352.045, 348.126, 353.178);
        ((GeneralPath) shape).curveTo(348.126, 354.312, 347.199, 355.238, 346.065, 355.238);
        ((GeneralPath) shape).curveTo(344.933, 355.238, 344.006, 354.312, 344.006, 353.178);
        ((GeneralPath) shape).curveTo(344.006, 352.045, 344.933, 351.118, 346.065, 351.118);

        g.fill(shape);

        // _0_0_0_0_178
        shape = new GeneralPath();
        ((GeneralPath) shape).moveTo(346.065, 337.727);
        ((GeneralPath) shape).curveTo(347.199, 337.727, 348.126, 338.655, 348.126, 339.788);
        ((GeneralPath) shape).curveTo(348.126, 340.91998, 347.199, 341.848, 346.065, 341.848);
        ((GeneralPath) shape).curveTo(344.933, 341.848, 344.006, 340.91998, 344.006, 339.788);
        ((GeneralPath) shape).curveTo(344.006, 338.655, 344.933, 337.727, 346.065, 337.727);

        g.fill(shape);

        // _0_0_0_0_179
        shape = new GeneralPath();
        ((GeneralPath) shape).moveTo(346.065, 315.142);
        ((GeneralPath) shape).curveTo(344.933, 315.142, 344.006, 314.082, 344.006, 313.082);
        ((GeneralPath) shape).lineTo(348.126, 313.082);
        ((GeneralPath) shape).curveTo(348.126, 314.082, 347.199, 315.142, 346.065, 315.142);

        g.fill(shape);

        // _0_0_0_0_180
        shape = new GeneralPath();
        ((GeneralPath) shape).moveTo(336.569, 384.863);
        ((GeneralPath) shape).curveTo(337.558, 384.863, 338.381, 385.66602, 338.381, 386.655);
        ((GeneralPath) shape).curveTo(338.381, 387.644, 337.558, 388.447, 336.569, 388.447);
        ((GeneralPath) shape).curveTo(335.58, 388.447, 334.775, 387.64398, 334.775, 386.655);
        ((GeneralPath) shape).curveTo(334.775, 385.666, 335.58, 384.863, 336.569, 384.863);

        g.fill(shape);

        // _0_0_0_0_181
        shape = new GeneralPath();
        ((GeneralPath) shape).moveTo(336.569, 358.061);
        ((GeneralPath) shape).curveTo(337.558, 358.061, 338.381, 358.884, 338.381, 359.87302);
        ((GeneralPath) shape).curveTo(338.381, 360.86102, 337.558, 361.687, 336.569, 361.687);
        ((GeneralPath) shape).curveTo(335.58, 361.687, 334.775, 360.86102, 334.775, 359.87302);
        ((GeneralPath) shape).curveTo(334.775, 358.884, 335.58, 358.061, 336.569, 358.061);

        g.fill(shape);

        // _0_0_0_0_182
        shape = new GeneralPath();
        ((GeneralPath) shape).moveTo(336.569, 398.253);
        ((GeneralPath) shape).curveTo(337.558, 398.253, 338.381, 399.05698, 338.381, 400.04498);
        ((GeneralPath) shape).curveTo(338.381, 401.033, 337.558, 401.83698, 336.569, 401.83698);
        ((GeneralPath) shape).curveTo(335.58, 401.83698, 334.775, 401.033, 334.775, 400.04498);
        ((GeneralPath) shape).curveTo(334.775, 399.05698, 335.58, 398.253, 336.569, 398.253);

        g.fill(shape);

        // _0_0_0_0_183
        shape = new GeneralPath();
        ((GeneralPath) shape).moveTo(336.569, 371.451);
        ((GeneralPath) shape).curveTo(337.558, 371.451, 338.381, 372.275, 338.381, 373.263);
        ((GeneralPath) shape).curveTo(338.381, 374.252, 337.558, 375.056, 336.569, 375.056);
        ((GeneralPath) shape).curveTo(335.58, 375.056, 334.775, 374.252, 334.775, 373.263);
        ((GeneralPath) shape).curveTo(334.775, 372.275, 335.58, 371.451, 336.569, 371.451);

        g.fill(shape);

        // _0_0_0_0_184
        shape = new GeneralPath();
        ((GeneralPath) shape).moveTo(336.569, 331.3);
        ((GeneralPath) shape).curveTo(337.558, 331.3, 338.381, 332.103, 338.381, 333.09198);
        ((GeneralPath) shape).curveTo(338.381, 334.08, 337.558, 334.90497, 336.569, 334.90497);
        ((GeneralPath) shape).curveTo(335.58, 334.90497, 334.775, 334.07996, 334.775, 333.09198);
        ((GeneralPath) shape).curveTo(334.775, 332.10297, 335.58, 331.3, 336.569, 331.3);

        g.fill(shape);

        // _0_0_0_0_185
        shape = new GeneralPath();
        ((GeneralPath) shape).moveTo(336.569, 344.669);
        ((GeneralPath) shape).curveTo(337.558, 344.669, 338.381, 345.493, 338.381, 346.48102);
        ((GeneralPath) shape).curveTo(338.381, 347.471, 337.558, 348.295, 336.569, 348.295);
        ((GeneralPath) shape).curveTo(335.58, 348.295, 334.775, 347.471, 334.775, 346.48102);
        ((GeneralPath) shape).curveTo(334.775, 345.493, 335.58, 344.669, 336.569, 344.669);

        g.fill(shape);

        // _0_0_0_0_186
        shape = new GeneralPath();
        ((GeneralPath) shape).moveTo(336.569, 317.909);
        ((GeneralPath) shape).curveTo(337.558, 317.909, 338.381, 318.712, 338.381, 319.701);
        ((GeneralPath) shape).curveTo(338.381, 320.689, 337.558, 321.49298, 336.569, 321.49298);
        ((GeneralPath) shape).curveTo(335.58, 321.49298, 334.775, 320.689, 334.775, 319.701);
        ((GeneralPath) shape).curveTo(334.775, 318.71198, 335.58, 317.909, 336.569, 317.909);

        g.fill(shape);

        // _0_0_0_0_187
        shape = new GeneralPath();
        ((GeneralPath) shape).moveTo(327.071, 365.023);
        ((GeneralPath) shape).curveTo(327.91702, 365.023, 328.61603, 365.725, 328.61603, 366.56802);
        ((GeneralPath) shape).curveTo(328.61603, 367.41403, 327.91702, 368.11304, 327.071, 368.11304);
        ((GeneralPath) shape).curveTo(326.22803, 368.11304, 325.527, 367.41403, 325.527, 366.56802);
        ((GeneralPath) shape).curveTo(325.527, 365.72504, 326.228, 365.023, 327.071, 365.023);

        g.fill(shape);

        // _0_0_0_0_188
        shape = new GeneralPath();
        ((GeneralPath) shape).moveTo(327.071, 378.414);
        ((GeneralPath) shape).curveTo(327.91702, 378.414, 328.61603, 379.116, 328.61603, 379.958);
        ((GeneralPath) shape).curveTo(328.61603, 380.805, 327.91702, 381.50302, 327.071, 381.50302);
        ((GeneralPath) shape).curveTo(326.22803, 381.50302, 325.527, 380.80502, 325.527, 379.958);
        ((GeneralPath) shape).curveTo(325.527, 379.116, 326.228, 378.414, 327.071, 378.414);

        g.fill(shape);

        // _0_0_0_0_189
        shape = new GeneralPath();
        ((GeneralPath) shape).moveTo(327.071, 391.805);
        ((GeneralPath) shape).curveTo(327.91702, 391.805, 328.61603, 392.50598, 328.61603, 393.35);
        ((GeneralPath) shape).curveTo(328.61603, 394.195, 327.91702, 394.89502, 327.071, 394.89502);
        ((GeneralPath) shape).curveTo(326.22803, 394.89502, 325.527, 394.195, 325.527, 393.35);
        ((GeneralPath) shape).curveTo(325.527, 392.506, 326.228, 391.805, 327.071, 391.805);

        g.fill(shape);

        // _0_0_0_0_190
        shape = new GeneralPath();
        ((GeneralPath) shape).moveTo(327.071, 338.242);
        ((GeneralPath) shape).curveTo(327.91702, 338.242, 328.61603, 338.943, 328.61603, 339.78702);
        ((GeneralPath) shape).curveTo(328.61603, 340.63202, 327.91702, 341.33102, 327.071, 341.33102);
        ((GeneralPath) shape).curveTo(326.22803, 341.33102, 325.527, 340.63202, 325.527, 339.78702);
        ((GeneralPath) shape).curveTo(325.527, 338.94302, 326.228, 338.242, 327.071, 338.242);

        g.fill(shape);

        // _0_0_0_0_191
        shape = new GeneralPath();
        ((GeneralPath) shape).moveTo(327.071, 324.851);
        ((GeneralPath) shape).curveTo(327.91702, 324.851, 328.61603, 325.552, 328.61603, 326.39603);
        ((GeneralPath) shape).curveTo(328.61603, 327.24103, 327.91702, 327.94104, 327.071, 327.94104);
        ((GeneralPath) shape).curveTo(326.22803, 327.94104, 325.527, 327.24103, 325.527, 326.39603);
        ((GeneralPath) shape).curveTo(325.527, 325.55203, 326.228, 324.851, 327.071, 324.851);

        g.fill(shape);

        // _0_0_0_0_192
        shape = new GeneralPath();
        ((GeneralPath) shape).moveTo(327.071, 351.632);
        ((GeneralPath) shape).curveTo(327.91702, 351.632, 328.61603, 352.33298, 328.61603, 353.177);
        ((GeneralPath) shape).curveTo(328.61603, 354.022, 327.91702, 354.72202, 327.071, 354.72202);
        ((GeneralPath) shape).curveTo(326.22803, 354.72202, 325.527, 354.022, 325.527, 353.177);
        ((GeneralPath) shape).curveTo(325.527, 352.333, 326.228, 351.632, 327.071, 351.632);

        g.fill(shape);

        // _0_0_0_0_193
        shape = new GeneralPath();
        ((GeneralPath) shape).moveTo(327.071, 314.626);
