package com.pump.awt.geom.clipart;

import java.awt.*;
import java.awt.geom.AffineTransform;
import java.awt.geom.GeneralPath;

import static java.awt.Color.BLACK;
import static java.awt.Color.GRAY;

/**
 * This class has been automatically generated using
 * <a href="http://ebourg.github.io/flamingo-svg-transcoder/">Flamingo SVG transcoder</a>.
 * <p>
 * Source image: https://openclipart.org/detail/329618/boy-and-girl-students-colour-remix
 * </p>
 */
public class Students implements javax.swing.Icon {

    /** The width of this icon. */
    private int width;

    /** The height of this icon. */
    private int height;

    /**
     * Creates a new transcoded SVG image.
     */
    public Students() {
        this(1000, 1000);
    }

    /**
     * Creates a new transcoded SVG image.
     */
    public Students(int width, int height) {
        this.width = width;
        this.height = height;
    }

    @Override
    public int getIconHeight() {
        return height;
    }

    @Override
    public int getIconWidth() {
        return width;
    }

    @Override
    public void paintIcon(Component c, Graphics g, int x, int y) {
        double coef = Math.min((double) width / (double) 1, (double) height / (double) 1);

        Graphics2D g2d = (Graphics2D) g.create();
        g2d.translate(x, y);
        g2d.setRenderingHint(RenderingHints.KEY_ANTIALIASING, RenderingHints.VALUE_ANTIALIAS_ON);
        g2d.scale(coef, coef);
        paint(g2d);
        g2d.dispose();
    }

    /**
     * Paints the transcoded SVG image on the specified graphics context.
     * 
     * @param g Graphics context.
     */
    private static void paint(Graphics2D g) {
        Shape shape = null;
        
        float origAlpha = 1.0f;
        
        java.util.LinkedList<AffineTransform> transformations = new java.util.LinkedList<AffineTransform>();
        

        // 
        transformations.push(g.getTransform());
        g.transform(new AffineTransform(5.2083336E-4f, 0, 0, 5.2083336E-4f, 2.6041668E-4f, 0));

        // _0

        // _0_0

        // _0_0_0

        // _0_0_0_0
        shape = new GeneralPath();
        ((GeneralPath) shape).moveTo(970.24, 42.07);
        ((GeneralPath) shape).curveTo(1005.2969, 30.4473, 1050.7037, 41.0571, 1078.4832, 64.685);
        ((GeneralPath) shape).curveTo(1107.8374, 89.6523, 1107.6775, 131.45819, 1101.4498, 166.1364);
        ((GeneralPath) shape).curveTo(1100.0348, 174.0161, 1090.5084, 177.4652, 1093.8826, 186.8725);
        ((GeneralPath) shape).curveTo(1096.1816, 193.2826, 1104.4048, 199.16629, 1110.69, 193.7);
        ((GeneralPath) shape).curveTo(1117.0226, 188.6212, 1120.5238, 181.2058, 1128.03, 177.4988);
        ((GeneralPath) shape).curveTo(1138.0409, 172.55469, 1146.6499, 163.6648, 1155.942, 157.3824);
        ((GeneralPath) shape).curveTo(1190.2551, 134.1833, 1229.3866, 118.363, 1269.514, 108.491196);
        ((GeneralPath) shape).curveTo(1310.8616, 98.3193, 1350.3517, 100.1644, 1390.9952, 112.015);
        ((GeneralPath) shape).curveTo(1395.1754, 113.2338, 1399.3811, 114.6261, 1402.94, 117.229996);
        ((GeneralPath) shape).curveTo(1401.2214, 120.8856, 1398.7583, 124.638596, 1399.42, 128.92);
        ((GeneralPath) shape).curveTo(1400.8456, 137.9814, 1408.9193, 138.7997, 1416.5073, 141.7735);
        ((GeneralPath) shape).curveTo(1434.3495, 148.7661, 1450.4642, 159.5007, 1466.7032, 169.4791);
        ((GeneralPath) shape).curveTo(1472.5839, 173.09259, 1482.6898, 181.5444, 1477.36, 189.48);
        ((GeneralPath) shape).curveTo(1473.4236, 195.8826, 1464.2361, 198.4922, 1457.6993, 201.1314);
        ((GeneralPath) shape).curveTo(1439.9467, 208.29909, 1422.6854, 208.7918, 1408.7756, 223.77759);
        ((GeneralPath) shape).curveTo(1395.8201, 237.73518, 1381.873, 242.85349, 1365.2887, 251.42479);
        ((GeneralPath) shape).curveTo(1346.3329, 261.2216, 1340.1195, 279.5341, 1335.5011, 299.1424);
        ((GeneralPath) shape).curveTo(1333.1167, 309.2658, 1328.198, 319.2413, 1317.0308, 309.8242);
        ((GeneralPath) shape).curveTo(1307.8711, 302.1001, 1301.4785, 291.6687, 1291.913, 284.2256);
        ((GeneralPath) shape).curveTo(1272.2827, 268.9509, 1246.4114, 264.84518, 1228.2042, 284.69888);
        ((GeneralPath) shape).curveTo(1209.7058, 304.87018, 1204.6985, 331.72208, 1213.0554, 357.4568);
        ((GeneralPath) shape).curveTo(1217.1146, 369.95688, 1223.5109, 380.99518, 1230.1925, 392.23248);
        ((GeneralPath) shape).curveTo(1235.8254, 401.7061, 1247.3618, 413.7613, 1249.02, 424.93997);
        ((GeneralPath) shape).curveTo(1234.6443, 426.5269, 1217.9941, 421.03226, 1204.237, 426.02927);
        ((GeneralPath) shape).curveTo(1191.5046, 430.65396, 1180.7645, 439.36798, 1167.02, 441.44995);
        ((GeneralPath) shape).curveTo(1162.0546, 441.35596, 1158.509, 437.74905, 1155.9435, 433.89417);
        ((GeneralPath) shape).curveTo(1152.0275, 428.01007, 1148.8328, 426.14618, 1141.9872, 424.40646);
        ((GeneralPath) shape).curveTo(1131.5369, 421.75055, 1120.6088, 401.85306, 1112.8221, 393.97177);
        ((GeneralPath) shape).curveTo(1093.5112, 374.42667, 1070.7249, 355.08826, 1067.6855, 325.95407);
        ((GeneralPath) shape).curveTo(1064.2432, 292.95538, 1083.7013, 264.93457, 1090.7465, 233.99797);
        ((GeneralPath) shape).curveTo(1097.0663, 206.24707, 1093.203, 172.96518, 1070.3978, 153.52997);
        ((GeneralPath) shape).curveTo(1060.0178, 144.68376, 1046.0273, 136.81827, 1032.09, 136.78996);
        ((GeneralPath) shape).curveTo(1016.57965, 138.74527, 1002.8606, 146.17996, 990.3799, 155.26076);
        ((GeneralPath) shape).curveTo(967.25226, 172.08806, 952.47, 193.97595, 941.4195, 220.05606);
        ((GeneralPath) shape).curveTo(929.8936, 247.25816, 921.4334, 282.22427, 897.7701, 301.86996);
        ((GeneralPath) shape).curveTo(895.22406, 297.95477, 897.8348, 289.42596, 898.14777, 285.09357);
        ((GeneralPath) shape).curveTo(898.6236, 278.50787, 899.3241, 271.91568, 899.08887, 265.30228);
        ((GeneralPath) shape).curveTo(898.5857, 251.15138, 897.39667, 237.05487, 895.2928, 223.04678);
        ((GeneralPath) shape).curveTo(891.1363, 195.37189, 883.154, 167.83888, 884.3263, 139.67328);
        ((GeneralPath) shape).curveTo(886.3441, 91.1932, 925.0228, 53.7745, 970.24, 42.07);
        ((GeneralPath) shape).curveTo(979.53, 38.99, 953.01, 46.53, 970.24, 42.07);
        ((GeneralPath) shape).closePath();

        g.setPaint(new Color(0x925A4C));
        g.fill(shape);
        g.setStroke(new BasicStroke(3, 0, 0, 4));
        g.draw(shape);

        // _0_0_0_1
        shape = new GeneralPath();
        ((GeneralPath) shape).moveTo(463.82, 167.69);
        ((GeneralPath) shape).curveTo(474.8923, 162.0337, 484.51062, 153.08191, 497.0, 150.53);
        ((GeneralPath) shape).curveTo(502.5081, 149.2175, 503.8933, 153.1371, 503.5756, 157.8311);
        ((GeneralPath) shape).curveTo(503.0749, 165.2284, 503.9492, 170.8055, 510.6073, 175.0501);
        ((GeneralPath) shape).curveTo(520.5014, 181.35759, 539.7918, 173.37059, 550.5912, 171.43689);
        ((GeneralPath) shape).curveTo(560.2368, 169.7098, 579.924, 163.8503, 589.16, 168.82999);
        ((GeneralPath) shape).curveTo(584.5766, 174.37988, 576.25806, 175.8926, 573.05, 182.73999);
        ((GeneralPath) shape).curveTo(570.9015, 189.71669, 574.05597, 198.5573, 581.1013, 201.4327);
        ((GeneralPath) shape).curveTo(595.1149, 207.152, 629.81384, 197.30739, 637.81, 213.29999);
        ((GeneralPath) shape).curveTo(638.7313, 216.50919, 629.3492, 230.0351, 626.4938, 231.19128);
        ((GeneralPath) shape).curveTo(618.5478, 234.40858, 612.219, 238.49849, 605.1377, 243.28818);
        ((GeneralPath) shape).curveTo(598.3281, 247.89407, 591.0521, 248.79738, 583.7896, 252.06378);
        ((GeneralPath) shape).curveTo(573.6919, 256.6053, 578.6326, 266.86087, 574.52, 274.62);
        ((GeneralPath) shape).curveTo(570.5145, 284.0227, 574.2039, 287.6312, 574.45, 296.94);
        ((GeneralPath) shape).curveTo(571.0406, 307.0678, 566.8154, 307.8147, 559.0899, 313.6797);
        ((GeneralPath) shape).curveTo(543.4396, 325.5612, 539.0295, 346.77148, 536.2857, 365.0589);
        ((GeneralPath) shape).curveTo(535.9296, 367.4319, 534.0365, 390.6372, 530.23, 388.13);
        ((GeneralPath) shape).curveTo(521.49316, 383.6116, 512.3468, 379.7492, 502.74, 377.52002);
        ((GeneralPath) shape).curveTo(482.94238, 373.6209, 459.6334, 374.97812, 443.7753, 388.76413);
        ((GeneralPath) shape).curveTo(429.8307, 400.88663, 424.809, 419.67343, 426.8015, 437.60742);
        ((GeneralPath) shape).curveTo(427.82993, 446.86343, 430.6603, 455.2849, 433.6072, 464.02972);
        ((GeneralPath) shape).curveTo(435.47882, 469.58353, 433.10532, 469.13852, 428.97382, 472.08884);
        ((GeneralPath) shape).curveTo(425.72043, 474.41214, 422.0855, 480.78964, 418.06003, 481.45013);
        ((GeneralPath) shape).curveTo(409.80594, 477.76373, 403.01404, 470.60803, 393.41003, 476.43015);
        ((GeneralPath) shape).curveTo(384.87253, 481.05963, 384.25723, 489.03934, 386.99445, 497.56055);
        ((GeneralPath) shape).curveTo(390.69516, 509.08136, 379.23035, 500.15665, 374.75116, 497.27826);
        ((GeneralPath) shape).curveTo(366.18585, 491.77405, 358.07346, 485.21786, 352.30997, 476.72015);
        ((GeneralPath) shape).curveTo(329.46667, 446.77295, 335.46176, 400.13855, 307.71518, 373.70676);
        ((GeneralPath) shape).curveTo(304.85278, 370.97995, 301.44318, 368.86896, 298.86, 365.84015);
        ((GeneralPath) shape).curveTo(298.7388, 361.11465, 300.07617, 356.53625, 301.14517, 351.99005);
        ((GeneralPath) shape).curveTo(303.28418, 342.89246, 305.38586, 333.29294, 306.48007, 324.01016);
        ((GeneralPath) shape).curveTo(310.54398, 297.19678, 272.60406, 313.53195, 261.43008, 315.62015);
        ((GeneralPath) shape).curveTo(260.72128, 297.19046, 285.34558, 273.97534, 297.5901, 262.60016);
        ((GeneralPath) shape).curveTo(306.91168, 255.12086, 316.0369, 247.74326, 325.7836, 240.80836);
        ((GeneralPath) shape).curveTo(334.9462, 234.28906, 339.7441, 227.61917, 336.4301, 216.02017);
        ((GeneralPath) shape).curveTo(343.1091, 228.04578, 357.7052, 233.75867, 365.1733, 219.59647);
        ((GeneralPath) shape).curveTo(372.9461, 204.85657, 376.1235, 183.54097, 386.7701, 170.88016);
        ((GeneralPath) shape).curveTo(395.6915, 189.03836, 405.0963, 189.30806, 419.62762, 175.92996);
        ((GeneralPath) shape).curveTo(425.36472, 170.64816, 432.87253, 162.98686, 441.0136, 161.86057);
        ((GeneralPath) shape).curveTo(449.6579, 160.6646, 454.87, 171.8859, 463.82, 167.69);
        ((GeneralPath) shape).curveTo(474.88, 162.04, 459.17, 169.87, 463.82, 167.69);
        ((GeneralPath) shape).closePath();

        g.setPaint(new Color(0x9C6152));
        g.fill(shape);
        g.setStroke(new BasicStroke(1, 0, 0, 4));
        g.draw(shape);

        // _0_0_0_2
        shape = new GeneralPath();
        ((GeneralPath) shape).moveTo(1444.38, 237.5);
        ((GeneralPath) shape).curveTo(1456.1301, 233.8333, 1477.5752, 224.8063, 1482.879, 240.4469);
        ((GeneralPath) shape).curveTo(1488.4435, 256.8565, 1490.0134, 275.0362, 1492.8691, 292.0505);
        ((GeneralPath) shape).curveTo(1495.4835, 307.6272, 1499.7697, 322.9218, 1508.59, 336.19632);
        ((GeneralPath) shape).curveTo(1512.4097, 341.94482, 1517.4595, 346.44763, 1522.3696, 351.2278);
        ((GeneralPath) shape).curveTo(1528.5536, 357.2482, 1516.898, 364.22983, 1512.4409, 368.8403);
        ((GeneralPath) shape).curveTo(1500.6376, 381.0503, 1493.2014, 392.7488, 1487.1783, 408.66492);
        ((GeneralPath) shape).curveTo(1484.1384, 416.6979, 1481.6194, 424.91483, 1479.2085, 433.15442);
        ((GeneralPath) shape).curveTo(1476.767, 441.4985, 1477.2122, 453.6719, 1466.0702, 450.70673);
        ((GeneralPath) shape).curveTo(1448.3262, 445.98453, 1435.658, 432.90833, 1421.4171, 422.21384);
        ((GeneralPath) shape).curveTo(1416.9886, 418.88824, 1411.0247, 414.03073, 1405.1051, 414.51004);
        ((GeneralPath) shape).curveTo(1397.7723, 415.10385, 1394.0465, 421.27094, 1397.0336, 427.84094);
        ((GeneralPath) shape).curveTo(1402.6646, 440.22626, 1415.1613, 451.91043, 1425.4713, 460.38416);
        ((GeneralPath) shape).curveTo(1431.5939, 465.41617, 1438.1642, 469.92776, 1445.2, 473.58997);
        ((GeneralPath) shape).curveTo(1453.4346, 477.24097, 1465.0757, 477.83456, 1457.3733, 488.23477);
        ((GeneralPath) shape).curveTo(1448.9236, 499.64417, 1437.6655, 509.6667, 1423.544, 513.10046);
        ((GeneralPath) shape).curveTo(1406.4208, 517.26404, 1389.5482, 509.08487, 1374.3329, 502.05737);
        ((GeneralPath) shape).curveTo(1368.6345, 499.42548, 1365.7712, 494.45648, 1358.9788, 494.44128);
        ((GeneralPath) shape).curveTo(1351.8583, 494.4253, 1345.7903, 491.745, 1339.0869, 489.64987);
        ((GeneralPath) shape).curveTo(1332.2347, 487.50836, 1322.037, 482.64948, 1314.93, 485.71167);
        ((GeneralPath) shape).curveTo(1307.366, 488.97086, 1303.9521, 497.33517, 1304.666, 505.13086);
        ((GeneralPath) shape).curveTo(1305.2944, 511.99277, 1309.065, 517.08154, 1315.4918, 519.52814);
        ((GeneralPath) shape).curveTo(1319.6693, 521.1184, 1324.1382, 521.97784, 1328.03, 524.2799);
        ((GeneralPath) shape).curveTo(1326.7072, 528.6992, 1324.659, 532.842, 1322.8215, 537.05634);
        ((GeneralPath) shape).curveTo(1315.6328, 553.5427, 1313.9407, 571.40015, 1311.07, 588.9099);
        ((GeneralPath) shape).curveTo(1297.7418, 586.8173, 1284.5859, 574.81433, 1273.8168, 567.1963);
        ((GeneralPath) shape).curveTo(1261.3392, 558.3698, 1247.0702, 550.3192, 1235.5387, 540.3887);
        ((GeneralPath) shape).curveTo(1230.9358, 536.42474, 1225.6603, 533.7298, 1220.2875, 530.9662);
        ((GeneralPath) shape).curveTo(1210.5319, 525.9482, 1214.2452, 524.2641, 1213.3328, 515.0003);
        ((GeneralPath) shape).curveTo(1212.7195, 508.7738, 1208.2446, 504.1818, 1202.7863, 501.6762);
        ((GeneralPath) shape).curveTo(1196.5726, 498.8239, 1190.6615, 499.3449, 1195.1038, 491.4025);
        ((GeneralPath) shape).curveTo(1201.0621, 480.7494, 1202.8711, 469.1125, 1215.9926, 466.96008);
        ((GeneralPath) shape).curveTo(1232.3633, 464.27478, 1248.9991, 463.5022, 1265.1411, 459.4585);
        ((GeneralPath) shape).curveTo(1276.3845, 456.6419, 1292.2372, 453.4916, 1293.61, 439.6287);
        ((GeneralPath) shape).curveTo(1295.1847, 423.7272, 1280.8265, 411.8707, 1272.3606, 400.15988);
        ((GeneralPath) shape).curveTo(1264.6246, 389.45877, 1256.0742, 376.4084, 1250.5101, 364.4654);
        ((GeneralPath) shape).curveTo(1243.6978, 349.843, 1249.797, 337.3623, 1263.2468, 329.6123);
        ((GeneralPath) shape).curveTo(1268.1036, 326.8137, 1273.5784, 324.33832, 1279.0012, 322.86612);
        ((GeneralPath) shape).curveTo(1284.8188, 321.2868, 1290.589, 329.0519, 1294.3318, 332.50272);
        ((GeneralPath) shape).curveTo(1305.3262, 342.6393, 1318.0991, 356.30533, 1334.3578, 356.2661);
        ((GeneralPath) shape).curveTo(1365.2771, 356.19153, 1366.697, 308.2522, 1383.6454, 290.3026);
        ((GeneralPath) shape).curveTo(1393.2178, 280.16483, 1405.3605, 275.21143, 1416.1519, 266.923);
        ((GeneralPath) shape).curveTo(1426.3777, 259.0691, 1431.5826, 241.5655, 1444.38, 237.5);
        ((GeneralPath) shape).moveTo(1454.44, 308.64);
        ((GeneralPath) shape).curveTo(1445.5896, 311.07452, 1429.7649, 318.8561, 1434.08, 330.81003);
        ((GeneralPath) shape).curveTo(1435.6537, 334.63892, 1440.3752, 336.38242, 1440.93, 340.76004);
        ((GeneralPath) shape).curveTo(1441.923, 345.91714, 1443.7633, 353.80173, 1449.2994, 355.98233);
        ((GeneralPath) shape).curveTo(1475.7064, 366.384, 1477.2772, 302.9201, 1454.44, 308.64);
        ((GeneralPath) shape).curveTo(1447.86, 310.45, 1459.83, 307.29, 1454.44, 308.64);
        ((GeneralPath) shape).closePath();

        g.setPaint(new Color(0xFCE4D2));
        g.fill(shape);
        g.setStroke(new BasicStroke(3, 0, 0, 4));
        g.draw(shape);

        // _0_0_0_3
        shape = new GeneralPath();
        ((GeneralPath) shape).moveTo(645.01, 265.33);
        ((GeneralPath) shape).curveTo(655.0658, 266.75, 659.9074, 259.5811, 660.5178, 273.21558);
        ((GeneralPath) shape).curveTo(661.0374, 284.82156, 662.50024, 296.25848, 663.56934, 307.80817);
        ((GeneralPath) shape).curveTo(665.74506, 331.31256, 671.38983, 355.53406, 681.00903, 377.12466);
        ((GeneralPath) shape).curveTo(690.3275, 398.04056, 704.0415, 415.90686, 719.965, 432.22638);
        ((GeneralPath) shape).curveTo(725.1793, 437.57037, 735.6702, 445.37427, 735.90076, 453.63547);
        ((GeneralPath) shape).curveTo(736.16144, 462.97858, 720.4877, 464.73108, 714.01855, 466.74896);
        ((GeneralPath) shape).curveTo(690.91077, 473.95685, 690.57983, 491.31845, 687.61035, 512.24445);
        ((GeneralPath) shape).curveTo(686.80444, 517.92377, 687.03394, 520.77673, 680.60077, 521.2377);
        ((GeneralPath) shape).curveTo(674.2594, 521.69196, 667.28156, 520.493, 661.13446, 518.9919);
        ((GeneralPath) shape).curveTo(650.9897, 516.51447, 640.67035, 513.32166, 632.67993, 506.3101);
        ((GeneralPath) shape).curveTo(628.0426, 502.1846, 614.4603, 491.7515, 610.30786, 501.43478);
        ((GeneralPath) shape).curveTo(606.64935, 509.9662, 616.04443, 519.22327, 621.66, 524.3401);
        ((GeneralPath) shape).curveTo(637.1396, 539.2413, 655.2599, 544.68286, 675.74, 548.82007);
        ((GeneralPath) shape).curveTo(675.0255, 564.03656, 650.1455, 569.80176, 639.31, 573.23004);
        ((GeneralPath) shape).curveTo(621.7889, 577.6304, 602.2306, 576.0825, 587.4531, 588.05457);
        ((GeneralPath) shape).curveTo(580.52625, 593.66644, 575.6762, 600.9429, 572.2512, 609.11365);
        ((GeneralPath) shape).curveTo(569.60785, 615.4197, 569.3419, 629.2363, 561.06323, 626.81104);
        ((GeneralPath) shape).curveTo(544.05835, 621.8294, 526.52106, 618.4619, 509.60513, 613.2954);
        ((GeneralPath) shape).curveTo(492.75253, 608.1482, 476.95032, 599.6664, 462.24353, 590.101);
        ((GeneralPath) shape).curveTo(455.18533, 585.5103, 447.57794, 581.9267, 440.4702, 577.4391);
        ((GeneralPath) shape).curveTo(434.03732, 573.37756, 446.0422, 561.17706, 448.6176, 554.8163);
        ((GeneralPath) shape).curveTo(451.9345, 546.6241, 452.55173, 537.5785, 450.11322, 529.06616);
        ((GeneralPath) shape).curveTo(448.4645, 523.31116, 440.48553, 515.4922, 444.55853, 509.47336);
        ((GeneralPath) shape).curveTo(453.06842, 496.89807, 476.91812, 499.03757, 474.78012, 478.93997);
        ((GeneralPath) shape).curveTo(474.9634, 472.39227, 468.1444, 466.73917, 465.39383, 461.26517);
        ((GeneralPath) shape).curveTo(461.31372, 453.14548, 460.14514, 443.62067, 462.45972, 434.78748);
        ((GeneralPath) shape).curveTo(464.68512, 426.29446, 469.78983, 418.69888, 475.45712, 412.10968);
        ((GeneralPath) shape).curveTo(482.65622, 403.7396, 491.36722, 405.57837, 501.15942, 409.0568);
        ((GeneralPath) shape).curveTo(509.4471, 412.0007, 517.49384, 416.8, 524.1516, 422.5478);
        ((GeneralPath) shape).curveTo(529.992, 427.59, 533.9207, 434.50778, 541.6001, 437.0901);
        ((GeneralPath) shape).curveTo(561.8505, 442.27338, 561.6599, 420.2915, 562.6801, 406.93008);
        ((GeneralPath) shape).curveTo(564.6804, 388.21747, 565.76904, 369.08307, 572.3401, 351.26007);
        ((GeneralPath) shape).curveTo(577.3149, 339.42886, 582.09906, 343.79886, 591.8001, 340.84006);
        ((GeneralPath) shape).curveTo(598.07654, 339.66425, 606.9318, 332.93277, 611.5501, 328.56006);
        ((GeneralPath) shape).curveTo(617.15173, 323.40787, 618.7538, 315.63644, 615.51514, 308.81006);
        ((GeneralPath) shape).curveTo(611.6928, 300.75385, 615.17676, 296.05096, 613.90576, 287.65594);
        ((GeneralPath) shape).curveTo(612.89594, 280.98654, 623.30615, 281.23013, 627.0915, 274.55875);
        ((GeneralPath) shape).curveTo(630.0405, 269.3609, 638.8625, 264.2517, 645.01, 265.33);
        ((GeneralPath) shape).moveTo(633.52, 378.79);
        ((GeneralPath) shape).curveTo(628.14435, 379.5434, 618.56995, 391.47852, 618.5844, 396.6456);
        ((GeneralPath) shape).curveTo(618.6023, 403.0123, 632.9323, 414.3894, 638.8563, 415.4548);
        ((GeneralPath) shape).curveTo(664.5073, 420.0682, 653.3143, 374.5445, 633.52, 378.79);
        ((GeneralPath) shape).curveTo(627.17, 379.68, 637.25, 377.99, 633.52, 378.79);
        ((GeneralPath) shape).closePath();

        g.fill(shape);
        g.draw(shape);

        // _0_0_0_4
        shape = new GeneralPath();
        ((GeneralPath) shape).moveTo(1003.21, 520.35);
        ((GeneralPath) shape).curveTo(1028.0358, 516.3786, 1053.0168, 512.7652, 1078.1965, 512.31226);
        ((GeneralPath) shape).curveTo(1090.7067, 512.0873, 1103.468, 512.08563, 1115.9314, 513.2698);
        ((GeneralPath) shape).curveTo(1131.0308, 514.70435, 1113.5062, 528.5133, 1109.793, 533.1482);
        ((GeneralPath) shape).curveTo(1107.6882, 535.77527, 1106.6775, 539.78577, 1106.7727, 543.1132);
        ((GeneralPath) shape).curveTo(1106.8804, 546.8786, 1111.722, 553.8592, 1110.3285, 557.1449);
        ((GeneralPath) shape).curveTo(1106.6035, 565.9284, 1094.0911, 574.3275, 1088.2631, 582.2864);
        ((GeneralPath) shape).curveTo(1081.7369, 591.1988, 1076.0757, 600.7243, 1071.0859, 610.57306);
        ((GeneralPath) shape).curveTo(1068.2227, 616.22473, 1062.4872, 638.4338, 1056.41, 640.24994);
        ((GeneralPath) shape).curveTo(1055.7982, 616.53925, 1052.5868, 593.15485, 1042.3414, 571.512);
        ((GeneralPath) shape).curveTo(1037.5708, 561.43414, 1031.2596, 552.2218, 1024.1499, 543.65735);
        ((GeneralPath) shape).curveTo(1017.3696, 535.4896, 1007.73193, 530.13837, 1001.2, 522.02);
        ((GeneralPath) shape).curveTo(1001.86993, 521.4632, 1002.5399, 520.9066, 1003.2099, 520.3499);
        ((GeneralPath) shape).curveTo(1031.5898, 515.80994, 1002.0399, 520.3499, 1003.2099, 520.3499);
        ((GeneralPath) shape).closePath();

        g.setPaint(GRAY);
        g.fill(shape);
        g.setStroke(new BasicStroke(1, 0, 0, 4));
        g.draw(shape);

        // _0_0_0_5
        shape = new GeneralPath();
        ((GeneralPath) shape).moveTo(913.73, 542.78);
        ((GeneralPath) shape).curveTo(949.19336, 530.25964, 994.49817, 546.47705, 1013.46606, 579.50995);
        ((GeneralPath) shape).curveTo(1022.64325, 595.49225, 1023.707, 613.01654, 1023.65985, 631.00006);
        ((GeneralPath) shape).curveTo(1023.77094, 653.8722, 1022.28015, 675.9172, 1018.2344, 698.45483);
        ((GeneralPath) shape).curveTo(1010.70746, 740.38477, 998.6974, 781.77936, 993.67645, 824.1113);
        ((GeneralPath) shape).curveTo(988.7056, 866.0211, 982.8378, 907.80334, 979.19934, 949.867);
        ((GeneralPath) shape).curveTo(978.27515, 960.5514, 977.55566, 971.2576, 977.27985, 981.98);
        ((GeneralPath) shape).curveTo(976.57745, 987.1307, 976.71454, 992.3356, 976.63837, 997.5169);
        ((GeneralPath) shape).curveTo(976.53925, 1004.2531, 978.4847, 1007.8306, 970.7939, 1008.2211);
        ((GeneralPath) shape).curveTo(948.84106, 1009.33563, 926.9856, 1009.1358, 905.04987, 1011.2501);
        ((GeneralPath) shape).curveTo(884.39825, 1011.51984, 863.80255, 1013.8173, 843.16394, 1014.64484);
        ((GeneralPath) shape).curveTo(833.6638, 1015.0258, 824.11456, 1015.70575, 814.60486, 1015.6801);
        ((GeneralPath) shape).curveTo(808.2283, 1015.6631, 806.1185, 1016.4614, 806.16235, 1009.3227);
        ((GeneralPath) shape).curveTo(806.20593, 1002.2111, 807.32526, 995.1712, 807.70984, 988.0801);
        ((GeneralPath) shape).curveTo(810.0432, 944.6485, 813.6079, 901.14996, 818.04913, 857.89526);
        ((GeneralPath) shape).curveTo(822.5695, 813.86835, 834.3289, 771.03674, 846.79614, 728.69366);
        ((GeneralPath) shape).curveTo(851.8842, 711.41254, 856.8101, 694.12756, 861.4747, 676.72876);
        ((GeneralPath) shape).curveTo(863.67365, 668.52625, 865.08307, 659.1244, 857.45135, 653.14636);
        ((GeneralPath) shape).curveTo(849.98486, 647.2978, 853.32764, 644.1642, 856.32587, 635.4684);
        ((GeneralPath) shape).curveTo(863.02014, 616.0527, 867.51526, 596.03186, 875.29724, 576.9598);
        ((GeneralPath) shape).curveTo(882.0015, 560.5287, 897.94867, 549.6268, 913.7299, 542.77997);
        ((GeneralPath) shape).moveTo(994.43994, 661.62994);
        ((GeneralPath) shape).curveTo(964.70374, 667.934, 934.1411, 666.5778, 903.94977, 666.4401);
        ((GeneralPath) shape).curveTo(893.32495, 666.3916, 876.70276, 664.27234, 874.46216, 678.73914);
        ((GeneralPath) shape).curveTo(872.50116, 691.40063, 873.1517, 703.8837, 870.9825, 716.69617);
        ((GeneralPath) shape).curveTo(866.26965, 744.532, 860.996, 772.42944, 858.2049, 800.55084);
        ((GeneralPath) shape).curveTo(855.6993, 825.7946, 855.0957, 856.5596, 874.1814, 876.0067);
        ((GeneralPath) shape).curveTo(892.2527, 894.4203, 923.1335, 894.28973, 943.3687, 879.8573);
        ((GeneralPath) shape).curveTo(964.64954, 864.6791, 976.2361, 838.2578, 984.66943, 814.3965);
        ((GeneralPath) shape).curveTo(994.5728, 786.3753, 1000.60913, 757.00507, 1005.91925, 727.8211);
        ((GeneralPath) shape).curveTo(1008.35614, 714.42773, 1027.5958, 651.3374, 994.44006, 661.6299);
        ((GeneralPath) shape).curveTo(959.44006, 669.04987, 998.66003, 660.3199, 994.44006, 661.6299);
        ((GeneralPath) shape).closePath();

        g.fill(shape);
        g.draw(shape);

        // _0_0_0_6
        shape = new GeneralPath();
        ((GeneralPath) shape).moveTo(1166.19, 549.17);
        ((GeneralPath) shape).curveTo(1174.4695, 544.7052, 1177.7546, 543.7106, 1187.278, 546.41156);
        ((GeneralPath) shape).curveTo(1197.467, 549.30133, 1207.1152, 553.86456, 1216.2013, 559.2637);
        ((GeneralPath) shape).curveTo(1224.0886, 563.9505, 1229.7758, 570.78766, 1237.31, 575.7001);
        ((GeneralPath) shape).curveTo(1246.0098, 581.47986, 1254.7069, 587.44727, 1261.98, 595.0101);
        ((GeneralPath) shape).curveTo(1244.2563, 590.57916, 1228.5881, 579.3262, 1211.5708, 573.09515);
        ((GeneralPath) shape).curveTo(1202.3861, 569.73224, 1193.0518, 566.50574, 1183.5045, 564.3234);
        ((GeneralPath) shape).curveTo(1174.6005, 562.28815, 1159.738, 564.13824, 1152.05, 559.4099);
        ((GeneralPath) shape).curveTo(1156.1895, 555.2506, 1161.419, 552.4937, 1166.1901, 549.1699);
        ((GeneralPath) shape).curveTo(1170.0101, 547.1099, 1161.4102, 552.49994, 1166.1901, 549.1699);
        ((GeneralPath) shape).closePath();

        g.fill(shape);
        g.draw(shape);

        // _0_0_0_7
        shape = new GeneralPath();
        ((GeneralPath) shape).moveTo(281.52, 576.26);
        ((GeneralPath) shape).curveTo(298.216, 575.2845, 314.8531, 578.2284, 331.1297, 581.61273);
        ((GeneralPath) shape).curveTo(344.0665, 584.30255, 363.9213, 585.66705, 375.18, 592.85004);
        ((GeneralPath) shape).curveTo(368.5857, 603.90405, 352.1784, 611.609, 343.0629, 620.96533);
        ((GeneralPath) shape).curveTo(338.9345, 625.20276, 321.3112, 652.64136, 316.37, 651.83);
        ((GeneralPath) shape).curveTo(312.3142, 637.7804, 310.48178, 623.88934, 304.32, 610.38);
        ((GeneralPath) shape).curveTo(298.4556, 597.5227, 287.9536, 588.3903, 281.52, 576.26);
        ((GeneralPath) shape).curveTo(294.87, 575.48, 283.79, 580.54, 281.52, 576.26);
        ((GeneralPath) shape).closePath();

        g.setPaint(new Color(0xD40000));
        g.fill(shape);
        g.setStroke(new BasicStroke(3, 0, 0, 4));
        g.draw(shape);

        // _0_0_0_8
        shape = new GeneralPath();
        ((GeneralPath) shape).moveTo(197.67, 582.89);
        ((GeneralPath) shape).curveTo(237.4697, 573.77814, 270.0942, 608.2316, 282.52, 642.67004);
        ((GeneralPath) shape).curveTo(289.67297, 661.7545, 290.5572, 681.39954, 288.0871, 701.40076);
        ((GeneralPath) shape).curveTo(287.0137, 710.0925, 291.5211, 715.79364, 289.18008, 724.55255);
        ((GeneralPath) shape).curveTo(286.0868, 736.126, 282.6124, 747.49896, 279.9545, 759.1924);
        ((GeneralPath) shape).curveTo(270.4641, 800.9461, 265.11, 844.0389, 262.9452, 886.7832);
        ((GeneralPath) shape).curveTo(262.44498, 896.6603, 263.0462, 906.7743, 262.1226, 916.6039);
        ((GeneralPath) shape).curveTo(261.4611, 923.64417, 253.64758, 929.4009, 251.9325, 937.1914);
        ((GeneralPath) shape).curveTo(247.2188, 958.6028, 242.8225, 979.8274, 239.8367, 1001.5795);
        ((GeneralPath) shape).curveTo(236.9207, 1022.8233, 235.2281, 1044.215, 234.0377, 1065.6184);
        ((GeneralPath) shape).curveTo(233.7299, 1071.1531, 236.9176, 1089.0823, 228.7819, 1089.3247);
        ((GeneralPath) shape).curveTo(217.86441, 1089.65, 206.9337, 1089.9169, 196.0123, 1090.2087);
        ((GeneralPath) shape).curveTo(156.1532, 1091.2742, 111.2016, 1089.6686, 72.3322, 1080.112);
        ((GeneralPath) shape).curveTo(55.527496, 1075.9805, 39.451, 1066.7354, 35.4501, 1048.5802);
        ((GeneralPath) shape).curveTo(30.3505, 1027.632, 36.6583, 1003.5084, 41.5442, 983.0902);
        ((GeneralPath) shape).curveTo(51.8716, 939.9322, 62.6493, 896.9319, 72.4652, 853.6476);
        ((GeneralPath) shape).curveTo(84.4912, 800.61786, 95.882904, 746.42926, 113.0762, 694.7981);
        ((GeneralPath) shape).curveTo(127.0655, 652.7877, 151.8675, 597.3992, 197.67, 582.89);
        ((GeneralPath) shape).moveTo(235.5, 705.96);
        ((GeneralPath) shape).curveTo(218.8668, 707.4099, 202.0953, 710.45074, 185.7029, 713.55585);
        ((GeneralPath) shape).curveTo(172.6425, 716.02985, 153.7101, 716.07635, 142.15, 723.1401);
        ((GeneralPath) shape).curveTo(136.57509, 725.32086, 131.2685, 722.8631, 127.44299, 728.9775);
        ((GeneralPath) shape).curveTo(123.919395, 734.6092, 122.27619, 742.4629, 120.31639, 748.7663);
        ((GeneralPath) shape).curveTo(115.05689, 765.6829, 108.96209, 782.3402, 103.88989, 799.3209);
        ((GeneralPath) shape).curveTo(93.727394, 833.3432, 85.97519, 867.58154, 84.523094, 903.16724);
        ((GeneralPath) shape).curveTo(83.828094, 920.1995, 85.684494, 937.29297, 89.53369, 953.88416);
        ((GeneralPath) shape).curveTo(94.55539, 975.5287, 104.21839, 973.5624, 123.99989, 973.83014);
        ((GeneralPath) shape).curveTo(154.48419, 973.71796, 193.21329, 977.731, 219.97409, 960.0297);
        ((GeneralPath) shape).curveTo(246.8787, 942.23334, 248.4047, 900.2786, 253.84999, 871.744);
        ((GeneralPath) shape).curveTo(260.5738, 836.5097, 265.7894, 801.0305, 271.8527, 765.6853);
        ((GeneralPath) shape).curveTo(274.2686, 751.6023, 282.27698, 731.1587, 279.24988, 717.04);
        ((GeneralPath) shape).curveTo(274.2495, 697.8929, 249.9303, 705.2048, 235.5, 705.96);
        ((GeneralPath) shape).curveTo(227.47, 706.66, 246.01, 705.41, 235.5, 705.96);
        ((GeneralPath) shape).closePath();

        g.fill(shape);
        g.draw(shape);

        // _0_0_0_9
        shape = new GeneralPath();
        ((GeneralPath) shape).moveTo(1123.02, 586.06);
        ((GeneralPath) shape).curveTo(1129.8271, 576.8278, 1165.6975, 586.5073, 1175.1012, 588.6541);
        ((GeneralPath) shape).curveTo(1190.7294, 592.2219, 1208.0747, 597.789, 1221.713, 606.4154);
        ((GeneralPath) shape).curveTo(1251.6877, 625.3749, 1281.4313, 643.193, 1308.6763, 666.3101);
        ((GeneralPath) shape).curveTo(1316.5677, 673.0059, 1342.1792, 687.92444, 1341.5927, 698.60974);
        ((GeneralPath) shape).curveTo(1340.5583, 717.44867, 1343.1012, 736.44257, 1341.354, 755.2504);
        ((GeneralPath) shape).curveTo(1340.7704, 761.53406, 1341.2122, 768.2974, 1333.8, 768.4627);
        ((GeneralPath) shape).curveTo(1324.7681, 768.6641, 1320.7455, 775.0056, 1314.6, 780.6201);
        ((GeneralPath) shape).curveTo(1306.6672, 787.6823, 1299.0442, 795.08295, 1291.1171, 802.15125);
        ((GeneralPath) shape).curveTo(1285.343, 807.2996, 1277.7583, 816.79614, 1270.18, 819.1301);
        ((GeneralPath) shape).curveTo(1271.7059, 800.61865, 1279.6273, 782.29205, 1282.3859, 763.7738);
        ((GeneralPath) shape).curveTo(1285.4714, 743.0602, 1286.7646, 719.27563, 1276.2876, 700.27563);
        ((GeneralPath) shape).curveTo(1272.393, 693.21295, 1265.5676, 685.0078, 1257.88, 681.91016);
        ((GeneralPath) shape).curveTo(1251.7394, 680.915, 1244.0757, 682.22235, 1245.22, 690.5027);
        ((GeneralPath) shape).curveTo(1246.1864, 697.4956, 1254.2065, 703.9595, 1256.753, 710.8714);
        ((GeneralPath) shape).curveTo(1260.3075, 720.5192, 1260.3851, 731.0039, 1259.6711, 741.1587);
        ((GeneralPath) shape).curveTo(1258.287, 760.84247, 1251.3794, 780.21826, 1245.4319, 798.8731);
        ((GeneralPath) shape).curveTo(1242.3722, 808.4701, 1239.3414, 818.18353, 1236.979, 827.9788);
        ((GeneralPath) shape).curveTo(1234.4099, 838.6305, 1236.6992, 848.78595, 1227.9032, 856.1493);
        ((GeneralPath) shape).curveTo(1220.014, 862.75366, 1212.1543, 869.3935, 1204.3474, 876.0952);
        ((GeneralPath) shape).curveTo(1199.0219, 880.66693, 1190.4794, 885.2074, 1188.33, 892.3601);
        ((GeneralPath) shape).curveTo(1186.2037, 899.168, 1189.3527, 906.607, 1194.6256, 911.05273);
        ((GeneralPath) shape).curveTo(1202.7551, 917.90674, 1211.0729, 914.22955, 1218.1775, 907.89215);
        ((GeneralPath) shape).curveTo(1249.8046, 879.68066, 1283.4697, 853.27594, 1315.75, 825.76013);
        ((GeneralPath) shape).curveTo(1320.5387, 821.8471, 1330.4827, 807.20184, 1335.7008, 813.08826);
        ((GeneralPath) shape).curveTo(1341.16, 819.24664, 1345.8329, 826.69464, 1350.0217, 833.74963);
        ((GeneralPath) shape).curveTo(1360.5787, 851.53, 1365.7737, 870.0523, 1364.44, 890.7401);
        ((GeneralPath) shape).curveTo(1359.0441, 931.572, 1323.6711, 962.2995, 1292.0216, 984.5746);
        ((GeneralPath) shape).curveTo(1258.3522, 1008.27136, 1223.6504, 1032.3052, 1184.1459, 1045.2306);
        ((GeneralPath) shape).curveTo(1163.2428, 1052.07, 1139.9615, 1056.1238, 1119.17, 1046.8002);
        ((GeneralPath) shape).curveTo(1100.0764, 1037.1132, 1091.6558, 1017.5885, 1086.9038, 997.8686);
        ((GeneralPath) shape).curveTo(1075.5234, 950.6412, 1074.1504, 902.0884, 1071.4989, 853.8471);
        ((GeneralPath) shape).curveTo(1068.8826, 806.2455, 1063.3304, 757.8744, 1070.0366, 710.4174);
        ((GeneralPath) shape).curveTo(1076.4559, 664.9898, 1093.6865, 621.5262, 1123.02, 586.06);
        ((GeneralPath) shape).curveTo(1124.62, 583.89, 1120.15, 589.53, 1123.02, 586.06);
        ((GeneralPath) shape).closePath();

        g.setPaint(new Color(0xD45500));
        g.fill(shape);
        g.draw(shape);

        // _0_0_0_10
        shape = new GeneralPath();
        ((GeneralPath) shape).moveTo(402.92, 608.91);
        ((GeneralPath) shape).curveTo(422.0743, 590.95776, 463.2668, 640.01306, 475.34442, 652.3067);
        ((GeneralPath) shape).curveTo(486.7289, 663.8947, 498.70932, 674.336, 508.4655, 687.4377);
        ((GeneralPath) shape).curveTo(518.5542, 700.98596, 526.9708, 715.6653, 535.4884, 730.2225);
        ((GeneralPath) shape).curveTo(543.58923, 744.06726, 551.4447, 757.96716, 561.34, 770.64996);
        ((GeneralPath) shape).curveTo(565.75464, 777.2842, 567.9348, 778.16144, 561.65405, 784.4504);
        ((GeneralPath) shape).curveTo(555.2153, 790.8974, 550.11993, 798.9242, 545.4183, 806.67535);
        ((GeneralPath) shape).curveTo(537.1529, 820.3016, 530.2167, 834.71643, 521.3147, 847.959);
        ((GeneralPath) shape).curveTo(518.8441, 851.63416, 514.6661, 859.75726, 509.8449, 861.1214);
        ((GeneralPath) shape).curveTo(503.6384, 862.8775, 488.5133, 857.0179, 482.0101, 855.59);
        ((GeneralPath) shape).curveTo(483.4706, 847.0023, 490.157, 838.4951, 493.3072, 830.30225);
        ((GeneralPath) shape).curveTo(496.71408, 821.44226, 499.2415, 812.09894, 501.0811, 802.79016);
        ((GeneralPath) shape).curveTo(503.5005, 790.548, 509.54547, 756.41394, 495.25998, 748.86);
        ((GeneralPath) shape).curveTo(474.67447, 740.8448, 475.82468, 777.459, 474.46637, 788.21106);
        ((GeneralPath) shape).curveTo(471.75076, 809.70795, 466.51657, 829.38776, 455.08047, 847.9518);
        ((GeneralPath) shape).curveTo(445.2635, 863.8875, 421.222, 862.9419, 404.1508, 866.6715);
        ((GeneralPath) shape).curveTo(395.9769, 868.45734, 383.93738, 867.6569, 376.9188, 872.4788);
        ((GeneralPath) shape).curveTo(368.69598, 878.128, 371.4449, 888.96405, 376.37448, 895.6601);
        ((GeneralPath) shape).curveTo(386.3932, 909.269, 415.08167, 896.159, 428.0908, 893.4356);
        ((GeneralPath) shape).curveTo(447.741, 889.3218, 469.59988, 885.1078, 489.39948, 890.7244);
        ((GeneralPath) shape).curveTo(508.2082, 896.0598, 517.0412, 910.92804, 526.13605, 926.9276);
        ((GeneralPath) shape).curveTo(530.9368, 935.3732, 535.0936, 944.1561, 539.82855, 952.6399);
        ((GeneralPath) shape).curveTo(544.36176, 960.76227, 541.4686, 969.7014, 544.22, 978.85);
        ((GeneralPath) shape).curveTo(509.81946, 1003.3457, 470.07806, 1022.8813, 431.08548, 1038.8171);
        ((GeneralPath) shape).curveTo(398.73358, 1052.0391, 350.3794, 1072.9346, 321.06088, 1043.2344);
        ((GeneralPath) shape).curveTo(293.57797, 1015.3938, 292.74908, 967.0942, 292.5055, 930.55176);
        ((GeneralPath) shape).curveTo(292.1116, 871.45746, 301.4267, 810.91693, 313.09088, 753.08704);
        ((GeneralPath) shape).curveTo(325.1357, 693.3713, 361.3574, 651.0519, 402.92, 608.91);
        ((GeneralPath) shape).curveTo(405.31, 606.67, 387.85, 624.19, 402.92, 608.91);
        ((GeneralPath) shape).closePath();

        g.setPaint(new Color(0x6D79C1));
        g.fill(shape);
        g.draw(shape);

        // _0_0_0_11
        shape = new GeneralPath();
        ((GeneralPath) shape).moveTo(1328.68, 634.89);
        ((GeneralPath) shape).curveTo(1344.6444, 638.7702, 1362.1837, 652.2099, 1371.26, 665.76);
        ((GeneralPath) shape).curveTo(1362.4886, 665.8459, 1358.0729, 659.4704, 1351.7804, 654.0515);
        ((GeneralPath) shape).curveTo(1344.6764, 647.9337, 1334.1395, 642.5233, 1328.68, 634.89);
        ((GeneralPath) shape).curveTo(1338.76, 637.34, 1330.84, 637.91, 1328.68, 634.89);
        ((GeneralPath) shape).closePath();

        g.setPaint(new Color(0xFFFBFA));
        g.fill(shape);

        // _0_0_0_12
        shape = new GeneralPath();
        ((GeneralPath) shape).moveTo(497.92, 637.62);
        ((GeneralPath) shape).curveTo(502.9909, 632.8748, 530.25543, 644.90356, 536.7179, 646.4833);
        ((GeneralPath) shape).curveTo(544.4079, 648.363, 549.5344, 650.7605, 554.58, 656.9538);
        ((GeneralPath) shape).curveTo(559.1901, 662.6126, 561.9989, 671.8128, 567.4148, 676.2356);
        ((GeneralPath) shape).curveTo(579.8918, 686.4247, 587.7343, 705.0231, 595.7645, 718.82477);
        ((GeneralPath) shape).curveTo(603.98065, 732.946, 617.0518, 749.8501, 621.05005, 765.81995);
        ((GeneralPath) shape).curveTo(613.65356, 765.9055, 606.5463, 764.3198, 599.11743, 765.2144);
        ((GeneralPath) shape).curveTo(590.0291, 766.30884, 590.1234, 763.8061, 587.3101, 755.8766);
        ((GeneralPath) shape).curveTo(581.86633, 740.53326, 573.5301, 725.94507, 564.51013, 712.45996);
        ((GeneralPath) shape).curveTo(546.0445, 684.4817, 523.0568, 659.7072, 497.92, 637.62);
        ((GeneralPath) shape).curveTo(500.1, 635.58, 523.06, 659.71, 497.92, 637.62);
        ((GeneralPath) shape).closePath();

        g.setPaint(new Color(0xD40000));
        g.fill(shape);
        g.draw(shape);

        // _0_0_0_13
        shape = new GeneralPath();
        ((GeneralPath) shape).moveTo(1434.63, 685.85);
        ((GeneralPath) shape).curveTo(1457.8877, 701.625, 1442.5638, 749.3562, 1435.7179, 769.5041);
        ((GeneralPath) shape).curveTo(1426.3616, 797.0399, 1413.5764, 830.425, 1395.93, 853.77);
        ((GeneralPath) shape).curveTo(1389.4242, 843.84015, 1386.1509, 831.4525, 1380.1604, 821.05194);
        ((GeneralPath) shape).curveTo(1373.5441, 809.56476, 1365.9556, 798.66077, 1357.85, 788.18005);
        ((GeneralPath) shape).curveTo(1353.993, 782.98914, 1366.6089, 767.9462, 1367.5, 760.74005);
        ((GeneralPath) shape).curveTo(1369.763, 747.2466, 1364.7272, 730.038, 1369.68, 717.44006);
        ((GeneralPath) shape).curveTo(1376.491, 720.1758, 1381.6517, 722.0212, 1387.8849, 716.88074);
        ((GeneralPath) shape).curveTo(1393.8236, 711.98315, 1402.0453, 720.46106, 1409.0765, 722.0684);
        ((GeneralPath) shape).curveTo(1427.6067, 726.3044, 1431.762, 698.2458, 1434.63, 685.85);
        ((GeneralPath) shape).curveTo(1441.53, 690.53, 1432.83, 693.63, 1434.63, 685.85);
        ((GeneralPath) shape).closePath();

        g.setPaint(new Color(0xFCE4D2));
        g.fill(shape);
        g.draw(shape);

        // _0_0_0_14
        shape = new GeneralPath();
        ((GeneralPath) shape).moveTo(977.51, 696.16);
        ((GeneralPath) shape).curveTo(978.91003, 696.3133, 980.31, 696.4667, 981.71, 696.62);
        ((GeneralPath) shape).curveTo(976.41943, 732.331, 970.763, 768.7606, 958.7118, 802.8973);
        ((GeneralPath) shape).curveTo(954.0486, 816.1065, 947.9976, 829.1291, 938.7875, 839.821);
        ((GeneralPath) shape).curveTo(930.3768, 849.58496, 911.91406, 865.069, 897.7648, 858.6111);
        ((GeneralPath) shape).curveTo(884.1559, 852.3999, 884.32166, 832.4961, 883.65985, 820.0);
        ((GeneralPath) shape).curveTo(883.20337, 799.8639, 886.33527, 779.9064, 888.5914, 759.9579);
        ((GeneralPath) shape).curveTo(890.75415, 740.8346, 892.1451, 722.091, 887.44165, 703.26807);
        ((GeneralPath) shape).curveTo(885.28485, 694.6366, 895.90173, 697.6081, 902.3779, 697.62244);
        ((GeneralPath) shape).curveTo(911.117, 697.6417, 923.44165, 695.42847, 931.66974, 698.88995);
        ((GeneralPath) shape).curveTo(927.99207, 710.51044, 909.7017, 744.6959, 935.65234, 744.5358);
        ((GeneralPath) shape).curveTo(954.49615, 744.41956, 962.48773, 711.52515, 957.30975, 697.94995);
        ((GeneralPath) shape).curveTo(963.9332, 696.3992, 970.7681, 696.5895, 977.50995, 696.16);
        ((GeneralPath) shape).curveTo(978.9199, 696.04, 970.75995, 696.58997, 977.50995, 696.16);
        ((GeneralPath) shape).closePath();

        g.setPaint(GRAY);
        g.fill(shape);
        g.setStroke(new BasicStroke(1, 0, 0, 4));
        g.draw(shape);

        // _0_0_0_15
        shape = new GeneralPath();
        ((GeneralPath) shape).moveTo(225.81, 740.46);
        ((GeneralPath) shape).curveTo(228.4708, 740.07495, 242.9558, 736.00745, 243.50749, 740.45374);
        ((GeneralPath) shape).curveTo(244.11209, 745.32684, 242.30339, 750.5952, 241.3895, 755.32184);
        ((GeneralPath) shape).curveTo(238.41539, 770.70483, 236.10199, 786.4263, 233.806, 801.93024);
        ((GeneralPath) shape).curveTo(229.2483, 832.70636, 223.2496, 863.31506, 216.6158, 893.71124);
        ((GeneralPath) shape).curveTo(214.0203, 905.60394, 211.9648, 920.05853, 202.3647, 928.6425);
        ((GeneralPath) shape).curveTo(192.1725, 937.7561, 176.0015, 939.3997, 163.0199, 940.6999);
        ((GeneralPath) shape).curveTo(149.70059, 942.7438, 134.6355, 942.3688, 121.189896, 941.5299);
        ((GeneralPath) shape).curveTo(114.23039, 941.5299, 115.225395, 907.6803, 115.2279, 902.8632);
        ((GeneralPath) shape).curveTo(115.2425, 874.0191, 120.667, 845.4192, 127.6646, 817.5332);
        ((GeneralPath) shape).curveTo(131.4982, 802.2559, 135.7732, 787.0931, 140.22119, 771.9844);
        ((GeneralPath) shape).curveTo(141.91739, 766.2229, 143.19289, 760.3045, 145.1187, 754.61426);
        ((GeneralPath) shape).curveTo(147.429, 747.7878, 158.9306, 749.9031, 165.5325, 749.6329);
        ((GeneralPath) shape).curveTo(174.2968, 749.27405, 170.7789, 757.49335, 170.1174, 764.0937);
        ((GeneralPath) shape).curveTo(169.3134, 772.1161, 168.6302, 780.0324, 168.5143, 788.1007);
        ((GeneralPath) shape).curveTo(168.2973, 803.2103, 178.888, 812.8907, 193.125, 803.9994);
        ((GeneralPath) shape).curveTo(204.1142, 797.1365, 212.8125, 787.1792, 217.7453, 775.1834);
        ((GeneralPath) shape).curveTo(220.1207, 769.4069, 221.5905, 763.5441, 221.741, 757.2798);
        ((GeneralPath) shape).curveTo(221.8982, 750.7474, 217.6805, 742.2176, 225.81, 740.46);
        ((GeneralPath) shape).curveTo(231.2, 739.68, 223.96, 740.86, 225.81, 740.46);
        ((GeneralPath) shape).closePath();

        g.setPaint(new Color(0xD40000));
        g.fill(shape);
        g.setStroke(new BasicStroke(3, 0, 0, 4));
        g.draw(shape);

        // _0_0_0_16
        shape = new GeneralPath();
        ((GeneralPath) shape).moveTo(1031.91, 796.77);
        ((GeneralPath) shape).curveTo(1032.9108, 790.66583, 1033.4502, 784.3195, 1036.25, 778.69);
        ((GeneralPath) shape).curveTo(1040.0544, 823.9844, 1041.1978, 869.4471, 1045.6888, 914.7436);
        ((GeneralPath) shape).curveTo(1046.6569, 924.5061, 1054.0105, 930.7166, 1054.8954, 940.487);
        ((GeneralPath) shape).curveTo(1055.5231, 943.2936, 1046.9364, 948.6967, 1045.3104, 950.5373);
        ((GeneralPath) shape).curveTo(1042.009, 954.2743, 1043.393, 960.2506, 1044.0248, 964.72);
        ((GeneralPath) shape).curveTo(1045.8129, 977.36615, 1048.9432, 983.55255, 1037.4767, 990.8351);
        ((GeneralPath) shape).curveTo(1029.2231, 996.07697, 1020.8861, 1004.8674, 1011.63, 1008.08997);
        ((GeneralPath) shape).curveTo(1009.4806, 992.6017, 1012.292, 976.6042, 1012.31, 961.06995);
        ((GeneralPath) shape).curveTo(1013.4385, 942.6564, 1014.7455, 924.24896, 1016.6469, 905.89703);
        ((GeneralPath) shape).curveTo(1020.4247, 869.43506, 1025.4282, 832.85046, 1031.91, 796.76996);
        ((GeneralPath) shape).curveTo(1032.91, 790.67, 1026.7201, 825.66, 1031.91, 796.76996);
        ((GeneralPath) shape).closePath();

        g.setPaint(GRAY);
        g.fill(shape);
        g.setStroke(new BasicStroke(1, 0, 0, 4));
        g.draw(shape);

        // _0_0_0_17
        shape = new GeneralPath();
        ((GeneralPath) shape).moveTo(577.38, 805.39);
        ((GeneralPath) shape).curveTo(589.6856, 792.62274, 605.892, 788.23303, 622.0569, 796.66003);
        ((GeneralPath) shape).curveTo(635.0691, 803.4434, 648.6789, 814.11066, 653.6574, 828.42706);
        ((GeneralPath) shape).curveTo(666.13184, 864.29956, 622.7082, 898.52997, 598.8024, 917.8387);
        ((GeneralPath) shape).curveTo(592.41675, 922.9964, 585.8779, 927.9259, 579.3059, 932.83777);
        ((GeneralPath) shape).curveTo(576.1655, 935.185, 573.029, 937.64996, 569.33, 939.08014);
        ((GeneralPath) shape).curveTo(566.9959, 935.23895, 564.8316, 931.29724, 562.7484, 927.31537);
        ((GeneralPath) shape).curveTo(555.112, 912.719, 548.50464, 897.4206, 538.5239, 884.19916);
        ((GeneralPath) shape).curveTo(535.4563, 880.1357, 528.2943, 875.0928, 526.95, 870.0602);
        ((GeneralPath) shape).curveTo(529.9131, 863.04236, 537.66003, 856.57947, 542.1774, 850.42395);
        ((GeneralPath) shape).curveTo(553.4446, 835.0703, 563.7475, 818.8276, 577.38, 805.39);
        ((GeneralPath) shape).curveTo(583.51, 799.03, 559.19, 823.32, 577.38, 805.39);
        ((GeneralPath) shape).closePath();

        g.setPaint(new Color(0xFCE4D2));
        g.fill(shape);
        g.setStroke(new BasicStroke(3, 0, 0, 4));
        g.draw(shape);

        // _0_0_0_18
        shape = new GeneralPath();
        ((GeneralPath) shape).moveTo(654.36, 911.29);
        ((GeneralPath) shape).curveTo(666.7683, 911.5041, 660.74677, 966.52356, 660.55, 974.9913);
        ((GeneralPath) shape).curveTo(659.9402, 1001.22217, 669.3333, 1023.69135, 676.16437, 1048.6154);
        ((GeneralPath) shape).curveTo(679.11554, 1059.3827, 681.5063, 1070.8488, 679.6139, 1082.0269);
        ((GeneralPath) shape).curveTo(678.20337, 1090.358, 669.665, 1086.0121, 663.0996, 1085.1373);
        ((GeneralPath) shape).curveTo(656.8444, 1084.304, 650.4899, 1083.923, 644.18823, 1083.6466);
        ((GeneralPath) shape).curveTo(618.77356, 1082.532, 593.80286, 1083.4586, 568.45496, 1085.9011);
        ((GeneralPath) shape).curveTo(515.26605, 1091.0264, 461.79724, 1095.6338, 408.84595, 1102.8387);
        ((GeneralPath) shape).curveTo(383.26373, 1106.3197, 357.36014, 1110.588, 332.65875, 1118.27);
        ((GeneralPath) shape).curveTo(319.91245, 1122.234, 314.87476, 1120.706, 310.30536, 1107.7482);
        ((GeneralPath) shape).curveTo(306.84866, 1097.9456, 301.89667, 1082.5562, 303.91016, 1072.06);
        ((GeneralPath) shape).curveTo(321.83875, 1077.7708, 335.90567, 1084.4005, 355.32996, 1084.6288);
        ((GeneralPath) shape).curveTo(373.94675, 1084.8475, 392.41956, 1081.6046, 410.34946, 1076.7408);
        ((GeneralPath) shape).curveTo(447.00824, 1066.7966, 481.87897, 1050.3965, 515.303, 1032.6158);
        ((GeneralPath) shape).curveTo(531.7522, 1023.86536, 547.9652, 1014.5521, 563.8276, 1004.775);
        ((GeneralPath) shape).curveTo(573.8518, 998.59644, 595.1056, 989.73395, 592.07916, 974.64655);
        ((GeneralPath) shape).curveTo(590.84247, 968.48126, 586.88074, 967.6954, 593.27454, 962.8862);
        ((GeneralPath) shape).curveTo(600.67957, 957.3165, 608.33185, 952.09265, 615.67065, 946.41376);
        ((GeneralPath) shape).curveTo(629.2238, 935.9261, 643.3134, 924.4735, 654.36, 911.29);
        ((GeneralPath) shape).curveTo(654.94, 911.3, 651.62, 914.56, 654.36, 911.29);
        ((GeneralPath) shape).closePath();

        g.setPaint(new Color(0x6D79C1));
        g.fill(shape);
        g.draw(shape);

        // _0_0_0_19
        shape = new GeneralPath();
        ((GeneralPath) shape).moveTo(1379.92, 948.95);
        ((GeneralPath) shape).curveTo(1383.5076, 944.2232, 1385.7615, 938.5685, 1389.96, 934.29004);
        ((GeneralPath) shape).curveTo(1393.5109, 941.05756, 1392.6458, 952.60895, 1393.7582, 960.09283);
        ((GeneralPath) shape).curveTo(1395.533, 972.03235, 1397.4666, 983.94775, 1399.4862, 995.848);
        ((GeneralPath) shape).curveTo(1403.5361, 1019.7114, 1408.3832, 1043.427, 1412.2312, 1067.3265);
        ((GeneralPath) shape).curveTo(1414.1362, 1079.1583, 1416.481, 1090.9845, 1417.735, 1102.9054);
        ((GeneralPath) shape).curveTo(1418.9845, 1114.7832, 1405.4315, 1110.953, 1396.3392, 1111.383);
        ((GeneralPath) shape).curveTo(1373.196, 1112.4779, 1350.0365, 1113.323, 1326.8944, 1114.4126);
        ((GeneralPath) shape).curveTo(1280.8977, 1116.5782, 1234.4952, 1121.6967, 1188.9456, 1128.37);
        ((GeneralPath) shape).curveTo(1165.1941, 1131.8499, 1141.5714, 1135.6987, 1117.9976, 1140.1421);
        ((GeneralPath) shape).curveTo(1096.2411, 1144.2429, 1072.545, 1152.7711, 1050.47, 1153.5901);
        ((GeneralPath) shape).curveTo(1051.0034, 1136.8301, 1056.5433, 1119.4318, 1060.1511, 1103.1096);
        ((GeneralPath) shape).curveTo(1063.6608, 1087.2324, 1063.985, 1066.6748, 1070.84, 1052.0302);
        ((GeneralPath) shape).curveTo(1113.3293, 1102.7074, 1180.244, 1090.0928, 1233.5103, 1063.4773);
        ((GeneralPath) shape).curveTo(1262.1276, 1049.1781, 1288.1957, 1030.5771, 1313.885, 1011.65356);
        ((GeneralPath) shape).curveTo(1338.2098, 993.7351, 1362.7463, 974.2012, 1379.92, 948.95);
        ((GeneralPath) shape).curveTo(1383.51, 944.22, 1374.86, 956.39, 1379.92, 948.95);
        ((GeneralPath) shape).closePath();

        g.setPaint(new Color(0xD45500));
        g.fill(shape);
        g.draw(shape);

        // _0_0_0_20
        shape = new GeneralPath();
        ((GeneralPath) shape).moveTo(601.68, 1112.2);
        ((GeneralPath) shape).curveTo(612.62646, 1111.2921, 623.6032, 1112.1316, 634.5523, 1112.4971);
        ((GeneralPath) shape).curveTo(638.6501, 1112.6338, 643.0807, 1112.4982, 647.10333, 1113.5677);
        ((GeneralPath) shape).curveTo(652.31476, 1114.9535, 650.46423, 1120.1375, 651.1881, 1124.4852);
        ((GeneralPath) shape).curveTo(654.9101, 1146.8387, 659.4146, 1169.18, 665.94293, 1190.8993);
        ((GeneralPath) shape).curveTo(677.88763, 1230.6388, 698.45886, 1265.5555, 720.9099, 1300.13);
        ((GeneralPath) shape).curveTo(729.6789, 1316.6293, 741.1438, 1331.9565, 750.54193, 1348.1528);
        ((GeneralPath) shape).curveTo(761.07886, 1366.312, 769.90656, 1385.4612, 776.89, 1405.26);
        ((GeneralPath) shape).curveTo(789.25433, 1446.2006, 797.76685, 1487.9862, 808.0358, 1529.4741);
        ((GeneralPath) shape).curveTo(817.8117, 1568.9701, 830.14606, 1609.4426, 851.8977, 1644.1927);
        ((GeneralPath) shape).curveTo(854.375, 1648.1504, 856.9543, 1652.0444, 859.342, 1656.058);
        ((GeneralPath) shape).curveTo(862.6137, 1661.5575, 860.67206, 1661.4127, 855.40497, 1663.4125);
        ((GeneralPath) shape).curveTo(846.75635, 1666.696, 838.26544, 1670.2643, 829.8077, 1674.0233);
        ((GeneralPath) shape).curveTo(809.7694, 1682.9292, 790.31287, 1693.0431, 770.26056, 1701.9167);
        ((GeneralPath) shape).curveTo(753.27124, 1709.435, 733.57245, 1718.527, 714.79944, 1719.7761);
        ((GeneralPath) shape).curveTo(704.8942, 1720.4352, 700.50574, 1718.9407, 698.72736, 1708.8599);
        ((GeneralPath) shape).curveTo(696.55286, 1696.5337, 693.73944, 1684.3248, 690.4443, 1672.2515);
        ((GeneralPath) shape).curveTo(679.23956, 1631.1986, 665.5592, 1590.2377, 646.4671, 1552.1321);
        ((GeneralPath) shape).curveTo(627.5496, 1514.375, 604.3017, 1477.4736, 575.5767, 1446.3693);
        ((GeneralPath) shape).curveTo(561.90454, 1431.5646, 548.5216, 1417.1587, 533.17584, 1404.0038);
        ((GeneralPath) shape).curveTo(530.04626, 1401.3209, 526.73895, 1398.8468, 523.2899, 1396.59);
        ((GeneralPath) shape).curveTo(524.8584, 1391.4315, 526.5033, 1386.2965, 528.205, 1381.1804);
        ((GeneralPath) shape).curveTo(532.1778, 1369.2366, 536.4596, 1357.3983, 540.8117, 1345.5883);
        ((GeneralPath) shape).curveTo(555.20703, 1306.525, 578.5176, 1270.0817, 585.63873, 1228.535);
        ((GeneralPath) shape).curveTo(586.81476, 1221.6742, 589.67664, 1210.8226, 583.30774, 1205.6522);
        ((GeneralPath) shape).curveTo(578.96893, 1202.13, 571.20544, 1201.8381, 567.5985, 1206.6208);
        ((GeneralPath) shape).curveTo(562.8668, 1212.8949, 562.54443, 1224.9489, 560.2782, 1232.431);
        ((GeneralPath) shape).curveTo(556.9348, 1243.4703, 552.5928, 1254.2485, 547.9489, 1264.7966);
        ((GeneralPath) shape).curveTo(531.086, 1303.0986, 508.259, 1338.8774, 494.84622, 1378.675);
        ((GeneralPath) shape).curveTo(482.37222, 1415.6873, 461.1639, 1449.2804, 435.7799, 1478.77);
        ((GeneralPath) shape).curveTo(411.0296, 1510.4438, 380.6272, 1537.5999, 357.5033, 1570.6348);
        ((GeneralPath) shape).curveTo(346.48538, 1586.3751, 337.0229, 1603.0265, 328.7367, 1620.3453);
        ((GeneralPath) shape).curveTo(319.0647, 1640.5604, 318.85318, 1661.2845, 312.24, 1682.18);
        ((GeneralPath) shape).curveTo(304.0998, 1703.6127, 285.5301, 1698.1681, 267.49338, 1693.5345);
        ((GeneralPath) shape).curveTo(248.24557, 1688.5898, 229.44737, 1681.7343, 211.09958, 1674.1456);
        ((GeneralPath) shape).curveTo(193.05247, 1666.6813, 175.19987, 1658.4178, 158.15237, 1648.865);
        ((GeneralPath) shape).curveTo(154.28317, 1646.6968, 150.50667, 1644.3436, 146.99988, 1641.62);
        ((GeneralPath) shape).curveTo(148.47108, 1638.3922, 151.10538, 1635.9526, 153.64578, 1633.5819);
        ((GeneralPath) shape).curveTo(162.12968, 1625.6644, 170.09969, 1617.1047, 178.16878, 1608.768);
        ((GeneralPath) shape).curveTo(236.50757, 1548.4943, 285.36877, 1478.2775, 310.58737, 1397.708);
        ((GeneralPath) shape).curveTo(322.8011, 1358.6871, 337.28046, 1315.8016, 339.84918, 1274.858);
        ((GeneralPath) shape).curveTo(341.1613, 1253.9436, 340.81308, 1232.9082, 341.2114, 1211.9645);
        ((GeneralPath) shape).curveTo(341.5874, 1192.1941, 341.7215, 1168.7557, 351.26678, 1150.8939);
        ((GeneralPath) shape).curveTo(360.27408, 1134.0388, 385.7273, 1135.3217, 402.7035, 1132.5687);
        ((GeneralPath) shape).curveTo(425.406, 1128.8873, 448.1987, 1126.612, 471.06918, 1124.2926);
        ((GeneralPath) shape).curveTo(514.6537, 1119.8723, 557.8991, 1114.0244, 601.68, 1112.2);
        ((GeneralPath) shape).curveTo(614.46, 1111.14, 594.48, 1112.5, 601.68, 1112.2);
        ((GeneralPath) shape).closePath();

        g.setPaint(new Color(0x88AA00));
        g.fill(shape);
        g.setStroke(new BasicStroke(1, 0, 0, 4));
        g.draw(shape);

        // _0_0_0_21
        shape = new GeneralPath();
        ((GeneralPath) shape).moveTo(1341.0, 1146.6);
        ((GeneralPath) shape).curveTo(1350.2014, 1145.9537, 1373.551, 1139.9167, 1380.0829, 1147.3671);
        ((GeneralPath) shape).curveTo(1389.2255, 1157.7949, 1396.0468, 1172.219, 1402.3027, 1184.5004);
        ((GeneralPath) shape).curveTo(1415.6404, 1210.6842, 1426.4755, 1238.0643, 1436.3151, 1265.7246);
        ((GeneralPath) shape).curveTo(1455.8262, 1320.5728, 1472.0436, 1376.9034, 1499.0212, 1428.75);
        ((GeneralPath) shape).curveTo(1524.477, 1477.6719, 1553.7782, 1525.1641, 1583.1049, 1571.8619);
        ((GeneralPath) shape).curveTo(1597.923, 1595.4574, 1614.3271, 1618.031, 1632.8698, 1638.8295);
        ((GeneralPath) shape).curveTo(1641.5023, 1648.5122, 1650.2435, 1658.2098, 1660.2994, 1666.4446);
        ((GeneralPath) shape).curveTo(1671.6028, 1675.701, 1684.2303, 1682.3124, 1695.87, 1690.87);
        ((GeneralPath) shape).curveTo(1681.4072, 1700.537, 1661.7826, 1705.276, 1645.2578, 1710.018);
        ((GeneralPath) shape).curveTo(1624.2335, 1716.051, 1603.1299, 1721.8007, 1582.2631, 1728.3868);
        ((GeneralPath) shape).curveTo(1563.7107, 1734.2424, 1545.864, 1741.1257, 1529.3625, 1751.5474);
        ((GeneralPath) shape).curveTo(1511.3301, 1762.936, 1496.1998, 1761.0233, 1481.9365, 1744.5948);
        ((GeneralPath) shape).curveTo(1470.4803, 1731.3999, 1458.9882, 1715.9462, 1452.2488, 1699.7725);
        ((GeneralPath) shape).curveTo(1443.794, 1679.482, 1443.0458, 1657.03, 1441.9354, 1635.367);
        ((GeneralPath) shape).curveTo(1439.712, 1591.9913, 1446.1127, 1546.8701, 1433.1937, 1504.6575);
        ((GeneralPath) shape).curveTo(1421.2032, 1465.4785, 1388.1693, 1438.017, 1354.2267, 1417.3477);
        ((GeneralPath) shape).curveTo(1337.3248, 1407.0553, 1320.2794, 1396.8347, 1303.1571, 1386.9064);
        ((GeneralPath) shape).curveTo(1294.0791, 1381.6425, 1285.0677, 1376.4454, 1276.3075, 1370.6663);
        ((GeneralPath) shape).curveTo(1264.6082, 1362.9481, 1262.7642, 1362.5392, 1268.1462, 1349.2628);
        ((GeneralPath) shape).curveTo(1283.4364, 1311.5449, 1293.9777, 1270.882, 1317.099, 1236.9022);
        ((GeneralPath) shape).curveTo(1322.3079, 1229.2473, 1327.4996, 1221.3121, 1334.4652, 1215.1348);
        ((GeneralPath) shape).curveTo(1340.0105, 1210.2169, 1342.9742, 1203.6458, 1337.2662, 1197.2373);
        ((GeneralPath) shape).curveTo(1325.6759, 1184.2244, 1301.8685, 1214.9795, 1295.7535, 1223.3362);
        ((GeneralPath) shape).curveTo(1278.779, 1246.5333, 1267.8704, 1274.8103, 1256.4535, 1301.023);
        ((GeneralPath) shape).curveTo(1243.959, 1329.71, 1229.6914, 1358.2556, 1212.7625, 1384.6066);
        ((GeneralPath) shape).curveTo(1178.8713, 1437.3601, 1130.0465, 1467.7928, 1076.44, 1497.46);
        ((GeneralPath) shape).curveTo(1021.2028, 1524.1422, 962.5034, 1547.6875, 913.4016, 1585.1736);
        ((GeneralPath) shape).curveTo(902.0391, 1593.8481, 891.24384, 1603.2758, 881.2324, 1613.4836);
        ((GeneralPath) shape).curveTo(880.3443, 1614.3893, 874.6872, 1621.9459, 872.58, 1617.53);
        ((GeneralPath) shape).curveTo(868.3905, 1610.47, 864.68994, 1603.1294, 861.3103, 1595.6508);
        ((GeneralPath) shape).curveTo(855.1511, 1582.0209, 849.8118, 1568.0175, 845.2982, 1553.7648);
        ((GeneralPath) shape).curveTo(840.4151, 1538.3452, 833.5293, 1520.8763, 833.02, 1504.58);
        ((GeneralPath) shape).curveTo(839.6574, 1513.3541, 846.349, 1519.0375, 855.31104, 1509.5391);
        ((GeneralPath) shape).curveTo(864.23035, 1500.0857, 874.4351, 1491.6093, 885.31866, 1484.5121);
        ((GeneralPath) shape).curveTo(912.2107, 1466.9758, 942.1991, 1455.3802, 971.0876, 1441.6981);
        ((GeneralPath) shape).curveTo(997.6318, 1429.1263, 1023.2533, 1411.7971, 1041.6602, 1388.6);
        ((GeneralPath) shape).curveTo(1058.6403, 1364.4824, 1069.0104, 1335.6709, 1072.2501, 1306.35);
        ((GeneralPath) shape).curveTo(1077.6718, 1275.816, 1078.1677, 1244.1753, 1080.0668, 1213.261);
        ((GeneralPath) shape).curveTo(1080.4926, 1206.3293, 1081.2238, 1199.533, 1081.9601, 1192.6312);
        ((GeneralPath) shape).curveTo(1083.0541, 1182.3779, 1082.5085, 1179.5667, 1092.9598, 1177.4836);
        ((GeneralPath) shape).curveTo(1111.0024, 1173.8878, 1129.0968, 1170.5513, 1147.2361, 1167.4796);
        ((GeneralPath) shape).curveTo(1210.5657, 1156.7552, 1276.6635, 1146.8152, 1341.0, 1146.6);
        ((GeneralPath) shape).curveTo(1352.96, 1145.76, 1323.05, 1146.66, 1341.0, 1146.6);
        ((GeneralPath) shape).closePath();

        g.setPaint(new Color(0xD4AA00));
        g.fill(shape);
        g.setStroke(new BasicStroke(3, 0, 0, 4));
        g.draw(shape);

        // _0_0_0_22
        shape = new GeneralPath();
        ((GeneralPath) shape).moveTo(132.74, 1671.38);
        ((GeneralPath) shape).curveTo(145.90051, 1674.6614, 158.63571, 1683.5905, 170.9084, 1689.3206);
        ((GeneralPath) shape).curveTo(186.36731, 1696.5382, 202.177, 1703.141, 218.2417, 1708.892);
        ((GeneralPath) shape).curveTo(226.1904, 1711.7374, 234.281, 1714.1608, 242.2564, 1716.9277);
        ((GeneralPath) shape).curveTo(245.45009, 1718.0266, 248.6147, 1719.204, 251.75, 1720.46);
        ((GeneralPath) shape).curveTo(251.7901, 1724.741, 250.9675, 1729.0693, 251.98, 1733.31);
        ((GeneralPath) shape).curveTo(254.5848, 1747.4824, 263.07568, 1759.7913, 273.3652, 1769.5668);
        ((GeneralPath) shape).curveTo(292.4728, 1787.7198, 328.3615, 1797.8815, 337.8779, 1824.2804);
        ((GeneralPath) shape).curveTo(343.1861, 1839.0056, 334.8303, 1853.8, 324.8976, 1864.3737);
        ((GeneralPath) shape).curveTo(317.2166, 1872.5502, 302.9294, 1888.0486, 290.8085, 1887.6663);
        ((GeneralPath) shape).curveTo(260.4434, 1886.7085, 233.5054, 1871.8639, 207.2815, 1858.0607);
        ((GeneralPath) shape).curveTo(177.47719, 1842.3728, 149.556, 1822.6277, 122.95139, 1802.0586);
        ((GeneralPath) shape).curveTo(110.75019, 1792.6252, 98.86299, 1782.806, 86.78249, 1773.2261);
        ((GeneralPath) shape).curveTo(82.437294, 1769.7803, 73.06659, 1765.1597, 71.708496, 1759.2897);
        ((GeneralPath) shape).curveTo(70.18079, 1752.6869, 77.745995, 1745.3342, 81.34889, 1740.641);
        ((GeneralPath) shape).curveTo(90.89939, 1728.2002, 101.72699, 1716.8289, 111.972595, 1704.974);
        ((GeneralPath) shape).curveTo(120.5047, 1695.1018, 131.7204, 1684.7472, 132.74, 1671.38);
        ((GeneralPath) shape).curveTo(136.43, 1672.3, 132.56, 1673.74, 132.74, 1671.38);
        ((GeneralPath) shape).closePath();

        g.setPaint(GRAY);
        g.fill(shape);
        g.setStroke(new BasicStroke(1, 0, 0, 4));
        g.draw(shape);

        // _0_0_0_23
        shape = new GeneralPath();
        ((GeneralPath) shape).moveTo(819.74, 1714.74);
        ((GeneralPath) shape).curveTo(824.4978, 1712.561, 829.0554, 1709.8883, 834.08997, 1708.36);
        ((GeneralPath) shape).curveTo(843.77856, 1742.6394, 895.8376, 1732.9016, 921.28564, 1730.4705);
        ((GeneralPath) shape).curveTo(938.5571, 1728.8204, 955.99866, 1726.8162, 973.3494, 1726.3984);
        ((GeneralPath) shape).curveTo(990.9956, 1725.9738, 1008.93585, 1723.9456, 1026.4218, 1727.0637);
        ((GeneralPath) shape).curveTo(1038.3013, 1729.1821, 1052.5237, 1733.3728, 1057.0399, 1746.13);
        ((GeneralPath) shape).curveTo(1061.8678, 1763.1875, 1056.9436, 1778.5582, 1042.022, 1788.5557);
        ((GeneralPath) shape).curveTo(1014.3207, 1807.1156, 981.4425, 1806.0542, 949.98987, 1810.15);
        ((GeneralPath) shape).curveTo(915.287, 1811.4814, 881.74677, 1832.9852, 849.07983, 1842.94);
        ((GeneralPath) shape).curveTo(821.0039, 1852.1278, 776.8538, 1868.7484, 752.32886, 1843.2699);
        ((GeneralPath) shape).curveTo(742.80084, 1833.3716, 741.5831, 1818.2805, 739.2726, 1805.4628);
        ((GeneralPath) shape).curveTo(736.27747, 1788.8474, 735.0733, 1770.8383, 726.682, 1755.8003);
        ((GeneralPath) shape).curveTo(722.3141, 1747.9725, 730.4251, 1748.5002, 736.9663, 1746.9443);
        ((GeneralPath) shape).curveTo(747.23883, 1744.5009, 757.3102, 1741.2743, 767.2151, 1737.6295);
        ((GeneralPath) shape).curveTo(785.2384, 1730.9973, 802.1248, 1722.2656, 819.74, 1714.74);
        ((GeneralPath) shape).curveTo(824.5, 1712.56, 810.26, 1718.79, 819.74, 1714.74);
        ((GeneralPath) shape).closePath();

        g.fill(shape);
        g.setStroke(new BasicStroke(3, 0, 0, 4));
        g.draw(shape);

        // _0_0_0_24
        shape = new GeneralPath();
        ((GeneralPath) shape).moveTo(1626.45, 1747.74);
        ((GeneralPath) shape).curveTo(1634.2153, 1746.5016, 1638.488, 1753.2905, 1644.3562, 1757.5083);
        ((GeneralPath) shape).curveTo(1650.8505, 1762.1763, 1657.9225, 1765.3942, 1665.463, 1767.9841);
        ((GeneralPath) shape).curveTo(1680.8346, 1773.2639, 1697.2721, 1773.8972, 1713.3765, 1773.7787);
        ((GeneralPath) shape).curveTo(1730.6173, 1773.6519, 1747.7667, 1773.0437, 1764.9225, 1771.2456);
        ((GeneralPath) shape).curveTo(1783.5427, 1769.294, 1802.7947, 1764.5463, 1821.5493, 1765.4977);
        ((GeneralPath) shape).curveTo(1837.0504, 1766.2839, 1854.3644, 1768.2009, 1868.9191, 1773.8229);
        ((GeneralPath) shape).curveTo(1890.4854, 1782.1532, 1871.2225, 1793.3287, 1859.1221, 1798.8994);
        ((GeneralPath) shape).curveTo(1827.1289, 1813.628, 1792.7534, 1824.0813, 1759.6785, 1836.1111);
        ((GeneralPath) shape).curveTo(1727.2906, 1847.891, 1694.6687, 1859.1471, 1662.7045, 1872.0415);
        ((GeneralPath) shape).curveTo(1639.1984, 1881.5239, 1597.6586, 1905.294, 1579.49, 1874.48);
        ((GeneralPath) shape).curveTo(1571.6567, 1861.4645, 1568.7103, 1846.2723, 1566.74, 1831.41);
        ((GeneralPath) shape).curveTo(1563.7375, 1814.3129, 1564.888, 1798.0858, 1549.2144, 1787.1862);
        ((GeneralPath) shape).curveTo(1542.3053, 1782.3813, 1547.397, 1780.4604, 1553.175, 1777.1138);
        ((GeneralPath) shape).curveTo(1559.8999, 1773.2186, 1566.8489, 1769.8046, 1573.9388, 1766.6261);
        ((GeneralPath) shape).curveTo(1590.9308, 1759.0087, 1608.5515, 1752.8494, 1626.45, 1747.74);
        ((GeneralPath) shape).curveTo(1628.77, 1747.37, 1603.68, 1754.24, 1626.45, 1747.74);
        ((GeneralPath) shape).closePath();

        g.setPaint(new Color(0x6C5D53));
        g.fill(shape);
        g.draw(shape);

        // _0_0_0_25
        shape = new GeneralPath();
        ((GeneralPath) shape).moveTo(257.947, 1013.2772);
        ((GeneralPath) shape).curveTo(257.947, 1013.2772, 249.41982, 1105.6549, 252.2622, 1105.6549);
        ((GeneralPath) shape).curveTo(255.1046, 1105.6549, 289.9239, 1098.549, 289.9239, 1098.549);
        ((GeneralPath) shape).lineTo(292.76627, 1080.0735);
        ((GeneralPath) shape).lineTo(298.45105, 1044.5436);
        ((GeneralPath) shape).lineTo(277.84372, 1026.0681);
        ((GeneralPath) shape).closePath();

        g.setPaint(new Color(0xD40000));
        g.fill(shape);

        // _0_0_0_26
        shape = new GeneralPath();
        ((GeneralPath) shape).moveTo(1336.6345, 623.159);
        ((GeneralPath) shape).lineTo(1308.9211, 631.68616);
        ((GeneralPath) shape).lineTo(1365.769, 679.2962);
        ((GeneralPath) shape).lineTo(1389.2188, 664.37366);
        ((GeneralPath) shape).lineTo(1363.6372, 648.7405);
        ((GeneralPath) shape).closePath();

        g.setPaint(GRAY);
        g.fill(shape);

        // _0_0_0_27
        shape = new GeneralPath();
        ((GeneralPath) shape).moveTo(955.66, 4.95);
        ((GeneralPath) shape).curveTo(976.9131, 2.011, 996.73016, 0.36099958, 1018.2248, 1.4529998);
        ((GeneralPath) shape).curveTo(1036.864, 2.3999, 1055.3529, 11.7594, 1072.4341, 18.4091);
        ((GeneralPath) shape).curveTo(1106.86, 31.8111, 1124.8022, 61.2795, 1137.1548, 94.671906);
        ((GeneralPath) shape).curveTo(1139.5581, 101.1686, 1137.9348, 117.07841, 1143.07, 120.560005);
        ((GeneralPath) shape).curveTo(1150.592, 117.490105, 1157.9894, 112.798004, 1164.9984, 108.69321);
        ((GeneralPath) shape).curveTo(1183.0054, 98.147606, 1202.4515, 91.69851, 1221.47, 83.39001);
        ((GeneralPath) shape).curveTo(1238.0192, 75.68171, 1258.0718, 71.428604, 1275.9308, 67.98701);
        ((GeneralPath) shape).curveTo(1294.4884, 64.410805, 1318.3607, 58.725407, 1337.1913, 61.930008);
        ((GeneralPath) shape).curveTo(1357.4646, 65.38021, 1376.8678, 66.97211, 1396.4447, 74.10241);
        ((GeneralPath) shape).curveTo(1416.2397, 81.31221, 1435.288, 90.66941, 1452.0424, 103.48641);
        ((GeneralPath) shape).curveTo(1459.7571, 109.388214, 1468.8575, 113.40161, 1475.5011, 120.59781);
        ((GeneralPath) shape).curveTo(1478.5406, 123.89011, 1482.3666, 126.63241, 1482.4036, 131.37491);
        ((GeneralPath) shape).curveTo(1482.4276, 134.52051, 1481.9623, 138.12361, 1484.16, 140.77011);
        ((GeneralPath) shape).curveTo(1498.7312, 150.16501, 1513.1926, 161.2902, 1520.3263, 177.72131);
        ((GeneralPath) shape).curveTo(1527.5143, 194.27791, 1529.719, 215.30501, 1512.6805, 225.81291);
        ((GeneralPath) shape).curveTo(1504.7052, 230.73141, 1506.4467, 233.65662, 1508.884, 241.94081);
        ((GeneralPath) shape).curveTo(1511.9847, 252.47922, 1514.3231, 262.8106, 1516.5266, 273.56293);
        ((GeneralPath) shape).curveTo(1519.9048, 290.04654, 1526.1614, 310.20084, 1538.3804, 322.3391);
        ((GeneralPath) shape).curveTo(1548.2236, 332.1174, 1573.4757, 338.267, 1564.36, 357.38);
        ((GeneralPath) shape).curveTo(1548.3947, 393.17932, 1516.6355, 417.9335, 1506.68, 457.00922);
        ((GeneralPath) shape).curveTo(1504.6108, 465.131, 1505.3182, 474.4703, 1499.49, 481.01633);
        ((GeneralPath) shape).curveTo(1494.3784, 486.75732, 1492.7666, 494.86133, 1489.1282, 501.53442);
        ((GeneralPath) shape).curveTo(1480.0919, 518.1082, 1468.6578, 532.26, 1452.8638, 542.73755);
        ((GeneralPath) shape).curveTo(1436.443, 553.63086, 1417.6544, 552.6887, 1399.3397, 548.62787);
        ((GeneralPath) shape).curveTo(1389.6945, 546.48926, 1381.3895, 543.1343, 1372.2975, 539.5187);
        ((GeneralPath) shape).curveTo(1360.0614, 534.6528, 1358.4222, 544.5492, 1354.0328, 553.85596);
        ((GeneralPath) shape).curveTo(1346.1532, 570.56287, 1342.2563, 587.6434, 1342.76, 606.0499);
        ((GeneralPath) shape).curveTo(1342.171, 613.6516, 1357.5596, 617.26495, 1362.2566, 620.7177);
        ((GeneralPath) shape).curveTo(1369.3193, 625.9094, 1376.4951, 630.4195, 1383.2935, 636.0719);
        ((GeneralPath) shape).curveTo(1389.1322, 640.9263, 1393.7439, 648.8681, 1401.51, 649.7999);
        ((GeneralPath) shape).curveTo(1406.492, 643.02545, 1410.568, 640.62744, 1419.2803, 642.48755);
        ((GeneralPath) shape).curveTo(1436.666, 646.19934, 1454.0022, 659.97107, 1462.4419, 675.50903);
        ((GeneralPath) shape).curveTo(1480.7284, 709.1757, 1470.079, 750.0214, 1463.0552, 785.10223);
        ((GeneralPath) shape).curveTo(1455.7594, 821.54114, 1438.5898, 854.99634, 1418.89, 885.89);
        ((GeneralPath) shape).curveTo(1415.6628, 890.8089, 1403.2764, 898.45703, 1409.4196, 904.58923);
        ((GeneralPath) shape).curveTo(1416.131, 911.28876, 1416.9081, 920.44855, 1418.6648, 929.53265);
        ((GeneralPath) shape).curveTo(1422.9227, 951.55054, 1426.6498, 973.7211, 1431.9462, 995.4797);
        ((GeneralPath) shape).curveTo(1438.9249, 1024.1506, 1445.8162, 1056.0222, 1447.62, 1085.5024);
        ((GeneralPath) shape).curveTo(1448.5154, 1100.1353, 1451.0953, 1114.2681, 1451.5, 1129.02);
        ((GeneralPath) shape).curveTo(1453.2433, 1145.418, 1426.9578, 1140.9271, 1418.37, 1142.88);
        ((GeneralPath) shape).curveTo(1418.5012, 1149.804, 1424.916, 1156.4735, 1428.226, 1162.1989);
        ((GeneralPath) shape).curveTo(1432.1423, 1168.9731, 1435.696, 1175.9651, 1438.6904, 1183.1974);
        ((GeneralPath) shape).curveTo(1445.1748, 1198.8593, 1451.4346, 1214.2676, 1456.4667, 1230.5043);
        ((GeneralPath) shape).curveTo(1466.1024, 1261.5944, 1474.1554, 1293.0934, 1483.47, 1324.26);
        ((GeneralPath) shape).curveTo(1495.811, 1356.5751, 1508.2753, 1388.0605, 1526.4592, 1417.6134);
        ((GeneralPath) shape).curveTo(1534.8657, 1431.2756, 1544.1979, 1444.4901, 1553.13, 1457.83);
        ((GeneralPath) shape).curveTo(1561.5132, 1470.8059, 1569.9316, 1485.4359, 1579.75, 1497.29);
        ((GeneralPath) shape).curveTo(1590.1558, 1509.874, 1597.6675, 1525.5809, 1606.1893, 1539.4628);
        ((GeneralPath) shape).curveTo(1613.5261, 1551.4143, 1621.4586, 1563.6488, 1627.827, 1576.143);
        ((GeneralPath) shape).curveTo(1641.8206, 1603.5967, 1663.4728, 1629.1549, 1686.7, 1649.28);
        ((GeneralPath) shape).curveTo(1700.0488, 1656.2856, 1711.3798, 1665.0757, 1725.5349, 1670.89);
        ((GeneralPath) shape).curveTo(1736.5654, 1675.4208, 1761.711, 1686.3784, 1743.8179, 1700.9812);
        ((GeneralPath) shape).curveTo(1732.5107, 1710.2091, 1718.3005, 1715.8751, 1705.03, 1721.5463);
        ((GeneralPath) shape).curveTo(1697.6393, 1724.7046, 1690.1785, 1727.2313, 1682.6787, 1730.0287);
        ((GeneralPath) shape).curveTo(1676.6244, 1732.287, 1666.1213, 1732.9863, 1662.33, 1738.93);
        ((GeneralPath) shape).curveTo(1674.8273, 1750.1313, 1700.0764, 1749.9166, 1715.545, 1749.9412);
        ((GeneralPath) shape).curveTo(1736.6108, 1749.9752, 1756.8611, 1748.4325, 1777.7007, 1745.734);
        ((GeneralPath) shape).curveTo(1815.5815, 1740.8291, 1861.8269, 1730.3787, 1897.2363, 1751.0251);
        ((GeneralPath) shape).curveTo(1912.8519, 1760.1304, 1922.1792, 1771.7692, 1913.2483, 1790.229);
        ((GeneralPath) shape).curveTo(1905.4275, 1806.3942, 1887.2769, 1816.7982, 1871.6923, 1823.9055);
        ((GeneralPath) shape).curveTo(1833.6012, 1841.2771, 1793.5955, 1853.9733, 1754.0321, 1867.4668);
        ((GeneralPath) shape).curveTo(1713.8229, 1881.1804, 1675.1321, 1901.5859, 1633.8013, 1911.5613);
        ((GeneralPath) shape).curveTo(1616.8735, 1915.6469, 1596.5792, 1920.5138, 1579.6792, 1914.4656);
        ((GeneralPath) shape).curveTo(1560.9069, 1907.7474, 1554.1965, 1889.0464, 1549.41, 1871.79);
        ((GeneralPath) shape).curveTo(1544.4741, 1855.2195, 1547.7397, 1835.8729, 1542.4, 1819.61);
        ((GeneralPath) shape).curveTo(1540.124, 1812.0336, 1539.4948, 1803.7369, 1534.94, 1797.02);
        ((GeneralPath) shape).curveTo(1529.5468, 1787.2936, 1520.0789, 1802.021, 1514.97, 1803.32);
        ((GeneralPath) shape).curveTo(1499.3477, 1803.4805, 1482.1523, 1782.6077, 1472.063, 1772.2511);
        ((GeneralPath) shape).curveTo(1458.7616, 1758.5975, 1444.781, 1745.7305, 1437.25, 1727.7925);
        ((GeneralPath) shape).curveTo(1423.2184, 1694.3712, 1412.4363, 1654.77, 1412.5153, 1618.5675);
        ((GeneralPath) shape).curveTo(1412.5603, 1597.7296, 1410.869, 1577.1829, 1410.7446, 1556.5222);
        ((GeneralPath) shape).curveTo(1410.6293, 1537.3673, 1405.8658, 1513.2911, 1397.097, 1496.1807);
        ((GeneralPath) shape).curveTo(1388.6841, 1479.7646, 1377.6876, 1466.2303, 1363.7628, 1454.0823);
        ((GeneralPath) shape).curveTo(1348.4716, 1440.7422, 1327.8928, 1433.6744, 1312.83, 1420.14);
        ((GeneralPath) shape).curveTo(1299.9396, 1409.3593, 1284.645, 1402.2479, 1272.2466, 1390.5521);
        ((GeneralPath) shape).curveTo(1268.4286, 1386.9504, 1260.3375, 1374.6392, 1253.79, 1377.86);
        ((GeneralPath) shape).curveTo(1247.8965, 1379.5974, 1242.5256, 1396.5403, 1239.16, 1401.575);
        ((GeneralPath) shape).curveTo(1229.0265, 1416.7344, 1219.7495, 1431.7714, 1206.6787, 1444.6863);
        ((GeneralPath) shape).curveTo(1192.1165, 1459.0748, 1175.6351, 1470.6959, 1157.9945, 1481.0408);
        ((GeneralPath) shape).curveTo(1124.0837, 1500.9265, 1088.9689, 1518.0043, 1054.6768, 1537.113);
        ((GeneralPath) shape).curveTo(1022.8033, 1554.8743, 990.19073, 1570.9403, 959.65076, 1591.0363);
        ((GeneralPath) shape).curveTo(942.91095, 1602.0513, 926.8235, 1613.3895, 910.8373, 1625.4565);
        ((GeneralPath) shape).curveTo(904.345, 1630.3572, 896.6111, 1635.1674, 891.8363, 1641.9363);
        ((GeneralPath) shape).curveTo(885.5034, 1650.9138, 901.6568, 1657.6222, 903.32263, 1665.154);
        ((GeneralPath) shape).curveTo(905.6796, 1675.8107, 896.50134, 1682.7252, 887.10004, 1685.04);
        ((GeneralPath) shape).curveTo(876.6975, 1689.3921, 866.93427, 1693.164, 856.78015, 1698.15);
        ((GeneralPath) shape).curveTo(863.3934, 1710.3298, 894.02814, 1706.3785, 904.6556, 1705.9302);
        ((GeneralPath) shape).curveTo(921.6784, 1705.2119, 942.01965, 1701.9779, 958.659, 1698.024);
        ((GeneralPath) shape).curveTo(967.8242, 1695.8462, 977.5043, 1696.7587, 986.8793, 1696.7441);
        ((GeneralPath) shape).curveTo(996.5699, 1696.7291, 1007.53766, 1695.2856, 1017.0838, 1697.075);
        ((GeneralPath) shape).curveTo(1032.4266, 1699.9508, 1050.5615, 1700.712, 1063.8901, 1710.21);
        ((GeneralPath) shape).curveTo(1100.241, 1730.5289, 1088.3923, 1779.5315, 1063.9993, 1803.9966);
        ((GeneralPath) shape).curveTo(1036.9574, 1831.1184, 992.82855, 1834.3066, 956.71515, 1838.1825);
        ((GeneralPath) shape).curveTo(914.3538, 1842.7288, 877.9894, 1865.8436, 836.9902, 1875.19);
        ((GeneralPath) shape).curveTo(796.874, 1880.5365, 746.82196, 1882.5428, 725.2939, 1849.792);
        ((GeneralPath) shape).curveTo(715.6398, 1834.7148, 713.80066, 1814.3011, 714.1361, 1796.7601);
        ((GeneralPath) shape).curveTo(714.4185, 1781.9952, 710.5819, 1751.5444, 691.196, 1752.134);
        ((GeneralPath) shape).curveTo(669.0282, 1752.8082, 670.45416, 1733.3815, 667.057, 1716.8501);
        ((GeneralPath) shape).curveTo(663.1132, 1697.6588, 658.2794, 1678.9775, 653.5215, 1659.9808);
        ((GeneralPath) shape).curveTo(638.88837, 1601.5554, 607.9598, 1549.3523, 575.66016, 1499.4102);
        ((GeneralPath) shape).curveTo(562.4581, 1477.1874, 543.256, 1457.5073, 525.337, 1439.0511);
        ((GeneralPath) shape).curveTo(522.35205, 1435.9767, 517.227, 1428.336, 512.70636, 1427.6813);
        ((GeneralPath) shape).curveTo(507.08365, 1426.867, 505.60846, 1437.0602, 503.06015, 1441.1301);
        ((GeneralPath) shape).curveTo(495.19974, 1453.6844, 487.16296, 1465.9739, 477.83276, 1477.4927);
        ((GeneralPath) shape).curveTo(442.85745, 1520.6724, 395.63538, 1557.2047, 368.30505, 1606.1649);
        ((GeneralPath) shape).curveTo(361.25485, 1618.7948, 355.08514, 1631.2698, 350.94095, 1645.2006);
        ((GeneralPath) shape).curveTo(346.79794, 1659.1276, 345.50244, 1673.8408, 341.26816, 1687.6685);
        ((GeneralPath) shape).curveTo(337.52805, 1699.8822, 334.03516, 1714.1665, 323.34027, 1722.3002);
        ((GeneralPath) shape).curveTo(310.61377, 1731.0746, 298.25186, 1729.8933, 283.36026, 1729.8501);
        ((GeneralPath) shape).curveTo(284.09897, 1743.2733, 300.56686, 1755.0664, 310.08475, 1762.663);
        ((GeneralPath) shape).curveTo(321.17105, 1771.5114, 333.92725, 1779.1265, 343.99945, 1789.0212);
        ((GeneralPath) shape).curveTo(363.34805, 1808.029, 380.61136, 1837.7792, 370.87015, 1866.1301);
        ((GeneralPath) shape).curveTo(367.10736, 1891.6984, 334.84906, 1909.1113, 313.22266, 1915.779);
        ((GeneralPath) shape).curveTo(282.25015, 1925.3282, 246.49765, 1911.3671, 218.98785, 1897.51);
        ((GeneralPath) shape).curveTo(190.00136, 1882.9092, 163.89055, 1864.9286, 137.18216, 1846.6011);
        ((GeneralPath) shape).curveTo(112.930664, 1829.9595, 92.22676, 1808.5662, 68.53016, 1791.4901);
        ((GeneralPath) shape).curveTo(58.361458, 1784.2151, 43.82926, 1774.1594, 37.660156, 1762.9501);
        ((GeneralPath) shape).curveTo(36.337055, 1749.5452, 49.928154, 1737.9736, 57.606956, 1728.0665);
        ((GeneralPath) shape).curveTo(66.373055, 1716.7566, 75.747955, 1705.6406, 85.84456, 1695.512);
        ((GeneralPath) shape).curveTo(95.923256, 1685.4014, 108.08726, 1670.7231, 121.37016, 1664.9102);
        ((GeneralPath) shape).curveTo(117.84116, 1654.1229, 104.520164, 1655.0471, 105.55386, 1640.892);
        ((GeneralPath) shape).curveTo(106.37036, 1629.7107, 128.48686, 1614.4346, 136.28146, 1606.6583);
        ((GeneralPath) shape).curveTo(158.61467, 1584.3779, 179.36327, 1561.1229, 198.29976, 1535.9415);
        ((GeneralPath) shape).curveTo(236.09506, 1485.6824, 266.20395, 1430.9277, 284.71887, 1370.5352);
        ((GeneralPath) shape).curveTo(294.28006, 1339.3483, 303.94797, 1306.6517, 309.03308, 1274.3389);
        ((GeneralPath) shape).curveTo(314.19397, 1241.5444, 313.4944, 1211.5172, 307.9502, 1178.9601);
        ((GeneralPath) shape).curveTo(307.5304, 1171.9022, 309.3581, 1165.726, 309.6065, 1158.8477);
        ((GeneralPath) shape).curveTo(309.82892, 1152.6874, 299.5036, 1155.2241, 294.5398, 1149.7794);
        ((GeneralPath) shape).curveTo(286.4365, 1140.8909, 283.8589, 1121.7006, 283.8302, 1110.0402);
        ((GeneralPath) shape).curveTo(283.6279, 1095.4993, 285.9354, 1081.9763, 287.8265, 1067.6726);
        ((GeneralPath) shape).curveTo(288.05902, 1065.0365, 288.7269, 1062.5156, 289.8302, 1060.1101);
        ((GeneralPath) shape).curveTo(287.3271, 1056.3824, 285.1251, 1052.4675, 282.7929, 1048.634);
        ((GeneralPath) shape).curveTo(279.3758, 1043.0173, 275.6607, 1037.2513, 271.7802, 1031.9401);
        ((GeneralPath) shape).curveTo(268.52213, 1038.5557, 268.5107, 1048.957, 267.78403, 1056.2432);
        ((GeneralPath) shape).curveTo(266.838, 1065.7289, 266.51022, 1075.5736, 265.89822, 1085.0858);
        ((GeneralPath) shape).curveTo(265.3857, 1093.052, 268.23962, 1104.8635, 264.40442, 1112.0762);
        ((GeneralPath) shape).curveTo(259.5844, 1121.141, 249.79832, 1121.3577, 240.96022, 1121.7301);
        ((GeneralPath) shape).curveTo(222.30942, 1121.1432, 202.98563, 1125.4152, 184.16762, 1125.522);
        ((GeneralPath) shape).curveTo(161.20012, 1125.6522, 136.26532, 1128.194, 113.66172, 1124.0249);
        ((GeneralPath) shape).curveTo(75.41912, 1116.9714, 24.158218, 1113.0033, 5.7769165, 1071.3971);
        ((GeneralPath) shape).curveTo(-1.7850833, 1054.2806, -0.6570835, 1033.3179, 3.1435165, 1015.40607);
        ((GeneralPath) shape).curveTo(7.3056164, 995.7908, 11.131416, 975.9789, 16.780216, 956.73004);
        ((GeneralPath) shape).curveTo(31.596216, 877.1973, 54.142616, 799.0438, 73.15341, 720.4498);
        ((GeneralPath) shape).curveTo(82.05451, 683.65125, 95.156815, 648.17285, 113.93711, 615.24945);
        ((GeneralPath) shape).curveTo(131.14272, 585.0867, 164.01952, 553.4822, 200.65332, 552.01636);
        ((GeneralPath) shape).curveTo(211.16162, 551.59595, 221.28552, 552.4014, 231.63393, 553.7126);
        ((GeneralPath) shape).curveTo(243.65242, 555.2354, 255.15163, 548.5306, 267.17093, 548.3965);
        ((GeneralPath) shape).curveTo(291.35562, 548.1267, 314.57373, 548.9037, 338.42493, 552.6645);
        ((GeneralPath) shape).curveTo(347.80902, 554.14417, 357.88513, 555.9941, 366.94022, 558.89996);
        ((GeneralPath) shape).curveTo(373.6314, 561.053, 380.51102, 562.52454, 387.28192, 564.39075);
        ((GeneralPath) shape).curveTo(392.4544, 565.81647, 398.11432, 569.25244, 403.65613, 568.61224);
        ((GeneralPath) shape).curveTo(413.13043, 567.51764, 423.57132, 550.754, 427.12784, 542.9039);
        ((GeneralPath) shape).curveTo(429.45084, 537.7765, 429.91095, 533.9286, 426.77014, 529.06995);
        ((GeneralPath) shape).curveTo(420.95703, 530.8198, 420.31134, 531.93146, 417.34766, 537.04083);
        ((GeneralPath) shape).curveTo(411.51556, 547.0955, 400.85776, 546.66644, 391.61017, 541.3598);
        ((GeneralPath) shape).curveTo(380.05356, 535.7279, 368.04718, 531.5128, 356.61536, 525.5856);
        ((GeneralPath) shape).curveTo(332.55276, 513.10956, 322.74857, 496.25946, 316.58167, 470.56747);
        ((GeneralPath) shape).curveTo(310.81665, 446.54987, 304.37076, 417.90417, 291.17017, 396.81976);
        ((GeneralPath) shape).curveTo(285.98868, 389.85626, 273.82965, 396.28897, 269.62598, 385.36816);
        ((GeneralPath) shape).curveTo(265.83658, 375.52377, 269.15567, 357.27518, 269.78018, 346.80975);
        ((GeneralPath) shape).curveTo(257.59717, 347.06165, 229.24939, 368.35785, 228.61458, 342.69785);
        ((GeneralPath) shape).curveTo(228.11308, 322.42593, 233.47438, 302.39615, 243.78018, 284.81973);
        ((GeneralPath) shape).curveTo(253.35388, 268.24814, 265.1081, 255.11273, 279.06018, 242.06973);
        ((GeneralPath) shape).curveTo(293.78058, 227.95763, 306.89847, 222.27263, 305.9398, 199.25613);
        ((GeneralPath) shape).curveTo(305.1333, 179.89194, 299.97568, 156.24124, 304.5124, 137.12894);
        ((GeneralPath) shape).curveTo(306.0294, 130.73814, 313.0821, 122.808334, 320.22018, 126.85973);
        ((GeneralPath) shape).curveTo(328.72598, 132.50233, 332.80408, 142.67903, 337.45068, 151.34244);
        ((GeneralPath) shape).curveTo(341.29007, 158.50093, 344.3621, 165.94414, 348.3885, 173.00613);
        ((GeneralPath) shape).curveTo(353.81268, 182.51964, 356.4567, 168.75003, 358.6402, 164.58974);
        ((GeneralPath) shape).curveTo(366.0682, 150.71083, 368.8838, 123.45154, 383.1702, 114.87974);
        ((GeneralPath) shape).curveTo(392.3273, 113.78004, 397.2589, 116.21384, 400.5402, 124.69974);
        ((GeneralPath) shape).curveTo(402.78598, 130.09683, 408.1031, 148.36084, 413.7073, 146.84114);
        ((GeneralPath) shape).curveTo(421.45392, 144.74054, 427.98352, 139.61655, 435.9094, 137.47005);
        ((GeneralPath) shape).curveTo(445.1362, 134.97134, 454.6507, 133.50015, 463.7835, 130.70474);
        ((GeneralPath) shape).curveTo(473.1272, 127.84474, 482.1496, 124.22704, 491.7549, 122.19434);
        ((GeneralPath) shape).curveTo(499.1951, 120.61984, 507.47382, 116.25964, 514.56433, 120.92044);
        ((GeneralPath) shape).curveTo(520.6768, 124.93844, 523.15094, 132.37595, 525.80646, 138.81595);
        ((GeneralPath) shape).curveTo(530.44183, 150.05734, 542.31067, 143.01715, 552.24756, 142.44695);
        ((GeneralPath) shape).curveTo(572.25903, 141.29875, 591.4562, 139.44194, 611.49994, 142.10765);
        ((GeneralPath) shape).curveTo(628.81067, 144.40985, 646.2504, 153.82065, 628.31006, 170.55975);
        ((GeneralPath) shape).curveTo(622.22125, 176.24095, 619.99426, 179.48706, 629.24023, 180.85706);
        ((GeneralPath) shape).curveTo(637.8969, 182.13986, 646.7802, 184.96365, 655.0313, 187.76146);
        ((GeneralPath) shape).curveTo(672.13184, 193.56006, 687.30273, 201.61105, 701.0796, 213.42366);
        ((GeneralPath) shape).curveTo(706.7072, 218.24886, 705.9561, 223.50887, 702.1358, 228.98785);
        ((GeneralPath) shape).curveTo(697.7135, 235.33026, 706.8254, 238.81735, 708.2501, 244.65965);
        ((GeneralPath) shape).curveTo(709.8997, 252.04996, 705.9898, 260.00534, 697.4027, 259.79086);
        ((GeneralPath) shape).curveTo(693.7703, 259.70016, 690.5731, 257.33807, 687.0763, 256.60965);
        ((GeneralPath) shape).curveTo(680.0845, 255.15315, 682.8995, 265.83856, 683.23737, 270.31656);
        ((GeneralPath) shape).curveTo(686.06165, 307.74927, 692.92487, 346.63306, 711.06354, 379.98407);
        ((GeneralPath) shape).curveTo(720.31836, 397.00046, 733.7755, 410.14697, 747.07996, 423.92856);
        ((GeneralPath) shape).curveTo(757.81964, 435.05347, 773.77814, 454.71875, 760.0071, 469.03226);
        ((GeneralPath) shape).curveTo(748.47986, 481.01337, 733.50977, 488.19507, 722.38727, 500.81415);
        ((GeneralPath) shape).curveTo(716.80676, 507.14554, 714.0417, 515.9968, 712.56995, 524.24963);
        ((GeneralPath) shape).curveTo(711.2324, 534.57104, 709.5784, 543.7169, 706.69696, 553.9262);
        ((GeneralPath) shape).curveTo(701.79504, 571.29333, 691.96594, 585.87573, 677.32996, 596.4994);
        ((GeneralPath) shape).curveTo(660.49646, 608.71826, 639.00104, 604.769, 620.06274, 609.8413);
        ((GeneralPath) shape).curveTo(602.9957, 614.41254, 594.94836, 629.1347, 593.4799, 646.0296);
        ((GeneralPath) shape).curveTo(593.3855, 649.5212, 596.0744, 652.1738, 596.39514, 655.564);
        ((GeneralPath) shape).curveTo(596.7531, 659.349, 593.37006, 662.3082, 593.69336, 666.2666);
        ((GeneralPath) shape).curveTo(594.38007, 674.6739, 607.144, 685.8024, 611.6324, 692.843);
        ((GeneralPath) shape).curveTo(621.76337, 708.73474, 632.22107, 724.44183, 641.35077, 740.9677);
        ((GeneralPath) shape).curveTo(645.67596, 748.79694, 653.62164, 759.53424, 653.7176, 768.7222);
        ((GeneralPath) shape).curveTo(653.7613, 772.9133, 650.10986, 778.50885, 651.50006, 782.4497);
        ((GeneralPath) shape).curveTo(655.90533, 787.0652, 660.7507, 791.2403, 665.04004, 795.9697);
        ((GeneralPath) shape).curveTo(678.49786, 808.55884, 682.0266, 823.7691, 685.99005, 840.7597);
        ((GeneralPath) shape).curveTo(687.944, 849.6472, 684.04803, 858.267, 681.78, 866.6697);
        ((GeneralPath) shape).curveTo(680.0272, 874.0716, 669.19543, 885.2024, 670.7833, 892.3968);
        ((GeneralPath) shape).curveTo(671.5214, 895.7409, 674.73755, 898.8775, 676.1449, 902.0046);
        ((GeneralPath) shape).curveTo(678.3827, 906.9764, 679.1942, 912.16345, 680.304, 917.4479);
        ((GeneralPath) shape).curveTo(682.63293, 928.5367, 681.33844, 940.70856, 681.3086, 951.9847);
        ((GeneralPath) shape).curveTo(681.27856, 963.3771, 680.4912, 975.0516, 681.358, 986.4164);
        ((GeneralPath) shape).curveTo(682.3246, 999.0882, 686.9803, 1011.3651, 690.26355, 1023.52466);
        ((GeneralPath) shape).curveTo(692.941, 1033.4402, 696.87634, 1043.031, 699.06177, 1053.1111);
        ((GeneralPath) shape).curveTo(700.5901, 1060.1605, 701.56165, 1066.6421, 701.58765, 1073.8822);
        ((GeneralPath) shape).curveTo(701.606, 1079.0262, 698.5286, 1088.2144, 700.439, 1092.8833);
        ((GeneralPath) shape).curveTo(703.6007, 1100.6107, 711.9809, 1105.3309, 704.0542, 1114.7849);
        ((GeneralPath) shape).curveTo(696.0486, 1124.3329, 682.1487, 1118.1195, 671.3898, 1117.5197);
        ((GeneralPath) shape).curveTo(673.5381, 1147.8837, 689.3132, 1180.777, 701.45074, 1208.341);
        ((GeneralPath) shape).curveTo(716.49414, 1242.504, 736.7736, 1273.6023, 758.29736, 1303.9772);
        ((GeneralPath) shape).curveTo(779.4618, 1333.8451, 796.4936, 1366.179, 806.69904, 1401.3346);
        ((GeneralPath) shape).curveTo(811.46924, 1417.7668, 816.0457, 1434.7183, 819.5255, 1451.47);
        ((GeneralPath) shape).curveTo(822.6736, 1466.6244, 823.37823, 1489.5946, 832.7397, 1502.4297);
        ((GeneralPath) shape).curveTo(836.5031, 1487.9316, 853.0357, 1472.025, 863.48157, 1461.8926);
        ((GeneralPath) shape).curveTo(875.98535, 1449.7638, 892.16455, 1438.451, 908.71967, 1432.6996);
        ((GeneralPath) shape).curveTo(940.6971, 1417.9724, 973.17725, 1409.8575, 1002.07965, 1389.0597);
        ((GeneralPath) shape).curveTo(1031.0328, 1363.2164, 1038.6686, 1326.7699, 1044.5974, 1289.696);
        ((GeneralPath) shape).curveTo(1047.3329, 1272.5906, 1048.0615, 1255.3262, 1050.644, 1238.2325);
        ((GeneralPath) shape).curveTo(1053.2223, 1221.1682, 1057.4413, 1202.9644, 1056.4696, 1185.6196);
        ((GeneralPath) shape).curveTo(1043.7941, 1186.6552, 1017.829, 1195.9641, 1017.1955, 1174.5986);
        ((GeneralPath) shape).curveTo(1016.6733, 1156.9918, 1024.206, 1138.5485, 1027.5752, 1121.4615);
        ((GeneralPath) shape).curveTo(1034.6786, 1085.4348, 1047.407, 1050.2782, 1046.5497, 1013.01965);
        ((GeneralPath) shape).curveTo(1029.9609, 1013.1716, 1014.6513, 1034.3545, 1000.1637, 1040.547);
        ((GeneralPath) shape).curveTo(990.8133, 1044.5437, 978.6848, 1042.6255, 968.7672, 1042.6239);
        ((GeneralPath) shape).curveTo(956.1667, 1042.6239, 943.3382, 1041.9783, 930.76154, 1042.7762);
        ((GeneralPath) shape).curveTo(891.007, 1045.2988, 851.1383, 1049.1584, 811.28375, 1050.1818);
        ((GeneralPath) shape).curveTo(801.5577, 1050.4314, 771.2435, 1053.6631, 772.6597, 1036.0497);
        ((GeneralPath) shape).curveTo(772.6383, 1015.9143, 773.81354, 996.09326, 774.65393, 976.02747);
        ((GeneralPath) shape).curveTo(776.2824, 937.14246, 782.0927, 898.5044, 783.85364, 859.6075);
        ((GeneralPath) shape).curveTo(785.661, 819.6853, 791.95404, 779.55005, 804.6854, 741.58167);
        ((GeneralPath) shape).curveTo(807.8432, 732.16394, 810.87335, 722.68506, 814.1969, 713.3254);
        ((GeneralPath) shape).curveTo(816.8167, 705.94775, 821.7538, 696.92896, 822.3597, 689.10956);
        ((GeneralPath) shape).curveTo(818.76416, 682.7596, 810.552, 679.26544, 817.993, 671.4828);
        ((GeneralPath) shape).curveTo(825.5556, 663.5728, 830.85297, 656.3001, 834.6872, 645.82086);
        ((GeneralPath) shape).curveTo(847.7106, 610.227, 838.063, 567.19385, 864.8297, 536.81964);
        ((GeneralPath) shape).curveTo(893.6987, 513.7772, 927.6185, 510.52094, 962.0611, 500.91904);
        ((GeneralPath) shape).curveTo(993.0871, 492.26953, 1023.85187, 485.17484, 1056.0034, 482.39194);
        ((GeneralPath) shape).curveTo(1072.9536, 480.92474, 1090.3928, 482.35733, 1107.3848, 482.20975);
        ((GeneralPath) shape).curveTo(1116.1019, 482.13403, 1124.2753, 483.17944, 1132.8922, 483.87476);
        ((GeneralPath) shape).curveTo(1141.6622, 484.58237, 1153.4719, 488.36777, 1161.9897, 486.19977);
        ((GeneralPath) shape).curveTo(1159.1956, 483.84717, 1155.3843, 483.86298, 1152.1165, 482.66867);
        ((GeneralPath) shape).curveTo(1148.1304, 481.21188, 1145.0292, 477.23697, 1142.176, 474.30347);
        ((GeneralPath) shape).curveTo(1136.293, 468.25476, 1129.2845, 465.07538, 1123.5061, 459.33737);
        ((GeneralPath) shape).curveTo(1109.8488, 445.77536, 1099.3466, 429.17758, 1085.398, 415.59128);
        ((GeneralPath) shape).curveTo(1058.0011, 388.90607, 1029.9078, 360.23117, 1030.1708, 319.75067);
        ((GeneralPath) shape).curveTo(1030.283, 302.48886, 1034.3531, 286.58508, 1041.1536, 270.67227);
        ((GeneralPath) shape).curveTo(1044.476, 262.89786, 1047.4337, 254.61557, 1050.0157, 246.56238);
        ((GeneralPath) shape).curveTo(1053.2373, 236.51437, 1049.6945, 229.87677, 1042.9198, 222.05978);
        ((GeneralPath) shape).curveTo(1031.9288, 209.12079, 1027.4169, 192.70409, 1007.006, 193.66109);
        ((GeneralPath) shape).curveTo(989.1424, 194.49858, 978.0271, 222.85939, 971.4092, 236.71048);
        ((GeneralPath) shape).curveTo(954.43207, 272.2429, 949.4931, 317.87027, 913.5794, 341.15378);
        ((GeneralPath) shape).curveTo(902.1659, 348.55328, 877.0461, 361.63727, 862.8896, 358.9467);
        ((GeneralPath) shape).curveTo(837.48096, 354.1175, 853.4465, 326.9881, 857.057, 313.3285);
        ((GeneralPath) shape).curveTo(868.0887, 271.5928, 859.5695, 230.3403, 850.36743, 188.97888);
        ((GeneralPath) shape).curveTo(841.94904, 151.13968, 843.83496, 114.65158, 863.18475, 80.35608);
        ((GeneralPath) shape).curveTo(884.1168, 43.2569, 915.4435, 18.2291, 955.66, 4.95);
        ((GeneralPath) shape).moveTo(970.24, 42.07);
        ((GeneralPath) shape).curveTo(925.02277, 53.774498, 886.3441, 91.1932, 884.3263, 139.6732);
        ((GeneralPath) shape).curveTo(883.154, 167.8388, 891.1363, 195.3718, 895.2928, 223.04669);
        ((GeneralPath) shape).curveTo(897.39667, 237.05489, 898.5856, 251.15129, 899.08887, 265.3022);
        ((GeneralPath) shape).curveTo(899.3241, 271.91568, 898.6236, 278.50787, 898.14777, 285.09348);
        ((GeneralPath) shape).curveTo(897.8348, 289.42587, 895.22406, 297.95477, 897.7701, 301.86987);
        ((GeneralPath) shape).curveTo(920.2414, 283.21356, 928.84827, 250.46967, 939.5591, 224.50958);
        ((GeneralPath) shape).curveTo(950.3642, 198.32088, 963.94257, 175.73988, 986.5658, 158.13188);
        ((GeneralPath) shape).curveTo(1010.7333, 139.32169, 1035.6263, 129.95338, 1063.0001, 147.98997);
        ((GeneralPath) shape).curveTo(1089.758, 165.62077, 1097.3033, 198.67578, 1091.8008, 228.85957);
        ((GeneralPath) shape).curveTo(1086.3411, 258.80927, 1068.1736, 285.13428, 1067.3297, 316.23007);
        ((GeneralPath) shape).curveTo(1066.4484, 348.70667, 1088.6339, 369.28677, 1109.6403, 390.74478);
        ((GeneralPath) shape).curveTo(1119.8574, 401.18167, 1129.2279, 412.2472, 1138.6301, 423.4199);
        ((GeneralPath) shape).curveTo(1142.9817, 424.9816, 1148.06, 425.18048, 1151.7902, 428.20578);
        ((GeneralPath) shape).curveTo(1156.4298, 431.96878, 1157.3595, 438.44568, 1163.5166, 440.7801);
        ((GeneralPath) shape).curveTo(1174.3374, 444.8827, 1191.1539, 432.0203, 1200.5939, 427.56488);
        ((GeneralPath) shape).curveTo(1215.4075, 420.57318, 1233.2418, 426.68158, 1249.0201, 424.93988);
        ((GeneralPath) shape).curveTo(1247.9539, 417.7515, 1241.8545, 410.96848, 1238.0529, 405.0222);
        ((GeneralPath) shape).curveTo(1232.6611, 396.5889, 1227.626, 387.93527, 1222.6277, 379.2653);
        ((GeneralPath) shape).curveTo(1212.4648, 361.6369, 1206.4277, 340.7478, 1209.8094, 320.3743);
        ((GeneralPath) shape).curveTo(1216.311, 281.2033, 1254.3225, 257.7201, 1288.5182, 281.7139);
        ((GeneralPath) shape).curveTo(1298.1287, 288.4571, 1315.6136, 317.2935, 1328.4202, 313.5098);
        ((GeneralPath) shape).curveTo(1334.392, 310.1423, 1335.097, 300.69348, 1336.5262, 294.857);
        ((GeneralPath) shape).curveTo(1338.9624, 284.90808, 1341.9042, 274.8901, 1347.7969, 266.378);
        ((GeneralPath) shape).curveTo(1358.8832, 250.36339, 1378.1748, 247.65509, 1393.6914, 237.6798);
        ((GeneralPath) shape).curveTo(1408.8967, 227.9046, 1417.6249, 209.9796, 1437.1768, 206.97389);
        ((GeneralPath) shape).curveTo(1447.4281, 205.39789, 1477.2258, 199.2188, 1478.6682, 185.81209);
        ((GeneralPath) shape).curveTo(1479.6035, 177.11938, 1469.3384, 170.63109, 1462.7905, 167.29689);
        ((GeneralPath) shape).curveTo(1453.6737, 162.65459, 1446.0802, 156.4195, 1437.3145, 151.27689);
        ((GeneralPath) shape).curveTo(1427.1112, 145.29109, 1395.6675, 140.83119, 1399.6549, 124.80908);
        ((GeneralPath) shape).curveTo(1400.9847, 119.46568, 1405.6693, 118.15128, 1399.1769, 114.979385);
        ((GeneralPath) shape).curveTo(1395.2413, 113.05669, 1390.9608, 112.05079, 1386.793, 110.79118);
        ((GeneralPath) shape).curveTo(1375.469, 107.36868, 1364.1898, 104.638084, 1352.4401, 103.05988);
        ((GeneralPath) shape).curveTo(1312.5776, 94.64339, 1265.9779, 107.13748, 1228.7269, 120.81038);
        ((GeneralPath) shape).curveTo(1190.6365, 134.79147, 1156.1372, 155.52608, 1123.9202, 179.87988);
        ((GeneralPath) shape).curveTo(1117.4087, 185.10458, 1111.2075, 199.35158, 1100.8618, 194.92049);
        ((GeneralPath) shape).curveTo(1088.0162, 189.41869, 1094.8273, 176.83609, 1100.2001, 169.19989);
        ((GeneralPath) shape).curveTo(1102.9714, 165.29169, 1100.7438, 160.40169, 1101.6201, 156.09988);
        ((GeneralPath) shape).curveTo(1102.6788, 150.76639, 1104.4202, 145.50659, 1104.3901, 140.00989);
        ((GeneralPath) shape).curveTo(1104.5958, 125.59919, 1104.7778, 112.20559, 1100.4808, 98.22319);
        ((GeneralPath) shape).curveTo(1085.2764, 48.7486, 1016.1648, 26.8442, 970.24, 42.07);
        ((GeneralPath) shape).moveTo(463.82, 167.69);
        ((GeneralPath) shape).curveTo(455.7573, 171.46991, 451.4114, 162.9427, 444.33252, 161.8813);
        ((GeneralPath) shape).curveTo(436.4316, 160.6966, 428.3818, 168.1091, 422.97522, 172.89551);
        ((GeneralPath) shape).curveTo(418.3547, 176.98601, 410.933, 187.0137, 403.95, 186.63);
        ((GeneralPath) shape).curveTo(393.6752, 187.7946, 390.3385, 178.143, 386.77002, 170.88);
        ((GeneralPath) shape).curveTo(376.9464, 182.56221, 373.1654, 202.8222, 366.63, 216.70001);
        ((GeneralPath) shape).curveTo(359.1565, 231.87251, 344.7317, 230.9674, 336.43, 216.02002);
        ((GeneralPath) shape).curveTo(342.5088, 237.29562, 314.61618, 248.35522, 301.1058, 259.70502);
